,Shared topic 1,Shared topic 2,Shared topic 3,Shared topic 4,Shared topic 5,Shared topic 6,Shared topic 7,Shared topic 8,Shared topic 9,Shared topic 10,ATAC private topic 1,ATAC private topic 2,ATAC private topic 3,ATAC private topic 4,ATAC private topic 5,ATAC private topic 6,ATAC private topic 7,ATAC private topic 8,ATAC private topic 9,ATAC private topic 10
95.06068721922534,-0.4094503,0.043437246,0.17842445,0.6497579,0.83082896,0.16635676,0.48046252,-1.6801898,0.27801016,-3.116324,-1.0018135,0.86506236,-0.38901767,-2.763105,-0.11335366,0.00777302,0.6302567,-0.0061390325,0.044612125,-0.88153523
104.10721613216346,0.8928328,0.09202689,-0.036146004,-0.14135168,0.34331325,0.0056563895,-0.13754646,-0.0110816965,0.08955396,-0.34854802,-0.70132756,0.6192944,-1.6406337,-0.0886198,-0.15497825,-0.26387936,0.4781048,0.48867097,-0.03759837,0.15683877
114.0663487757167,-0.10687498,0.07738563,-0.024029333,0.023321206,0.3061749,0.16578706,-0.037511986,-0.25274196,0.14732046,-0.48885703,-0.7526178,0.43053204,-1.4271849,-0.07988632,-0.18972297,-0.2550586,0.42960423,0.24196135,-0.06634765,-0.046219278
119.08989347482412,0.3436019,0.69957006,0.31964475,0.019263458,0.34245065,-0.04900624,-2.1714883,0.20738797,0.26497552,-2.5946085,-0.16342866,0.43285695,-2.0828216,-0.9266173,-0.06481786,-3.05022,0.9150995,0.60939884,-0.36241075,0.5801585
120.10201086819092,1.2395809,-3.3763244,-0.5088764,-1.0849676,1.0168331,0.3725508,1.0336723,-2.934771,-1.6867707,0.2973314,-3.2863476,1.1475528,-2.4798768,0.69389147,-0.5188167,1.0060662,0.20125155,-0.010274291,0.7785897,-3.1004212
126.02200299722656,-2.3120196,0.56798726,0.15469977,0.011218874,0.51421833,0.5321796,-1.1206692,0.19931352,0.059862696,-0.67221224,-0.08515732,-0.024325613,-1.6306926,-0.7415883,0.1853509,-2.3076518,0.8302886,-0.5205182,0.33496574,0.40098718
130.08648087626347,-3.423478,-0.99668175,-0.03321303,0.3668749,0.64047223,0.36627185,0.6560295,-0.86762583,0.4342252,-0.21322045,-1.3224566,0.6933189,-0.45128566,0.2093169,0.14428714,0.48284578,0.25143266,-1.6395932,0.38889274,-1.7483003
141.07147334429604,-0.23424686,0.5628781,0.18919526,-0.175764,0.34744224,0.118040994,-1.1802682,0.32125646,-0.008829317,-0.85150236,-0.25019962,-0.70700246,-1.8582772,-0.7750197,0.18523706,-1.7186005,0.8135944,0.28693944,-0.28195867,0.5327537
142.94804145265775,-3.3709035,0.019570583,-0.015503127,-0.039263904,0.7553208,0.37189695,0.14791673,-0.15762547,0.13012032,-0.59605294,-0.8273182,0.3097898,-1.3282816,0.17964488,0.19939879,-0.026441935,0.50589305,-2.0330045,0.27186412,-0.071154885
146.16516858340012,1.122118,0.07670959,-0.12859641,-0.19879864,0.39439774,0.006121241,-0.27824178,0.092115566,0.100177385,-0.57773525,-0.7654052,0.86756384,-1.5954689,-0.540693,-0.17065671,-0.41449225,0.46928275,0.7034503,-0.104167186,0.14120436
150.97673966710036,-3.3664458,-0.005135318,-0.021487722,-0.027914641,0.47611117,0.21216972,0.07273373,-0.017539443,0.10441718,-0.19321841,-0.7661742,0.3905822,-1.1488489,0.045805704,-0.066749364,-0.059291434,0.5336576,-1.1274644,0.15849426,-0.06545508
156.07691831543409,-3.6684716,-0.25476035,0.14727311,0.4165329,0.6712592,0.46058264,0.5229676,-0.5689261,0.17960058,-1.0296305,-0.96812385,0.35594085,-0.54390097,0.055852655,0.2082187,0.3242505,0.32090798,-2.4597716,0.42560184,-0.54220307
157.04607935405934,-0.3211906,1.198887,0.7102324,-0.42657804,0.36573806,0.028289778,-3.1881595,0.8008454,0.024955805,-3.1275747,0.16000354,-2.2836058,-2.021649,-2.6988206,0.19147305,-2.8309796,1.1057782,0.3434731,-0.8285902,1.20672
158.04032672175362,-0.083509974,0.71227884,0.39824694,0.037850205,0.39680463,0.19913256,-2.255578,0.4281142,0.01452714,-1.3474607,-0.094782054,-0.62987036,-1.8994726,-0.92920774,0.2939587,-3.1832106,0.8711512,0.34951997,-0.44624838,0.6476799
160.13314159280725,0.24661133,0.32926017,0.07275127,-0.023205657,0.08570754,-0.049772594,-0.5423867,0.12204882,0.3200385,-0.83886236,-0.2141627,0.7084542,-1.7375635,-0.51331234,-0.6661498,-1.0369883,0.6192331,0.20711994,-0.5907864,0.40194795
163.97769453157306,-3.5635438,0.67978644,0.36906952,0.086989366,0.6867736,0.4235162,-1.589278,0.41821328,0.21079855,-0.72597975,0.036014136,-0.7571381,-0.9578702,-0.39455464,0.4006894,-2.9248495,0.95488083,-1.1204582,0.23257709,0.6450523
164.00826925149738,-3.46237,0.4978569,0.123453625,0.028776016,0.8182551,0.43141675,-1.1123841,0.09789446,0.1495816,-0.93537205,-0.26141936,0.16881597,-1.3691838,-0.43109205,0.334668,-2.0861971,0.79084504,-1.735482,0.18560289,0.38816017
169.0948563029166,-3.2191403,-2.6759624,-0.42751658,0.8512725,0.7943407,0.64697564,1.4067413,-2.9684644,0.48930642,-0.8437572,-2.3726616,0.96558225,-0.3349791,0.5561062,-0.22956313,1.1334237,-1.3900737,-2.739546,0.55269206,-2.4706683
169.98583471858657,-3.4148452,0.36333695,0.3425629,-0.075305715,0.96292406,0.57515216,-0.78015,0.037995968,0.07385383,-1.1787835,-0.47101703,0.01607125,-2.1906435,0.26244846,0.48661247,-1.3020891,0.6384427,-2.2861269,0.5104415,0.21334617
176.11822321817183,-2.050266,0.7007271,0.63850385,0.0032386521,1.1505102,0.007167714,0.116779305,0.011762621,-0.96708983,-2.7499526,-0.7060451,-1.6273351,-1.466948,-0.80276084,0.3838721,-0.81718206,1.0572906,-1.0189091,0.27156106,0.5551161
181.06253357277816,-1.4793574,-0.96126235,-0.11640329,0.17820634,0.51947457,0.21386698,0.32339013,-0.003312288,0.36183676,0.020708278,-0.47344464,0.37653625,-1.009473,0.16127744,0.31298694,0.013143632,0.7373377,-2.2057853,0.3926472,-0.9707555
185.05740413292418,-2.542154,0.34974352,0.21371152,-0.12825504,0.7436431,0.7568849,-0.17335412,-0.15519443,-0.043660566,-0.5800177,-1.0815327,-0.24894801,-1.1475848,-0.6469584,0.29913145,-0.24197064,0.9878503,-0.7639886,0.7334298,-0.4313452
188.17563513707617,2.0516365,-0.31537881,-0.535578,-0.703311,-0.6691677,-1.5946809,-2.8317792,-0.06954701,-0.019949479,-0.24275024,-1.0590087,1.239818,-1.6747003,-1.7311901,-1.9639467,-2.8291254,0.5243389,1.4884018,-2.71557,-0.0775586
195.0419453058757,-2.9034138,0.027679572,0.035867784,-0.048306603,0.5412431,0.28382748,0.11680158,-0.10193048,0.138685,-0.23078026,-0.77440894,0.41041574,-1.364561,0.0436262,0.058569122,-0.068303905,0.60288125,-0.8417947,0.19501992,-0.1118117
195.06271277531698,-2.1722357,-0.53868,-0.02923047,-0.28170243,0.85187024,0.5440074,0.43628463,-0.45032194,0.20770708,0.02252532,-1.9973147,0.83959657,-1.0977573,0.3613837,-0.09398218,0.36132565,0.41258994,-2.0613725,0.54061335,-0.5343649
197.05746415042407,-3.061178,-0.0711278,0.02011656,-0.06931396,0.6952819,0.4231572,0.14108816,-0.26159126,0.11996319,-0.22192515,-0.91945153,0.20446077,-1.2289746,0.10683089,0.20701368,-0.096115276,0.56564224,-1.5809743,0.5546576,-0.3451983
202.066501544518,-0.9290381,1.2006966,0.6229221,-0.08235999,0.61111873,0.04025276,-3.7191465,0.8316541,0.37033203,-3.1130128,0.32319516,-1.5330226,-2.0661445,-1.9336172,0.13815235,-3.8679717,1.2713042,0.2501438,-0.60283893,1.2223824
202.09219427994782,-2.340722,0.11178736,0.029161138,0.0023098069,0.35970685,0.6195616,0.20415081,-0.30353308,-0.14625226,0.023758115,-0.32531393,-0.120187886,-0.35633048,-0.459881,0.21575753,-0.1046591,0.5133572,-1.6769835,0.6771333,-0.30141583
205.06005018215913,-0.27110428,-2.2587235,-0.11327042,0.0073977388,0.6287645,0.34876496,0.5071202,-0.81831217,0.41059968,0.09056957,-1.9474674,1.2740582,-1.8061087,0.20840056,-0.13190979,0.35555062,-0.0990239,-0.17685181,0.4921578,-2.6210284
205.12064445969258,-0.09748363,-0.67556554,-0.059345044,0.123812556,0.382984,0.16855986,0.063940585,-0.39780825,0.34620216,-0.3872394,-1.1005592,0.5838208,-0.76256514,-0.13816516,-0.09559584,-0.22120297,0.50549215,-0.19731662,0.23329754,-0.5208376
206.05539519878883,-2.1208532,0.18964691,0.019969404,0.039773844,0.5315866,0.2077209,-0.44306624,-0.033427596,0.2249538,-0.5662232,-0.45547533,0.18923792,-1.2129003,-0.13562381,0.117320575,-1.1884099,0.56262815,-0.404742,-0.066046245,0.16106951
211.07315270468837,-2.3920748,-0.0020486237,0.02386322,-0.09145207,0.5497679,0.36113247,0.104147896,-0.06990387,0.10544465,-0.20377587,-0.84212214,0.28412467,-1.0942421,0.045605972,0.106849104,0.05827055,0.5472608,-1.4681146,0.33952695,-0.17626782
215.06810475732192,-0.8815653,0.0386237,0.0045285965,-0.033600412,0.44472086,0.23884998,0.027724158,-0.03681302,0.096676715,-0.1707174,-0.8003984,0.39477608,-1.387726,0.0002638042,-0.067285635,-0.09023886,0.5307385,-0.37076646,0.20604785,-0.120362304
221.18619238088982,1.1507474,0.9791941,0.5393964,-0.41749114,0.14950226,-0.4109135,-4.022285,0.63054115,0.18212171,-1.387782,0.12466212,-0.07213465,-2.5314746,-1.3462847,-0.19750497,-3.9646838,0.93476135,0.9858657,-1.1980528,0.99654496
222.1963781206182,1.2819972,-0.23704374,-0.18203337,-2.9869847,1.0639192,-0.7045143,-0.85630506,0.6207966,-2.1034803,0.6809469,-1.167402,0.09223679,-2.672366,-1.2422671,-1.099277,-0.2787847,1.3374571,0.7523423,-0.0993056,0.66649103
223.10945238689277,-2.9457865,-0.18704307,-0.03109714,-0.14888394,0.67581624,0.6584199,0.4977407,-0.3773932,0.24858896,-0.10493351,-1.0116844,0.6817976,-0.860082,-0.19702579,0.25960746,0.3916427,0.5647166,-1.4297701,0.6992189,-0.9418882
227.06803885421309,-2.8733554,-0.085850835,0.049720623,-0.0077135307,0.60631794,0.43148893,0.11669646,-0.24951848,-0.022473056,-0.2655524,-0.98204863,0.005440937,-1.0005383,-0.055042222,0.097951405,-0.080426246,0.6567165,-1.618657,0.43637434,-0.18082783
231.06294028159982,-0.4198329,0.15086038,0.04337795,-0.04734148,0.4962966,0.4252955,0.011713357,0.0050695585,-0.13020457,-0.5912746,-1.0847735,0.11678843,-1.4132893,-0.15643674,0.23756532,-0.1296014,0.75472015,-0.36519322,0.3816541,-0.051199734
233.02111811266192,-3.4889438,-0.074502334,0.04108261,0.009467328,0.60659486,0.41263482,0.06786844,-0.035384938,0.14356752,-0.14632787,-0.7171997,0.16625595,-1.0396571,-0.058810018,0.20174614,-0.11880183,0.600223,-1.9129151,0.48113897,-0.15232857
241.0473618927395,-3.3106625,0.1281517,0.008433325,-0.11247127,0.67593,0.46429724,0.1032769,-0.06054218,0.015875168,-0.19385727,-0.7030402,0.046583403,-1.4472309,0.015183356,0.39611772,-0.09936807,0.650044,-1.9958056,0.43689963,-0.06082296
243.0829710976259,-1.7245237,0.3683548,0.063069336,-0.10895138,0.50214976,0.4034425,-0.26552197,-0.075506344,0.0057455953,-0.4313153,-0.75848687,0.2670779,-1.38945,0.11668005,0.093520194,-0.40258312,0.59106576,-0.49804085,0.21818231,0.051317368
243.09931152472012,-0.6010018,0.0103723,-0.017279794,-0.05236507,0.5182109,0.26853675,0.060870256,-0.014014063,0.11530252,-0.17674002,-0.84197825,0.56321573,-1.5121324,-0.023445264,-0.07376549,0.04195803,0.56843746,-0.2351202,0.24043304,-0.13816796
247.09425491750557,-1.5465407,0.20273083,0.07793632,-0.3270176,0.6409526,0.49682322,0.01070065,0.08700148,-0.11425029,-0.25749514,-1.0241697,0.22498262,-2.0211902,-0.18074122,0.17662767,-0.11653243,0.9257549,-0.5551447,0.35212085,-0.09871512
247.2017817863967,1.2685735,1.9557626,0.759157,-2.2203896,-2.3696363,-3.110399,-3.6962287,1.3715149,0.14917931,-3.3364687,0.41248342,-2.1547263,-3.0129123,-3.1813633,-2.3372476,-3.4491165,0.68117917,1.5129164,-3.151408,1.9348791
249.12513134687242,-0.3571908,-2.0042567,-0.2046281,0.20544443,0.009752636,-0.26613164,0.4509041,0.26005998,0.2902922,0.17570136,-0.3661043,0.48447064,-1.6588011,0.20877548,0.2622711,0.100454204,0.80770123,-3.0338128,0.17558968,-1.2433493
251.10447077523585,-3.0247843,0.14754637,0.056434736,-0.16235882,0.6678296,0.532038,0.24572034,-0.11703511,-0.15517029,-0.18832359,-0.90607876,-0.32600972,-1.2470536,0.036752235,0.31939366,0.1059324,0.7417386,-1.6970817,0.6114932,-0.027197896
253.08364230631653,-1.9710469,-0.00060307793,0.0301813,-0.05088416,0.5620222,0.33968064,0.0784597,-0.08165401,0.1312504,-0.31541494,-0.780145,0.3040773,-1.3855314,-0.056076,0.057560004,-0.07663548,0.57704145,-0.98330086,0.2980788,-0.1671834
255.09915080142363,-0.93803227,0.03227771,0.0006103184,-0.055355147,0.48884493,0.24502018,0.018758887,0.04632709,0.0073922854,-0.20461369,-0.85363084,0.35353193,-1.2005192,-0.033074874,0.0057753464,-0.08097145,0.57988757,-0.24166326,0.20736028,-0.10849704
261.07334112304517,-0.72440016,0.01860473,0.12653735,-0.06783824,0.5959997,0.6018842,0.053507425,-0.00060530147,-0.17073387,-0.3956996,-1.3223715,0.10067628,-1.3693265,-0.12734495,0.25640234,-0.15731406,0.9947971,-0.80626625,0.51416916,-0.23733728
261.10966185035926,-0.29342225,-0.16670859,-0.0015159383,-0.014458522,0.56716365,0.3900246,0.32763463,-0.049100682,0.015131953,-0.09443701,-1.116331,0.45973596,-1.3115736,0.056324326,-0.003026786,0.27224118,0.6242176,-0.3180334,0.27884156,-0.27668932
265.11193587583034,-2.4902353,0.11428337,0.68822646,1.1641067,-1.0510807,1.0981991,0.9516626,-0.63116217,-0.22313203,-3.4489338,-1.3447753,-1.2298726,0.13767213,-1.8648685,0.8074411,0.118597455,-0.112645335,-0.39856127,-0.8447677,0.2577131
265.11993582059335,-2.4964392,-0.39928165,0.015075939,0.030637268,0.49568108,0.3380377,0.16081353,-0.11211401,0.084965736,-0.0981898,-0.88263613,0.31749803,-1.0815064,0.10336431,0.30331522,0.040981792,0.61425,-1.6507308,0.30242038,-0.7840296
267.09922367205917,-1.0582701,0.029018262,-0.020050291,-0.06361801,0.5265157,0.2199351,0.008493856,0.03069042,0.16600902,-0.17661737,-0.7570026,0.4897308,-1.3969944,-0.07651011,-0.06996422,-0.10401546,0.5062393,-0.33687705,0.2127552,0.029610183
267.1355665990693,-1.9797443,0.04869573,0.20334215,-0.12538381,0.5778503,0.6249804,0.14484546,-0.2247072,-0.34179503,-0.4207464,-1.0462615,-0.5615983,-0.9199546,-0.16768152,0.51036805,0.055575233,0.47430718,-1.1231855,0.46637595,0.026437053
269.114922695292,-1.999846,-0.003652508,0.021256719,-0.053368304,0.5451215,0.3111366,0.038294025,-0.04395317,0.040841732,-0.2075805,-0.8632658,0.1809362,-1.1362925,0.06210384,0.115527056,-0.015837414,0.55601305,-1.0724275,0.33339468,-0.038049456
275.12535495048786,-3.0316799,0.15922917,0.12430715,-0.2770798,0.47838962,0.61323,0.0540034,-0.10747313,0.18516347,-0.3906359,-1.2817614,0.3647044,-0.9831896,-0.1611848,0.3207102,-0.04066993,0.79046774,-0.95320684,0.49538884,-0.35929337
277.1046854722379,0.1818735,0.0006212549,0.0035304506,-0.036895234,0.41901925,0.31406265,0.05297276,-0.046103947,0.1057981,-0.45886198,-0.8689346,0.6308918,-1.5808634,-0.10415683,-0.07372406,0.021555752,0.64297885,0.1337165,0.21926191,-0.108663045
277.1199314280742,-2.5060894,0.0029190676,0.17093256,-0.041840564,0.6380643,0.5709468,0.0129904505,-0.016072806,-0.22396071,-0.2270814,-1.0778555,-0.15093072,-0.9531949,-0.3418571,0.32606027,-0.106521524,0.69164366,-2.2071757,0.65051633,0.045229785
281.09553527735085,-1.9710673,0.6961358,0.30862468,-0.3715644,0.700543,-0.03413124,-1.957861,0.586286,0.24273644,-0.41645473,0.0040981723,-0.24992125,-2.0135624,-0.23438911,0.09129881,-2.9028687,1.007128,0.026956571,-0.36919978,0.7415583
281.1149839238734,-2.7137928,-0.3672072,0.043083273,-0.009208299,0.5078372,0.4808356,0.23355879,-0.28486523,-0.058972325,-0.019009298,-0.9208954,0.22342424,-1.1177962,0.14933236,0.48631543,-0.0147449225,0.5680843,-1.8357201,0.46604928,-0.80696076
283.1305129141175,-0.88476616,0.001181299,-0.017335376,-0.03483157,0.4998038,0.19565031,0.07117181,-0.011892201,0.08661309,-0.120505005,-0.75238055,0.45254225,-1.4062246,-0.011455222,-0.06372532,-0.026296668,0.57625425,-0.2560493,0.17404662,0.008042922
293.1149201372592,-1.8548385,0.08515815,0.09986449,-0.048324335,0.6104314,0.5371068,0.12653981,-0.12158853,0.019733353,-0.56000984,-0.6279669,-0.18156794,-0.9201661,-0.5442878,0.17483002,-0.16049485,0.84140533,-2.0906405,0.48898077,-0.11072166
313.2138117541359,-1.9973276,-0.22544016,0.034432486,-0.007151055,0.68885756,0.5509259,0.24106734,-0.027006881,-0.14613718,-0.56115323,-1.3377625,0.21734506,-1.5704645,-0.045295317,0.21969067,0.012317264,0.8229678,-1.3679564,0.3377649,-0.4227974
317.11518519135484,0.7972302,0.072803296,-0.032212775,-0.12632315,0.4112006,0.101344906,-0.04427642,0.007710904,0.08642314,-0.28211826,-0.71997213,0.6774969,-1.5545981,-0.058840033,-0.107110836,-0.1939023,0.5246236,0.43698975,0.024173077,0.084077336
325.177311613809,-0.6396072,-0.010366536,-0.015039166,-0.021065865,0.48300326,0.17749944,0.05362911,0.0007098649,0.12660353,-0.13303268,-0.75705916,0.56529766,-1.3552254,0.032595214,-0.024210954,0.017404223,0.43357202,-0.4537047,0.1598665,-0.0468337
327.19299949538106,-0.54722774,0.09984824,0.037539158,-0.082029596,0.48158994,0.4504318,0.1706467,0.031238452,-0.21413648,-0.434954,-0.8549455,0.28836712,-1.5949833,-0.48014727,0.35632896,-0.07359804,0.70785576,-1.0373824,0.34766117,-0.13488093
327.22900665844,-2.5308797,-0.3193694,0.1645008,-0.31876513,0.48219368,0.69375086,0.7948125,-0.8947453,-1.3515847,0.7307742,-2.4316788,-1.0992914,-1.4536581,0.5747394,0.39668822,0.9804756,0.5623113,-2.7212255,0.8702784,-1.4885564
331.20901611987676,0.5367638,-0.32670736,-0.08075743,-0.037901353,0.5084017,0.24831304,0.2219608,-0.21265922,-0.010640692,-0.10957445,-1.4395343,0.85926586,-1.548005,0.118127234,-0.3146472,0.112223774,0.42621994,0.35932073,0.33087027,-0.43955058
382.2223302420728,-2.2346344,0.033950437,0.14375733,0.24513827,0.66841036,0.4773535,0.14161287,-0.5742408,0.025309483,-2.863391,-0.651553,0.19254798,-1.6741076,-0.549298,0.18811348,-0.41083214,0.77453864,-1.1057652,0.26545042,-0.1683388
394.2438161819251,-3.1159804,0.32228565,0.10006321,-0.9342021,0.16194275,0.36230847,0.42237076,0.5638903,-2.1505466,0.5975724,-0.6949102,-2.7372682,-1.5672611,0.12568519,0.30538175,0.44087237,0.56090826,-2.1603851,0.38694268,0.41524565
399.17773468337884,-2.049504,0.035786193,0.18665949,-0.3633655,0.557172,0.6700492,-0.04540225,0.1260445,-0.6588382,-0.0041846195,-1.594048,-1.1818879,-1.13797,-0.07751156,0.30245855,-0.3508567,0.8159602,-1.8436399,0.6669147,0.10486715
400.3421458375981,-0.19503161,0.735717,-0.24845223,-0.36167815,-0.2100782,-3.3346353,-2.4213755,1.2176397,-0.23926568,1.3547901,0.6379697,0.22666901,-0.95670366,0.70272917,-2.0297835,-2.6632693,1.059277,-0.0925936,-2.3233137,0.9976032
409.2714046851231,-3.5609243,0.0075953812,0.13609801,-0.07479834,0.576027,0.5608771,0.24017164,0.08444917,-0.87106776,-0.101549484,-1.1270005,-2.011384,-0.78484964,-0.16224344,0.54342985,0.0032063513,0.6907704,-2.5475092,0.54832304,-0.120654754
417.24002955088895,-3.2695358,0.3326835,0.18981299,-1.2696661,-0.46215627,0.46498218,0.32961854,0.80878454,-2.8768442,0.8395546,-0.9148968,-3.1045253,-1.6248418,0.1702302,0.47535178,0.4918391,0.19745524,-2.9567695,0.49205458,0.7021751
424.3420088682949,0.28873524,0.38717383,0.02148393,-1.1306876,-0.32484084,-0.7943745,-1.1477244,0.7986119,-0.15780668,0.8777727,0.02586052,0.443945,-1.8136464,0.15307808,-0.56109214,-1.0416263,0.7939886,0.32522878,-0.78373736,0.6151541
427.36111282551303,-1.1687157,-0.05553819,-2.6871996,-3.4016511,-3.0534842,-3.3786154,-3.543147,1.5107605,0.3740621,2.1558175,0.89949405,0.55688393,-2.3443162,0.9065955,-3.0101943,-3.1688423,0.16467619,-0.7431224,-2.9472215,0.9170064
443.2402929517617,-1.7107029,-2.46637,-0.726436,-0.8029372,0.66320425,0.3723123,0.80486107,0.26692235,-0.4528922,0.99851847,-1.4182242,-0.46580118,-1.9295282,0.74289423,0.07287418,0.91264963,0.574743,-2.0393684,0.64760417,-1.7265754
483.0757223974028,-3.3881483,-0.35313243,0.28162828,-0.11454394,0.91134536,0.4608874,0.04478753,-0.017275782,0.27188414,-0.3776118,-0.859834,-0.69866097,-0.1927789,-0.038705304,0.61293435,-0.35526118,0.6799885,-2.3026483,0.78011173,-1.0727367
518.3211782528595,-3.6072388,-0.8438828,0.24843098,-1.2892759,0.81047106,0.6691707,0.7389584,0.618093,-3.2788615,0.58559567,-1.3425786,-2.6793358,-1.8004544,-0.095943585,0.64325505,0.74902767,0.8115138,-3.5109541,0.7533014,0.35173836
544.3377205303616,-3.74235,-0.085924886,0.10640969,-0.49309784,0.44689596,0.46667743,0.65312713,0.4318719,-2.2390404,0.54666436,-0.8097026,-1.9219347,-1.3872166,0.23845738,0.37822685,0.61678,0.57975465,-3.4826832,0.5843497,0.28922123
559.0931126248909,-1.7051973,-0.20748115,0.06547295,0.017038092,0.59232694,0.2855709,0.046559338,-0.068803474,0.19014433,-0.4866877,-0.5971776,0.15788758,-1.3574817,-0.25484952,0.18218109,-0.20660107,0.6859573,-0.44687212,0.3311827,-0.3859777
597.2685359417759,-0.87481135,0.2271419,0.29971635,-0.41392004,0.54795915,0.78656524,0.020209791,0.1205535,-0.8252433,-0.70744383,-1.4393591,-0.8428125,-1.1440203,-0.32745832,0.43345132,-0.19145402,1.0132829,-1.5132085,0.43506253,-0.12249632
615.4957687178843,-2.5104895,-0.21055494,0.06638112,-0.18194793,0.3414375,0.4876421,0.5337422,0.22006927,-2.7545466,0.32605568,-1.4100045,-2.2681577,-0.5102449,0.04567752,0.3039143,0.5193824,0.5141989,-2.3439198,0.3361689,0.17154798
632.113831429033,0.29429957,0.021002239,-0.008578133,-0.073348515,0.4527789,0.2108273,-0.018050479,0.01195543,0.106379665,-0.2368033,-0.691758,0.70331377,-1.5482476,-0.031846825,-0.08462537,-0.11047948,0.59913296,0.17301753,0.13687867,-0.047511213
632.4730362885023,-2.6838696,-0.27651778,0.32128373,-0.08589589,0.2560666,0.80019164,0.6838243,0.4286395,-3.131906,0.20349596,-1.8948765,-3.3244083,-0.35757476,-1.2610738,0.71889037,0.68699133,0.36330348,-2.5446002,0.603567,0.4283251
633.1117401972615,-0.029236954,0.07197082,-0.008008829,-0.04771768,0.5432173,0.2752015,-0.079351276,-0.016655367,0.080037154,-0.29390937,-0.8173256,0.55935246,-1.4269062,-0.09368358,0.01457751,-0.20272991,0.6355194,0.09732547,0.22310816,0.010985599
634.4889074555051,-2.6658351,-0.035589434,0.31434852,-0.09404707,0.15758397,0.880926,0.6924456,0.26304337,-3.4915528,0.16729732,-1.2257258,-3.1655264,-0.48000422,-1.0080699,0.6662781,0.7183044,0.1217803,-2.9419973,0.65324384,0.4099539
636.5557191988065,-3.218147,-0.5586396,-0.020557024,-0.2875997,0.2190031,0.7748029,0.827572,0.60438275,-3.1943917,0.89992297,-1.3987132,-1.6376419,-0.51915604,-0.26066428,0.46921337,0.8989683,0.55103195,-3.0834868,0.6383406,0.059406158
638.5712654688349,-1.9890096,-0.81051725,-0.17163073,-0.66196823,-0.5730687,0.83941495,0.9516508,0.6147492,-3.214105,1.1322414,-1.444479,-2.9788258,-0.45282912,0.11193856,0.42653796,1.1326668,0.21452138,-2.933384,0.6245149,0.25472355
639.4958013225602,-3.5373807,-0.8406676,0.18167342,-0.19388956,0.42299893,0.82842076,0.890934,0.4887751,-3.6794546,0.6660551,-2.24382,-3.1328778,-0.71877414,-0.22939892,0.60909796,0.9125205,0.38243783,-3.026549,0.67173827,0.14070693
642.5148600574103,-2.397843,-0.35219598,0.009682265,-0.12124169,0.2985802,0.6743768,0.74725217,0.48900208,-2.4890158,0.66425526,-1.6499333,-2.8973646,-0.5227726,-0.06816041,0.50048316,0.76260006,0.53924096,-2.7638922,0.47814593,0.31764176
644.530196975248,-3.0326595,-0.5400835,-0.22169141,-1.0856588,0.28414145,0.86421245,0.9551675,0.66585284,-3.0383265,1.0128757,-1.5356643,-2.7617037,-0.9726787,0.25530156,0.562816,1.0462253,-0.03855693,-2.954877,0.62096995,0.28281426
660.504384671851,-1.5408543,0.25630096,0.18426514,-0.48025006,0.0050245365,0.47086796,0.29290143,0.45416135,-2.124935,0.3782475,-0.6811579,-3.3066432,-0.5540915,-0.25971144,0.2655637,0.29298192,0.58267844,-2.5686316,0.19045085,0.5154907
706.1323636420491,0.10100861,0.04372938,-0.01119712,-0.03481146,0.48068562,0.2332635,-0.0009079297,0.022633161,0.0846218,-0.28746167,-0.79668987,0.54755145,-1.3356223,-0.024603276,-0.09088507,-0.1807817,0.6088137,0.022771802,0.1795699,0.042062037
707.130415769561,-0.28623322,0.055027008,-0.012624642,-0.008208759,0.46965006,0.2124759,-0.0020690304,0.0036006416,0.083970204,-0.2949407,-0.7815755,0.56404793,-1.4959593,-0.07744897,0.0136637,-0.14762922,0.6270988,-0.23289935,0.22252092,0.0048042773
759.5718929798202,-3.071947,0.11332887,-0.0084702,-1.0848753,0.23017442,0.05752228,0.33458078,0.8536234,-2.6586494,0.7085557,-0.7048898,-0.8168529,-1.3586234,-0.34743905,0.053972714,0.39088342,0.9058318,-2.1401875,0.25246403,0.64303124
760.5829527068927,-2.4948244,0.3273796,-0.00457139,-1.1762416,0.43755862,-0.022599872,-0.07598868,0.82054037,-1.0470235,0.6964386,-0.1570824,-0.51680386,-1.5811722,-0.101634905,-0.017473143,0.0542131,0.9649335,-0.9222248,0.11826242,0.583236
779.1503449975296,-1.221028,0.037809495,0.020844914,-0.022869602,0.61736834,0.43972498,-0.011569123,0.099296786,-0.08104787,-0.5156604,-0.9424792,0.35921997,-1.2286837,-0.32578573,0.11477571,-0.14029244,0.7490476,-1.2965848,0.39411032,-0.10952613
783.5699074493093,-3.4673178,0.42439094,0.042568576,-1.2186432,0.19546506,0.13723119,0.13817763,0.77216387,-2.039168,0.5975591,-0.31605712,-2.1582305,-1.3206536,-0.1851062,0.1217077,0.13613228,0.8014537,-2.4449255,0.1617946,0.7661517
784.5815742620601,-2.5732796,0.14378878,-0.143428,-3.0034173,-0.03626263,-0.25723672,0.36123455,1.3019834,-1.7722646,1.0585014,-0.1118002,-0.75453734,-1.9850386,-0.8391309,-0.2040007,0.5971153,0.90027916,-2.2923028,0.29675132,0.9860937
786.5999111141772,-2.1940234,0.46032646,0.12072881,-1.408971,0.2829774,-0.07957818,-0.1375157,0.7465073,-1.0111191,0.58087933,-0.19926833,-0.486461,-1.6028284,-0.17125458,-0.03295425,-0.092253685,0.9282999,-0.9656291,0.009954468,0.62776303
787.6035388924582,-2.8970513,0.6499542,0.15155613,-3.3152847,-0.7579267,-1.0351222,-1.5501761,1.8279917,-2.8182793,1.172335,-0.42847812,-1.6365969,-2.5734267,-0.680156,0.0071486863,-0.51986337,1.2474505,-2.7544012,-0.83392924,1.6634629
797.5279016327892,-3.540312,0.636793,0.42072228,-0.87801033,0.32933667,0.27339143,-0.0013427482,0.86526245,-3.1859102,0.48727378,-0.35660264,-3.362922,-0.8886408,-0.74205613,0.475461,-0.21887662,1.0128038,-2.8923304,0.1843116,0.9677741
798.538388995223,-3.0233986,0.70578814,0.29562062,-0.81579167,0.3269886,0.11449237,-0.35939834,0.8011519,-1.0471041,0.44583556,0.032996323,-3.2845163,-1.0448714,-0.5879194,0.3519893,-0.5879464,0.93294615,-1.1295477,-0.089993484,0.8474141
804.5505835336571,-3.6444645,0.08873109,0.17090647,-0.77586263,0.1461416,0.2963078,0.6165118,0.820525,-1.9938167,0.5888322,-0.31041098,-2.901369,-0.90204686,-0.7700125,0.29522786,0.66081583,0.51963675,-3.2629364,0.38627496,0.7524028
806.5647575494983,-3.4768403,0.4177058,0.022139117,-1.0384823,0.15428767,0.06136525,0.28139743,0.73682433,-1.5645657,0.5342732,-0.18229635,-2.525188,-1.4840953,-0.25887656,0.09969668,0.29634842,0.7765787,-1.9749674,0.13710317,0.7004082
807.568920599558,-3.4972816,0.26290876,0.08620567,-1.884949,-0.416107,-0.19640258,0.13331005,1.541861,-3.1930966,0.9151055,-0.38304645,-2.9535837,-1.5470808,-1.5151582,0.25752196,0.59016764,0.47970715,-3.1061873,0.05372257,1.4069035
809.5853423792465,-3.559038,0.8319895,0.31509328,-2.247841,0.29838023,-0.046814352,-0.12638424,0.9734163,-2.0786448,0.7284473,-0.032148615,-2.8118906,-2.0515728,-0.42687228,0.47266757,-0.111382715,0.9455508,-2.7205868,0.06857705,1.0450281
810.5966621526368,-3.0590699,0.8296421,0.45450884,-3.2393975,-0.057050575,-0.050640907,-0.7541595,1.3045481,-2.4675176,0.8033921,0.09068863,-1.7190927,-2.4605558,-1.2649025,0.4804951,-0.1653084,0.6296399,-2.5608294,-0.20857404,1.3524003
818.4274786359504,-2.1547704,-1.9161413,-2.6133132,-0.31085208,-2.195129,-2.631278,1.2517494,-2.6845164,2.7832685,-1.9341264,1.8781277,-0.9188993,-1.3122319,1.9176753,-1.9944602,-1.2003306,-1.8360983,0.6366459,-1.9350883,-1.9615461
820.524156497036,-3.5892744,0.52227396,0.5434901,-1.2302729,-0.005420831,0.3149623,0.072870165,1.2174276,-2.8033333,0.413735,-0.26836792,-3.1240609,-1.0852624,-1.3921095,0.7481259,-0.38297054,0.5671776,-3.1995637,0.2805369,1.2825649
824.555825892178,-3.2577658,0.7534468,0.3871372,-1.138271,0.32653683,0.06636312,-0.5448039,0.7814877,-0.9003267,0.43768293,0.095263824,-2.890218,-1.339216,-0.3779897,0.23304075,-0.488909,1.0416152,-1.3179533,-0.21191408,0.8580453
855.7394047398545,-3.1437469,-3.1379473,0.4999508,0.79775524,0.64968276,1.3725624,1.4853321,-2.0906885,-3.2336526,-1.2100223,-2.8574283,-2.8401935,-1.2530475,-0.34464848,0.8521699,1.3943729,-0.30648643,-2.939784,1.0532426,-2.5701797
869.6983997542958,-3.1739573,-0.29970464,0.5791824,0.49194887,0.605312,0.935925,0.7683229,-0.0154155465,-3.0043216,-0.9233917,-1.9835163,-3.016689,-0.7622365,-0.7720625,0.80761594,0.5996428,0.6201628,-3.1412885,0.698833,0.16449127
871.7132406009542,-3.5987694,-0.148195,0.3154361,0.34154063,0.5144348,0.6290797,0.50814986,0.09796734,-1.7765614,-0.36476398,-1.3901565,-3.130771,-0.4996953,-0.48214784,0.45683897,0.4170855,0.73670816,-2.8409817,0.47514054,0.24947862
872.7176540297351,-1.5188718,-0.66623366,0.61849576,0.45311484,0.23991513,1.2152718,0.9771962,-0.28724003,-3.1860795,-2.030407,-2.5112116,-2.912756,-0.6006226,-1.8091576,1.05008,0.77568424,0.35801637,-2.7885532,0.6802503,0.025583142
874.7845865062392,-3.0756624,-3.3290625,0.011652422,0.20576838,0.3138193,1.1528265,1.25453,-0.18439953,-3.3094203,0.6015914,-2.74694,-1.6778532,-0.8290766,-0.47992125,0.4652727,1.3131264,0.45718253,-3.2362576,1.0523883,-1.5147619
876.7994265118355,-3.372183,-1.8517244,0.021030867,0.035466317,-0.10662721,0.9657573,1.0947866,-0.31553027,-2.468199,0.7252751,-2.100086,-1.2062775,-0.8705377,0.19632907,0.49164507,1.1337249,0.4043603,-2.9151385,0.62694854,-1.5028459
879.7397730424627,-2.077103,-0.55472654,0.05095875,0.14563832,0.44509763,0.4632397,0.48819742,0.102597326,-2.0051577,0.1941657,-1.7085286,-1.7820334,-0.5411228,0.074248634,0.29364902,0.47202116,0.5841907,-2.5237393,0.3694318,0.012414063
880.7436150035622,-2.0879412,-2.554853,-0.043701388,0.23544745,0.4158579,1.0303671,1.1373229,-0.09137418,-3.3000257,0.41321173,-2.7399507,-3.1700597,-0.6683397,0.019743675,0.58520806,1.0938921,0.37992075,-2.6827393,0.7755724,-0.7981867
882.7588778658212,-3.4202223,-2.1770082,-0.01727779,0.23781835,0.5133298,0.96623707,1.0847846,-0.1561236,-2.6771283,0.6070784,-2.3254066,-2.5483706,-0.41862926,0.23373301,0.5465314,1.1032138,0.11761698,-2.8638334,0.70600533,-0.7221049
893.6984807001496,-2.8411007,-0.2105205,0.3237699,0.3263446,0.47335324,0.74417716,0.5576387,0.26176688,-3.0835485,-0.29426798,-1.84625,-3.1368358,-0.3713233,-0.8466718,0.6646784,0.41253966,0.74931765,-3.094613,0.31848663,0.30857772
899.7393016910557,-3.627065,-0.03977489,0.45933467,0.22192901,0.22888263,0.85231847,0.45429543,0.13136409,-2.3465536,0.013857766,-1.7830122,-3.2275994,-0.35695657,-0.35543305,0.6855711,0.4887487,0.4530985,-3.2024033,0.46619856,0.5076733
902.81480752945,-3.3032897,-2.5311515,-0.2937012,-0.13263685,-0.010072223,1.0912309,1.2356297,0.33143148,-3.3171647,1.087929,-2.445177,-2.2142372,-0.49913037,-0.36093378,0.5256785,1.4136254,0.28017855,-3.0609539,0.8871003,-0.9463546
905.7553324984265,-2.7668552,-0.739484,0.014065244,-0.12645337,0.48429957,0.6056359,0.660576,0.266543,-2.0779006,0.41355345,-1.5055823,-2.2853315,-0.8097797,-0.08532347,0.44127488,0.7173444,0.52965,-1.7550398,0.43422586,-0.00973117
906.7590834625811,-2.8037133,-2.1401882,-0.17347346,-0.6984297,0.53067744,1.2197077,1.2383722,0.14263934,-2.324458,0.49546665,-2.1133316,-2.029301,-1.9636134,-0.7300104,0.67512286,1.4291351,0.22256324,-2.4264677,0.8718617,-0.22636633
907.7703952060843,-3.3693268,-0.30866912,0.027986012,-0.032240365,0.47340253,0.634391,0.6281504,0.3900008,-2.111831,0.5720042,-1.1361048,-2.7248337,-0.6012705,0.24554263,0.34083977,0.62782025,0.65734875,-2.7274766,0.40460148,0.2411298
908.7745114487701,-2.119189,-0.99926996,-0.73869747,-0.44365123,0.42100045,0.94036233,1.036907,0.3327142,-2.5880556,0.86985743,-1.4576346,-2.9657862,-1.4837916,0.3610768,0.7990865,1.1959999,-0.50683427,-2.7370903,0.6798915,-0.24877179
919.7137760898212,-1.019164,-0.09831237,0.18798286,0.010869699,0.45695108,0.5314965,0.33564574,0.31475303,-2.8560543,-0.22728968,-1.233728,-2.804638,-0.42273536,-1.1988676,0.46371335,0.1865359,0.7126066,-2.901757,0.26735395,0.38652626
920.7174550537826,-3.1882043,-0.287489,0.39476782,-0.074129835,0.57042193,1.0520183,0.74447006,0.557076,-3.5071905,-0.7083854,-1.7332793,-3.026459,-0.85358936,-2.5837665,1.0946198,0.569314,0.88548106,-2.6490731,0.58167946,0.22989249
922.7329686139682,-2.033064,0.17428572,0.068039626,-0.08926262,0.35652322,0.4305764,0.18800257,0.34446695,-1.8132406,0.035349645,-0.9336738,-2.8282683,-0.45073783,-0.6138482,0.2381618,0.15369387,0.67218804,-1.736675,0.21453446,0.44320747
925.7571038273928,-3.4736657,0.3249965,0.06318892,-0.1284592,0.19795628,0.5247369,0.16495423,0.4524387,-2.4287765,0.3863541,-0.93937665,-3.067871,-0.57970184,-0.0103607075,0.3390881,-0.0069910027,0.6189695,-2.331837,0.20824665,0.5947934
88.04038948230482,0.83345884,-0.15174237,-0.51071537,0.7658136,0.13501824,0.014342767,-0.4419981,-0.7845384,0.52800167,0.13444182,0.23449183,0.74693614,1.3264539,-2.5835376,-2.5039222,-1.4368227,-1.256262,0.49787435,0.3892051,-2.4499505
118.0228939088949,1.7098957,-0.164312,-1.1933413,0.57643616,-2.1539204,-2.621707,-1.0088998,-0.09761388,0.639334,0.22227384,0.10636094,0.8505202,0.98788315,-1.2215409,-2.875322,-1.8819999,-1.3876947,1.1599203,-2.0477865,-0.68732595
125.00134359200638,1.2045352,-0.10739105,-0.23391888,0.30202553,-0.29812852,-0.10003185,-0.16618212,-0.3607372,0.3329657,0.14528649,-0.45737183,0.87908274,0.15504333,-0.12818554,-1.2053487,-0.3835637,-0.49494824,0.78995275,-0.074040666,-0.4067283
132.94636583117958,1.1537684,-2.1287344,-0.2163926,0.7959916,0.41145942,0.48648694,-0.6516504,-1.1051946,0.38146368,-0.08621248,-0.4927144,0.6227785,1.3104268,-2.5545585,-1.7505491,-2.4287255,-2.0573475,0.6554973,0.7755491,-2.9129918
139.02313448504393,1.1574188,-0.12441883,-0.25488508,0.030029822,0.06960722,0.0026992569,0.056223396,-0.18789451,0.10553997,0.2143576,-0.44044378,0.52955085,-0.31723383,0.028193379,-0.39690965,0.0423887,-0.3818154,0.6047784,0.10161265,-0.20877278
155.10785829974634,-0.6885589,-0.23517117,-0.013834927,0.37665537,-0.04140861,0.04198471,0.44641796,-0.6167433,-0.30521104,0.6052483,0.22909345,-3.2966542,0.400915,0.32081434,0.4082494,0.33561757,-2.1314652,-2.1113446,-0.24939618,-0.30025935
187.00169540760507,1.1358675,-0.43968922,-0.21803585,0.41664243,0.03275614,0.11359573,-0.3725004,-0.7370233,0.25737464,-0.04326075,-0.22753252,0.8464909,0.64584386,-1.0587572,-1.0044458,-0.93606347,-0.9679926,0.5961841,0.4253706,-1.3376923
188.06161420969258,1.8172356,-3.6011999,-1.5521147,0.30970675,-0.43418717,-2.560671,0.72435373,-2.5303395,-0.15846528,0.20318079,-2.7177155,1.0557257,-0.051246915,0.2694918,-2.648351,0.65292424,-0.68228406,0.75056237,-3.20179,-3.358399
196.05467685267845,1.0512629,-1.5841161,-1.641623,0.9061842,-0.58701825,-1.1760828,-2.3195398,-0.65822816,1.1494453,0.9779735,0.5765834,0.51534754,1.6640006,-0.68965954,-3.0887125,-2.8331964,-2.022742,0.68563956,-0.46181306,-2.824072
197.92142179424647,1.4961779,0.052008994,0.005914908,-0.054353528,-0.441538,-0.4251578,-0.32667977,0.037068084,0.005625392,-1.1393818,-1.5001736,0.8637182,-1.4321529,-0.4414941,-0.51995337,-0.6070599,0.51067775,1.022043,-2.6861894,-0.004186101
203.00783554791133,1.347639,-0.08556255,-0.03189878,0.4941638,0.18557122,0.12487033,-2.7916682,0.014003405,0.007837787,-0.46584484,-0.41063792,0.6735492,1.0629606,-2.6906762,-1.9563857,-2.3586411,-0.77698,0.7898683,0.10864156,-0.965588
216.9287627592466,1.7620047,-1.1345642,-1.1416572,0.7607842,-0.8075645,-1.9033287,-0.25951675,-1.4887677,0.64060825,-0.9153219,-0.37760162,1.3510114,0.90036154,-1.7035818,-2.5033693,-1.3269,-1.4551828,0.85244554,-1.412986,-2.3922894
217.01241249182988,1.8413466,0.23011218,-1.3396274,0.20439762,-2.869643,-3.390278,-2.1988509,0.29084945,0.83067566,-1.0651058,-1.6716168,1.1480274,-2.2148092,0.19628024,-2.834,-2.6879795,-1.0681368,1.6616343,-3.3886116,0.12486655
224.95798481468776,1.6937203,0.19590321,-0.1979309,-0.014157884,-1.050682,-1.7735173,-0.7726129,0.26160723,0.4351176,-2.4221897,-1.888497,1.0761606,-1.8904843,-0.5300358,-1.7725756,-1.5616688,0.14638834,1.304962,-3.5122774,0.24696614
225.06208254065837,1.0475014,0.022319006,-0.31455237,0.59148026,0.1916073,-0.056189917,-0.6171626,-0.5284908,0.4079471,-0.17503268,-0.116625376,0.6876921,0.9538387,-1.798585,-1.3978894,-1.381216,-1.3315027,0.680408,0.224539,-0.91912276
227.20205935346317,-0.8451536,-0.8793299,-0.26806295,0.21472451,0.29823908,0.5462456,0.47188437,-0.90587026,0.0563442,0.46471214,-0.34510612,0.13939792,-0.15812118,0.52028024,-0.12032697,0.38122833,-2.3030715,-1.6449974,0.8448518,-0.938424
228.0514646729996,2.2935734,-3.7436793,-0.86465436,-2.949462,0.08150798,-3.1560204,0.64105153,-3.5765865,-2.6892838,-0.81339246,-3.3639905,1.23562,-2.8556376,0.3420834,-2.3569412,1.0714556,0.22620538,0.5771841,-2.1579003,-3.4620209
228.064637989851,0.89421797,-0.38788512,-0.2976081,0.70430684,0.2105352,-0.23128009,-0.4041154,-0.32956058,0.5513633,0.01071753,0.04372283,0.4754996,1.0108443,-0.6580598,-1.5009173,-1.1214526,-1.2628005,0.62951267,0.121251166,-1.0220904
229.01209235449537,1.0334067,-2.6850533,-0.2857941,1.0981082,0.4087472,0.7480539,0.25158232,-1.598381,0.16379042,-0.55851376,-0.4527618,0.10606418,1.7290623,-3.500205,-2.4989688,-0.32456756,-2.2015676,-0.16223972,0.88332,-3.2847996
236.00500697158222,2.309573,-1.7951198,-0.18283825,-0.10570899,-0.88316166,-2.224994,-0.48319912,-3.078555,-2.1491635,-2.6277866,-1.6640751,1.4467374,0.44353133,-2.4268942,-2.3025951,-0.745195,-0.18053803,1.2434098,-1.979218,-2.725117
239.01703058836446,1.1302739,0.07041598,-1.0340302,0.61955625,-0.1964198,0.28989232,-0.51482314,-0.2199818,0.3474425,-0.7780286,0.27821234,0.6750536,1.0735875,-2.629916,-2.358459,-0.5955038,-2.4759083,0.47352564,0.5778403,-1.140822
241.2176960257089,0.016533554,-1.5108327,-0.5947534,0.09160838,0.09598908,0.3203028,0.2801641,-0.6740557,0.22305512,0.8514437,0.12507913,-0.2918697,0.4734862,0.50912577,-0.23668402,0.06638559,-2.299201,-0.43112108,0.6440805,-1.8441586
242.08027287992675,1.0387207,-0.28194636,0.18675701,0.055195462,-0.20806147,0.18249787,-2.841222,0.029269215,0.7914428,0.3564215,0.44765574,-0.71903473,1.6368071,-3.0252962,-2.5960574,-3.1188345,-1.7495731,0.44910395,0.70029616,-2.3905764
245.05446506999195,1.1410873,-0.22598557,-0.40249994,0.5848636,0.2561868,0.05647049,-0.9153357,-0.3751834,0.39942393,-0.19092871,0.13064376,0.73269725,1.123224,-3.1241684,-1.8661344,-1.9154303,-0.7044137,0.60973924,0.3637129,-1.5528167
246.99766673576985,1.4417053,0.103682496,-0.05899935,0.06937368,-0.40466765,-0.7857622,-0.45467666,0.11126371,-0.075142406,-1.1704404,-1.3970349,0.855642,-1.4896075,-0.64444286,-0.5140722,-0.91635126,0.49343312,1.029359,-2.8957322,0.17402896
253.21776629818507,-0.047609787,0.01733463,-0.025967496,-0.053174395,-0.024146713,-0.07552637,0.048879027,0.026071198,-0.016390387,0.077133134,-0.20097691,-1.1533552,-0.82815385,0.21354581,-0.0040039415,0.03673363,-0.24808612,0.20682336,-0.3211038,0.07883177
261.1344547102119,0.83882684,-0.32825708,-0.95346683,0.3016011,0.036889203,-1.2307847,0.17661057,-0.56513095,0.022982534,0.78144705,0.5317102,-1.9601141,0.9223052,0.16291246,-1.1773058,0.18887693,-0.6604843,-0.24095061,-0.68923324,-1.852522
266.00492904138997,1.5791351,-0.5438879,-0.5674521,0.41346544,-0.95133054,-1.6022686,-0.052378125,-0.6467767,0.49246907,-0.6933458,-0.83894074,1.2512546,0.36688238,-0.47019655,-2.0861413,-0.7153397,-0.6152011,1.0125695,-2.8012633,-1.3566002
270.0913605695849,1.9162306,0.38973176,-2.0680804,0.6214371,-3.1024399,-3.5540895,-2.2132106,-0.3036397,1.2344353,-1.9089423,-0.08705992,1.4275498,-0.29827312,-0.6994144,-3.0159826,-3.0640519,-1.9065746,1.6384389,-3.314083,-0.6728441
271.10340537771975,2.117662,0.6973617,-1.9817836,-1.0520089,-3.3697016,-3.8033981,-3.5683742,0.6531881,1.2220793,-2.7767391,-0.9327576,1.4997007,-2.7108302,-0.7141488,-3.1758447,-3.1309953,-1.6803408,1.9256939,-3.4340146,0.41086492
274.1119440695617,-0.08016973,0.7255971,0.06635087,0.6759996,-0.36201373,-0.6534374,-1.266246,0.23455644,0.33322266,0.0865963,0.57601243,-1.0297931,1.1129591,-2.5236547,-0.67467374,-2.9458313,-0.4362015,0.19765037,-1.1748784,0.36693132
275.0887830751128,1.2970259,0.07557382,-0.4456946,0.727331,0.15108632,-0.15806821,-3.397573,-0.024200233,0.4550684,0.12361541,0.56333196,0.9394253,1.4729689,-3.6155524,-3.1121428,-3.4988375,-1.5972551,0.5889139,0.363504,-2.2322545
281.0518004312097,1.7218428,0.44993803,-0.7013363,0.37121648,-2.9440186,-3.3494267,-1.3082002,-0.42992806,0.9787271,-1.1175783,-0.19390431,1.3046153,0.20316117,-0.32266244,-3.2078025,-3.151516,-1.0815805,1.3099699,-3.2390199,-0.3039794
281.24029940640725,0.8375207,-2.1243963,0.33678204,0.9330426,-0.8361681,0.4312611,0.46326518,-1.611843,0.90621036,-3.0595183,-2.8272157,0.2528106,-2.3207295,0.14058666,-1.401092,0.67259806,0.31924388,1.125479,0.012861321,-1.7154827
283.25573969089584,-2.8328106,0.26557958,-0.0074424404,-0.027672814,-0.5687375,-0.1081768,0.4506394,0.1744247,-0.25298953,0.57596326,0.28342864,-3.239122,-0.20770478,0.49863672,0.31571463,0.35500127,-2.1954308,-0.82063305,-0.69431883,0.34535214
284.26762446091493,-0.67721945,-0.062366612,-0.24156277,0.2337693,-0.52857906,0.0163893,0.34920865,-0.2736963,0.39209408,0.44045037,0.2913761,-0.22749838,0.23511365,0.20072563,-0.19078782,0.26933149,-1.5583911,-0.24178237,-0.24730736,-0.36001787
292.0721573455238,1.4172567,0.4518963,-0.44112444,0.34419373,-0.5164129,-0.66826034,-3.390921,0.30244812,0.5517888,0.18908137,0.35630918,0.8504085,1.076217,-3.0501049,-2.9688153,-3.519519,-1.4002677,1.0848919,-0.027091421,-0.8137739
293.21225222086844,1.4737159,-3.0311236,-0.9158842,-1.386767,-2.5112128,-0.8283119,1.9027426,-1.5857074,-1.9375638,0.852242,-0.9223115,-2.7451022,0.004096205,0.36416167,-0.11820978,1.9146727,-2.5399141,-2.6893716,-2.4584794,-2.618907
295.2282245509332,1.0974426,-1.2413938,0.02128659,-0.26008472,-0.22371161,0.10009601,0.79726404,-0.37852907,-0.99998486,0.3382562,-0.23271284,-2.786905,-0.14132334,0.4087717,0.51601636,0.799257,-1.1653444,-0.72783244,-0.70942444,-0.7054182
302.53394518939615,1.9530541,-1.1666981,-2.861629,0.63415873,-1.7206349,-2.8393974,-1.2785002,-0.16494662,0.38811192,0.132282,-0.41335514,1.6686236,1.5290596,-2.808053,-3.1181993,-2.8255177,-2.0619497,0.8234629,-0.8770315,-2.2037928
304.23647570057256,-0.24382555,0.04288643,-0.0132591175,-0.041467417,-0.03586772,-0.00095118413,0.062013667,0.0092938775,-0.052519366,0.025677146,-0.30892867,-1.3176881,-1.0147471,0.10340835,0.015788961,0.037388876,-0.16088262,0.11993652,-0.22719258,0.10484426
306.2523891921519,-2.5934308,0.36751813,0.4299144,-0.026630707,-1.9720914,0.25055793,0.64877313,0.16740753,-1.2574993,0.46815965,0.48208815,-3.0524259,-0.76482755,0.435894,0.61391795,0.5557226,-2.7916257,-2.2601244,-0.7103096,0.45037618
307.26475333661443,-0.3292867,0.059438,-0.016851624,-0.049363546,-0.22059596,-0.032027036,0.06811783,0.017518513,-0.13547747,0.075029746,-0.18071017,-2.7719972,-0.744761,0.1278763,0.009769686,0.03213774,-0.41597518,0.14821444,-0.23145242,0.17946512
308.0987783478931,1.141217,-0.2532747,-0.45246118,0.11045426,0.3850151,-0.1585146,-0.20766577,-0.12152083,0.20640986,-0.13172221,-0.4635056,0.84399813,0.004784597,-0.42219225,-1.0072743,-0.48520142,0.16019295,0.57475245,0.19693159,-0.31009665
310.2833103022766,-2.8244011,0.6791324,-0.5314522,0.017669568,-3.4301424,-0.64209634,0.51018417,0.537583,-0.19281614,1.3834223,1.1733996,-2.9336617,0.30547717,0.69992024,0.07857916,0.40593335,-2.9407494,-2.26097,-2.4306102,0.5406547
311.2231455329749,1.3481224,-2.7787879,-0.017642207,-0.035088576,-1.3277265,-0.048195735,1.1746461,-1.2069339,-0.6089698,0.5589254,-0.20126182,-3.058942,0.48318577,0.21414167,0.33187306,1.2430825,-2.3191388,-0.77985245,-1.9395423,-2.338034
323.028674108115,1.2957736,0.016897948,-0.5246302,0.17033204,0.20310445,-0.46874362,-0.6593519,0.08259587,-0.014937823,-0.11552248,-0.09899885,0.66889256,0.6893876,-2.2535706,-1.6695668,-1.8119174,-0.14288837,0.6824057,0.022151459,-0.26562625
326.1097273225169,1.2847203,0.05621275,-0.3882624,0.561231,-0.2637037,-0.6613579,-0.35096183,-0.23303519,0.5605287,-0.37801257,-0.020386368,0.9480311,0.76654583,-0.9743176,-2.9113564,-1.4416842,-0.65178746,0.8389073,-0.36168015,-0.4334475
327.2334488570279,-3.5469303,-0.02409153,0.67781067,0.24062908,-0.24581756,0.5186044,0.885558,0.005928239,-0.6332781,0.26156047,0.54801106,-2.65925,-0.9059001,0.5492787,1.0410734,0.79916394,-2.7264583,-2.5146751,-0.99482745,-0.10410853
329.24916906370004,-3.621683,0.49710187,0.39198282,0.1530767,-0.29824767,0.36466026,0.562607,0.08823623,-0.8560623,0.11594564,0.2852457,-3.3315039,-0.4655137,0.2937414,0.7022086,0.43428037,-2.576252,-1.8708115,-0.6142402,0.518749
331.2643761131768,-2.2476323,0.6332438,0.3206205,-0.16065922,-0.58897305,0.2142967,0.36420897,0.30997476,-0.5149452,0.19640619,0.37960118,-3.3613741,-0.9249658,0.31431785,0.60609365,0.31890282,-2.542951,-1.0315584,-0.56677234,0.5547682
333.09419689884004,1.4600625,0.09844154,-0.5644407,0.14136821,-0.41923195,-3.210154,0.0045845774,-0.04179426,0.5089555,-0.34667546,-0.750788,1.0639796,-0.62286013,0.29172516,-2.1993372,-0.45805338,0.059353262,0.9973456,-3.9919498,-0.030659216
354.07333734821367,1.2564498,0.13912414,-0.47435087,0.74154985,0.0865639,-0.1920011,-3.469382,0.0011677393,0.72840506,-0.11580638,0.8430095,0.45268133,1.5822505,-3.3003142,-3.2701998,-3.6030927,-2.2163725,0.70737416,0.36660975,-2.8865993
358.01862973542296,0.8615024,0.36267403,0.037894405,0.5901504,-0.23770502,-0.67790365,-0.52194756,0.15391383,-0.16278937,-1.107333,-0.76654166,0.8457401,0.72542065,-2.2928345,-1.0289636,-1.457196,-0.22206292,0.8833437,-1.5512494,0.1626334
362.051071780642,1.1879436,-0.36674768,-0.005045441,0.3095285,0.10853796,0.103532456,-0.11933241,-0.1547241,-0.5143774,-1.0809121,-0.683728,0.61322623,1.1270849,-3.4234662,-1.7657924,-1.0576326,-1.9483272,0.43290722,0.42671898,-0.89373434
362.9596002952725,0.8413892,-0.5785219,-1.047675,0.9817147,-0.4449701,0.39926195,-0.90225106,-1.8053306,0.6857611,0.7009836,0.13481344,0.23590045,1.6991591,-1.6194227,-2.7789588,-1.7832533,-2.3972383,0.2074031,0.74554676,-2.6398256
367.24373251337806,-2.0700116,0.37240055,-0.70928735,1.1402985,-3.2352428,-1.382009,0.58975524,-1.1418157,1.0709481,0.92487407,1.3263377,-2.574855,1.6568218,-1.1680552,-1.8527458,0.17487594,-2.45704,-0.23076668,-2.7548506,-2.2420723
371.2806935667929,-0.37276682,0.22078715,-0.054510836,0.123286545,-1.8205012,-0.35723606,0.6656223,0.17756099,-0.023955839,0.50211436,0.3324151,-2.9654212,-0.13835832,0.5357159,0.10097853,0.53857416,-2.8636177,-0.10640392,-3.3655798,0.33942413
375.23930054863894,-0.66484547,-0.3515036,-0.086847246,0.33067667,0.39917538,-0.22171883,0.230974,-0.32775655,0.015572521,0.6158504,0.48188403,-2.6037226,0.38004902,0.38610604,0.45559096,-0.017407913,-1.2397839,-0.9220358,-0.5687028,-0.23360223
390.25012601755395,-0.17331827,0.60058993,-0.39939126,0.47711095,-3.2681065,-2.006624,0.42893657,0.36694434,0.50787777,0.9320051,0.8241365,-2.9364626,0.74134785,0.48515484,-1.363978,0.097617626,-2.5603886,0.5002137,-3.3062568,0.3398024
391.24406119228485,0.2835081,0.4777856,-0.38172007,0.22483373,-2.6877534,-1.2413311,0.3623962,0.2652955,0.39234763,0.6099385,0.472203,-2.8328142,0.3246583,0.37969673,-0.9833996,0.1925938,-1.7202637,0.56908756,-3.021392,0.25276464
392.2293141981333,0.72027403,-0.978005,-0.54698503,0.4777986,-0.7082599,-1.8066075,0.51813954,-0.24598102,0.64192176,0.9332146,0.9630605,-2.6545103,1.0935214,0.20064989,-0.5381012,0.19594222,-2.4224398,-0.071873255,-3.0004287,-1.9538709
393.2625311078134,-1.0912765,0.73295575,0.12939733,-0.0101147685,-2.9251106,-0.5187547,0.48485398,0.46603942,-0.25851855,0.4893471,0.5100731,-2.6186917,-0.76658297,0.41074023,-0.15252458,0.3916424,-2.57402,-0.095817775,-3.2523441,0.7855356
399.2752958986302,-1.1195091,0.383377,-0.41312143,0.1262453,-0.055185854,-0.44193485,0.4058046,0.0962661,-0.33042032,0.7717687,0.6529474,-3.158827,0.16037187,0.41467014,0.32912418,0.2555728,-2.5537844,-1.523398,-0.6069853,0.2814564
401.29108621602154,-1.6168557,0.4554596,-0.71031237,-0.37421662,-0.30481228,-0.4219033,0.3658952,0.2501308,-0.25603378,1.1547116,0.87269735,-3.0317578,0.36663428,0.6989628,0.21550432,0.09803903,-2.7436938,-1.1469718,-0.4287805,0.1455797
416.15636215171224,0.43909553,-0.8159376,-0.04273465,0.5126765,0.110523574,-2.1756284,0.082967296,-0.97977847,0.701315,0.4826848,0.13232584,0.9212218,0.52066976,0.16106656,-1.3659285,-0.30250362,0.022036158,0.4546783,-2.3710365,-2.254957
417.26848124728025,-0.19996282,0.5098066,-0.65236545,0.32015768,-1.4853313,-1.570377,0.4964291,0.45678803,0.14143573,0.7888656,0.7140894,-2.807659,0.5777363,0.30292752,-0.29789624,0.35525444,-2.303106,0.11245943,-3.1530266,0.32468066
419.26547436117687,0.41853198,0.021859735,-0.35513216,0.51240665,-0.96232694,-0.7675299,0.28358948,-0.30796608,0.5893793,0.64908546,0.5111736,-0.8296168,0.5846902,0.41468447,-0.50899386,-0.04371368,-1.3068604,0.159433,-2.6676002,-0.17906474
419.30154358064294,-0.06709905,0.40481278,-0.04973808,0.5444117,-1.3472927,-0.72915363,0.2666432,-0.1935809,0.5412691,0.35071263,0.42858383,-0.7752128,0.6012344,0.12282816,-0.39863893,-0.028595468,-1.572693,0.3016197,-3.203822,0.03978188
423.9395643825002,1.0828906,-0.38301516,-0.22737516,0.17455103,0.19203617,0.1937178,-0.0314242,-0.41692364,0.000331626,0.16453218,-0.13901393,0.44258535,0.41850504,-0.72887886,-0.31886712,-0.18986581,-0.45303068,0.36930385,0.2917787,-0.8953532
425.9366505887358,1.0294273,-0.77148116,-0.48856083,0.33479974,0.12516335,0.108527295,-0.021701243,-0.76605624,-0.028438475,0.2270352,-0.03450096,0.20113046,0.8009585,-1.2273154,-0.8810582,-0.11365206,-0.57885456,0.1268086,0.30724037,-1.7279228
432.02560397087444,0.9665929,-0.6865618,-0.6809198,0.72837234,0.016171524,0.14531057,0.0165014,-0.8594078,-0.017905703,0.69334555,0.42887738,-0.9240589,1.437617,-2.3621209,-0.87981737,-0.09302252,-2.1186666,0.055570684,0.11727914,-2.0515516
437.9553421313627,0.87338334,-0.5854056,-0.2865413,0.51084304,-0.10122269,0.06983028,0.057675723,-0.90988463,-0.121905476,0.51225907,0.20692745,-0.9074662,1.1179674,-1.3629117,-0.05592584,-0.0059770616,-1.2388152,0.08495189,-0.06119849,-1.920828
440.2657472665796,-0.59700316,0.70175135,-0.338525,0.2577103,-2.3784342,-1.5654371,0.110730104,0.56190896,0.36746463,1.0685747,1.2600752,-2.898078,0.7124705,0.43928882,-0.8694078,-0.048071336,-2.853864,0.20768031,-2.3993144,0.11405241
444.3048509006433,-2.071194,1.0383675,-1.0216436,0.8235694,-3.421513,-3.290317,0.37210912,0.49846873,0.55705976,1.2165143,1.359594,-2.7076538,0.68104196,0.55914456,-1.9351767,-0.83338773,-2.2474055,0.36867815,-2.997569,0.5484116
446.3206854691612,-1.7447282,1.190049,-2.0964577,0.52994466,-3.518998,-3.3251214,-0.0060572834,0.5130505,1.0157202,1.4227065,1.5918555,-2.5853765,0.75424886,0.6296946,-2.6421082,-1.0237072,-2.6479402,0.17587672,-3.322356,0.34470406
462.0669641770816,0.82622445,-0.6908908,-0.36150682,0.5491291,0.6072101,0.17621212,-0.5358389,-0.019315066,-0.07290189,0.10308779,-0.06788854,0.90523285,1.3053784,-3.5669549,-1.8769333,-1.5679462,-1.0959338,0.27668262,0.6978858,-1.7620679
465.986391371257,0.8694638,-2.1714656,-1.5291195,0.7234879,-0.6058365,-0.33445802,0.5169084,-0.9551336,0.06983071,1.0060761,0.28008413,-1.6573807,1.3993523,-0.119745694,-1.3666518,0.42709544,-1.2813861,0.13833131,-0.7623599,-2.3286083
466.26566230669573,0.8381464,-0.20813267,-1.3660202,0.34451142,-0.3459479,-1.8732653,0.061080202,-0.036795206,0.60658175,0.92369413,0.785223,-1.5400579,0.95533794,0.18885837,-0.91029024,-0.08033532,-0.8373259,0.20185126,-2.1580343,-1.3313026
506.28875222794164,-3.2125409,0.9785414,-1.3102738,-0.3951735,-3.2566476,-3.1795623,-0.8268478,0.9196631,0.57512337,1.6998188,1.5346233,-2.940847,0.8232637,0.65142554,-2.3211844,-0.39367777,-2.5564485,-0.5765542,-3.0769188,0.57437855
528.2732926516458,-0.6401348,0.039213855,-0.021571863,-0.004003014,0.08412406,-0.015705394,0.08772647,0.01653641,0.0066225408,0.0028419707,-0.22313696,-1.2714659,-0.5666104,0.03673257,-0.013527996,0.0051674186,-0.17255877,0.011536314,-0.0024439488,0.045869462
529.2763089845431,-3.4701202,0.0058777435,0.0042408416,0.49205416,-0.6061606,0.009753641,0.6709691,0.30356205,-0.33670172,0.38243437,0.7353464,-2.8404968,0.72418165,0.04204237,0.41432947,0.30337608,-2.3427734,-2.3206234,-1.41938,0.13858202
536.4762155955389,-3.069328,0.4706826,0.13560362,0.31533936,-2.984509,0.028221993,0.7640957,0.17163755,-0.3620458,0.7313369,0.65409815,-3.3209338,-0.039195605,0.5485253,0.3900758,0.67192537,-3.0533404,-1.7702736,-2.245508,0.54988676
538.4918702010622,-2.426792,0.35740322,-0.07052778,0.32603168,-2.1461205,-0.3214486,0.529039,0.22221403,0.15767352,0.74323094,0.56941277,-3.279197,0.2923564,0.60753363,0.13448119,0.46733648,-3.0530772,-0.63507897,-2.8078122,0.449636
539.5036711800542,-3.2163172,-0.14463107,-2.2381005,1.1041436,-3.3280652,-2.6738513,0.6625072,-0.45002174,1.222052,1.4479573,1.6905982,-2.5793042,1.546653,0.2149384,-2.5008197,0.47396132,-2.832395,-2.1252513,-2.8355348,-2.3475237
556.2687527107976,-2.7304237,-0.25878146,-0.99252516,0.44627887,-0.10755879,-0.72664773,0.2175952,0.6858687,0.17138506,0.94386196,0.72904193,-2.7420604,0.78829736,0.4139755,0.109192565,-0.12872244,-2.3125,-1.5057721,-1.5098834,0.29275757
566.5241637298645,-3.2744753,0.51259756,-0.36005366,0.5941682,-3.4708524,-0.8524045,0.7069433,0.4115527,0.33252156,1.2766538,1.2258357,-3.0043812,0.793719,0.738461,-0.5843364,0.5740757,-3.208118,-0.6531422,-3.374195,0.32177502
583.4739266558681,-3.5527794,0.6376914,0.3379548,0.07800316,-1.278995,0.24232078,0.69038296,0.4518316,-0.87716126,0.2722512,0.2924205,-3.3673284,-1.2817101,0.5066743,0.58528733,0.6443392,-2.3931153,-1.0417509,-1.1088327,0.74551
586.4926791983987,-3.5608175,0.87116194,0.49896777,-0.3759104,-3.2061005,0.22877404,0.88393205,0.6408704,-1.7721516,0.73914444,0.69075054,-3.098402,-1.8412913,0.7267343,0.59581274,0.77739716,-2.7634532,-2.5048332,-2.624519,1.0858243
587.5046144894162,-2.3944476,0.5561886,0.17348623,-0.030563585,-1.321397,-0.0096407235,0.49276796,0.34214345,-0.53326035,0.462486,0.38941583,-3.4877732,-0.5118133,0.3780995,0.37658492,0.41069105,-1.913862,-0.8131534,-1.6241832,0.5486357
589.5205829321543,-2.3524945,0.49765584,0.065461054,0.018795947,-2.3493688,-0.15055007,0.42116827,0.41414002,-0.3221856,0.59101087,0.3396799,-3.3210819,-0.33397058,0.41440684,0.31910944,0.33869115,-2.647022,-0.18606518,-1.8098149,0.5603596
591.5359958315314,-2.362837,0.65805274,-0.10908784,0.17349929,-3.2717795,-0.3195646,0.5005394,0.5617898,0.032795705,0.90875345,0.6416702,-3.2531602,-0.2132178,0.651878,0.06588306,0.45965764,-2.908944,-0.191219,-3.1460485,0.75415707
606.0749691379767,1.4519906,-0.15694557,-1.180162,0.99812025,-0.82440686,-1.298449,-2.3707592,0.27756816,0.47243416,0.031073924,0.521742,1.2726704,1.9205402,-3.2993362,-3.109756,-3.2076902,-1.9898075,0.57470787,-0.1463233,-2.3052633
607.4580571817772,-2.2162247,0.036792055,0.2657813,0.27442688,-0.49974006,-0.17253153,0.5868646,-0.013101297,-0.4822247,0.38938653,0.1419728,-3.0101993,0.11260334,0.3905466,0.41764453,0.36745068,-1.6734304,-1.1484398,-2.1685874,0.31145686
609.5120455413432,-1.6233886,0.20043513,-0.028048392,0.10699773,-0.3501853,-0.04826388,0.35851252,-0.07145882,-0.057603586,0.33797747,0.19949666,-2.91796,-0.27410924,0.3459431,0.30673936,0.23884156,-1.7703043,-0.6828838,-0.562769,0.11445038
611.5274919331004,-1.6280476,0.12088643,-0.04831057,0.058733825,-0.28675744,-0.16314043,0.31948805,-0.06453548,0.13019392,0.37314343,0.18286279,-2.15489,-0.1613459,0.33907163,0.1105243,0.21280906,-1.0608729,-0.4129008,-0.52217853,0.13736817
612.5309407070264,-2.370963,0.433782,-0.49288306,0.46049204,-2.255918,-0.35123494,0.8814945,-0.45542794,0.31420884,1.1404351,1.3001432,-2.716641,0.15527612,0.47461593,0.2184563,0.52907974,-2.9633193,-2.29133,-1.8136063,-0.18553823
633.511752861228,-2.6393664,0.29227355,-0.025886068,-0.0286811,-0.25285512,-0.12707628,0.31273857,0.20478046,-0.3894298,0.30002162,0.08894159,-3.099511,-0.65671355,0.39187193,0.24293798,0.22222324,-1.3187597,-0.8034501,-0.41211778,0.4528952
634.5147793274784,-3.4542584,0.6397164,0.21140818,-0.16420779,-1.6206757,-0.42946458,0.99769926,0.51738477,-1.211382,0.9638768,0.7733162,-3.199393,-1.2271465,0.9956057,0.64510626,0.6721914,-2.9221065,-2.7122464,-1.3985598,0.7102442
636.5304080879085,-3.0606778,0.4856397,-0.00014532325,-0.0069285436,-0.5792697,-0.0690456,0.51741284,0.38249755,-0.18160106,0.601346,0.3593748,-3.0349014,-0.3435918,0.5871641,0.36511114,0.34406734,-2.52839,-0.6187567,-0.69649506,0.55154455
638.5461431462845,-3.5595038,0.70288014,-0.15480822,-0.068385154,-2.582108,-0.44640797,0.6409645,0.50843537,0.027863571,1.0419586,0.86749184,-3.1108541,-0.64205456,0.87934935,0.4240781,0.41483012,-2.675388,-1.3880947,-2.3500288,0.6889551
654.496269279783,-1.1715337,0.38784784,-0.96287256,1.0271611,-0.93839103,-1.0019932,0.23806003,0.03377756,0.6929879,0.8672225,1.1834382,-2.5493555,1.5930998,-1.6715994,-2.618636,-0.078885384,-2.2346537,-0.09227195,-2.221614,-1.6234356
656.51187934263,-1.4914641,0.27642494,-0.6158554,0.78732306,-0.6234673,-1.2184196,0.25040534,0.059918445,0.6787999,0.7450657,0.9343777,-1.2806742,1.3202742,-0.59515035,-1.7654188,0.113490164,-2.0289946,-0.006733455,-2.8468893,-1.0701414
657.5118501948282,-2.8489103,0.56049645,-1.1398611,0.6887838,-2.4438248,-1.189308,0.7014447,0.44260132,0.32919276,0.94618,1.1637052,-3.1643622,1.0049759,0.4670556,-0.6081062,0.4075736,-2.8961453,-0.8784175,-3.2016473,0.07419423
680.5129143532625,-0.28672203,0.23119959,-0.45518258,0.51926816,-0.3692223,-0.6017225,0.13514642,0.16676655,0.31517094,0.42780253,0.5497923,-1.9645003,0.9544589,-0.4846959,-1.0113201,0.14095248,-1.2656087,0.0075900885,-2.368044,-0.12026272
681.5157215481386,-2.8160918,0.42440334,-1.976961,1.4566338,-2.706258,-2.6231987,-0.83377,0.48198465,0.7786619,1.2189118,1.7268422,-2.5057924,2.1522555,-2.866439,-2.8003376,-1.0260187,-2.5662801,-0.86822677,-2.3069324,-2.5633366
682.528756123638,-1.5620302,0.35063162,-0.6316169,0.6367749,-0.45345476,-1.0946301,0.06847136,0.29841453,0.5484604,0.68464935,0.7103908,-2.1879416,1.0987262,-0.35325328,-1.8786477,-0.029412823,-1.4416268,0.13361783,-2.5750675,-0.018660301
683.5319333002944,-1.7065724,0.20372608,-2.9430838,1.3742383,-2.7700956,-2.8327372,-2.1527183,0.46228293,0.9395162,1.3676398,1.7657486,-2.4985678,2.2882435,-3.0678246,-2.7881587,-2.3079655,-2.6527662,-1.0963477,-3.033099,-2.6965942
685.4841390873935,-0.7256174,0.7089214,-0.608252,0.436782,-0.8139238,-2.1889303,-1.7519382,0.7751609,0.68062395,1.1195267,1.0482585,-2.4447095,1.0347989,0.64208776,-1.430768,-3.0837395,-2.5421262,-0.016889308,-3.245496,0.57111627
788.5476587894711,-2.647625,-0.8437921,-0.6895809,1.1707149,-0.23134592,-0.3588373,0.5180826,-2.0472896,1.1317592,0.6511832,1.1872311,-2.367578,1.718398,-1.0398939,-2.9369185,0.27273273,-3.2045724,-1.2543038,-0.5003851,-3.120034
885.553757973446,-0.792033,0.10305396,-0.5049775,0.08020191,-0.474541,-0.56337863,0.10618787,0.3204917,0.15592857,0.33353323,0.21297044,-1.6769457,0.361256,0.044322122,-0.8435598,0.029703751,-1.3355101,0.10084959,-0.7254163,0.31381062
886.556970803666,-1.870113,0.34879023,-1.4115895,0.65875715,-1.5851554,-1.2093881,-0.009115835,0.8836705,0.45722434,0.9673611,1.1827888,-2.469534,1.2980946,-0.5313713,-2.5508862,-0.1721787,-3.1118546,-0.43505004,-1.0262719,0.3100475
887.563849728756,-3.0724657,0.65844375,-2.498058,0.62543213,-3.1176212,-2.6790683,-2.214104,1.3749632,0.754439,1.5254653,1.9271216,-2.6150467,1.5431017,-0.80714357,-2.6102695,-2.5151534,-2.4661405,-2.3311357,-2.3500235,0.082791984
