,Shared topic 1,Shared topic 2,Shared topic 3,Shared topic 4,Shared topic 5,Shared topic 6,Shared topic 7,Shared topic 8,Shared topic 9,Shared topic 10,ATAC private topic 1,ATAC private topic 2,ATAC private topic 3,ATAC private topic 4,ATAC private topic 5,ATAC private topic 7,ATAC private topic 8,ATAC private topic 9,ATAC private topic 10
chr1-3670671-3671229,0.2593449,0.06626925,0.03177846,0.33472854,-0.078106426,0.1955614,0.42797023,-1.4926138,-0.20990968,-0.2032673,0.14407735,-0.13078849,0.013220891,-0.0104069095,0.0049524903,-0.017153539,-1.1083045,-0.0019110735,0.04303663
chr1-4491860-4492636,-0.42552957,1.1916791,-0.6263634,-0.61052763,-0.7276362,-0.5648125,-0.7057584,1.6389124,0.19170964,-0.4396448,-0.5973329,1.0495447,-0.41223577,-0.86579585,-0.3303457,-0.3126695,1.5607922,-0.3547369,-0.74886143
chr1-4857486-4858245,0.11980003,0.14282146,-0.45493555,-0.2489672,0.12611763,0.5282535,-0.08501513,0.37249187,-0.22810183,0.25187376,-0.055829633,-0.11907018,-0.82071686,-0.54267216,0.045296237,0.05753106,0.6043468,-0.08874379,-0.12359332
chr1-5916789-5917714,0.73516816,-1.1988922,0.40323463,0.88838816,-0.5972066,-1.2432384,0.7659907,-0.25212646,-0.07229041,0.03544638,0.22049631,-0.70028126,0.1181322,-0.18162656,-0.14092542,0.12487072,-0.9242086,-0.30326915,0.556922
chr1-6382537-6383403,-0.746878,0.8786494,0.81100047,-0.63143635,-0.6363991,-0.105835065,-0.6633654,0.28819096,0.5404794,-0.1011975,-0.27989888,-0.495154,0.12628694,-0.42815518,-0.0012253774,0.32894245,-0.18510829,0.40579525,-0.3256263
chr1-9908295-9909165,0.71001303,-1.064149,0.7449035,0.46333748,-1.2576549,-1.0457453,0.29888695,-0.6755158,0.7270451,0.15587603,0.62249863,-0.6138141,-0.22733429,-0.18923348,-0.04934376,-0.24479164,-0.218686,-0.13394772,0.24246542
chr1-10037618-10038504,-0.08288608,0.76136947,-0.23172316,-0.3007245,0.012241943,0.48485127,0.24110833,0.40588996,-0.39329624,-0.38558382,-0.54458135,0.1708734,0.33768755,0.3488736,-0.0617729,-0.92770493,0.5299039,-0.102998964,-0.014258342
chr1-13366217-13367059,0.6920125,0.5556677,-0.34212065,1.078463,-1.060674,-0.93803036,0.67698336,-0.959251,-0.55025935,0.12410292,0.2485528,-0.5431407,0.7160484,-0.55944926,-0.09353184,-0.08327958,-0.10418276,-0.37435153,0.1201146
chr1-14755165-14756117,-0.21596025,-0.43766195,0.4329099,0.1617107,0.0361206,-0.49592924,-0.09949024,-0.30953082,0.25315884,-0.055973407,0.05500095,-0.4309226,0.07064591,0.051686227,-0.045241956,0.077657625,-0.4076687,0.032767437,0.07425137
chr1-16616063-16616914,-0.60414,-0.3982348,0.46592072,-0.10419124,-0.23624586,-0.60673654,0.49602094,0.005234018,0.7759519,0.091566645,0.172582,-0.5204825,-0.38619715,0.06395534,0.10952467,0.07346021,-0.59751976,-0.30906898,0.15040272
chr1-16618890-16619620,0.0500666,0.36350432,-0.3513466,0.25503516,0.13862412,0.35265005,0.21051042,0.37727076,-0.09626211,-0.3390113,-0.07687999,-0.15800554,0.68118,-0.6795887,-0.021333616,-0.12916905,0.081957154,-0.045188736,-0.10264871
chr1-17097324-17097958,0.25667918,0.45313308,-0.017413346,-0.08262241,-1.2687291,0.43988642,0.15109542,-0.11982413,0.66500276,0.010464666,-0.1887223,-0.38072094,0.4794298,0.4531936,-0.07173038,-0.037799392,-0.046805203,-0.40462193,-0.45079994
chr1-17145180-17146056,0.2839647,-0.30901167,-0.097912095,0.38305804,0.45955065,-0.43327937,0.010963292,-0.6418184,-0.5243421,0.42164376,-0.0630525,-0.5409163,-0.098801374,0.17362565,0.051720463,0.0015201288,-0.63134056,-0.037729006,0.22355732
chr1-18058045-18058842,0.40627843,-0.5861781,0.10375667,0.22864704,-0.058542404,-0.9193963,0.4625599,-1.1133868,0.06442396,0.03570921,0.02442071,-0.6838564,0.22172612,0.3243076,0.061411537,-0.096235886,-1.3105308,-0.07252832,-0.006721343
chr1-20951260-20952123,0.10204079,-0.23053877,-0.17203152,0.18552761,-0.008837823,0.2510095,0.31839547,0.41069758,-0.28504488,-0.122862525,0.006778681,0.07089086,0.020998647,-0.054435182,-0.0055818195,-0.0076215346,-0.1996013,-0.025467804,-0.005490785
chr1-21166246-21167076,0.14599526,0.23084392,-0.88735163,0.29228184,0.07324112,0.22015464,0.055535004,0.08529625,-0.55073225,0.3053495,-0.0388359,-0.2847701,-0.094167724,-0.019252678,0.009411547,0.004087992,0.12634136,-0.17151456,0.01612835
chr1-21218339-21219203,0.19289927,-0.6079731,0.014320941,0.16336663,0.041633714,0.54527646,0.014686594,0.29718718,-0.2854741,-0.022880415,-0.0302002,-0.4917835,0.016592182,-0.024890034,-0.008545264,-0.013702933,0.0060994923,-0.011579825,0.28221035
chr1-22533175-22534057,0.5037519,0.30736417,-0.8424429,0.27124804,0.34126663,0.6166568,0.37014195,-0.7908563,-0.70099276,-0.2899904,0.17055197,-0.89070433,-0.084916145,-0.710573,0.09488827,-0.41440147,-0.59906286,0.053166028,0.31773028
chr1-24005126-24005981,0.35695615,0.38404596,-0.44484496,0.24980524,-0.19769077,0.35831326,-0.4140747,0.31440404,-0.0043938113,-0.45921138,-0.02488071,0.10792224,-0.025524251,-0.01524512,-0.016140781,0.015381815,0.45717755,0.014389034,-0.06707727
chr1-24587112-24587586,0.53298306,-0.67115915,0.44662026,0.37176555,-0.52204037,-0.44386464,0.44232002,-0.862704,0.60978705,-0.13042909,-0.07285235,-0.33232486,-0.058240034,0.46388096,-0.014661508,-0.12157879,-0.849306,-0.04781248,-0.08470963
chr1-24612381-24613259,-0.7719749,0.10040607,-1.1401663,-0.8115326,-0.113197096,-1.2721287,0.12458005,0.90775186,-0.962804,1.2762843,-1.0629357,-0.32628435,-0.48623365,-1.6949816,2.0105991,1.0218512,-1.0243354,-1.5028753,-1.1679037
chr1-24678290-24679120,-0.3218993,0.48545286,-0.36910567,-0.080728896,0.10457811,0.6563397,-0.06811272,0.460614,-0.30431095,-0.17632815,-0.008036348,0.23036414,-0.0064594247,-0.03909877,-0.0044800015,-0.04523728,0.44054773,-0.0005759123,0.029605947
chr1-25226414-25227228,0.3790798,-0.32295933,0.40746227,0.6607541,-0.17387477,-0.8140404,0.07624846,-0.33707273,0.17015268,-0.4920095,0.058328297,-0.6287804,0.0869845,0.01717924,0.0050137206,0.019749278,-0.32846448,-0.035715524,-0.17735398
chr1-32172406-32173249,0.38714853,-0.07673723,0.059633397,0.72867864,-0.15307514,0.15157539,0.027525231,-0.78510284,-0.044195335,-0.15202084,0.013397,-0.4685841,0.03435993,0.086318895,0.0073093767,-0.06906202,-1.1636966,-0.04797341,0.077651665
chr1-32174671-32175571,-0.6106402,-0.5341509,-0.13282461,0.94906706,0.05023984,-0.90302455,0.40318447,-0.5613101,0.41700596,-0.7209926,0.10301987,-0.8549606,0.41491696,0.2114851,0.0038766754,0.09113572,-0.5912835,0.18957451,-0.36888653
chr1-33719658-33720551,0.09375166,0.080873154,-0.17014033,-0.0912364,0.1353264,0.5294154,0.09790751,0.5081342,-0.5230519,-0.049036447,0.045339152,-0.9846849,0.039816327,-0.24861452,-0.0066987113,-0.044522617,-0.0767868,0.0054635364,0.021742288
chr1-33813768-33814675,0.037606593,0.4953683,0.06514062,0.076027565,-0.17383456,0.42927358,0.09651054,0.09778907,-0.14325355,-0.26598468,-0.025608378,-0.082389124,0.0047093634,-0.084536985,-0.00458883,-0.002508459,0.032811932,0.010377761,0.026342612
chr1-33907388-33908253,-0.20687225,-0.08173304,0.008334567,0.3109597,0.19997458,0.45096934,-0.24686772,0.3435087,0.3427798,-0.44960418,-0.0013247916,0.33218333,0.26110014,-0.80123085,-0.031266272,-0.08006162,-0.02669676,-0.029466847,-0.21812372
chr1-34434653-34435562,0.38204727,0.024386488,0.10289626,0.1817112,-0.20188431,-0.48887345,-0.02765041,-0.36968398,0.2245892,-0.018134298,-0.0016792786,-0.0815764,-0.041483063,-0.01833279,0.004876799,-0.0045850575,0.0057656732,0.024799036,-0.006367111
chr1-34439164-34440067,-0.031997908,0.5134735,-0.28436086,-0.04656902,-0.23067026,0.4117363,0.14601453,0.5831301,-0.37574401,-0.06883893,-0.32455105,0.05765635,0.08846161,-0.22723044,-0.06523901,-0.005527857,0.65082735,0.38279518,0.12888771
chr1-34801918-34802567,0.3623871,-1.3632679,0.0279138,0.27232125,0.2782782,-0.74896026,0.28050327,-0.53564745,0.08476499,0.10861965,0.008948625,-0.09196058,0.07054459,-0.058899727,0.011434355,-0.011345838,-1.3119954,0.009733154,0.06590121
chr1-34803282-34804007,0.6793331,-1.2336023,0.49516606,0.26779112,-0.068959445,-1.3572022,-0.2781585,-0.98000765,1.3216674,-0.81719315,0.12534812,-0.6818438,-0.47483474,0.8657723,-0.0086753825,0.21871851,-0.45851937,0.0149071235,-0.32063717
chr1-36243666-36244540,0.034524933,0.680559,-0.28774148,-0.06959291,-0.13505717,0.24349833,-0.49996898,0.18617614,0.09570969,0.15362515,-0.027716253,0.051891647,0.02179692,-0.24475335,0.030437605,-0.090636715,0.22982213,-0.040827084,-0.21232116
chr1-36309164-36310053,-0.9194839,1.1997836,-0.70868045,-1.5018301,-0.1886592,0.7242158,-0.6015082,1.3138525,-1.166434,-0.20631416,-0.45736954,-0.048673928,-0.68719107,-0.01964834,0.087401584,-0.28651157,1.0748718,0.16833825,0.0062388894
chr1-37299688-37300564,0.35346058,0.4360097,-0.40234932,0.11557943,0.02023339,-0.084884755,-0.22345383,0.012794743,-0.042968847,-0.44612107,-0.07476258,-0.045329053,0.013269892,-0.043077815,0.020077761,0.002648706,0.11320636,-0.111555256,0.028487457
chr1-37300960-37301637,0.6404586,-1.0173104,0.16089776,0.80500144,-0.0074060583,-1.3215344,0.29067317,-0.85345757,0.13822685,-0.96694624,-0.057939433,-0.37154192,0.2648766,-0.17962287,0.11957396,-0.014713603,-0.7657548,-0.24867536,0.33605808
chr1-37429603-37430508,0.12082037,0.39206576,-0.19670069,-0.4366856,0.081587404,0.37247205,0.0020341822,0.4714796,-0.4859417,-0.110686705,-0.78059435,0.43733683,-0.22626996,-0.3760457,-0.0086942725,0.039738044,0.50516427,0.0068240017,0.011632273
chr1-37725696-37726486,0.82023096,-0.4712063,0.22253458,0.91102016,0.2450634,-1.2012916,0.044827968,-0.90317166,-0.2539921,-0.17929828,0.21194713,-0.6117211,0.16335486,-0.3621888,0.0109269135,0.11326426,-0.631267,-0.2060621,0.4625234
chr1-39650528-39651192,-0.06681384,-0.39729545,0.4009718,-0.04051954,0.25085422,-0.25103587,0.31763172,-1.0897683,0.1966068,0.07890263,-0.03904974,0.21193568,0.03377932,0.23249155,-0.0005389439,-0.063443206,-0.96247214,-0.032807726,-0.10330369
chr1-39720668-39721526,-0.39232388,0.35804316,0.28297305,-1.2780236,0.4400494,0.13559048,-1.1545395,0.64664054,-0.25982207,0.81206244,-0.1384324,-0.32624093,-0.215907,0.3154605,-0.043466657,0.043166745,0.74490553,-0.3615482,-0.45840374
chr1-40085213-40086061,0.06919215,0.27599302,0.06405119,0.59912944,0.6734368,-0.12114499,0.25772572,-1.0695541,-0.17079721,-1.0586734,-0.05543425,-0.63740677,7.705123e-05,0.26604214,-0.011792346,-0.06586944,-0.8737517,0.046592128,-0.0023372823
chr1-43098225-43099135,0.13914415,0.27497312,-0.26198813,-0.033857852,-0.18260162,0.5093005,-0.18584765,0.6145498,-0.11754635,0.0916285,-0.7227559,0.559588,-0.45022303,0.23397358,-0.0008986448,-0.062958024,0.5240362,-0.070250206,-0.12262058
chr1-43163284-43164176,0.3016874,-0.3347799,0.25905138,-0.41430807,-0.21878019,0.048669014,-0.35698867,-0.9342465,0.76289386,0.4291237,-0.17837334,-0.8879257,0.18324995,-0.025936507,0.00949146,-0.36231512,-0.41396338,-0.012674383,0.793836
chr1-44119429-44120155,0.14882942,0.41048265,-0.17507459,-0.20111726,-0.29672316,0.27263942,0.3694886,0.13521692,-0.24000391,-0.14873636,-0.5782153,0.42491314,0.20626791,-0.37978142,0.006829999,-0.24457599,0.20962448,0.6053278,-0.39775822
chr1-44198239-44198924,1.299611,-1.2232243,0.65618974,0.2735816,-0.2617633,-1.1974308,-0.018346772,-1.4122611,0.57138395,-0.16088033,0.37541547,0.10969498,0.4680861,-0.47074527,-0.039592683,0.07364866,-0.7154505,-0.052275725,-0.37505242
chr1-50926959-50927822,0.119366586,0.18644059,-0.21371257,0.19089004,0.20127979,0.6204894,-0.23722407,-0.602915,0.033574842,-0.11073322,0.74863255,-0.56457645,0.1393863,-0.11318963,-0.13716224,-0.036412913,-0.96207225,0.40782586,-1.2217877
chr1-51478003-51478872,0.23042719,0.30054274,-0.2813574,0.08474604,-0.51620704,0.1584909,0.18918663,0.4684127,-0.5467404,0.1752764,-0.023721451,0.22076818,-0.043489404,-0.08046472,0.011325952,-0.012337582,0.065193065,-0.013242313,-0.17047226
chr1-52113313-52114156,-0.36592323,0.40786868,-0.6017154,-0.020457355,0.24412018,0.27078706,-0.031669013,-0.3659742,-0.8787197,0.88933724,-0.16246451,0.0032086114,0.021480998,0.16223992,-0.009164166,0.020528909,0.05676625,-0.15194945,0.24490725
chr1-52816886-52817771,-0.34301546,0.42768425,0.123766914,-0.14261205,0.43239433,0.21639238,-0.30104792,0.37562525,-0.27581084,-0.4607765,-0.06734924,0.30279517,-0.47738773,0.1370533,0.01712559,-0.043576397,0.32545865,-0.01969692,-0.046954572
chr1-52952451-52953327,-0.36648944,0.16292092,-0.05136396,0.05825946,0.15271838,0.03931744,0.29529968,-0.68444383,0.4399756,-0.5098987,0.15265624,0.1802066,-0.17962094,-0.11441375,0.013983501,-0.061763167,-0.98944384,0.08221683,-0.2642992
chr1-53352130-53353017,0.2724378,0.1259635,-0.4308217,-0.20552301,-0.2578336,0.44771314,-0.22363271,0.90544736,0.021047795,0.3141062,-0.014520153,0.18670924,-0.25154865,0.014820788,-0.013578465,-0.016435929,0.29835686,-0.08068159,-0.121622145
chr1-54438415-54439252,-0.20156015,0.0027833239,-0.14739533,0.23464268,0.012388975,0.39080063,0.04472738,0.5875518,-0.56867933,-0.28921795,-0.016883483,0.19566983,-0.012380474,0.08475636,-0.0005585243,-0.032075398,-0.29934207,-0.015460108,-0.13193072
chr1-54925770-54926566,-0.88914335,0.7371018,-0.45193902,-0.37019125,0.124427594,0.6785279,-0.31664228,0.46938297,-0.2252312,0.22521883,-0.21320133,-0.044739705,-0.16830589,-0.5089698,0.022275707,0.019496579,0.5003472,0.020283503,-0.038758863
chr1-55087528-55088436,0.09849712,0.6696347,-0.42057306,-0.043788392,0.0357029,0.36082637,0.23279104,0.5458953,-0.13833347,-0.4786195,0.019545361,0.006520994,-0.31258735,-0.07767375,0.022034677,-0.672517,0.39088488,-0.69138664,-0.5471085
chr1-55237134-55237975,0.2946713,0.03316438,-0.23399092,0.047967166,-0.044530574,0.27380154,0.40309083,0.65977454,-0.18443327,-0.53906494,-0.028601598,0.047396872,-0.016909748,-0.18009037,-0.0072819428,-0.011815772,0.39336443,-0.0060294145,0.012512335
chr1-56969323-56970100,-0.9915231,-0.31258133,1.3992089,-1.5429142,-1.1240623,-1.3639183,-1.7314198,-1.3733251,1.7307467,0.9357217,-0.21454504,-1.1110176,-0.57242894,0.1422108,-0.11663219,0.08457967,-0.2993604,-0.72102684,-0.018646885
chr1-57377483-57378370,-0.09140186,0.4704473,-0.35307482,0.14423747,-0.08443299,0.4407998,-0.07362168,0.1491759,0.03169519,-0.17535584,-0.00584893,-0.0059986673,0.0099722175,-0.046408985,0.0032710773,-0.008368854,0.053802073,0.003892561,0.0024967564
chr1-58444967-58445914,-0.19376327,0.65063626,-0.1497979,-0.24294923,0.12329508,0.49569476,0.033333782,0.2131685,-0.4674126,-0.36946964,0.0022766565,0.23808382,0.008465846,0.068907425,-0.0014432222,-0.22779068,0.32558715,-0.03397016,-0.009733761
chr1-62702920-62703806,-0.91600055,0.41414246,-0.03131148,-0.41878283,0.30838323,0.30136475,-0.33626214,0.6495342,-0.3625063,0.5077994,-0.0600208,0.16440712,0.07205753,-0.13568802,-0.0654038,-0.080125086,0.6892176,0.07776798,-0.08917686
chr1-62706271-62707126,-0.61482567,0.38706318,0.04127939,-0.09981721,0.48427457,0.17833756,-0.23543952,0.59973574,-0.5438955,-0.13586055,-0.016207883,0.17552285,-0.23035023,0.013106981,-0.014011798,-0.0054367655,0.58449745,-0.024518147,-0.044383954
chr1-64616958-64617783,-0.04881536,0.5268267,-0.49656793,0.036091574,-0.01911284,0.21435015,-0.05970133,0.34603918,-0.26461688,0.20999214,-0.057400595,0.23444514,0.0036258395,-0.056172356,0.016197553,-0.18145286,0.287963,-0.00032421242,-0.19707696
chr1-66321509-66322456,0.08865868,-1.008868,0.4888984,0.26845768,0.31048858,-0.4832006,-0.16872923,-0.094495654,0.17092216,0.042145174,0.20368613,-0.91627717,0.031346858,-0.28610125,-0.024292007,0.010067277,-0.42582536,-0.068581104,0.30305114
chr1-66467839-66468716,0.14407973,-0.63399816,0.15146753,0.18149674,0.012434173,0.032334752,0.2925526,-0.6307495,-0.008818943,-0.10775726,-0.01855059,-1.1441672,0.17248078,0.141663,-0.009773236,-0.007582601,-0.68169016,0.00037273875,0.06640295
chr1-72211698-72212571,-0.1521014,0.16485904,0.22074239,-0.39198434,-0.3403462,0.6873155,-0.9064639,0.7430832,0.002040277,0.2692416,-0.28465977,0.59787005,-0.00033582016,-0.20193058,0.004725705,-0.4775512,0.68978834,-0.15807313,-0.5121026
chr1-72225595-72226508,0.22057983,0.48452637,-0.1908074,0.29568368,-0.40463805,0.65847826,0.21346822,-0.106956534,-0.25153425,0.41820282,-0.15160881,-0.3496966,-0.74625224,-0.819475,-0.03923601,-0.057984814,0.85741735,-0.063623406,-0.24972352
chr1-72578321-72579278,0.76640505,-0.9693926,0.8713465,0.299228,0.07011678,-1.3811659,0.46307307,-0.91328436,-0.7804393,0.67501396,-0.18444,0.29028156,0.05482777,-0.25600988,-0.05139509,-0.13458486,-0.25776738,-0.312428,0.29975978
chr1-74034508-74035317,0.624404,0.45323682,-0.86357236,-0.6904845,-0.8642272,0.31490263,-0.1272199,1.5439665,-0.37819788,0.0011237719,-0.17915864,0.034027375,-0.5117367,-0.8495168,-0.076012924,-0.2759655,1.1062503,-0.28755358,0.19595686
chr1-74036556-74037419,0.7121407,0.68146133,-0.8587767,-0.95311606,-0.50259703,0.086766906,-0.08881968,1.3545917,-0.89180684,-0.0567908,-0.48425984,0.13160983,-0.76891357,-0.4557735,-0.24037519,-0.42937142,1.5133802,-0.34707215,-0.4065801
chr1-74236209-74236892,0.04680338,0.12312947,-0.30154246,-0.10941153,0.022213453,0.49122614,-0.14360733,0.64413476,0.008854777,-0.47360522,0.0052905376,0.4063817,-0.13367423,-0.06280136,-0.0068446524,-0.0028048924,0.4625594,-0.0006395747,0.0045698616
chr1-74713153-74714113,-0.55121624,0.910758,-1.1239614,-1.1708255,-0.10247355,1.399704,-0.68460727,0.813256,-0.20947011,-0.098561786,-0.1637437,0.14565863,-0.21987319,-0.1973249,-0.07961293,-0.21370183,0.9147644,-0.260512,-0.493595
chr1-74791372-74792304,0.24826206,-0.04505433,0.23268527,0.13067605,-1.0542163,-0.50821346,-0.20807752,-0.1396032,1.3585938,-0.33405635,-0.22979455,0.07908033,-0.35875362,0.8658594,0.015709924,0.094527856,-0.7461743,-0.15033302,-0.37443236
chr1-74816695-74817586,-0.65969235,-0.29289675,0.20128581,-0.0054456694,0.09421365,0.2534248,0.08095012,0.07124357,-0.0172694,-0.06678572,-0.0356466,-0.3564905,-0.06067383,0.004340975,0.0039818585,0.0028699492,0.14623672,0.006878887,0.018096955
chr1-74850031-74850867,0.68613505,-1.1403422,-0.2402584,0.80646175,-0.7449188,-0.7671123,0.42454785,-0.58719605,0.43801925,0.19018473,0.54296106,-0.88580996,0.094598405,-0.6839326,0.04744082,0.15158065,-1.229122,-0.12789308,0.21042591
chr1-74851088-74851880,1.022068,-1.0475681,0.7029527,0.25202388,-0.28411487,-1.6054614,1.0071393,0.23683602,0.048112344,-0.57766163,-0.3218023,-0.71464175,-0.20013788,-0.28763813,-0.18302135,0.26554748,-0.45393452,0.63552296,-0.3406604
chr1-74854466-74855304,0.15581827,0.07935919,0.18924199,0.14017214,0.23744053,-0.38581452,0.18756333,-1.0208452,-0.050758835,0.17789559,0.03481106,-0.7151983,-0.15622057,0.031105066,-0.010092977,-0.0005194172,-0.9240131,-0.0017283444,0.059642095
chr1-75217163-75218009,0.20652413,-0.3916472,0.39423516,0.37692004,-0.084878266,-0.6894193,0.1624422,-0.8865227,0.81468135,0.3108744,0.06916163,-0.44202256,-0.067713805,-0.3623487,-0.030842079,-0.029280575,-0.025901102,-0.10145011,-0.12573396
chr1-75218845-75219599,-0.06726686,-0.29410768,0.00041322323,0.20925869,-0.0428966,-0.10626751,0.106434114,-0.016702969,0.18814087,-0.15197714,-0.0073784315,-0.015118553,0.028189858,-0.009699868,-0.00034224274,0.0058533014,-0.058089215,0.00022319212,-0.0010055621
chr1-75246839-75247722,-0.63354504,-0.6880227,0.6346742,-0.8212418,0.075364225,-0.50491107,-0.71131736,-0.014962108,0.32595602,0.8361183,-0.020446341,-0.07751565,0.10471099,0.2863422,0.06047416,0.35392037,-0.5203035,-0.17445506,-0.6171401
chr1-75263096-75263879,0.028896807,-0.8207069,0.39675316,0.8733774,0.11061778,-0.97957385,0.35564733,-1.7554183,0.4002237,0.104996935,0.6849721,-0.5407308,0.08399702,-0.23183312,0.18217039,0.013560537,-1.5925084,-0.18009007,-0.70001566
chr1-75277375-75278177,-0.60074514,-1.249208,0.012472482,-0.80794513,1.5584733,-1.3534223,-0.9749275,-1.0701792,1.3452716,0.20853803,-0.23765196,-0.44640774,-0.5268934,-0.19131811,-0.104380235,0.31944424,-0.4748989,0.21968363,0.3132863
chr1-75435708-75436595,-0.16888718,0.83948886,-0.033977766,-0.35316795,-0.5225362,0.36175647,-0.57839286,0.7536609,-0.17953767,0.22861111,-0.1026499,-0.22084574,-0.04924504,-0.20192064,0.022996478,0.009944343,0.4578632,-0.063864544,-0.27561823
chr1-75487180-75488121,-0.19297524,-0.32374662,-0.20928562,0.10236374,0.22049522,-0.52359754,-0.026646458,0.1295786,-0.22877215,0.07702076,-0.025971292,0.03095416,-0.018692447,0.023692582,0.011451966,0.005425642,-0.43779537,-0.03293183,0.013177674
chr1-78310193-78310583,0.87972313,-0.5953662,-0.11872806,0.13774648,-0.12497761,-1.6268901,0.3340832,0.060621623,-0.20368622,-0.041372724,0.057799146,-0.097646356,-0.069898784,-0.04034663,0.01564077,0.010256795,0.36284038,-0.0015837274,-0.045856223
chr1-78310687-78311261,1.0468397,-0.6159886,-0.18234754,-0.033687692,-0.28500777,-1.3627728,0.36300105,0.1594424,0.30165184,-0.11204317,-0.08431444,0.0029136208,0.28997552,-0.23793794,-0.031369176,-0.05514511,-0.37982836,0.035206698,0.038947448
chr1-78537329-78538187,-0.6899491,0.06594005,0.1970485,-0.66477996,-0.237123,0.58647734,-0.7513865,0.86092025,0.45011243,0.5328404,0.030002398,-0.5668486,-0.22571205,-0.341796,0.016820328,-0.043961477,-0.0019625707,0.04197086,-0.4489345
chr1-79439544-79440422,0.40947607,-0.83929443,0.6776311,0.09544564,0.029574146,-0.5372229,0.006048451,-1.4143491,0.28848788,-0.44922104,0.05817058,-0.64532304,-0.17872727,0.36922225,0.020021036,0.07508563,-0.9080775,0.07622786,0.4106699
chr1-79671572-79672447,0.2719699,-1.0320147,0.59696114,0.41419905,0.28385508,-0.9549032,-0.19116825,0.5194344,-0.49088016,0.0188308,-0.054809257,-0.47457412,-0.2947333,-0.39607006,0.0164723,0.0616575,-0.6364513,0.050721392,-0.0023671908
chr1-79775787-79776671,-1.2886043,-0.021597635,-0.22174118,-0.23591919,0.06691029,0.17170642,-0.15232095,0.9041346,0.22323924,-0.2579106,0.06118788,0.19834816,-0.37691307,0.087157056,0.008643961,0.0027554485,0.30326083,0.008987284,-0.30843028
chr1-80758070-80758865,0.47982654,0.32217115,-1.0461249,0.36351207,0.089294456,1.041687,0.26094994,-0.35051188,-0.75511545,-0.94349915,0.0003454315,-0.4674377,0.36715457,-1.1936594,0.037895992,-0.13649267,-0.55988383,0.17185652,0.1585369
chr1-81076115-81076728,0.7071744,-0.65094745,0.38923284,0.44769165,0.85210884,-1.3781033,0.53264433,-0.8238246,0.013328202,-0.9805797,0.10896957,0.14885102,0.19170468,-0.16197614,-0.09511254,-0.026502838,-0.9679631,-0.21632268,-0.17868473
chr1-82724685-82725541,0.03346788,0.64563084,-0.22997232,-0.22695656,-0.09823621,0.59708315,-0.47019574,0.6474155,-0.039104506,-0.31354868,-0.008600528,-0.13684359,0.0066460106,-0.004020331,-0.0016785569,-0.014611661,0.2622556,-0.02968432,-0.09544604
chr1-83037914-83038739,-0.24233368,0.40918237,-0.0649127,-0.028787067,-0.17072937,-0.6717455,0.101981334,0.653714,-0.358895,0.2750762,-0.019901192,-0.13683432,0.041314457,-0.04109787,0.004073775,-0.0032426682,0.6537437,-0.006279952,-0.07855789
chr1-85735460-85736300,0.37512195,-0.3452625,-0.6202791,-0.5766205,-0.37327614,-0.73840684,-0.81956285,1.2736362,-0.76282716,1.1873965,-0.6066033,0.8512507,0.10590037,0.041626226,-0.31434834,-0.28517023,1.4034506,-0.58370996,0.32462838
chr1-85898179-85899030,0.5728005,-0.7833853,-0.21985899,0.5897864,0.37667498,-1.5326656,0.62092996,-1.6201236,0.37752032,-0.2252415,0.15013596,-0.5645233,0.2930667,0.027197761,0.022832416,-0.1421142,-1.3206155,0.21186174,0.14732742
chr1-85907968-85908908,-0.07086029,-0.44981977,-0.44186494,-0.2768308,0.14956978,-0.7983481,-0.9646169,1.069619,-0.36558113,1.2507528,-0.044644102,0.10398973,0.058669657,-0.47749177,-0.01039109,0.06626516,-0.5577333,-0.21169963,0.2447785
chr1-87507535-87508415,0.977443,-1.242774,-0.118102044,0.553616,-0.1956861,-0.49678433,0.7994365,-1.4027085,0.2760974,-0.13518448,0.35184062,-0.6366871,0.8881227,-1.0116793,-0.2951883,0.09849806,-0.8202811,-0.49276763,0.36202085
chr1-88007957-88008785,-0.11936118,0.9150581,-0.31312984,-0.09579298,-0.19344433,0.16354659,-0.35086057,0.7405524,-0.065892436,-0.063543044,0.07827566,0.54175407,0.004209784,-0.084099956,-0.17387176,0.052560095,0.30019775,-0.043421637,-0.2845417
chr1-89967912-89968781,0.4484345,-0.23679565,-0.031997804,0.41463017,0.029754044,-0.44556662,0.5981113,-0.68866616,0.11830658,-0.120137,0.08753755,-0.5791112,0.33613896,-0.027495168,0.010006789,0.0023743007,-0.95730937,-0.22551551,-0.18799818
chr1-90998458-90999244,-0.27834362,0.34200576,-0.008534723,0.06507156,0.020938646,-0.08978886,-0.08665094,0.37818155,-0.26592347,0.12558329,-0.003288173,-0.06594807,-0.031153994,0.023342164,0.005728931,-0.002947112,-0.11667343,-0.093380295,0.029313222
chr1-91297864-91298758,-0.2896523,0.57591575,-0.34916082,-0.13135625,0.39066976,0.47992936,-0.09479977,0.66752464,-0.5660625,0.03902119,-0.073006384,-0.34457484,-0.21557215,-0.37014505,-0.0032681115,-0.113821484,0.64206696,-0.05663472,-0.06963465
chr1-92849854-92850399,-0.103355825,-1.1663687,0.3100861,0.7639069,0.48953557,-1.1417143,1.0793003,-1.0837829,-0.15064315,-0.7106237,0.06739052,-0.45809895,0.4077825,0.45630527,-0.06472245,0.1845462,-0.88873523,-0.047027137,-0.12524539
chr1-92906918-92907715,0.2643116,0.22462909,-0.30789605,0.02919236,0.29575807,0.33717185,0.2451638,-0.03595436,-0.69509566,-0.06756296,-0.23041958,0.3084552,0.07903663,-0.15063861,-0.029557131,0.009674801,0.31557313,0.003519998,-0.040101413
chr1-93015167-93016105,-1.0186508,-0.41006988,0.539895,-0.9755952,-0.08914009,-1.2754512,-1.0966476,-0.15060663,-0.52398795,1.774602,-0.27317277,-0.1152421,-0.25423566,0.3450877,0.08106825,0.31802318,-0.4762093,-0.019135503,0.18205509
chr1-93511760-93512601,-0.33325356,0.89346,-0.36333698,-0.46254534,-0.34657836,0.32683876,0.11983276,0.6239381,-0.34606138,0.54305315,-0.013119921,0.9044867,-0.4273018,-0.51582724,-0.004311666,-0.120553285,0.33024535,-0.012139648,-0.16511539
chr1-96871728-96872494,0.4722112,-1.0444986,0.2912423,0.40718883,0.02542823,-1.3122573,0.448943,-0.26624507,0.3007676,-0.301478,-0.02335682,-0.14372888,0.33747354,-0.059659787,0.008201129,0.12609115,-0.9802279,-0.013613462,-0.09460827
chr1-97657628-97658449,-1.0410819,-1.2742672,1.6728035,-1.4831622,-1.4405822,-1.0634886,-1.220159,-0.08997362,1.5030402,0.44961503,-0.6082081,-0.60561705,-0.5048371,-0.37029108,-0.2122562,1.0996745,-0.58145934,-0.7215802,0.5320421
chr1-97769732-97770672,0.0129197,0.23610121,-0.24682713,0.08298425,-0.20940825,0.50655174,0.10425687,0.42037213,0.016621102,-0.2597309,-0.10149353,0.13972202,-1.078988,-0.6250341,-0.008411095,0.037078395,0.44303936,0.08153279,0.025332514
chr1-102627807-102628706,-0.5990187,-0.05916016,-0.14970133,-0.5900859,-0.3526002,-0.31053528,-0.737664,0.60533476,-0.66952056,1.5311309,-0.6272713,0.33444166,-1.1115265,0.0309417,0.20385005,0.9633479,-0.6935545,-0.031320874,-0.43005717
chr1-104768582-104769516,-1.1625539,0.91038847,0.31269345,-0.5053879,-0.19130191,0.9914966,-0.47013,-0.08653207,-0.66788155,0.22107069,-0.022453329,-0.58548635,-0.4233935,-0.10685236,0.18892711,-0.33481333,-0.273571,0.0005156244,-0.29292384
chr1-104770181-104770890,-1.4058231,1.0606308,0.47529098,-1.5263153,0.3080926,1.1932828,-1.2650559,-0.5910265,-0.72600776,0.14742109,-0.31459108,0.11153923,0.1918608,0.34782988,0.060642622,-0.09754689,-0.24081323,0.03554868,-0.31268564
chr1-105991031-105991832,0.049666617,0.39041746,-0.34626052,-0.20928185,-0.24094875,0.3858547,-0.020264208,0.5745339,-0.48725134,0.10858554,-0.1436914,0.6791049,-0.006220895,-0.030619152,0.008470242,0.026358748,0.14425664,0.0060520163,-0.06588831
chr1-106759180-106759972,-0.05288251,0.44891948,-0.29065555,0.14277805,0.045585122,0.053076092,-0.08078962,0.48673236,-0.040163994,0.056164566,0.005534228,-0.1729472,-0.015475092,-0.6872972,0.005582286,-0.012932608,0.39833722,-0.013276665,-0.24164209
chr1-109982416-109983224,0.44603458,-0.75254637,0.2139206,0.38951102,0.23822333,-0.2283606,0.8399203,-1.5066855,-0.18767507,-0.34385327,0.07668977,-0.5424426,0.44710448,-0.37244105,0.0054034917,-0.4659028,-0.7357426,-0.026362365,0.4159002
chr1-111864293-111865070,0.101051554,0.21597691,-0.4015666,0.21735124,-0.0448641,0.38877746,0.17883179,0.36685246,-0.30078447,-0.17831388,0.00025580876,-0.2488933,0.028224261,0.06543576,-0.015246245,-0.015688341,0.3103581,0.0059003937,-0.041278515
chr1-115684632-115685363,0.6458781,-1.4520499,0.3212146,0.9553209,0.3993415,-0.97606117,0.48782167,-1.576986,-0.47246113,-0.4777421,0.18195899,-1.2920691,0.2732153,-0.041342147,0.12151406,-0.26425695,-1.2161158,0.037687246,-0.034065276
chr1-118482348-118482840,-1.3706108,-0.3753873,0.7999151,-0.17977986,-0.03261158,-0.11047963,-0.29183558,0.04236802,0.6658651,0.5220717,-0.0071826503,0.30342197,-0.482804,0.29255706,-0.16587728,0.11657421,-0.09065969,-0.339892,-0.044555455
chr1-119912752-119913676,-0.26119,0.20517413,-0.15022628,-0.27491412,0.09344817,0.47025007,0.117828384,0.11539186,-0.05946043,-0.050882585,-0.061391108,-0.06742028,-0.028739404,0.007179687,-0.004041553,0.004713446,0.1392628,0.0016554416,-0.014983663
chr1-124044797-124045563,-0.11833052,-0.043441735,0.40362245,0.65145487,0.4554431,-0.39956433,0.62805074,-1.0170773,-0.29849577,-0.991868,0.17863593,-0.40297335,0.0058724233,-0.0056769187,0.009150991,-0.55107677,-0.5100399,0.3567956,-0.19171451
chr1-127773758-127774472,-0.21433134,0.49028438,-0.3723146,-0.4310863,0.18199179,0.48596177,-0.00026000463,0.5491048,-0.4294488,0.093416095,-0.069249295,-0.07397748,0.12718216,-0.301491,0.07537688,0.046664402,0.57262504,-1.4894062,-0.35221735
chr1-127868492-127869352,-0.14963262,0.4096576,-0.18220107,0.038337357,-0.45604864,0.575546,0.60955566,0.48367333,-0.11625601,-0.26748836,-0.079504184,-0.20214853,0.030124756,0.07450127,-0.029815095,-0.013955803,0.35078478,-0.034928683,-0.07879638
chr1-128472099-128472945,-0.3863981,0.29136848,-0.9519813,0.08486918,-0.060702626,0.6474143,1.0569528,-0.45072648,-0.12298203,0.04093471,0.027510257,-0.29807514,0.09535063,-0.16985585,0.005501258,-0.032650676,-0.21012963,0.04484247,-0.25523454
chr1-129273181-129274104,-2.5996866e-05,-0.07433163,-0.015404239,0.024498114,0.2842404,-0.018507075,-0.1565731,-0.6088854,0.915191,-0.38373515,0.078703836,-0.43907973,-0.13655812,-0.027883805,0.02060986,-0.006226963,-0.5804497,0.028078668,-0.40261498
chr1-131152872-131153719,-0.0054315296,0.5495892,0.079933755,-0.17063323,-0.114568785,0.20426115,0.38631874,-0.123283885,-0.4097568,-0.5707861,-0.030408358,0.059504673,-0.04436082,-0.028788935,0.016090475,-0.003403534,-0.53149736,-0.023369487,0.04756591
chr1-132067418-132068173,-1.1451517,-0.54760087,1.143375,-1.5708209,0.40207428,-0.5657134,-1.3699577,-0.4772137,1.0856129,0.6124205,-0.26579416,-0.8591912,-0.85072416,0.976802,-0.0010902802,0.17271473,-0.5024637,-0.2352857,-0.30314884
chr1-132298470-132299386,-0.8488515,-0.19064197,0.5924189,-0.06569539,0.6971179,-0.48944545,-0.43167695,-0.077031724,-0.66912293,0.39316374,-0.059368584,-0.26618215,0.31569713,-0.16215603,0.024184478,-0.013279638,-0.80126196,0.13969885,0.057559084
chr1-132541733-132542386,0.28908607,-0.204591,0.49390316,-0.73894906,-0.22548652,0.56934726,-0.13772506,-1.0922217,0.64585155,0.15483971,0.12142856,-0.21671091,-0.323079,-0.11327005,-0.012311824,0.03328294,-0.6045877,0.03544548,-0.04023177
chr1-132542509-132543175,0.5690021,-0.08387015,0.2693433,0.28074527,-0.7841589,0.32674253,0.19086774,-1.039241,0.20805365,-0.44399428,0.25198543,-0.8210867,0.3889313,0.10980775,-0.06635606,0.04437281,-0.952136,-0.08108537,-0.258601
chr1-133024892-133025794,-0.04417364,0.6556099,-0.11917011,-0.3091877,-0.046509635,0.49584407,0.111205585,0.8154294,-0.32211357,-0.6859927,-0.22641249,0.11996289,-0.2959294,-0.0094143,-0.022904262,-0.11004632,0.48752782,0.15214437,-0.049906164
chr1-133609628-133610568,0.16728678,0.6504873,-0.2866513,0.124732755,0.064943455,0.30798104,0.059534095,0.25465176,-0.5457629,0.18775268,0.014099682,-0.021020368,-0.61481506,-0.2680695,-0.0207787,-0.05309126,0.36250547,0.03645357,-0.14992496
chr1-134092787-134093649,-0.03195415,0.69367516,-0.4629052,0.523449,0.23720586,0.09944821,-0.23782775,0.15939891,-0.56863433,-0.15239891,-0.05995867,0.100877054,-0.10757748,-0.2175297,-0.015966123,-0.05437496,0.33247304,0.03153023,0.059992876
chr1-134098890-134099781,-0.5914558,0.703293,-0.077570036,-1.0782,0.5539946,0.27394944,-0.82975227,0.8633346,-1.0239116,0.25862905,-0.111635126,-0.17775749,-0.5700537,-0.19155729,0.02950708,-0.0723129,0.63176394,0.3097827,-0.5142877
chr1-134344165-134344864,0.4322913,-0.545112,0.4835864,0.70791864,0.5006951,-0.84049755,0.42334569,-1.6569549,-1.1662564,0.06139622,0.2516382,-0.99326175,0.44605744,-0.13531233,0.013296867,-0.11918806,-0.40666074,-0.05293109,0.06892547
chr1-134405627-134406534,0.1978879,0.45178068,-0.31358543,-0.123451345,-0.28950208,0.46350402,-0.039098687,0.6391987,-0.3291462,-0.09085184,-0.24443242,0.47383168,-0.13997754,-0.23663472,0.016876413,0.0073284004,0.5568869,-0.2072096,-0.08513598
chr1-134494376-134495259,-0.06856266,0.29986316,-0.65431505,-0.19207793,0.035854578,0.45777103,-0.14882982,0.8585198,-0.0020848615,-0.058719926,0.0036904896,0.4037165,-0.108070046,-0.19023837,-0.0033976487,-0.01900779,0.47007102,-0.02268503,-0.025420751
chr1-134962210-134963069,-0.36570796,0.24075562,-0.4964803,-0.47957808,0.0085246805,0.31455576,0.4145154,0.7033375,-0.005619547,-0.13029447,-0.16542776,0.32796922,0.21406022,-0.5707356,-0.028914202,0.03977843,0.5541855,-0.044560127,-0.25006518
chr1-135162448-135163365,-0.8343735,1.2867135,-0.81764466,-1.0204899,-0.2910846,0.79597926,-0.5047543,1.1812752,-1.0521259,-0.39545482,-0.6229854,-0.10179133,-0.315965,-0.07817474,0.07018199,-0.21295275,0.7790901,0.0875631,-0.16467835
chr1-136414869-136415792,-0.04406576,0.6337149,-0.2603851,-0.14363973,0.08944858,0.2513388,-0.068926394,0.6999098,-0.8308039,-0.082263425,-0.050810695,0.09318285,-0.0072337883,0.0057936497,-0.009028066,-0.0051430454,0.63327134,0.0029491717,-0.05036647
chr1-136628723-136629643,0.23723644,-0.8201554,0.33935183,-0.09911986,-0.6429503,0.9337533,-0.37888217,-0.5686145,0.4690669,0.07377867,-0.06608084,-0.26732773,0.3151677,-0.27333593,-0.009797423,0.09038954,-0.5740473,-0.11611693,0.057139397
chr1-138617670-138618475,-0.40191934,0.4140989,-0.09033339,0.011928707,0.14512122,0.5887039,-1.0901136,0.5928295,-0.4787963,0.5467717,-0.11549299,-0.21215166,-0.32365718,0.039084215,-0.04348782,-0.009004432,0.90761197,-0.08025081,-0.088270426
chr1-138856333-138857172,0.2864852,0.41330054,-0.3731544,0.28476992,0.23073356,0.004879563,-0.4191256,0.59386235,0.01715543,-0.63648826,-0.047375545,0.15662898,0.07841378,-0.43464136,-0.010415904,0.009923057,0.4012929,-0.08631795,-0.57347536
chr1-138963446-138964270,0.04672987,0.37934119,-0.36308122,0.01033874,0.17778885,-0.08855504,-0.029705524,0.79936975,-0.24247313,-0.105378516,-0.044178598,-0.208251,0.4010894,-0.13953862,-0.01757387,-0.06198085,0.69486684,-0.058843978,-0.022035489
chr1-139421912-139422787,-0.1556668,0.49410808,-0.273889,0.11431214,0.025246201,0.6455865,-0.26321393,0.76189893,-0.22184817,-0.11163,-0.041637804,0.15505734,-0.1687828,-0.32329035,-0.08213852,-0.06318655,0.58555764,-0.039055463,0.28217772
chr1-140245628-140246552,-0.6743522,-0.469243,0.3567785,0.012698307,0.04724344,-0.3835502,-0.15625274,-0.21458137,0.6974767,0.4208412,-0.012995521,-0.39152777,0.04479769,0.22444355,0.018719021,0.028578212,-0.40051675,-0.04592654,-0.65105045
chr1-143640498-143641444,-0.13421066,-0.3869581,0.20976828,0.49562916,-0.9526041,0.38890582,-0.05385864,0.28200555,0.46898982,-0.9838005,-0.057146613,-0.67993003,-0.37181363,0.21548678,0.23637033,-0.18909332,-1.1206286,-0.1545276,0.3277389
chr1-143643844-143644682,0.14154072,-1.2169169,0.8675847,-0.24618131,-0.08765198,-0.8962428,-0.061008353,-0.6052946,0.77395076,0.60904473,0.11615485,-0.21939236,0.16738096,-0.33256954,-0.038833156,-0.13623282,-0.49170423,0.004282997,0.19397241
chr1-143776756-143777603,-0.30611634,0.49826723,-0.08893824,-0.11522211,-0.02176935,0.5227845,0.2018796,0.3418218,-0.03829356,-0.12646183,-0.019608801,-0.19381076,-0.5007911,0.06925445,0.00013027829,-0.0046348735,0.41084814,0.052013904,-0.2720318
chr1-146494643-146495589,-0.082157254,0.325931,0.46254495,-0.47675112,0.39677167,0.3663266,-0.4570281,-0.21308193,0.31774724,-0.55740994,0.035471227,-0.3049381,0.016103728,0.08132999,-0.02699046,-0.05835185,-1.2694654,0.028962588,0.13456331
chr1-146497480-146498344,-0.06442693,0.31710798,0.16187672,-0.43379775,0.18120904,0.77827734,0.20500824,-1.3516139,0.15847322,-0.32255605,0.08182016,-0.63310224,0.29504883,0.06791788,0.0052498225,-0.02732699,-1.0706506,-0.36278468,0.0041149403
chr1-150991630-150992432,-0.8650157,0.012250263,-0.51060486,-1.1462488,-0.98082465,0.46636695,-0.43654272,1.8655881,-0.5503288,0.6145897,-0.52107525,0.8414527,0.035338875,-0.61936927,-0.5805795,-0.35011733,1.6528273,-0.6485893,-0.651461
chr1-151571141-151572081,-0.9799988,0.9043348,-0.3868057,-1.3276975,-1.2167317,0.013903296,-0.73787844,2.0182524,-1.0029594,0.4735088,-0.3645838,0.4538732,-0.14990063,0.050257508,-0.3628388,-0.5264678,1.7587354,-0.6185079,-0.70217603
chr1-151754918-151755731,0.071036436,0.47106925,-0.4402054,0.13373385,-0.039063867,0.45978725,0.03805195,0.4070467,-0.4618952,0.093449436,-0.014919366,0.023473835,0.099602096,-0.07265657,0.0060219215,-0.11317342,0.48854157,-0.1374024,-0.035678748
chr1-153660973-153661902,0.7223416,-0.88653904,-0.354295,0.8089034,-0.16085975,-0.821504,0.97020936,-0.6073731,-0.010552171,0.24409078,-0.083654724,-0.49668282,0.286118,-0.31858325,-0.022098118,-0.21124262,-0.26979083,0.24091695,-0.3510029
chr1-153683133-153684027,-1.192136,0.3184534,0.48937997,-0.91642106,-0.8813225,-0.052881464,-0.691308,1.1867846,-1.1510491,1.4184104,-0.28997266,-0.21159832,-0.6487019,-0.7618131,-0.085191116,0.33708003,0.62045425,-0.34338692,0.27266425
chr1-154723122-154723593,0.5596219,-0.5691104,0.28877023,0.41603547,-0.20193832,-1.2327521,0.5624293,-1.0203477,-0.09271033,0.21848348,0.13984178,0.12996335,-0.22600284,0.23198539,-0.014481337,-0.36144206,-0.6394177,0.13660848,0.38313553
chr1-154726301-154727074,0.28726965,-0.5967221,0.2625108,0.60955805,-0.4162376,-0.7083589,0.35783666,-0.91586816,0.1953614,0.1687221,-0.01792593,-0.7186867,0.13901336,-0.3502413,0.08937031,-0.22691447,-0.27357548,0.09991114,0.06345777
chr1-155415053-155415788,-0.14000969,-0.2402031,-0.56999475,0.6820879,-0.24168432,-0.66961277,0.41929728,-0.008962688,0.47099862,-0.2992692,-0.011772316,-0.53240955,0.37402612,-0.16248354,-0.030844716,0.05730554,-0.68485016,-0.041220963,0.22756253
chr1-156040508-156041374,0.0023899009,-0.05619275,-0.11404997,0.04346468,-0.43958196,0.20934118,0.31317827,0.7337654,-0.036967237,0.3025058,-0.08707943,0.41121697,0.002709069,-0.025031453,-0.019259159,-0.078449376,0.8007342,-0.2927359,-0.1253745
chr1-156204375-156205260,0.9874276,-0.24167614,-0.3177629,0.35736805,-0.5276466,0.83196026,0.78560567,-0.28823432,-0.7754387,-0.3371522,0.0051521617,-0.32859945,0.8131033,-0.46369493,-0.3289414,-0.58432084,-0.5811984,0.16762188,-0.6967249
chr1-156473769-156474651,-0.6108378,0.029238693,-0.44525284,-0.68423516,0.26057836,0.51448137,-0.23987888,0.41696522,0.0057755513,0.30344978,-0.19927728,0.3103503,0.055405647,-0.008041056,-0.02078168,-0.27713275,0.15190773,0.058320712,0.4651922
chr1-157230801-157231659,0.21167342,-1.121871,0.05153556,0.04176826,-0.2761465,0.4147363,-0.36263046,-0.060248427,0.3753119,-0.24667141,0.019847002,-0.30812854,-0.041365575,-0.21980093,0.009128699,0.000902907,-0.11768246,-0.017467361,0.20840625
chr1-157243750-157244688,-0.41798806,0.40090194,-1.0869395,0.7126426,0.7179972,0.56382793,1.119037,-0.051795475,-0.906482,-0.9656314,0.115271114,-0.47434887,-0.30778202,-0.52022153,-0.09621322,-0.20052914,-0.66024727,-0.22164053,0.71400255
chr1-157443443-157444248,0.036817137,-0.054569807,0.27343303,-0.30876502,-0.44776246,-0.40956113,0.34495592,1.1466811,-0.25054586,0.0985311,0.066337764,1.1169288,-0.15927908,-0.40810934,-0.022763202,-0.12266172,-0.06253879,-0.24610743,-0.31513986
chr1-158355879-158356677,0.18559553,0.31485933,-0.07473405,0.18650776,-0.16105083,0.44736037,0.23357722,0.0141523555,-0.5020956,-0.37147295,0.004637052,-0.23130241,-0.12736279,0.33322808,0.0052415757,-0.0074864225,-0.9586869,-0.11913828,0.0024083718
chr1-160577323-160578130,0.89766306,-0.8470313,-0.8153177,1.3453938,-0.2799849,-0.9468313,1.5147567,-0.9528565,-1.4825125,-1.2541032,-0.020014621,-0.45385173,0.1805842,-0.5920192,-0.09500504,-0.2979142,-0.8726481,0.23139372,0.63609606
chr1-161070294-161071184,0.08852849,0.3960136,-0.3184923,-0.48761898,-0.04499575,0.083607115,0.05442158,0.3811703,-0.14846916,0.24993274,-0.052371196,0.06595195,0.06826111,-0.001162722,-0.0029689253,-0.03582588,0.3101256,0.054735497,-0.036382888
chr1-161130854-161131707,0.008066997,-0.07901001,-0.05600273,-0.07020833,-0.32281908,0.31366357,-0.14416243,0.78826475,-0.5737986,0.4141728,0.014010325,0.2568387,-0.23474166,0.12130969,-0.012669429,-0.00028609193,0.327911,-0.037270017,-0.011802003
chr1-162739912-162740711,-0.06629434,0.5223714,-0.18489236,-0.35871476,0.1383733,0.35941803,0.26942497,0.5834808,-0.58314186,-0.6975428,-0.5310417,0.5901903,0.18355042,0.1768775,0.017882507,-0.28965747,0.20119871,-0.03437236,-0.66198504
chr1-164436759-164438729,-0.45421857,-1.6354368,0.8820448,-1.0805469,-1.178554,-1.7849637,-1.3863494,0.3349218,0.2198956,1.7705783,-0.5568467,-0.44707745,-0.31619254,-0.069554865,-0.11874869,0.90796655,-0.54147446,-0.5440415,0.4998547
chr1-165236449-165237253,-0.40312994,0.42225376,-0.35746914,-0.17538606,-0.106369965,0.47557592,-0.11205537,0.6037028,-0.15050043,0.3130056,-0.16998678,0.5547673,0.028159477,0.007285549,-0.0075779883,-0.007099861,0.4410237,-0.009212905,-0.19205333
chr1-167339904-167340798,-1.1546085,-0.15105109,-0.11990315,-0.14199646,0.76142836,-1.1522712,-0.15873803,1.5366985,-0.5004709,-0.002106011,0.032026634,-0.37046307,-0.5092119,-0.056904487,0.060778968,-0.25105366,0.74155384,-0.46713457,0.20548797
chr1-168676410-168677269,0.6193803,-0.24690183,0.8173136,0.6451531,0.4101896,-1.2269957,-0.676065,-0.26866406,0.08351751,-0.6579436,-0.018141264,-0.45548955,-0.26622596,0.122609,-0.08912201,0.19734387,-0.5591359,0.33832794,-0.29642767
chr1-169968845-169969759,0.06897042,0.53589934,-0.61001885,-0.18803696,0.041735627,0.48579848,-0.023021411,0.4839856,-0.45664284,0.09326776,-0.010825175,-0.37264106,0.007932897,0.04246438,-0.00024680153,-0.026747577,0.057179924,-0.011742018,-0.057963222
chr1-170174418-170175320,0.23352355,0.6032432,-0.27273965,-0.18329023,0.27034238,0.35648096,-0.31430906,0.27589837,-0.03236719,-0.6331088,-0.066980794,0.38852406,-0.07033195,-0.05254496,-0.011644825,-0.011877194,0.2434335,0.052623827,-0.113416344
chr1-170907627-170908514,0.42106903,-0.032416582,0.20271513,-0.019936189,0.44966352,-0.053932853,-0.33774573,-0.7902639,-0.49856323,0.22399014,0.025102274,-0.1938818,-0.043498874,-0.1470029,-0.008784847,0.032776274,-0.45551792,0.053992495,-0.12105706
chr1-171037885-171038665,-0.076600894,-0.021762192,-0.49559277,-0.019468702,0.32215852,0.45868298,0.1608031,0.4959426,-0.41983303,-0.023958523,-0.08334175,0.20490387,0.04249115,-0.10383463,-0.02197696,-0.017502459,0.5137414,0.009952311,-0.2222743
chr1-171262541-171263372,-0.7149193,0.98624563,-0.1925289,-0.34549,0.5220094,-0.26668188,0.19782254,-0.49892923,-0.24253517,-0.32743797,0.090220034,-0.07051823,0.025721494,-0.044364844,0.13358584,-0.10108333,-0.022031395,-0.032445185,-0.29694253
chr1-171270058-171270830,0.10950938,0.4275602,-0.3854835,0.23763084,-0.2482794,0.03203468,0.108087845,0.070155054,-0.105590664,0.10754356,-0.005464523,0.38541716,-0.058502864,-0.1592853,0.00065823516,-0.0025159996,0.16146359,0.0022051942,-0.04791366
chr1-171411060-171411837,-0.020684185,0.48734185,-0.4506796,-0.21924244,0.06381062,0.5201151,0.35145652,0.49897176,-0.17231965,-0.5422538,-0.005581427,-0.04364099,-0.03871612,0.03308487,-0.012150671,-0.1953474,0.55663246,-0.030983035,0.052070685
chr1-171437293-171438102,-0.111162335,0.440427,-1.0259662,-1.2215586,0.43243048,0.0709857,0.041270982,1.5840391,-1.6090714,-0.03113319,-0.9316603,0.8513181,0.09498777,-0.62166125,-0.5187729,-0.79643655,1.4377966,0.004653437,-0.32001013
chr1-172082320-172083240,0.08708175,0.2524518,-0.58506435,-0.04430765,0.17288841,0.43795952,0.15761706,0.26954022,-0.021953754,-0.25845763,-0.22838174,0.2627199,0.08613689,-0.8373269,0.035474055,-1.1658508,0.61129427,-0.0006107566,-0.28318113
chr1-172309733-172310539,-0.34358764,0.5299338,-0.25810426,-0.4578191,0.82367814,-0.62911344,0.2629443,0.6639018,-0.20935106,0.20638336,-0.16978362,0.06795185,-0.3865685,-0.11279876,-0.07138039,-0.10295343,0.34234846,0.058635022,-0.5499559
chr1-172328815-172329539,0.20209363,-1.0910767,0.6784756,0.36245227,-0.018623434,-0.6183135,0.11385565,-1.1835787,0.3948744,0.16612183,0.105482094,-0.44876108,0.42021605,-0.35582784,0.015310844,-0.1330285,-0.6016573,-0.1644394,0.120334685
chr1-172349679-172350586,-1.3420832,1.5701027,-1.4461807,-0.8767007,0.55758315,1.2269994,-0.52274054,-0.03720698,-1.4828315,-0.093941405,0.095442906,0.23610306,-0.46215782,-0.77458423,0.0036766832,-0.14392051,0.043526392,0.1483353,-0.5424154
chr1-172489965-172490857,0.046437956,-0.61952937,-0.10661293,0.46870258,-0.19078869,-0.09389494,0.09502578,-0.24002072,0.5699678,0.7150972,0.22289638,-0.44997388,-0.39281756,-0.24558005,-0.06321355,0.09742197,-0.18698226,0.12860543,-0.26951993
chr1-173365672-173366424,0.42172053,-0.4905627,0.2966003,0.6295413,0.06593405,-1.0178505,0.058565248,-0.63656205,-0.008798853,-0.03315084,0.32186723,-0.13789956,0.0331933,-0.44894812,-0.040201694,0.07602755,-0.8439475,0.06436286,0.0216708
chr1-173389565-173390430,0.6369231,-0.41725805,0.30389854,0.40677786,-0.17692325,-1.214191,0.5959633,-1.5350845,0.4473234,-0.098730855,0.09007944,-0.89681345,0.25972372,-0.08679529,-0.01590439,-0.06919374,-0.88464314,0.028844059,0.5559814
chr1-174921239-174922136,0.71034974,-1.3887419,0.27765357,0.44672608,-0.1006615,-1.4568808,0.66634667,-0.16120592,0.30460215,-0.19818503,0.4457536,-1.0521886,0.075038254,-0.6499529,-0.012554004,0.0048087263,-0.46218997,-0.036748495,-0.15855151
chr1-177447744-177448500,-1.5024077,-0.27249238,1.2996455,-1.0700979,-1.2748036,-0.95447534,-1.1087085,-1.2577987,1.5329802,1.0015783,-0.32288918,-0.9098172,-0.8010515,0.26929808,-0.017655866,0.2428704,-0.33274946,-0.5585243,0.23046164
chr1-177983026-177983889,0.116711535,0.03435423,-0.32253715,-0.28785697,-0.6210849,0.14913307,0.09734474,0.522347,0.11996999,0.08563027,-0.007618327,0.42074603,0.097338855,-0.06292459,0.0027456253,0.0024374,-0.59048843,-0.018032456,-0.053682905
chr1-178337310-178338169,0.026034487,0.6737263,-0.28996816,-0.32289857,-0.0822386,0.5564884,0.34365246,0.4196668,-0.13368455,-0.75931394,-0.2882124,0.62561476,0.15980692,-0.90092677,-0.15563168,-0.14627485,0.4128366,0.3802652,-0.37272012
chr1-179545961-179546851,-0.04066381,0.41992617,-0.1975281,-0.108440116,0.06223669,0.5124771,0.02276199,0.6300897,-0.076037094,-0.7171332,-0.11396642,-0.18491077,0.09456869,-0.14486341,-0.006406051,-0.01341959,0.27194947,-0.13552755,0.28315544
chr1-179667918-179668783,-0.57561666,0.91371804,-0.52608305,-0.4282362,0.25696838,0.70751244,-0.4056815,0.43249345,-0.13009943,-0.46680096,-0.031964865,-0.25065035,0.109994166,-0.013900816,-0.01509476,-0.034292422,0.50555044,-0.023831837,-0.10764614
chr1-180483051-180483839,0.8845187,-0.3121196,-0.1537558,0.80105716,0.4634935,-1.2345289,0.74667215,-0.7766044,-0.4588295,-0.7355335,0.055007588,-0.9761747,0.15437251,-0.8141148,-0.06221737,0.085694164,-1.0857035,-0.32247314,0.57755834
chr1-180904040-180904830,0.24034326,0.34296504,-0.42434865,-0.27149513,0.07446406,0.4036256,0.103211455,0.63703156,0.104142405,-0.5826676,-0.036140904,0.45354256,-0.11133223,-0.5297742,-0.013704223,-0.048819054,0.44542703,0.033803243,-0.07032639
chr1-181355145-181355961,-0.8252378,-0.5648445,0.78820854,-1.1984531,1.0168852,-0.8445315,-1.27456,-0.655578,1.4229864,-0.30667105,-0.11145143,-0.3934469,-0.5139847,-0.0077337194,0.013128993,0.10392545,-0.8499327,0.2662627,0.24026105
chr1-182124566-182125517,-0.097836085,0.15284705,-0.75597626,0.21381895,0.00038408086,0.31865448,0.23709592,0.08856095,0.051462833,0.022659456,-0.01892289,0.011728274,-0.073867686,0.05520238,-0.005772035,-0.0034324797,0.349285,-0.022588165,-0.027235154
chr1-182280408-182281285,-0.09998354,-0.6842525,0.41444167,0.5322336,0.27750716,-0.20237613,-0.23013692,-1.1854837,0.62986284,0.07506162,0.015594257,-0.40527698,-0.41678798,0.42854,-0.055228718,0.006595979,-0.5347832,-0.06279348,0.17014277
chr1-182288001-182288889,-1.1692343,0.8458517,-0.8770769,-1.4608101,-1.3764579,2.3693886,-1.2334402,-1.2473804,-1.1103764,0.4188033,-0.51267946,0.6517156,-0.713627,-0.7124984,-0.35455102,-0.07414747,-0.7020606,-0.6230646,-0.072585896
chr1-183345062-183345902,-0.128228,0.39048505,-0.12935562,-0.13453735,0.03954469,0.32947394,0.16332065,0.47892573,-0.40647122,-0.0006705129,-0.020806855,-0.1702504,0.049793456,-0.097651675,-0.0036029026,-0.095189705,0.18424425,0.015705865,0.104406066
chr1-184882352-184883186,-0.35080236,-0.3899384,0.69433844,-1.0482786,0.76217,-1.3172499,-0.98919183,0.9639089,0.4189919,0.02134466,-0.63218343,-0.55499285,-0.22490783,0.29718825,-0.155505,-0.23249765,0.8715764,0.07279141,0.20064744
chr1-186116709-186117524,0.046067838,-0.22884832,-1.1255356,0.028144557,-0.41878757,0.4815211,0.10426792,0.75092584,-0.2400055,0.21437572,-0.03305955,-0.00061280816,-0.048734628,-0.42415798,0.0054137763,-0.023366515,0.459438,0.020286715,0.16920692
chr1-186705212-186705971,0.19221191,0.46541604,-0.69293684,0.21427028,-0.2086404,-0.22400624,0.34687537,0.62583596,-0.17401776,0.106380016,-0.118807204,0.1700138,0.07278217,0.20781775,-0.010542705,-0.09138477,0.4464952,-0.12302857,-0.70727986
chr1-187651041-187651424,0.58119076,-1.2568113,0.11778004,0.5518128,-0.23165134,-0.95307225,0.7814713,-1.3021669,0.07325318,0.40619144,0.37023044,-0.7525785,0.8189703,0.39693403,-0.2508641,0.11830993,-1.0526696,-0.21450995,0.37000224
chr1-187997403-187998242,-0.023092413,-0.20472665,-0.29465467,-0.06989605,-0.047576424,-1.2079439,0.7022808,-0.09927027,0.940967,-0.5940796,-0.043129086,-0.0920263,0.09663841,-0.15953723,-0.02697618,-0.033125523,-0.30191353,0.18669906,0.3612992
chr1-191317449-191318339,0.28066576,-0.13438725,0.045912385,0.04622819,-0.25888783,0.41084096,-0.6037939,0.5255323,0.03938088,0.23717518,-0.006526759,0.23853888,-0.0016184371,-0.93797785,0.009854743,-0.028492028,0.4258806,-0.033354204,-0.13320397
chr1-191396827-191397779,-0.15284424,0.49552286,-0.16850431,0.052742116,-0.15257935,0.27142635,0.045841627,0.88193965,-0.38950145,0.16691013,-0.04474476,-0.023238309,0.07920223,-0.0847095,-0.08268008,-0.06636636,0.57766455,0.03207208,0.021497041
chr1-191540702-191541565,-0.39845672,-0.53585434,1.3299412,-0.21904193,-0.8737673,-1.0401038,-0.37698177,0.1815407,1.4416114,-0.39907357,-0.07126831,-0.75281143,-0.42948693,-0.48079097,-0.0095801735,-0.13902248,-0.7714882,0.17418624,0.28565192
chr1-191908552-191909236,0.43533283,0.10115849,-0.17204826,0.02221575,-0.51456517,-0.6428905,0.17441891,1.2264152,-0.42233753,0.11887622,-0.14523667,0.19050764,-0.24141346,0.22949603,-0.029326726,-0.01780035,0.63328826,-0.4306867,-0.12825474
chr1-192193385-192194217,0.18418057,-1.548785,1.0157368,1.0661023,-0.94188416,-1.5267631,0.56976277,-0.86910605,0.70776147,-0.20401254,0.18396607,-0.85887635,0.27239683,0.18528622,-0.20790792,0.045154043,-1.3581674,0.22059844,0.34166473
chr1-193173005-193173927,-0.043857824,0.4202531,-0.27900553,-0.0062501086,0.15605718,0.46886748,0.26877543,0.5360844,-0.48798826,-0.07031941,-0.24810383,0.38431752,-0.8299674,0.110183746,-0.024478106,-0.090664886,0.600734,-0.032537133,-0.08059798
chr1-194938610-194939413,-1.0321146,-0.03100187,-0.02919255,-0.34895968,0.029132858,0.2097067,0.15630867,0.5803916,0.91950005,-0.32240334,-0.21917222,0.07620772,0.009887694,0.11277605,-0.015287353,-0.015480121,1.0303969,-0.156719,-0.23769757
chr1-194939668-194940471,-0.822007,0.20844673,-0.75297433,-0.786905,-1.3772861,-0.00480249,-0.74887645,1.1730306,1.0455294,1.1525708,-0.5504631,1.010784,-0.46372622,-0.62216645,-0.3449576,0.006502735,1.1431478,-0.2627162,-0.43952832
chr1-194977789-194978551,0.022949837,0.2564644,-0.09173694,0.24040796,0.14673299,-0.26378286,0.045984257,-0.5022197,-0.11241957,-0.16987649,0.010064981,-0.20638119,-0.0015534098,0.010485782,0.0008389418,-0.017951282,-0.21864411,0.0052735424,0.033541325
chr1-195241258-195242163,-0.3767154,0.6016069,0.16092387,-0.85651577,-0.35182306,0.16968589,-1.0350455,0.9630088,0.05265953,0.4840185,-1.523572,0.8061912,-0.44444436,-0.26078364,0.026136886,0.015040765,1.1471606,-0.50338787,-1.0612571
chr10-4334116-4334964,-1.1010617,0.93733865,-0.38363326,-1.3730067,-0.98677737,0.47253355,-0.70664155,1.6462302,-0.4162635,0.21963502,-0.69390786,1.1451738,-0.76580876,-0.32470724,-0.21480972,-0.46836835,1.2422652,-0.385239,0.45699
chr10-4712038-4712969,-0.48589036,-0.600414,0.59916675,-0.8862629,0.65940833,0.13726953,-1.0943878,-0.7617685,0.74044764,0.59101397,-0.309543,0.37221304,0.0056132185,0.5508746,-0.009185685,-0.11874427,-0.26293454,-0.12180931,-0.066335246
chr10-5194244-5195143,0.10156132,-0.98035467,0.5015934,0.39975306,0.48518637,-0.26876086,-0.078733064,-0.3465196,0.15095809,-0.43095702,-0.13318872,-1.1277364,0.64154047,0.0807674,-0.01771755,0.033249322,-0.9973043,-0.00097538234,0.1133941
chr10-5367246-5368086,0.63734007,-1.6060785,0.57679373,0.580489,0.13222595,-0.7911535,0.605985,-0.954459,0.16324297,-0.4848953,0.99989647,-0.5251333,0.0154338265,0.038394105,-0.0948312,-0.086306386,-0.7904061,0.08652386,-0.56296813
chr10-5549986-5550830,0.20542927,0.44936872,-0.0449752,-0.029149061,-0.017279387,-0.22968175,0.005542496,0.25944635,-0.3331242,-0.100390226,-0.00014585048,0.06435977,-0.0129239885,0.0073840534,-0.0060790814,-0.011124198,-0.21052524,0.006735049,0.0149924755
chr10-6788346-6789227,1.0481851,-1.369232,-0.5636453,1.1077374,-1.0452026,-0.81808543,0.9943602,-1.614617,0.10391359,-0.32142413,0.7879026,-1.1962502,-0.046333574,-0.42841893,0.053331606,0.14401379,-1.3744866,-0.078543186,-0.13778725
chr10-7589614-7590327,-0.23859645,0.3504296,0.0116390865,0.1780911,-0.1018812,0.47124425,0.15006527,0.07698652,-0.10088252,0.08667054,0.0012285969,-0.111171275,-0.07783102,-0.013967232,-0.00269825,-0.017828988,0.11509228,-0.0020993731,-0.2064758
chr10-7667127-7668006,0.22990197,0.05819255,-0.6613835,0.20170237,-0.032209262,0.50908035,0.45268372,-0.14693628,-0.48173094,-0.35542652,-0.07229631,-0.21074308,-0.12762403,0.07651624,-0.016060153,0.004124975,0.60682815,0.042612955,-0.18886043
chr10-8800928-8801813,0.91128725,-0.5430569,0.56909955,-0.5227909,-0.22815472,-1.3728975,0.39513263,0.9391669,-0.7618588,-0.64464235,-0.01586736,0.045886967,0.5291593,-0.2006541,-0.050524823,-0.16474496,-0.27103174,0.18093508,-0.06384273
chr10-9117573-9118464,0.22688028,1.0376806,0.006885044,-0.17789215,-0.035410214,0.6398628,-0.69235533,0.22724587,-0.13139255,-0.54355043,-0.20960778,-0.3083129,-0.047162566,-0.582911,-0.0008901298,-0.023144277,0.51091295,-0.019047135,0.02764146
chr10-9165635-9166578,0.41774738,-0.5548412,0.4046993,0.63173264,-0.11685405,-0.9542364,0.029646633,-0.31026715,-0.28279862,0.06809131,-0.060275003,-0.3300166,0.3824927,-0.038428787,0.0031805034,-0.036346074,-0.4259829,0.12095678,0.008942533
chr10-11149202-11150074,-0.060986675,0.26279277,-0.48127747,0.12529214,-0.15112464,0.35236552,0.2601766,0.5631512,-0.5380018,0.36163405,-0.0098163355,0.04988095,-0.1542896,-0.021486318,-0.015750656,-0.0176172,0.5150685,-0.018892532,0.02525149
chr10-11343199-11344102,-0.041585896,0.13212213,-0.24582648,-0.05179213,-0.1504347,0.46403787,-0.07603982,0.5942977,-0.021771112,-0.0011836615,-0.02830007,0.116825216,0.0053524836,0.07268835,-0.0046784705,0.00097075006,0.30889016,0.0040651476,-0.18409392
chr10-12612211-12613104,0.8163525,-0.21579081,-0.5864118,1.1082611,-1.003075,-1.3494695,0.77959085,-1.5977855,0.010590881,0.26784915,0.2607145,-1.0850397,0.38326663,0.043862704,-0.24069552,0.35594484,-1.2963538,-0.014819334,0.21817134
chr10-12614434-12615257,0.48161638,-1.3947814,0.11399704,0.66375643,-0.41295162,0.060480762,0.37993488,-1.7404255,0.60581326,-0.10395506,0.0068927077,-0.8999153,-0.22069769,-0.2621745,0.11636302,0.039729286,-1.1951808,-0.030550288,0.23477206
chr10-12812772-12813588,-0.9461238,-0.16003607,0.25340298,-1.332223,-0.8554371,-1.051415,-1.0357819,2.0473213,-0.3177845,0.87660563,-0.35955775,1.2072519,-0.7232926,-0.4780815,-0.28018326,-0.27890813,1.3269991,-0.51529235,0.23041186
chr10-13552754-13553665,0.35147777,0.34161952,-0.31409323,-0.011876559,0.09798875,0.48273486,-0.009521783,0.2900096,-0.22577341,-0.11298766,-0.06578013,0.26310658,-0.08846328,-0.019934893,-0.0427323,-0.037393488,0.123476095,0.0008311485,0.07321881
chr10-13982566-13983483,-0.34455058,0.9610928,-0.06424031,0.1609843,0.30667198,0.21406342,-0.4433497,0.38802633,-1.0619497,-0.19421196,-0.0066047707,0.66455483,-0.5461023,-0.6888754,-0.0042532445,-0.2751888,0.6104282,0.14578708,-0.7110508
chr10-18234694-18235578,-0.22483347,0.3565914,-0.07960154,0.013544556,-0.18915766,0.42652553,0.39669058,0.11683782,-0.073889956,-0.016204026,-0.0073202695,-0.32301426,-0.17520317,0.06335696,-0.009125549,0.009472399,0.61994946,-0.0014717829,0.009336614
chr10-18526395-18527247,-0.99366844,-0.9864673,1.476116,-1.504979,-0.8554625,-0.3492549,-1.3200123,-1.1511998,1.2461083,0.8995846,-0.4216032,-0.3004602,-0.10626139,0.24712463,-0.2461747,0.023032991,0.012320374,-0.33206213,-0.4061742
chr10-18743234-18744117,0.2637863,-0.15377477,0.41306922,0.46666643,-0.33001167,-0.5254225,0.20174949,-0.9618888,0.33552942,-0.4012379,0.026796266,-0.4241189,0.22940683,-0.0061273673,0.0077582607,0.025808293,-1.2757831,0.0017220281,-0.034780733
chr10-20170385-20171144,0.41359103,0.6154083,-0.28392747,0.21257277,-0.017334929,0.6374001,0.21782349,-1.0393788,-0.06724675,-1.14066,0.11472789,0.07585826,-0.03370904,0.36309966,-0.00029234285,-0.58939874,-0.7137839,0.27566588,-0.8500797
chr10-21144712-21145614,-0.12066162,-0.96484965,0.17471235,0.6593757,0.35216814,0.22412229,0.106380984,-0.8810611,-0.70793355,0.3377752,0.10961147,-0.41638142,-0.47443753,-0.3403977,-0.06008797,0.15387657,-0.94183695,0.25107446,-0.075262874
chr10-21883384-21884196,0.7349367,-0.502789,-0.18009631,0.59711885,-0.81193966,-0.33430576,0.56468785,-0.75616187,0.50484806,-0.2881116,0.27059916,0.10777412,-0.32070225,0.33408335,-0.021786245,-0.123134255,-0.96825355,-0.17233078,-0.021680813
chr10-21994086-21994949,-0.11211004,0.22011217,-0.23267269,0.14047965,-0.4187388,0.669891,0.05468583,0.40718275,-0.03480125,0.17264932,0.001192056,0.098380424,-0.09647558,-0.8190683,-0.02485383,-0.0061415993,0.5771787,-0.12217377,0.14450096
chr10-21998485-21999398,-0.204528,0.6289038,0.42581412,-0.6237293,-0.768611,0.7791021,-0.65598685,-0.38340312,0.80687875,0.03604356,-0.13705036,-0.25215212,-0.51420486,-0.2331176,-0.069706574,0.054122873,0.6235431,0.1711411,-0.7634943
chr10-23786785-23787649,-0.01750394,0.24842972,-0.29492876,-0.10780234,0.069102466,0.5395914,0.18333042,0.7126064,-0.47797447,0.046340518,-0.17014241,0.24261229,0.02530429,-0.115978755,-0.043903947,-0.026750404,0.26266396,-0.06413278,0.15510921
chr10-26695100-26695996,0.7038663,-1.6741612,0.08953805,0.85440475,0.08957022,-1.2638329,0.6988818,-1.5206861,0.26151115,-0.58519685,0.1454259,-0.55397624,-0.0946148,0.012764289,0.06850883,-0.024357121,-1.0251472,0.8348027,-0.37076288
chr10-28074398-28075220,-1.3620465,0.20282513,0.10785761,-0.86846787,0.21343724,0.7135641,-0.28980848,0.7744866,-0.023217984,0.22189252,-0.36793908,0.27045313,-0.787258,0.33510306,-0.03439965,-0.010374283,0.45839798,-0.053393487,-0.19386752
chr10-29312919-29313806,0.008343627,0.32861865,-0.069037095,-0.13233687,-0.13168123,0.14900732,-0.11244734,0.46484646,-0.15208861,-0.16377278,0.022881323,-0.17511706,0.065089606,-0.032680366,-0.024726905,-0.00032986456,0.4516599,0.0019018382,0.030526297
chr10-30617903-30618791,-0.26597413,0.41937733,-0.096423335,0.3056792,0.008874219,0.37221295,0.275716,0.30930763,-0.09570137,0.10916457,0.014757321,0.003804002,0.07543176,-0.023079887,-0.02809606,-0.14867762,0.6544408,-0.080105856,-0.4048785
chr10-30802585-30803513,0.03550827,0.4337726,-0.13852997,-0.35727367,0.07564666,0.35357586,0.20247278,0.57158536,-0.54751635,-0.44148895,-0.024336386,-0.04652201,-0.019408418,-0.46815795,0.0077326708,-0.021846004,0.22590354,0.10587673,-0.101943485
chr10-33623894-33624819,0.4270019,-0.9731489,0.2829868,0.40311947,-0.030073442,-0.99854404,0.6191746,-1.7178472,0.42020026,0.21723576,0.0349429,0.14010558,-0.44889504,0.5019387,-0.022301689,0.16537204,-1.2252179,-0.054318015,0.13172886
chr10-36508000-36508647,0.91260844,-0.4955533,-0.14988169,0.20645003,-0.20347582,0.032489438,0.48181558,-1.6563507,1.1170963,-0.7389147,0.42675516,-0.89663494,0.3205345,-0.2009904,0.004207054,0.024666416,-0.91665727,-0.38975003,-0.64351124
chr10-39165435-39166331,0.30203187,-0.24437696,0.06806122,0.76709473,-0.10808659,-0.13561268,0.47602373,-0.4341847,0.023861976,-0.4226472,0.030779393,-0.2722955,0.098285444,0.012730027,-0.030736778,-0.021112941,-1.012897,0.071749166,-0.21173707
chr10-40246524-40247430,0.20755906,-0.43984804,-0.17470664,0.01549921,0.26358086,0.4407571,-0.053772815,-0.06306435,-0.69635284,0.3811294,0.0062859505,-0.5263951,0.0048465007,-0.055465467,0.0006984291,-0.032433376,-0.49192938,0.01309012,-0.038303517
chr10-41887108-41888000,0.13159694,-0.091653146,-0.48874235,-0.043536913,-0.13494805,0.22858892,0.58139145,0.5097058,-0.24358651,-0.08555391,-0.105753094,-0.08309952,-0.19353093,-1.2487441,0.014927568,0.0012807152,0.40222874,0.010811137,0.35354826
chr10-42502596-42503029,0.2352248,0.19974606,-0.19130692,-0.34965068,0.032629047,0.2596178,0.20769137,0.24475543,-0.31875145,0.10774991,-0.027833395,0.04690599,-0.038158868,-0.80570185,-0.011487054,-0.042126168,0.67245066,-0.20490307,0.103345804
chr10-43021340-43022211,0.36493614,-0.48532605,-0.34880823,0.2804992,0.59966266,0.69164,-0.46594635,0.10249142,-0.16586706,-0.8608258,0.072570845,0.13516675,-0.1744526,-0.51804036,-0.017340723,-0.042684272,0.107250445,0.15125205,-0.009192388
chr10-43901288-43902206,0.202199,0.493954,-0.08476333,0.20370612,-0.71150625,0.4020333,-0.3718007,0.7963288,-0.3462816,-0.39011404,0.00952727,-0.3631607,-0.066264115,-0.27945945,0.029196776,-0.017966468,0.67813563,0.032587487,-0.1364709
chr10-44003322-44004220,-0.42092416,0.26564133,-0.6464707,-0.5577191,-0.13361986,-0.35492888,-0.06298321,1.7254134,0.05045171,-1.2529889,-0.5503002,0.5539129,0.11387147,-0.66575646,-0.31926513,-0.32097948,1.2829295,0.05005878,-0.43776536
chr10-45335331-45336269,0.9205304,0.16220815,-0.055317987,0.31119102,-0.71587586,-0.425372,0.43616387,-0.33857948,0.3188255,0.27724412,-0.2183149,-0.8598411,-0.5471386,-0.2739601,-0.100247614,0.3473095,0.13777058,-0.046377394,-0.4082496
chr10-45485880-45486723,0.53474325,-0.6040492,0.12557928,0.40749228,0.48737118,-0.5231544,0.24025661,-0.90745366,0.23232302,-0.17218736,0.034868676,-0.70456874,-0.14388403,-0.20225452,0.005186568,0.0010667202,-0.4685277,-0.09671001,0.22487457
chr10-50592289-50593235,0.053637568,0.56344926,-0.17815371,-0.11899351,0.16538225,0.4951693,0.026064651,0.6975833,-0.09895168,-0.18586949,0.00047334045,0.093059026,-0.3463955,-0.06174729,-0.11844227,0.0008343044,0.65777266,-0.01896099,-0.49413958
chr10-52233332-52234106,-0.122222245,0.38404047,-0.41541457,0.05158262,-0.1281899,0.4068354,0.24896841,0.43853432,-0.33035168,0.21879488,-0.09409468,0.16583917,-0.30291224,0.027902307,-0.012029281,-0.02504261,0.432874,0.021252783,-0.25097394
chr10-52381639-52382459,-0.08972955,0.55514896,-0.3231569,-0.086691126,0.06703739,0.4254724,0.12686864,0.3382229,-0.040655717,-0.34669346,0.10752184,-0.14353625,-0.029531451,-0.102153495,0.0026262375,-0.03112619,0.19131927,-0.011046585,-0.22173421
chr10-52704266-52705208,-0.31554198,-0.048767056,0.35902467,-0.20538615,0.06566148,0.52150303,-0.0072666486,-0.18617067,-0.07159114,0.059531912,-0.008286368,-0.1852306,-0.088390134,-0.019842317,0.0050628707,0.0056238575,-0.005042557,0.006469086,-0.05871142
chr10-53629366-53630243,0.30314052,0.45625454,-0.13660012,0.138902,-0.15386453,0.26943272,-0.18617676,0.78750753,-0.39544007,-0.2685878,-0.033634063,0.19579962,-0.031102125,-0.41219956,0.0023516691,-0.044832945,0.6680865,0.016680066,-0.07460487
chr10-56228353-56229290,0.3633604,0.21452153,-0.1412462,0.08141428,-0.14949025,0.5590111,0.31923446,0.13661979,-0.3763545,-0.1616919,-0.03191403,0.015767768,0.061609372,-0.3909796,0.006483128,-0.036663443,0.18680285,-0.018882472,-0.011399689
chr10-57515561-57516452,-1.2421777,-1.1641994,0.47288445,-1.1104022,-0.87394553,-0.89071167,-1.4022444,-0.6828167,0.04687036,2.2418954,-0.3657388,-0.70857024,-0.017880837,0.26444513,-0.08684677,0.6611186,-0.77808166,-0.5970659,1.3460135
chr10-57531922-57532783,-0.06916581,0.15001424,-0.578741,0.205618,-0.09915866,0.45920634,-0.25728166,0.76225847,-0.1885697,-0.046547085,-0.10051104,-0.034743894,-0.067551106,-0.013106019,-0.00982714,0.0038346215,0.21709798,-0.0012176209,0.0060368376
chr10-58446574-58447420,-0.023915634,0.32383353,-0.21804269,-0.038732838,-0.11818171,0.50498825,0.26412073,0.5594027,-0.42005166,-0.073520124,-0.037195057,0.08734797,0.10991882,-0.10734826,-0.0667068,-0.019186875,0.5033359,0.008790974,0.08885617
chr10-59899214-59900130,-0.18609083,0.91939145,-0.24480893,-0.5725325,-0.30058777,0.7500141,-0.14002791,-0.09715265,-0.66485626,0.34399334,0.006079256,-0.08008214,-0.20899533,-0.38614404,-0.008735558,0.13676122,0.08416236,-0.031474672,-0.23097695
chr10-59916350-59917290,0.97044575,1.1695502,-1.3249179,-0.15622988,0.20148113,0.2242289,0.22045387,-0.2117837,-1.1560575,-0.47570765,-0.154316,-0.48294985,0.18325548,-0.16418444,-0.019840986,0.09983831,-0.45279467,0.20385793,-0.4506898
chr10-60301835-60302706,-1.4866618,-0.017792508,0.8779325,-0.6493952,-0.114022575,-0.76763904,0.26873484,-1.1128769,-0.42081976,1.8200667,0.14299598,-0.58243054,-0.38673353,-0.5199116,0.007813292,0.12063193,-0.27720493,-0.4408283,-0.46363753
chr10-60346707-60347582,-1.1577765,1.05353,-0.9692206,-1.3612368,-0.36923587,0.15143326,-0.600965,1.6110224,0.15597998,-0.045063935,-0.30061126,1.624819,-1.1290427,-0.97203535,-0.70367444,-0.44140327,1.3536679,-0.86697674,-0.66397595
chr10-60830485-60830951,-0.66666394,0.51099646,-1.3398277,-0.71179396,0.18303534,1.3665411,-0.39253303,0.34153053,-0.6889271,0.03915102,-0.024449078,0.40623498,-0.90700436,-0.42548177,0.17175406,-0.52511686,0.7807876,-0.8132554,0.07900866
chr10-61648351-61649144,0.069915526,-0.15614755,-0.15816894,0.082658924,-0.01288433,0.36088175,-0.09915001,0.47550797,-0.19996946,-0.08395164,0.047960907,-0.3013921,0.049226128,-0.06597515,-0.0038729324,-0.0013323769,0.035910215,-0.0051058577,-0.06363727
chr10-62650735-62651685,-0.24547929,0.37500268,-0.5881581,-0.08123739,0.18857563,0.42152897,-0.29750547,0.6581718,-0.437266,0.12694138,-0.02498336,0.60361147,-0.4669032,-0.72889626,0.09350515,-0.14749913,0.4198655,-0.14298204,-0.1263061
chr10-62865148-62865957,-0.024405347,0.45501631,-0.49178568,0.06705225,-0.20635138,0.50387454,0.25478205,0.4617543,0.057513155,0.01305826,-0.0027050723,-0.5348953,0.28563055,-0.4647947,-0.009758487,-0.103459395,0.1594911,-0.004555612,-0.35235193
chr10-63386346-63387162,-0.33758175,0.38572115,-0.047160942,0.0036281175,0.2639097,0.5411525,0.14117475,0.6430172,-0.92515486,-0.28055122,-0.23386683,0.5289201,-0.090577714,0.010485378,-0.05955462,-0.049376704,0.6217676,0.0095205465,-0.5205858
chr10-64083884-64084234,0.4726104,-0.19306646,-0.906587,0.81967384,-0.4520079,-0.11927622,0.6625428,-0.42503154,-0.023854246,-0.22017817,0.28659952,-0.7419634,0.60985434,0.23797873,-0.19696431,-0.06459856,-0.91527617,0.2763491,0.0385741
chr10-64084319-64084755,0.6782255,0.18594503,-0.27653697,0.6585609,-0.4488625,-0.3341594,0.09107555,0.046372976,-0.08387237,-1.0536519,0.047434624,-0.33043715,0.7310426,-0.03554967,-0.037945054,0.003807101,-1.1279689,0.26755035,-0.42957488
chr10-67537283-67538055,0.2903699,-0.139094,-0.45819846,0.043234695,-0.85183126,0.58670104,0.9020985,0.8522911,-0.54103386,-0.44426128,-0.109673776,0.21656132,0.4356775,-0.08181453,-0.033281118,-0.45553654,0.2998729,-0.13331585,-0.6606245
chr10-67538526-67539412,0.8475058,-0.5240598,0.44674355,0.5761831,-0.42324838,-0.24723946,0.25213394,-0.9350878,0.13435428,-0.9101107,0.031517774,-0.80396676,0.27554005,-0.9047539,0.019179959,0.07038786,-1.0920389,0.1836201,0.00085035345
chr10-67547835-67548418,0.256229,-0.08829104,-0.40605068,0.1879641,0.049763206,0.8062921,0.10533545,-0.3578954,0.16205326,-0.2983902,-0.017110048,-0.27745545,-0.04917209,0.009727671,0.0030499948,0.009989959,-0.5587788,-0.0085288435,-0.077901624
chr10-67979188-67980100,0.05562672,0.78910303,-0.09709522,-0.3349231,0.022643333,0.758675,0.14848644,-0.77064645,-0.3781066,-0.03007572,-0.008928293,-0.2879333,0.1498364,-0.11699728,-0.0038679773,-0.009189935,0.38163304,-0.024642915,-0.06917748
chr10-68279608-68280505,0.63137984,-0.12713404,0.08034215,0.30183956,-0.5506505,0.22038208,-0.21483934,0.18562442,-0.102347136,0.16719967,-0.026729684,-0.38844016,-0.06399489,-0.03801005,-0.0004234634,-0.002564705,0.06290158,-0.14613956,-0.0776774
chr10-69535193-69536008,0.2770063,-1.4369401,0.39733237,0.5086262,0.35951254,-0.93247813,0.79972833,-1.1335038,0.59533125,-0.32576707,0.43371326,-0.6203545,0.21243952,0.008850101,-0.091343716,0.17351183,-1.0713233,-0.06002547,-0.30219248
chr10-69710533-69711414,0.11748301,-0.6688838,1.6507931,-1.0360262,-1.050217,-0.117502704,-1.3892875,-0.7817581,0.8293192,0.4617003,-0.3522004,-0.46141052,-0.4284737,-0.13622123,-0.1701432,-0.29605904,0.31617853,-0.5432543,0.78781015
chr10-70094764-70095605,-0.059166767,0.8216673,-0.3602633,-0.9717419,-0.017705534,0.38066778,0.121199034,0.9893941,-0.72645485,0.18284401,-0.5390314,1.0725679,-0.55080223,0.27071202,-0.25764176,-0.13566436,0.48331773,-0.49746287,-0.14967217
chr10-71281133-71281961,0.47173113,-1.3073044,-0.45485896,0.8933182,0.20637102,0.4225759,0.5261987,-1.2333483,-0.62136674,0.041992173,0.20714547,-0.026667874,-0.1091882,0.22242962,0.014134543,0.046768747,-0.94937265,-0.36802068,-0.38227937
chr10-73096471-73097396,-0.45133865,-0.29067397,0.34315422,-0.093456134,0.33842158,0.30956876,-0.2419816,-0.5795988,0.19067429,0.11146529,0.022661595,-0.5487357,0.112705424,0.16551308,0.009559577,0.014441389,-1.1615772,-0.06910281,-0.21322347
chr10-75763860-75764756,0.027944287,0.53532237,-0.6363016,0.18074623,0.07816137,0.26335892,0.30832326,0.26164868,-0.5970049,-0.09858056,-0.23673025,0.22854605,-0.5975753,-0.048815973,-0.03383054,-0.010015095,0.5707034,0.034784146,0.047010116
chr10-75833985-75834800,-0.32635245,0.63309354,-0.499424,-0.8498221,-0.690531,0.10477466,-0.5616275,1.4986837,-0.19830598,0.49480957,-0.6748397,0.8443272,-1.0664858,0.09897503,-0.3266269,-0.24681647,1.5445806,-0.25390604,-0.92794716
chr10-75935597-75936430,-0.17592572,-0.27921316,0.058340177,0.089981854,0.19562256,0.056791108,0.09129007,-0.961014,0.018373273,-0.13264182,0.06345472,-0.9937342,-0.043833245,-0.10381897,0.006972517,0.017616514,-1.0133326,0.08323846,-0.050225347
chr10-75937107-75937945,0.66039723,-0.6233778,0.3416703,0.38025197,-0.8075007,-0.49029714,0.38748196,-0.8888464,0.34319296,-0.63761145,0.06945562,-0.98175377,0.3640743,0.07258262,0.03452441,-0.11928665,-0.49950436,0.16513574,-0.07921167
chr10-76032211-76033038,0.26823333,-0.07163176,-0.21685933,-0.015015936,-0.08888736,0.3234423,0.22347517,0.22375609,-0.09345593,-0.12047946,0.0049717315,-0.4462334,0.014872139,0.018144097,-0.0022311863,-0.020755023,-0.30472627,-0.0003693374,0.018933482
chr10-76253503-76254326,-0.71037394,0.9019212,-0.36175576,-1.3335207,0.30779955,0.7853463,-1.1649673,1.0486052,-0.50300884,0.31699303,-0.1560843,0.40889153,-0.5164286,0.1390967,0.0059276414,-0.10355715,-0.009250581,0.1494884,-0.4180613
chr10-76468393-76469326,0.12699462,0.22135217,0.01395409,-0.09112217,0.08867796,0.23930323,-0.13503039,0.67330396,-0.20626123,-0.21610424,-0.01805425,0.23180994,0.011203098,-0.8758515,-0.012179433,-0.016710876,0.5328362,-0.012568984,-0.0038649107
chr10-77588944-77589810,0.8796798,-0.6165602,-0.6765319,0.38767898,0.5592716,-0.55118483,0.09512347,0.79541034,-1.3735483,-0.13624834,-0.13370654,1.0962791,-0.5471288,0.14855012,-0.12502512,-0.20191196,0.15945202,-0.4214553,-0.3284352
chr10-78009068-78009907,-0.20433131,-0.10486844,-0.17013049,-0.11885719,0.27983692,0.1744428,-0.18497215,0.5812795,-0.0578651,-0.0074664517,-0.051658493,0.13221796,-0.47464022,-0.016438378,0.0029001685,0.005471645,0.30333576,0.04379862,-0.1683406
chr10-78159512-78160360,-0.40169916,0.34482098,0.09490153,0.061005007,-0.18963996,-0.40715343,-0.25481737,-0.7250922,0.64324415,0.5019303,-0.12803066,-0.41082567,-0.22806323,0.37138045,0.054290242,-0.081944816,0.55996823,-0.19454388,-0.2176173
chr10-78396111-78396973,0.8440447,-0.87952715,-0.97042155,1.3121108,0.026826812,-0.74954057,0.45215306,-0.10229633,-0.5099804,-0.25778994,0.03388587,-0.10859772,-0.118452586,-0.1612005,0.09216552,-0.16442484,-0.59228593,-0.12517603,-0.2589379
chr10-78457807-78458577,-0.13705343,1.1339706,-0.82837766,0.6748327,0.18852648,-0.47288752,0.6339005,-0.70393753,-0.8845062,-0.24930073,0.06281087,-0.17935267,0.63067394,-0.05827215,0.0022076536,-0.13018465,-0.21728987,-0.020495648,-0.34992263
chr10-78752251-78753166,-0.12517685,-0.49473998,0.107130796,0.4743714,0.032725293,-0.1442372,-0.41748565,-0.3039945,0.16004981,0.38443628,-0.0062375423,-0.56661105,-0.04118836,-0.02767861,0.0013305289,0.035839632,-0.65802515,-0.020713603,-0.019955955
chr10-78787327-78788243,0.10060076,-0.5236042,0.00037467878,0.21902771,0.015835255,0.133864,0.17853722,0.29618916,-0.062928684,-0.66205066,-0.0034699396,-0.010488075,0.017060991,-0.18924773,0.0007081522,-0.00057546684,-0.10954771,-0.0028770557,-9.865591e-05
chr10-79613423-79614323,-0.9252295,0.18849626,0.19416106,0.17631128,0.35243672,-0.097677246,-0.59459496,-0.71336585,0.7057104,0.52835244,-0.12205335,-0.069011115,0.058293488,-0.07323937,-0.07641964,0.018058082,-0.16753255,-0.11615692,0.28516722
chr10-79801951-79802751,-0.8958064,-1.0253731,0.35500917,0.24884018,-0.20027882,-0.09809665,-0.035047982,0.16903093,0.7454362,0.05059013,0.44853806,-0.26339915,-0.3861051,0.0037441286,-0.033733167,0.09197237,-0.4544324,-0.0070827175,0.20332119
chr10-79840562-79841397,-0.41535687,0.1564444,0.024461586,-0.10296779,-0.6891303,-0.6831927,-0.55288994,0.8654008,0.47588527,0.3154132,-0.038735736,0.08506128,-0.521027,-0.723913,0.011307936,0.14342074,0.8297655,-0.072184004,0.082264535
chr10-80130544-80131304,-0.46213362,-1.0675814,0.8990556,0.3858715,-0.5747944,-1.03515,-0.80583,-0.9218864,0.5516591,1.4393924,0.008712197,-0.44243756,-0.015872112,-0.2569497,0.051142804,0.07965443,-0.33668035,-0.17250824,-0.11107505
chr10-80164710-80165595,0.0451544,-0.17503399,-0.009819769,-0.22671334,-0.45187375,-0.29158068,0.18799806,0.47674283,0.12794745,0.35542306,-0.013941743,0.07637204,-0.14936729,-0.16049683,0.0240955,0.003538791,-0.15011507,-0.080104426,0.011970141
chr10-80295593-80296458,0.22467563,0.09078266,-0.122661166,0.46262226,0.26752207,0.06735791,0.33917728,-0.5394949,-0.31593844,-0.25627103,-0.053496882,-0.37713003,0.12760039,-0.24477273,-0.022066746,0.028356327,-1.1483034,0.026823414,0.073340185
chr10-80298926-80299658,0.27670085,0.11241746,-0.1635041,0.36056075,0.06952638,0.24655876,0.37106234,-0.56176007,0.14857516,-0.71697,0.3954885,-0.23491043,0.17945316,-0.06981836,-0.048557512,-0.042335812,-1.288172,0.0035202873,-0.14063293
chr10-80405442-80406126,0.47651702,-0.80406827,-0.07766836,0.36660025,0.11715365,-0.3413992,0.0892872,-0.047746044,0.08912481,0.008220838,0.10693609,-0.39616778,-0.027086962,-0.037122097,-0.036528487,0.001833618,0.11160743,-0.10112589,0.0453503
chr10-80583374-80584296,-0.67083263,-1.362514,-0.1356113,-0.028325362,-1.3474461,0.18199888,-1.1952562,0.5651998,0.33641955,1.6728292,-0.15741378,-0.26137945,-0.310949,0.08466544,-0.018575609,0.11227491,-0.15490445,-0.35479546,0.3003107
chr10-80845901-80846769,1.2048056,-0.44449258,-0.9061222,1.134376,-1.2564458,-0.37345082,0.72208,-0.2512706,-0.8953208,0.14002618,0.37790525,-0.71180356,-0.3623937,-0.10108344,-0.16178797,-0.054483484,-0.66668856,0.09135129,-0.45806608
chr10-80897643-80898524,0.6893549,-0.54062,0.37007114,0.79758495,-0.42146358,-0.69057643,-0.21516359,-1.230468,0.3391411,0.06093306,-0.060153946,-0.7187213,0.40814623,0.0046242797,-0.03723905,-0.007078293,-0.06836764,-0.036944747,-0.031498477
chr10-80985278-80986126,0.53977317,-0.8657773,0.3442058,0.46764868,0.034446456,-1.0373579,-0.13287507,-0.2888714,1.0348338,-1.0178059,-0.09392708,-0.11055428,0.4415236,-0.2547059,0.010871751,0.027415833,-0.27462938,-0.27283776,0.12294223
chr10-81229730-81230188,0.21525751,-0.50951445,0.66064525,0.39170876,0.60397756,-1.0883874,0.41005135,-1.6082087,-0.09405373,-0.55049527,0.7700819,-0.60029,-0.054845806,-0.12853393,0.07485965,-0.15880834,-1.391793,0.09849681,0.17739129
chr10-81257291-81258169,0.29773134,-0.41406268,0.34454086,0.6129448,0.028020125,-0.53856736,0.6432501,-1.397088,0.20664687,0.009580512,0.18391846,-0.51697135,-0.101939894,0.22764702,-0.04359924,-0.0500175,-0.44387668,-0.11754472,-0.098302655
chr10-81302579-81303410,0.1973681,-0.40405786,0.4052936,-0.047727417,-0.0024466312,-0.37825513,0.4059281,-1.1160793,0.31868315,0.55938536,-0.1701157,-0.21412343,-0.40710568,-0.49130127,-0.040085733,0.1337187,-0.7857475,0.0035372882,0.59096116
chr10-81413820-81414585,-0.70672685,1.121622,-0.7516875,-1.278223,0.047221087,0.5861828,-0.7444007,0.8871975,0.05570112,0.35663486,-0.35876298,-0.009924477,-0.11461089,-0.60954726,0.039925285,-0.2312006,0.7591808,0.05773574,-0.47417355
chr10-81432566-81433493,-0.25864214,0.89798033,-0.21964881,0.3615273,-0.10587751,0.14590715,-0.029361252,0.51567674,-0.17197302,0.17970613,-0.012947956,-0.20772508,-0.036830675,-0.2945652,-0.009882695,-0.02259237,0.6040169,-0.020462302,-0.012497516
chr10-81468969-81469775,0.7426544,0.6614026,0.46264994,0.7770668,-1.3280778,-0.91871965,0.22294958,-0.8697137,0.78695697,-0.91644496,0.14135267,0.0063177356,-0.2976963,0.016435763,-0.09855133,-0.03541096,-0.5715987,0.113503866,-0.25638247
chr10-81633286-81634177,-0.3137608,0.5694798,0.11248088,-0.5241636,0.3729777,0.115895696,-0.24408793,0.3754346,0.13221034,-0.31084785,-0.022355277,0.0377475,-0.0747536,-0.03936354,0.00067862694,-0.024637897,0.41123557,-0.061767668,-0.18755525
chr10-82083090-82083974,0.8030317,-0.3404716,-0.18025236,-0.43419772,0.39558464,0.29544267,0.00022440929,0.15750341,0.086908706,-0.13336529,0.19614173,-0.8691165,-0.40396807,-0.3172017,-0.044400837,-0.018134603,-0.35900322,-0.02221344,0.34961656
chr10-82629482-82630415,-0.032806832,0.21586688,-0.6065931,-0.09781006,0.018042913,0.7009183,0.23763113,0.3935473,0.017825238,-0.03964672,-0.1441242,0.3089462,-0.12401622,-0.5005813,-0.03985169,-0.07212854,0.66271794,0.1247823,-0.3984179
chr10-83543577-83544474,-0.38051733,0.07908027,-0.4087629,-0.18920204,0.16235624,0.69815683,0.097131856,-0.1273293,0.07394413,0.13984804,-0.005794968,0.08654116,0.011440958,-0.14788571,-0.007341658,-0.02421096,0.20579438,-0.015151565,0.011355857
chr10-86021730-86022580,-0.05799734,0.3274683,-0.5612094,-0.026542256,0.04724564,0.070921,0.0928726,0.28972635,-0.078773946,-0.22147118,-0.0005436572,-0.044992473,-0.036465142,-0.30028963,0.025326997,-0.011425539,0.37177575,0.017567027,-0.056701273
chr10-86685149-86685975,0.2494448,0.29873654,-0.27248064,-0.12011266,-0.06431025,0.4136666,-0.04697621,0.032696575,-0.40529105,-0.12021165,-0.032867167,-0.02848144,-0.20899263,0.06380358,-0.000718541,0.011236739,0.038597178,0.019564487,-0.010403749
chr10-86779409-86779862,0.052855454,0.44565687,0.20780039,-0.49324524,0.0741116,-0.28529236,-0.63186824,0.63473105,0.3216149,0.34934556,-0.06927174,0.24900045,-0.905053,-0.3960169,-0.18342024,0.035493147,0.9004895,0.04118533,-1.0534319
chr10-88146601-88147484,0.28133285,0.86179155,-0.47259495,-0.022988286,-0.781312,0.63475424,0.091124155,0.7914999,-0.06467312,-0.6531238,0.021411167,0.18696989,0.016418267,-0.69899577,-0.017756052,-0.0632174,0.14241895,-0.095778205,-0.09468475
chr10-88826295-88827212,-0.084947065,0.3686067,0.008013945,-0.044859223,0.20890746,0.3035365,-0.1377943,0.22694942,0.21693407,-0.69327426,-0.001269397,-0.1984681,0.1251321,-0.18327728,-0.00023059762,-0.20009078,0.29491714,-0.012764968,-0.046033632
chr10-90579827-90580657,0.997387,-0.73976123,-0.17771277,0.8424949,-0.19661476,-1.4697493,0.48024085,-1.1292298,0.39829266,-0.07076738,-0.14649798,-0.15216935,0.078707,0.5690839,-0.03402803,-0.14807542,-0.85032743,-0.029572954,0.12606628
chr10-90596027-90596911,0.40714225,-0.61350465,0.40345407,0.65059805,0.24850474,-0.9355533,-0.19572912,-0.8469988,0.36236098,-0.016117586,0.08766522,-0.32286933,0.27189705,-0.049107566,0.0021314463,0.055040162,-0.6909619,-0.10285533,-0.24012144
chr10-90830731-90831646,-0.049651917,-1.2471272,0.18964846,0.6516941,-0.8731284,0.54743177,0.6401875,-1.5483229,0.4557909,0.072546616,0.14854209,-0.28953663,0.042802416,-1.0325079,-0.03963166,0.07431508,-0.8170235,-0.052984584,0.29669288
chr10-91116530-91117443,-0.95043075,-0.38662845,0.55276185,-0.19099158,-1.2456445,-1.333262,0.6452213,-0.05691852,-0.010053303,1.5576502,-0.45660695,0.32851925,-0.43371484,-0.46878678,-0.0026037525,0.95204043,-0.18920867,-0.4086128,-0.3684715
chr10-93593916-93594717,-0.21966709,0.8529517,0.14819632,-0.24529943,0.30608928,0.25688055,-0.0312968,0.117809735,-0.38469085,-0.1487354,-0.15420179,-0.25519574,-0.279421,-0.28690854,-0.015565237,0.2285251,0.11321097,-0.05753981,0.011369505
chr10-94147689-94148649,0.20167588,0.15314694,-0.3234953,0.10111327,-0.5814505,0.7146869,0.028716464,0.62293285,0.03675103,-0.17172311,-0.021210777,-0.2441223,-0.041211702,-0.3605292,-0.025606468,-0.06940471,0.38165876,0.092342064,0.009025081
chr10-94198682-94199554,-0.09663119,0.042977776,-0.29012647,0.15989043,-0.00049992383,0.52580994,-0.13470139,0.50932306,-0.02291748,-0.29373494,-0.008173828,0.052176904,-0.28497684,-0.008309978,-0.00022454048,-0.0015576498,0.10038981,-0.007881446,0.04298198
chr10-94919211-94920032,0.6397693,-0.86862916,-0.1754052,0.8276214,-0.71066135,-1.4721352,0.28955758,0.39875448,-0.22685546,0.4744865,-0.20809993,-0.4756275,-0.21951063,-0.10026645,0.057177495,0.086354055,-0.36203757,-0.02839767,0.05309034
chr10-95323338-95324188,0.33203506,0.6295315,-0.37902495,-0.38607657,-0.0064960057,0.0026713584,0.3146126,0.15575896,-0.5503099,-0.06411786,-0.10569742,0.21574709,0.16172318,-0.4841042,0.005052151,-0.03304519,0.6824835,0.059735868,-0.811132
chr10-95560253-95561072,-0.7414028,1.1770374,0.30636355,-1.5557109,-0.4201271,1.2155952,-1.228548,0.5235006,0.39370382,-0.92887264,-0.3755024,0.036948226,-0.53615546,0.080249675,0.50022227,0.08013344,0.23244374,-0.22408782,-0.321747
chr10-95894098-95895052,-1.3017827,-0.29029277,0.84722584,-0.8542921,-1.147247,0.2541681,-1.521949,0.38453206,0.89508265,0.93318295,-0.45466563,-0.4590875,-0.31697392,0.33377486,0.005387794,-0.021822333,0.51940566,0.2612935,-0.37493536
chr10-99204085-99204754,-0.7421789,0.80325145,-0.3999912,-0.8600942,0.06377064,0.19834055,-0.52993697,1.7521178,-1.1224757,-0.34756625,-0.55256736,1.2448823,0.12849164,-0.6660515,-0.20690364,-0.2646574,0.73160434,-0.3339088,0.017626554
chr10-100015651-100016580,0.28333282,0.33350682,0.12281293,0.10929804,-0.5753534,-0.06623324,0.42031342,0.6595324,0.038305417,-0.6228369,-0.42984098,-0.52127355,-0.4448824,0.39358,-0.04001168,-0.20365484,0.8595498,-0.0145319,0.096649975
chr10-100486973-100487812,0.22224954,0.44699806,-0.3655272,0.048327543,0.02997981,0.3105292,-0.056841593,0.2791883,-0.27771005,-0.020072408,0.060655255,-0.2178326,-0.38634938,0.02383083,-0.012084302,-0.056968827,0.46296412,0.0034244366,-0.0031302082
chr10-101681366-101682285,0.4648881,-0.4321014,0.7638395,0.19881316,-0.019622419,-1.3804827,0.9838028,-0.93723595,-0.5661149,0.12957872,0.18858498,-0.17277616,0.43495354,-0.5041461,0.012035158,0.5654303,-0.61713874,-0.38990825,-0.45057115
chr10-105840951-105841828,-0.34501395,0.20820878,0.0729192,0.054971244,0.12015273,0.34112832,0.22694801,-0.398937,0.12887351,-0.31758285,-0.15687592,-0.03341247,-0.15410955,0.65550345,-0.008232625,-0.09748354,0.11573344,-0.16421837,0.023689201
chr10-106632183-106633097,0.19297326,-1.1845838,0.7748004,0.11780152,0.119899675,-0.055080272,-0.3139322,-1.0249277,0.358333,0.08818858,-0.046158783,-0.16690753,-0.21502052,0.11063389,7.905287e-05,0.015377313,-0.5705059,-0.049832705,0.04815303
chr10-106633613-106634523,-1.0948629,-1.0674353,0.9316421,-0.755882,0.8339151,-0.6281274,-0.79592705,-1.238966,1.0509242,0.70807546,0.54550517,-0.6009776,-0.16879085,0.5844594,-0.2782464,-0.22133125,-0.9945896,-0.52294046,0.47711727
chr10-107272160-107272909,0.24485154,-0.5744084,0.36464283,0.47023857,0.17459232,-0.11520166,0.2772489,-0.47625545,0.24294049,-0.8780139,-0.013105429,-0.12477774,-0.2537135,-0.21691659,-0.05467271,0.044222284,-0.7479351,0.1278239,0.09196037
chr10-108497639-108498977,-0.642032,-0.90371263,0.6607063,-1.3320725,-0.8148161,-1.2460047,-1.0406424,0.122340314,0.21270555,1.8581132,-0.38341403,0.59995604,0.08181369,-0.11578135,-0.029865127,0.37864307,-0.09379146,-0.14607559,-0.568803
chr10-109830270-109831111,0.85700333,-1.1263727,0.5173746,0.7999962,-1.2052795,-1.7264808,0.944327,-0.9056685,-0.6865656,0.274888,0.18164314,-0.7335385,0.3753598,-0.5627685,-0.32933596,0.194884,-0.6327872,0.52925855,0.7378921
chr10-110455099-110455699,0.46993685,-0.15015481,0.123974696,0.31017125,0.2417053,-0.30010408,-0.06486169,-1.4266363,0.49328706,-0.2252223,0.102711685,-0.2855876,-0.008419836,-0.35966015,0.00045901816,-0.04672689,-0.60434866,0.055960894,-0.0912328
chr10-111298197-111299135,-0.12893611,0.35418645,-0.10330596,-0.56830055,0.093978405,0.31867972,-0.02409983,0.4584261,-0.06226259,0.05068103,-0.02967244,-0.071184166,-0.12130381,0.0742051,-0.0076242816,-0.015204292,0.6004736,-0.016077286,0.05196575
chr10-112928417-112929254,0.3049252,0.3018863,-0.37028885,-0.067878224,-0.27854925,0.5367771,0.020784825,0.22469075,-0.23410128,0.46638227,-0.039625976,-0.5739449,-0.023555761,-0.004403509,-0.034727983,0.0016141388,0.31426093,0.0144985495,-0.13239612
chr10-114800179-114800948,-1.5474652,-1.4780762,0.8479419,-0.05947635,1.0104123,-1.4711599,-0.92230654,-0.96549463,1.3224832,0.26784715,-0.16682754,-0.6012658,0.030603379,0.4780753,-0.108922884,0.35378143,-0.777989,-0.4572797,0.22165214
chr10-114801625-114802299,-0.6512411,-0.8215937,0.41412407,0.1691626,0.37883735,0.14334904,-0.5566293,-0.95355064,0.6874071,0.376107,0.09833302,-0.26993802,0.15790455,-0.16788904,0.02233001,0.01044722,-0.98413545,-0.62119424,-0.017945748
chr10-115361900-115362815,0.110909626,0.36824134,-0.30045578,0.03755351,-0.060838744,0.5395721,-0.06641353,0.32416847,-0.22539562,-0.08929969,-0.096909545,0.17935878,0.023198161,0.0052994923,0.0028734664,-0.00899846,0.25916907,-0.14412113,-0.023543656
chr10-116301364-116302023,-0.5000111,0.7537294,-0.22385836,-0.7326229,-0.19676521,0.47262588,-0.96956336,1.3131415,-0.88905627,0.14269856,-0.414579,0.5907667,-0.53556335,-0.11540813,-0.22126916,-0.01852357,1.164661,0.33028442,-0.6652435
chr10-117675958-117676785,0.2617416,-0.721717,-0.1677528,0.5631336,-0.29730177,-0.66382295,0.32430652,-0.06438628,0.45527083,0.2445667,0.22147171,-0.20211451,0.03682501,0.15353274,-0.034640733,-0.022615355,-0.48299146,-0.08669757,0.07535551
chr10-119455084-119455875,0.33117172,0.6288726,0.0055438876,0.21993178,-0.022575928,-0.40575123,-0.051043592,0.22939408,-1.0010703,0.40272954,-0.031581018,-0.15515997,0.007271297,-0.07179163,-0.0040526614,-0.038042177,0.296147,-0.0046730745,-0.04253002
chr10-119818999-119819939,0.33779684,-0.22013189,0.15167281,0.5635312,0.09356067,-0.8949436,0.75371224,-0.9233914,-0.04095061,-0.4140425,0.22918452,-0.7876778,0.028378127,-0.40064073,0.0029914086,-0.020885652,-0.9844862,-0.04798604,0.5167391
chr10-120112465-120113333,0.3619336,0.016967041,-0.5776976,0.03476406,-0.3898104,0.18071684,0.022012556,0.5398021,-0.17704825,0.46823165,-0.06982776,-0.07190688,-0.0064305877,-0.2063377,0.03034149,-0.15578306,0.2617552,-0.01037695,-0.07919597
chr10-120898462-120899381,-0.37648764,0.64228404,0.15227784,-0.5613059,-0.08377484,0.12368485,-1.2816916,0.87813437,0.15719488,-0.0973527,-0.03976059,0.24085744,-0.053403523,-0.009951115,0.0058490564,-0.03244246,0.502074,-0.1653267,-0.70538145
chr10-121033528-121034378,-0.5314136,0.11329699,-0.02136853,-0.27835983,0.1998999,0.6433829,-0.21867031,0.7927399,0.057531934,-0.41811952,-0.1888091,-0.0576906,-0.23413734,0.013414095,0.012230879,-0.02571087,0.39316058,-0.064062074,-0.4817414
chr10-121295865-121296690,2.113433,-0.43328202,0.28432378,-0.1630154,-1.663889,-1.3023517,-0.09952253,-0.987929,-1.2403773,0.21179616,-0.07879457,-0.3867914,0.54671955,0.24908337,-0.09439248,0.03916636,-0.24240892,-0.23755533,-0.41778597
chr10-121739629-121740413,-0.082676604,-0.14683998,-0.075163804,0.07874262,-0.026306981,0.32568777,0.033464037,0.13749237,0.19319399,-0.05760531,-0.016287036,-0.12232053,-0.026475867,-0.02116612,-0.0040795347,0.006448794,0.33767152,0.03779297,-0.01806616
chr10-122096598-122097535,-0.38488284,0.23211458,-0.10424906,0.13368948,-0.15021779,0.5078613,0.34742513,0.44807264,-0.18184954,0.151273,-0.017714977,-0.17396985,-0.0056337984,-0.0037341611,-0.004378121,-0.009344911,0.21048047,-0.044916026,-0.032781474
chr10-122678691-122679648,-0.24842356,0.5601172,0.09111785,-0.08726122,-0.1917866,0.45549235,-0.35289204,0.4118633,0.07183428,0.1366706,0.029877031,0.17099465,-0.18899967,0.41669825,-0.23782483,-0.35684156,0.4460258,-0.48232612,0.5407389
chr10-122680331-122681033,0.025963848,-0.8942728,0.027352579,0.5254636,0.1229121,-0.3974755,0.1023566,0.09517725,0.6621957,-0.3578569,0.06476048,-0.4572326,-0.39423147,-0.007345259,-0.031206813,0.02707627,-0.9127276,0.003921136,0.06422122
chr10-123075947-123076716,-0.08440522,0.36573657,-0.38120115,-0.07568166,-0.05299356,0.5049135,-0.1265725,0.26958737,-0.2498997,0.052579522,-0.0517235,0.26144525,0.034526974,-0.013119702,-0.006274188,-0.015636533,0.48066965,0.028436717,-0.02885456
chr10-123264546-123265353,0.15232603,-0.33086446,0.48531187,0.7271533,0.032930307,-0.15516602,0.5165589,-1.1958206,-0.888813,-0.024156498,0.12406029,-0.9166376,0.08071199,-0.121420614,-0.001313205,-0.008995754,-1.0074692,0.1904171,-0.06268051
chr10-125389029-125389754,-0.015552383,0.050419107,0.05783887,0.3315728,-0.32355574,0.279453,0.11538351,0.010804839,0.09894671,-0.4331885,0.0040134373,-0.34145284,-0.027264806,0.0023394711,-0.0055212574,0.0021746096,-0.2445027,0.08310359,-0.17242442
chr10-127170537-127171436,-0.056523904,0.31593117,-0.36830926,-0.115068436,-0.47758842,0.98258644,-0.5128574,0.09658322,0.3833461,-0.6643881,-0.0130173955,-0.22855376,-0.026360497,0.03915206,0.007935217,0.015078511,-0.32964405,0.0035212147,0.09759052
chr10-127177617-127178342,1.25961,0.8201859,-0.87221026,0.52028334,-0.451733,-0.6432971,-0.1160544,-0.27391616,-0.64773613,-0.037441157,-0.044231962,-0.44702446,-0.004849546,-0.6929854,-0.10836305,0.22157574,-0.3205179,0.648067,-0.329296
chr10-127290465-127291257,0.081405535,0.75746775,-0.44057855,-0.20365904,-0.032221317,0.5982602,0.039824393,0.7486021,-0.5872448,-0.16340914,-0.013341748,0.66552967,-0.026950639,-0.33002746,-0.2866103,-0.095404476,0.85415226,-0.21265863,-0.46522996
chr10-127618047-127618888,-0.43419346,0.46529612,0.049616564,-0.08799101,0.28627408,-0.40772855,-0.57083684,0.31507212,0.22227032,0.20051119,0.08591086,-0.11126824,0.25122425,-0.7075441,-0.0023858352,-0.11621436,-0.8305312,0.076576866,0.06820411
chr10-127641710-127642302,-0.45824572,0.5791382,-0.32330966,-1.090396,-0.49583736,-0.64337,-0.49242932,1.383912,0.67986184,0.9313614,-0.40572298,0.18938436,-0.59398204,-0.51296955,-0.36045974,-0.23194464,1.4497199,-0.21850646,-0.44472378
chr10-127661703-127662589,0.65526986,-0.1468722,-0.07717238,0.5289431,0.19554617,-0.59597814,-0.055966787,-0.14154473,0.18873136,-0.55510163,0.11854098,-0.96079206,-0.6052198,0.18036619,0.021610621,-0.0045602745,-0.41003516,-0.013870306,-0.009836158
chr10-128014902-128015779,-0.30737746,0.7507376,-0.12758449,-0.6693386,-0.6891311,0.6770749,-0.2476414,0.8527137,-0.6200326,0.34061566,-0.100397736,-0.53551376,0.19224386,-0.45566148,0.029036405,-0.09516915,0.59796035,-0.054829627,-0.3017742
chr10-128035302-128036036,-0.09588144,0.21531501,-0.14945681,-0.026596295,-0.07783485,0.24573009,0.24578822,0.7859646,-0.5486897,-0.25421292,0.7614769,0.12892751,-0.55661273,-1.3110396,-0.020576641,0.016049366,0.6143232,-0.02207569,-0.99633133
chr10-128036775-128037519,-0.0634661,-0.13964415,-0.29209685,-0.06222814,-0.06534559,0.58289737,-0.38095555,0.4381618,0.26710486,0.038627118,-0.01724297,0.04319377,0.0531379,0.07257883,-0.008630558,-0.0028382237,-0.119760096,0.002551607,-0.065166846
chr10-128270170-128271069,-0.41023302,0.5557321,-0.39342508,-0.07811513,-0.3776835,0.57762975,-0.11773465,0.88499576,0.24147709,-0.2919363,-0.0384306,0.4616359,0.063478224,-0.32208154,-0.020547694,-0.06222726,0.7031476,-0.12803312,-0.048571724
chr11-3504180-3504981,0.91937464,-1.380111,0.58920723,0.88925797,-0.49809998,-0.7153832,0.35087165,-0.62579334,0.31927097,-0.56366175,0.12173524,-0.9137974,0.44076914,-0.08766645,-0.2791171,0.058685757,-1.1223398,0.14722992,0.4917179
chr11-3774352-3775087,-1.3705012,-0.116484895,1.1719376,-0.53587425,1.1204796,-0.68604976,-1.7397991,-0.4614618,0.42066997,0.24503213,0.0038696143,-0.63703585,-0.17117248,0.32938474,-0.016622867,0.17745358,-0.96978146,-0.08552565,-0.2802245
chr11-3983435-3984193,-0.7241936,0.8650505,0.528925,-1.0136375,0.43075603,1.2620063,-0.99088997,-0.6965276,-0.3224607,-0.17188628,0.10219905,-0.29133457,0.27406755,0.4277587,-0.117577076,0.20624316,-0.7452548,-0.6329659,-0.62342674
chr11-4094394-4094764,-1.0243876,-0.006825129,0.70190793,-0.4396707,0.77209634,-0.099478245,-1.3965821,-0.9028059,0.45010114,0.656037,0.12091761,0.19752635,-0.4098223,0.026428696,0.060773958,0.057551906,-0.3557949,-0.36009017,-0.17495584
chr11-4094873-4095497,-0.73427457,0.13842718,0.6506945,-0.38051954,0.43359843,-0.23900971,-1.7675899,0.22684959,0.4567658,0.29521784,-0.27234682,0.404355,-0.9600811,0.16093166,-0.07893855,0.08305262,0.23517141,-0.18142648,0.4278705
chr11-4218048-4218954,-0.94023913,0.41918764,-0.7715419,-0.98186713,0.41500387,-0.12785277,-0.51387286,1.7626297,-0.3924465,-0.5575975,-0.45545292,0.15724902,-0.69410795,-0.03986112,-0.002877608,-0.33781374,1.4763843,-0.069369204,-0.55881846
chr11-4949180-4950052,0.5674491,-1.3952444,0.7429964,0.37136135,0.45017308,-1.7057308,-0.22496487,-1.5216509,0.5732275,0.6645692,0.109326355,-0.35507166,0.31756398,-0.06368125,-0.083125584,0.28521687,-1.1604732,-0.051352125,-0.5587708
chr11-5151618-5152539,-0.27857336,0.4519176,0.015372302,-1.3810652,-0.23902118,0.34578732,-0.50867045,0.67292947,0.19013138,0.6132847,-0.22946544,-0.48742208,-0.38445523,0.03796116,-0.019732736,0.011159883,0.45036063,-0.0051889555,0.5513602
chr11-5485314-5486213,-0.55384696,0.4724116,0.11810933,0.28643677,-0.39733666,-0.47333023,-0.31895047,0.9874573,-0.39955878,0.44230524,-0.17770481,0.16767693,-0.096672714,-1.6137932e-05,-0.021584846,-0.04139364,0.6786238,-0.058352627,0.13830434
chr11-5877824-5878711,-0.060728632,-0.20799044,-0.21386744,0.12444037,0.3669187,0.5564395,0.06724003,0.38798106,-0.24718995,0.11040462,-0.032615222,-0.1864415,-0.16003923,-0.081224166,-0.010430374,-0.00521242,0.15797281,0.01580981,-0.6275255
chr11-5969468-5970323,0.06940941,-0.7464506,0.7787652,-1.3002121,-0.7508669,-0.3513959,-0.6672818,0.6247535,-0.049303424,0.96425086,-0.37211576,-0.887112,0.68957186,-0.025984561,0.43377697,0.8037111,-0.6526879,-0.41989493,-0.389613
chr11-6067955-6068888,0.5470988,-0.34763518,0.57454175,1.1159382,-0.36592332,-1.605187,-0.122688256,-0.65234876,-0.9459431,0.5019938,-0.17845578,-0.38458207,-0.13587546,-0.4014621,0.14573717,-0.1661666,-0.5215175,0.4508171,0.30888206
chr11-7064250-7064869,0.7434451,-0.8172844,0.45234552,0.3794873,0.42050135,-1.2036111,0.07626825,-0.9736464,0.26471654,-0.38767785,0.20397873,-0.37103468,0.39409646,0.2084852,-0.031191692,-0.0635281,-0.55679595,-0.3004732,0.2139181
chr11-12025441-12026353,0.46403602,-0.94881594,0.3120726,0.51679003,0.47261828,-0.33170587,0.20609263,-0.3046807,-0.10289989,-0.64103997,0.39221892,-1.0938727,0.19114462,0.28995943,-0.12688254,0.010640581,-1.2602578,-0.20600812,0.3676863
chr11-16257337-16258186,0.5909463,-0.46005118,0.14834511,0.52734375,0.05383734,-0.15265737,0.4790058,-1.4639004,0.13035232,-0.09163042,0.38200417,-0.6649266,0.1802227,-0.334328,-0.10925093,0.12245164,-0.94502133,-0.032049976,-0.4301819
chr11-17051715-17052508,-0.09825132,0.29909,-0.109149575,0.033623062,-0.22425179,0.73143923,0.037169296,-0.31134635,-0.051266227,0.095340595,0.16261521,-0.08208082,-0.06602134,-0.6240362,-0.008689688,-0.053431824,-0.5886036,0.08522799,0.040141486
chr11-17199785-17200666,-0.23834458,-0.9352093,-0.14748602,-0.5374042,0.14218272,-0.29085717,0.12580498,0.80146784,0.02511733,1.5341386,-0.25776803,-0.5670725,-0.3079055,-0.21555161,-0.054484986,0.1307319,-0.67320275,-0.3335113,0.46837315
chr11-19919875-19920712,-0.5161991,0.6031047,0.02923432,-0.22459929,-0.3472537,0.6431482,-1.030782,0.045679763,-0.020830328,0.63985,-0.2837774,0.45436707,-0.4610868,0.25461438,-0.015385945,0.032899756,0.44465324,-0.06339845,-0.14181204
chr11-19923934-19924795,-0.22952922,0.6845452,-0.5233625,-0.06307852,-0.0474324,0.14620352,-0.16298993,0.6300671,-0.3208574,-0.07474429,-0.19327667,-0.15789327,-0.28280687,0.17454825,0.043596845,0.028824499,0.22216484,0.07080568,-0.49608436
chr11-19979274-19980118,-1.4022703,-0.6277485,1.4818611,-0.93393135,-0.0014442855,-1.4426903,-1.1474959,-1.2489983,0.75501275,1.4390402,-0.0658701,-0.6075766,-0.44306406,0.3737575,0.078063555,0.046310063,-0.72068596,-0.30671352,-0.114977136
chr11-22512147-22513097,-0.09750481,0.5958277,-0.44104543,0.022247985,0.20700216,0.41776034,-0.3626875,-0.01597759,0.04790276,-0.37156552,-0.0077317045,-0.12251268,-0.062535465,-0.019912923,0.013469056,-0.00070513453,0.33868903,-0.016635962,-0.08090106
chr11-24060368-24061308,0.51028097,-0.5923182,-0.24481785,0.75304383,0.16404065,-1.2424564,0.3560574,-1.0947202,0.5483645,-0.45955542,0.101028115,0.29178375,-0.048922595,0.3093066,0.019085143,-0.1544521,-0.85696465,-0.112893745,-0.016586859
chr11-28853104-28854050,0.12658545,-0.3439807,-0.21926074,-0.38371658,-0.08904446,0.32580754,-0.3830819,0.37576878,0.41048774,0.100510255,-0.07413764,-0.3319043,-0.40946704,0.48715413,0.024298199,-0.02547869,-0.5725173,-0.022514904,0.048138756
chr11-29375467-29376368,-0.45171288,0.8393435,0.3188207,-0.19726102,0.18762334,0.5684729,0.0982113,-0.6112623,-0.18374376,-0.13708942,0.063214526,-0.5172633,-0.44687998,-0.5946917,-0.03627089,-0.076421596,-0.7262611,0.28449044,0.34090683
chr11-30471595-30472497,-0.6347464,0.4163124,0.3622877,-0.34426245,-0.50473684,0.18256027,-0.15484835,-0.3251938,0.49654013,0.43890762,-0.068036646,-0.06533984,0.1472591,-0.054871332,0.01373771,-0.023522947,-0.16077937,0.001088926,-0.099145316
chr11-30648788-30649725,-0.05169675,-0.16298807,-0.18496796,-0.08665191,0.1991965,0.27031305,-0.11696025,0.20229472,-0.1088106,-0.11656411,-0.0016563013,0.0030529797,-0.07486639,-0.0067081884,-0.0013756398,0.0016411849,0.09737122,0.010697732,-0.0023979694
chr11-30754721-30755644,0.15157653,-0.3384493,0.07154858,-0.097042024,-0.4159775,0.7187137,-0.48759705,0.26430172,0.55019563,0.09617916,0.004975263,-0.6264868,-0.052350063,0.20149049,-0.008868991,-0.008672526,-0.4344435,-0.018056804,-0.15452799
chr11-30885080-30886022,0.22631206,-0.52566624,-0.09537949,0.35976171,0.14289334,0.14691123,0.4065033,-0.2813384,-0.04364258,-0.45375213,0.1361885,-1.0889883,-0.017765762,-0.13813576,-0.02052278,-0.055165812,-0.89413875,0.057532333,0.45311823
chr11-33843191-33843942,-1.3609456,-1.2523052,0.27858117,0.75136226,0.9371772,-0.34492978,0.5402548,0.35783565,-1.0310947,-0.20033076,-0.28024927,-0.49711692,-0.35673904,0.2700239,0.024166867,-0.0036393397,-0.607124,-0.45008528,0.8715165
chr11-40692137-40693014,-0.02677723,0.25028068,-0.24259359,-0.0681781,0.05351523,0.5951404,-0.074282534,0.39578483,-0.3384232,0.24274684,-0.0068454673,0.45426503,0.048196204,-0.8749261,-0.03228268,-0.5673734,0.30636844,0.06378129,-0.010539078
chr11-40754724-40755540,-0.013286743,0.43869102,-0.0664769,-0.31721994,-0.10509474,0.6417627,-0.36031935,0.25072235,-0.103652924,0.060460165,-0.035690144,0.29443073,0.03553407,-0.019017277,-0.0049235327,-0.16867232,0.59045726,0.016240336,-0.15158264
