,Shared topic 1,Shared topic 2,Shared topic 3,Shared topic 4,Shared topic 5,Shared topic 6,Shared topic 7,Shared topic 9,Shared topic 10,RNA private topic 1,RNA private topic 2,RNA private topic 3,RNA private topic 4,RNA private topic 5,RNA private topic 6,RNA private topic 7,RNA private topic 8,RNA private topic 9,RNA private topic 10
HES4,-0.022218142,1.3284347,-0.25672045,0.016225604,-0.46674293,-0.034753677,-0.3867707,0.12769257,0.047678176,0.2739198,-0.29477143,0.8713156,0.4925798,0.36548573,0.2643958,-0.92477083,-0.23749752,-0.16002555,-0.70727533
AGRN,-0.03223174,1.4941992,-0.23405951,-0.1283855,-0.059712946,-0.020610908,-0.0647456,0.072982304,0.010669798,-0.035547692,-0.13641797,0.9977624,0.5243388,0.33660653,0.5807234,-0.93297297,-0.7061003,0.07301373,-0.67611367
TNFRSF4,0.09377198,1.8814557,-0.61554855,-1.3582692,-2.3476772,-0.22102521,-2.1590543,0.69715726,0.5618153,1.1011906,-1.0905721,0.7968759,1.2393177,0.45692572,-0.89636314,-2.361695,0.33598837,-2.4884365,-2.4404187
SDF4,0.014249196,0.64593375,-0.091107935,0.049942713,-0.034185078,-0.025180869,-0.011774174,0.06921229,0.007649411,0.4090886,-0.17691636,-0.074127205,0.20073906,-0.2942647,0.4881346,-0.007951868,-0.30201602,0.079844095,-0.061505023
AURKAIP1,0.00850674,0.018411398,-0.009816466,-0.020359498,-0.16600464,3.5425106e-05,-0.00026879483,0.08857629,0.00097596063,0.29498747,-0.020825978,0.4728095,0.29558945,-0.31838256,-0.19577184,0.0043746326,0.06675294,-0.12108459,-0.09249931
CCNL2,-0.035795216,0.9822544,-0.22823907,0.29760364,-0.1288433,-0.009824131,0.14211868,-0.5310271,-0.011976541,-0.96947545,0.036390424,0.6726306,-0.4310321,0.7467997,-0.041081347,-0.13968386,-0.8349063,0.31111863,0.10576929
MRPL20,-0.0035903926,-0.17240481,0.006908575,0.0077916076,0.003492164,0.001339114,0.0060588494,-0.028111279,-0.00898845,0.10025761,0.0010885877,-0.07853648,-0.13257667,0.11981333,-0.46035528,-0.013513457,-0.106192134,0.28191015,0.018487783
VWA1,0.0035222012,1.6528702,-0.15807779,-0.030196149,-0.15396543,-0.033404455,-0.03128699,0.112672046,-0.07909394,0.17885968,-0.45352873,1.0171211,0.5842933,0.38806996,0.5470433,-0.39350894,-0.7131536,0.15793583,-0.696589
SSU72,0.0017056004,-0.24197914,-0.0033383272,0.008452512,-0.0026521026,-0.00022806997,-0.0053045996,-0.0062199268,-5.739841e-05,-0.021674281,0.0067287665,0.0018035682,0.2660694,-0.075379044,-0.47126403,0.007604109,-0.055501476,0.09634068,0.004671501
GNB1,-0.041602757,0.3530684,-0.02366629,0.0129111055,-0.0031534855,0.00425784,-0.013769197,-0.024501087,0.005348992,0.008552247,-0.05038047,0.017436447,0.004660902,0.18735771,0.45565173,-0.06145679,-0.42488426,0.35162187,-0.05065858
FAAP20,-0.0032905894,-1.1691196,0.1758166,-0.024538074,-0.28162467,0.01171402,-0.6856968,0.40483665,0.020289727,0.51450163,-0.1661547,0.121239506,-1.1822026,-0.052642222,-0.6645058,0.13204353,0.49258447,-2.2423985,0.018341076
RER1,0.028234575,-0.45476407,0.011522354,-0.047961485,-0.01814817,0.0010628393,-0.0070370184,0.07574783,-0.009430172,0.014524471,-0.00049826194,0.28890076,-0.2983351,-0.096695915,-0.34375086,0.0024885456,0.123515986,-0.2927975,0.055067368
TNFRSF14,0.008843455,0.57283664,-0.1339447,0.053208157,-0.049041435,-0.020117484,0.034036823,-0.11143086,0.0053939675,-0.19500233,-0.0948686,0.15699512,0.20158963,0.31711298,0.36150464,-0.045110025,-0.5376694,0.19634481,0.018612513
CAMTA1,-0.013268768,-1.4237373,0.24725567,-0.23388556,0.24483909,0.032782096,0.06633344,-0.17581145,-0.093978986,-0.12301155,0.29011697,-0.3131196,-0.47967032,-0.42054647,-1.3369226,0.48770088,0.07156125,-0.05808216,0.3596075
VAMP3,-0.0026401093,-0.28715032,0.023607807,-0.3129656,-0.08566334,-0.00028373572,-0.0020143252,0.08385106,0.0005584832,0.46778855,0.001536753,0.41755182,0.06142422,0.13663879,-1.2920656,0.0040969457,-0.11698887,-0.1012562,-0.17945266
PARK7,0.0008074835,0.46077764,0.022446075,-0.004569537,-0.0040078145,0.0046512824,-0.081542306,-0.024916219,-0.007795836,0.02457682,-0.0063552298,0.3732317,0.1522703,0.15601279,-0.055690974,0.02303123,-0.09419825,-0.025657667,-0.091376476
ERRFI1,0.015742796,-2.5978446,0.32738358,-0.2171018,-0.11106345,0.016616877,-0.043812618,0.58792967,-0.05607258,0.27020943,0.37200475,-0.68563545,-1.1333718,0.019407582,-1.8151894,-0.24646533,0.9317534,-0.26169866,-0.3270486
RERE,-0.02389938,-0.9997557,-0.08132589,0.10579442,0.09467971,0.0016423983,0.029290477,-0.030524762,-0.01607469,-0.76645863,0.051044337,0.10694694,-0.4946346,0.13681751,0.31378013,0.033356447,-0.24494915,0.022099681,0.010239732
CLSTN1,-0.016382882,1.0320921,-0.16273835,0.08136978,-0.029983224,0.0034544189,-0.03521604,-0.20886181,0.015398462,0.035073284,-0.15527332,0.7248469,0.13309036,0.27861255,0.67953306,-0.34409305,-0.83683884,-0.02800692,-0.04501756
RBP7,0.18920445,-0.50918126,-0.30202773,-0.06201631,-0.031335175,-0.14975952,-0.1397153,0.09642684,0.36977908,-0.019766552,0.16278787,-0.21034059,0.48567837,-0.37659645,-0.2370026,-0.7617014,0.60800314,-0.45688167,0.1998805
PLOD1,0.011520741,0.6194463,-0.06416236,-0.04601017,-0.062846795,-0.0377139,0.006582235,0.24269065,0.004358149,0.4087833,-0.0056905714,0.32340416,0.46464515,-0.51885366,0.38499728,-0.12155638,-0.33990234,-0.53845155,-0.026386254
DHRS3,-0.043406032,-0.30465725,-0.21743686,0.2563671,0.017830828,0.0005832083,0.030093187,-0.34577423,0.019627022,-0.24088427,-0.0616217,0.13816693,-1.6499128,0.3218061,0.5578931,-0.10689651,-0.36728236,0.25728935,0.103400484
SZRD1,0.030238492,0.7221315,0.07012818,-0.3617752,-0.13150465,-0.011123486,-0.14586304,0.3513995,-0.00024668092,0.7546544,-0.2632367,0.39587355,0.122543216,-0.038960136,-0.42840347,0.07120048,0.17415866,-0.49119335,-0.35887414
SDHB,0.17146878,-4.526271,0.4764596,-0.14012872,0.49559417,0.06345346,0.11652534,-0.18254705,-0.3911129,-0.05037271,0.6976436,-1.6824863,-1.3493205,-0.8195414,-1.1877917,0.41636795,0.5995501,-0.27824098,0.4998752
AKR7A2,0.2970899,-3.900344,0.20173433,-0.4421035,0.3150976,0.04686851,-0.20399341,0.24303932,-0.006883023,0.29463363,0.55015594,-2.4192636,-1.2330297,-0.89950997,-1.2214564,0.3142485,0.59012234,-0.8550593,0.44007757
CAPZB,-0.0052226842,0.388485,0.01016217,-0.011050073,0.006102742,0.0029205433,-0.0250075,0.011694351,-0.014887265,-0.07972288,-0.0066355173,-0.5964571,0.4015302,0.28761843,0.3887512,0.02312157,-0.3111286,-0.40838525,0.043049768
MICOS10,-0.015178699,-0.5382162,0.037431505,0.00071208336,0.05283198,0.000497568,0.0025617557,-0.16116735,0.0034773652,-0.66578627,0.033631228,-0.19732817,0.05892121,-1.2418627,0.22820428,0.021407584,0.17237628,0.2671295,0.11417692
CAMK2N1,-0.011476395,0.4226116,-0.048646357,0.22164842,0.009590859,0.0029306253,-0.0023571146,-0.19549051,-0.0010434038,-0.40620828,-0.014141726,0.4593519,-0.012776615,0.004495341,0.5554433,-0.29263288,-0.47369143,0.49160627,0.016213145
PINK1,-0.0026673598,-0.43179256,-0.030870223,-0.011492289,0.0112291975,0.0015225852,-0.038362853,0.17139201,0.0012568735,0.29298022,-0.01993499,-0.25301355,0.31212622,0.21362026,-0.09221988,-0.015167845,-0.14861403,-0.43152896,-0.03529652
DDOST,0.108550005,-3.201809,0.22046432,-0.7458627,-0.042904887,0.10791741,0.123226024,0.2614087,-0.084295645,-0.7455719,0.5774698,-0.038627453,-1.2607703,-0.7428159,-1.6979353,0.6201081,0.27371398,-0.5493012,-0.5745261
HP1BP3,-0.1291178,0.80909294,-0.1563696,0.19274077,0.009813138,-0.002380839,-0.025945008,0.009141461,0.0060399533,0.1567871,-0.45812792,0.1788856,-0.09638957,0.43206036,0.46021515,-0.34975457,-0.07339742,0.07225135,0.09779598
ECE1,0.009197833,1.380034,-0.28817672,-0.7644997,-0.547564,-0.046156302,-0.28490847,0.32611752,0.029056227,0.5451052,-0.17107007,0.5691283,0.72458535,0.44434166,-0.0589779,-0.5550436,-0.3748562,-0.67037064,-0.974577
ALPL,0.03911331,-5.358033,0.23787905,0.06256542,0.46838593,-0.015809987,0.22738296,0.035620954,0.019399796,-1.243827,0.7568201,-2.211339,-1.1661812,-2.1076136,0.26494852,0.4239316,-0.053820096,-0.50891864,0.8232361
CDC42,-0.034332085,0.9903666,-0.25659692,0.159059,0.027899113,-0.006331882,0.019262236,-0.010224286,-0.0028764098,0.21214603,-0.22780699,0.7230991,0.28178027,-0.012187124,0.6799466,-0.33373237,-1.0845214,0.4687281,-0.15008774
C1QA,-0.008237035,1.1504942,0.1671301,-0.11151214,-0.30855057,-0.00638098,-0.007942914,-0.00949637,-0.013401667,0.27885604,-0.5187218,0.80434513,0.34570983,0.25808546,0.32927707,0.36249408,-0.3853669,-0.038402446,-0.77553093
C1QC,0.036132354,-0.19112723,0.4190005,-0.16467093,-0.087263875,-0.005767708,0.061323855,-0.01168999,-0.45478266,-0.017045133,-0.49686584,0.019946562,-0.13061288,0.11272217,-0.8504087,0.8288631,-0.0965623,0.06855478,-0.55839497
C1QB,0.020316975,-0.28865683,0.38460892,-0.27474222,-0.22458465,0.011947056,-0.010292211,-0.043047752,-0.040415738,0.03653946,-0.37100458,-0.42645884,0.3130982,0.28295684,0.027146349,0.6928373,0.03871853,-0.15002683,-0.81193566
TCEA3,0.12062686,-2.763534,0.07955074,-0.042626984,0.11221363,-0.00843066,-0.20178148,-0.3417645,0.07936522,-0.11868393,0.21308054,-1.6488914,-2.191419,-0.79802525,0.22546393,0.09567184,0.5862035,-0.15868196,0.041393492
FUCA1,0.18105933,-3.5025496,0.6935269,0.132739,0.36616147,0.4086606,-0.213511,-1.1251664,0.021549875,-1.5230412,1.2645617,-2.2797418,-2.1918554,-1.2885774,-2.329639,0.91094506,0.45878977,-0.25639635,-0.018980538
CLIC4,-0.020168668,1.0041733,-0.11745915,0.10086942,0.0037821368,0.002038466,0.021091202,-0.07729205,-0.04018447,-0.010065187,-0.082055084,0.7247148,0.29405162,-0.022673653,0.5147919,-0.035030026,-1.1580169,0.45917282,-0.060738664
SYF2,-0.010998688,0.11015863,0.016245153,0.1387927,-0.15328959,0.015491255,-0.30642205,-0.036859628,0.0032477384,-0.4285003,-0.012418545,-0.33489084,-0.6658983,0.46224326,0.2331326,-0.24327347,0.45473045,-0.3100801,0.0076351874
TMEM50A,-0.033369984,-1.590362,-0.06309364,-0.026327647,-0.05131338,0.04218612,0.012100239,-0.4568778,0.0478341,-1.4900955,-0.017356351,-1.1840206,-0.15160605,0.12186596,0.13482815,-0.15781008,0.10536417,-0.13655007,0.27703923
SH3BGRL3,0.0036079052,1.3451147,-0.04214868,-0.025415966,-0.043987807,-0.012908818,-7.825765e-05,0.21271671,-0.012610365,0.365438,-0.3196716,0.8231196,0.50676656,0.048777778,0.23986012,-0.0120699005,-0.5673801,0.24575105,-0.32127362
CD52,0.582158,-2.4570627,1.2011153,-2.4011834,-0.7147436,0.018753003,0.58313936,-0.7697721,0.20892212,-0.02133297,-1.0144738,-1.6887178,-1.0460291,-0.46473497,-1.134768,1.5867349,1.2797364,-2.2169347,-1.5968176
HMGN2,-0.013271113,0.8707011,-0.0161834,0.035480242,-0.0039331513,0.0017653833,-0.012703437,-0.15188146,-0.00011362472,-0.03239116,-0.037837774,0.630285,-0.11458877,0.11267649,0.40101078,-0.06431347,-0.45215556,0.32938778,-0.050529297
NUDC,0.12679423,-0.026999533,0.18187302,-0.30118084,-0.14431615,0.01485375,-0.14475971,0.29636383,-0.20970713,0.29730844,0.016087575,0.3260561,0.1928385,-0.10142426,-2.593316,0.21587951,0.44992197,-0.45312628,-0.3192601
FCN3,0.15863927,-3.4868371,-0.05970643,0.7179219,-1.3596679,-0.058706827,0.090620674,-0.015861139,0.3220051,-0.12073716,0.15332259,-1.3696587,-0.6537573,-1.4291396,0.57189316,0.6126873,-0.89184546,0.01852145,0.41725
WASF2,9.430029e-05,0.71639776,-0.015239551,-0.35913774,-0.059747253,-0.0034115857,-0.041569375,0.2354405,0.009877574,0.42420635,-0.10309246,0.5138282,0.3554562,-0.1377553,0.09906722,-0.30575627,-0.07423516,-0.34323964,-0.039157547
ATP5IF1,-0.009781004,-0.96464694,0.02840967,-0.12958163,0.037221212,7.072975e-05,0.015881171,0.025294956,-0.018185105,-0.0634472,0.033428103,-0.529278,-0.32109198,-0.32689658,-0.115705356,0.058598954,0.15230282,0.24927212,0.03761914
LAPTM5,0.016589617,1.129553,0.07654118,-0.22467801,-0.13425827,-0.0060374597,0.037950333,-0.1744872,-0.05639248,0.2208829,-0.5176923,0.9195231,-0.3026954,0.3930848,-0.069830075,0.46044603,-0.45840478,0.06183643,-0.7782702
SERINC2,0.38974786,-2.574814,0.3248711,-0.48159075,-0.116181575,-0.006223681,0.14718993,0.35577184,-0.040718973,-0.2386227,0.16645987,-2.2295582,0.21030134,-1.3653969,-1.016734,0.41740045,0.67035234,-1.8032621,0.342548
TINAGL1,0.0075453604,1.678061,-0.32588038,-0.071206644,-0.3854577,-0.008610736,-0.031166345,0.12704436,-0.10884009,0.4338906,-0.65920883,1.0616609,0.53856444,0.36059475,0.2870397,-0.49482155,-0.9564129,0.07449124,-0.7531765
PTP4A2,0.021576155,0.047412246,0.22117054,-0.1413624,-0.21890813,0.0023121058,-0.22743236,0.15111025,-0.017056191,-0.46148846,0.008040111,0.8017006,0.33742523,-0.5770013,-1.7200674,-0.048372053,0.43286067,-0.47162732,0.019567419
KHDRBS1,-0.009708399,1.0698998,-0.12167009,0.04721428,0.019080821,-0.0021125712,0.040560443,-0.055964723,-0.0227752,-0.09567473,-0.0664749,0.6803071,0.185598,0.21976928,0.28815636,-0.2952245,-0.14772575,0.28194976,-0.15309574
EIF3I,0.014157436,-2.5491168,0.06286901,-0.018256163,0.13495816,-0.05788703,0.025391499,0.16466826,-0.0018389877,0.35382432,0.13213697,-1.7566174,-1.0596062,-0.38452032,-0.55103433,0.29045326,0.28166357,-0.15192018,0.28106052
MARCKSL1,-0.2563679,0.96048784,-0.31052998,0.13446908,0.057431,0.008775581,-0.014373169,-0.024463775,-0.049750626,-0.029107632,-0.5180146,0.77154714,0.3874605,0.37412193,0.34617144,-0.713015,-1.1867481,0.36678457,-0.10462914
RBBP4,0.002437239,-0.60941404,0.0036779712,-0.012082989,0.022499414,-4.053957e-05,0.007848685,-0.052611798,-0.003333635,-0.4436049,0.033068992,-0.07139703,-0.800516,-0.3382736,-0.23980762,0.04806424,0.019338068,0.4633853,0.031204596
AK2,-0.027639477,-2.1045682,0.017231964,-0.020407151,0.021547373,0.0017980734,0.05128782,-0.099798895,0.02667837,-0.3265286,0.016630316,-1.4133981,-0.5312813,-0.4176861,0.5002346,0.041117553,0.21183197,0.16392657,-0.020084782
PHC2,-0.010385729,1.2771828,-0.13340266,-0.07559043,-0.021727417,-0.0053451858,-0.0057835383,0.11167076,-0.010625794,0.035998665,-0.079710595,0.76478535,0.3130318,0.23414858,0.39465395,-0.5857414,-0.33294812,0.27924347,-0.17720002
GJA4,0.009827824,1.0467789,-0.08407175,-0.04961654,-0.08392888,0.003213052,-0.08089163,0.25690377,-0.004395038,0.4632863,-0.21534052,0.31593663,0.5262615,0.35886154,0.3069516,-0.48677224,-0.25335288,0.09887631,-0.44618088
TMEM35B,0.19292523,-3.283178,0.71803874,-0.37725058,-0.13328725,-0.019974899,0.33862254,-0.27834776,0.024080334,0.16198555,0.61854154,-1.8520824,-0.4007214,-1.0170811,-1.5008547,0.80166155,0.8158874,-0.873331,-0.34292242
SFPQ,-0.04098665,0.7978314,-0.099005535,0.13359125,0.025521249,0.0024712957,0.01641905,-0.22634007,-0.006166394,-0.2067286,-0.09953252,0.42590657,-0.10714987,0.44340295,0.3255185,-0.05913168,-0.8124214,0.16726035,0.12109801
PSMB2,-0.054781243,-2.3211927,0.18146053,0.03235372,0.06905059,0.050345194,-0.016416937,-0.44067323,-0.0046381364,-0.085113496,0.1700092,-0.18041037,-2.5558515,-0.55500555,-0.27233583,0.052955847,0.33490828,-0.6966486,0.3299632
EVA1B,-0.040411722,1.4669495,-0.26342914,-0.007836769,-0.668806,-0.09928918,-0.31587148,0.25769022,0.0837603,0.35717615,-0.545773,0.8049199,0.4813361,0.20412214,0.61775506,-0.700961,-0.8408668,-0.1825114,-0.64845926
NDUFS5,-0.0087586865,0.3622266,0.0013987728,-0.0021019175,0.011709078,-0.00090729113,-0.018321317,-0.007894671,0.002157011,0.026917538,-0.013159644,0.35406724,0.17048493,-0.4578199,0.55097646,-0.020573508,-0.27265793,0.0847838,0.0012319736
PABPC4,-0.0020818294,0.034250997,0.013037536,-0.0714342,-0.025623292,0.0035816303,-0.022099206,-0.016205527,0.0019729054,-0.3115958,-0.0033024775,0.17727177,-0.24421366,0.012331512,0.15146641,0.0105239935,-0.045133367,0.1912431,-0.006160876
HEYL,-0.005600451,1.187403,0.032195587,-0.09316281,-0.20306969,-0.097317874,-0.2604103,0.4268152,0.030258538,0.40593138,-0.09820487,0.6987303,0.83809346,-0.034563966,0.25206277,-0.2722425,0.03842548,-0.92530674,-1.2822311
CAP1,-0.04121331,1.2637434,-0.14569792,0.0066392533,0.015413256,-0.006780434,0.015876744,0.013975331,-0.0032633028,0.10299152,-0.14395641,0.83463734,0.2971259,0.16659604,0.5706338,0.009395824,-0.91427857,0.12910865,-0.16244906
PPT1,0.14751877,-2.905384,0.33313596,-0.4729249,0.28038043,0.014198117,0.29267442,-0.20767443,-0.11191443,0.16580714,0.2497271,-0.8232077,-1.5984223,-0.8246433,-1.8038217,0.65276873,0.42215052,0.04246111,0.016275842
CITED4,0.68267006,-0.7544531,0.60367256,-1.7286414,-0.46592832,-0.3474572,-0.03846672,0.74981076,0.27968556,0.3217904,0.2031498,-2.3102465,0.9175526,-2.043002,-0.90443355,-0.40572765,1.5794847,-2.1573398,-1.3527639
PPCS,0.3977294,-2.4551826,0.830094,0.011458759,-0.10044383,0.08355264,-0.08768542,-0.25326172,-0.304869,-0.5157163,0.79327923,-1.6727971,-2.6288311,-0.630425,-1.7406384,0.87076306,0.27129284,-0.48238853,0.67243874
YBX1,-0.011525535,0.44631878,0.036609516,-0.32259133,0.0122519145,-0.001714132,-0.021026123,0.120058455,-0.004378689,0.2872351,-0.040934354,0.3660998,0.37215352,-0.31775007,0.3600329,0.016943192,-0.15870097,0.047016356,-0.085328035
SLC2A1,-0.001099819,-0.6933172,-0.0063946554,-0.0062623704,0.009777195,-0.011977049,0.014968418,-0.04888463,0.00643705,0.20985915,-0.0027864797,-0.63617074,-1.4428456,0.17607774,0.12360436,-0.047339562,0.112257525,0.12168738,0.12049093
HYI,0.2752494,-0.8845897,0.4959765,-0.93963253,-0.028322,-0.04132719,-0.54928803,-0.2224241,0.098112375,0.41368687,0.3007628,-0.043772627,-1.017365,-0.17665201,-2.2145061,0.2568651,0.7770122,-0.4221973,-0.053827524
PTPRF,0.13694715,-2.709808,0.26701766,-0.25138715,0.2885579,0.008289557,0.057691578,-0.08023919,-0.15013456,-0.31405672,0.6481563,-2.267185,-0.8811128,-1.3899132,-2.2342136,0.19165884,0.67465687,-0.04079282,0.2226879
ATP6V0B,-0.005054479,0.7226145,-0.043310143,0.008099946,-0.016555494,-0.0012288264,-0.04506476,0.04411954,0.0026654843,0.2915104,-0.09756661,0.057789754,0.2904276,0.19077216,0.48024273,-0.14694151,-0.22837792,0.14219493,-0.069199085
ERI3,0.23536175,-1.370837,0.26929468,-0.2926652,-0.33564308,-0.025838176,-0.24828416,0.014488011,0.04602637,0.12532267,-0.014079294,-1.9962687,-0.07199095,-0.22998595,-1.4350799,0.1220309,0.58374286,-0.5063784,0.4088309
UROD,-0.00460117,-1.7182393,0.0931375,-0.13142762,-0.17036149,0.017515786,-0.37256765,0.14522836,0.09457165,0.10504048,0.036431342,-0.8059254,-0.9817935,-0.34025472,0.01024186,-0.4492699,0.7134211,-0.7681769,0.24038815
PRDX1,-0.009789372,0.62927264,-0.039571237,-0.026868856,-0.009939746,-0.0012727779,0.0026319528,0.0038288434,0.00031637572,0.09093041,-0.04827521,0.43288007,0.21089377,-0.11837545,0.3825164,-0.007906467,-0.4517077,0.19303527,-0.079177946
AKR1A1,-0.0015271162,-1.1950634,0.00056057173,0.0270454,0.032152243,-0.0022880326,0.037426196,-0.13378371,-0.019733077,0.15106994,-9.589115e-06,-1.5160624,-0.3029975,-0.443362,-0.20985806,0.18047526,-0.13705036,0.37135255,0.16932462
TSPAN1,0.17309675,-5.0754585,0.072811075,0.68774146,0.66837204,-0.5899044,1.1969578,-2.4059026,0.04150271,-2.165473,1.3983018,-2.3578236,-2.2730362,-2.381667,-0.15911949,0.51983505,-2.0970352,1.0772617,1.6002318
LRRC41,0.015177398,-1.940743,0.024360862,-0.03133069,-0.06595452,-0.08493576,0.11796911,0.33273816,0.0005379605,0.31572807,0.14676127,-0.5937052,-1.4945962,-0.84645736,0.22922108,0.017256543,0.5164633,-0.4363617,-0.13875727
UQCRH,-0.00047472207,-1.3357611,0.053788517,-0.018322699,0.025445092,0.0027979184,-0.052190088,0.0036729595,0.0019700143,0.12705939,0.071942836,-1.8171136,-0.32932648,-0.22308128,-0.30072686,0.10677099,0.24601603,0.12972188,0.0017141544
CYP4A11,-0.049817316,-2.895298,-0.4127016,0.7640556,0.70822453,0.06774486,0.73490137,-1.7561771,-0.3010904,-2.3626735,0.50016254,-2.1955717,-1.3332229,-2.4795005,0.5316901,0.18853597,-2.2261286,1.0856138,1.1075591
PDZK1IP1,0.0053178864,0.30604276,-0.1743265,0.09581101,0.04308121,-0.02433402,0.046618648,-0.26204523,0.0017439972,-0.109773204,0.035671584,0.26543427,0.027580244,-0.5900732,0.49845996,-0.034049,-0.7418498,0.3504819,0.07165849
CMPK1,-0.14094001,-1.9010348,0.039193437,0.30841872,0.30912793,0.021400211,-0.019673869,0.17537825,-0.011846875,-0.8550301,-0.100168355,-0.62956035,-0.28958458,-1.308488,-0.017320529,-0.080100894,0.42867035,0.6332918,0.46466988
TRABD2B,0.45802656,-4.104803,0.6223313,0.19000459,-0.1049866,0.031329386,0.41260418,-0.3466641,-0.1560612,-2.2707608,0.766992,-1.6249197,-0.53942055,-0.5442392,-1.6458412,0.869494,0.6605792,-0.08884015,0.07240442
RNF11,-0.024369469,0.41357756,0.07783809,0.05730798,-0.09363023,0.0037634,-0.018971266,-0.04528151,-0.0054510566,-0.7328734,-0.06267164,-0.19244269,0.018598055,0.6810346,-0.689579,-0.31615925,0.583961,0.40179324,-0.0051486148
ECHDC2,0.009514477,-1.6302675,0.007000272,0.08855963,0.043765433,0.00059737236,-0.018541044,-0.71131235,0.007603339,-1.2586187,0.10780379,-1.9837664,-1.2952905,0.33263305,0.11654935,-0.18346004,0.33480343,0.037257437,0.3031768
SCP2,-0.025866318,-0.51403606,-0.13166977,0.04536252,0.045342997,-0.002802749,0.046087686,-0.2482206,0.012412953,-0.14872444,-0.08234031,-0.63117033,-0.26282308,-0.0347804,0.33846265,-0.1394851,-0.44038963,0.48061785,0.17335713
CZIB,0.31762075,-3.2363873,0.7992194,-0.4634191,0.27683976,-0.007953242,-0.200146,-0.0666826,0.032305103,-1.0179789,0.42830494,-1.447275,-0.57593244,-0.8066058,-0.58964974,0.72886616,0.8860585,-2.2974398,0.4684703
TMEM59,-0.007647901,0.3641637,-0.02781883,0.018974602,0.01808211,-0.0020404344,0.027910655,-0.15665753,0.0032583226,-0.16009872,-0.03701267,0.14230521,0.15185872,0.04489294,0.5170866,-0.07930321,-0.55614555,0.38451576,-0.015712919
MRPL37,0.054642558,-1.2846984,0.14157961,0.070783705,0.13768077,-0.006271356,-0.042208318,-0.34439775,-0.031644374,-0.18241438,0.4250194,-1.6152482,-1.8061094,0.3476656,0.20091599,-0.03693382,0.16696471,-0.60420054,0.43222347
PLPP3,-0.008668704,0.9620967,-0.10553283,0.14204934,-0.017078077,0.0015488871,0.014354444,-0.25018921,-0.0054875216,-0.47868016,-0.14812517,0.62543976,0.37567803,0.39201435,0.5139476,-0.2645804,-0.71635693,0.31736508,-0.10892097
JUN,-0.038682196,-0.7297444,-0.14518557,0.044540465,0.32272437,0.048872173,0.13645971,-0.61546284,-0.16388917,-1.167366,0.43198287,0.06148958,-2.2344074,0.22166277,-0.22578208,-0.1783668,-0.43689677,0.38687962,0.36502647
CYP2J2,0.008051655,-4.5567055,0.06468809,0.36779186,0.51989824,0.022839077,0.46453187,-1.3137307,0.077894405,-2.2448692,0.49462965,-2.4049754,-2.2327933,-1.4727821,-0.012416265,0.2264257,0.23285602,0.8102258,0.6695337
NFIA,0.026676279,1.6120591,-0.30081776,-0.0010620798,-0.11259474,-0.031329427,-0.10684945,-0.03288292,-0.031204447,0.29109553,-0.5425826,1.077113,0.66777277,-0.25836694,0.2850825,-0.9469389,-0.43214905,0.24571861,-0.015081393
PGM1,0.030730315,-4.0805073,0.4605797,-0.3961383,0.31119868,0.03852035,-0.04640489,-0.37410685,0.1024738,-1.6634848,0.48636273,-1.3329213,-1.208902,-1.1023028,-2.0059996,0.62182355,0.9156163,-0.7306315,0.6318976
JAK1,-0.0038587851,0.9536506,-0.07073766,-0.012103643,0.03773104,0.0016144139,-0.01147449,-0.22478049,-0.00041551286,-0.57819015,-0.16933215,0.72864985,0.1272662,0.2790497,0.29013768,0.010593436,-0.25658098,0.0125127565,0.06952826
AK4,-0.03619357,-0.32216996,-0.1346212,0.28576475,0.11459084,0.031375613,0.011280952,-0.39316693,-0.012923571,-0.36041623,0.01944152,-0.0897829,-1.8994757,0.350437,0.19846074,-0.23887563,-0.48368445,0.48285133,0.46425676
LEPROT,-0.013721933,0.8750423,-0.09405651,0.014391106,0.039812643,-0.0102791665,0.15172929,-0.3058926,-0.059104368,-0.56744605,-0.033892598,0.2907357,-0.22840017,0.41872784,0.25150058,-0.15702799,-0.34303227,0.41251263,0.13361733
SERBP1,-0.022358844,-0.30018178,0.031315606,0.025160028,0.010238561,0.004101779,-0.2185547,-0.027878368,-0.00051477604,-0.24808028,-0.096984744,-0.11667662,0.22078349,0.29798076,-0.2487801,-0.0739184,0.12731828,-0.007749697,-0.017376402
GADD45A,0.0986929,-2.4136019,0.83711785,-0.34190172,-0.16735336,0.041017804,0.021321673,-0.09599294,-0.39737394,-1.3049252,1.0558655,-0.19182071,-0.26375997,-0.44775844,-2.6480472,0.48263797,0.2177404,-1.3467742,0.47408095
GNG12,-0.013241069,-2.4417124,0.011246901,-0.022554621,0.049922064,0.008707862,-0.058542173,-0.034633443,0.003391659,-0.19639565,5.59411e-05,-2.0814984,0.33525068,0.0889246,-0.3801114,0.009717166,0.25349584,0.30475953,0.14815527
SRSF11,-0.11869842,1.2488297,-0.1941355,0.23141429,-0.047292016,0.016253714,-0.001296261,-0.43030578,-0.027703147,-0.7569962,0.022565387,0.89208305,-0.048105933,0.7300436,-0.5130589,-0.9659241,-0.33064932,0.54153025,-0.07847989
CRYZ,0.109159775,-4.2406406,-0.0025729323,0.123726204,0.4038254,0.07252825,0.42394418,-1.4123497,-0.02459766,-1.6559291,0.32751536,-2.5564632,-0.8791173,-0.7688755,-0.14144024,0.2311092,-0.2553683,0.7152676,0.74672866
ACADM,0.103319995,-3.1099372,0.11358536,-0.008112953,0.38368818,0.15650691,0.36820662,-1.7170142,-0.04787204,-1.408922,0.6197591,-1.2747142,-0.4573773,-1.1695082,-0.0674561,0.16397971,-0.19028847,0.13890669,0.79019254
RABGGTB,0.16785097,-2.904546,0.41483954,0.018765798,0.13613537,0.40897256,0.049452692,-0.56198144,-0.34179425,-1.8401585,0.728895,-1.920132,-1.6633643,-0.20877486,-1.9473914,0.36968964,0.69649357,0.16341422,-0.28475222
GIPC2,0.123216785,-3.815682,0.39021188,-0.22392507,0.53786075,0.07864704,0.4791183,-1.0398717,0.013032428,-1.8321867,1.3288765,-1.8992074,-2.3084366,-1.7135173,-0.25661683,-0.24449025,-0.008634677,-0.051959384,0.7424992
ADGRL4,-0.08031463,1.5166576,-0.3943889,-0.07331491,-0.10746934,-0.01811059,-0.20666102,0.079785466,0.04129659,0.14989801,-0.4032309,0.8935661,0.732973,0.5419688,-0.07513235,-0.84088,-0.80787885,0.2831609,-0.4557694
GNG5,-0.03544749,-0.4637255,0.18707886,-0.3833823,0.09020782,0.0019350693,-0.042787917,0.020995263,-0.0052328976,-0.045042645,0.028163748,-1.7081237,-0.21994561,-0.09853195,0.12165163,0.36998546,0.24894227,-0.08517655,0.121830404
DDAH1,-0.037324283,-1.7731752,-0.23800284,0.31287533,0.17542386,0.0452557,0.16834925,-0.73015976,-0.001727105,-2.0205169,0.20210463,-0.11585275,-1.193579,-0.8072258,0.01859712,-0.17923994,-0.31222287,0.62828225,0.53516984
CCN1,-0.24037255,-0.18165557,0.014633468,0.53476655,0.04174975,-0.0037490525,-0.020310448,0.18781428,-0.0414329,-0.22523034,0.6245441,0.57997465,-1.5086157,-0.80647063,-0.13450144,-1.0493774,-1.736065,0.58570206,0.7863551
SH3GLB1,0.031434387,0.5537797,0.042867105,-0.7428484,-0.22583114,-0.0046992414,-0.20392562,0.12173673,0.009281965,-0.7812204,0.20326912,0.60724586,0.2860604,-1.1000465,0.25277293,0.059984062,0.37248084,-1.3274775,-0.39920408
SELENOF,0.00886399,-0.578084,0.0012738826,-0.06349491,0.051155332,-0.00038252404,7.440438e-05,-0.03332126,-0.0033619623,-0.122021034,-0.07377719,0.58771926,0.26960382,-0.01562201,-0.23287822,-0.028988365,-0.20757417,0.2899361,-0.0048377267
GBP3,0.31701145,-1.6778742,1.0910951,-1.0363002,-0.19989514,0.06361098,0.5368163,-0.50607777,-1.981965,-0.12900479,0.22710408,0.80788946,-1.6265458,-2.1015286,-2.5288303,1.415049,-0.71776825,-0.06491901,-0.01861833
GBP1,0.111114785,-2.8863206,1.0939779,-2.0227401,0.07772638,0.6370181,1.1715313,-0.607504,-2.5983233,-0.7724113,-1.0625087,-0.90919054,-2.0276558,-0.43221346,-2.3745,1.8395393,-0.8662677,1.0921726,-1.2629297
TMED5,0.06096593,-4.1419497,0.3290378,0.22901177,0.6130382,0.061248686,0.44066063,-0.553619,-0.41146004,-0.9169874,0.75322366,-1.4884824,-0.67025125,-0.12858269,-2.2645335,0.57437086,-0.3278071,0.464619,0.69684887
CNN3,-0.045801055,1.3266908,-0.30253035,0.1192461,-0.040345352,0.003718633,0.026604703,-0.103115655,-0.03405324,0.19999342,-0.44266003,0.8472695,0.32873476,0.4279426,0.47156146,-0.5786954,-1.148675,0.3715151,-0.24408899
SARS,0.035310756,-0.29920495,0.17135136,-0.21704327,-0.0339906,-0.033897117,-0.31197312,0.34972733,0.010628978,0.33448997,0.014145933,-0.60087746,0.16176955,-0.081607014,-0.4192331,0.1037463,0.5087263,-1.1280324,-0.074071586
AHCYL1,0.06485842,-0.2968178,0.007798655,-0.106580116,-0.008832956,-0.009218796,-0.012567363,0.031100482,-0.038819924,-0.2890234,0.12235975,0.5163675,-0.7015659,-0.16162717,0.24728407,0.086727925,0.3137985,-0.9563331,-0.07122499
SLC16A4,0.08897129,-2.7669222,0.13591868,0.099418595,0.39786872,-0.024651092,0.4176863,-1.4355285,0.026617678,-1.9432586,0.45276332,-1.3207998,-1.9819043,-1.5302064,0.109392874,0.280325,0.021510832,0.6601299,0.82374495
LAMTOR5,-0.00786032,-0.7230426,-0.033828992,0.07306715,0.04678764,-0.0015650842,-0.0015696347,-0.48091826,0.0057374877,-0.33101755,0.052244365,-1.1609774,-0.4096157,0.002250839,0.23836936,0.007818532,-0.13608204,0.39593613,0.07042595
ATP5PB,-0.013966814,-0.8735453,0.09074158,-0.15229319,0.06028179,0.0057374514,0.01499915,-0.40836203,-0.011186077,-0.7599265,0.010560068,-0.048939828,-0.4642203,-0.7103145,-0.43853363,0.14331084,0.3696013,0.28885788,0.18432316
RAP1A,-0.12417923,-0.9572611,0.05069918,0.03034017,-0.036432568,0.014885416,0.016090175,-0.06339367,-0.0030063333,-1.2614655,-0.30024952,-0.3418658,-0.59657973,0.44712538,0.19068982,0.002454336,0.5315556,-0.5971194,-0.0523623
CAPZA1,-0.018002596,-0.7943552,-0.13004927,-0.06263946,0.051591393,0.0035591172,0.27675164,-0.38978013,0.00786849,-0.08469855,-0.13137335,-0.57165396,-0.057847846,-0.59057426,0.1765168,-0.044608247,-0.33936435,0.37968946,0.26258266
RHOC,0.008700246,1.4310343,-0.26689452,-0.032382607,-0.21840452,-0.035910223,-0.1324971,0.15573993,0.010102405,0.39803317,-0.26911274,0.7982763,0.5680738,0.1522161,0.5632842,-0.5033384,-0.539987,0.032966387,-0.5020495
CSDE1,-0.020916563,1.0697055,-0.065368965,0.09413856,0.008577879,-0.0024541717,0.014769876,-0.16791622,0.00046741476,-0.11826396,-0.13970366,0.746441,-0.0058469055,0.23596819,0.60932314,-0.2369286,-0.6751021,0.3673469,-0.08401369
ATP1A1,-0.01577326,-0.77121294,-0.061392512,0.15682392,0.08750241,0.0009091353,0.021709811,-0.07327665,-0.022517301,0.15565175,0.026066653,-0.56299275,-0.76981276,0.12914185,-0.07308213,0.00024440704,-0.2880531,0.3548609,0.08732333
HAO2,0.2688383,-5.5474815,0.60426825,0.6004757,0.93340135,0.42373976,0.9592186,-2.8398862,-0.34830517,-2.342874,1.6175886,-2.331655,-2.2934916,-2.37617,-0.85824186,0.7041606,-1.8033644,-0.2363058,1.5286111
PDZK1,-0.018774424,-2.6519625,-0.022785367,0.26667565,0.19900264,-0.0021543235,0.24545625,-0.4329758,-0.013057521,-0.36271018,0.18378772,-2.8859363,-0.87987846,-0.39536944,0.14721796,0.12876894,-0.14451674,0.5514498,0.4473127
RBM8A,-0.009277776,-0.1542481,0.0038844827,-0.0027815856,0.0015097009,-0.00033919272,-0.031223528,-0.010708673,0.0109336395,0.27020013,0.0048922333,-0.3342349,-0.23811892,-0.024473593,0.03330445,-0.011077068,0.04767052,-0.3037617,0.03283135
MTMR11,0.16673826,-5.2575474,0.382904,-0.44956413,0.3937461,0.13631994,0.52563596,-0.47731477,0.027064065,-2.5529861,1.0196332,-2.4608426,-0.3588645,-0.88706607,-1.8162513,0.4841216,-0.18283154,0.34137723,0.76634765
APH1A,5.5451448e-05,-2.608614,-0.021405242,-0.19585288,-0.23948026,0.0018354667,0.020011773,0.20727089,0.019842401,0.15941241,0.11534062,-1.7717879,-2.1011078,0.115012325,-1.6117563,0.038409732,0.5473614,0.0050059697,0.16969039
MRPS21,-0.0035489162,-0.8327117,0.006138318,-0.13961688,-0.00042126706,0.0038345985,-0.0126791615,0.061137855,-0.0001593003,0.18159804,-0.0064067272,-0.5270922,-0.13538733,0.17511787,-0.21260548,0.08259959,0.14671147,0.11544606,-0.24848315
MCL1,-0.03254535,0.24062347,0.03489136,0.019895442,-0.04464459,-0.0018639796,0.0048450353,0.35634887,-0.011280141,0.6641441,-0.14649868,0.34358275,-0.94913626,-0.0076968437,-0.018495483,0.05242479,-0.19265032,0.23130442,-0.18623307
ENSA,0.014221235,-0.33065277,0.0021145816,-0.5123385,-0.075442106,0.004386973,-0.01448293,0.29406878,-0.004091119,0.3976822,0.018906545,-0.34755406,-0.11410531,0.032185487,-0.21333359,0.034718934,0.35391003,-1.1910825,-0.08566253
CTSS,0.025307843,-2.210245,0.8976384,-1.7555481,0.22265741,-0.24356385,0.5349484,0.049130462,0.005033101,-0.36014396,-0.060454965,-1.5530558,-1.2111925,-1.3502272,-1.9907178,1.3307457,0.537156,0.16657111,0.14369263
CERS2,0.00934328,-1.4992864,-0.005109523,-0.058340333,0.103943095,-0.010078404,0.13686074,0.012051884,-0.018766271,-0.95601135,-0.036974438,-1.2785447,-0.14406426,-0.26322412,0.16115083,0.1954415,0.1464074,0.17405976,0.38201934
PSMD4,0.064886026,-1.2002144,0.17564443,-0.38322,-0.28878152,-0.005467026,-0.041690953,0.45890656,0.022491194,0.12805457,0.077622294,-1.9272052,0.43518054,-0.71750706,-1.3082677,0.26079005,0.6866552,-0.8325273,0.2720102
PSMB4,-0.00977304,0.16934812,-0.0147213675,0.0136591215,-0.01568253,-0.0062704193,0.03137579,0.024784528,0.0012037018,0.3458899,-0.0468977,0.511359,0.07891695,0.09838865,0.4065868,-0.02053142,-0.64445174,0.14255647,-0.13777618
RORC,0.5292118,-3.9031544,0.6931299,-0.63034123,0.18903843,-0.007918504,0.28933737,-0.38263625,0.5250949,-1.2768897,1.2015624,-2.400503,-2.1576574,-2.3956182,-1.406277,0.47564283,1.0717931,-0.5203022,0.17008916
S100A10,-0.0113583645,0.82296187,-0.029259678,0.041087225,0.031844955,-0.0038808077,0.025611563,-0.13879335,-0.008253427,-0.07913292,-0.04485309,0.51514053,0.15378667,-0.16559052,0.45203224,0.0053649833,-0.6424555,0.3849769,0.03603135
S100A11,-0.0029107155,0.9975517,-0.025772322,-0.039551347,0.006725919,-0.014090749,0.035868626,0.023885885,-0.008715934,0.2025309,-0.029841775,0.70855945,0.115630105,-0.0456375,0.40918952,0.06804474,-0.8081539,0.27285284,-0.17909132
S100A4,0.07131291,0.5414939,0.15147957,-0.88221085,-0.14954023,-0.13149543,0.017709376,0.116488755,-0.02149545,0.44124067,-0.2452744,0.4562459,0.30794346,0.016276315,-0.56825215,0.6381994,-0.9756663,-0.78778833,-0.44976875
S100A16,0.028619241,0.111184806,0.09855635,-0.18217938,-0.38124442,-0.007637398,-0.2938233,0.3764531,-0.0003209799,0.5594357,0.011033146,0.25171524,-0.1820011,0.44777977,-0.40017712,0.12516269,-0.12251902,-1.9700111,-0.023337701
S100A13,0.020804217,0.6064334,-0.02730032,0.047125883,-0.0628285,-0.0032018013,-0.16076337,0.023397185,0.0003561516,0.28458297,-0.051857263,0.42019567,0.22305821,0.11393197,0.03462503,-0.05493251,-0.0980141,-0.032675937,-0.027819272
S100A1,0.8948645,-2.5632527,0.7173102,-0.9607478,0.44803748,-0.08772898,0.27808398,-0.047221333,-0.7983745,-1.2797467,1.2813462,-2.4484394,-2.342227,-2.2299278,-1.5279473,1.2333184,0.467209,-2.1679342,0.25138015
ILF2,-0.040365085,-2.2214596,0.37796363,-0.6403005,0.21439476,0.006628953,0.0106332125,0.16319424,0.0097032245,-0.5799971,0.36083752,-1.8930779,0.0015776348,-0.4045827,-0.12675154,0.02947261,0.8567318,-0.9292596,0.19778705
SLC39A1,0.07877759,-2.6543732,0.118897185,-0.8123319,0.166369,-0.010925367,0.29927585,0.01287019,-0.013725395,0.14078552,0.11159609,-2.0042026,-0.27040893,-0.38400346,-1.418679,0.39668974,0.26344863,0.336045,-0.037712567
JTB,-0.0011202212,-0.4956299,0.02096751,-0.021749798,-0.006955315,0.003377036,-0.011331979,-0.020685906,0.0020879987,0.01859469,-0.01695862,0.0199286,-0.32957423,0.09400924,-0.16209243,-0.0077067963,0.23228647,-0.06023206,-0.039267335
RAB13,0.03256145,-0.8095171,0.044608258,-0.28927022,-0.14526515,-0.01937613,-0.014238992,0.4074488,0.014035213,0.26451167,-0.005288974,0.0058348533,-0.18670432,-0.8009405,-0.014778508,0.09899077,0.5072372,-0.57303786,0.06718965
TPM3,-0.01943104,0.876253,-0.028588142,0.024921244,-0.032206457,-0.0010690257,-0.009493799,0.008857616,-0.0010258636,0.3725122,-0.12377943,0.6531499,0.026188267,-0.014772926,0.29586437,-0.100889765,-0.87881595,0.2879019,0.05460166
C1orf43,0.013908733,-2.4011312,-0.00984133,-0.41108403,0.03885533,-0.005609031,0.0122495955,0.002161221,0.0073631518,-0.057899006,0.04254294,-1.0231155,-2.0976236,-0.67091227,0.28587458,0.12330627,0.17613909,-0.6762604,0.28904387
ADAR,0.013919358,-0.30218756,0.026553446,-0.098538056,0.026383756,-0.008297659,0.08258459,-0.034751162,-0.12440146,-0.32286274,0.016236493,0.22570077,-0.22754017,0.14983924,-0.19144815,0.06847476,-0.5466231,0.25840798,0.012974736
PMVK,0.07660699,-1.1798806,0.17391472,-0.44406235,-0.049043015,-0.022204233,-0.47237393,0.11864291,0.074890986,0.3754856,0.10253605,-1.427441,-0.2903925,-1.1702069,-0.67881435,0.09649252,0.6931552,-1.007185,0.1616606
PBXIP1,-0.0050290283,-0.0025589764,-0.0033673146,-0.0020914064,-0.25561616,0.013340283,-0.022238752,0.071343735,-0.0001854833,0.1888619,-0.03398191,-0.105522975,0.36892143,0.12846877,-0.6562627,-0.13035524,-0.13800979,0.16961251,-0.076741844
SHC1,-0.008971877,1.0352136,0.054402903,0.05450571,-0.07858316,-0.0060997372,-0.050471775,0.17866157,-0.018541869,0.040201187,-0.08253889,0.6078982,0.1472008,0.593754,-0.4461661,-0.16121067,0.14338689,0.07820695,-0.0995559
EFNA1,-0.01310389,0.93783593,-0.13811994,0.27221692,-0.008713519,0.0023676332,-0.0523757,-0.1613559,-0.0157591,-0.28371334,-0.061105315,0.80355656,0.079497315,0.56531066,0.4112432,-0.6450641,-0.6452398,0.24809158,-0.09634093
DPM3,0.007264788,-0.087974526,-0.025552196,-0.83141184,-0.0077573727,-0.022989042,-0.013736614,0.51733243,0.017560737,0.49529904,0.01216738,-0.5301158,0.20038676,-0.046002124,-0.07338088,0.2081265,0.45866373,-1.1496946,-0.9962824
KRTCAP2,-0.002092346,0.07912694,-0.016948154,-0.05491568,-0.010329832,-0.0064713177,0.029891245,0.03825745,-0.0043042647,0.4558311,-0.012546079,0.3709617,-1.0782108,-0.30769596,0.26961404,-0.0011048726,-0.092902765,0.14276218,-0.010351195
MUC1,0.69061446,2.220696,-0.37581158,-1.2409863,-2.4687145,-0.09408758,-1.5655341,0.8123727,-0.31510308,-0.24016339,-0.67919976,0.7299553,-1.7137058,1.0489008,-1.8815397,-1.4697809,1.6750876,-1.7541378,-1.833636
GBA,0.019009152,-0.1308476,-0.024697814,0.33636442,-0.13762932,0.0030749596,-0.11909333,-0.107566394,0.0061242385,-0.3790469,-0.011202198,0.21253327,-0.30422097,-0.30343175,-0.06209995,-0.14429502,0.40012893,0.10664033,0.11094921
FDPS,0.12240119,-0.35472214,0.11620453,-0.07012952,-0.402572,-0.059914928,-0.05692628,0.27152586,0.014263439,-0.09949444,-0.012539856,-0.3931576,0.3991197,-0.44933093,-0.24858586,0.21845302,0.5278287,-0.574539,0.01979204
RIT1,0.08328199,-3.5143409,0.31722286,0.34981665,0.12894325,0.08011187,0.38711652,-1.0077342,-0.055923074,-1.8307979,0.57577324,-1.5484048,-2.3864434,-1.2634646,-0.25350004,0.6499664,0.1068647,0.28858382,0.76999694
SSR2,0.0033960638,0.21774071,0.016382452,-0.09356083,-0.034090888,-0.009534493,-0.008092094,0.16237836,0.0049608746,0.46667805,-0.089301646,0.6414881,0.19571768,-0.19417675,0.39897913,-0.057380695,-0.3141245,-0.056222036,-0.108661994
LAMTOR2,0.21219988,-2.5857534,0.29588005,-0.7985491,-0.16857663,0.022033526,-0.1812669,0.11062715,0.16581252,0.39344513,0.50115174,-0.45693997,-1.9277557,-2.4885175,-1.5723324,0.17118077,0.67537475,-0.8902421,0.5124343
LMNA,-0.055924598,1.5912423,-0.25455534,-0.10257705,-0.33789232,-0.011888202,-0.15505768,0.14432085,1.6077476e-05,0.48984554,-0.54892015,0.92342514,0.66829646,0.31489146,0.41442266,-0.6203112,-0.88146096,-0.07770908,-0.47703034
PMF1,0.27198195,-1.5261085,0.3323969,-0.3511085,-0.3510193,0.024354236,0.17058942,-0.008071433,-0.03486644,0.08014974,0.4151191,-0.980051,-0.7454908,-0.14757948,-2.3993752,0.29504728,0.78603613,-1.460157,0.22090124
CCT3,0.13923062,-1.2080629,0.10608835,-0.29387045,-0.04385957,-0.029343914,0.033139385,0.26047805,-0.027275516,0.34723395,0.13033201,-0.6237601,-1.1187023,-0.3091163,-0.27377453,0.17699702,0.401995,-0.2987959,0.0047275056
MRPL24,0.2387642,-1.4140179,0.4996622,-0.29971915,0.084558144,-0.04358472,-0.021760635,-0.105990306,-0.036964018,-0.3644738,0.38078782,-0.5743195,-0.39307985,-0.40653354,-0.69665676,0.39991343,0.8227916,-0.64688015,-0.16885152
HDGF,0.0031630425,-1.1017165,-0.023655774,-0.14370576,0.071939796,-0.004373815,0.018549947,0.1710159,-0.023980593,-0.29899207,0.078209154,-0.0030894564,-0.65289956,-0.7354566,0.0031014627,0.018290576,0.3525906,-0.25938392,0.36874056
IFI16,-0.004941592,0.4809872,0.005203012,0.010863082,0.0009126085,0.0022914216,-0.011214226,0.05391457,-0.07822664,-0.048691668,-0.091434516,0.4969784,0.29077402,0.2825456,-0.30168128,0.038289018,0.0422499,0.040598705,-0.86579317
ACKR1,0.8854984,2.5683334,-1.0174403,-2.599071,-2.5136654,-2.533654,-2.4019413,2.0461645,-0.9171779,2.3829334,-1.9155897,0.2698744,1.8116792,-1.9048462,-2.0664582,-2.046662,-1.0280924,-2.2585354,-2.1436164
DUSP23,0.22844693,-1.0997095,0.48867923,-0.6801644,-0.17501998,-0.24002661,-0.5207598,0.27793735,0.071180515,-0.15861866,-0.0824603,-0.94965893,0.2870126,-0.4186054,-0.81534743,0.13103965,0.98497325,-1.0486096,0.22258466
TAGLN2,0.0004686167,1.4959862,-0.18389921,-0.06180429,-0.19552198,-0.05412755,-0.07700744,0.14841539,0.008801839,0.34511545,-0.3944871,0.86404264,0.5537834,0.05055916,0.5608232,-0.3745667,-0.5304584,0.09156114,-0.32250753
PEA15,-0.075028725,1.3568181,-0.08990529,0.13754502,-0.11476967,0.006680624,-0.00025032472,0.042617884,-0.032065094,0.18233746,-0.21434832,0.71876085,0.22388148,0.6000975,0.22444779,-0.41095293,-0.5518457,0.10502915,-0.6039802
COPA,-0.02067157,-1.8486036,0.12737973,-0.30263242,0.09219104,-0.0088885445,0.19098906,-0.17805861,0.005033508,0.095621444,0.09632109,-0.35707048,-0.49702623,-1.4243741,0.21235408,0.37045816,0.18695217,-0.46942577,0.26628453
NCSTN,0.07537561,-0.33468997,-0.36953416,0.42187017,0.0065179844,-0.045489796,0.14645605,-0.33984846,-0.01114729,-0.9363627,-0.06604437,-0.33865607,-0.71034557,0.6464452,0.38039902,0.01705128,-0.09252547,-0.011491054,0.31504777
TSTD1,0.4125657,-4.75823,0.6418793,-1.313023,0.11602767,0.007550771,0.18871728,-0.46203578,0.47079042,-0.19166754,0.5091045,-1.9215611,-1.9803145,-2.0691419,-0.59533536,0.78830516,0.890313,-1.5561541,0.40509483
UFC1,0.0064840433,-4.045026,0.45143265,0.023301924,0.02778128,0.049343012,-0.12360002,-0.021949051,0.026653582,-0.44229513,0.39255443,-2.7049248,-1.1524097,-0.61889684,-0.5605582,0.2510801,0.6696054,-0.8964636,0.521743
NDUFS2,-0.00071810634,-1.218889,0.20046066,0.13899572,0.23074618,-0.037251316,-0.013696492,-0.25649643,-0.009933553,-0.5146273,0.46802798,-0.3681211,-0.9376697,-0.21983615,-1.6707335,0.35819396,0.14191316,0.2700244,0.19623214
FCER1G,0.12472252,-2.760611,1.2668766,-1.99419,-1.1078019,0.050986752,0.20281504,0.0111748045,0.035815958,-0.6573813,0.0025696042,-0.7353828,-1.5425695,0.04630745,-1.7919623,1.6297085,0.6576888,-1.970664,-1.7014151
SDHC,-0.017515747,-0.8124355,-0.0035031515,0.019276483,0.20721315,-0.0027109382,0.09330379,-0.22542717,-0.029341973,-0.38177454,0.18475837,-0.68850905,-0.37228104,-0.3700463,-0.1659078,0.13472821,-0.51932174,0.52650326,0.3452294
FCGR2A,0.2818922,-1.9558084,1.1750156,-1.3980662,0.17860033,0.40973306,-0.09937088,-0.7008289,-0.518494,-1.32813,0.94496137,-0.5562595,-1.332534,-1.6087003,-1.1260786,1.2583851,0.9090238,-2.2430236,-0.95179474
FCGR3A,-0.26654524,-3.0287533,1.1057197,-0.12554231,-0.01500291,0.18891406,0.3814079,-0.8317625,-0.14484333,-1.7955649,0.51966804,-2.3207798,-0.9439968,-0.5341291,-0.24504514,1.4930203,0.17136778,-0.4045713,-0.33114973
MGST3,-0.0026070306,0.081503265,-0.006737675,0.013644145,0.011301329,-0.0018512609,0.0048556365,-0.072271414,0.0013495452,-0.03282462,0.005578487,-0.16073018,0.13679081,-0.56554705,0.42104742,0.005278041,-0.115400724,0.24534492,0.021842228
TMCO1,-0.0105191,-0.8784944,-0.088153146,0.21599716,-0.007850167,-1.344027e-05,0.07412508,-0.27088904,-0.0028011738,-0.45302817,0.020565871,0.0018808342,-1.069944,-0.021379828,0.24926825,0.011159049,-0.26821613,0.5288316,0.0845925
CREG1,-0.022220591,-0.31739336,0.0066623664,0.02907112,-0.0006850122,0.0026838137,-0.0016257789,-0.049846523,-0.00039031668,-0.016491367,0.0015555955,-0.21384776,-0.6832837,0.0872717,-0.15141575,-0.0081888465,0.09068405,0.23178393,0.031253535
MPC2,-0.003224904,-2.2447882,0.074276485,0.050868746,0.07620403,-0.0039925254,0.05875989,-0.3371792,-0.023618264,-0.6416444,0.07906267,-0.78651536,-0.39240143,-0.87607527,-0.12503807,0.20084348,-0.047939207,0.30353948,0.3890419
ATP1B1,-0.05580503,0.72039044,-0.07019066,0.109960064,0.04161824,0.0066274796,0.009236889,-0.48267213,-0.010679868,-0.33754802,-0.037857164,0.61676747,-0.065774016,0.13559508,0.45168108,-0.09185429,-0.8041038,0.41264325,0.0006070057
FMO1,0.28096977,-5.5545387,0.62320536,0.5251766,0.7980548,-0.03474989,0.66158855,-2.208993,0.009398934,-2.5165098,1.2695063,-2.5011487,-2.5345898,-2.1662014,0.6498892,0.6502237,-0.4732207,0.43148965,1.1245221
PRDX6,-0.011178144,-0.19821022,0.025336634,0.00028504123,0.012605082,0.0014146457,-0.030473558,0.0046351193,7.5703494e-05,0.11030269,-0.014262679,-0.107880004,-0.02299079,-0.48863268,0.50053275,0.01595842,-0.13451338,0.05183605,-0.005689063
QSOX1,0.1381434,0.07532191,0.14437786,-0.07969323,-0.3772715,-0.34244835,-0.020747809,0.6083531,-0.040505216,0.8275735,-0.039661504,0.2908779,0.06738566,-0.4736422,-1.7773367,0.121269785,0.2133039,-0.36948696,-0.111165866
GLUL,0.029431159,-0.87008303,0.24708894,-0.54090613,-0.09309248,0.015422137,-0.047938477,0.2367292,-0.37560725,0.1876217,-0.17338169,0.22742021,0.1576434,0.17275642,-2.0911007,0.13358228,0.15455844,-0.20938258,-0.12195465
LAMC1,-0.113047466,1.21678,-0.14555655,-0.3601031,0.03194402,-0.016019495,-0.2716882,0.32309592,0.013961306,0.5606562,-0.05115876,0.5872837,0.23233949,0.49540555,-0.33395833,-0.19623217,0.010206897,-0.68455005,0.072813585
ARPC5,-0.14354143,1.1464097,-0.21079044,0.12453783,-0.011769586,0.0043527195,-0.0039306157,-0.08285015,-0.006131044,0.052521322,-0.6712021,0.95117825,-0.1027165,0.21032321,0.5413929,-0.37775227,-0.97221404,0.44094396,0.015709385
IVNS1ABP,-0.14964795,0.62464595,-0.31765124,0.19839096,0.038351305,-0.00033348714,0.021408759,-0.5476917,0.003485025,-0.69209975,-0.051994827,0.15000959,0.045850277,0.2405222,0.6264206,-0.32001767,-0.9587554,0.3961236,-0.047500435
CFH,-0.71596587,1.0024364,0.157873,-1.0440199,-0.75853366,0.053805668,-0.6497823,0.19057192,0.24633984,0.53393406,-0.16291133,0.7895991,-0.25066143,0.5744629,-0.049826648,-0.9901245,0.42677894,-2.3394654,-0.767918
TMEM9,0.0091443565,-1.0400974,-0.013290981,-0.03062583,0.0005151664,0.0003424191,-0.0039773704,-0.0003976526,0.006480561,0.123175934,-0.0074654906,-1.4550698,-0.55090576,-0.5442149,0.10558815,-0.037926186,0.3871479,0.2896574,0.028017942
PHLDA3,0.5650582,0.7611079,0.24376641,-1.9143533,-0.74531865,-0.23661591,-1.5892044,0.9133791,0.16660894,0.64161885,-1.0871819,0.56083286,0.69268155,0.45926803,-1.9046003,-1.0028251,1.2747091,-2.4842403,-1.8017787
CSRP1,-0.002594424,1.896624,-0.4689757,-0.7046717,-0.6595934,-0.19876245,-0.46873853,0.3864231,-0.105537444,0.6571587,-0.98172176,1.1662936,0.84420526,0.10122054,0.2374632,-0.696131,-1.2639383,-1.0128536,-1.0274361
ADIPOR1,0.050946012,-4.0783854,0.24025762,0.3338552,0.5018909,-0.006034824,0.20498516,-0.26183507,-0.1346086,-1.3649127,0.18374014,-2.2790895,-0.56818414,-1.0264642,-0.57062876,0.4433835,0.5317862,0.4608715,0.59207773
SNRPE,-0.032989115,-1.9204991,0.12900646,0.1112617,0.009457283,0.023918653,-0.045256555,-0.051833674,0.00617676,-0.3442134,-0.10441715,-1.9576911,-0.7486086,0.23579155,-0.28184494,0.046529565,0.5919762,0.08893636,0.29616725
REN,0.99853075,-3.6317306,0.5246085,-2.2712631,0.52737755,-0.7857265,0.47843072,0.40245324,0.19362962,0.9045102,0.22908792,-1.9341031,-0.3593192,-1.7473421,-1.7200027,-1.0114738,1.3864778,0.4146763,-0.20286058
CDK18,-0.006636627,0.120675795,-0.082488656,0.12489031,0.008275318,-0.0022546838,0.026990008,-0.086122,0.0037150588,-0.1977708,-0.010481776,-0.073949836,0.018472083,0.044906802,0.45401782,-0.10245451,-0.3949464,0.3298429,-0.014466679
NUCKS1,-0.034873515,1.3007774,-0.2521669,0.11405511,-0.00928468,-0.0023133962,0.0005784949,-0.1208212,-0.010637321,-0.1494802,-0.41201732,0.81744516,0.26354375,0.31506377,0.62707883,-0.4357482,-0.99487776,0.43380317,-0.15394326
MAPKAPK2,0.019037923,1.0506821,-0.01815063,-0.11210839,-0.080497034,0.0017799296,-0.13936034,0.055276304,-0.006904461,0.46869788,-0.09322419,1.0253035,0.23611672,-0.17936093,0.10443263,-0.21425924,-0.2519219,-0.15885548,-0.4198059
CD46,-0.010589973,0.4500913,-0.089093335,0.047748875,-0.0068619875,-0.0021126475,-0.01319768,-0.094137914,0.028818134,-0.11793998,-0.027581455,-0.13765585,-0.409725,0.30802545,0.6166814,-0.24628387,-0.16444339,0.2792879,0.058237556
CD34,-0.116024956,1.325383,-0.47961068,0.049948104,-0.03682035,0.013894361,-0.10408982,-0.03243653,0.0032477565,0.10279705,-0.44642308,0.8969266,0.35905907,0.43644416,0.6137699,-0.839869,-0.78365064,0.12199394,-0.67319125
NENF,0.004179313,0.2632401,-0.008067686,0.031970605,-0.013115708,-0.004579426,-0.048890673,0.024977805,0.0030479536,0.30664027,-0.02987798,0.2233332,0.21277496,-0.13025303,0.2953864,-0.08162768,0.0015956985,0.08388811,-0.06496395
MARC2,0.24149707,-4.8659215,0.42689422,0.6339083,0.49699673,0.27896562,0.5556236,-1.9073018,-0.22678277,-1.6279334,1.3647219,-2.2630131,-1.434777,-1.403631,-1.9345186,0.4755145,-0.47282416,0.590491,0.40287417
AIDA,0.0078114565,-0.6463621,0.2807805,-0.101051725,-0.18690783,0.0033084059,-0.049462263,0.2849462,0.018031113,-0.7272957,-0.082221,0.61612433,-1.2225894,-0.030667372,-1.0161924,0.048712,0.8828139,-0.14578481,-0.0915119
CAPN2,-0.0098310625,0.29747924,0.0026944585,-0.05514425,0.015438201,-0.0011904713,-0.0025070806,0.0849979,-0.0065453895,-0.12488788,-0.06503606,0.7361126,-0.2859604,0.12331109,-0.045988753,0.008503733,0.09307669,-0.10155451,-0.16090469
DEGS1,0.06374743,-2.6355696,-0.02915852,-0.22013997,0.059363283,0.011589955,0.18162443,-0.31798178,-0.014685276,-0.30923653,0.107018776,-0.7469308,-0.25901115,-0.88236725,-0.20402928,0.29144326,-0.21492831,0.09772547,0.19001883
CNIH4,-0.048761245,-1.6123971,0.7275374,-0.67657465,-0.5581509,0.052826345,-0.030956363,-0.36070934,0.42564368,-0.48539498,0.41559798,-0.6682062,-1.3578526,-0.25069112,-0.48136228,0.47471324,0.9302993,-1.0993911,0.43737045
SRP9,-0.02044652,-0.3914879,0.0069239032,0.029658882,0.004056484,0.003040384,-0.021380186,0.013896078,-0.0065853894,0.1343584,-0.034684926,-0.19071697,-0.29515612,0.35680267,0.294074,-0.08843332,0.006847565,0.31478858,-0.103021055
EPHX1,0.002308462,-0.60377246,0.006331251,-0.25799024,-0.019248754,0.00691131,0.0387358,0.08809248,-0.008073134,0.63654524,0.009162754,-0.5537919,-1.2187768,0.25223184,-0.48472962,-0.07880012,-0.2553478,0.19453964,-0.13112268
H3F3A,-0.017268384,1.1656668,-0.034849226,-0.037890047,0.019679854,-0.0037221313,0.025243904,-0.026906632,-0.0030217622,0.016140532,-0.070338696,0.67914397,0.46079314,0.0881936,0.5566899,-0.044941694,-0.6318233,0.3144704,-0.19655663
COQ8A,0.09969467,-4.4004254,0.34888867,-0.3605873,0.017209822,-0.11925962,0.09076793,0.18272778,0.077261135,0.09142412,0.55753016,-1.9565599,-2.2254748,-0.21475622,-0.15994287,0.21643132,0.5023154,0.2695234,-0.758165
ARF1,-0.02289585,0.91664207,-0.11637843,0.03276798,-0.00070515845,0.00020054537,0.022926107,-0.02208243,-0.004428263,-0.014991937,-0.10886205,0.53675014,0.21873486,0.19615933,0.56355995,-0.180369,-0.7955399,0.38400564,-0.10533281
MRPL55,0.1499513,-1.0035523,0.011307918,-0.45058036,-0.19646856,-0.009573237,-0.032740425,0.074538186,0.05081104,0.63558865,0.11671617,-0.22967926,-0.22857085,0.038522936,-0.4124876,0.20272881,-0.09436833,-0.8475261,-0.5076782
GUK1,0.0337364,1.1826186,-0.025105497,-0.12458612,-0.079638526,-0.01878589,-0.029146442,0.1612773,-0.008761142,0.34472802,-0.2693117,0.73114383,0.5167929,-0.0107921865,0.4279332,-0.16642217,-0.42265636,0.16122118,-0.43550876
RNF187,-0.02236509,0.22368555,-0.0775701,0.298225,-0.018887095,0.003162128,-0.067991085,-0.020946257,0.006415677,0.042703204,-0.0414063,-0.037863687,-0.118231446,0.17853977,-0.008697331,-0.20686053,0.08113425,0.31798467,0.12321059
AGT,0.21517095,-1.9955642,0.45203197,-0.3610009,0.5361888,-0.11864896,0.6395631,-0.56475073,-0.09212712,-1.6408935,1.5182244,0.030319626,-1.7636725,-1.9023595,-1.4773332,0.33232343,-1.0862771,0.09641646,1.2585115
EGLN1,0.06269747,-1.7807512,0.2004003,-0.012310564,-0.10136964,-0.044519067,0.13114943,-0.6172404,0.02280395,-0.98716,0.17323965,-1.1633905,-0.11705244,-0.7660104,-0.64648485,-0.018470699,0.65828717,0.43518132,-0.016640842
IRF2BP2,-0.020824485,0.95685774,-0.24382971,0.15686591,-0.027354363,-0.00031293943,0.040374424,0.011720681,-0.043311916,0.13791922,-0.2023371,0.54541504,-0.07910112,0.49128553,0.32304284,-0.28298765,-0.79985183,0.4354384,-0.08464828
TOMM20,-0.011404795,0.42718577,0.008810525,0.022878056,0.0010976838,0.0018100919,-0.02642151,-0.059813574,0.0006671057,-0.027885428,-0.03943153,0.3166112,-0.13330086,-0.108400166,0.2744346,-0.0292921,-0.13901065,0.31372392,0.0122971395
NID1,-0.6180484,1.1232997,-0.7459601,0.05938954,-0.1620306,0.022561766,-0.54363513,-0.005201484,0.03877002,0.05924209,-1.1699191,1.1146231,0.18031727,0.5250045,0.39806956,-1.8558971,-0.68412405,0.085328676,-0.7233891
COX20,0.013527331,-1.7335967,0.36281827,-0.34057269,0.20065,0.04255446,-0.02230105,-0.39874953,-0.021647673,-0.6498982,0.56728923,-0.80321425,-0.913091,-0.1777579,-2.1219282,0.34577367,0.47625077,-0.39949873,0.33175755
HNRNPU,-0.038414635,1.1383622,-0.080611214,0.14984834,0.017451132,-0.0056444798,0.013570455,-0.08489807,-0.008214741,-0.29511452,-0.17935209,0.6709291,0.22162534,0.19206212,0.5711401,-0.11246439,-0.8447514,0.49651164,-0.09027537
SH3YL1,0.13967049,-3.3033092,0.79189557,0.31714165,0.7211278,0.5269767,0.578186,-2.058776,-1.6295676,-2.0628116,0.9445151,-0.5366592,-2.286443,-1.7919635,-1.9977385,0.82846564,0.06293319,-0.5695613,0.9866657
ACP1,0.088407695,-3.9923043,0.5643753,-1.2144349,0.2799079,0.031100083,0.19303419,0.20951957,0.0097477315,-1.6166872,0.7960533,-2.3938017,-2.049426,-0.59066653,-1.9802531,0.35344338,1.1037359,-0.023661487,-0.1538523
ADI1,-0.054282255,-2.1340537,0.08638853,0.030420959,0.33566052,0.009390066,0.16529557,-0.106095,-0.011768136,0.012448525,0.15358691,-1.2335551,-1.1959132,-1.6918255,-0.17039448,0.28536674,0.2566016,0.4943387,0.3972463
ID2,-0.030185899,0.3200084,-0.038778856,0.027140833,0.030405736,-0.020762555,0.09708883,-0.5809369,0.0011137353,-1.0178148,-0.014149313,0.6363456,-0.40810093,0.27786237,0.40136853,-0.07437552,-0.4617366,0.41673094,0.21451245
YWHAQ,0.002443828,-0.6634799,-0.026456855,-0.012706373,0.028490769,-0.00076537096,-0.018223036,0.20925632,-0.009064839,0.39609668,-0.037910085,-0.6728346,-0.32007304,0.41376358,-0.18222179,-0.048423987,0.010506186,0.23216048,0.018369839
CYS1,-0.034865454,-4.0725536,0.117260225,0.20137388,0.1451326,0.020071251,-0.018395977,-0.6771913,0.060058758,-1.1232407,0.31077358,-2.539282,-1.3186139,-0.86279416,0.2500802,0.15394977,0.3673731,0.09644279,0.11632909
HPCAL1,-0.01191931,0.31215936,-0.1011572,0.13631901,0.025515081,-0.0114479,0.033148687,-0.22827402,-0.002107762,-0.0015657028,-0.10135858,0.3863667,-0.5824138,0.14975634,0.5049243,-0.12868078,-0.5889973,0.38850462,0.011431181
PDIA6,-0.033231597,0.052354276,-0.0050523723,0.09523683,0.028737808,0.004101656,-0.0011050941,-0.307947,0.0007747363,-0.5027334,-0.082121424,0.55284506,-0.04199168,0.1881237,0.4206313,-0.054145884,-0.45228615,0.2914158,-0.05351673
LAPTM4A,-0.15266146,0.7260364,-0.24613734,0.27798253,0.04768689,0.0017654893,0.03595864,-0.24334577,-0.041207567,-0.1535355,-0.16030234,0.5973931,-0.20533602,0.12987995,0.43668848,-0.16932608,-0.9827592,0.5053069,0.090606615
RHOB,-0.14368959,0.79141235,-0.31020835,0.18982044,0.11234593,-0.0048306105,0.05919707,-0.2899175,-0.035640854,-0.24187592,-0.15710765,0.52887076,0.21773477,-0.07524477,0.56066287,-0.2808118,-1.5425329,0.5003733,0.15640351
SF3B6,-0.04801192,-1.1303731,0.023403445,-0.20207895,0.17165066,0.007416352,0.14788514,-0.2577088,0.0003256708,-1.0244873,0.02513131,-0.27406782,-1.7086824,-0.009777422,0.24577293,0.22301328,0.40667808,-0.10412927,0.086812705
HADHA,-0.0016033998,0.18377422,-0.052782036,0.056544803,0.0003003535,-0.0067473305,-0.0010217257,-0.017006526,0.0020828305,0.4131617,-0.060502715,0.4763284,-0.02850842,-0.80619425,0.31002253,-0.03975054,-0.62904227,0.3562894,0.021603266
HADHB,-0.010262977,-1.4396861,-0.044970952,0.013448691,0.1329745,0.00091180357,0.109207354,-0.60876733,-0.00507651,-0.8291547,0.15514214,-0.6536435,-0.8920546,-0.29631016,-0.08512736,0.09617371,-0.0936174,0.45378032,0.3019908
OST4,0.0014775583,0.15589549,0.0068402733,-0.02333804,0.0048677893,-0.0050984924,-0.0015397365,0.018744405,0.0007253695,0.2107702,-0.012139395,0.3405736,0.16360806,-0.21706615,0.4217144,-0.0153514305,-0.2916067,0.108650185,-0.05023899
KHK,-0.012818869,-0.42751628,-0.1076748,0.21304266,0.0474403,-0.0053060623,0.024302373,-0.31420106,0.008141679,-0.52021706,0.028536955,-0.4088144,0.032758664,-0.5824702,0.589426,-0.018304795,-0.58885604,0.32431525,0.1831147
ATRAID,-0.0034695184,0.22610429,0.00022223657,-0.018994818,0.05213478,-0.0033172877,-0.0042460826,0.007564035,-0.0026069053,-0.37122744,-0.0145723745,0.13530812,0.12549725,-0.05183917,0.3741354,-0.011280884,-0.31816867,0.18178152,0.061982624
SNX17,-0.0009981112,0.42964888,0.028688528,-0.33742556,-0.06491941,-0.0017350769,-0.028915588,0.25011945,0.0037599148,0.13839367,-0.066449866,0.006427874,0.4095346,-0.16864276,-0.08085573,-0.09363839,0.45104393,-0.31368268,-0.22722822
MRPL33,-0.09283221,-2.63557,0.17815621,0.057626285,-0.012420165,0.13676415,-0.22048025,0.26308167,0.00440264,-0.37795258,0.19304477,-0.8640318,-0.90456855,-0.44251433,-0.35541978,0.5645381,0.5936066,-2.2508633,0.2869319
FOSL2,0.08342471,-2.0291853,-0.016326414,0.23891883,0.32169777,-0.004868291,-0.03270115,-0.42731458,-0.12602329,-1.128025,0.38176066,-2.0821052,-1.5050436,0.116104856,0.1662648,-0.51060236,0.45031285,0.3301383,0.39367077
PPP1CB,-0.02260107,0.9354121,-0.16214189,0.14891827,-0.007542162,-0.0061307065,-0.005899343,-0.10593888,0.0077974387,0.14988415,-0.22981232,0.3081649,0.03525843,0.45659643,0.62317693,-0.2700566,-0.70977914,0.3554864,-0.061360914
YPEL5,-0.003957773,-1.2571567,0.03219345,-0.0989801,0.15331243,0.039446544,0.24598134,-0.5076395,-0.13615878,-0.4968424,0.35762307,-0.5438052,-1.2112831,-1.1669277,-0.5279827,0.19308046,0.37438706,0.22117512,0.09350106
LBH,-0.46065715,0.8710145,-0.34393013,0.398019,0.14687014,0.02782386,0.04009399,-0.29346213,-0.19903922,-0.67650187,-0.39299747,0.5259479,-0.05041573,0.67904216,0.26987863,-0.72201854,-1.0753362,0.6053158,-0.21224499
GALNT14,0.0012137981,0.102785885,-0.018965963,0.042383507,-0.0013115341,-0.00287888,0.019906837,-0.055320483,-0.0018884568,0.03448238,-0.034449067,-0.3974926,0.010610301,0.21324876,0.34144798,-0.12721647,-0.19589524,0.37452182,-0.07327239
DPY30,0.13577694,-2.3524127,0.6916467,-0.45672238,0.5609076,-0.011695396,0.3848201,-0.39097255,-0.54250747,-1.591181,0.95666987,-1.1555743,-2.1621683,0.26422346,-1.9728378,0.95641273,0.26993784,0.2711292,-0.02701172
LINC01320,-0.26361802,1.0821943,-0.41910633,0.32398784,-0.4362283,-0.50795037,0.2760448,-0.5584268,0.094738096,-0.2851565,-0.53534824,0.5301845,0.23235126,0.022621606,0.58874726,-1.0349647,-0.8171939,0.52868056,0.25548393
CRIM1,-0.080268666,1.5032299,-0.4377162,0.13732867,-0.09030055,-0.0052784444,-0.09763804,0.05305505,-0.002166159,0.30051538,-0.5407462,1.0096451,0.51541954,0.29472527,0.44695154,-0.80871785,-1.0656343,0.20418686,-0.11878233
COX7A2L,-0.036471758,-2.7707758,0.015727278,0.17856877,-0.00013350138,0.08331187,-0.092045,-0.106466696,0.008272021,-0.34504205,0.22375971,-2.1831036,-0.95265037,-0.009363375,-0.050871413,0.024692908,0.50570893,-0.06462672,-0.050459344
ZFP36L2,-0.031148445,0.7430548,-0.07957581,0.026076343,0.022845184,0.0053007323,0.039700303,-0.31837636,-0.0047902493,-0.1235986,-0.12768397,0.8167961,-0.74850225,0.32122368,0.5448352,-0.08664749,-0.82363665,0.46175066,-0.60643
LRPPRC,-0.113400795,-1.0499104,0.22410186,-0.09823381,0.027295688,-0.009712383,-0.022240538,-0.2940912,0.20157407,-0.33474228,0.24252678,-0.90229124,-0.48793238,-0.25344884,0.32293868,0.04165809,0.21009333,-0.11135572,0.3858576
MCFD2,0.0028209633,-3.8470101,0.13418525,-0.58956456,0.21973804,0.070683725,-0.119904876,-0.16918436,0.12709624,-0.5358698,0.16612235,-2.1224484,-1.239612,0.07437948,-1.0364805,0.25836837,0.52348584,0.03547184,0.020338409
CALM2,-0.0021258227,1.0254614,-0.037300356,-0.107031785,-0.0079857055,0.0016311489,-0.0059989495,0.044428416,-0.008942549,0.08685604,-0.17450723,0.60970414,0.43442944,0.1589699,0.3494645,-0.100160986,-0.54575115,0.23785618,-0.16415136
SPTBN1,-0.017097661,1.3428316,-0.16886641,0.052899193,-0.003135346,-0.00089779805,-0.042976,-0.052199062,-0.0139249675,0.14531042,-0.22530715,0.93814427,0.38907042,0.2283111,0.675946,-0.47954232,-1.0225793,0.081580184,-0.33521104
CFAP36,-0.0041828426,-3.3977368,0.71082973,0.14739016,-0.44579276,0.04505778,0.049495794,-0.21508631,-0.00021179428,-1.7130151,0.7535368,-0.24099356,-2.440388,-1.5308093,-0.8824841,0.5668121,0.77196854,-0.28938472,0.19111557
EFEMP1,-0.3669307,3.0787482,-1.7253634,-2.1494985,-2.1677043,-1.9849969,-2.3471193,2.359081,-1.5010535,2.2293575,-1.7487344,1.9915307,0.94346,-1.1566535,-1.2454153,-1.679584,-1.1932867,-1.753696,-1.6526513
CCT4,0.011036539,-0.15239726,0.0907145,-0.033501226,-0.2224215,0.010160612,-0.4252765,0.04476726,0.0049597663,0.0013270598,-0.060057387,-0.5077985,-0.3491478,0.17742005,0.11385377,-0.14013033,0.44780034,-0.5655348,0.18803586
MDH1,0.033868555,-2.1172867,0.06902349,-0.06490943,-0.014925367,0.0044088545,0.032709643,-0.86784375,0.009893194,-2.5189254,0.22428197,-2.2161422,-0.18423997,-0.69284767,-0.17359331,0.43095568,0.18794055,-0.3146791,0.5772896
UGP2,0.0012985402,-1.6568929,0.4328233,-0.34825522,-0.120163806,0.058794368,-0.3425784,0.3087822,-0.011517369,0.20345424,0.064595684,-1.105325,-0.30435288,-0.25532508,-1.8296161,0.23235463,0.8741899,-0.86134136,0.4029516
RAB1A,-0.011281517,-1.1277096,0.0049965875,-0.012436494,0.10397483,0.0050770263,0.030863764,-0.04608529,-0.009197725,-0.021021513,-0.042247154,-0.9844109,-0.9463389,0.15402228,-0.041314013,0.06779951,-0.061932143,0.20149295,0.14513096
ACTR2,-0.04394933,1.191954,-0.13314076,0.13416731,-0.055665236,0.008142618,-0.028908623,-0.020927418,-0.015365446,0.22093922,-0.64968103,0.9261948,-0.08264044,0.35793316,0.54728353,-0.53070503,-0.62526155,0.42096564,-0.29909676
PCYOX1,0.028258106,-3.0272994,-0.04333108,-0.40264472,0.22168638,0.01955147,-0.10795667,0.20839836,0.014442423,0.06559782,0.5269899,-1.0467548,-2.2094462,-0.36565247,-1.2982233,0.20295782,0.055138186,-0.548162,0.57934195
SNRPG,0.06396788,-1.9912869,0.36344343,-0.84831685,-0.15751064,0.009333703,-0.035169628,0.19702575,-0.022592312,0.1620134,0.25678238,-0.19325729,-0.53481054,-0.70310956,-1.6239072,0.58155155,0.45573455,-1.9418721,0.0871304
TGFA,0.11624025,-2.0349693,0.034716457,0.27268687,0.27367973,-0.0039320705,0.058361452,-1.0316693,-0.04160381,-1.7027885,0.24696635,-2.129179,-1.2036606,0.4418058,-0.752213,0.08298684,0.25219068,0.057108738,0.6171878
NAGK,0.069521636,-0.8146105,0.19128767,-0.7139136,-0.2453306,-0.004678062,0.10962036,-0.05203659,0.0017150473,-0.20369653,0.08967838,-0.21647476,-0.45868927,-0.55045235,-0.38956147,0.5129004,0.4794909,-0.13183393,-0.7933208
DYSF,-0.0094117075,0.040201098,-0.035989534,-0.051391046,0.032525316,0.002387063,-0.015872387,0.09943602,-0.0046785674,0.15595686,0.0097554065,-1.657959,0.021916261,0.39133856,0.14872248,-0.22035499,0.03960443,0.023038663,-0.016188912
RAB11FIP5,0.12344757,-4.321105,0.52517873,-0.13744275,0.44697854,-0.0065573454,0.2727601,0.021866148,-0.16358583,-0.120128594,0.74579006,-1.2884926,-1.1331781,-1.9902668,-2.2176325,0.5850564,0.7332938,-0.87066644,0.6314817
CCT7,0.08585299,-0.4474798,0.03294108,-0.29929745,-0.11058065,-0.071138196,-0.21257576,0.39429837,0.051612232,0.5657151,-0.06976396,-1.6880441,0.110660926,0.0056223804,0.23372589,-0.09816159,0.40365428,-0.6048951,-0.03081798
ACTG2,-0.28940725,2.6958876,-1.2738287,-2.5121694,-2.1252327,-1.8281219,-2.4347253,2.1711452,-1.9074378,2.5549805,-2.261173,1.3899906,1.616746,-1.6650269,-1.7644482,-2.1735964,-1.6298003,-2.2782438,-2.2234738
MOB1A,0.0021843666,-0.5112042,-0.0073752743,-0.019962654,0.001223858,0.0018551699,0.0135781905,-0.038017415,-0.0058558104,-0.59036213,0.050914194,0.43245092,0.14305393,-0.2062491,-1.5879818,0.021716604,0.3951266,0.21488713,-0.12505464
WBP1,0.036272727,-3.4454672,0.11623835,-0.25160345,0.14754295,0.00936183,-0.015513046,-0.002444731,-0.0039165905,-0.57834953,0.0049440823,-2.5988975,0.055654503,-0.3147316,-1.761979,0.026267454,0.7609008,-0.13124871,0.10857237
AUP1,-0.0025731323,0.10519078,0.0069297445,-0.023808807,-0.03377383,-0.0015601593,0.005495161,-0.01794761,0.010803111,-0.030194595,-0.0029579208,0.19869326,-0.12719458,0.041833576,0.23885112,0.020344228,0.2599738,-0.3292814,-0.011744922
POLE4,0.14886223,-1.9307168,0.6845016,-1.7216016,0.23520762,0.029770132,-0.45245692,-0.034263134,0.028314598,0.25041986,0.41054094,-1.0104086,0.37218052,-1.7086055,-1.9142233,0.4520745,1.0797452,-1.0006983,-1.0492332
REG1A,0.9005876,0.6977752,0.058263276,-2.681932,-0.76064974,0.15999968,-1.399763,0.758562,0.26934975,-1.0516666,-0.580779,-0.97556144,-1.5371904,0.54958814,-1.9912523,-1.6636475,2.0991175,-1.6027313,-1.9653006
SUCLG1,0.21527912,-1.526633,0.49899364,-0.26691335,0.3527789,-0.13248697,0.120105885,-0.4551395,0.007412817,-0.13799775,0.5294121,-0.739709,-0.763108,-2.381172,-0.7487963,0.5240348,0.6452682,-1.5074756,0.8357496
TGOLN2,0.00055689394,0.6331245,-0.12234133,-0.0038242945,0.0013099436,-0.005286531,0.053452544,-0.057348974,-0.0035451953,0.06758977,-0.027541146,0.4646403,-0.10429057,-0.033580665,0.54953974,-0.033688877,-0.7664031,0.40183342,-0.030790111
CAPG,0.30885163,-2.4763212,0.23412906,-0.040456627,0.33626685,-0.025022715,0.2704831,-0.13727286,-0.060398847,0.02111669,0.20112717,-2.4218597,-0.4484018,-0.65050125,-0.35452408,0.547806,0.428838,0.15807484,0.39670783
MAT2A,-0.0076447763,-0.036134318,-0.0026744509,-0.0038855292,0.0032994822,-0.00010361355,0.011734562,-0.045636937,-0.000544205,-0.08139341,-0.007775693,0.033960026,-0.030337928,-0.051577147,0.25377253,-0.0050378446,-0.25952584,0.19992144,0.0057615805
VAMP8,0.0027260764,-1.0915427,-0.02732577,-0.014885039,0.12748338,0.0020131767,0.0370732,-0.3453746,0.004582513,-0.39956576,-0.025353098,-0.3621049,-0.4492087,-0.38721123,-0.10273642,0.14348832,0.15218034,0.32323858,0.22433458
VAMP5,0.0496234,0.8237799,-0.01417215,-0.10794915,-0.1302477,-0.016796572,-0.017654063,0.3018882,-0.13849382,0.40262806,-0.18362826,0.6687069,0.44404057,0.059597295,-0.7098668,0.103040814,-0.019486906,-0.092760235,-0.38254648
RNF181,-0.0056488514,-1.5413116,0.0062374687,-0.040835768,0.02474454,0.0030557062,-0.0068848245,-0.013576976,0.0051478534,0.35853806,0.009381079,-1.5595529,-1.0798805,0.08515279,0.062037308,0.036870256,0.12399432,-0.40438575,0.04580448
CHMP3,-0.0021505754,-0.9855502,0.01970628,-0.1282382,0.1110634,-0.0040805587,-0.151482,0.2418478,-0.0035716982,0.32307747,0.11398256,-1.1160996,0.04403038,-0.7939901,-1.424516,0.20177837,0.4454238,-0.004034828,0.03083477
CYTOR,-0.06435431,-0.37983692,0.5355675,-1.3744123,-0.72854024,0.14364353,-0.5063152,0.658089,0.1387055,-0.07367723,0.014443933,0.19619861,0.15453757,0.4444604,-2.4717355,-0.18848069,0.9889202,-2.5318062,-1.0394588
SNRNP200,0.017781612,-0.24451745,0.0071196933,-0.056457933,-0.01718201,-0.00058569503,-0.00043900075,0.10445521,-0.02460863,0.21177775,0.03911905,-0.2758037,-0.3589606,-0.055717506,-0.63979644,0.15103278,0.34827802,-0.30602455,0.033933792
COX5B,0.0103724105,1.0349245,-0.03910765,-0.0131773,-0.010887074,-0.0036780362,0.0021684363,0.0012579256,-0.0040776744,0.22520897,-0.058513455,0.580536,0.41077238,-0.090458676,0.33171993,-0.058189496,-0.32335946,0.28005767,-0.060891066
RNF149,-0.011280425,-1.1992676,0.02380232,0.2482796,0.24050888,0.018247858,0.105026074,-1.0103331,-0.3538288,-2.4835734,0.1844824,-0.59677774,-0.29069883,0.28833747,-1.2297889,0.20666538,-0.14441492,0.37919226,0.058850173
PANTR1,0.27977756,-4.8950377,0.7213757,0.35209474,0.5300368,0.19708054,-0.02800063,-0.5767282,-0.3327176,-2.5101683,1.0016555,-2.3230193,-1.9932883,-0.6476487,-1.4474758,0.7761452,0.33411536,-0.2604574,0.7163191
POU3F3,-0.03652121,-1.3818939,-0.08174119,0.48931846,0.09759253,0.0042638187,0.31421307,-0.44725415,-0.040401075,-1.3104529,0.04702217,-0.49704695,-1.39628,0.30805343,-0.3973436,-0.15301414,0.35757706,0.5996513,0.5003829
MALL,0.21138352,0.8739238,0.43392485,-2.8379688,-1.2930171,-1.3300768,-0.8323032,0.9042756,0.22068994,1.2099847,-1.4734764,0.037519075,1.0771645,0.17126407,-0.84846896,-0.43549883,0.72979116,-2.0103543,-2.3004618
MTLN,0.22538188,-1.8437731,0.53050274,-2.3056195,0.09880934,-0.006941568,-0.018748866,0.54860246,-0.016300414,0.0571689,0.5195484,-1.1507357,0.15824626,-1.9862288,-1.1460562,0.67228335,0.8634937,-0.53148043,-0.4422108
PAX8,0.19600014,-3.6974483,0.33817312,0.23684996,0.48423678,0.003927787,0.76693577,-0.52152896,-0.650302,-1.4775065,0.94113535,-1.7480057,-2.4171925,-1.6088016,-0.99537086,0.61970824,-0.5054662,0.85719717,0.6097279
SLC35F5,0.032146912,-1.1774043,-0.056059733,-0.05693926,-0.004505517,0.006451549,0.046235494,-0.48607007,-0.012734731,-0.9669437,0.13557008,-0.28225946,-0.85668343,-0.3902461,-0.62538445,0.19499616,0.29435438,0.27420488,0.21645364
ACTR3,-0.06806194,0.039488554,0.08222675,-0.48825857,0.09501072,-0.0023960636,-0.12242369,0.1887993,0.015154405,0.27109498,-0.022369824,0.48674926,0.4615826,-1.4172643,-0.3684649,0.16200551,0.49469578,-0.26714113,-0.5731484
INSIG2,0.16438566,-2.8350244,0.49798936,-1.2271414,0.13866211,0.13150878,-0.32178876,0.22332051,-0.046005458,-0.030023433,0.6674489,-2.2086525,-1.4624283,-0.63021916,-1.0965155,0.38141406,0.30945134,-0.45741117,0.4716036
DBI,-0.003333667,-1.2350311,0.14336869,-0.18846515,0.08992774,-0.010415032,0.0176965,-0.08799339,-0.0050961464,-0.3669731,0.047864787,-1.2794108,0.03814457,-0.2980819,-0.79525495,0.2877739,0.2002043,0.23649985,0.24373876
TMEM37,-0.0036816245,0.02846677,-0.2175,0.16435634,0.0013518896,-0.010412801,0.034124345,-0.12075389,0.004286188,-0.096651696,-0.03069923,-0.41773686,-0.0894525,-0.024230108,0.6070706,-0.11123771,-0.76781297,0.3749567,0.04311332
INHBB,0.004411065,0.7532126,-0.78675747,-1.1463625,0.015470287,0.014200226,-0.939245,0.12097732,0.28895122,-0.1914263,0.19599044,0.14739318,0.92871636,0.5653712,-0.8956886,-1.9654815,0.23154086,-2.2339396,-0.6576198
GYPC,0.1718935,0.088280395,0.29684973,-0.2799491,-0.379808,-0.055644654,-0.1081141,0.40141666,-0.024144005,0.5994285,0.06155475,0.021540482,0.27032357,0.21992947,-1.0519271,0.11160224,0.5591349,-0.54910266,-0.74165845
MZT2B,0.010410473,0.8680931,-0.019522788,-0.059067927,-0.023874957,-0.0010341073,-0.049382,0.029164406,0.00064923224,0.22447789,-0.053946763,0.4556137,0.39279178,-0.045445167,0.42154253,-0.087341584,-0.2671667,0.109397605,-0.069224976
CCDC115,0.24740091,-4.7196674,0.5400738,0.069352746,0.12584406,0.085956685,0.33405417,-0.086553715,-0.14803097,-1.8040842,0.829884,-2.101135,-2.5250187,-0.0052248887,-2.3253138,0.6896957,0.99982864,-0.32930997,-1.0028749
MZT2A,-0.0030956538,-1.4399502,0.04125578,-0.054327585,-0.049036518,0.0012536474,-0.07561746,0.204285,0.013479497,0.4301689,0.0153813325,-1.5041683,-0.17170501,-0.35450578,-0.6050977,0.04191008,0.47102243,0.23973854,-0.114208914
ACMSD,-0.07397351,-4.9429865,0.4616938,0.54307145,0.80653596,0.09988037,0.43621784,-2.1432488,-0.01621692,-2.430648,1.048261,-2.6859038,-0.6184676,-2.3591275,-0.5908899,0.46889538,-0.20489755,0.69229287,1.1371579
UBXN4,0.07933332,0.5254039,-0.12516059,-1.3612449,0.018696215,0.013815522,0.013140552,-0.034095034,-0.23835266,-0.1583396,0.09784173,0.2126982,-0.59590214,0.061966714,-0.37948036,-0.030056573,0.14219248,0.33249873,-0.4164096
DARS,0.00082231883,-0.44579887,-0.04137832,0.00079610286,0.017132573,-0.0032394007,0.014961519,-0.027702333,-0.00086454634,-0.21262889,-0.011384598,0.40393147,-0.98997205,-0.12569909,0.40741146,-0.041048843,-0.16454667,0.3666351,0.049788617
HNMT,-0.101154745,-1.3486402,0.39778787,-0.6239625,0.36410367,0.043529797,0.16778094,-0.060055465,-0.08037272,-0.30019596,0.35599002,-0.1357934,-2.3563633,-0.24890268,-1.5931604,0.50356793,0.7144828,0.2462932,-0.07470768
TNFAIP6,-0.06978453,-2.866593,-0.16073361,0.5656659,0.44915262,0.058054216,0.23455527,-1.2942865,0.026218826,-1.7406491,0.29527798,-1.1118145,-0.5839744,-1.0199443,0.3134048,-0.3766165,-0.08014315,0.7645508,0.8267686
DPP4,0.077391714,-4.346418,-0.039917376,0.33088142,0.44472146,-0.0045322278,0.4592768,-0.71202755,0.028105991,-1.2690781,0.42925367,-2.4561925,-1.8258326,-1.854545,0.11424875,0.17673633,0.1944323,0.75264233,0.7293759
DYNC1I2,0.008437728,0.62880206,-0.019417621,-0.07052865,0.08260669,-0.009527116,-0.070655726,0.068142064,0.0018980929,0.1887457,0.026310513,-0.4367108,-0.32254663,0.5310839,-0.4595527,-0.22354122,0.63598067,-0.41643572,-0.06742063
ITGA6,-0.17473309,0.5719696,-0.10766499,-0.029606242,-0.029065527,0.002133073,-0.016520374,0.17868389,0.0014280189,0.43922704,-0.08583396,0.7443747,-0.13739628,0.40857735,0.29419827,-0.40256512,-0.2787603,0.13582344,-0.7747282
OLA1,0.38034284,-1.8393126,0.8452705,-2.5669358,-0.55974585,0.20859797,0.09516742,-0.026053876,-0.09109924,-1.6966857,0.8767297,0.10645203,-2.2239103,-1.692947,-0.93521047,0.25450325,1.0512847,-1.3635716,0.24099827
ATP5MC3,0.0017366747,-2.0363598,0.07736564,-0.31070647,0.03848476,-0.0012616202,0.0076078665,-0.124366045,0.009682467,-0.05245974,0.10449423,-1.5647961,-0.98527706,-1.1583034,0.1295014,0.21116681,0.3022721,-0.084038295,0.22419858
HNRNPA3,-0.05835527,1.2641127,-0.1500463,0.14934406,-0.026239743,-0.00052156823,-0.0036849962,-0.078070775,-0.0038559309,-0.19075128,-0.23841193,0.7245826,0.3054304,0.30396718,0.6321177,-0.40065622,-0.8706669,0.34822363,-0.057917017
UBE2E3,0.011988629,-1.0631874,0.21031485,-0.45171952,0.39285845,-0.00041627418,0.01846185,-0.7544909,0.007196531,-2.3659623,0.39972726,0.41086835,-1.9176394,0.5057355,-1.0484338,0.07824674,0.6785182,-0.36636332,-0.034619708
FRZB,-0.0924918,0.86858785,-0.04614089,0.16329783,-0.39611903,0.030425161,-0.08833106,-0.14943928,0.012989,0.18516354,-0.17653504,0.57173944,-0.55128276,0.57315207,0.36002022,-0.22913793,-0.5044228,0.015935117,-0.29037303
NCKAP1,-0.013091144,0.2093616,-0.050498378,0.09721676,0.0060274773,0.0016241209,0.006595165,0.00868302,-0.003821199,0.031710476,-0.022583311,-0.065861344,-0.13753362,0.14677873,0.08371264,-0.29235464,-0.23303069,0.54196006,-0.019952033
ITGAV,-0.03767591,0.8462844,-0.19283506,0.19893567,-0.055085648,0.015815979,-0.16555162,-0.07536478,0.024053968,-0.18300426,-0.08210789,0.7921678,-0.37888676,0.5230178,0.2610397,-0.16648738,-0.3557001,0.13139465,-0.35197374
TFPI,-0.054400433,0.63346463,-0.027602462,-0.010729871,0.054486282,0.006926845,-0.0069834935,-0.089463614,-0.004442042,-0.6962913,-0.13773108,0.8225131,-0.08718511,0.3962911,0.0703693,-0.5709317,0.04410543,0.020298114,0.07030062
COL3A1,-0.4737633,1.7668841,-0.2532156,-0.85313886,-0.5985181,-0.03161669,-0.7273456,0.55186653,-0.09684463,0.61317617,-1.3537111,1.2056035,0.86227626,0.45352507,0.4629327,-1.0941985,-0.8395143,-1.3377234,-2.3405895
COL5A2,-0.6758675,0.6973558,-0.4452963,-1.8070261,0.011502816,0.28769538,-0.515539,0.48573846,0.1392185,0.030092506,-0.44420233,1.0292984,-0.8592678,1.0277932,-0.7370381,-1.0814134,0.14602314,-0.13588832,-1.9721887
SLC40A1,-0.031924903,0.15684101,0.35378537,-0.42100093,-0.026705815,0.006679279,-0.04620558,0.1109411,-3.7992977e-05,-0.022585787,-0.100989036,-0.31166497,0.16231336,-0.24069086,0.17506143,-0.022378404,0.76679933,-0.059137534,-0.12481511
GLS,-0.16485845,-0.3875376,-0.23807947,0.13298146,0.1333444,0.014769981,0.21192645,-0.8329536,-0.011488646,-1.1458278,-0.065776445,0.1518668,-0.45009124,0.116928674,0.2888864,-0.17202291,-0.90547514,0.54912263,0.12548016
MYO1B,-0.21642733,0.6327701,-0.29969868,-0.18474764,-0.03741991,0.021531984,-0.062359232,0.39342344,0.07041492,0.15795283,-0.1453248,0.5109665,0.27874872,0.6895195,0.2300882,-0.18979122,0.042009037,-0.8601758,-0.8383245
SF3B1,-0.1115428,0.9948188,-0.35020056,0.14182727,0.057131395,0.0030754495,0.118011884,-0.54838586,-0.01947857,-0.43907794,-0.08840395,0.59451586,0.2312363,0.32410926,0.27298567,-0.48295864,-0.712879,0.5684711,-0.074263856
SPATS2L,-0.016685491,-0.5620736,0.00972307,-0.002874454,0.0045875334,0.014847796,0.038741034,-0.32543826,-0.032705776,-1.0662503,-7.473301e-05,-0.5912105,0.26842415,0.19071601,0.024587568,0.014764999,-0.035890643,0.26643485,0.16594625
BZW1,-0.031751573,0.27984476,0.36742204,-0.676785,-0.027589379,0.023233898,-0.042528857,0.1635636,-0.05138349,0.06087389,0.1329245,0.42547455,-0.27111796,0.4288329,-1.1077461,0.16385122,0.43392685,-0.40331042,-0.21383272
CLK1,-0.09654544,0.2942264,-0.18620546,0.21877295,0.024312004,0.010795348,0.0073169917,-0.3500031,-0.003810263,-1.2909858,-0.08302024,0.23771694,0.21986884,0.60925245,0.12792456,-0.45191672,-0.9877804,0.5596642,0.14796084
NDUFB3,0.098611414,-4.6149497,0.6336819,-0.8572976,0.34562922,0.20363785,0.10343707,0.30665874,-0.13018821,-0.89437366,0.74820954,-2.3431244,-1.9189283,-1.3180435,-1.5346433,0.7358256,0.9112764,-0.26559538,0.15638116
CFLAR,-0.011257678,-0.11728831,-0.0061169155,0.017751534,-0.012060493,-0.0005705501,0.1233872,-0.04764403,-0.0041784737,-0.36089838,0.015925094,-0.055275682,0.32913747,0.004764904,-0.06412813,0.111478575,-0.4870683,0.065147065,-0.014386447
SUMO1,-0.014066637,-0.8138044,0.21538813,-0.007792586,0.07981147,0.022278346,-0.22373964,-0.00038902875,-0.080279194,-0.36056232,0.23010927,-0.47602844,-0.72302717,-0.110103,-0.20392372,0.18448362,0.46967235,-0.36337146,0.08809983
EEF1B2,-0.008847109,0.950096,0.015681216,-0.005535268,-0.0116030285,-0.0029635122,-0.012201229,0.023192197,0.0017365433,0.26896188,-0.054870564,0.3962766,0.27437037,-0.0909304,0.5775361,-0.06152036,-0.20291765,0.26564628,-0.10989781
PECR,0.3959098,-4.128131,0.73847115,0.14220978,0.4980701,-0.19985597,0.78523606,-1.6553153,0.12428763,-1.8754013,1.2312242,-2.3472726,-2.5071378,-2.4753811,-1.8629884,0.9125665,-0.0765407,0.2512053,1.381807
XRCC5,-0.015670728,-0.077051364,0.005300414,-0.23274018,0.0015331326,-0.0002775656,0.008539198,0.020959185,0.004029217,0.12601249,0.0043947254,-0.17935546,0.29534772,-0.10907487,-0.10296611,-0.027883366,-0.044991568,0.17802353,0.032111794
IGFBP2,0.8125091,1.0793803,-0.8675933,-2.7096007,-2.7568805,-2.271846,-1.6757792,1.8482827,-0.06295936,1.9014708,-1.8205612,0.1830197,1.7611276,0.5324771,-2.0464146,-0.71260273,-0.5760674,-2.4781985,-2.3977551
TNS1,-0.025232708,1.0898737,-0.2676281,0.12542522,-0.02189387,-0.0044352827,0.029556504,-0.077489406,0.00023063442,0.083270475,-0.11170216,0.6947142,0.22541289,0.13063505,0.6221863,-0.28725946,-1.0321431,0.3578364,-0.053337466
ARPC2,0.0021311685,0.7730052,0.012521506,-0.09198653,-0.01784451,-0.0054844436,0.0003019416,0.07043525,-0.004101889,0.1926936,-0.10709694,0.3749418,0.104052156,0.031399865,0.38053313,0.089419074,-0.31399733,0.017036343,-0.17509241
AAMP,0.09130359,-1.1948643,0.30252835,-0.835428,0.010918719,-0.093958214,-0.026215063,-0.030599495,0.0182645,0.094390675,0.2919304,-0.81967735,0.009297224,-0.22941346,-1.7001141,0.17515588,0.582977,-0.46137992,-0.40305275
PNKD,0.31387627,-2.6867132,0.27473637,-0.74680156,-0.0030178335,-0.034947615,-0.24349198,0.62851334,0.36133337,0.62254304,0.5613839,-1.6096809,0.4153864,-0.43016988,-1.1222668,-0.018026931,0.6883124,-2.4529843,0.014224783
TMBIM1,0.12523447,-0.47901,0.39366397,-0.02843271,-0.34445813,-0.10142691,0.0024846538,0.56312776,-0.2603841,0.5584753,0.04588214,-0.78674215,0.47441903,-0.46840546,-0.91146266,0.48854613,0.39690888,-0.70001435,-0.21020103
CTDSP1,-0.007833951,1.0172014,-0.1107088,0.2016742,-0.019127026,-0.0059393095,-0.04924723,-0.023449132,0.009897729,0.32882497,-0.118198104,0.5610608,0.16791482,0.33037075,0.3766274,-0.28794026,-0.49798566,0.32510856,-0.08127407
CNPPD1,0.043724015,-1.0391128,-0.03125732,-0.114589326,-0.046838284,-0.0012422368,0.015206809,-0.39836323,0.019669035,-0.6699427,0.13705395,-0.85740405,-0.3543251,-0.3184097,-0.40229422,0.12275174,0.04423799,-0.27440575,0.653469
RETREG2,0.021472666,-1.6096249,0.020937566,-0.015742108,-0.030333254,-0.008159245,0.017111972,-0.046363994,0.006975884,0.19266278,-0.003496413,-0.78261435,-0.6109985,0.13396914,0.0677038,-0.027632726,0.24347234,0.038024146,-0.12102927
OBSL1,0.04696563,-1.267557,-0.11738629,0.16106921,-0.08198989,-0.01084002,-0.0076077785,0.091762014,0.007687615,-0.020128207,0.00045928475,-0.31809798,-1.3816766,-0.020281298,-0.0792531,-0.33332133,0.56157947,0.16733131,0.026713721
SERPINE2,0.043887988,-1.1995881,0.18641993,-0.030144665,-0.07494336,-0.07024871,0.15600252,-0.5396836,0.0043730685,-1.1407006,0.31731436,-1.5505054,-0.013986587,-0.12750466,-1.9695227,0.36792803,0.44066453,-0.2305527,0.7811571
MFF,0.09210945,-1.3752372,0.47624543,-0.24002138,0.25511315,-0.023259398,-0.04000648,-0.1741221,-0.05898602,-2.2275352,0.4538398,-0.46212912,-0.446843,-0.78374606,-2.0560374,0.60112244,0.69606346,-1.1267765,0.5940112
NCL,-0.00302135,0.6159367,-0.10414381,0.12952216,-0.005690368,0.00268698,-0.0020907116,-0.18214728,-0.003280585,-0.35245383,-0.30733514,0.45929027,0.13506067,0.12978818,0.5254087,-0.13769154,-0.6257074,0.42002508,-0.05690126
ACKR3,-0.0015769007,0.7275112,-0.8551698,0.13856338,-0.21370944,0.007220426,-0.36598867,-0.15706939,0.17692615,0.3504564,-0.081711225,0.48824054,0.4948219,0.03988419,0.4190978,-1.9097824,-0.5457943,-0.1722967,-0.10596528
COL6A3,-0.6078114,1.2925092,0.11306959,-2.4353786,0.4144037,0.14014573,-0.5202321,0.7297881,-1.8115927,0.8268498,-0.30143726,1.0418824,-0.9238015,1.0270386,-1.630071,-0.44607872,-0.044417866,-2.142709,-1.5575813
RAB17,0.4873428,-5.6047964,0.4218424,0.31372792,0.16687775,0.041199762,0.41083902,-0.96431625,0.049459893,-1.88572,0.76179636,-2.4964128,-2.0313206,-2.019526,-0.5581881,0.4899942,0.6670516,0.36736667,0.5887747
NDUFA10,-0.07639932,-0.64916575,-0.0013614233,0.28736505,0.007531565,0.006748506,-0.01907754,-0.11758395,0.005339018,-0.30421883,-0.033297155,-0.82576406,-0.652004,0.22498178,0.12040625,-0.089031585,-0.10105837,0.23338437,0.5151545
COPS9,0.0028367718,-0.0069676936,0.0059307516,-0.12764584,-0.007516456,2.4718793e-05,-0.044396557,0.100768745,0.0010221963,0.14586058,-0.008269586,-0.13083489,0.30187052,0.043157328,-0.052885212,-0.010745372,0.08466068,-0.6196021,0.025527168
PPP1R7,0.29725695,-2.309449,0.50592816,-0.6880914,-0.051196136,-0.046480652,-0.25545505,0.49097994,0.12664656,0.6267067,0.5804655,-1.9214122,-0.6967304,-0.89224374,-0.5605255,0.34350678,0.8594593,-1.6784691,-0.14354645
HDLBP,0.026205717,0.5813002,-0.032832734,-0.04328719,-0.041041136,-0.013410762,-0.010589569,0.3443585,0.00289341,0.40367636,-0.12538223,0.08517877,0.40524825,0.26588657,0.4655047,-0.12563142,-0.11794275,-0.10838652,-0.0376126
SEPTIN2,-0.014224193,0.8917309,-0.055905323,-0.03668138,-0.009271996,-0.003370469,0.009074803,0.020170849,0.00380365,0.27412397,-0.039053325,0.4213735,0.27782458,0.3557855,0.07801696,0.002822551,-0.44574746,0.008438124,-0.13126832
STK25,0.0022768062,-0.29795277,0.000340905,-0.005786541,-0.02393785,-0.00017536189,0.00709077,0.14783837,-0.013588306,-0.16386914,0.021773575,-0.263753,0.09667044,-0.020125117,-0.07785573,-0.040667254,-0.14074126,0.13854387,-0.026602395
BHLHE40,-0.0056300457,0.08140381,-0.12679559,0.03738473,0.03576015,-0.0033967488,0.056407046,-0.7609006,-0.0053681573,-0.99190366,-0.01153267,0.3132424,-1.0461746,0.26909685,-0.06732821,-0.14460935,-0.15062243,0.5158651,0.17448834
ARPC4,-0.057449173,1.3102847,-0.26637742,0.16678084,-0.28765327,-0.007251654,-0.17455758,-0.02241053,-0.009229874,0.3859183,-0.76298815,1.0001463,0.47543177,0.4728213,-0.0026652187,-0.7916248,-0.83692276,0.29668996,-0.14431128
BRK1,0.009340879,0.4540605,0.02347031,-0.07199014,0.029948989,0.00032216284,-0.24210583,0.15993959,-0.026427146,0.21959196,-0.012085419,0.41620028,0.14542362,-0.21080548,-0.06261209,0.013002431,-0.017598003,-0.13331218,-0.19419219
FBLN2,0.42319426,1.7093391,-0.8216832,-2.4889529,-2.6600266,-2.2355323,-1.95549,1.5750475,-0.012114526,1.9278831,-2.3500392,0.90083826,1.646914,-0.6390118,-2.008978,-2.3369038,-0.5235796,-2.4359546,-2.4845126
LSM3,0.23194945,-3.043099,0.77885735,-1.5041035,0.25664586,0.058058877,-0.059054967,-0.17798206,0.023874586,-0.37984878,0.84649324,-2.38944,-2.2444708,-1.324484,-0.33276278,0.87661725,0.6197426,-0.8382464,-0.1925825
CRTAP,-0.031702388,0.6037164,0.0505552,-0.0077655786,-0.05422191,0.005816806,-0.1802937,0.14986192,-0.0042455117,0.0037789615,-0.059691936,0.34781453,0.35211,0.5807855,0.30952266,0.046721432,-0.20507874,-0.38390335,-0.6622817
ACAA1,0.23573343,-4.500314,0.6668626,-0.47032365,0.39500108,0.09268024,0.36125934,-0.40848234,-0.18540569,-0.9746184,0.8355495,-0.95959634,-0.9459673,-1.0206968,-2.075469,0.6723232,0.40962043,-0.47419563,0.69299984
CTNNB1,-0.34362057,1.4185898,-0.48756343,0.2252371,-0.16223256,0.01087256,-0.17599176,-0.11326277,-0.0180275,0.1118845,-0.7096623,0.8286386,0.19579145,0.46323043,0.68348175,-1.0634316,-1.031553,0.2729449,-0.34775612
TMA7,-0.0028540595,0.046729095,-0.0056187976,0.00095247617,0.0010390546,-0.00095713366,-0.0023138477,0.09231312,-0.0016341857,0.24250858,-0.010749742,0.01287089,-0.12260465,0.03285792,0.10110096,-0.01628807,-0.15882796,0.07100367,0.0129184
SHISA5,0.034391865,0.7172476,-0.058675,-0.24438289,-0.23097838,0.0031182251,0.0027074672,0.33075544,-0.025315091,0.49618068,-0.115017205,0.32226685,0.029820783,0.5605473,0.3526688,-0.01510706,-0.25474465,-0.5776225,-1.0694032
UQCRC1,0.13202177,0.82847714,-0.00090260676,-0.19273327,-0.0152234845,-0.016261807,-0.36421567,0.19234522,-0.007975551,0.28957838,-0.05302951,0.53421444,0.52410764,-0.053095303,-0.46728724,-0.4336832,-0.06940961,-0.5247118,0.15094642
NDUFAF3,0.3025566,-0.9346813,0.18502183,-1.2990614,-0.21669906,-0.10835216,0.01989499,0.4590613,0.04142901,0.17577858,0.3979846,-0.7470053,0.4345888,-0.7386234,-0.43488356,0.1036877,0.5124381,-1.1920373,-0.22414869
RHOA,-0.060080525,1.3530078,-0.138311,0.13127816,0.0017474035,-0.0059749377,-0.03075572,-0.052689783,-0.008698961,0.04872339,-0.35971135,0.86218333,0.34294513,0.28029385,0.6301126,-0.23671079,-1.0651667,0.31055057,-0.12094084
SEMA3F,-0.010209142,1.3104639,-0.56240267,-0.14479919,-0.69749343,-0.010743029,-0.33413845,0.09780071,0.040519983,0.57089865,-0.4228832,0.85105515,0.22932838,0.42615712,0.023180543,-1.1634684,0.052878752,-0.56015015,-1.3937546
GNAI2,-0.044411194,1.5521724,-0.2522985,-0.019006051,-0.08629492,-0.01212888,-0.057078086,0.13434143,-0.006472847,0.38628295,-0.44594842,0.97944266,0.612897,0.21057376,0.5465265,-0.64932317,-0.9613655,0.22666126,-0.6782898
HYAL2,0.06719197,1.1181966,-0.33476394,-0.34917417,-0.45645067,-0.12382475,-0.51307034,0.4460563,0.006574973,0.6219923,-0.9093177,0.69296074,0.71029466,0.34789708,0.16607,-0.80664146,-0.008116882,-1.0456921,-0.8013395
STAB1,-0.34521905,1.6730924,-0.18951398,-0.07271397,-0.49994075,-0.0049793473,-0.39183533,0.19434445,-0.038122226,0.4644873,-0.8218281,1.1581739,0.55045617,0.8044725,-0.26392606,-0.61467254,-0.27168038,-0.29194367,-1.5149318
SPCS1,0.039117925,-2.9321556,0.35218447,-1.0744889,0.13195822,0.018600706,-0.18150935,-0.02195773,0.060731415,-0.07629649,0.49777573,-1.1196952,-1.4469124,-1.8584487,-1.3060181,-0.09510759,0.80546945,-0.28843412,0.28743914
SELENOK,-0.0035238294,-1.8902407,0.44652805,-0.6805444,0.15518528,0.036664266,0.14318518,0.13472764,-0.25009465,-0.7618428,0.11927661,-1.963628,0.4040149,0.18537995,-1.9871854,0.46496987,0.58726066,-0.5016726,-0.12948948
ARF4,-0.14973518,-1.0776335,0.02979027,-0.16226906,0.27791104,-0.0023787718,-0.0028843966,-0.032710183,0.037720863,0.0148001425,0.029692553,-0.93222594,-0.18999922,-0.66142255,0.3101942,0.23862374,0.18530358,-0.7759183,0.27784333
FLNB,-0.055168588,0.7581866,0.36166427,-0.9742764,-0.047099993,-0.105119325,-0.14321527,0.29175976,0.061827455,0.34015384,0.09893388,0.9513369,0.62145054,-0.23843554,-0.79272443,-0.44270685,0.55804026,-2.0458739,-1.0736893
ARL6IP5,0.022751125,0.018464476,0.068189025,-0.45760056,-0.037885375,-0.0054761805,-0.18340138,0.06761306,0.018220818,0.36483988,-0.01371828,0.4322673,-0.4595852,0.22126718,-0.23131414,-0.038804665,0.23909196,-0.31661993,-0.034580566
PROS1,-0.055637345,-2.2833214,0.09773643,0.0016081133,0.021684315,0.012274815,0.13249177,0.19077703,-0.20140502,0.0895588,-0.01719582,-2.0274415,-0.88248754,-0.10407419,-0.36701667,0.13278429,0.0979548,0.22835243,0.39961
MTRNR2L12,-0.3435663,2.0438764,-0.979401,-0.11250239,-0.71403587,-0.57730174,-0.4049413,0.105317555,0.049718186,0.34172976,-2.05661,1.0652872,0.6381217,-0.042244565,1.096933,-2.2107372,-1.7910795,0.08378591,-0.68675935
COL8A1,-0.14162678,1.0674871,-0.05963996,-1.5686852,-0.18352157,0.034762803,-0.70372206,0.16825764,0.03127916,0.77375585,-0.34599906,0.99548227,1.0376072,-0.52235794,-0.51653886,-1.5119879,-0.60240686,-1.7235278,-1.2425841
NIT2,0.08686544,-3.2251968,0.43832734,-0.05361151,0.49062657,-0.00024084844,0.546435,-0.95462275,-0.06820608,-1.8903145,0.7224777,-0.952819,-2.5928397,-1.2025704,-0.5153589,0.7260245,0.3251383,0.21023162,0.6004362
PCNP,0.0030238403,-0.35972285,0.024671668,0.021539457,-0.003917805,0.002138374,-0.005406067,-0.057426337,0.001079553,-0.06548878,-0.0071300454,0.060849488,-0.16810836,0.11436593,-0.026665678,-0.026554327,-0.07102454,0.3425289,-0.15611507
HHLA2,-0.20366171,-4.8627596,0.75011855,0.27995694,0.93769747,0.18012787,0.93485564,-3.058531,-0.011872285,-2.464903,1.3664335,-0.78979915,-2.4266586,-2.2522905,-1.1020833,1.069074,-1.1711155,0.39911526,1.105463
COX17,0.017622856,-2.4828303,0.20314412,-0.50375026,0.17049775,-0.0043357704,-0.0036210883,-0.10791257,0.0052112117,-0.33321458,0.18326055,-2.184959,-1.049224,-0.427214,-0.9584631,0.5480811,0.6801704,-1.5152385,0.27613124
FSTL1,-0.05484019,1.2034498,-0.4431878,0.14278086,-0.08000426,-0.010236526,-0.026479755,-0.003185864,0.043993093,-0.047211368,-0.34739867,0.8261811,0.5308609,0.22933234,0.6918961,-0.78720367,-0.94182634,0.22170548,-0.2108364
NDUFB4,-0.0033656561,-0.32797033,-0.004648155,-0.018815571,-3.808276e-05,-0.00022676552,-0.013414425,0.026395228,0.0063297283,0.35656774,-0.010035617,-0.19266245,-0.45672917,-0.44922262,0.5363017,0.017864816,0.0083180545,0.02653811,0.015897863
FAM162A,-0.0010579599,-2.6058202,-0.060393404,0.034053214,0.1812536,-0.00071078324,0.028265122,-0.14980938,-0.004866716,-0.007362822,0.055448953,-2.486498,-1.5427539,0.109747335,-1.0290092,0.06260683,0.16337061,0.09381138,0.4699383
PARP14,0.023336284,-0.5824272,0.52946,-0.4071369,-0.47966284,-0.004527869,0.31632987,-0.2991056,-0.05870781,0.34418145,-0.12211498,0.5415341,-0.63861394,0.27519116,-1.3935777,0.6929233,-0.31039602,-0.26811433,0.056215234
SEMA5B,0.003169892,-0.35819203,-0.2987021,0.25745717,-0.008247804,-0.012634628,-0.010898364,-0.24816641,0.13044332,0.0017629977,-0.07431354,-1.6588025,-0.2304549,0.26849973,0.6023957,-0.4956726,-0.06360599,0.24516273,0.08176282
PDIA5,-0.009779236,-3.2726173,0.49672255,-0.22509858,0.091371775,0.18907097,0.3430038,-1.2761078,0.11365879,-2.0530624,0.35105664,-2.403164,-1.920159,-1.5548729,-0.91004217,0.66435874,0.20039962,-0.043222133,1.0626463
MYLK,-0.028062426,0.5336627,0.02634255,-0.32699743,-0.08479913,0.00840858,-0.08335177,0.4394037,0.00042254414,0.6403571,-0.42539114,0.4969427,0.67684066,0.39611316,-0.3252814,-0.06600306,-0.69863355,-0.31722584,0.15089618
ITGB5,0.06464435,0.08645493,-0.038080383,-0.12773295,-0.19660535,-0.18602535,-0.22216117,0.49897963,0.14404334,-0.08830101,-0.091161326,-0.06254169,0.70593953,0.05757797,0.06258763,-0.174716,-0.0019288696,-0.38280436,-0.0037407395
ALDH1L1,0.0074710296,-0.24867466,-0.2719332,0.1343461,0.0054366593,-0.0071307537,-0.009242477,0.005473148,0.0060631223,0.30155528,-0.048110176,-0.5077689,-0.40764725,-0.20286176,0.19721304,-0.10014009,-0.1469055,0.39439785,0.115282305
MGLL,0.03452699,0.9026555,-0.018630307,-0.052174818,-0.09509465,-0.003354143,0.014172125,0.049036574,-0.016685497,0.41152194,-0.0047886944,0.39163724,0.19400378,0.2617424,-0.6742172,-0.12805541,0.04466319,-0.11189489,-0.086706825
SEC61A1,0.016940525,1.0138013,-0.14529462,0.14990285,-0.15734796,-0.019571992,-0.054197237,0.13254693,-0.009234421,0.07928846,-0.35505334,0.60315716,0.17081138,0.09228036,0.4352653,-0.3188036,-0.41598353,0.18818332,0.06408329
RAB7A,-0.02305135,0.1761871,3.309218e-05,0.08320139,-0.010024032,-0.00701482,0.043020457,0.027716959,-0.0018881828,0.20792809,-0.007773979,0.22255631,-0.04272812,-0.08938523,-0.32661834,-0.027206186,-0.41384608,0.44187966,0.009163457
CNBP,-0.022880172,-0.9023951,0.058712658,0.009754807,0.04703166,0.007734405,0.03697185,-0.15125987,-0.0050509977,-0.35311654,0.019488268,-0.30851316,-0.5059539,-0.3733456,0.010330157,0.003192325,0.029516147,0.36825806,0.04954354
H1FX,0.004111519,1.4344081,-0.17071727,-0.05193279,-0.14277373,-0.021062328,-0.08076845,0.11024599,-0.00038882968,0.3179603,-0.40484697,0.8658994,0.60742754,-0.0015532784,0.5285645,-0.3863063,-0.52153474,0.16458032,-0.47582662
PLXND1,-0.15231301,1.5979457,-0.25661597,0.15046988,-0.16727898,-0.016839506,-0.21857005,-0.060776036,-0.0075854664,0.1669919,-0.5550505,0.9447908,0.4405802,0.47336042,0.6062678,-0.85167664,-0.9325324,0.08670209,-0.4963929
TMCC1,-0.009446818,-1.7084451,0.03753881,-0.54904777,0.11187404,-0.012792199,0.108315304,-0.51879,0.075078435,-1.9210099,0.07894987,-0.18708654,-0.6257564,-1.5904186,-0.03513097,-0.115821846,0.46463424,0.23173346,0.20774332
ACAD11,-0.034315255,-1.1004096,-0.09772088,0.28558922,0.12984343,-0.0086886855,0.17443652,-0.8345697,0.025203083,-0.5398816,0.22279969,-0.65739626,-0.97407794,-0.4295442,0.18589616,-0.18382832,-0.3450222,0.51842785,0.4668098
UBA5,-0.0070070196,-4.1314287,-0.05773988,0.16449212,0.13313363,0.10203094,0.30419338,-0.7664167,0.024539346,-1.529176,0.5055571,-1.7755417,-1.1741586,-1.3657359,0.08792495,-0.14521758,0.25469702,0.3436091,0.5870902
SLCO2A1,0.0014406105,1.0119221,-0.09127584,0.029818779,-0.0050228564,-0.012780844,0.07435788,0.01289273,-0.1616141,0.18237363,-0.3766742,0.71240807,0.10764778,0.31717816,0.4674018,-0.07420537,-1.0030583,0.15145224,-0.2118189
RNF7,0.053871952,-3.6616707,0.40522203,0.097813934,0.11415771,0.0054129385,0.03381613,-0.21689506,-0.01689904,0.1382747,0.3294336,-2.519774,-2.1994035,-0.82434714,-1.002539,0.60611475,0.7706242,-0.71267176,0.13191567
PLOD2,-0.004580778,-2.0330555,-0.014641154,0.012686764,0.3174511,-0.011906817,0.27584958,-0.15041555,0.008160105,-0.84912586,0.4513045,-0.4274864,-0.7391987,-1.0298749,-0.48072255,-0.21496706,0.5662257,0.36682898,0.3595549
TM4SF18,-0.026780259,0.2810304,0.1711159,-0.64251816,-0.2713546,-0.020793155,0.09412216,-0.22796759,0.0896583,-1.5126098,-0.15662876,0.09020956,-0.858893,0.83833915,-0.2866822,-0.030153792,0.506445,0.050388787,-0.9272501
TM4SF1,-0.024037872,0.9781345,-0.12498392,0.13365725,-0.082150936,0.007475773,-0.17789295,0.20096722,-0.02600945,-0.059425958,0.035302218,0.4597651,0.5204797,0.49730578,-0.159276,-0.80439234,-0.043623503,0.27518365,-0.8799554
WWTR1,-0.05340019,0.8055477,-0.06083912,-0.3295156,0.010780197,0.018828172,-0.023542581,0.078903526,0.008088666,-0.26817062,-0.04243049,0.45705456,0.52186626,0.5448814,0.34587753,-0.3211462,-0.1718318,-0.14871146,-0.15143748
SERP1,-0.010198083,-0.7907147,0.011475455,-0.01496275,0.018987725,0.0012903663,-0.0028624763,-0.023884071,0.00082274445,0.057858504,0.0077396147,-1.1217444,-0.30422992,-0.12726787,-0.26341096,0.031367667,0.28051662,0.17305546,0.07245932
EIF2A,0.003223452,-1.7851293,0.08328082,-0.382531,0.08717577,0.0020961822,0.116000205,-0.08689671,-0.040817883,-0.34074107,0.0878682,-1.6397357,-0.4827376,-0.19841833,-0.72587746,0.18833216,0.35110518,0.31335983,0.46135584
SELENOT,0.015385406,-1.6078664,0.3538507,-0.29546127,0.2232499,0.13456017,-0.03703883,-0.3965869,-0.074916944,-2.2008114,0.63041645,-0.49738944,-0.5617964,-0.37892127,-0.4953629,0.26538467,0.42577967,-0.18353565,0.37600654
MBNL1,-0.09641005,1.2334532,-0.17149013,0.01796136,-0.10617261,0.015982721,-0.022514267,-0.39226738,-0.00053646223,0.30433348,-0.51933396,0.9840984,0.25355804,0.37203047,0.33321697,-0.24419703,-1.128764,0.31918678,-0.29718408
MME,0.05770337,-4.441442,0.11811251,0.4967228,0.50989443,0.023976164,0.42817688,-1.690253,0.030911291,-1.8299166,0.865321,-1.4946536,-2.6246011,-2.292054,-0.058474775,0.018710956,-0.6479766,0.7412832,0.8383563
SSR3,-0.16873707,-2.7458196,0.13542753,0.038548652,0.17919189,0.021038592,-0.0293446,-0.19693047,0.004940322,-0.08303198,0.0717428,-0.42350018,-0.6424927,0.15362224,-0.50094324,0.33838114,-0.16296753,0.19167715,0.097395435
SEC62,-0.043265074,1.1015692,-0.31546846,0.07197662,-0.047019903,-0.004094225,-0.04325573,0.008913593,0.026416007,0.17422801,-0.39177254,0.6978986,0.34565848,-0.042529684,0.55005693,-0.748756,-0.3884949,0.23253027,0.13213322
TBL1XR1,-0.0059826793,0.6904324,-0.044049926,0.014103448,-0.03624874,0.0056393044,-0.004856897,-0.0071608387,-0.0031551477,0.159472,-0.041041587,0.69730985,-1.0990756,0.032423753,-0.32002908,-0.21647452,0.13789646,0.5013678,0.08113143
NDUFB5,-0.034161147,-1.7134104,0.58196366,-0.24986087,0.16025445,0.017341131,-0.059648078,-0.26790005,0.047946405,-0.49265492,0.11445574,0.021545263,-1.7114272,-0.40566167,-1.8508443,0.2990573,0.7165693,-0.46291375,0.6946869
FXR1,-0.02635001,0.20275633,0.120827556,0.07186363,-0.30202848,0.00054525206,-0.025065525,-0.09934217,-0.004791545,-1.1162999,-0.06635557,0.4094224,-0.10166186,0.57071114,-0.32041204,-0.022761209,0.07273578,0.13679005,-0.0188341
AP2M1,-0.00025519816,0.80962735,-0.07097534,0.00228422,-0.013428169,-0.012723217,-0.0061930628,0.06292246,0.003999031,0.19995609,-0.065981425,0.72942036,0.38350707,0.12180434,0.48829263,-0.16346759,-0.6828312,0.22171617,-0.23449883
EHHADH,-0.010320073,-3.6260316,0.14649148,0.27634764,0.49136963,0.07067749,0.44842055,-1.2148504,-0.040451862,-1.2603992,0.5474226,-2.5508013,-2.5521712,-1.5505431,0.04121329,0.15480803,0.21866389,0.6446659,0.65506285
EIF4A2,-0.035403702,0.8723848,-0.039022658,0.065941155,0.008389995,-0.00081795425,0.008185784,-0.23938665,-0.0054336493,-0.10393433,-0.088763095,0.61080986,-0.32902914,0.23414685,0.4001905,-0.22949865,-0.32325822,0.42943972,-0.016028251
P3H2,0.013693507,-1.5542166,0.15689695,-0.375784,0.06822945,0.00091245206,0.0321205,-0.38944882,-0.002601696,-0.35804784,0.113379866,-0.21153818,-2.4070253,-0.025642456,-1.2124113,0.08048774,0.6464963,-0.31230146,0.032977838
HES1,-0.0020225367,1.185617,-0.13745227,0.03057661,-0.013102749,0.00502866,0.025728026,-0.07639055,-0.082132116,-0.12270197,-0.1901238,0.9603312,0.33710513,0.48619753,0.1950784,-0.57701063,-0.95786995,0.12730883,-0.26993486
ATP13A3,-0.010900615,0.15214889,0.23468772,0.11116417,-0.052997384,0.0071138404,-0.1480267,-0.39021897,-0.07458919,-2.092791,0.20661643,0.45329648,-0.4391128,0.33812642,-1.2987669,0.0008025091,0.24492943,0.09375564,0.4302861
ATP5ME,-0.006703015,0.8531381,-0.034464635,0.044697236,-0.0028987254,-0.0032317066,-0.0058784992,-0.05200462,0.004416633,0.15457825,-0.024963284,0.60576254,0.11616668,-0.1155286,0.56633824,-0.041339986,-0.5202958,0.24236779,-0.034266066
SPON2,-0.4924678,2.3257356,-0.13512968,-1.683187,-2.1068597,-1.3971424,-1.9760054,1.2343284,-0.4002628,1.085584,-1.9494523,0.96268916,1.1495943,1.3067496,-2.123942,-1.7565234,0.19224274,-2.1177588,-1.8026254
CTBP1,-0.056587294,-0.9110851,0.011576557,-0.06360647,0.019497389,0.005474884,-0.016311437,0.18085277,-0.0014837146,-0.21482046,-0.030594852,-0.2884608,-1.6031334,0.14210285,-0.48738992,0.07433751,0.3464648,0.21747205,0.2347429
MXD4,0.01599933,0.7792783,-0.1192811,-0.07915264,-0.42363483,-0.01076665,-0.023757247,0.31258148,0.0061721224,0.5226511,-0.07711748,0.36740243,0.38554633,0.51346433,0.17271703,-0.54108965,-0.15458356,-1.0214686,-0.47383103
SH3BP2,-0.008003062,0.44196212,-0.1371651,0.2982149,-0.013309802,-0.003658396,0.030222328,-0.1857983,-0.002768843,-0.5171537,-0.141071,-0.21412519,-0.14935939,0.5147833,0.5084204,-0.23188289,-0.22285469,0.47337672,0.13330503
ADD1,-0.012454512,0.47062415,-0.037374582,0.075728595,-0.01796622,-0.0061905445,0.017583488,0.03707071,0.0017333726,0.0031832792,-0.03984035,0.35161757,0.27690127,0.035068564,0.25736392,-0.04381805,-0.47523025,0.25848603,-0.041401602
MFSD10,0.0033851988,-0.05796799,0.020528503,-0.12213464,-0.042468622,-0.007386914,-0.002828946,0.17930472,0.008902237,-0.2464223,0.043128595,-0.2696733,0.058684543,-0.069029495,-0.057245173,-0.013533914,0.7583237,-1.1264952,-0.11771136
LRPAP1,0.019417016,0.16938528,0.018142296,-0.19056608,-0.056064166,-0.0049123713,-0.056946274,0.23896727,0.013463771,0.41705078,-0.05591703,-0.5872998,0.49940473,-0.2135872,0.10508669,0.010918297,-0.038355645,-0.4993916,0.13716607
MRFAP1,-0.012551505,0.45322558,-0.014285774,-0.0028961306,0.0017863784,0.0007572521,-0.019124936,0.04202512,0.00096032204,0.24303809,-0.083892636,0.45037168,-0.47356498,-0.08217224,0.48799717,-0.021140696,-0.23819566,0.15932922,0.015390429
WDR1,-0.072028674,0.29876503,0.0067036846,-0.060505085,0.054836463,0.012779221,0.003134264,0.072522156,-0.012199036,-0.08725531,-0.15425484,0.1742552,0.6498884,0.5024342,-0.18854116,-0.020530023,-0.29105976,0.004692023,-0.15920861
