,Shared topic 1,Shared topic 2,Shared topic 3,Shared topic 4,Shared topic 5,Shared topic 6,Shared topic 7,Shared topic 8,Shared topic 10,ATAC private topic 1,ATAC private topic 2,ATAC private topic 3,ATAC private topic 4,ATAC private topic 5,ATAC private topic 6,ATAC private topic 7,ATAC private topic 8,ATAC private topic 9
chr1-4491817-4492555,-0.1302111,0.08528006,-0.08714499,-0.22384775,0.19021507,0.2504573,0.22662178,0.1641599,-0.08493681,-0.011848167,-0.042486023,-0.048186596,-0.43873173,-0.06099194,-0.029031739,-0.102502815,0.24571705,0.00084032165
chr1-4492801-4493556,-0.104531094,0.18898271,0.07097304,-0.2521379,0.20599362,0.0113935415,-0.00795393,0.19377235,-0.028510792,0.001663162,-0.3166779,0.24260347,0.040273253,0.034622256,-0.24616887,-0.11711306,0.08060625,-0.02825814
chr1-4496301-4497198,-0.08337382,0.046312585,-0.0010610447,-0.095517114,0.22540402,0.25085637,-0.056876715,-0.31794688,-0.024136303,-0.08791505,0.024369592,-0.1756949,0.07258989,0.055398084,-0.21334974,0.06194532,-0.115084246,0.021897076
chr1-6358810-6359728,-0.20617928,0.104971536,0.122168064,-0.24172938,-0.46940288,-0.081633985,0.24075195,0.014999884,0.18272671,-0.020794982,0.037630457,0.13966237,-0.18069336,0.22383033,0.3597934,-0.040959384,-0.17968404,0.00815275
chr1-9967755-9968311,-0.26600772,0.056938805,0.017737688,-0.33454043,0.24983048,0.11007794,0.02711422,-0.45621696,0.3836716,0.025498295,0.010469303,-0.059315484,-0.29909328,0.027288314,-0.018838933,-0.03172397,0.3488868,0.007689733
chr1-14755185-14756069,-0.23013987,-0.38942376,0.3891275,-0.669503,0.16364911,0.1323143,0.18678063,0.3428912,-0.24774474,0.029696263,-0.16961788,-0.2887356,0.22954294,0.09328028,-0.24736993,-0.08744882,0.39860892,-0.0026026308
chr1-15892078-15893028,-0.15016256,-0.09000871,0.0067285476,-0.09864511,-0.16584611,-0.05882793,0.14100504,-0.072173074,0.15683036,-0.010039043,0.15340625,-0.024419561,0.110356525,0.019810403,-0.29222628,-0.04970289,0.3856509,-0.006371449
chr1-19209876-19210780,-0.100173205,0.15219916,0.01130241,-0.2548648,0.25114226,0.12249846,0.077493936,-0.12988679,-0.0510814,-0.03609604,-0.22433873,0.08369038,-0.08406405,0.021913467,0.1616421,-0.123904966,-0.11442686,0.0112663675
chr1-19230831-19231660,0.07298961,-0.02705814,0.12749977,-0.07030355,-0.0514248,-0.068842925,0.111421496,-0.10708909,-0.13502699,0.02032466,-0.108427726,0.002967236,0.054489393,0.032220803,0.06894108,0.027648697,-0.39519182,0.0049713654
chr1-23762544-23763392,-0.057942644,-0.6745598,0.3638265,-0.2801657,-0.028091345,0.28992814,-0.46824875,0.20210898,0.352421,-0.063660905,0.13709679,0.36196202,0.04068346,-0.010712324,0.030724702,-0.34769657,0.11833789,-0.011470333
chr1-24587057-24587640,-0.121529914,0.3551037,0.29572916,-1.0332386,0.57148427,0.47910613,-0.3649702,-0.37861118,-0.19392426,-0.1528797,0.15932946,-0.031177541,-0.29160482,0.10400916,-0.03750715,-0.24503069,-0.027804479,0.09113901
chr1-24612397-24613290,-0.5582652,-0.109327815,-0.21581861,0.33386075,-0.74498403,-0.6617265,0.16781306,0.66707605,0.4521476,-0.0802232,0.28857496,0.113109834,0.01798988,0.14223988,-0.35102907,0.2576778,0.032321475,-0.015720483
chr1-34459318-34460210,-0.16004497,0.10939294,-0.02917435,0.092801735,0.01979562,-0.23346487,0.20690468,-0.020817522,-0.03815132,0.10181326,-0.35204682,0.16250576,-0.09020836,0.02228657,-0.35264233,0.06526317,-0.22258283,-0.005023881
chr1-34471274-34472139,-0.16788109,-0.16125157,0.07394456,0.18870538,-0.19465226,-0.118340775,0.42489243,-0.07794963,0.10204539,0.012294254,-0.10375087,0.1426952,-0.049760055,-0.16121918,0.04349925,0.05142975,-0.45061803,-0.0016869901
chr1-34536824-34537570,-0.1524145,-0.081524,0.13068497,-0.110577576,0.04436019,-0.1870381,0.19826306,0.031977475,0.13779268,0.011140421,0.0821892,0.1215227,0.015496557,-0.028472383,-0.0018511885,-0.10979142,-0.105998695,-0.018035522
chr1-34579255-34580177,-0.36927608,-0.068348445,0.34838176,-0.64321804,0.42621413,0.277972,-0.45027238,-0.23046167,0.6263206,-0.16681023,0.036527757,0.17571862,0.020908471,0.22216322,-0.110777244,-0.48443037,0.07122333,-0.047896143
chr1-50927083-50927873,-0.4519314,0.075652055,-0.09030953,-0.6332519,0.97829306,-0.15529074,-0.1579087,-0.26396543,0.12540053,-0.0025199137,-0.039066724,-0.20828831,0.13868839,-0.035218123,-0.053613435,-0.0580253,-0.22955498,0.012756506
chr1-52008076-52008941,0.22218864,-0.027583033,0.24325123,0.063408576,-0.30620557,-0.011253613,0.196892,-0.24535543,-0.38910437,0.0006265716,0.03465924,0.1594865,0.030645067,0.09554394,-0.07357778,-0.20510398,-0.21075825,0.00030637626
chr1-56969234-56970168,-0.7619364,0.3797793,0.1516224,-1.1594951,0.6218672,0.10079461,0.45420313,-0.018035058,-0.15798597,0.0043519414,-0.1977374,-0.25692034,-0.2658373,-0.001184094,-0.18414943,-0.3129059,0.24181017,0.1078634
chr1-56977882-56978438,-0.11896029,0.12012454,0.19628844,-0.7963736,0.3536762,0.25087202,0.2536457,0.18864399,-0.43407708,0.14986977,-0.20480819,-0.041033324,-0.35024396,-0.268173,-0.07144778,-0.23703405,-0.100837015,0.13868779
chr1-58795135-58796066,0.20569538,0.022057468,-0.44437185,0.600628,-0.764802,-0.6547517,0.6081481,-0.03300586,0.16810763,-0.010218747,-0.1272215,0.17775221,0.031561196,-0.116122544,-0.09882894,0.0087422095,0.23837654,-0.03522763
chr1-59481692-59482501,0.19000839,0.19583003,-0.09818197,0.22343378,-0.31290075,0.06485927,-0.11014022,0.00102468,-0.39645675,-0.14015324,-0.122921005,-0.028504595,0.22459498,0.0668635,0.05975594,-0.026041547,-0.07083543,0.0070060967
chr1-62702802-62703741,-0.02851301,-0.4019487,0.00096092274,-0.5958324,0.22359002,0.16036414,0.4740028,0.31452754,-0.06581528,0.019066779,-0.06581224,-0.12474878,-0.42990053,-0.09499656,0.14047197,0.3378731,-0.43569282,0.007595524
chr1-63247985-63248830,0.19949219,-0.17579038,-0.21707399,-0.18818805,0.19597416,0.24222974,-0.06848947,-0.29614592,0.13469616,0.078918196,-0.19673516,0.06304457,-0.2946676,-0.011314743,0.115685806,-0.18824098,0.46622956,0.0040205996
chr1-63251062-63252001,0.21768728,0.040047765,-0.24461217,-0.17111082,0.36631343,0.275411,0.021151913,-0.46359456,0.005810275,-0.17272794,-0.17130476,0.15852937,-0.023479315,0.09162383,0.03583679,-0.26320088,-0.25363708,0.016444912
chr1-63263287-63264199,0.056856025,-0.21240512,0.042740032,0.15552026,0.04359203,0.0035984798,0.02011814,-0.16523728,-0.15195395,-0.008376245,-0.07280294,0.013949522,-0.026700094,-0.0013717007,0.07708346,-0.037795626,-0.058608875,-0.003288151
chr1-63273156-63273980,-0.12707618,-0.02201058,0.27950922,-0.19509684,0.09815567,-0.03071377,-0.29958093,-0.15681055,0.21127772,0.065163985,0.26212552,-0.15471631,-0.43561745,0.3380975,-0.27229708,0.010127106,0.27882084,-0.013107751
chr1-65311041-65311924,-0.7967564,0.13833225,0.08838613,-0.5465198,0.24487664,-0.0039249714,0.19258466,0.5668733,0.14129592,-0.44747767,0.049271766,-0.066127956,0.14725354,-0.10101335,-0.049599264,0.04373311,-0.049135204,0.025095232
chr1-71652704-71653494,0.07660999,0.1880782,-0.083903395,0.41117728,-0.28595394,-0.2611201,0.14585128,-0.36827958,0.16751647,-0.03766512,-0.08413645,0.16886881,-0.045198325,-0.0153067615,0.0042262864,0.0644903,-0.42057687,-0.0008688129
chr1-74036558-74037458,-0.0077831997,-0.088832125,-0.17270823,0.5265517,-0.36129588,-0.14526072,-0.098073944,-0.19394629,0.29015562,0.16888894,0.17816989,-0.1040452,0.17772137,-0.075768545,-0.3705469,-0.107532345,0.18363857,-0.020474032
chr1-74098204-74099142,0.27333793,0.24493231,-0.17276268,0.29698128,-0.37080845,-0.43343708,-0.063218616,-0.03925939,0.12803863,-0.3464315,0.12194085,0.09455313,0.19902645,-0.0051107234,-0.28091073,0.0114561375,0.03814109,0.005282935
chr1-74124828-74125576,0.24841125,-0.21785553,0.1702677,0.40639898,-0.43885812,-0.30123582,0.25103438,0.30671087,-0.29208973,0.035255726,-0.34280452,0.18158068,-0.14207296,-0.011293882,-0.032766916,0.09666046,-0.50201523,-0.033013694
chr1-74713247-74714040,-0.2791248,0.050936498,-0.32438466,0.3914435,0.04994693,-0.333869,0.3803244,0.24847433,-0.315978,-0.0454085,0.059614938,0.07626128,-0.3407389,-0.117025,-0.1481296,0.22729841,0.10167767,-0.0047404384
chr1-74748514-74749379,-0.0011504936,-0.09451435,-0.13801864,-0.28331554,0.33041555,0.039953433,0.20338054,0.11551698,0.057567917,-0.10871939,-0.1038991,0.08977142,-0.27316323,0.32631132,-0.25638142,-0.036723062,-0.33589968,0.023117855
chr1-74772842-74773677,-0.0136025,0.16815135,0.14346501,-0.2388354,0.24976164,0.024162939,-0.30113852,-0.31523347,0.23001069,-0.073309,0.101202905,0.029182833,-0.36437446,-0.08392675,0.46532422,-0.17536299,0.60592127,-0.02749917
chr1-74783997-74784853,-0.10114989,-0.024896704,0.3390581,-0.32805768,0.14414212,0.10769767,-0.15354139,0.04188436,0.032451328,-0.009313756,0.13883732,-0.10972528,0.15092622,0.1206736,-0.117096126,-0.012625899,-0.15502155,-0.011956922
chr1-74802927-74803742,-0.50830704,0.0712731,0.41944045,-0.85425043,0.5089085,0.5348522,-0.34383002,-0.16350166,0.07682183,0.09166828,-0.3108676,-0.48069835,0.018939504,-0.08328585,-0.12130283,0.08282903,0.11714913,0.046905883
chr1-74807840-74808652,-0.34401926,0.060184732,0.44813663,-0.8234609,0.4546178,0.4194147,-0.6173329,0.059359726,0.10209822,-0.13783851,-0.090642124,-0.23857592,0.002742201,-0.11119762,0.20549083,-0.2158028,0.552327,-0.020702109
chr1-74854430-74855330,-0.45098674,-0.16046652,0.22010478,-0.4177298,0.66078126,0.39670622,-0.42813852,-0.26006794,0.20052932,-0.058925904,-0.06540186,-0.41331714,-0.30544233,0.07211867,0.2861455,-0.008209778,0.23106875,-0.0028286292
chr1-74900319-74901117,0.15016355,0.30718103,-0.06593246,-0.047185116,0.16832827,0.2488979,-0.105830885,-0.44054887,-0.057604324,-0.21181467,-0.41776574,0.057449482,-0.05657942,0.29998416,0.0062863505,-0.09400627,-0.5143044,-0.0020646714
chr1-74947736-74948444,-0.07877049,0.058759924,-0.30753458,0.2461689,0.0051770913,-0.006050169,0.057531234,-0.008184344,0.10157355,0.0155119505,-0.40388665,0.20720065,0.0010390239,-0.06402168,0.071743004,0.051570885,-0.13049798,0.0081133405
chr1-74953551-74954476,-0.23971337,0.09472129,-0.25491485,0.20376018,0.115707524,0.064545244,-0.14512782,0.22925763,0.0495148,-0.08535285,-0.38432425,-0.047605205,0.022349427,0.1120519,0.09820967,-0.1290559,-0.4888264,0.02504779
chr1-75317271-75318168,-0.3078718,-0.093411915,0.15508172,-0.32697996,0.42850208,0.34969488,-0.2800261,0.04782084,0.11492075,-0.08261387,0.14901775,-0.36041015,-0.16065677,-0.14209335,0.16426036,-0.14776602,0.58166736,-0.02211712
chr1-78189387-78190230,-0.24055302,0.19262584,0.04789967,-0.43453577,0.17755714,0.14665511,-0.24503551,-0.22328986,0.49840245,0.024676615,-0.24877784,-0.09563422,-0.14263733,0.07149237,-0.040232144,-0.06755553,0.16283053,0.0152212735
chr1-78192128-78193021,-0.27736825,-0.09627785,-0.39060503,0.11927201,0.35816965,-0.047095813,-0.023341594,0.108849995,-0.010669893,-0.07640285,-0.33064604,0.12943886,-0.06252322,0.3338561,-0.12860799,0.08343443,-0.0070091872,-0.011287739
chr1-78196641-78197491,-0.08577392,0.1712647,0.16151406,-0.45681366,0.20706536,0.1345564,-0.21913904,0.18313073,0.060314804,-0.030296912,-0.1459332,-0.18077546,0.06508832,0.09333755,-0.25120276,-0.15897758,-0.23472281,0.033384535
chr1-78212483-78213183,-0.23053958,0.38790134,0.07356191,0.076695204,0.06424145,0.19803426,0.063697465,-0.124581106,-0.3012698,-0.08655754,-0.2763507,0.0067361696,-0.0819529,0.038795423,0.055144496,-0.09664627,-0.57862186,0.058040563
chr1-78215706-78216548,0.033272427,0.36264938,-0.2299981,-0.039686974,0.30701104,0.35246328,-0.08786695,-0.4983688,0.0744793,-0.2036609,0.5577201,-0.2981952,-0.15542316,-0.058400773,-0.122148246,-0.13834189,0.055250727,-0.034234107
chr1-78310659-78311347,0.017188033,0.029824363,0.05681869,-0.34447736,0.4470529,0.06013485,-0.15848814,-0.13648011,-0.09600344,0.14049867,-0.10220609,0.10954611,-0.09141365,0.0087262,-0.040933974,-0.06824858,-0.29157618,0.00968935
chr1-78511478-78512308,0.21629162,-0.45606914,-0.2678491,0.30192626,0.40219104,-0.30640122,0.11070016,0.15982069,-0.16431338,0.1816124,-0.08791687,-0.0547202,-0.485601,-0.25861025,0.25895464,-0.09366216,-0.010862537,0.021406779
chr1-79671468-79672335,0.23071164,0.29915336,-0.1294281,-0.40924484,0.30559927,-0.18483907,-0.0653218,-0.032155197,-0.24423307,-0.09686379,0.473832,-0.0256035,-0.23310706,0.07289465,-0.014008736,0.010718826,0.05163217,0.007878528
chr1-86017950-86018799,-0.724571,0.017658962,0.07801141,-0.80860794,-0.00041364247,0.008479263,0.3903481,0.37346166,0.35971105,0.03960816,-0.26895288,-0.21303545,0.07834772,0.0044116024,0.09683607,0.034691427,0.084857754,0.013363194
chr1-86303182-86304021,-0.19269186,-0.22353886,0.3367228,-0.6568451,0.29960266,-0.14000486,-0.0391418,0.36867434,-0.21000634,0.12906435,0.13588692,-0.10135428,-0.24052586,0.3134731,0.30980277,-0.3578351,-0.25201532,0.013151125
chr1-86669326-86670090,-0.6293566,0.20508853,0.30784747,-1.1241024,0.36124894,0.22674502,-0.019873697,0.32764253,-0.011833538,0.097751446,0.3113721,-0.20736974,-0.05380609,0.078178056,0.09960852,-0.40288466,-0.3252217,0.03429791
chr1-87098443-87099294,0.15520868,-0.1954405,0.3812889,0.32873,-0.28119522,0.047372032,0.02378404,-0.5499458,0.15905485,-0.060903527,-0.23737594,-0.070133545,-0.27006194,0.15218182,0.0951787,0.15881321,0.011523383,-0.022035442
chr1-87184685-87185435,-0.22406799,-0.35206047,-0.026899215,-0.09490159,-0.062871195,0.22328638,0.37300166,0.2524132,-0.043250088,0.010037555,0.016629707,-0.13276531,-0.034930166,-0.07672816,-0.04179971,0.04515698,0.16997537,0.0029060272
chr1-87186715-87187437,0.122343116,-0.23121063,-0.017174363,0.0846586,0.1866708,0.16920725,0.28996438,-0.13859716,-0.13452698,0.051363625,-0.23489189,-0.00579881,-0.1219531,0.0046776994,0.0440718,-0.13010569,-0.3469129,-0.002437919
chr1-87264131-87265018,0.17059721,0.13713996,-0.28544614,-0.3696181,-0.025810832,-0.1182709,-0.02556131,0.41015205,-0.074529484,0.013220199,-0.10560803,0.048571877,-0.22872995,0.018813476,0.0154805565,0.037851803,0.08513532,0.0035701417
chr1-88277152-88278018,-0.111838095,-0.34660476,-0.20455529,0.20576581,-0.29510194,-0.18541217,0.22104533,0.19519198,0.20167322,-0.0050698207,-0.14583391,0.156414,-0.027217342,0.15889488,0.04772591,-0.025205119,-0.2587273,-0.0063242856
chr1-89921538-89922465,0.15017283,-0.07695054,-0.19009943,0.027331363,0.12725583,0.13356528,0.08141439,0.045354027,-0.24094874,0.022349622,0.13314891,-0.05061153,-0.2999518,-0.10447982,-0.12491352,0.048255663,-0.36155194,0.0037671337
chr1-89926523-89927296,0.04916078,0.15378946,0.10216428,-0.2362321,0.28277248,0.15059333,-0.07259931,-0.25474167,-0.26254427,0.18169768,0.23379281,0.044110738,-0.082890496,-0.15386194,-0.26107392,-0.36248425,-0.091297016,0.038573902
chr1-89939982-89940735,-0.024671922,0.24115013,-0.3190745,-0.22253951,0.33154967,0.29518494,0.15450035,-0.30529502,-0.17411979,0.042454846,0.1627314,0.007753811,-0.24575005,-0.35137343,0.11338206,-0.17045917,-0.018620582,0.026258033
chr1-89941499-89942446,-0.198659,0.07488749,0.1329623,-0.35310042,0.1690328,-0.027998572,0.10149759,0.23110789,-0.18705878,-0.00710961,0.14473002,-0.23554641,-0.026713446,-0.07750849,0.263314,-0.19357471,0.25397646,0.0041790092
chr1-90914793-90915588,-0.26413518,0.015376413,0.17839116,0.33806285,-0.24369721,-0.32814357,0.15121564,-0.2849847,0.28279543,0.018569564,0.21059316,-0.091125235,-0.22930433,0.11090488,-0.25848752,-0.044185553,0.108507395,-0.01592055
chr1-91343706-91344547,-0.12709928,-0.056446824,0.2507914,0.23415272,0.03518887,-0.13370521,-0.24915104,-0.264466,-0.07378396,0.0030085735,-0.11752717,0.21074574,-0.1356779,0.019022468,-0.032914124,0.12232368,-0.21199997,-0.002589685
chr1-91600503-91601328,0.13557962,-0.34412304,-0.12974098,0.05299166,-0.5406097,0.19609605,0.59548795,0.2337404,-0.22375822,0.17136611,-0.24255022,0.3657616,-0.21857654,-0.11581027,-0.007881448,-0.08575443,-0.4491577,-0.024405988
chr1-91802445-91803095,-0.35628963,0.20485035,0.004299854,-0.39921215,0.08059941,0.116180874,0.22213782,0.18196064,-0.07886755,-0.17082968,-0.13338606,-0.05888533,0.063759625,0.017430322,-0.38087454,0.0302844,0.39733344,0.019902233
chr1-93235390-93236191,0.17417438,-0.2583708,-0.3866222,-0.06963743,-0.25553587,-0.26230764,0.6302419,0.3223715,-0.43091235,0.03027077,-0.17045215,0.029171793,0.09892484,-0.018655382,-0.1629979,0.11136223,-0.2548595,-0.0022732695
chr1-118627650-118628535,0.1929202,-0.104472026,0.1408711,0.14381517,-0.40889984,0.013238191,0.31278002,-0.16910514,-0.14543213,-0.056611683,0.15686119,-0.0033803082,0.062241513,0.095077544,-0.18147528,0.0071362876,-0.23433496,-0.013942579
chr1-119077271-119078100,0.058944426,0.11732612,0.052722834,0.45982033,-0.49237534,-0.08287607,0.051725402,-0.055762235,0.009221974,-0.2300264,-0.2298633,-0.14628388,-0.02753686,-0.24968028,0.37787765,0.08301408,0.4011555,-0.036387943
chr1-120006878-120007779,0.18141536,0.030067688,-0.22315006,0.27299175,-0.81877416,-0.042284723,0.29597875,-0.021413434,0.17437682,-0.06254867,-0.17284016,0.266827,0.03699394,-0.24380319,-0.2014253,0.19683681,-0.0130670415,0.00882818
chr1-120264770-120265693,-0.27886584,-0.04703312,0.007150582,-0.098453805,-0.60754526,-0.012776023,0.40494624,0.3135161,0.09954491,-0.14692345,-0.07188197,0.0960918,0.17938311,0.25998077,-0.13192005,0.15706016,-0.2427623,-0.04894692
chr1-120334252-120335098,0.110650405,0.12885313,-0.04666456,0.5632656,-0.55984116,-0.55915225,0.30055708,0.20338033,-0.22999711,0.027616993,-0.1804288,0.13556598,0.2059949,0.34689388,-0.44070578,-0.021920947,-0.25873232,-0.041230846
chr1-120338474-120339134,0.039090365,-0.04798665,-0.13344121,-0.104637265,-0.23565263,0.010702218,-0.14727257,0.27238163,0.3508933,-0.00869238,-0.030034991,-0.028470537,-0.08043125,0.051914684,-0.2614003,-0.02220715,0.27997744,-0.0012005423
chr1-120340269-120341072,0.13758202,0.04752019,0.14517191,-0.10033585,-0.14676867,-0.27863592,0.099647954,0.056848284,0.1642962,0.021796552,0.023495026,-0.16285758,0.17063768,-0.18142724,-0.11245032,0.13143593,0.14241612,-0.020620793
chr1-120466770-120467541,0.35671616,-0.1914888,0.11133747,0.08113108,-0.4434282,-0.106739186,0.51319337,0.08217038,-0.5832136,-0.35511172,0.0051886523,0.1265162,0.28066492,-0.2096982,-0.123683944,0.10936299,0.20854819,0.002809492
chr1-120583307-120584227,-0.071448185,0.16069001,-0.5307356,0.51765656,-0.28422767,0.0078046913,0.027064232,0.22494465,-0.002003109,-0.09358714,0.36555326,0.059488185,0.015864026,-0.2020071,-0.15234156,0.20113641,-0.48675054,-0.022703791
chr1-120619795-120620631,0.05458513,-0.047354843,0.045743,0.19516316,0.035666298,0.02396959,0.2746417,0.09876091,-0.39160782,0.0031069557,-0.18835483,-0.051959425,-0.18447779,-0.022142457,0.04924893,-0.1620346,-0.18890229,0.0028296625
chr1-121177592-121178296,-0.054407943,0.33760062,0.20992066,-0.32249758,0.38831216,-0.026222622,-0.18826988,-0.090926744,-0.37664002,-0.037770946,-0.13921477,0.12191769,0.14095002,-0.025800426,-0.264377,0.0040580686,-0.38500056,0.030830177
chr1-128590724-128591598,0.4159045,0.15245822,-0.66173047,-0.14208339,-0.6811795,-0.26200616,0.30757684,0.29832134,0.28156495,-0.18792121,0.093853675,0.3934078,0.18138236,-0.026308484,-0.3609577,-0.24041168,-0.023390215,0.035143666
chr1-130877822-130878735,-0.3044443,0.04502182,0.29857743,-0.51411676,0.055084813,-0.0007000127,0.16130346,0.17788325,-0.14258711,0.15381293,0.21098663,-0.17626685,0.0660353,-0.019808905,-0.20514698,-0.22632533,0.28527868,-0.0041232635
chr1-132067440-132068257,-0.6717281,-0.10012965,0.5425889,-1.369972,0.39177552,0.46823344,0.4902366,0.0709037,-0.2657255,0.21690086,0.044329632,-0.40307963,-0.2830721,-0.08466272,0.18197815,0.15333778,-0.51090044,0.059658114
chr1-132298507-132299366,-0.061023694,-0.5560861,0.35626245,-0.43726364,0.58995944,0.2849077,-0.5551187,-0.22220193,0.5131185,0.06286923,-0.094538696,-0.20057125,-0.020034252,0.022182377,-0.14053397,-0.18912143,0.20730418,-0.0042405794
chr1-134646271-134647092,0.025392435,0.13999268,0.20706877,-0.36393544,0.39418593,0.18654273,-0.1439223,0.01081929,-0.27703863,0.07287602,-0.42040536,-0.21729177,-0.24280961,-0.015727833,0.25174817,0.021784697,-0.37154853,0.0016844792
chr1-135687539-135688450,0.5950472,-0.15807052,-0.40502807,0.37684992,-0.68840194,-0.8781195,0.70310396,0.32456654,-0.17548841,-0.032037105,-0.25996938,0.3080025,0.15664232,-0.08206006,-0.29799828,-0.15864918,-0.47957823,0.03105657
chr1-135765855-135766776,-0.6368043,0.39918187,-0.49088958,-1.295526,0.13439277,-0.45328435,0.4406487,0.67092955,0.38694987,0.14783973,-0.20596568,-0.13925819,-0.04335023,0.24284935,-0.31453443,-0.3539165,0.22810976,-0.0094129555
chr1-135865285-135866196,-0.7355768,0.002594944,0.25305107,-0.12578996,-0.46195546,-0.27444834,0.515767,0.18459629,0.24098648,0.010252685,-0.093833394,-0.23851958,0.36183527,-0.07239481,0.0013823387,0.1050019,-0.034393217,0.0039908392
chr1-135918610-135919395,-0.26238984,0.05899,0.2163287,-0.0016151853,0.20299691,0.094971314,-0.10473677,0.052961677,-0.30572975,0.021501467,-0.03203079,0.008129151,0.11274996,0.050577812,0.051945336,-0.29094145,-0.039921448,-0.0029306174
chr1-136007438-136008188,0.09501444,0.2906632,0.010331709,0.13996851,0.016424028,-0.123012625,0.22859126,-0.3813398,-0.2956824,0.16102748,-0.0029914926,-0.15035278,-0.07124441,-0.087545715,0.24277714,-0.042337578,-0.16024394,-0.028557872
chr1-136259820-136260694,-0.6126368,-0.17395459,0.5251026,-0.963336,0.6939638,0.37561283,-0.7616735,-0.14693034,0.60102487,-0.009032592,0.051057875,-0.031969186,-0.008999125,-0.2732333,0.12096163,-0.13742416,0.2793248,-0.103805974
chr1-136945471-136946379,0.020273784,0.02855478,0.23691283,-0.24625994,0.042637486,-0.06669483,-0.16169088,-0.34863374,0.16260853,0.06011065,-0.15198308,0.04293309,0.2367251,0.07737309,0.043769564,-0.2126528,-0.12027708,-0.00678187
chr1-136948616-136949514,0.0124136815,0.13660517,-0.13433605,0.02519922,0.09362609,0.05478981,-0.16833651,-0.07240311,0.04334836,0.01002268,-0.16242483,-0.060171604,0.07227453,0.004656421,-0.0114177475,-0.063548505,0.23492531,-0.0006985025
chr1-136952604-136953368,0.1564978,-0.094813086,-0.1594898,-0.03037493,0.2045343,0.32032865,0.20313193,-0.27857852,-0.13652767,-0.22495489,-0.2731432,0.065340735,0.035372503,0.17968325,0.02566433,0.013411955,0.03785647,-0.033889636
chr1-136955289-136956193,-0.098372355,-0.026692273,0.3176694,-0.012090273,-0.105872385,-0.13914779,0.20110713,-0.16292134,0.15509506,-0.25475636,-0.32407558,-0.20321909,0.11340994,0.3651337,-0.13612983,-0.23543003,0.38910463,-0.019604743
chr1-138832436-138833245,-0.12305942,0.33938798,-0.33990017,0.014325478,0.37944147,-0.3322361,-0.006491055,0.0323721,-0.22529323,-0.0105724605,-0.14288098,0.25061062,0.0015576448,0.11377818,-0.20147337,0.11826719,-0.24571484,-0.012235403
chr1-138838078-138838802,-0.19902141,-0.00016794592,0.29831257,-0.39630836,0.36854276,0.080749735,0.21513698,-0.34820905,0.017525768,-0.03048814,0.2957994,0.03619269,0.15976311,0.025383467,-0.14055648,-0.44043377,-0.2485311,-0.023204543
chr1-138841175-138842064,-0.24380963,0.11270318,0.47212696,-0.42066866,0.4223885,-0.011768272,-0.28521585,-0.19581312,-0.13333319,-0.0041137505,0.21794139,-0.24791612,-0.26594546,0.25526983,-0.16764309,0.047275826,0.15201564,-0.0031414106
chr1-138848387-138849213,-0.21917276,0.031480387,0.13617183,0.095356256,0.10623977,0.020658389,-0.16586243,-0.3228925,0.2716617,0.020906743,0.034137025,-0.2369685,-0.08804504,-0.037342746,0.099998385,0.1680779,0.09531071,-0.0022051244
chr1-150993003-150993795,0.08535849,-0.15211207,0.08983944,0.2632215,-0.26494515,-0.009362038,0.14028613,0.054550223,-0.11560488,-0.03366031,-0.12181991,-0.08649252,-0.103176974,0.11208514,-0.076865666,0.097215705,-0.53079736,-0.0013773809
chr1-151570885-151571747,0.11869163,0.10446705,0.18401891,-0.17732571,-0.04167829,0.12013946,0.2112477,0.19021219,-0.6571394,-0.18367687,0.10941172,-0.13176955,0.011122283,-0.05399204,0.108967684,-0.057040535,-0.23657821,0.018450847
chr1-152399644-152400543,-0.31139302,0.17551583,0.11349759,-1.5284704,0.05640992,0.107780896,0.75682694,0.47859862,-0.30781883,-0.26466385,0.14578019,0.16864467,-0.23713279,-0.0009878934,-0.3290896,-0.1157422,-0.03933922,-0.009316398
chr1-153185619-153186467,-0.067271024,-0.26206496,0.28647476,-0.18780966,0.5153683,0.27023622,-0.39930668,-0.19085945,-0.20269273,0.11536036,-0.20794812,0.044732112,-0.030750023,0.010515162,-0.2675947,-0.049592044,0.031708322,-0.00545503
chr1-153652705-153653628,-0.29926285,0.3614079,0.6409105,-0.24035859,0.14857313,0.36675224,-0.7522439,-0.59289813,0.3139201,-0.078411415,0.022074178,0.09909774,-0.17556451,0.12312411,-0.13985789,-0.2855407,0.24321839,-0.003196001
chr1-155737075-155738001,0.06669548,0.17877291,0.19941814,-0.2771448,0.28351983,-5.8378293e-05,-0.20795397,-0.007842485,0.0023960026,-0.1499561,-0.13086769,-0.13058218,-0.20413683,-0.051425442,-0.06788457,0.08831808,0.32715693,0.025552582
chr1-155740769-155741668,-0.00037999233,0.14158314,0.37482804,-0.10973709,0.109911226,0.09389038,0.041183196,-0.5576962,-0.13151251,0.12728186,0.233227,-0.28351623,-0.2794551,-0.1235948,0.23930743,-0.051770434,-0.35280856,-0.0059243105
chr1-155753274-155754097,-0.17211372,-0.3144951,0.15398169,0.37252763,-0.45487562,0.10840021,0.12885505,0.069537565,-0.12901202,-0.07242444,-0.044744544,-0.13494045,-0.0059149126,-0.03903872,-0.007555072,0.24405259,0.24719511,-0.0007415507
chr1-156204492-156205393,0.008252061,-0.13018845,0.04331046,0.23526192,0.35035664,0.09168428,-0.7126356,-0.20052876,0.34501603,-0.026561562,0.0038942753,0.003972182,-0.19785808,-0.040711477,0.086903915,-0.07314778,0.044213325,0.0022517228
chr1-156302757-156303662,-0.17688355,-0.23933819,0.22278748,-0.6385448,0.48046115,0.3251524,0.0305026,0.38464257,-0.44003037,-0.041974455,0.18981075,-0.15832338,-0.27678022,-0.08472669,0.09440043,0.011527185,0.0718497,0.003010976
chr1-156310503-156311364,-0.041196052,-0.10346037,-0.0036515025,-0.12620223,-0.1458905,0.026239544,0.03317986,0.09449457,0.2507358,0.04723344,-0.11226948,-0.38274518,0.042910237,-0.008700972,-0.064221635,0.18112944,0.0012000306,-0.0034767701
chr1-163311649-163312564,0.26122817,0.1873346,-0.22412476,-0.013674646,-0.6534929,-0.092192896,-0.15510572,0.20006676,0.17938599,-0.030310463,0.080716856,-0.016749974,-0.23165715,-0.045491822,-0.014889655,0.09746574,-0.035830576,0.03968825
chr1-164437811-164438732,0.58228886,0.30057755,-0.42511424,1.3345357,-0.87006944,-0.71487695,-0.3008959,-0.5517275,0.20812921,-0.16053171,-0.3504634,-0.09633685,0.358726,-0.0029182825,0.0009708602,-0.09796242,0.2754551,-0.15873589
chr1-165702345-165703188,0.18615437,-0.28831786,0.38293436,0.25502148,-0.11459232,-0.091046944,0.11765309,-0.25950027,0.14937814,0.0019631595,-0.07672576,-0.18377134,-0.07787036,0.021886365,-0.1799586,-0.14314999,-0.48182526,0.011983007
chr1-165817022-165817906,0.03849118,-0.1204506,0.009057503,0.07054797,-0.30283898,0.14353347,-0.039164416,-0.09750368,0.34288904,0.0023092313,-0.08329916,-0.13705081,0.09995025,0.11132171,0.1281342,0.012647076,-0.3131049,-0.017366147
chr1-165840537-165841440,0.22468968,-0.2826786,-0.119245,0.090714455,-0.12816869,0.15407208,-0.08229794,-0.11043857,0.28407305,-0.12642847,-0.32344627,0.060202017,-0.034426115,0.10500821,0.13834618,-0.020779064,0.11785213,-0.015227503
chr1-166160303-166161095,0.02591882,-0.2014771,0.12654749,0.016690653,-0.18795888,0.3310279,-0.20027564,-0.09890337,0.26707277,0.0042651915,0.24904849,-0.19472952,0.09625492,-0.01672874,0.17919585,-0.055760834,-0.27412078,-0.015080258
chr1-167660538-167661460,0.25429368,0.16267784,0.19921957,-0.15052363,0.079885356,-0.24282254,-0.3258671,-0.16859351,-0.09390191,0.110299304,-0.21437947,-0.041353468,-0.12478426,0.41618103,-0.062449418,-0.25283876,-0.16958725,-0.022032011
chr1-167672344-167673167,-0.12439261,0.34056327,-0.16260834,0.3870145,-0.044982933,-0.02653706,-0.015305044,-0.23306012,-0.20171878,-0.04897621,-0.29161444,-0.06157477,0.11197271,-0.05792161,0.15847743,0.14020456,0.1865339,0.005908485
chr1-167689325-167690012,-0.047019605,-0.18924883,0.22066344,-0.17008007,0.28831708,0.13499805,-0.25697002,0.15668091,-0.049641103,0.023719136,-0.1559274,-0.16111141,-0.4369166,-0.091566704,0.33945754,0.17176622,0.20954426,-0.010185416
chr1-170907504-170908379,0.15843421,0.0082086865,0.11166848,-0.18841377,0.16821915,0.051110536,0.22662157,0.26079,-0.7204653,-0.18161926,-0.10654251,0.12329354,-0.2343752,-0.15116484,-0.038066167,-0.12008149,-0.21359746,0.022322629
chr1-171064115-171065010,0.056031432,0.05288647,-0.17853251,-0.0590273,0.07417246,0.072696425,-0.300219,-0.008408426,0.31714955,0.19685666,-0.21608433,-0.3583303,-0.2605676,-0.03515079,-0.104007006,0.16531047,-0.25576013,0.0012990767
chr1-171065884-171066748,0.01192737,0.37877882,0.06650348,0.19102533,-0.018773329,-0.1903848,-0.07666056,-0.038381886,-0.29850635,0.010820968,0.01818687,0.020289252,-0.0006573973,-0.04671067,0.01594125,-0.14479616,-0.2032188,-0.014528438
chr1-171069292-171070201,0.12471178,0.0024274245,-0.04821532,0.030207604,-0.06897491,-0.004183638,-0.06881154,0.07547204,-0.13477458,-0.02073943,0.15097111,0.0046208566,0.040983316,0.0001011534,-0.11262224,-0.009432754,-0.14395528,0.0030543618
chr1-171070520-171071445,0.12887545,0.13540812,0.029277101,0.062015913,-0.21491553,-0.074263416,-0.004631166,0.07318445,-0.11502639,-0.00019404227,-0.13317138,-0.06078269,0.0693707,0.006029521,-0.13483216,0.031813066,-0.40370005,0.004377804
chr1-171074050-171074938,0.16931,0.18786004,-0.13573284,0.104596525,-0.17094254,-0.080732,-0.049144417,0.089264326,-0.039086603,-0.053125985,-0.0919449,-0.123122305,-0.12440867,0.039175745,-0.33242673,-0.2228603,0.51598054,0.0076241433
chr1-171195785-171196556,0.322957,-0.13217808,-0.007876244,0.5889373,0.24250503,0.30669987,-0.9654028,-0.3553053,-0.059379995,0.00926659,0.017962812,-0.21271214,-0.17272635,-0.035998076,0.10350366,0.09331319,0.2378698,-0.012740018
chr1-171437163-171438044,-0.06900098,-0.4433714,-0.0616109,0.12402108,0.16591783,-0.056750752,0.28688875,-0.051028755,0.049308922,-0.14610438,0.09748587,0.15050189,-0.03443343,0.07298181,-0.42904052,-0.01008214,0.19133206,0.015879665
chr1-171531116-171531987,-0.31724027,-0.36105147,-0.4376127,0.50157434,-0.68637073,-0.3552311,0.5068435,0.3878622,0.33626333,-0.044014744,-0.019967472,0.08857313,-0.049806923,0.10516417,0.020481715,0.09228675,-0.20761096,-0.047148176
chr1-171558812-171559709,-0.3568181,-0.19998254,-0.23011343,0.40990627,-0.59688824,-0.21855643,0.44490042,0.25154296,0.2458912,-0.30099696,0.018681668,0.07626075,-0.1475538,0.4237648,-0.29624113,-0.14061294,0.11048668,0.054913484
chr1-172053613-172054545,-0.47977352,0.14108576,0.012588637,-1.2926964,-0.00427802,0.051633596,0.37071043,0.34509808,0.24599451,-0.10190685,0.28225622,0.37688896,-0.31869188,0.040101964,-0.15096104,-0.37386197,0.521859,0.0010891254
chr1-172340637-172341504,-0.40910417,-0.24482693,0.1394771,0.14828022,-0.46558622,-0.6927494,0.43675634,0.5343418,-0.041412823,-0.010147242,-0.23983267,0.17744358,0.06914742,0.08394066,-0.07110515,-0.25916454,0.34478205,-0.028097944
chr1-172499724-172500595,0.2549349,-0.19151586,-0.10554948,0.16202483,-0.3895525,-0.08890457,0.3638207,-0.27026534,0.01654141,0.06971023,0.088899344,0.37008363,-0.1096945,0.06306711,-0.18617468,0.12292233,-0.5354662,-0.0135833705
chr1-172550158-172550998,-0.08224613,-0.24689972,0.113223255,0.08475639,-0.50732636,0.19457799,0.31470236,0.024259454,-0.045046285,0.14755355,-0.02253956,-0.046557337,-0.23907958,-0.0854597,0.35560685,-0.1809618,0.048125166,-0.032023713
chr1-175692401-175693298,-0.2778667,-0.31705764,0.26021674,-0.46150172,-0.03065206,0.26740807,0.28346857,0.32939383,0.14699432,-0.15415424,0.15946999,-0.13178548,-0.19100645,-0.18186577,-0.10976363,0.18021238,0.30915645,-0.009849647
chr1-176274957-176275777,0.36195573,-0.43514517,0.1828572,0.2316414,0.30067354,0.37350088,-0.9448392,-0.08014876,0.112494685,0.19310509,-0.28542227,0.1930456,-0.08892041,-0.017498082,0.36045536,-0.31006983,-0.17563781,-0.0388715
chr1-178530240-178531057,-0.33260182,-0.22219014,0.4602103,-0.3406393,0.6016426,0.3258965,-0.8802643,-0.14013799,0.10592817,-0.1474523,0.06341954,-0.25134858,-0.16463467,0.43749413,0.26170787,-0.13848387,-0.1311439,0.031704403
chr1-178917236-178918139,-0.0616579,-0.16045989,0.5234415,-0.7945043,0.20504883,0.24391302,-0.4291141,-0.25815862,0.48593763,0.13786165,0.059995115,-0.055182565,-0.011057355,-0.088021345,-0.16615015,0.062765785,-0.078217,-0.0123587465
chr1-180697788-180698584,0.11711776,-0.0139728235,-0.22481258,0.04632606,0.20656325,-0.031558372,0.026189437,-0.27322173,-0.032653786,0.013968292,0.03583205,-0.097143486,-0.008170442,0.0074064885,0.00012959196,-0.025139462,-0.102942094,-0.0025156557
chr1-180893150-180893819,-0.29318044,0.04440142,-0.08886428,-0.1171862,0.36876342,0.10575575,-0.0448572,-0.17203848,0.19958124,-0.010263019,-0.0939711,-0.17264341,-0.06641219,0.037109595,0.027657,-0.34702346,0.24278079,0.014343979
chr1-180894012-180894950,0.12943447,0.041091744,-0.26950714,0.030803315,-0.29204455,-0.16626112,0.30624932,0.17346613,0.046825524,0.019715952,-0.077439256,-0.025730047,0.15010272,-0.0134651875,-0.24142782,-0.15489134,-0.25927582,-0.0028895885
chr1-181888530-181889389,0.093526445,-0.77494454,-0.24174736,-0.27865523,-0.21731399,-0.41238576,0.5723039,0.5881104,0.45275158,-0.024452953,-0.028514024,-0.18728805,-0.4997263,-0.12345926,0.2608372,0.094924346,-0.16890833,-0.018098785
chr1-182982836-182983604,0.014471387,-0.34344086,0.1319884,0.4325785,-0.10639551,0.19312064,-0.4903836,0.26653293,-0.13648778,-0.047251385,-0.11700567,0.31890067,0.11199201,-0.25051525,0.07777629,-0.048127092,-0.1485634,-0.013548051
chr1-183298897-183299898,0.38366845,-0.06053869,-0.7378006,0.29120636,-1.1482309,-1.0131097,0.51970494,0.6650947,0.5699681,-0.016920853,0.4540898,0.65869063,-0.2877284,-0.8522777,0.56889385,0.28593022,-0.9146175,-0.1593459
chr1-184033913-184034796,-0.09931051,-0.42862478,-0.3139373,0.25518382,-0.48867863,-0.5644114,0.3850345,0.50985247,0.2210722,0.14165877,-0.3793042,0.06779549,0.074268445,0.17250642,-0.036157206,0.18803324,0.03864747,-0.05319246
chr1-184727262-184728174,0.16970032,0.30643708,0.06386052,0.1046674,0.116130695,0.111967295,-0.17808439,-0.33309218,0.093070544,-0.18089563,-0.051249836,0.17684364,-0.20510237,0.044375543,-0.112389825,-0.12971087,-0.2598353,-0.0022435286
chr1-184733960-184734854,-0.018382173,0.25832012,0.05021565,0.066901565,0.06010162,0.38373947,0.10851701,0.17691272,-0.68619746,-0.35198182,-0.14930786,-0.2185095,0.4137123,-0.33303493,0.39148518,0.040522754,-0.35635367,-0.008112986
chr1-184771339-184772251,0.12774408,-0.5339658,0.26636493,0.06340653,-0.091290414,0.07010996,0.22377373,-0.12635303,0.2874183,-0.044974044,0.042378135,0.22567692,-0.28500918,-0.07984435,0.26595432,-0.10541756,-0.2309595,-0.12562358
chr1-184882468-184883339,-0.22342537,-0.14101467,0.18851066,-1.1701602,0.20843737,0.32149488,0.4869526,0.3133253,-0.14730425,0.42867303,-0.06762503,-0.42586434,-0.40269333,-0.25478613,0.27746913,-0.024250247,-0.3392776,0.052940577
chr1-186833807-186834680,-0.16183698,0.5033235,0.10414164,-0.051084615,-0.10712007,-0.14164968,0.117328726,-0.15414,-0.048572455,0.031363573,-0.10653456,-0.06276137,0.016505864,-0.07910049,-0.18676078,-0.04192144,0.19645236,-0.0023534654
chr1-190168554-190169508,0.3367612,0.17626442,-0.5118689,-0.101974964,0.26067948,-0.48292673,0.20529044,0.12237553,-0.28381622,-0.08124139,-0.08519853,-0.2301811,0.38594812,0.0034793173,0.0021741586,-0.04294816,-0.04913179,0.010714013
chr1-190174616-190175486,0.10995706,0.022939695,-0.21940753,0.058175895,0.33578807,-0.3722416,-0.01860407,0.011428212,0.105275415,0.13151729,-0.6103811,-0.10375582,0.17660086,-0.16114789,-0.04979677,-0.086600594,0.09008949,0.00354887
chr1-190177510-190178398,0.09757806,0.36668023,0.25833127,0.02814956,-0.044340912,-0.34076598,0.15754186,-0.33190492,-0.26746032,0.015317803,0.04618483,-0.03244415,-0.33459705,0.037323214,-0.43269363,-0.039382607,-0.06759984,0.022859685
chr1-191182263-191182899,-0.4198963,0.26662982,-0.3509504,0.4457212,-0.07183662,0.10171096,0.19207773,-0.16879024,-0.064277396,-0.047758155,0.14757507,-0.08285224,-0.0932239,0.02039852,0.10170695,-0.06701713,0.12895271,-0.0049317833
chr1-195241234-195242138,0.3659385,0.01201071,-0.29589424,0.31058222,-1.1215312,-0.9992626,0.12928541,0.42237645,0.5176781,-0.2824829,0.0033819813,0.40430167,0.9076845,-1.1071213,-0.6789756,0.46725008,0.62968963,-1.0828043
chr10-4210184-4210952,0.15211666,0.10294232,-0.5055726,0.55214095,-0.63377404,0.094668046,0.26646593,-0.13131106,-0.030583361,-0.04478433,0.044966377,-0.07194871,0.04357953,-0.23678371,-0.16061437,0.17982762,-0.05748858,0.009614175
chr10-4266384-4267198,-0.5020229,0.11887831,-0.059675742,-0.23369437,-0.123204276,-0.10769483,0.2583019,0.7783302,-0.30852535,-0.17634214,-0.0043558604,0.016039997,0.044489536,-0.0012604196,0.0796063,0.31394175,-0.5360307,-0.019035919
chr10-4711899-4712851,-0.48010567,-0.15156786,0.38874376,-0.46528688,0.29171968,0.23237275,0.076697,0.07301447,-0.043172184,0.10654335,-0.07634256,-0.3673503,-0.34689307,0.08706493,0.37952903,-0.37067264,-0.31073985,0.061572134
chr10-7211111-7211870,-0.4254419,0.22399591,-0.54876614,1.1986551,-0.589798,-0.6301914,0.43817562,0.1389741,-0.2749767,-0.23219895,-0.1188838,-0.1796507,-0.010256325,0.14605401,0.055409145,-0.25277194,0.32223013,0.008223476
chr10-7491721-7492622,-0.1023812,-0.086734034,0.13843697,0.023463365,-0.48332095,0.01206317,0.040437426,0.14967251,0.17808898,-0.0078609,0.06736632,-0.29651263,-0.11499587,-0.021765647,-0.0011498829,0.13374512,0.6022752,-0.0037244582
chr10-7866996-7867675,-0.0100038955,-0.08921311,0.0061712274,-0.06323239,0.21240377,0.087239265,0.072816,0.14369068,-0.10682954,-0.04902679,0.083490245,-0.28750858,-0.13271572,0.096405834,0.18017504,-0.20429884,-0.36173338,0.0037890042
chr10-12941068-12941874,0.18351097,-0.1636428,-0.0075844387,-0.14419545,0.10729447,0.06156185,0.16526583,0.16578801,-0.22771876,0.046329744,-0.015724437,-0.027434161,0.13584739,-0.14940275,-0.27680153,-0.47256806,0.1798596,0.010739096
chr10-13060731-13061635,-0.027055804,-0.17715725,0.010549336,-0.059695926,0.06871949,-0.031127403,0.11104257,0.1536878,0.17703195,0.024533248,0.10176253,0.2525266,-0.005398785,-0.003708402,-0.3749359,-0.07598848,-0.018628284,-0.019045262
chr10-14759597-14760553,0.18973741,0.10441225,-0.021293018,0.05511114,-0.36476076,0.11186268,-0.105837636,-0.06686888,0.07469582,0.10357877,0.01824695,-0.030697124,0.3008899,-0.0031201388,-0.15761125,-0.102965586,-0.60700446,-0.0020367012
chr10-18844478-18845364,-0.014352784,0.21445067,0.08805661,-0.03751293,0.4611741,0.11785124,-0.30091196,-0.43641,-0.020897016,0.05858555,-0.085101075,-0.39289096,-0.12513064,0.11391995,-0.21091218,-0.011402602,0.10868506,0.022845007
chr10-19352484-19353369,-0.22339468,0.13049231,0.27985445,-0.27923632,0.1528373,-0.009673888,-0.2014722,-0.081453525,0.26060313,-0.038813416,-0.052583773,0.10675031,-0.13004915,0.22659777,-0.12036258,-0.20450495,0.3068059,-0.0049143033
chr10-19356644-19357478,0.03508899,0.2689919,0.030772379,-0.5051383,0.29056224,0.20438965,-0.044293094,-0.16944294,-0.27319378,0.031417843,0.17437428,-0.03842754,-0.14950635,0.1616962,-0.08996695,-0.17612147,-0.28064638,0.0043947035
chr10-19712136-19713044,-0.21560138,0.04962101,0.056236316,0.4978234,0.039858855,-0.23943901,-0.49642542,-0.25840682,0.36404678,-0.0657139,-0.022167314,-0.047616415,0.2120861,0.2714972,0.095998615,-0.0103407055,-0.18978275,-0.037384477
chr10-19848940-19849865,0.039973997,-0.0061565,0.25874317,0.31664327,0.12874447,0.010617566,-0.37195748,-0.53441054,0.3762539,0.13547434,-0.14064394,-0.28586277,-0.005597585,-0.063930854,0.09859075,-0.27668706,-0.20339757,0.0025691204
chr10-21158086-21158875,0.09236533,0.19290215,0.0650053,0.15816629,-0.077172235,-0.11377845,-0.10856212,-0.222412,-0.1821089,0.11802893,0.12464866,-0.09641738,0.30800515,-0.10968456,0.012993055,-0.10304379,-0.30735368,0.0050730975
chr10-21160832-21161742,0.08581555,0.1237217,0.01772401,0.42662328,0.30047935,0.09234985,-0.77546376,-0.43114117,0.2754421,-0.027053062,-0.40235597,0.27988726,-0.48523614,0.020998405,0.045905232,-0.02938364,0.32587746,-0.0037244996
chr10-22140595-22141423,-0.027032433,0.16364141,0.062515765,0.31457627,0.08613649,0.068449564,-0.21889493,-0.10625228,-0.041553,-0.07783281,-0.14948423,-0.17405467,-0.20722401,-0.021812685,-0.2182532,0.13610263,0.25477687,0.0034878978
chr10-22142232-22143145,0.39951384,-0.042798053,-0.6335674,0.40650025,-0.9024304,-0.75953853,0.50819564,0.61437327,0.16045932,-0.030651126,-0.38329276,0.60876787,-0.100561336,-0.06563473,0.035924915,0.19204928,-0.22447905,-0.1233584
chr10-22151325-22152197,-0.021197833,-0.11080153,0.058082435,-0.05410748,0.3105591,-0.009717702,0.118750244,-0.032317728,-0.19268812,-0.014793603,-0.05244329,-0.11272802,-0.17905414,-0.0005153648,0.107510634,0.04174754,0.074799486,-0.004323628
chr10-22153417-22154144,-0.16197747,-0.044222064,-0.09411845,-0.627058,0.23410027,0.2821095,-0.18835077,0.14249413,0.26641285,0.0075965305,-0.08973093,0.046153124,-0.08395763,0.16548896,0.27163327,-0.00787657,-0.19946273,-0.009354372
chr10-22157951-22158868,0.13425191,0.17302246,0.18610409,0.005859753,0.073998064,-0.17695045,0.008789395,-0.46377057,0.2868413,-0.51466805,0.20654288,-0.19352563,-0.12822013,0.71732646,0.04544034,-0.112996295,-0.08886874,-0.08812432
chr10-22159083-22160026,0.09314946,0.035213605,0.107083894,-0.2896812,0.09758696,-0.04159309,0.07758677,0.0982071,0.007892115,-0.046430092,0.010851298,-0.25391203,-0.24437512,0.47896683,-0.0986609,-0.010519838,-0.4052068,-0.013521199
chr10-22163307-22164014,-0.2361992,0.09752735,0.032887273,0.098148905,-0.17532803,-0.31940395,-0.015120982,0.31137767,0.16604447,-0.027169386,-0.08803768,0.09567864,0.22647557,0.019310055,-0.038987786,0.1197585,-0.46649826,-0.00988868
chr10-22273456-22274234,-0.051246572,0.19135259,-0.09769921,-0.10159288,0.014477281,-0.049617544,0.033358645,-0.08911278,0.16819519,0.15701422,-0.078940704,-0.31297326,0.19700311,-0.13736355,-0.34609058,0.008341925,0.61359847,-0.031219706
chr10-22281391-22282259,-0.2557182,0.12291184,-0.31982827,0.21779661,-0.52077335,0.08833617,-0.0072263028,0.05382141,0.44530994,-0.064184055,0.3311946,0.11250602,-0.032341037,-0.039668567,0.047019754,-0.16334277,0.18441059,-0.028881643
chr10-22282889-22283753,0.24563861,-0.04186888,-0.06839936,0.6121098,-0.6660045,-0.105474815,0.28011027,-0.2851292,-0.058527384,-0.08260625,0.31483877,0.19883847,0.2138031,-0.20411797,-0.23840538,-0.046717923,-0.095210664,-0.062093697
chr10-22813401-22814311,-0.01811395,0.09968372,0.015434615,-0.32297376,0.2338277,0.036830302,0.2015938,0.023749666,0.06219903,-0.07226471,0.023383878,-0.17570485,-0.52955866,-0.02712652,-0.091803856,0.25675017,0.15442213,-0.00036996324
chr10-22843129-22844003,-0.45057252,0.40063402,0.097681746,-0.45918044,0.24786364,0.3199352,-0.07141434,-0.05273332,0.2672424,-0.02406598,0.21793056,-0.18348554,-0.10579066,-0.26237684,-0.3619533,0.012561172,-0.015194797,-0.0033930717
chr10-23348916-23349799,-0.09152132,0.3392704,-0.3448497,0.014513363,-0.11331188,-0.17635524,0.21265453,0.035774626,0.04663664,-0.08765767,0.09806465,0.0753269,-0.29431003,0.07412624,-0.115249716,0.13065018,0.2682122,-0.023238227
chr10-23350083-23350794,0.036834896,-0.0639822,0.02642566,0.041541323,-0.026637714,0.017779201,0.12286725,0.29729715,-0.33311856,-0.0067315116,-0.19027014,-0.14833958,-0.13603948,-0.027486697,-0.3163747,0.028797867,0.38574296,0.0026042003
chr10-24223280-24224175,-0.28948268,0.21107292,0.040360034,-0.2945719,0.31930938,-0.08277939,0.18208331,0.15377256,-0.21263404,-0.042805154,-0.038464963,-0.3038696,-0.19258106,0.2458577,-0.0040059355,-0.051668584,0.06048412,0.0074387304
chr10-24595404-24596203,-0.50114053,0.05307098,0.19575968,-0.54873455,-0.33753577,0.16367154,0.4913458,0.28146648,0.0045863446,0.069286846,0.12317731,0.17958361,-0.18556102,-0.13438125,0.11304263,-0.25037116,-0.058845237,-0.013723791
chr10-28074430-28075254,-0.45961365,0.10738014,-0.07968687,-1.3203973,-0.043243084,-0.45446786,0.8215729,0.7779383,-0.5523515,0.037897557,0.25562876,-0.45459503,-0.31447577,-0.01449937,-0.3720011,0.12968054,-0.5606428,0.0455674
chr10-29532857-29533653,-0.72811455,0.49025086,0.41018918,-1.1903292,0.34492508,0.16102692,0.3179637,0.14070925,-0.45957556,-0.10177631,0.003996482,-0.1233051,0.16263744,0.015746513,0.21768703,-0.21574806,-0.04664077,-0.031724732
chr10-29535573-29536335,-0.5511879,-0.0299641,-0.08685782,-1.3463873,0.20011763,0.37783217,0.3544581,0.72679186,-0.23025501,0.07994431,-0.07949823,-0.037499763,0.1326228,-0.061166957,-0.11163523,-0.09736936,-0.4526732,0.06748451
chr10-30842453-30843292,-0.1625865,-0.10181292,0.23448962,-0.6863484,-0.2547277,-0.40769225,0.6559852,0.6353308,-0.43706024,-0.14335352,0.0696364,0.14214747,0.15515475,-0.47052893,-0.2306085,0.11362333,-0.5081893,-0.015628252
chr10-30844018-30844802,0.42685425,-0.024511779,0.035232306,-0.43561798,-0.1385572,0.13093923,0.044530403,0.13046372,-0.18468334,0.013697364,-0.20690835,-0.2033572,0.13400787,-0.04949799,0.08194322,-0.05324781,-0.09377475,-0.0007705167
chr10-39926423-39927259,0.2608205,-0.16087015,-0.05771602,0.1662667,-0.13331835,-0.23793973,0.34180328,0.003903178,-0.32567856,-0.045018062,0.14583905,0.1401972,-0.12400072,-0.024257455,0.1288533,-0.08192348,-0.13809879,-0.0027628038
chr10-41070439-41071193,0.6021785,0.040330995,-0.06780564,-0.46229488,0.08422916,0.11913106,0.16655745,-0.2708723,0.0002971228,0.05756374,-0.28214526,-0.046909545,0.04195521,-0.17333151,0.3082858,0.028736295,-0.15421268,-0.020352414
chr10-41071655-41072507,0.3888894,-0.14791466,0.58980817,-0.23960453,0.24732874,0.15322986,-0.078319676,-0.2496202,-0.5405769,-0.16480371,0.2380054,-0.048731077,-0.16285063,-0.08519571,-0.1319274,-0.23793286,0.17361559,0.03562133
chr10-41684428-41685305,-0.3374653,0.15971053,0.019804204,-0.00019351393,-0.17134295,0.022514574,0.083222404,-0.29996565,0.50166565,0.0040595704,-0.025109824,-0.071163215,0.1137276,0.025640031,-0.17414051,-0.11499495,0.10062445,-0.0070706545
chr10-42572199-42573150,-0.047511775,0.11468057,-0.26184514,0.112929866,-0.2917131,-0.5184482,0.24163896,0.05949019,0.24369264,0.32690024,-0.3284782,-0.04042302,0.11315377,-0.18357095,-0.073646866,-0.015407019,0.13186797,0.0018710662
chr10-42579575-42580509,-0.0412974,0.1785675,-0.07082422,0.34708768,-0.2117805,-0.0847561,-0.05883659,0.037099004,-0.08142007,-0.081375636,0.2973677,0.014384366,0.048458163,0.17901361,-0.1514476,-0.36068496,-0.53772324,0.016313517
chr10-42633672-42634402,-0.10606358,0.20389873,0.09716819,-0.001539819,-0.1282265,0.039667737,-0.34933424,0.02290275,0.3009799,-0.043060977,0.16731629,0.034068346,0.04530851,-0.114729114,-0.34035835,0.06444994,0.27866936,-0.010711731
chr10-42635265-42636047,0.057785947,-0.20821251,0.043981295,0.21081151,-0.2468738,0.005047179,0.042082045,-0.39913064,0.39702636,-0.054566998,0.11033757,-0.033425868,-0.3072334,0.3699271,-0.111211,0.031497393,-0.30285645,0.0013948809
chr10-42636890-42637773,0.2355359,0.02716899,-0.3473523,0.27573732,-0.40473223,-0.7438831,0.16143352,0.15301839,0.41606778,0.08107827,0.15732965,0.20809442,0.009186186,-0.31016997,0.015181626,0.08895386,-0.38620695,0.009669557
chr10-43579539-43580208,-0.13788348,0.16788214,-0.22206481,0.11229172,-0.2111608,0.16486502,-0.3943606,-0.034901924,0.37648124,0.18233594,0.08924698,-0.051134933,-0.12418411,0.09900618,0.22987477,0.11815815,-0.45680535,-0.03928553
chr10-44005691-44006471,-0.054821104,-0.1179786,-0.30799785,0.45548433,0.16825663,-0.053466603,0.032376464,-0.026156357,-0.2123551,0.024939463,0.051771127,0.022640266,-0.047180302,-0.08678944,-0.53681153,0.04115022,-0.048306476,0.01010676
chr10-44148588-44149437,0.26382524,-0.1457057,-0.05222626,0.48132443,-0.3232176,0.013958856,0.20277287,0.07641375,-0.30091453,-0.023565402,-0.10610979,0.07155889,-0.14754957,-0.12048634,-0.061051518,0.07902335,-0.23427737,-0.013063083
chr10-44458420-44459224,0.03248592,0.19668686,-0.00489754,0.03655505,-0.20151499,-0.24004447,0.18691985,-0.12228827,-0.10254847,-0.04722453,0.015409609,-0.10081522,-0.069036715,0.24445607,0.16720742,-0.10602904,-0.53092843,0.015970878
chr10-44526906-44527780,0.044439092,0.3345417,-0.051215973,0.29392007,0.22512665,0.050390203,0.09671742,-0.4031505,-0.5072484,0.014638747,-0.00090400944,0.019672876,0.22002502,-0.21718732,-0.21826017,-0.0839052,-0.12048086,0.01122459
chr10-44529090-44529986,-0.13165759,0.14143623,0.19638199,0.09408598,0.106343545,0.065359354,-0.088922404,-0.07354722,-0.2483905,0.044011384,-0.33195692,0.17541517,0.19215016,-0.06268366,-0.010559084,0.045936882,0.06286574,-0.019097723
chr10-45289118-45290040,-0.28508112,-0.15421246,-0.11796528,0.19334403,0.10499572,-0.016934222,0.23777835,0.009683016,-0.13379934,0.026882753,-0.052559517,-0.20886014,0.1279577,0.011232306,0.10002895,-0.118819594,-0.14413255,0.0230277
chr10-45334455-45335295,0.0075004683,-0.20286453,0.1465344,-0.30286604,0.20139194,0.39410013,-0.1831982,0.14599347,-0.2625146,0.052952085,-0.18779762,-0.06673001,-0.15923184,0.09649257,0.17041072,-0.24478793,0.11520917,0.0059005665
chr10-50890072-50890732,-0.024039138,-0.0671476,-0.3285641,0.04976218,0.24071147,0.025135191,-0.13889809,0.35356447,-0.08369318,0.01810259,-0.10816768,0.009396784,-0.12634921,-0.019824114,0.061666355,0.0049535944,0.21497399,-0.00039346557
chr10-50907096-50907959,-0.15540685,0.16268198,0.07639275,-0.1242783,-0.01423297,0.014552796,0.05951971,-0.020995189,-0.04631331,-0.11151372,0.25441694,-0.02209641,0.0039250595,0.06131326,0.23845729,-0.15780775,-0.16592601,-0.0014257525
chr10-50910659-50911394,-0.33166116,-0.05558291,-0.13386436,0.0017071096,0.3349266,0.25137046,0.11650338,-0.2673811,0.14573121,-0.04783669,0.037724458,-0.33877692,-0.072541006,-0.019207407,0.038108032,-0.10875411,0.0036752159,0.013646071
chr10-51589662-51590528,0.1985835,0.072213195,-0.08049884,0.22531568,-0.17356436,-0.31662345,0.11901182,-0.1452147,0.046817698,0.027378356,0.037935793,-0.1478798,-0.028919144,-0.18817379,-0.03745045,-0.10626035,0.46246147,-0.013562847
chr10-51677471-51678417,-0.14065175,0.12337508,-0.20515051,-0.31579775,0.12545684,-0.026764324,-0.009545333,0.23149441,0.19957577,-0.21313234,0.23477352,0.00051954144,0.08905178,-0.09710208,0.018453442,0.10266433,0.21148543,-0.021669157
chr10-52022290-52023164,0.0141720185,-0.12415812,0.17609832,0.022043012,0.007621095,0.0013206742,0.00021635278,0.086762555,-0.28280196,0.00872831,0.026079522,0.015719319,0.028371235,-0.0055723,-0.016779797,-0.110571094,0.003953223,-0.001402294
chr10-52027071-52027927,-0.14221501,-0.08216448,0.10109159,-0.2801313,-0.124915265,0.040168855,-0.21924342,0.2015617,0.34036162,-0.006100893,0.081307836,0.046668034,0.11133476,-0.015385243,-0.032290738,0.09221496,0.15971334,-0.010909924
chr10-57631791-57632613,-0.30054715,-0.43540546,-0.10612371,-0.7680306,0.39303148,-0.15959476,0.36431053,0.17363237,0.24940616,0.37366945,0.040823475,-0.13117371,-0.059771933,-0.004071872,-0.11462082,0.12947053,-0.298581,0.033256702
chr10-60346430-60347378,0.26399493,-0.074273266,-0.49576423,-0.08598104,0.120657496,-0.25382414,0.7251696,0.085544914,-0.415413,-0.29696056,-0.40555537,0.23417154,-0.02049771,-0.15468179,0.13530469,-0.15248212,-0.16631067,0.035510216
chr10-60429231-60430128,-0.066833,0.06620613,-0.29529664,-0.17109625,-0.25549427,0.038047094,0.1835796,0.14518042,0.1056883,-0.023313804,0.22367503,0.021177597,-0.10440715,0.040659536,0.16497244,-0.1093503,-0.13804018,-0.017492563
chr10-60592642-60593425,0.14742798,-0.02934252,0.1815347,0.11365633,0.09995612,0.18043151,-0.09259082,-0.06560522,-0.14747997,-0.09046096,0.0037884382,-0.059776727,-0.36460048,0.06202902,-0.058998585,0.18901703,-0.53838813,-0.00010326458
chr10-60594940-60595817,-0.21978767,-0.22328888,0.036017,0.004677318,0.28342128,0.3083467,-0.010960453,0.25579348,-0.17269048,-0.028725231,-0.053131834,-0.06530983,-0.032127414,-0.036631465,-0.31225687,0.09842738,-0.14519243,-0.005089971
chr10-60696715-60697579,0.1570232,0.24946438,-0.18588142,0.17396615,0.08103497,0.19846211,0.2664624,-0.032916643,-0.45104575,-0.047198243,-0.15289111,-0.16240984,0.25126275,-0.2668297,0.09343025,0.017172366,-0.43857867,-0.016359609
chr10-60831107-60831949,0.2297596,-0.32141167,-0.51784784,0.3369391,0.070226826,-0.30770344,0.2648286,0.21266453,-0.020614183,-0.3472982,-0.039682634,0.028917741,-0.11167275,0.1416271,0.3929626,-0.010978281,-0.25645345,-0.033627454
chr10-60834667-60835526,0.33380508,-0.35118377,-0.16905577,0.44955343,-0.3581002,-0.09743636,-0.008178116,-0.071491584,0.038762003,-0.041915476,0.12301975,-0.1859277,0.286793,-0.06298554,0.05833212,0.35582447,-0.31811365,-0.043921106
chr10-61051893-61052720,-0.1600312,-0.297321,-0.3319967,0.34349507,-0.2130086,-0.31877014,0.09989105,0.092728995,0.48053157,0.18114649,-0.27491242,-0.05751229,-0.13616498,-0.044122737,-0.049858425,0.0092375055,0.5609938,-0.052871883
chr10-61175646-61176529,-0.20620191,-0.23139866,0.15020151,-0.77870256,0.20144467,0.11155129,0.1716925,0.40992954,0.26715302,-0.13164048,0.22867493,-0.37253255,-0.0091984635,-0.11059866,-0.04874244,-0.15117422,0.3469179,-0.002175456
chr10-61272800-61273704,-0.03369862,0.1495425,0.13554835,-0.18652841,-0.120810576,-0.056840908,0.1853434,-0.014090117,-0.086912386,0.023267774,0.040486548,-0.34485897,0.12862268,0.046337336,-0.13989867,-0.13989152,0.19140992,0.00021176785
chr10-61418016-61418856,-0.06751694,0.2004994,-0.036251478,0.0023297407,0.18790583,-0.09731357,0.03335481,0.112239,0.13396075,-0.053517483,-0.15863942,-0.26290074,0.15312684,-0.0148663595,0.19176327,-0.11361559,-0.35336933,0.012087937
chr10-61625294-61626204,-0.1171617,-0.2688792,0.25373003,-0.2663575,0.5189523,0.09004929,-0.43614313,0.036374513,0.1271365,0.007310672,-0.08644374,-0.054966666,-0.22773731,0.0010147975,-0.0547901,-0.07231815,-0.021482192,0.007906327
chr10-61936844-61937709,-0.25396943,-0.065615535,0.011787217,0.08679922,-0.15415648,-0.15830253,0.09529792,0.08819815,0.16906334,-0.002438669,0.15116784,0.20518419,0.01296886,-0.04465504,0.10141869,-0.14788003,-0.3864786,0.0060304543
chr10-62128410-62129303,0.080043405,0.050682478,-0.067307994,0.07220218,-0.20120631,-0.21472162,0.13221939,0.11155306,0.15765564,0.004909367,-0.102311894,-0.20407578,0.10808957,-0.022282518,-0.0004542472,0.22117318,-0.19670884,1.3727695e-05
chr10-62230706-62231569,-0.10123656,-0.016444739,-0.16408738,-0.16504245,-0.15633959,-0.5737887,0.71497566,0.25278446,-0.20488252,0.0080313785,-0.063300565,-0.19768578,-0.08464376,0.005693063,0.004895485,0.03499048,-0.08641502,0.008327252
chr10-62886594-62887427,0.26325956,-0.16044256,-0.01799849,0.46869642,-0.69974643,-0.22046831,0.11500243,0.18508829,-0.05405508,0.19523668,0.0665521,-0.19896823,0.22539376,-0.046543255,-0.25335062,0.063321,-0.46094674,0.01950749
chr10-67538427-67539349,-0.07325133,0.2261902,0.17352235,-1.0720491,0.46843275,0.015873067,-0.73237413,-0.11064871,0.585319,0.016891547,-0.21074376,0.019866297,-0.17693566,0.15543069,0.12811631,-0.040668637,0.28237715,0.017490422
chr10-68723989-68724643,0.1898421,0.25737512,-0.28818566,0.47862956,-0.17550278,-0.0045606736,-0.06377663,-0.102085836,-0.08782617,-0.07144126,-0.1955916,0.06323455,0.122608095,-0.09883287,-0.07458477,-0.08903161,-0.11208743,-0.013553392
chr10-75780471-75781330,-0.2914394,0.31067407,0.115888394,0.043550003,-0.19853783,-0.014114595,0.30521116,0.092417374,-0.34547427,-0.10344919,-0.40506512,0.0156060625,0.278212,-0.08372229,-0.30067283,0.0637755,-0.08102481,0.021942537
chr10-77150453-77151375,-0.20477611,-0.54010415,0.22097975,0.42124128,-0.78435826,-0.22900438,0.15755874,0.19896553,0.3094744,0.046818137,0.08052543,0.042282023,0.10435696,-0.06573906,-0.116642155,0.18042137,0.3641316,-0.060438637
chr10-77165970-77166721,-0.027721127,0.061986487,-0.20621614,0.24298808,-0.43518353,0.08657376,0.06370783,0.086578555,0.1038547,-0.010032777,-0.12167748,-0.0938154,0.0923933,-0.088458225,-0.0622958,0.14888026,0.2356418,0.004318946
chr10-77677268-77678078,0.3823113,0.02134038,-0.10689493,0.1975914,-0.28683648,0.1821855,-0.041885443,0.04220687,-0.08103309,-0.11855195,-0.2540697,-0.01957778,-0.044941068,-0.14478979,0.0034440611,0.023613932,-0.060837694,-0.007905774
chr10-78069153-78070081,0.17991507,-0.2627872,0.14505537,0.16881454,-0.16235167,-0.05432016,0.18651536,-0.29505318,-0.011457346,0.067192346,-0.12076118,-0.17520681,-0.08911582,0.1284154,-0.24283072,0.034603175,0.2741918,-0.014496259
chr10-78481751-78482532,0.47332168,-0.6131301,-0.1815513,0.19059455,-0.19220133,0.15460113,0.13724178,0.48511806,-0.370368,0.0614295,0.14197716,-0.08575179,-0.2583444,0.029735828,-0.35514018,0.061839465,-0.14736432,-0.08216272
chr10-79921110-79922017,-0.46912798,-0.25192317,0.11181582,-0.0565108,0.3831486,0.47656992,-0.73214847,-0.12814902,0.28321263,-0.04329443,-0.0285094,-0.24735266,0.25348905,0.18927619,-0.15901811,0.11196654,0.071487635,-0.0081253555
chr10-80348136-80348931,0.3097061,-0.05466576,0.1220404,0.21928881,0.123231396,0.23326574,-0.3355205,-0.23566845,-0.20972726,0.13351001,-0.3350332,-0.17206942,-0.23966514,-0.22481081,0.19210728,0.19223808,-0.072202206,0.0133150015
chr10-80350062-80350916,-0.113372356,0.12991121,0.031245759,0.26002026,0.116193086,0.027235806,-0.37865353,-0.20407514,0.17354599,-0.13478142,0.09842889,0.12038412,0.1507895,-0.01964348,0.035296682,-0.17337078,0.022110086,-0.017884605
chr10-80471718-80472604,0.27747697,0.17397892,0.09370558,0.06805072,-0.07237137,-0.40087965,0.03804786,-0.31784958,0.03481297,-0.060670152,0.17016484,-0.023988033,-0.22477436,-0.14794146,0.10669427,-0.09464168,0.25762153,0.020706534
chr10-80505949-80506832,0.04215207,0.020012805,0.028940467,0.44721845,-0.053599168,-0.28575784,-0.09352555,0.11942394,0.02667095,-0.0023088332,-0.11091583,-0.16238979,-0.05003791,-0.027007457,-0.19404411,-0.034351412,0.12014065,0.003811981
chr10-80509167-80509999,0.011756469,0.1649166,-0.33398372,0.30472428,0.19302802,-0.26048005,0.03240812,-0.020551689,-0.026495151,-0.042289734,-0.013150732,0.31772834,-0.3797625,0.09984894,-0.42808434,-0.07558873,-0.06061793,0.014078748
chr10-81342919-81343825,0.07233291,0.20015265,-0.16218737,-0.072583884,0.41512844,0.14368612,0.2675593,-0.25395024,-0.17968729,-0.11695711,0.099061884,-0.15775798,-0.12148501,-0.055071857,0.026260966,-0.018559668,-0.15194733,-0.0042513753
chr10-81452333-81453248,0.04504146,0.29488286,-0.19128756,-0.07289935,0.08703379,0.012597048,-0.26484007,-0.061971344,0.061050836,0.005787372,-0.09613887,-0.06446139,-0.44622093,0.037281122,0.11339274,0.033525888,0.1487099,-1.1062366e-05
chr10-81571434-81572232,-0.3209651,-0.27729747,-0.12487161,-0.34538168,0.041419268,-0.3198203,0.62621397,0.40576625,0.041625172,0.27467084,0.29226992,-0.16360869,-0.12073595,0.10350305,-0.036440223,-0.3660917,-0.13335812,-0.07511487
chr10-85386369-85387170,0.46215576,-0.41656968,-0.22660017,0.15963405,-0.045464005,-0.0030008124,0.1437164,-0.060856927,-0.024852147,0.048573498,0.13399869,-0.03624119,-0.016196297,-0.36807907,-0.027349977,0.23559286,-0.50517875,-0.012437167
chr10-87494380-87495242,-0.36700433,-0.26852652,0.022029819,-0.26072603,-0.10100112,0.25630805,0.52285796,0.16700256,-0.5399132,0.050954495,-0.08142733,-0.2813836,-0.065747626,-0.05617264,0.37301317,0.2609509,-0.250318,0.011765309
chr10-87501239-87502014,0.16561916,0.0044099046,-0.09400213,-0.03403987,0.0024559905,0.1887624,0.45757163,-0.27902064,-0.5909803,-0.12641929,0.28978884,-0.1585701,0.011834488,0.17693916,-0.05188633,-0.30158108,-0.35997978,0.017012745
chr10-87860231-87861124,-0.42855102,-0.20204923,-0.058559537,0.04150658,-0.503766,-0.24135615,0.27921522,0.5000706,0.20716038,0.08624016,-0.1940726,0.10918678,0.0141241,-0.1488346,0.20114124,-0.28534988,0.43471515,-0.017901262
chr10-88885834-88886592,0.05536475,-0.2461173,-0.47413695,0.2770751,-0.0033186097,0.2043687,0.16676523,-0.32778564,0.21752004,-0.03830465,0.01427032,-0.075087816,0.020083327,-0.113655046,-0.13643633,0.25875834,0.1244271,-0.0072508636
chr10-89344416-89345388,-0.4646349,0.25298375,0.32430288,-1.0132794,0.3241184,0.39954624,0.056326214,-0.24609841,0.1234511,-0.15106295,0.16051076,-0.11432489,-0.085892014,0.29543167,0.0155397095,-0.09273867,-0.20510092,-0.019350596
chr10-93534154-93535002,0.010365311,-0.48334435,-0.19085006,0.08978347,-0.23909485,-0.10659826,0.08683882,0.27761012,0.3013128,0.021114318,-0.079844326,0.22760853,0.07286632,-0.006481298,-0.031878192,-0.081608824,-0.04962012,-0.011958318
chr10-93539742-93540503,0.33713695,-0.12489085,-0.12608631,-0.022129491,-0.2773028,-0.16181491,0.22306828,0.3224847,-0.14240825,-0.26549155,-0.14163713,0.086786,0.27313265,-0.09397272,0.26359653,0.029744465,-0.18924302,-0.046592634
chr10-93641780-93642526,0.5306415,-0.66458035,-0.058401987,-0.05897781,-0.43471107,0.1450846,0.19429758,0.3490499,-0.24323986,0.2191386,-0.14743066,-0.34289896,0.09814609,0.038094554,-0.4406489,-0.2119382,0.054843403,0.028608069
chr10-93833455-93834327,0.006976063,-0.15540169,0.20089722,-0.42594406,0.15497757,0.18144786,-0.050251875,0.24386801,-0.26116702,-0.014808743,0.0990105,-0.19110043,0.051872253,0.15266794,0.10507064,-0.08226763,-0.508693,-0.003404406
chr10-94311706-94312629,0.20632876,-0.51759183,-0.45466238,0.79443073,-0.04394346,-0.62749606,-0.16739,-0.069173485,0.50603473,0.14280912,0.2895162,0.15336062,-0.15802607,-0.09816955,-0.26130536,0.2074205,-0.45390093,-0.033610027
chr10-103028088-103028906,-0.014668542,0.038630083,-0.27652323,-0.15622196,0.11066202,0.21155165,-0.05406215,0.113559365,0.02806186,-0.017899068,-0.06838448,-0.10765949,-0.30796003,0.05609678,0.20672932,-0.0032124447,0.14002027,-0.00091721246
chr10-103034539-103035488,-0.12690626,0.20896342,-0.17655471,-0.07658966,-0.14117123,0.08217258,0.17259118,0.07003837,0.3396727,0.014681802,-0.36557475,-0.3894585,-0.2625436,-0.037267223,0.16256751,-0.1315128,0.25812984,0.05945716
chr10-109010511-109011392,-0.37504753,0.0054983073,0.56013125,-0.8534782,0.4220283,0.57337606,-0.7571039,-0.5695151,0.33106604,0.10267038,-0.15254758,-0.3368651,0.17782268,0.026540112,0.090209164,-0.1630358,0.41097084,-0.039699346
chr10-114800353-114801173,-0.62215716,-0.095420934,0.35134333,-1.2121036,0.5114637,0.50732917,0.35847417,0.32881373,-0.56456524,0.11034256,-0.02512488,-0.1871727,0.035660464,-0.07580989,0.087523006,-0.21304724,-0.3750256,0.008882643
chr10-115587044-115587960,0.025470935,-0.17944399,-0.23734613,0.19862628,0.22520217,0.07553179,-0.13784045,-0.06556296,0.10633407,0.0036559545,0.21564627,-0.26874265,0.09262779,-0.08620776,0.052159127,-0.12104076,-0.35851628,0.0064415024
chr10-116301439-116302235,0.017165707,0.04407087,-0.22284253,0.32801217,0.045707628,-0.28858793,0.005756352,0.15802383,-0.17238198,0.0048557823,-0.2251196,0.28681865,0.24986103,-0.24538133,-0.09456024,-0.06472079,0.0019973975,0.016956702
chr10-117628952-117629892,0.0024222918,-0.07282075,-0.17063858,-0.0388003,0.1546003,-0.20358978,-0.18996614,0.22118995,0.20374331,0.027612144,-0.18768863,-0.01899887,0.2838365,-0.074227616,-0.045862272,0.039656065,-0.07240436,-0.0020452156
chr10-120200975-120201832,0.22259909,0.3269704,0.024450107,0.033650324,-0.044179,-0.43397167,0.3436227,-0.10999949,-0.30972284,-0.094105594,-0.3509729,0.14532824,-0.103879996,-0.036587108,0.29659352,-0.22183761,0.14901684,-0.017968323
chr10-120272080-120272926,0.3293799,-0.11612538,0.16938512,0.2092635,-0.20710959,-0.11148549,-0.12763976,0.017624306,-0.106599584,0.043708734,0.062287215,0.0020113592,-0.10876919,-0.026839396,-0.34453642,0.025553344,-0.029870128,5.905051e-06
chr10-120354313-120355221,0.20420016,-0.25666532,0.11919202,0.5868707,-0.3593039,-0.027655391,-0.20540948,-0.097999156,-0.15286031,0.037280805,0.1997944,-0.06848025,-0.04780598,-0.08857581,0.026245328,0.08632729,0.21855596,-0.01148746
chr10-120377191-120378038,0.03200748,0.11539567,0.07092627,-0.47899318,0.3720254,0.24639313,-0.26174852,-0.08872873,0.11812725,-0.12102664,0.16859938,-0.12546806,0.095525794,-0.023062928,-0.12808548,0.527131,-0.43250072,-0.040457122
chr10-120421993-120422740,0.4067249,-0.17473291,-0.4497534,0.22134134,0.32732263,0.1664481,0.316469,-0.11214005,-0.6813309,-0.10886557,0.029119888,0.08422408,0.050136585,-0.17232855,-0.0023645803,-0.036364462,-0.09121835,-0.008457821
chr10-120428387-120429302,0.21976906,0.0056243464,-0.054231077,0.36422884,0.12551117,0.046494905,-0.059550837,-0.08501831,-0.3968551,-0.0040179384,-0.10361644,-0.19234988,-0.12408851,-0.037695706,-0.062740885,-0.11604612,0.27699918,0.008603459
chr10-120474663-120475436,0.05085393,0.009347486,-0.12920322,0.050133985,0.33517894,-0.11251339,-0.04284974,0.008582342,-0.16817819,0.034710925,-0.31659108,-0.33367264,0.16944014,0.0015839417,-0.24539328,-0.015384888,0.36598045,0.010067527
chr10-120552591-120553501,0.051280607,-0.18717574,-0.13670084,-0.22345214,0.35795486,0.01803316,-0.11358226,0.18077174,0.120085545,-0.03857618,-0.27267233,-0.2885941,-0.078828976,0.018946292,0.05784794,0.073402226,0.5074566,-0.0041502174
chr10-120564437-120565344,0.30641595,0.1535869,-0.20351323,-0.19649814,-0.11034859,-0.18682902,0.20989972,0.27319598,-0.4078603,-0.29867592,-0.33291057,0.10024419,0.14278284,-0.1733946,0.27079022,0.20917457,-0.21312098,0.0072858073
chr10-120606458-120607345,-0.029314095,0.032400798,0.21285543,0.23760524,-0.36015156,0.19217426,-0.052238677,-0.2307672,0.07764042,-0.01263451,0.13603292,0.31016254,-0.1822439,-0.088465795,-0.33329925,0.1230298,0.038590696,-0.02912322
chr10-120635719-120636624,-0.08873883,-0.000136086,0.07924375,-0.0018886253,-0.15094595,0.30373836,-0.0671357,0.028225174,-0.0008521226,0.07114167,-0.2756778,-0.029999305,-0.20136508,0.1411314,-0.35866368,0.18232556,-0.16924836,-0.025106108
chr10-120736062-120737022,-0.101465374,-0.22005467,0.32714713,0.03134145,0.23820603,0.24835077,0.01160872,-0.17501117,-0.16923785,-0.048359886,-0.32859036,-0.10867715,-0.069026254,-0.15456496,0.1090472,-0.1339454,0.37619936,-0.005239659
chr10-121033587-121034433,0.14186627,0.020847226,0.033691037,0.2221354,0.18219914,0.26532483,-0.099954344,-0.048890635,-0.42142555,-0.0508554,-0.095612496,-0.03311497,-0.15248272,0.13594957,-0.55810314,0.17400622,-0.5599947,-0.013138743
chr10-121205827-121206713,-0.26279426,0.26834697,0.23042649,-0.70101404,0.648276,0.36454928,-0.52083474,-0.16312319,-0.021029186,0.2399876,-0.44849616,-0.13174756,-0.13066652,-0.14380641,-0.08771275,-0.18740852,0.42252016,-0.013922196
chr10-121350588-121351408,0.011509451,0.2752667,-0.1151751,0.33267304,0.035396364,-0.071905784,0.07649875,-0.01373901,-0.5603422,-0.0145470025,-0.040175274,-0.0770717,0.12823369,-0.0053883516,0.021108268,0.09769458,-0.33352482,0.00045609556
chr10-125966069-125966814,0.3661558,-0.3939492,-0.13881858,0.11848189,-0.24194263,-0.5326551,0.112769656,0.12391114,0.24822839,-0.025830487,0.08814785,0.046425693,-0.117952265,-0.0025330493,-0.51262707,0.31420374,0.21675883,-0.01704562
chr10-127322022-127322955,-0.2344715,0.09531952,0.14878282,0.15188372,-0.12227661,-0.113946155,-0.045961343,0.28489122,-0.04552418,0.108177766,-0.417426,-0.01956108,0.33762848,-0.19763978,-0.038140032,0.10645959,-0.022530043,-0.08203205
chr10-127326012-127326945,-0.103664175,0.232881,0.1849024,-0.26863262,0.250799,-0.058175366,0.0048642526,-0.28010342,0.03342914,0.0037975565,0.026516901,-0.04393945,-0.179286,-0.012929773,0.1599285,0.0053174826,0.15301137,-0.004424269
chr10-127338616-127339521,-0.45225623,0.35296762,-0.19116175,-0.013538573,0.046314597,0.18573046,-0.06368749,0.31459925,-0.23809135,0.015024851,0.036416277,0.0031697517,-0.22296953,-0.20651886,-0.0054816767,-0.06977469,0.2156894,-0.006263311
chr10-127512608-127513438,0.0014489107,-0.13887069,0.26325193,-0.39714012,0.32274178,0.42581367,-0.57810867,-0.3521206,0.45522457,-0.2032197,0.08960003,-0.1271587,-0.24959219,0.0574866,-0.03637461,-0.082938105,0.40091208,0.0160036
chr10-128583437-128584255,0.377239,-0.08292458,-0.5077971,0.605536,-0.22849435,-0.68628365,0.11276828,0.1331742,0.1202529,0.061438933,-0.008183994,0.35710526,0.07771442,-0.29573882,-0.50283915,0.009914485,-0.51965076,0.0439301
chr10-128933441-128934078,-0.27563915,0.08729812,-0.2980341,0.29600465,0.021831023,-0.06687624,0.49368542,0.0573391,-0.044370256,0.10592408,-0.32862318,-0.055910543,-0.20438056,-0.19903076,-0.12931912,-0.07236611,0.04013168,0.003957115
chr11-3192833-3193751,0.17365757,0.12234309,-0.2776106,-0.25042367,-0.40995538,-0.48711616,0.097018026,0.30913112,0.18493044,0.032131992,0.20915692,0.18279114,-0.00975314,-0.08323077,0.18216465,0.23705031,-0.054477133,-0.05904234
chr11-3628786-3629690,-0.1646901,-0.29059085,0.3506158,0.38308147,0.112393685,0.205088,0.13884383,0.13639736,-0.48031396,-0.030364865,-0.078572795,0.047673773,-0.32121968,-0.17070572,-0.22181794,-0.18174665,-0.18195502,0.07988912
chr11-3998013-3998908,0.07488722,-0.49201196,-0.61426103,0.23134562,0.3777675,-0.4910837,0.4376715,0.35168108,-0.123085484,-0.10204092,-0.2918409,0.32313547,0.255506,-0.09349314,0.17642698,0.028683888,-0.49758357,-0.0032266271
chr11-4750068-4750929,-0.29273042,0.13205151,-0.08337817,-0.15265882,0.4745899,-0.09421226,-0.26550183,0.1666362,0.28038043,-0.054723836,0.061973333,0.09065666,-0.26310644,0.04070752,0.17336029,-0.21925044,0.0010007859,-0.0065360772
chr11-5151689-5152470,-0.32651454,0.111209355,0.38346022,-0.39862224,0.24214847,0.0045814333,0.36693215,0.24705301,-0.5065441,-0.056752402,-0.3007789,-0.31178477,-0.07007773,-0.17961499,-0.19267742,0.19228238,0.028340887,0.08780059
chr11-8663646-8664586,0.35090086,-0.35879824,-0.60649693,0.003005065,-0.48402932,-0.58022994,0.39458957,0.39620993,0.39003313,0.008975487,0.06801086,0.08844391,-0.089269266,0.11442289,0.125215,-0.48283213,0.038617764,0.021988519
chr11-9048275-9049072,-0.14831896,-0.20782818,0.21779157,0.041937605,-0.34917298,-0.0285624,0.18769825,0.06800655,0.084359765,0.08634587,-0.071468905,0.072473675,-0.18900387,-0.113838084,0.11665577,-0.14341648,-0.10704963,0.0022474194
chr11-9115505-9116399,0.06371272,0.07817296,-0.14671247,0.109385274,-0.45291063,-0.14121072,0.19058043,-0.032031126,0.12871094,0.04320061,0.22545868,0.123913564,-0.22421078,-0.037683584,-0.11488657,0.011020763,-0.32234553,-0.003515195
chr11-9117141-9118092,0.064372346,0.2712364,-0.2512929,0.1799322,-0.5810746,-0.23304595,0.31304064,0.3578222,-0.16217205,-0.022730965,-0.08002604,-0.044467807,0.022986708,0.09487648,-0.3003318,-0.11329504,-0.014690272,-0.0046146577
chr11-11113756-11114511,-0.29581815,-0.17720348,-0.32221273,0.008982886,0.1223514,0.1812016,0.2793572,0.25781167,0.04528679,-0.013942713,0.2753707,-0.11961736,-0.18394536,0.08556227,-0.19925296,-0.22422458,-0.014904097,0.003098105
chr11-11115733-11116579,-0.15617435,-0.12893932,-0.26624528,0.156642,0.0806118,0.05613126,0.3383469,0.13188313,-0.21656117,-0.0063129617,-0.23527646,-0.15199271,-0.08422896,-0.008703491,0.18194097,-0.10952158,0.012462497,0.018713985
chr11-11685815-11686686,-0.022395384,0.22112109,-0.027761022,0.20980792,0.07622259,0.17125657,-0.26581052,-0.13295111,-0.12029521,0.0058728224,-0.079760425,-0.06392786,-0.10881469,0.018412465,0.04389599,-0.045580614,0.03735427,-0.0022442392
chr11-18871228-18872162,-0.27473843,0.015440727,0.27498958,-0.14125885,0.13044362,0.22678134,-0.380685,0.13437712,0.07096439,-0.08564419,-0.27225357,-0.054477166,0.09648958,0.17136902,-0.4054261,0.30745265,0.08726385,-0.02183849
chr11-19026718-19027499,0.046663176,0.15303513,-0.044593308,0.08221787,0.24227777,-0.37366804,-0.19953598,-0.18138555,0.16453621,-0.11000502,0.038081046,0.13128775,-0.091021255,0.09689743,-0.3156056,0.19519952,-0.34706292,-0.0016950909
chr11-21992817-21993527,-0.06215182,0.06711956,-0.07223603,-0.6765765,0.45612833,0.12755913,-0.005127598,0.3865013,-0.17405789,-0.0622665,0.0120088635,-0.22953539,0.02244035,0.08629666,-0.22277349,0.0031129085,-0.25393784,0.016848858
chr11-22004158-22005017,-0.5653465,0.14302565,0.004528646,-0.3384677,-0.14778365,0.16752009,0.2021493,0.25819305,0.18646924,0.14591296,-0.47073457,0.3645755,-0.43893614,-0.037369713,-0.08539015,0.040520396,0.320133,-0.025658812
chr11-33122318-33123217,-0.15890716,-0.34126702,0.17242466,-0.18314919,-0.04253903,0.25757763,-0.049734395,0.546672,-0.5849346,0.03460385,0.035993967,-0.0030293798,0.102922864,-0.092946135,-0.08846091,0.065461434,-0.19258699,0.002670535
chr11-33176282-33177191,0.14077638,-0.004730951,0.32052192,-0.08271603,-0.085390575,-0.18868917,-0.039289284,0.11345588,-0.2123157,0.04912124,-0.15779698,-0.020593543,0.10202297,0.030267112,-0.14559938,-0.029960211,-0.35376045,-0.002341583
chr11-33180652-33181478,0.3067133,-0.0720334,-0.14999485,0.3198643,-0.13445507,-0.27355155,-0.22610612,-0.026446411,0.16846077,0.038353868,0.0094789555,-0.113346085,0.036576062,-0.02755948,0.11656079,0.04787453,-0.16390012,0.0017260131
chr11-33193305-33193934,-0.016020317,0.14517634,0.09444078,-0.029600807,0.06319735,-0.33719724,-0.09795944,-0.22178909,0.33612183,-0.027278842,-0.07023612,0.102968186,0.384199,-0.17256835,-0.08878133,0.1495019,-0.1534998,-0.0059762285
chr11-33207886-33208772,0.0028954179,-0.06782023,-0.26294518,0.32646263,-0.20725948,0.22978716,0.073186055,-0.21041967,0.14285526,0.07138792,0.1588387,-0.18751156,-0.12635915,-0.056944493,0.124236986,0.09872999,-0.36957383,-0.043141827
chr11-33843185-33843979,0.29339376,-0.72673035,0.25931194,-0.016624913,-0.103515856,0.27232236,-0.12833743,0.109386675,0.06807878,-0.4115359,-0.19849405,-0.13746886,0.37986687,0.37483683,0.02275283,0.035026763,-0.43800968,-0.045141894
chr11-33992722-33993663,0.21089785,-0.3408133,-0.5243949,0.16822962,-0.28987014,0.22261374,0.34642038,0.1666971,-0.26546663,-0.0065078526,-0.05710265,-0.05308592,-0.4069337,0.015572012,-0.040796414,0.27665722,-0.6009135,0.02863422
chr11-35120915-35121756,-0.49671996,0.047818407,0.2020144,-0.5505176,0.6297368,0.37965634,-0.7617051,-0.13891567,0.22597942,-0.06732502,-0.0767487,0.16814142,0.07968882,0.10738032,0.089042254,-0.18800975,-0.027976615,-0.0025674247
chr11-43766667-43767539,-0.39467573,0.18050875,0.10737692,-0.17578201,-0.12710156,0.004158034,0.4880071,-0.051054228,-0.1766637,-0.0061185225,0.25802305,-0.071938366,0.10908734,-0.11200693,-0.0065550804,0.22885664,-0.5524211,0.00209938
chr11-43775745-43776608,-0.38524067,0.07648254,0.27057266,-0.11478242,0.2093253,-0.026711173,0.16097534,0.036456782,-0.3158565,-0.024449985,-0.15954843,-0.3821879,0.055802565,0.13370992,-0.021808777,-0.23181611,0.29289016,0.007909014
chr11-43836067-43836866,-0.49842545,0.26330692,-0.14713378,-0.4336905,0.27032104,0.04692117,0.43660802,0.20316358,-0.09797043,0.007466378,-0.13221154,0.04904432,-0.03872345,-0.07125284,0.13665973,-0.28781417,-0.28914008,0.024856336
chr11-44610795-44611600,0.21255021,0.40673673,0.15964131,0.47922373,-0.049090315,-0.13953158,-0.46221888,-0.40749705,0.08349662,-0.2279359,-0.08654003,-0.07046913,0.19254118,0.024548784,-0.099063806,0.027980339,-0.3117433,-0.011109427
chr11-44613063-44613888,-0.008308629,0.12890019,0.009784425,-0.06911674,0.23040493,0.3589025,-0.3147835,-0.39406776,0.069354326,-0.10041668,-0.074382424,0.17710018,-0.18208769,0.0016679957,0.111469954,-0.0035611507,-0.3335205,0.015029209
chr11-44616619-44617418,-0.17653488,0.30942792,0.022801688,-0.14224145,0.29747486,0.19170341,-0.36399442,-0.21310882,0.14741756,-0.1404255,0.08080147,-0.07433661,0.313507,-0.1579436,0.13860963,0.35466608,-0.47340342,-0.031832412
chr11-44791185-44792134,0.2691917,0.5181707,0.09740125,-0.08273597,0.07159128,0.19457245,-0.64725846,-0.6379843,0.08427166,-0.002364933,-0.18257977,0.08375168,0.24088643,-0.07772212,0.05373922,-0.17266762,-0.16857047,-0.030101225
chr11-46165931-46166827,-0.36113,0.29094133,-0.7025573,-0.0034363866,0.008663631,-0.41412634,0.32745585,0.49858603,0.09905719,-0.007018785,0.18467452,-0.30128995,0.097971074,0.005791435,0.1297375,-0.14662766,-0.1841191,-0.038387056
chr11-49169012-49169793,-0.36953154,0.14598188,-0.028675439,-0.21322829,-0.17024326,-0.13833848,0.35205418,0.26956508,0.023158971,0.023232039,-0.31692913,-0.11152349,-0.19785377,0.22707987,-0.3864951,-0.14717709,0.34078026,0.009584526
chr11-49609491-49610383,0.2883262,0.23868667,0.061002873,-0.3111536,-0.0027495453,0.1928115,-0.11458803,-0.42008507,-0.026088627,0.079505116,0.17148629,0.058202516,-0.026774924,-0.173842,-0.07428787,0.2668179,-0.46182817,-0.0007305659
chr11-49613361-49614223,0.085366875,0.16928984,-0.4061951,0.15682977,-0.26033777,0.108766146,0.06256752,-0.10734583,-0.014701765,0.050220136,0.11900724,-0.14319001,-0.012794838,-0.05063682,-0.087226056,-0.0824654,-0.39301413,0.006400213
chr11-49633652-49634469,0.07222272,-0.17891,-0.12593795,0.4409199,-0.1686894,-0.0073615704,0.29621035,-0.36152565,0.17024246,-0.093850516,0.14467928,-0.12532534,-0.034199353,-0.13505757,0.35554188,-0.09696163,-0.20723185,-0.017586812
chr11-49901401-49902258,-0.52345324,0.02566005,0.52462775,-0.38954425,0.46625838,0.3580757,-0.6398105,-0.20244128,0.2729874,-0.03859662,0.11904593,0.07106171,-0.2965956,0.07579068,0.059078366,-0.19364697,0.039121043,-0.029861066
chr11-50850779-50851565,0.19774514,0.31237796,-0.30455625,0.21183616,0.28786203,-0.17521024,-0.084036835,-0.029436013,-0.18844315,-0.053859483,0.08661193,-0.058735553,-0.21597025,-0.120044224,-0.051111933,-0.051762212,-0.0007857804,0.013198726
chr11-52167783-52168573,0.18766825,0.23181102,0.017427294,-0.069520935,0.207659,0.089022376,-0.06360023,-0.19688982,-0.31451523,0.054402824,0.21645017,-0.10719512,-0.111583285,-0.049999975,-0.15638465,-0.11216465,-0.1391064,0.008808885
chr11-52765690-52766467,0.086225376,0.3555087,0.19795826,-0.31481078,0.25285387,0.53851116,-0.5508924,-0.64729863,-0.14664057,0.02974216,0.21589136,-0.2527557,-0.057911616,-0.00034794785,0.20741175,-0.14374034,-0.078440085,0.007013961
chr11-54139821-54140725,0.44036713,0.015806345,-0.41637063,0.12158632,-0.890787,-0.6909214,0.41793537,0.46704158,0.040797833,-0.18433204,0.057904646,0.3519745,0.02717042,0.16331482,0.09895397,0.51552284,-0.7169656,-0.09460656
chr11-55314019-55314830,0.058603965,0.16449238,-0.5652046,0.20052569,-0.34333012,-0.32000867,0.3147324,0.10037549,0.16518496,0.021846358,0.026454104,0.083370164,-0.071085975,-0.06112208,0.060928386,0.043470234,-0.28905874,-0.004720752
chr11-55599987-55600741,0.21274939,0.13700871,-0.27576992,0.13654727,-0.047504634,-0.44119605,0.3059996,0.11928967,-0.15508512,-0.005582133,-0.27339795,0.050222687,-0.062069,-0.10355035,0.09939045,-0.20919815,0.1908949,0.01477319
chr11-55607472-55608219,0.20140973,0.01839964,0.05774476,0.073645875,0.011261594,-0.051806297,0.21345492,-0.05525166,-0.25570244,-0.060450234,-0.1450904,-0.029730374,-0.055134024,-0.0032530634,0.02154047,0.09203927,-0.31086206,0.0013888986
chr11-57290854-57291775,0.17158374,0.47357988,-0.65797615,0.39025342,-0.75413215,-0.5926698,0.42037004,0.4357328,-0.6148227,0.35236904,-0.014527476,0.06790562,-0.18097769,-0.080251805,-0.056950804,0.39260358,-0.514347,-0.013202397
chr11-57883250-57884143,0.23836502,-0.09461908,0.051740054,0.24439429,-0.20529796,-0.060613554,0.13187425,0.11766355,-0.30058882,0.03760918,-0.08853416,0.049282685,-0.33045736,0.006057575,0.28824025,-0.22180454,-0.05726414,-0.018438905
chr11-57934140-57934978,-0.09394111,-0.4381464,0.02614948,0.41006207,-0.07868893,0.27807596,0.17084813,-0.052043736,0.10401423,0.023177357,0.01883055,0.22366463,0.39770594,-0.15925558,-0.2996087,-0.19323751,-0.24148367,-0.0282192
chr11-58640250-58641188,0.019746058,0.0075754155,0.13002338,0.4039456,0.21268293,-0.21214151,-0.27340135,0.02168338,0.06100826,-0.04089489,-0.043806687,0.14348768,0.07801058,-0.08318225,0.027612211,-0.14388679,-0.5989988,0.008185121
chr11-59174618-59175491,0.09518799,0.049756575,-0.29464585,0.26733622,-0.23988213,-0.4795405,0.20269345,0.22490764,0.07575756,0.07873684,-0.18733722,0.009965215,-0.01643766,0.022797177,-0.0373944,0.043599892,0.16704158,-0.021164954
chr11-59263601-59264442,-0.007927611,-0.023782475,-0.30204716,0.35928524,-0.00096572534,-0.05821056,0.11971359,0.33198684,-0.22146061,-0.11534369,-0.11912766,0.17296016,0.10003082,-0.10612144,-0.15824547,0.095241785,-0.054236166,-0.0053792875
chr11-59293363-59294270,0.076885104,-0.37282303,-0.12340119,-0.0013939142,-0.013357874,-0.18729131,0.024858534,0.29227746,0.3309759,-0.2015048,-0.0706668,-0.19071367,0.07205373,0.5784918,-0.38981155,-0.1005136,-0.39246333,0.028728805
chr11-61174787-61175689,-0.12842529,-0.11511149,0.09831529,-0.48714852,0.25814277,0.1102837,0.18393771,-0.05834359,-0.025768043,0.056022406,-0.07735535,0.084897265,-0.048313025,0.00053210935,-0.042509165,-0.21935812,-0.15941302,0.029487748
chr11-61342353-61343083,-0.069241196,0.20292576,-0.14788792,0.07863802,0.19911832,-0.13397123,-0.0658727,0.092927024,-0.04454131,-0.0043123593,-0.08513828,-0.24761409,0.20980638,-0.003475964,0.19705518,-0.16130227,-0.48295802,0.015316736
chr11-61376821-61377468,-0.13966392,0.20818469,-0.286332,0.43199566,-0.018184261,-0.115568906,0.29369825,-0.2780694,0.0068344926,0.079754144,-0.23914923,0.123734884,-0.02364492,0.039801564,-0.13982655,-0.19061469,-0.42369968,-0.0012513533
chr11-62756538-62757423,-0.12239177,-0.3695604,0.18253219,0.027758434,-0.080842175,0.21774377,0.16474769,0.47899014,-0.5385727,-0.04773604,0.033693124,-0.118727334,-0.052191976,0.3127911,-0.24781145,-0.21751195,-0.2646004,0.017529234
chr11-63404467-63405315,-0.08065547,-0.10904079,-0.017546955,0.68598396,-0.66901964,-0.07238879,0.30587012,0.2764199,-0.263508,-0.047548298,-0.017466718,0.007153518,-0.329223,0.20661287,0.26887614,-0.0069639236,-0.54975563,-0.050686464
chr11-63463343-63464276,0.18298347,0.096914366,-0.047076896,0.2081013,-0.38177487,-0.16277702,0.021809723,-0.1520472,0.25578627,-0.008950503,0.1611169,0.16576836,-0.30345124,0.1140398,-0.04682036,-0.077821106,-0.07176299,-0.050240047
chr11-63914089-63914926,-0.4195213,0.4757841,-0.12912361,0.3323334,-0.0053740917,0.2676316,-0.14309669,-0.014507567,-0.4940721,-0.07574765,0.0074852747,-0.043702446,0.11433768,-0.079934984,-0.018401792,0.0958677,0.19026774,-0.012332329
chr11-63920248-63921161,-0.025404433,0.042916108,0.08980391,-0.09023976,-0.02129565,0.12752526,0.089024074,0.06925449,-0.3718629,-0.048909888,-0.10093822,0.026724279,-0.06135487,0.014638906,-0.07373104,-0.013977692,0.2563616,-0.005754535
chr11-63921910-63922734,-0.023946198,0.10529985,-0.016208477,-0.32424068,0.125572,0.1428227,0.25028926,0.33810872,-0.19217132,-0.015324426,-0.21863136,-0.078152746,0.16947019,-0.119023964,0.005878028,-0.24981529,0.003592259,-0.0058245044
chr11-63925046-63925897,0.09994774,-0.024987854,0.01909448,-0.12489228,0.10001895,0.19834548,0.03189277,-0.05735274,0.10461085,-0.01930633,-0.41769555,-0.043828323,-0.14047664,-0.013188799,-0.031949002,-0.13598983,0.34233475,0.008408671
chr11-64435282-64436081,0.054468453,0.27230564,-0.21548997,-0.021985,-0.013016219,-0.06559695,-0.061716285,0.01594702,-0.11401714,0.000481541,-0.11657935,-0.05063791,0.099236414,-0.0005628928,-0.009606298,0.04172962,-0.13348497,0.0038710188
chr11-65269753-65270597,-0.35677007,-0.28553042,0.10156087,0.1805271,-0.04569042,0.106974654,0.26604643,-0.18249588,0.20253384,0.04282291,0.1400647,-0.19867356,-0.14177917,-0.0872721,0.09700174,-0.29753032,0.04375445,0.00616501
chr11-68399907-68400709,0.19183595,-0.3185565,-0.34672442,0.61278874,0.29545626,0.06475508,-0.78047603,-0.20178244,0.32170925,0.26128405,0.12134458,-0.15465993,-0.03663332,0.15178668,-0.18269756,-0.20992997,0.2793455,-0.12049006
chr11-68431744-68432543,-0.1364724,0.040925283,0.002753416,0.5262634,0.16755731,-0.08619149,-0.3968366,-0.55220914,0.4703502,0.061823927,0.08497459,0.22834586,-0.042335406,-0.040748585,-0.08476947,-0.43246612,-0.18390028,-0.013816075
chr11-69156510-69157410,-0.23520163,0.32293656,-0.012851277,-0.46129292,0.06967247,0.19115373,-0.37172237,0.14045036,0.25861973,-0.032235984,-0.13313048,0.43649706,0.13542345,-0.18703444,0.06520371,0.030724417,0.3458805,-0.11853369
chr11-69196847-69197631,-0.28336033,-0.36461276,0.03905378,-0.14524025,0.10844994,-0.23768187,0.4835032,0.41957244,0.006324076,-0.016045144,0.2015244,-0.25916398,0.13345097,-0.103621006,-0.16206157,-0.110371,0.3749005,0.0009725343
chr11-69235233-69236184,-0.2707257,-0.4680396,0.16990153,-0.13265857,0.17604192,-0.018350847,0.018240683,0.16644542,0.107015334,0.17891847,-0.021750502,-0.0442977,-0.37313184,-0.072019175,-0.056643263,0.03183779,0.14680064,-5.911989e-05
chr11-69236446-69237212,-0.4269144,0.16872756,-0.006464772,-0.6787722,0.46288073,-0.17286772,0.36507285,0.0378067,0.123670705,0.020039558,0.3695964,-0.09195243,-0.37793761,-0.16683638,0.11276505,-0.076582596,0.34926546,-0.0502827
chr11-69948662-69949270,0.3162083,0.2709044,-0.03524098,0.22040492,-0.3271548,-0.079903506,-0.008068047,-0.30483615,-0.035875626,-0.12545922,-0.08620913,0.08842435,0.2433233,-0.049988702,-0.3749549,0.31405696,-0.2388385,0.008294561
chr11-69966495-69967092,-0.1213816,0.44828478,0.13913108,0.022470342,0.21051352,0.027851507,-0.14411739,-0.091863856,-0.33917534,-0.2185847,0.062694825,-0.20889838,0.051365476,0.0036723102,-0.048693907,-0.069822006,0.14759003,-0.019656427
chr11-70254582-70255367,0.20885846,0.37897536,-0.5439599,0.06700507,0.32580164,0.21425425,-0.16663323,-0.29731473,-0.06236602,-0.11261778,0.21860628,-0.19685888,-0.0677263,-0.09366925,-0.23153365,0.12107169,-0.19092318,-0.009584064
chr11-70321656-70322336,-0.16857669,0.08699201,-0.06565926,0.23616302,0.06633849,0.058998905,0.22166874,0.023515396,-0.29815292,-0.1446808,0.08592152,-0.09008136,0.10098355,-0.05199762,-0.17828202,0.14078316,0.1308058,-0.0041327933
chr11-70322466-70323073,0.09848486,0.06660306,-0.32273042,0.16607788,-0.16369669,-0.3251498,0.22070979,0.41844866,-0.19995424,-0.49084368,-0.23055047,0.02323486,0.14648385,-0.19364202,0.035478264,0.46531367,0.23929572,-0.025755681
chr11-72266400-72267170,0.22184634,-0.024319448,-0.02711634,-0.31814292,0.08568403,-0.084901415,0.27656084,0.06739498,-0.2336743,0.21686855,0.032375865,-0.10045197,-0.45029247,-0.15264182,-0.07765294,-0.25455382,-0.08016616,0.047838256
chr11-73160061-73160926,-0.2853521,-0.4672655,-0.03305525,0.2701402,0.09248856,0.33160368,0.23167671,-0.22399099,-0.16640125,0.02768325,-0.08558965,0.36652863,-0.36386994,0.08300586,-0.016855303,-0.2644001,-0.030512556,-0.0038186288
chr11-76621784-76622713,0.25001666,-0.45927858,0.16133606,-0.004534118,0.2709996,0.10932711,-0.40007207,-0.15073636,0.30478406,-0.007240603,-0.1717728,-0.2462472,-0.1579649,0.017776608,0.10159936,-0.022291074,0.23830864,-0.02858411
chr11-76672505-76673400,-0.24956894,-0.5660884,0.3164538,-0.6652986,0.48263606,0.49256948,-0.22756955,0.19101667,-0.4111986,-0.10263295,0.06914155,-0.16872784,0.031461947,0.4790108,-0.13162473,-0.4409762,0.353853,-0.020572953
chr11-78924792-78925696,-0.02917401,0.0538382,-0.09349873,0.05472827,0.19258264,0.01690895,-0.19797982,0.20858724,-0.09568115,-0.039397046,-0.16181865,-0.04614511,0.30389544,-0.04503972,-0.19946465,-0.12371315,0.29387477,0.008001272
chr11-78952531-78953346,0.07343599,-0.14861177,-0.1759042,0.36233202,-0.36132786,0.14432405,0.33441338,-0.0143977,-0.5362598,-0.018381616,0.064343624,-0.041932516,-0.119753055,0.07702449,0.07761711,-0.011351399,-0.1969588,-0.0033305427
chr11-80153780-80154535,0.23177966,0.048170604,-0.6971004,0.0044077784,0.2512665,0.022678118,0.09104387,0.3745314,-0.099937215,-0.040663507,-0.19800892,-0.22303584,-0.10443048,-0.0009355869,0.22590342,-0.07716595,-0.036563538,-0.00053259806
chr11-82933221-82934142,0.27104294,-0.12779714,-0.26449656,0.3694235,-0.27613348,0.1562241,0.2921869,-0.29798713,-0.087052636,0.046736296,-0.29073033,-0.07590012,0.069979414,-0.044307046,-0.13769133,-0.04289416,0.10348412,-0.018097375
chr11-82935841-82936643,0.2895319,-0.37373567,-0.018678445,0.39255264,-0.38216683,-0.15030436,0.1548315,0.134575,-0.15057163,0.15550847,0.02525013,0.32759157,0.073190376,-0.22505808,-0.31649154,0.12546667,-0.38004202,-0.028982736
chr11-82951976-82952758,-0.051912665,0.04407463,0.15295346,0.18638656,0.18525395,0.013747664,0.22690979,-0.6802409,-0.019998625,-0.13187777,0.1292904,-0.06353747,0.15732424,-0.03804201,0.109666646,-0.1167857,-0.2748165,0.0033121328
chr11-83442636-83443522,-0.037473813,-0.06672982,-0.20396063,0.18862295,0.16891408,0.020234687,0.27382693,-0.102006175,-0.4590416,-0.13852097,0.21444082,0.10762924,0.15432458,0.19569421,-0.020641264,-0.08567818,-0.44292122,-0.0108946785
chr11-83852777-83853681,0.11944316,0.1398066,-0.23391888,-0.42199033,0.35628796,0.10861417,-0.010952234,0.24482438,-0.21180399,0.04849034,0.16633877,-0.07738947,-0.084367715,-0.2141248,0.0041551264,0.20946011,-0.49740627,-0.0071151243
chr11-83855529-83856431,-0.08212122,-0.18119405,0.09322767,-0.12914744,0.37765095,0.17656137,0.12886158,0.047098678,-0.20062433,-0.05761559,-0.19035561,0.20130323,0.0147182485,-0.1520342,0.30203488,-0.038478587,-0.52509767,-0.0032850162
chr11-84513172-84514087,-0.07874545,0.34869435,0.008805807,0.18964237,0.082103595,-0.04384159,0.039364878,0.06644022,-0.61405486,-0.027068414,-0.2396611,-0.039131247,-0.09876574,-0.049012195,0.04941142,0.1661745,0.029437307,0.006064235
chr11-84562982-84563751,-0.3444472,-0.043045726,0.1850003,0.43858045,-0.06323056,-0.1065023,0.290652,0.32575166,-0.5006491,-0.07028743,0.06542254,0.13966851,0.081859864,-0.09103618,-0.01507115,-0.18887492,-0.52736485,0.008151989
chr11-84676408-84677336,0.24272053,-0.29613996,-0.0009548457,0.16220705,0.23366846,-0.27210426,-0.15046597,0.09141226,0.03816977,-0.047143094,-0.061628144,0.06384083,0.15618517,-0.06643957,0.12303043,0.067222536,-0.20431715,-0.012275372
chr11-84706422-84707334,0.15781197,0.043605674,-0.05194345,0.17186601,-0.13223979,0.13417512,0.22911982,-0.15814371,-0.3229091,-0.044977963,0.03502543,0.15368345,0.121698625,-0.25304264,-0.019450355,-0.3846608,-0.14133888,0.02000872
chr11-84723772-84724712,0.30048978,0.23978142,-0.19050361,0.2775774,0.11863336,-0.08837116,-0.055903293,-0.102144375,-0.30473357,0.016583845,-0.106023096,-0.111821376,0.4524633,-0.12834588,-0.2324192,-0.014338912,-0.23146716,-0.012945533
chr11-84764791-84765653,0.076012105,0.015770588,-0.03758803,-0.017836466,0.35793504,-0.027736353,0.22774754,-0.6574735,-0.10354877,0.09837564,-0.17374557,-0.34345087,0.3443902,0.25158074,-0.17334253,0.014728278,-0.13808107,-0.005154027
chr11-84780621-84781511,0.2826718,-0.4039822,-0.057479136,0.123163775,0.43619576,-0.30477178,-0.1579986,0.11270851,-0.37985334,0.07695428,0.13148202,-0.13682641,0.11203663,0.16187105,-0.11459397,-0.15516098,-0.5083272,0.012188172
chr11-85894758-85895619,-0.05891621,0.10662716,-0.26240396,0.031156193,0.21013986,-0.0044616815,0.03764761,0.10869928,-0.13919894,-0.016966872,0.024539279,0.043855704,0.027311765,-0.0075725666,-0.018666029,-0.020641863,-0.57463545,0.005433579
chr11-85899938-85900852,0.09104512,0.2836434,0.12614661,0.08277398,-0.47363347,-0.31615928,-0.11978692,0.18559717,0.008209341,-0.051495757,0.056729563,0.0358929,-0.041268926,0.14388934,0.022707356,0.06998449,-0.50951517,-0.031798765
chr11-88251972-88252848,0.22106743,-0.53086567,0.05638272,-0.1181905,-0.6716647,-0.2560842,0.63093954,0.5403039,-0.13196626,-0.12485564,-0.16238849,-0.2916972,-0.38452223,0.1633343,-0.09589208,0.07400212,0.08222491,-0.0035837062
chr11-88820930-88821791,0.41386443,0.16639847,-0.046980698,-0.07849158,-0.77371377,0.13055886,0.18209471,0.06698548,-0.12461286,0.0047196127,0.18762478,-0.01898221,0.09025023,-0.123360716,-0.21302009,-0.19325659,0.09891366,0.007424862
chr11-88968012-88968784,-0.20445424,-0.27079332,0.044741087,0.44178408,-0.61644137,-0.2164579,0.4133666,0.27993906,0.060505066,0.13365297,0.045758583,-0.1305812,0.10612011,-0.041877005,-0.16982332,-0.054675814,-0.36321503,0.0002956197
chr11-94392353-94393271,-0.16051869,-0.012431946,-0.042083014,-0.026745826,-0.02138829,0.23112077,0.41103792,-0.0045387843,-0.3327866,-0.14014323,0.08622494,0.16751179,-0.028144287,-0.11541822,0.14173873,0.1360637,-0.13111448,-0.023661336
chr11-94474028-94474924,-0.49362138,-0.051302068,0.62109965,-1.1567264,0.38793394,0.38883492,0.19779865,0.18645175,-0.26754206,-0.009489416,0.13600257,-0.18609652,-0.5963622,0.25613114,-0.11924042,-0.42994648,-0.11153934,0.16928132
chr11-94601885-94602742,-0.23442164,0.09374856,0.036851224,0.5879524,-0.65904033,-0.60800457,0.21116936,0.17356212,0.07458015,-0.10572761,-0.05786351,0.35531592,0.10125387,0.023471694,-0.09582729,0.19038464,-0.23266537,-0.02992316
chr11-95116712-95117632,-0.26467943,0.015019187,0.3209392,-0.04749167,0.0059247687,-0.16792142,0.2352616,0.2544744,-0.23676187,0.026622161,0.07895362,0.13285357,-0.08640857,-0.15828204,-0.26002,-0.21681495,0.260563,0.0037061572
chr11-95118239-95119164,0.06277785,-0.16863555,-0.35144264,0.37221837,0.1804895,-0.42796072,0.09680511,0.12022329,0.038552336,0.026792942,-0.20124352,-0.14883423,0.12591104,-0.11029171,-0.1843728,0.05331986,0.11900051,0.0030945349
chr11-95119879-95120814,-0.010414926,0.12777297,-0.15084834,-0.05871794,0.17153138,-0.24213572,-0.18596384,0.041340336,0.22598882,0.0028243377,0.030794272,-0.066188954,-0.09029851,0.005845802,-0.16181909,0.100549504,0.32311937,-0.0055133374
chr11-95145819-95146644,-0.190271,0.18920077,0.03910241,0.04722771,-0.0007057423,0.06015578,-0.0012460737,-0.18714899,0.28339764,-0.018377332,-0.1427353,-0.095886126,0.035858627,0.015383123,0.007275731,0.12866725,-0.23627649,0.001821862
chr11-95150142-95151080,0.022917736,0.079063974,0.10155408,-0.08435182,0.28183892,0.19088782,-0.31980795,-0.24656019,0.15777421,-0.17695752,0.048388172,-0.10058047,-0.49190855,0.13889334,-0.01594969,-0.4863455,0.49030676,0.0071049146
chr11-95231692-95232542,-0.32047606,-0.4235248,0.24711391,0.11584896,0.0668921,-0.015153114,0.5611711,0.09004037,-0.3318206,-0.1554469,0.24557558,-0.2946555,-0.035935864,0.001602485,-0.18412334,-0.23879899,0.08598773,0.024399001
chr11-95233627-95234527,-0.120283976,0.11607643,-0.43409118,0.034465067,-0.39077774,0.06251797,0.2409268,0.022929516,0.3244523,-0.013629393,0.0043923073,-0.3042957,0.08726149,0.005553252,-0.078795694,0.06245803,0.102494806,0.0054339394
chr11-95514140-95514941,-0.87910897,-0.32320955,0.06007824,-0.18376459,0.45120922,0.084238656,0.22130758,0.058450356,0.2593842,0.035289887,0.025590412,0.3925457,-0.07523348,-0.1608665,-0.1018618,-0.21741717,0.091830894,-0.010001294
chr11-95533522-95534376,-0.30813166,-0.12353255,-0.054089975,0.2599123,-0.022937246,-0.04597849,0.018728318,0.17619324,-0.051654592,-0.0130966855,-0.019873962,0.18741846,-0.40177122,-0.037132684,0.039569393,0.10398183,-0.12401872,-0.0028474457
chr11-95539734-95540674,-0.095668025,-0.3479027,0.04161523,0.2068693,-0.29015052,-0.065981306,0.06292039,0.127408,0.33166558,-0.19726656,0.22547352,-0.29080352,-0.113112025,-0.06190485,0.17715192,-0.00033490828,0.65713835,-0.0294481
chr11-95577700-95578474,-0.3227364,-0.11715511,0.18782102,-0.120531775,0.10434317,0.12798427,0.1628407,-0.11644694,0.13475417,-0.049501028,0.020966664,0.0009749902,0.02854585,-0.04451817,0.109342515,-0.06980259,0.4812613,-0.0024900914
chr11-95597409-95598127,-0.026245909,0.13386618,-0.21029821,-0.063991226,-0.10701668,0.26588306,-0.023535153,-0.07579243,-0.0116238175,0.008495397,-0.07650698,-0.08186014,0.0041343975,0.027512398,-0.055662364,0.07344397,-0.1393867,0.0052265124
chr11-95648650-95649525,-0.19877101,-0.37534806,0.12711228,0.015555225,0.10927697,0.0048963483,0.14270243,-0.040593714,0.37163764,0.16210201,-0.19594283,-0.42323852,0.22621667,0.0020061068,-0.057995882,0.28160468,-0.20264435,-0.11450693
chr11-95650658-95651609,0.04264028,-0.12716526,-0.18630166,0.46700454,-0.18142062,-0.12470889,-0.019696297,0.18372448,-0.17723438,-0.034839258,0.16791087,-0.0031711007,-0.27955633,-0.07352769,0.23083928,-0.09815229,0.19057147,0.0067339786
chr11-95823986-95824861,-0.4264108,0.20913114,-0.33775154,-0.010930752,0.4561491,0.25638413,0.23248956,0.2429992,-0.30495995,-0.21353723,0.18320622,0.17196402,-0.060535315,-0.1200359,-0.28380793,-0.16987227,-0.38946643,0.010263342
chr11-95914115-95915042,0.027838167,0.034654073,0.13083619,-0.26593545,0.08848493,-0.057662718,0.025946457,-0.15841536,0.122273214,0.017587943,-0.0032644062,0.019850532,0.07909597,0.010119826,-0.0004066132,-0.14544396,-0.20658408,0.0072926125
chr11-96124120-96125022,-0.08947543,0.15942372,0.073339395,0.28195977,0.040205285,-0.15648977,-0.4239051,-0.24887457,0.091452114,0.034772396,0.028214896,0.008030789,-0.14183882,0.09340085,-0.1581587,0.009472432,0.14063269,0.007455845
chr11-96133256-96134009,-0.25348562,0.28853324,0.09213339,0.19706726,-0.036629047,-0.18660244,0.07347373,-0.102909334,-0.1913771,0.01973512,0.07549507,0.17660421,-0.043531068,-0.16690333,-0.0353966,-0.0050829095,0.20877212,-0.040309396
chr11-96145371-96146236,-0.0034276461,0.024709253,0.0591486,0.6760314,0.04515827,-0.13294396,-0.106325835,-0.0770759,-0.1999102,-0.17595074,0.0032827442,0.056538753,-0.024526175,-0.11892091,0.12257444,-0.03431321,-0.25079477,0.009340767
chr11-96147168-96147985,-0.15022121,0.26717323,-0.3322352,-0.28423178,-0.118168265,-0.47162703,0.17125246,0.4909397,0.24602646,-0.049453367,0.19862643,0.24271628,-0.12410462,0.009779809,0.2205623,-0.2401443,-0.4862581,0.0076790857
chr11-96152943-96153740,-2.7358084e-05,0.13036197,0.16933952,-0.23502232,-0.3306532,-0.025506778,0.1772655,0.023324484,0.07312013,-0.068971075,0.331037,-0.028558196,0.101212986,-0.1431953,-0.09291967,-0.004788339,-0.16550475,-0.0131635275
chr11-96177481-96178293,0.09205592,0.2928243,-0.422168,-0.0035452321,0.42227426,0.03694307,-0.34893444,0.09679467,-0.22343354,0.055350203,-0.013556749,-0.17002584,0.069965616,0.02189408,-0.0135505535,-0.066914625,-0.50687224,-0.0024633475
chr11-96193719-96194539,-0.06466475,-0.034299776,-0.13124935,0.031108474,0.0590402,0.27728853,0.15077369,-0.0033440057,-0.3540216,-0.026214814,-0.059965998,0.09186511,-0.026697,-0.05754459,0.11981228,-0.04301587,0.05180497,0.0066224765
chr11-96203408-96204310,-0.2383989,-0.016225882,0.094064645,0.08169147,0.5943796,0.39018905,-0.17499714,-0.6460068,-0.064711414,-0.16456711,-0.101979434,0.09653344,0.2056841,-0.019031389,-0.026545003,-0.25194043,-0.09505544,-0.0061934744
chr11-96205987-96206886,0.2008579,0.14883225,0.2755801,0.26042515,0.03593939,0.3754583,-0.23608267,-0.60606736,0.028853094,-0.42046124,-0.29161382,0.36828753,-0.039090578,-0.27098414,-0.35652235,0.07118276,0.11022722,-0.013403626
chr11-96234656-96235586,0.08070478,0.15322141,0.051288445,0.45859402,-0.05771217,0.19688228,-0.33307445,-0.28234914,0.13927801,-0.25311393,-0.28247562,0.08475665,-0.12710692,-0.35751662,0.11863172,0.258175,-0.048558988,0.010506823
chr11-96264287-96264938,-0.087463036,-0.16938615,-0.49598157,0.16657203,0.08801051,-0.15067539,-0.017634321,0.005118535,0.44954655,-0.10258044,0.29590002,0.24243201,-0.2598818,-0.29488155,0.1117764,0.048229616,0.43300605,0.0025542583
chr11-96278546-96279379,0.17696011,0.26966795,-0.48000282,-0.06828954,0.08693017,-0.10535605,-0.040350877,-0.0066765924,0.11597625,0.021989293,0.3914639,-0.10755652,0.033994403,-0.08240378,-0.5035079,-0.01525728,-0.12507087,0.019619232
chr11-96294354-96295249,0.22134672,-0.052837048,-0.31736216,-0.7349994,0.3759668,0.1423479,-0.26677543,0.15871364,0.10047129,0.08339963,-0.3636167,0.16029796,0.048617452,0.09330071,0.17926055,-0.066120476,-0.49014968,-5.2220188e-05
chr11-96311294-96312137,-0.13091815,0.18634765,-0.15432943,-0.27949136,0.37138757,0.09451049,-0.113921806,-0.12708545,0.23379263,-0.2799847,0.11932588,-0.15977,-0.3734054,0.057874087,0.23374872,0.123370886,0.10664363,-0.008006685
chr11-96352726-96353499,-0.3623298,-0.16601901,0.36856997,-0.19297525,0.4287568,0.15527067,-0.21101518,-0.074545525,-0.09751486,-0.07739679,0.094916895,-0.013310934,-0.11909989,0.14103696,0.41905114,-0.23767228,-0.14452131,-0.0010735481
chr11-96365587-96366543,-0.14748314,0.10938518,-0.087466784,-0.2939161,0.17918788,0.20433016,-0.076626286,-0.00023382892,0.14289066,0.23874184,0.08882026,-0.12670803,-0.037908245,-0.19131523,0.08672051,-0.30589682,0.4199135,-0.026893005
chr11-96407453-96408261,-0.07730158,-0.014791541,0.12319246,-0.23897669,0.06512469,-0.0020872885,0.2569281,-0.21731912,-0.004189733,0.13761143,0.090305395,0.052136175,-0.087143004,-0.07310426,-0.13541512,-0.11980636,0.35060948,-0.003983436
chr11-96849832-96850574,-0.29203632,0.4670414,-0.18083788,0.43814182,-0.25220856,-0.11986761,0.26199356,-0.13297297,0.0412317,-0.031575963,-0.29397205,-0.03938905,-0.3530258,0.17340745,-0.22788547,-0.13053745,0.22723006,-0.018194444
chr11-97015731-97016576,-0.12465587,0.27069294,-0.058303878,0.2573291,0.22861125,0.13820311,0.013962151,-0.25013068,-0.34709516,-0.030752309,0.15542857,-0.14156874,0.28246084,-0.219284,0.1421673,-0.08901074,-0.46283394,0.016382366
