,Shared topic 1,Shared topic 3,Shared topic 5,Shared topic 6,Shared topic 7,Shared topic 8,Shared topic 9,ATAC private topic 3,ATAC private topic 4,ATAC private topic 10
95.06068721922534,-3.116972,6.5479503,2.263349,-5.0782747,-4.4300756,0.057798225,-0.69633037,3.2461822,-9.092913,-2.3676043
104.10721613216346,1.3161869,6.097995,2.7685993,0.19031706,-0.22253294,-0.76636213,0.25484052,4.0256805,0.56373423,1.0665971
114.0663487757167,1.6327865,6.1835947,2.1287258,-5.201519,-5.1292744,-0.43653002,-0.64579797,4.3147163,-13.018994,-3.0744278
126.02200299722656,6.6091747,5.035263,-2.261294,-4.5290613,-4.843603,0.42529723,-2.0048862,-4.413752,-12.308659,-3.4210987
138.05260963693527,1.8878002,2.8409352,1.0290344,-4.9383526,-5.0616846,-0.6609922,-0.9144345,5.1167636,-13.056463,-4.1235557
141.07147334429604,6.356636,5.3155212,-0.07349554,-4.997259,-5.2502337,-4.3059635,-2.8011584,3.2846594,-13.439794,-3.5670269
142.94804145265775,-0.33576268,4.9861364,1.3736047,-4.6767144,-4.5892935,0.44530976,0.14681536,3.89082,-8.158019,-2.2627418
146.16516858340012,3.5332117,6.075491,2.7372828,-5.0806913,-4.578265,-1.6145767,-0.96711683,3.2029622,-11.472769,-1.7689722
150.97673966710036,3.3995607,6.0880356,0.27945173,-4.805919,-4.9993167,0.07331074,-0.2126398,2.7985644,-11.6885395,-3.6437159
152.04718107340682,4.458678,3.8766806,-3.3090692,-4.2327476,-4.6848474,0.741673,0.38462642,-2.9140913,-11.419392,-2.838196
156.07691831543409,3.393828,1.4170911,-0.037383996,-4.037069,-3.9054303,0.63312453,-0.27314165,3.4487197,-6.1557164,-3.0411844
157.04607935405934,-1.6381611,2.9332433,0.7814091,-3.6167572,-2.7037337,-0.27251646,0.3094028,4.378688,-6.3004513,-3.1090963
158.04032672175362,8.20546,0.9235652,-1.9040911,-4.6088147,-4.4762645,-3.4364762,-2.8786445,-3.839764,-11.791765,-3.3909304
158.92214768140076,4.0063486,3.0978167,-3.0119088,-4.629486,-4.57051,1.1319305,0.6977723,-1.7390103,-11.34053,-3.0869076
159.16856324044997,-11.224741,6.514923,-3.672897,-4.292101,-4.2576346,2.1274025,0.81040597,-5.978855,-10.694825,-3.0285566
163.97769453157306,4.673702,6.135356,1.5126214,-4.840169,-5.0868516,-0.44366476,-0.6803032,2.1284242,-11.840851,-3.7540905
164.00826925149738,6.46411,4.6068425,-2.6353996,-4.0930533,-4.5569334,1.2342023,0.28448793,-5.239996,-10.975499,-3.1825027
164.93001813169528,-12.968256,1.6660123,-3.1124156,-4.451968,-4.010839,1.254358,0.7986517,1.8949172,-7.788703,-2.9757504
169.98583471858657,2.1357937,5.750993,2.1192243,-2.677021,-2.4532716,-0.2503422,0.2307879,4.225953,-3.2299373,-2.655782
181.06253357277816,4.385253,3.705383,-3.0484004,-4.1782546,-4.7512302,0.9652528,0.06638878,-1.9684031,-11.1769905,-3.6104915
185.95976571022555,5.151968,5.4603577,-2.8327851,-4.935994,-4.9434853,0.023641722,-0.020410972,-1.0044745,-12.922173,-3.6855962
188.17563513707617,3.291864,6.251706,1.8453149,-4.9603963,-5.325229,-0.27811417,-2.653494,3.1656404,-13.576507,-3.7098582
195.0419453058757,4.553368,5.063071,-2.5084345,-4.670417,-5.1020145,0.37279135,-0.4811428,1.4026828,-12.759129,-3.723356
195.06271277531698,-0.46101275,3.7444208,0.9479972,-3.7203944,-3.8881474,0.16096419,0.40172726,3.978108,-8.125684,-2.878408
197.05746415042407,4.0768046,3.9072351,-2.9683905,-4.5804086,-4.8664985,0.49517915,0.3026279,-1.8293617,-12.769249,-3.8323848
199.07325281002025,-2.5638444,2.615246,-2.2857118,-4.0775614,-4.433367,0.80019116,0.44016677,1.282386,-11.572293,-2.7191467
202.066501544518,8.597172,-1.3776804,-2.55609,-4.460324,-4.62783,-4.1200323,-2.8759968,-5.415059,-11.919815,-3.3990948
205.06005018215913,-11.515624,6.7856016,-4.4503527,-4.844243,-4.51883,0.56477416,0.95271647,0.97621036,-10.744423,-3.3677416
206.05539519878883,7.6844025,2.2194602,-2.5939233,-4.682463,-4.8536386,0.5118563,-1.1701752,-6.316721,-12.516685,-3.2642245
211.07315270468837,3.7270362,5.0929875,-2.3962772,-4.3950186,-4.7204595,0.49931154,0.24294381,-0.031334758,-11.444234,-3.983979
214.05565761455762,3.6920211,4.362523,-3.3559928,-4.2274036,-4.176329,0.5963637,0.3448879,-3.649149,-11.787582,-3.0230231
215.06810475732192,4.6801195,5.271515,-2.9773545,-4.6802716,-4.8794546,0.5931329,-0.011549853,-1.601552,-13.091242,-3.7065282
221.18619238088982,5.143608,6.006545,-2.7782726,-4.3174925,-4.4128695,-4.2482867,-2.2731035,-0.87587655,-11.694084,-2.871416
223.10945238689277,4.539866,3.3322911,-2.975921,-4.1163282,-4.601171,1.0303947,-0.85322404,-2.5492284,-11.948813,-2.9373403
227.06803885421309,4.5243855,4.0732183,-2.7843492,-4.635695,-5.049099,0.6330016,-0.26250517,-0.9671987,-12.797258,-3.6297135
233.02111811266192,3.3446646,4.9816136,-1.9065279,-4.6000156,-4.6471925,0.08077167,0.019074468,1.8599305,-10.822123,-3.1877747
241.0473618927395,5.067219,4.8120213,-3.2944145,-4.4094453,-4.7255917,0.8381007,-0.52264947,-2.5206497,-11.903949,-3.6506364
243.0829710976259,2.386578,4.272313,-1.301465,-3.9193091,-4.26369,0.1935796,0.15940702,1.941288,-11.12532,-2.9099116
243.09931152472012,3.4554186,5.683178,-0.75513726,-4.503855,-4.279452,0.19404568,-0.041681673,2.672428,-11.167191,-3.3569083
251.10447077523585,4.9876504,5.0766306,-2.9633121,-3.665831,-4.390706,0.38699886,-0.53804666,-2.0162563,-10.592455,-3.6784506
253.08364230631653,4.432269,4.921765,-2.6836927,-4.5465264,-4.8386164,0.55236125,-0.18465105,-0.51980686,-11.493061,-3.5400314
255.09915080142363,4.089272,5.335469,-1.5945933,-4.584625,-4.7454205,0.20988338,0.06919068,-0.15070379,-12.007859,-3.5060253
255.1356014347429,1.7527587,3.7074337,-2.9841337,-3.713654,-4.4936185,1.1319886,0.31744692,-0.46564054,-10.397873,-2.926556
261.05228436757915,4.8122535,3.2498362,-2.5401113,-4.256065,-4.2971153,0.42972502,0.031783212,-1.4741528,-11.077015,-3.067254
261.10966185035926,3.3711472,4.754827,-1.7220583,-3.8937185,-3.973474,0.35492826,-0.77699614,-0.44263506,-10.971149,-2.9030142
267.09922367205917,2.9226794,5.849044,1.3905015,-3.6499493,-3.921126,-0.10063406,-0.10028473,2.6195178,-6.7367516,-1.8894277
267.1355665990693,3.1167507,3.1908937,-3.7186365,-4.5527396,-4.4938064,0.9272968,-0.6304628,-1.1376729,-11.648278,-3.5989392
269.114922695292,4.463951,3.4102817,-2.0012386,-4.62459,-4.754655,0.42844653,0.4228532,-0.017287374,-12.401968,-3.2558866
277.1046854722379,5.0567493,4.835989,0.90667266,-1.5800875,1.1057092,0.6641192,-1.3083804,-3.4196177,0.3792473,1.3995816
283.1305129141175,3.2779765,6.011661,1.3955228,-4.388183,-3.3617392,-0.04216102,0.068589516,3.0123847,-6.8472977,-3.0672915
293.1149201372592,4.0201464,4.8782835,-2.3864841,-4.2391567,-4.412704,0.7520212,0.1590859,-1.4527624,-11.058998,-2.7984707
305.1568601303938,-7.880025,2.2759848,1.0370579,1.8879912,2.8325825,1.192072,-1.8223884,-3.4967413,8.45559,1.3717604
317.11518519135484,1.4447228,6.102586,2.6312883,0.4586525,-0.0365816,-0.5948153,0.17774047,3.7983541,1.1939521,1.2875822
321.13096874610164,2.5902705,-0.48163605,-0.14991604,1.614913,2.2687764,1.0925012,0.6873881,-4.8548794,4.1624174,2.9856284
325.177311613809,2.8156605,5.960928,1.4993875,-4.2324114,-3.3017995,-0.16823494,-0.27198228,2.9597208,-6.7754993,-3.0713906
331.20901611987676,2.9766545,5.2163696,2.4227626,-4.5794168,-4.8979583,-0.5971152,-2.4438217,3.6648524,-12.612136,-2.9686365
365.1570478361734,-1.855198,-1.5157907,-3.9076374,2.2824647,2.8737075,1.210589,0.8025889,-7.2556033,8.485653,3.069613
409.18336016445807,-10.577881,-2.076129,-3.9853988,2.6122088,3.192601,1.4795448,-1.2830324,-7.316238,9.666057,1.9941994
450.55301652070364,-14.289604,-8.253551,-4.4079156,3.0979214,3.0475771,1.6448249,1.963392,-8.47007,10.628421,2.5318093
450.8877268561712,-14.118662,-8.268528,-4.3270025,3.151943,3.2221138,1.6790907,-0.5375068,-8.430853,10.844292,0.8978512
453.2095792347797,-10.078253,-8.379272,-4.1108203,3.1192343,3.3827167,0.9680681,-3.0365205,-7.195506,10.8422985,-2.4974253
463.9115409998158,-13.439142,-7.7565975,-3.9910989,3.4612193,3.060942,1.0238853,-2.16964,-7.4599056,8.362481,-2.503343
465.2283399515315,-13.794352,-8.486984,-4.5060606,3.0761137,2.6244082,1.554759,2.9031582,-8.505312,9.645966,4.4004693
465.5631258867581,-14.557051,-8.513824,-4.4783154,3.153437,2.8587642,1.7383217,2.1727102,-8.465931,10.437639,3.5723605
465.89656668656824,-13.830351,-8.412346,-4.1931276,3.2547693,3.1529646,1.5408709,-0.056860704,-7.9377527,11.158503,1.0354024
466.2306747417568,-13.496147,-7.6208744,-4.0265093,3.2034109,3.2015438,1.0811346,-2.363793,-7.9544106,10.778544,-2.77896
470.5534619718108,-13.471867,-8.223736,-4.204096,3.282153,2.9821007,1.7496004,-1.0571022,-7.965953,10.922866,-0.69225484
470.88789580246987,-13.484527,-8.193232,-4.084269,3.1061027,3.0111587,1.6283365,-1.8595679,-7.650878,10.990723,-1.8165057
478.92025987617245,-13.661931,-7.718335,-4.0551777,3.494379,2.9918401,1.0730494,-2.2978501,-7.8124933,8.855206,-2.4500196
479.9038387582657,-14.2540245,-8.704342,-4.4547844,3.0311663,2.4318945,1.4005579,2.9716098,-8.714439,9.293315,4.5408893
480.2392946824935,-14.443245,-9.086182,-4.656777,3.0544484,2.586867,1.461776,2.7091215,-8.659988,9.396051,4.240372
480.571938125089,-14.345451,-8.890495,-4.4063344,3.2629778,2.9564927,1.6002803,1.7232368,-8.523785,10.537495,2.9145916
480.90576653196075,-13.22894,-8.203327,-4.247549,3.2681131,3.163909,1.5447628,-1.773305,-7.7858896,10.869301,-1.964656
483.0757223974028,2.400832,4.092077,-1.779267,-4.7903137,-4.84676,0.23307787,-0.24511884,2.8808653,-11.97378,-3.5755005
485.2287549811139,-10.531056,-7.296873,-4.1607437,3.019484,2.5957935,1.5777216,2.1502728,-8.240864,9.62533,3.740704
485.56335188492085,-13.616495,-8.548633,-4.197175,3.3243957,3.0482185,1.5830069,-1.5554444,-8.308126,11.104893,0.18738954
485.89639233200955,-14.125742,-8.150925,-4.30689,3.2367396,3.0251799,1.7653462,-2.264215,-7.95869,11.055117,-2.948992
492.92762636807333,-14.376858,-8.834728,-4.4714694,3.457375,2.9423542,1.7452799,-2.331845,-8.832756,11.078375,-0.074283816
493.2619550954543,-13.874037,-8.714304,-4.246945,3.4834828,2.995243,1.6541394,-2.6531794,-8.2059765,11.167868,-1.6501651
493.5955515817928,-13.487284,-8.094547,-4.1729035,3.54386,2.85506,1.2123389,-3.3069599,-7.891596,10.85758,-2.6050043
494.579584838628,-13.232233,-8.279212,-4.726474,2.8608356,2.2600942,1.3041004,3.0993474,-9.016268,8.849258,4.5980124
494.9141973198271,-14.66934,-9.185293,-4.5029955,3.0888426,2.5636525,1.398208,2.823467,-8.588242,9.61154,4.3473616
495.2473765981361,-14.419342,-8.818377,-4.59369,3.1926508,2.7585318,1.622383,2.193051,-8.810127,10.116904,3.7271504
495.581149111223,-14.302442,-8.511342,-4.341642,3.260651,3.1298041,1.7614975,-1.4430256,-8.324325,11.036612,-1.4425356
497.23584017034875,-12.110336,-7.809217,-4.095373,3.024525,3.4271078,1.1190869,-3.1059003,-7.1930842,10.486723,-2.747138
497.7538424429379,-13.849796,-8.235501,-4.004783,3.287864,3.1125832,0.9336344,0.9397644,-7.1687346,10.947649,-2.1890175
498.00475732742495,-13.286665,-8.018019,-4.0558414,3.3321912,3.1096807,0.667127,-0.25177553,-6.8756475,10.844057,-2.3935955
499.903935505119,-14.085828,-8.673807,-4.468923,3.2749374,2.9188433,1.6924108,1.9664385,-8.475419,10.48995,3.443034
500.23858275884396,-13.262873,-8.414322,-4.3543286,3.2772071,2.9415028,1.6970221,0.8438487,-8.374466,10.731808,2.6628067
500.57171018677553,-13.569103,-7.862524,-4.296516,3.2062013,3.1289964,1.6695986,-2.1966321,-8.472737,11.03582,-0.5726085
507.9377993311231,-14.02326,-8.411509,-4.366479,3.5310297,2.9084754,1.7649239,-2.5691192,-8.471437,11.324066,-1.2123343
508.2711803315196,-13.808161,-8.383991,-4.180417,3.4823034,2.9722576,1.349044,-3.0324728,-8.436919,11.204779,-3.009159
508.76054176492727,-13.130545,-8.11105,-3.9686897,3.3592675,3.0662153,0.8479115,-1.2723486,-7.1988935,10.935838,-2.900045
509.0118103577783,-13.22034,-7.2346287,-4.0493646,3.329121,2.9812844,0.5143572,-0.13976501,-7.0084233,10.790382,-2.0822155
509.2552829055155,-13.87035,-8.441013,-4.698078,2.8752778,2.2797725,1.2865494,3.1556044,-8.991512,8.871012,4.6275897
509.58934554543896,-14.517015,-8.901411,-4.624438,3.0285811,2.4757543,1.386981,2.8788748,-8.613888,9.248559,4.481436
509.9229628592716,-14.51964,-8.964073,-4.5376534,3.1443644,2.7255816,1.6178395,2.5818532,-8.683007,9.987186,3.9849262
510.25777952582314,-14.152866,-8.486443,-4.1992188,3.3234756,3.1036346,1.6384808,-1.42816,-8.383352,11.297349,-1.7945352
510.5904929207744,-13.17441,-8.111774,-4.0066423,3.370388,3.165451,0.9665586,-2.4700603,-7.615413,10.589669,-2.9140148
514.5795507688714,-14.107278,-8.68953,-4.4790707,3.3001707,2.7618797,1.5550823,2.1415777,-8.600191,10.306911,3.716854
514.9141088106072,-13.77136,-8.38927,-4.3534684,3.2755957,2.8784618,1.6345158,0.98877406,-8.340052,10.597267,2.7126606
515.24714677643,-13.786922,-8.197273,-4.2963605,3.3790417,3.0304446,1.5789902,-2.2816675,-8.240961,10.983303,-1.9158794
515.5812041673266,-13.285507,-7.723124,-4.2517653,3.2883096,3.2036774,1.2987825,-2.1937227,-7.746212,10.497795,-2.0924954
515.7733296973558,-13.014939,-7.4965687,-3.902368,3.1824205,3.3150885,0.4776029,1.4185483,-7.2671547,6.342757,-2.3624752
516.0244151170525,-12.646768,-7.470334,-3.8413794,3.2781854,3.0836823,0.8102372,-1.2846634,-7.50455,9.714813,-2.844567
522.2780079381146,-14.33841,-8.809124,-4.4445057,3.4961503,2.9124935,1.6958879,-2.1343935,-8.533264,10.857705,2.5031633
522.9466030471535,-14.133747,-8.539139,-4.2485785,3.6178613,3.0387504,1.5137432,-2.7632477,-8.008825,11.229179,-3.2424252
523.2801547418912,-13.538908,-7.573436,-3.9616165,3.5676422,2.7275903,1.3508866,-3.026905,-7.746218,7.8004766,-3.0260332
523.9306489382229,-13.108841,-6.9482727,-4.528191,2.8306053,2.2489932,1.2434511,3.1129093,-8.657456,8.492783,4.646946
524.2657076843612,-14.528915,-8.525351,-4.640308,2.900895,2.347554,1.340254,3.0839233,-8.761026,8.880636,4.621567
524.5984796167957,-14.718853,-9.006982,-4.523373,3.1838245,2.6768193,1.5194644,2.6943772,-8.493984,9.88571,4.0909457
524.9322255579777,-14.319789,-8.6269,-4.428331,3.3068283,2.970403,1.5616144,1.3327014,-8.623018,10.704992,2.231946
525.2675637278638,-13.857267,-8.139204,-4.3120666,3.3778443,3.2434106,1.4253318,-1.8570848,-7.9269543,11.123452,-3.3309183
529.2549223397006,-13.85655,-8.934719,-4.4518814,3.2898533,2.8011312,1.6737937,2.1948786,-8.5373,10.369669,3.8230646
529.5893463118568,-14.054334,-8.776825,-4.4917555,3.2675705,2.8494678,1.5724256,1.4958358,-8.634754,10.465427,3.324281
529.922664198904,-13.939714,-8.365766,-4.382969,3.300828,2.9519126,1.6392812,0.54934883,-8.223739,10.8827095,1.5718699
530.25659065734,-13.420252,-8.036304,-4.1175747,3.1535091,3.1121964,1.5236298,-2.359508,-7.895238,10.976627,-2.5798533
532.2566698359487,-13.817247,-8.706486,-4.481419,3.293472,2.9601996,1.638274,-0.9519681,-8.498767,10.464199,3.17498
532.7584946111834,-13.724126,-8.009579,-4.3073235,3.3093154,3.1257243,1.317861,-2.5456388,-8.034705,10.952269,-1.7678123
533.2590179998325,-12.970966,-8.301835,-4.05721,3.1921082,3.1518478,1.2970104,-2.8922403,-7.9366164,11.13264,-3.1678727
537.9558254673497,-13.097969,-8.023812,-4.0886536,3.5593314,2.826375,0.394078,-2.90255,-7.8534584,10.541622,-3.0723996
538.6060509169396,-13.671875,-7.6397743,-4.6262803,2.8962061,2.3187811,1.2480072,3.1631055,-8.962074,8.841779,4.680309
538.9403787567521,-14.427491,-9.207771,-4.7785435,2.9780235,2.3950062,1.3013048,2.997982,-8.788223,8.761446,4.506208
539.274086627344,-14.432599,-9.127918,-4.6418815,3.1688912,2.6654143,1.49675,2.6212914,-8.824218,9.736084,4.131202
539.6075740206704,-14.603853,-8.51711,-4.383627,3.3346179,2.9612846,1.4149969,1.4222034,-8.329754,10.971234,-0.09863521
539.9413320927383,-13.726689,-7.99796,-4.2776604,3.3174891,3.1039546,1.0662274,-2.2455997,-7.912455,11.008716,-3.173053
541.2620774824768,-12.212746,-8.372252,-3.817255,2.8636203,3.4701424,0.69785124,-3.1005208,-7.197486,9.593058,-2.7830863
543.9300571574971,-14.152261,-8.908648,-4.5262785,3.2929423,2.7216194,1.5079288,2.3087757,-8.536982,10.265804,3.8043535
544.2646646425169,-14.284912,-8.775123,-4.5688086,3.2953053,2.730757,1.5649137,1.8894589,-8.670128,10.439495,3.3931847
544.598305571382,-13.766836,-8.808514,-4.4749365,3.3951466,2.9446542,1.661537,-0.68830544,-8.719599,11.0351,1.4310508
544.9319321857902,-13.818082,-8.106245,-4.224062,3.399396,3.0880136,1.2397814,-2.488063,-7.9335933,11.104847,-2.9447389
552.26974141865,2.9374871,-1.0018804,4.043148,-4.2327943,-3.892798,-4.1251554,-3.1802907,6.5269594,-9.1858225,-3.1107044
552.6311290343571,-13.391368,-7.811634,-3.911544,3.531126,3.0155938,1.1776444,-2.7412105,-7.606185,6.615032,-2.9026937
553.2806751977768,-14.06551,-7.8921347,-4.556969,2.9522226,2.359067,1.2032092,3.1549451,-8.734962,8.971901,4.734822
553.61540315256,-14.679241,-8.901214,-4.8446703,2.9218779,2.403825,1.2914972,2.9635258,-8.819492,8.877127,4.42735
553.9493235760538,-14.8184395,-8.822611,-4.605781,3.0652971,2.533752,1.4103762,2.478681,-8.347017,9.6743555,4.0000944
554.2846624362412,-14.264257,-8.334811,-4.2651653,3.3645763,3.192894,1.1173897,-1.5367284,-8.467984,10.911134,-1.9020512
554.6167325164191,-13.583011,-8.3609085,-4.2153263,3.2501826,3.178015,0.6622314,-1.3674434,-7.933215,10.601616,-2.929584
554.771232013622,-13.911861,-8.279013,-4.314752,3.4012601,3.0998936,1.3718252,-2.3701627,-8.510637,11.130679,-0.9335781
555.2712385340405,-13.420706,-8.026018,-3.8968673,3.1957176,3.2450292,1.2763242,-2.3932238,-7.650857,10.905361,-2.2153893
558.6060387649404,-14.252886,-9.078432,-4.6365414,3.2126205,2.6927514,1.5444717,2.234115,-8.790884,9.95418,3.8252695
558.9402700704871,-13.621288,-8.651274,-4.3068542,3.2793472,2.8578703,1.5965295,1.5316296,-8.610509,10.572507,3.044948
559.0931126248909,4.4870424,4.164109,-2.29083,-4.443523,-4.530089,0.107968464,-1.3742622,0.07610333,-11.818162,-3.2204492
559.2737127305819,-13.75416,-8.42308,-4.3428574,3.4185307,3.0202034,1.7143849,-0.8774584,-8.349665,11.261383,1.5963603
559.6074053637994,-13.56426,-8.017454,-4.1932135,3.360704,3.0714438,1.3419975,-2.3578136,-7.846263,11.002126,-2.9574227
566.3030077463626,-14.557744,-8.77466,-4.4149084,3.5468082,2.9297986,1.6363477,-2.3756375,-8.60428,11.255762,-1.0753388
567.3062723764642,-13.341704,-7.6758184,-3.7543483,3.619804,2.5492244,1.188702,-2.8421838,-7.134785,5.4538774,-3.350378
567.9566053446767,-14.818503,-8.972691,-4.680454,2.8728325,2.3303123,1.271456,2.9804432,-9.092455,8.886305,4.5270343
568.6244512297033,-14.690935,-9.0100765,-4.546604,3.2472444,2.7121265,1.4791989,2.5708973,-8.51478,10.194195,3.982714
568.958298611368,-14.31505,-8.46989,-4.2878604,3.3159385,2.980921,1.5652425,1.1014062,-8.276639,10.946299,0.53421193
573.2808027957229,-14.402844,-9.004562,-4.5581512,3.1848283,2.6532562,1.507727,2.1647804,-8.453709,10.025179,3.801165
573.6157713601772,-14.400068,-8.614983,-4.452466,3.3225732,2.8919563,1.5560154,1.4125379,-8.603254,10.62636,2.9339972
573.9488434368914,-14.262558,-8.779517,-4.380612,3.387679,2.9463046,1.5176567,-0.6974021,-8.329935,10.98311,-0.43926874
574.282823708664,-13.960325,-8.158086,-4.246804,3.4050126,3.026201,1.25313,-2.7031689,-7.96495,11.04491,-2.9694183
576.7847297500665,-14.054882,-9.012121,-4.511605,3.2692077,2.852863,1.5105423,1.1806048,-8.43989,10.368101,3.3433466
581.9821163075625,-13.305912,-7.712923,-3.814823,3.523136,2.843796,0.5608463,-2.5217733,-7.3960867,5.7486324,-2.9760742
582.6316699482917,-14.624071,-8.652897,-4.627908,3.0241115,2.4431982,1.3610259,2.9839964,-9.013573,9.116415,4.455244
582.9665417603859,-14.858538,-9.015953,-4.551924,3.0540164,2.527469,1.342823,2.8017435,-8.537828,9.461497,4.2462416
583.2998526402897,-14.598817,-8.734932,-4.632154,3.1963265,2.6582882,1.4428847,2.5145464,-8.736889,10.030668,3.9023128
583.6338435125647,-14.461959,-8.606197,-4.351131,3.4286253,2.972451,1.4778234,0.8427112,-8.462242,11.12645,-1.2782756
583.9675320416991,-13.980485,-8.302473,-4.1998577,3.3354504,3.2250113,0.8776463,-1.883038,-8.18969,10.587127,-2.8561962
585.2881746710144,-12.664332,-7.8541822,-4.1447086,2.9683404,3.4749615,0.575518,-2.924971,-7.5222063,6.7900305,-2.7275407
587.9566405582815,-14.077091,-8.874375,-4.4505997,3.3290308,2.8634593,1.5250652,1.7383975,-8.667919,10.651654,3.2924595
588.290947483365,-13.8755455,-8.769104,-4.275375,3.381029,2.9343712,1.5666533,1.3839796,-8.471827,10.953154,3.011202
588.6245140788945,-14.096056,-8.483631,-4.3382535,3.3983824,2.8472042,1.5149577,-0.18471092,-8.459822,11.027983,1.0784222
588.958112943333,-13.921048,-8.155429,-4.1358457,3.3694544,3.063776,1.1240815,-2.1010776,-7.935888,10.839401,-3.0786445
596.6574473957705,-13.085274,-7.9762316,-3.8637776,3.587751,2.878364,0.72715116,-3.0000677,-7.1351776,7.445714,-3.1783593
597.3068354780905,-14.856604,-8.834553,-4.5925756,3.0529552,2.5382228,1.3591297,2.8715684,-8.758624,9.524109,4.263896
597.641335302347,-14.6034775,-9.292091,-4.622301,3.2167788,2.622856,1.4455628,2.9172986,-8.936684,9.760494,4.223421
597.97541909505,-14.582026,-8.754452,-4.48016,3.3352554,2.837343,1.4848818,2.1255856,-8.467253,10.482655,3.427687
598.642981296282,-14.001562,-7.6135206,-4.0680494,3.2691023,3.139696,1.3490087,-1.6175802,-7.5288315,5.766182,-3.1952326
602.6316334779631,-13.818734,-8.658697,-4.372163,3.3713534,2.8626668,1.4228547,1.1977612,-8.557999,10.79426,2.9758515
602.9660757273422,-14.302093,-8.694262,-4.5033503,3.3604572,2.8801377,1.5010098,0.75552267,-8.5583,10.976417,2.1450663
603.2998283170422,-14.287891,-8.741261,-4.508642,3.4391625,3.0595107,1.291049,-2.0257251,-8.337624,11.132179,-2.1286154
603.6335686535476,-13.506372,-8.176748,-4.1759133,3.3762207,3.068671,1.2103726,-2.7891064,-8.162503,9.266232,-2.8788345
610.3291443798283,-13.662302,-8.482183,-4.0181093,3.5932043,2.739301,0.8600304,-3.029103,-7.652404,10.681284,-2.0370917
611.9828288944624,-14.765941,-9.230696,-4.530566,3.1514933,2.6406767,1.4204723,2.6695774,-8.659496,9.864583,4.1024475
612.6507417911749,-14.432038,-8.819805,-4.2642746,3.404597,2.8926432,1.4681135,1.8264022,-8.347583,10.983824,2.4129725
612.9845472297768,-14.082092,-8.910229,-4.237597,3.5036502,3.0099623,1.3164864,-2.2183988,-7.9509993,11.1728115,-2.492964
613.2314676950899,2.2670095,4.1634216,0.30456516,-4.875359,-4.9965687,-5.0074263,-3.5227668,5.8397017,-12.788541,-3.500354
615.4957687178843,0.5011425,-4.431267,4.772865,-4.084513,-3.9299593,-3.7126338,-3.1813848,4.5317345,-10.262003,-1.9397143
617.307072248301,-14.266644,-8.930801,-4.430344,3.4325488,2.8446085,1.5232471,-0.17700034,-8.433513,10.872189,0.6670623
617.6419495365926,-13.901164,-8.775766,-4.3537755,3.4751604,2.8924472,1.4701433,-1.6747832,-8.520675,11.119101,-0.33253533
617.9753606282869,-13.774046,-8.517349,-4.2747483,3.4874353,2.9932482,1.2865505,-2.2986522,-8.256666,11.073809,-2.3330126
618.3091164648787,-13.576099,-8.0372095,-4.134503,3.4727042,2.9178748,1.2806625,-2.1669242,-7.457013,9.680506,-2.6426258
626.6576566538322,-15.089035,-9.206326,-4.531989,3.1926174,2.720727,1.4804956,2.35804,-8.435602,10.121427,3.6958535
626.9925645287154,-14.786329,-8.931419,-4.6365633,3.2975245,2.809501,1.4852571,2.2050166,-8.552162,10.495311,3.3101866
627.3258403263696,-14.544613,-8.386648,-4.3984003,3.370007,2.954784,1.4421018,1.5229307,-8.483873,10.976885,2.0125425
627.6600715072444,-14.263142,-8.563976,-4.3470516,3.4503849,3.135892,1.1978298,-2.2910328,-8.462858,11.134808,-3.0885854
627.9938600471125,-13.372517,-8.43416,-3.8784072,3.3554382,3.1987572,-0.34460926,-2.8011467,-7.290921,5.8599377,-3.557342
629.3143872161478,-13.253802,-7.56343,-3.6439319,2.909247,3.5597954,-0.69782597,-2.9789956,-6.5760565,5.4373612,-2.5073981
631.9825059466988,-13.971937,-8.773002,-4.3172035,3.4619977,2.9812527,1.5591354,-1.2799952,-8.341961,11.117605,-0.7847387
632.113831429033,3.947888,5.8894606,-0.16389082,-5.1531887,-5.1667576,-0.2435258,-0.99029034,2.063684,-13.369747,-3.4688106
632.3168808809797,-13.773037,-8.440339,-4.35614,3.4690616,2.93394,1.5242597,-1.9193583,-8.274218,11.213378,-1.7897995
632.6508208317952,-13.862486,-8.643087,-4.389764,3.5308874,3.068322,1.1327386,-2.9350827,-8.481258,11.034698,-3.0790942
632.9844083206727,-13.54236,-8.171051,-4.06345,3.5114388,2.9999833,0.95781094,-2.7153268,-7.6684475,7.0443172,-3.3974962
633.1117401972615,4.568702,4.909187,-1.2940952,-5.0939026,-5.008624,0.04652837,-1.1954283,2.2650208,-13.329696,-3.8935266
641.3335183619116,-14.373764,-8.859967,-4.421073,3.3493278,2.889676,1.3864994,1.9738795,-8.266133,10.739689,2.6870356
641.667673331466,-14.429367,-8.563849,-4.295824,3.3852878,2.894061,1.3374598,1.8049366,-8.439244,10.743307,2.4901145
642.0014831520969,-14.482838,-8.94041,-4.3776264,3.4412544,3.068352,0.9242804,0.613066,-7.9329467,11.094706,-1.9420272
646.6580257684512,-14.280308,-8.6559925,-4.301685,3.499484,2.9724593,1.1544559,-2.0548801,-7.8569603,11.036303,-2.5968633
646.9925690334887,-13.763765,-8.543715,-4.281975,3.5196824,3.0527182,1.0275289,-2.7856233,-8.276321,11.116716,-2.5131679
647.3260359946927,-13.796527,-8.214306,-4.2260427,3.4681284,2.912313,1.0718267,-2.2945898,-8.187384,10.494888,-3.143459
656.008808959616,-14.392144,-9.062517,-4.324353,3.476323,3.0765812,1.1886084,-0.3115794,-8.796444,11.117942,-1.6802032
656.6769149669507,-14.1483135,-8.701923,-4.2377677,3.4575047,3.1123478,1.0451211,-2.4328287,-8.042776,11.008584,-3.1032588
657.0108110592557,-13.650308,-7.474496,-3.9938107,3.5161042,3.1494405,-0.1596629,-2.2251716,-7.316745,6.066165,-3.6359763
661.333466947226,-13.03134,-8.21234,-4.204362,3.4635463,2.968026,0.7501361,-2.8281767,-7.932047,9.735249,-2.9871721
661.6680914675109,-13.563917,-8.315868,-4.0894566,3.5989873,3.043181,-0.16957699,-2.3171031,-7.6423693,10.675602,-2.7439513
662.0016556758274,-13.667443,-8.092621,-3.9111497,3.500437,2.9927564,0.84095114,-2.9119627,-7.72474,7.071276,-2.90022
664.8366094006194,-13.052507,-8.675524,-4.5841126,2.9859009,2.3329153,1.2672826,2.924297,-9.250145,8.721996,4.678776
665.3361093271064,-14.2977085,-9.227742,-4.6775007,3.2743247,2.6942778,1.5145243,2.3933463,-8.952402,9.59632,4.341533
665.8375133345984,-14.195438,-9.013431,-4.3456774,3.4854338,2.9953706,1.3084617,-1.721197,-8.520996,11.077728,0.089137994
670.6842149008764,-14.3738365,-8.701212,-4.3145843,3.4478838,2.998687,0.40539086,-1.9608366,-8.134317,10.897313,-2.94982
671.0184734885361,-14.221329,-8.333668,-4.2299867,3.5326824,3.1233454,0.77448773,-2.2591326,-8.101029,10.84334,-3.294371
671.3518386047365,-13.545349,-7.2488794,-4.017561,3.5393317,2.9928656,0.33321485,-2.225679,-7.5179234,8.565931,-2.6469681
676.0087263541498,-12.89834,-8.275901,-3.9657538,3.518863,2.9682693,0.6212548,-3.122091,-7.7026052,7.410082,-3.2097704
676.3440946859712,-13.291311,-8.193159,-3.949406,3.5537682,2.9734116,-0.09576996,-2.5149581,-7.0899343,5.7101936,-2.8241985
685.3596181849049,-13.908918,-8.123833,-4.093603,3.5339625,3.036395,0.35416067,-2.601892,-7.9814944,8.299591,-2.5834742
685.6938257835305,-13.461848,-7.9447803,-3.8891215,3.565481,3.0321863,0.49093872,-3.0668163,-7.6462383,8.579261,-3.3639033
686.0279313931892,-12.710569,-7.7461658,-4.105657,3.4195843,3.02679,0.65039927,-1.9770234,-7.7665796,6.0699615,-2.9491389
686.8496251342218,-12.1187725,-8.208078,-4.800854,2.9250576,2.3040764,1.2001243,2.9627607,-9.211864,8.534279,4.6365223
687.3504403753851,-14.140933,-9.269188,-4.7052584,3.1817975,2.569814,1.3522933,2.4660792,-8.831067,9.446643,4.3443127
687.8507106093722,-14.290022,-9.111553,-4.433401,3.4462688,2.9715135,1.3163792,-1.7066425,-8.269798,10.974835,0.9868476
688.3515765378075,-12.970619,-8.27006,-3.9880698,3.535225,3.1487277,-0.74769324,-2.9848976,-7.0624905,8.983176,-2.3560288
700.0348936237547,-13.111738,-7.9822216,-3.863876,3.5424068,2.9155514,0.15841477,-2.5484445,-7.034257,5.006395,-2.5783942
706.1323636420491,4.163767,5.8021536,0.7541556,-5.1547656,-4.965915,-0.11541087,-0.8400949,1.4651935,-12.905948,-3.6020098
707.130415769561,4.5833054,5.4681993,-0.61395496,-4.9834647,-5.1327295,0.12696938,-1.4808164,0.7087649,-13.429626,-3.6819186
708.8632285375837,-12.342205,-8.296157,-4.5372796,2.9879696,2.3356094,1.267516,3.020336,-9.07292,8.816918,4.776272
709.3630779129818,-14.504211,-9.232822,-4.758882,3.1457353,2.4985807,1.3132094,2.4901588,-8.978056,9.368501,4.3502154
709.8640888724873,-14.145924,-8.682756,-4.384056,3.4753368,2.9327908,1.2838032,-2.3802555,-8.199327,10.962722,0.9887322
710.3643860557818,-13.1344795,-8.264409,-3.9204855,3.5380685,2.992199,0.67117137,-3.2225902,-8.254077,9.87499,-3.2136557
730.8767630007383,-10.124067,-7.9792347,-4.6064925,3.0171385,2.3418345,1.2146174,2.958195,-9.210487,8.694429,4.6892357
731.3768159003127,-14.618097,-9.388668,-4.7613482,3.2046328,2.54604,1.2712274,2.598054,-8.816761,9.460453,4.3509216
731.8771190384252,-14.1454525,-8.803543,-4.3850923,3.4910262,2.9719877,1.2120405,-1.6645648,-8.345078,10.844625,1.8771299
732.3776301809983,-13.338743,-8.187529,-4.0710077,3.4962316,3.062387,0.2343521,-3.2721612,-7.7824717,9.606138,-3.0569193
752.8898617937245,-11.688287,-8.37645,-4.611303,3.0093532,2.379622,1.2177504,2.929073,-9.092215,8.685465,4.6547694
753.389508370205,-14.302924,-9.121979,-4.594656,3.2101054,2.4879637,1.3326672,2.539617,-8.868097,9.385072,4.3034415
753.8900434182241,-13.9957,-8.87882,-4.403823,3.5542486,2.9683826,1.2653735,-2.2683825,-8.379347,10.908253,1.2229974
754.3906651160707,-13.447102,-8.614121,-4.0475225,3.5534432,3.0231066,-0.6213728,-3.256258,-7.881464,10.322502,-3.557198
774.9021119012651,-13.478745,-8.759501,-4.880825,2.9630911,2.3228126,1.1879916,2.926265,-9.044027,8.721654,4.552885
775.4027308716969,-14.233126,-9.160822,-4.661787,3.2899358,2.6727152,1.3521063,2.531828,-8.705816,9.618483,4.305978
775.903432460491,-13.997831,-8.748594,-4.3469553,3.5006347,2.9484153,1.0721017,-1.6444652,-8.424557,11.072315,2.069852
776.4039661244722,-13.803876,-8.601519,-4.185501,3.5197282,2.9931886,-0.7906629,-3.2241268,-6.978656,9.149914,-2.9633298
779.1503449975296,4.8330727,4.1398664,-1.7207912,-4.687655,-4.8170595,-0.022992125,-1.0297658,-0.30515528,-12.454755,-3.3831546
796.9161402359701,-13.480246,-9.287095,-4.7457795,3.074996,2.4085329,1.2220495,2.7454896,-8.860544,9.037274,4.5191073
797.4154612314934,-14.713318,-9.13542,-4.479408,3.252411,2.6334147,1.2710248,2.1923988,-8.681841,9.991575,4.1440983
797.9165098916963,-14.402345,-8.842231,-4.422213,3.5053568,2.9589663,1.0831593,-2.7318912,-8.53463,10.941517,-1.1251922
798.4169615560422,-13.475291,-8.410549,-4.1201205,3.672917,3.015093,-0.59527385,-3.568771,-7.882903,6.1207285,-3.2248003
804.5505835336571,3.262162,-0.13500428,3.428593,-4.5020633,-4.413066,-3.9605236,-3.1301334,6.460172,-11.401225,-3.2499914
806.5647575494983,2.943478,-0.4821267,3.7494478,-4.4476624,-4.153354,-4.3066154,-3.1148283,7.1882386,-11.032795,-2.7919326
818.4274786359504,-14.081808,-8.741164,-4.7396903,3.1041765,2.429629,1.2171384,2.9314346,-9.049982,9.296607,4.6516476
818.9283439183455,-14.193472,-9.188293,-4.626353,3.193278,2.5378814,1.1972877,2.6569693,-8.959335,9.688923,4.4380045
819.429132422968,-14.710482,-9.283854,-4.641051,3.3205144,2.634785,1.2366495,2.038077,-8.777094,9.933939,3.9444802
819.9296502201292,-14.399172,-8.779118,-4.399488,3.5631888,2.932196,0.89605534,-2.4701195,-8.612984,11.153612,-0.8311035
820.4302987687867,-13.197646,-7.876333,-3.8572147,3.547848,2.941691,-0.5088699,-3.3039484,-7.2929244,7.7491975,-3.0095882
841.9426105287413,-14.348192,-8.961004,-4.3275747,3.6187136,2.8961918,0.77757293,-3.3383431,-8.357307,11.043168,-2.8804104
842.443289935428,-12.625726,-7.889303,-3.6980007,3.5978339,2.9158692,-0.2598567,-3.5266185,-7.562807,4.921232,-3.2900136
871.7132406009542,7.9247456,-7.470518,3.2007518,-4.3064017,-4.370796,-4.1194043,-3.6802874,-4.882952,-11.593582,-3.0393581
879.7397730424627,3.2734036,-4.471431,4.442872,-4.6760883,-4.405563,-4.5967155,-3.7426853,4.7292743,-10.989193,-2.4936159
893.6984807001496,6.064188,-5.5111446,3.858662,-4.175056,-4.1830554,-3.9744325,-3.6725488,-2.1520839,-10.977714,-3.0587962
905.7553324984265,1.5897605,-5.351288,4.631514,-4.236268,-3.9338436,-3.9569283,-3.405223,4.0329027,-9.598483,-2.7970393
907.7703952060843,2.3359284,-6.0301476,4.5014253,-4.0471287,-3.91015,-4.1022425,-3.5205736,5.8339233,-10.432659,-2.7168627
929.9953015752143,-13.680541,-7.8943577,-3.9899247,3.6416981,3.051916,-3.4925692,-3.2735357,-7.231207,5.1812515,-3.0861633
952.0085148819553,-12.5934105,-7.5876393,-3.8111238,3.569291,2.8037465,-3.3393025,-2.8381932,-7.290286,4.6556897,-3.1343095
973.5207398593361,-13.154766,-7.9361887,-3.746127,3.6472824,2.809625,-0.8525396,-3.3686426,-7.0044003,5.1916914,-3.2083287
88.04038948230482,5.1647334,5.4104357,0.837428,-2.7290041,-4.0903745,-3.3433614,0.63168645,-0.23234157,-8.363577,-2.8027363
96.9222867837585,-13.582446,5.777958,-1.6772478,-3.5949895,0.48227513,-1.0804969,-1.1647905,2.561922,-8.881224,-3.882515
108.90216723266548,1.3187246,6.3125114,1.3708065,-0.48208773,-0.035081204,-0.45300403,-1.8304969,3.4497256,-5.5701246,-3.5329955
110.89905292095045,0.20820953,6.388424,-1.8810029,-3.2599092,-0.010683143,-0.48717153,-2.152589,2.5262995,-8.366734,-3.8564498
111.0200149747156,1.5860133,6.411096,2.2379293,-4.6870327,-1.5163268,-2.688499,-2.0743637,3.3584094,-13.036589,-3.2987518
125.00134359200638,0.9625817,6.447666,2.0899017,-2.4880147,-0.8452625,-1.0786018,-0.52999187,3.2454355,-9.419227,-3.1468904
126.00339731490078,6.1755037,5.433726,-1.7467759,-4.1668835,-4.5626445,-0.9165693,-1.9623413,-1.2808106,-11.6780815,-3.4562356
126.99838427140018,-0.9072697,6.968955,-2.7439342,-4.2700543,-2.8300383,-1.5112643,-1.3947855,-3.009674,-11.855759,-3.538921
139.02313448504393,0.98138624,5.4256763,3.0139244,-1.418704,0.13226703,-1.1917281,0.30725038,4.7132626,-2.6792657,-0.11367426
142.99868975070655,2.2393463,5.1709247,0.45449758,-3.698224,-4.195439,-0.78939486,-2.7330384,-5.519536,-11.951037,-3.582183
150.88684917028493,-15.6811905,2.5352044,-3.2695675,-4.6441555,0.81866765,-2.7746153,-0.5461661,0.40128756,-11.767717,-3.8609776
152.884037473799,-16.042807,2.5982575,-3.3146677,-3.9184244,0.6770996,-2.4003775,-0.64142066,0.007244587,-11.3411,-3.9769795
154.06243273088305,3.9766603,6.319726,2.2312102,-4.0128646,-3.1363442,-2.4352562,-1.8456126,3.52006,-11.630508,-2.8937702
155.10785829974634,4.804091,-6.1019325,4.185536,-4.240018,-4.7681355,-4.7277904,-3.9996202,8.093817,-11.667501,-3.755321
156.92541498590168,0.78946626,6.320882,0.4834767,-2.96494,-0.87084126,-0.45032603,-2.5860765,3.3451128,-9.686836,-3.6194587
170.9024289952744,4.60952,6.35542,-2.783269,-4.4166646,-3.3553996,0.14386451,-3.463572,0.43038657,-11.543009,-3.7126033
177.90594518143388,-15.715386,2.2796752,-1.711206,-4.0803347,0.86144006,-1.7926387,-1.121882,3.6383936,-9.560119,-3.5017009
179.9028414094079,-14.547568,1.9208362,-2.8195963,-3.6724248,0.7351297,-2.1548045,-0.6920986,2.5389326,-10.262152,-3.3834255
183.01622524361176,-4.0579762,6.103578,-1.5929031,0.41178477,-1.1941365,0.92881906,-0.24764581,3.206374,-3.1237879,-2.6391897
183.96314896731928,1.6082155,6.884542,-1.686306,-4.7464447,-1.604171,-0.78117156,-1.7908167,0.6779202,-12.983948,-4.018217
187.00169540760507,4.4353776,5.9170456,-1.72415,-0.24750474,-1.5965801,0.29725868,0.15796535,3.243463,-3.6753876,-1.665422
192.8747678301292,-13.016163,4.7160187,-1.4159367,-1.8755747,1.0384549,-0.13038224,-1.398933,1.2077646,-4.259592,-3.5987802
196.05467685267845,-6.5328217,6.2909784,2.0470555,0.555932,-1.8136817,-1.108567,0.41081467,4.4209857,-4.518467,-1.4659629
197.92142179424647,5.4022784,6.091775,-1.8847369,-3.9185324,-3.8667681,-0.7812176,-2.5408685,1.6192529,-9.964281,-3.505053
197.97079029094564,5.078303,6.402465,-2.2971027,-4.686739,-4.1388893,-1.3419975,-2.9392915,-2.0732486,-11.884853,-3.9290812
199.03801410164277,-10.489004,6.7004995,1.9304774,-4.71483,-0.3049834,-3.0459116,-2.8075461,2.1973014,-13.318989,-3.9657993
204.94176571712612,-12.131239,6.252649,-0.009624262,-2.453474,-0.022225322,-1.0968587,-1.2995272,3.5270224,-9.213652,-3.7834482
206.00182596328784,0.11584045,6.7733965,0.069235876,-3.982959,-4.073571,-2.679284,-3.1268897,0.3233204,-11.836063,-3.3447967
206.93902676715402,-14.33712,4.552126,-3.2656376,-4.027938,0.22579497,-1.1787051,-1.049989,0.3296361,-10.586,-3.8295372
207.10284883859165,-5.139798,5.420263,2.983329,0.4774221,0.30361843,0.043726884,-0.463871,5.556011,-2.241589,2.0601513
210.84240628593324,-13.4168625,1.8988798,-3.283045,-4.070085,-1.3464799,-3.5538716,-0.8904031,0.55222416,-11.062898,-3.16735
212.88710115128885,-12.388182,6.109862,-2.0362651,-3.8752599,-0.10696733,-3.3158782,-2.5812676,1.6132643,-10.78446,-3.3775852
216.03618526722593,-2.7109015,6.658055,1.8549889,-4.628608,-0.351364,-1.8138788,-1.2615006,2.1655915,-12.967431,-3.2522297
216.9287627592466,4.09064,6.1423793,-2.4021733,-3.4201834,-4.3617835,0.30112877,-3.2921238,0.6198814,-9.484982,-2.3791175
217.01241249182988,6.3217077,4.4837904,-2.8937976,-3.958088,-4.5067058,0.15455063,-2.9136891,-5.4436617,-10.373981,-3.5693555
219.04566742133866,4.9616957,5.6946745,1.0372128,-4.1467366,-2.0646844,-2.8850245,-1.9095634,-2.5193377,-12.5120945,-2.767488
224.95798481468776,6.0904756,5.850706,-2.3664382,-4.4425254,-4.570034,-0.10402274,-3.2429276,-2.196889,-11.674023,-3.466173
225.06208254065837,2.9712317,6.141429,1.4753857,-0.54330087,-1.5906712,-0.97499967,0.70246696,3.5771632,-5.146376,-1.5315505
225.98662968204684,-3.6223757,6.493943,2.3041518,-3.923115,-3.037933,-3.6739094,-3.1196592,3.1082418,-12.040265,-3.5851939
227.20205935346317,3.5000823,2.3033109,3.8709154,-1.0891618,-4.037682,-2.6267555,0.47680002,6.516713,-6.2906837,-0.2853206
228.0514646729996,-15.271481,5.512528,0.82679534,1.3205274,1.283748,-0.12834458,-3.223866,-2.2998002,1.7463144,2.4025702
228.064637989851,6.8120556,5.0324173,-0.12829766,-3.1872,-4.8061285,-1.34689,-1.4429644,-2.3591816,-10.96139,-3.363878
229.01209235449537,8.295843,-1.3150849,-1.803346,-3.6300712,-3.9058566,-4.09898,-3.616652,-4.999638,-10.725929,-2.8966248
235.17042864085897,3.7494154,-4.819461,4.252257,-4.1417327,-4.4409256,-4.776197,-3.711038,7.8085318,-10.948252,-3.2996924
236.0212303375762,6.0384846,5.301113,-1.5982531,-4.105534,-4.539951,-0.82818407,-3.2081287,-3.6485898,-11.02253,-2.9753075
238.90117805852654,-13.220281,5.423888,-1.5146464,0.3848133,0.0040446203,0.6006404,-0.750863,1.9556637,-3.583285,-2.6380243
241.2176960257089,4.137577,0.68316305,4.103297,-3.0606687,-4.7979136,-4.767367,-2.7951236,6.92531,-10.461562,-1.8596928
243.9569907819224,1.50123,6.543092,-1.461319,-1.9000252,-0.18364066,-0.04917668,-0.39379972,-2.2480116,-6.8504515,-2.3953972
243.96634125345926,5.8210382,5.9191914,0.63182235,-4.4467993,-4.658018,-2.1800437,-3.3562217,-0.75954956,-11.715559,-3.4537468
245.05446506999195,8.280607,-0.6907015,-2.5370255,-4.173192,-4.605694,-3.933848,-3.1996903,-6.140792,-11.441128,-3.5638478
253.00992732046052,-13.683773,2.1877608,-3.1202018,-2.8088515,0.79096794,-2.6598694,1.1809695,2.0386505,-7.7539873,-2.6803954
253.09299252604526,-5.7170587,6.4225454,-3.336052,-0.1624248,0.41841856,-1.5463072,0.9864746,-6.7753973,-9.876862,-2.6642492
253.21776629818507,4.4181786,-3.8241215,4.4119334,-3.1816654,-5.453375,-5.614424,-4.8022323,7.2208214,-10.471712,-3.668495
254.2209189726677,3.5732207,-8.317755,4.225276,-4.6849875,-4.98784,-4.905486,-4.1594,7.466128,-12.375999,-3.6250393
258.9966528160474,-2.3091621,6.7201834,-1.641434,-3.3842535,-4.076802,-0.89257085,-2.4764874,0.5218352,-11.46417,-3.5622292
262.90041445787443,-13.966527,2.105357,-3.4696796,-4.1065836,0.28507444,-3.0643241,-0.3705432,1.150982,-10.810179,-3.8253164
263.0410068270129,-3.203466,3.943432,-1.5170796,0.9228685,-2.9038286,0.38564003,-2.904862,-6.8641214,-7.345419,-1.337784
264.8975673009733,-14.255552,3.700566,-3.2012892,-4.104902,-0.42154035,-2.59641,-2.2609334,0.043165684,-11.128907,-3.4227815
264.9523385220318,-7.148315,5.268034,-2.2345448,-1.7063873,2.1987033,-4.398693,1.6252524,-2.386551,5.046994,2.6457014
266.9424158596048,-2.3798676,6.7722964,0.033997722,-4.1402454,-2.417518,-2.206258,-3.5923278,3.5127058,-10.613935,-3.209344
267.23296071336887,5.6620073,-8.340392,4.1916485,-4.723739,-5.0511255,-5.0223885,-4.384002,7.298167,-12.476495,-3.9661515
269.24867786223507,5.178711,-6.9363728,4.160442,-4.624291,-5.22832,-5.2499757,-4.405953,7.041614,-13.11107,-3.8578184
270.0913605695849,-0.9419459,6.589986,-2.9805663,-4.2037153,-2.934838,-0.8559783,0.7366517,-3.587631,-12.593752,-3.28709
271.10340537771975,4.316577,5.174189,-2.9974751,0.19422108,-1.1562582,-0.7468228,0.4352191,-7.2362814,-6.95777,0.6800749
274.1119440695617,8.162741,-7.1126,1.8554083,-4.2763095,-4.5918612,-4.301863,-3.8312356,-2.6323373,-11.831331,-3.5307531
278.2208343177235,4.279774,-7.926819,4.1594124,-4.413383,-4.7982855,-4.538559,-3.9477541,6.966604,-11.724796,-3.9788058
280.0286298039873,-13.866711,2.940763,-0.80931574,-1.4449089,0.67186886,-2.7595851,1.4529201,2.0100558,-6.864748,-1.4123023
281.0362856493995,4.053313,6.303445,2.4987214,-4.829375,-4.4309306,-4.9018493,-3.513467,1.2284322,-13.530357,-3.7924278
281.0518004312097,2.7285767,5.760454,1.8114009,0.13192886,-2.1988757,0.037010822,-1.8733553,-1.5643675,-7.6071033,-1.4599726
281.24029940640725,4.9028783,-3.7467864,4.2353535,-3.138653,-4.395395,-4.6408086,-3.508432,4.987033,-7.4999313,-2.8940535
283.25573969089584,4.91781,-7.791504,4.397393,-4.9739633,-5.364954,-5.2650437,-4.570927,7.5859137,-13.129626,-3.8983135
284.26762446091493,4.5147314,-0.28985405,4.148628,-3.8543704,-5.1377406,-5.0411983,-3.8199265,6.9584064,-12.17601,-3.4964366
286.9342719186836,-8.246506,4.746972,-3.4921722,-3.6391742,2.607409,-3.212796,2.1961577,-1.8380183,3.762148,3.611111
292.0721573455238,8.681544,-2.6058483,-2.7366304,-4.1051164,-4.569625,-3.8389423,-3.8182988,-6.1027226,-11.867503,-3.371828
293.21225222086844,-4.0454407,-5.1892433,4.3000364,1.0130525,-1.3173385,-4.285345,-3.7698638,8.133293,-2.5476203,-0.7369149
295.2282245509332,2.7220333,-1.7659214,4.2251096,-1.4080834,-1.7293707,-5.3489146,-4.4344254,7.504769,-5.811371,-3.1355875
301.21751275776575,5.7533693,-8.889446,4.058017,-4.8609033,-5.0487547,-4.917001,-4.2717037,7.2023897,-12.578941,-3.855576
303.05047978091903,4.9270453,6.23285,1.2366428,-4.3088083,-4.6320763,-4.0378113,-3.3390236,2.3994868,-12.225886,-3.4474635
304.23647570057256,4.3041463,2.8863814,4.266058,-2.6110225,-4.6552796,-5.5480623,-4.096031,7.0924397,-7.881849,-2.8784232
305.23977652680713,5.6703176,-8.266334,3.8009646,-4.6367064,-4.8408175,-4.7913795,-4.1205397,7.245306,-12.313497,-3.791707
306.2523891921519,6.513721,-8.994734,3.82248,-4.9303365,-5.1036344,-5.1152143,-4.3784266,7.2186313,-13.156849,-3.7981248
307.26475333661443,4.5465293,-2.0753372,4.375626,-3.1333,-5.3457117,-5.565017,-4.6860886,7.341044,-10.645901,-3.7441053
308.0987783478931,6.9684105,-0.1081593,-2.9604526,-0.6129849,-4.8923907,0.302132,-2.5118585,-6.2545214,-8.99401,-3.460532
308.2679855244289,5.7765174,-8.568349,4.1146502,-4.8588185,-5.0721407,-5.079828,-4.342291,7.390821,-12.938139,-3.9033787
310.2833103022766,5.2445917,-8.965408,4.1776223,-5.022987,-5.341826,-5.2278233,-4.613384,7.3589067,-13.339453,-4.0927467
311.2231455329749,-1.6725051,-3.2675576,4.274855,0.17593487,-0.6377136,-5.145555,-4.178593,7.9189606,-4.2057652,-2.3362155
317.2255754510865,-0.31797707,-5.394046,4.5216174,-4.167185,-4.4476733,-4.5229454,-3.882829,8.117999,-11.366873,-2.982084
319.2280459984792,-1.9815493,-3.180667,3.7959812,-0.5748533,-1.606406,-4.5567617,-3.7859457,7.3407445,-2.7946124,-2.5056663
323.028674108115,5.09444,3.470237,2.2148225,-4.0462456,-0.28373972,-0.85169023,-0.25722995,-4.0364056,-5.3982115,-2.3549006
327.2334488570279,5.6305823,-7.5907984,4.22532,-5.179768,-5.333408,-5.4186997,-4.5938177,7.3863564,-13.3715,-4.009025
329.2341162318805,3.8197577,-5.387865,4.3057194,-4.3843603,-4.5204363,-4.768721,-3.8543825,8.121226,-11.047957,-3.2740793
329.24916906370004,5.3187394,-6.6705866,4.2787266,-4.9941096,-5.410047,-5.4607387,-4.652027,7.316536,-13.1483,-4.041039
330.25212582270524,5.901658,-8.786657,3.8422565,-4.5016537,-4.688918,-4.6443176,-4.0671864,6.860303,-12.236324,-3.8844664
331.2643761131768,4.9035926,-4.130841,4.354529,-4.4836264,-5.295217,-5.450034,-4.5646358,7.5313807,-12.489262,-3.7785668
332.2677368381302,5.3412333,-7.568781,4.0668797,-4.4782615,-4.6401277,-4.6336823,-3.9386966,7.719095,-11.7463875,-3.3925226
333.09419689884004,4.1089873,6.210443,2.3715785,-3.8038373,-3.1066542,-1.827114,-1.0198563,1.7786542,-12.5208435,-2.953604
337.31113455361975,5.8035464,-8.965231,4.0598407,-4.6440654,-5.0490136,-4.8420043,-4.343561,7.2982664,-12.991181,-3.743211
354.16431343748167,-6.769969,0.77773285,3.5137997,-0.2944572,-4.1693597,-2.9123976,-3.0862105,7.6794147,-6.7946806,-3.0496209
362.051071780642,6.825967,1.7450979,-0.1054101,-4.3635125,-0.10257711,-2.6367602,-1.3025087,-6.285639,-5.586278,-2.1921682
362.9596002952725,0.42774385,6.533288,1.8910279,-3.5003474,-1.2935069,-1.3135033,-1.032933,2.288406,-10.982597,-3.3965018
364.9569285058741,0.34304887,6.7566757,1.5600402,-2.0494816,-0.5864001,-1.7904185,-1.0312227,2.4279838,-9.497108,-2.3109338
366.2499474237735,4.34062,-0.59431785,4.195435,-3.9588072,-4.648794,-4.6308246,-3.8824472,8.0000305,-11.753214,-3.6591942
367.24373251337806,4.831734,-1.1207995,4.135683,-4.5469513,-5.305034,-5.1581626,-4.3661437,7.6489687,-13.189005,-4.0095143
371.2806935667929,5.229204,-8.366361,4.0527496,-4.63676,-4.7939963,-4.739318,-4.123895,6.861168,-12.420145,-3.6857264
390.25012601755395,3.425469,-5.764841,4.4079237,-5.0359507,-5.4227324,-5.2772484,-4.5588384,8.080575,-13.404785,-3.9270658
391.24406119228485,3.7778025,-2.8806295,4.379796,-4.796718,-5.374635,-5.364186,-4.642539,7.8226824,-13.286467,-3.9875464
393.2625311078134,5.434709,-7.4131374,4.1243563,-4.9427505,-5.1677337,-5.112264,-4.416511,7.364687,-12.868713,-3.861092
396.9206742817861,-0.4575106,5.4246116,3.8676069,-4.1821313,-2.7921631,-4.040191,-2.617941,3.9905887,-10.31955,-2.9565573
398.9177721690224,0.7989949,5.658287,3.8328538,-4.0196986,-3.7202327,-1.8001066,-2.3150187,2.0393798,-10.562481,-2.7638159
399.2752958986302,2.0673182,-7.162653,4.4252315,-4.5147777,-5.055415,-5.093122,-4.2353296,8.243006,-12.12226,-3.9761348
401.29108621602154,1.4584949,-5.880229,4.4244976,-4.2374997,-4.6212893,-4.7955875,-3.956555,8.396414,-11.412672,-3.3569887
413.246789811073,3.9754345,-1.7148217,4.2026424,-4.5439568,-4.720473,-4.8438077,-4.1498766,7.882554,-12.5570965,-3.8281648
416.15636215171224,-10.630269,1.7239261,3.365425,-3.821907,-3.558923,-1.7725897,-1.7658799,7.780821,-10.058706,-3.0799882
419.30154358064294,6.371229,-5.586119,3.9503882,-4.6126513,-5.3359776,-5.2192583,-4.5779138,6.8969164,-13.364547,-4.0795684
425.0809919451843,7.081832,-2.2651691,-2.628812,-1.9438355,-4.6250277,-1.3043097,-3.2977312,-6.8666673,-9.716531,-2.8837216
437.9553421313627,1.3522528,-6.5267916,4.7259235,-3.922419,-3.487305,-4.0449686,-3.5184815,2.5152066,-9.087635,-2.6665196
444.3048509006433,4.666512,-7.464037,4.1827583,-4.4122853,-4.7982345,-4.7260237,-4.0375614,7.7215424,-11.887533,-3.599072
465.986391371257,1.2631022,-7.407509,4.530645,-4.4706025,-4.5008082,-4.6177945,-3.9484024,5.1525507,-11.305354,-2.8165264
467.98362166700974,0.36427903,-7.234679,4.6304545,-4.29252,-4.214072,-4.4686365,-3.7391782,5.3176804,-10.708061,-2.6957524
471.91621148448985,-0.2260915,-5.9501743,4.818624,-4.2143164,-4.0740447,-4.208621,-3.5729346,2.352053,-10.51671,-2.7014625
473.91335764945956,-0.99398595,-6.997401,4.75419,-4.235663,-4.100247,-4.197368,-3.5954752,1.6318413,-10.414621,-2.4230986
509.2887222613295,7.4959154,-8.26351,3.334601,-4.0655704,-4.439919,-4.590755,-3.915166,5.873454,-11.843845,-3.6979175
528.2732926516458,4.7686787,-4.219691,4.4163027,-4.6754503,-5.311554,-5.469698,-4.468319,7.5128193,-12.998968,-3.8660874
529.2763089845431,4.557533,-7.7009516,4.151513,-4.7623987,-4.998185,-4.8914623,-4.2114935,7.7173166,-12.6072235,-3.717363
536.4762155955389,5.3395324,-7.6943874,2.7596216,-4.3862453,-4.502718,-4.3580065,-3.846688,-0.038565725,-11.914166,-3.6592746
556.2687527107976,3.9082239,-6.35229,4.0536995,-4.5107927,-4.913194,-4.857121,-3.9861386,7.6425033,-12.409304,-3.7114666
557.4581092568693,6.1931386,-8.515038,3.003309,-4.536647,-4.6101527,-4.5338783,-3.9245982,3.4562151,-11.931925,-3.596367
583.4739266558681,6.744232,-9.209565,3.882917,-5.0479007,-5.2955923,-5.2023077,-4.5830245,6.6281857,-13.244328,-3.9441378
584.4770999598574,6.8192434,-8.472023,3.372267,-4.4969068,-4.6734495,-4.5757318,-3.9117928,5.923048,-11.585924,-3.5948627
585.5114708567991,5.227058,-5.798885,4.072453,-3.9623072,-4.5948625,-4.4738345,-3.8400288,7.304967,-11.406521,-3.5124736
586.4926791983987,6.536244,-8.590567,3.402382,-4.533333,-4.7897973,-4.695946,-4.060882,5.8430276,-12.096117,-3.753273
587.5046144894162,6.9241004,-9.400757,3.676117,-4.861152,-4.9314,-4.948868,-4.338112,6.2930183,-13.117321,-3.7797801
589.5205829321543,6.8060904,-9.530638,3.8759801,-4.8852806,-5.2497706,-5.100078,-4.456714,6.585601,-13.182205,-3.989791
591.5359958315314,6.6222486,-8.851759,3.7748246,-4.608434,-4.8735337,-4.7539625,-4.1817985,6.123279,-12.569233,-3.8127875
609.5120455413432,4.7005434,-7.9952984,4.344934,-4.830057,-5.5043974,-5.487125,-4.811135,7.692485,-13.388715,-4.137076
610.5152924075304,3.423951,-7.8734493,4.3759813,-4.645513,-5.0137935,-4.9162164,-4.151183,7.936661,-12.531651,-3.6867979
611.1462666242135,8.342565,-2.0153534,-2.831358,-4.2627454,-4.419333,-4.160836,-3.6978066,-6.169948,-11.628178,-3.320511
611.5274919331004,5.002409,-8.090683,4.3309827,-4.876475,-5.3189583,-5.4095254,-4.608377,7.746193,-13.357393,-4.044935
612.5309407070264,4.366329,-7.646511,4.20349,-4.4438815,-4.791558,-4.712946,-4.135698,8.068737,-12.192271,-3.6466193
633.511752861228,4.816128,-7.662129,4.423418,-4.8112454,-5.3907876,-5.3939643,-4.629439,7.786729,-12.903242,-3.8928835
634.5147793274784,4.4241133,-8.390664,4.2663264,-4.7598214,-5.1752453,-5.090582,-4.376574,7.986885,-12.7715,-3.925141
636.5304080879085,4.3587556,-7.8714457,4.3350835,-4.93672,-5.484939,-5.439396,-4.6436415,7.978304,-13.297468,-3.992316
638.5461431462845,4.151154,-7.7620006,4.3038163,-4.7615805,-4.957308,-4.9611807,-4.2187176,8.079888,-12.843517,-3.714447
654.496269279783,3.0845313,-6.6039867,4.2479844,-4.253523,-4.5057497,-4.389041,-3.843064,5.602974,-11.347176,-3.378695
656.51187934263,5.6258717,-2.5095873,3.9466174,-3.5567122,-4.609339,-4.339872,-3.7702777,4.797022,-10.891533,-3.4419098
657.5118501948282,4.6898766,-8.17989,4.065718,-4.73762,-5.0188303,-4.9328284,-4.2503614,7.7136197,-13.110744,-3.7826111
659.5264959269217,4.5510645,-7.498506,4.265747,-4.6222696,-5.0845966,-4.9453807,-4.2966957,8.023964,-12.770357,-3.647872
680.5129143532625,2.403932,-7.74798,4.348247,-4.2208242,-4.5329432,-4.50019,-3.8500237,5.9967747,-11.5778675,-3.430702
682.528756123638,3.2149942,-3.4255667,4.2559857,-3.9272964,-4.5239406,-4.365531,-3.9002607,5.6918883,-10.931031,-3.2957249
769.5059142402017,8.384579,-7.1839485,1.4809576,-3.9586463,-3.7905376,-4.262974,-3.6458347,1.4394628,-10.590375,-3.4781015
771.5214283600535,7.73916,-8.547803,3.2253761,-4.615213,-4.807538,-4.868451,-4.277921,5.9712267,-12.414252,-3.8366148
772.5247595794063,8.131595,-7.562867,2.6135771,-3.8542843,-4.2628865,-4.4109406,-3.869427,2.9978323,-10.683192,-3.688941
773.5368393433001,7.378249,-8.079463,3.3215199,-4.386998,-4.7453804,-4.8242188,-4.1092834,6.127482,-12.377213,-3.6611495
786.5324780449847,6.1316257,-7.656365,3.715208,-3.7218611,-4.5910525,-4.5570636,-3.8286662,6.0663095,-12.030688,-3.6665635
788.5476587894711,2.6862469,-6.4368124,4.3664403,-4.425738,-5.130023,-5.0986714,-4.0677943,7.5154133,-12.460927,-3.9115622
789.5511211850243,1.9274018,-5.4908648,4.353643,-3.7499144,-4.6412706,-4.4451613,-3.7137594,7.612154,-10.610817,-3.4645286
885.553757973446,5.9459934,-8.121124,4.168961,-4.4926443,-5.319948,-5.2421684,-4.444486,6.9008875,-13.249854,-3.9893088
886.556970803666,6.423476,-8.134281,3.7568412,-4.4884014,-4.8763537,-4.8931313,-4.191551,6.0226727,-12.571059,-3.7908056
