,Shared topic 1,Shared topic 2,Shared topic 3,Shared topic 4,Shared topic 5,Shared topic 6,Shared topic 7,Shared topic 8,Shared topic 9,Shared topic 10,Metabolin private topic 2,Metabolin private topic 3,Metabolin private topic 4,Metabolin private topic 6,Metabolin private topic 9,Metabolin private topic 10
104.10721613216346,1.2533706,-0.8683288,-1.0907717,2.3738065,0.8005744,-0.5528933,0.3628527,0.22503899,-0.084499836,-0.66021955,4.2150064,1.2637063,0.4656828,0.093381464,0.7382795,1.5645226
114.0663487757167,1.4846274,-3.516072,-5.100186,2.9980297,-1.0679332,-4.9017344,0.2642806,-4.5632267,0.74008834,-4.0532765,3.9841647,-0.2751098,0.8839662,-1.2361732,-3.620922,2.7904696
119.08989347482412,1.6655715,-4.4252734,-3.6888313,3.4092035,-2.2993364,-4.463597,-4.003529,-4.33856,-0.511013,-4.3584905,5.7021027,-1.7710656,-3.4174478,-3.962703,-3.340006,2.9727478
141.07147334429604,1.7127596,-4.171176,-4.748185,3.2736754,-0.114669345,-4.8544793,-4.226178,-4.298179,-0.32399383,-4.8021145,4.6096907,-0.8225509,-3.3277063,-3.9410675,-3.1375268,2.955214
142.94804145265775,1.5444365,-1.3257366,-4.8692164,3.2012122,-1.6487364,-4.020007,-3.6670482,0.2890172,-2.438254,-1.6629496,4.3391047,-2.5417914,-0.17650773,-0.038025822,-2.4546518,2.7141476
146.16516858340012,1.6073312,-4.9976935,0.0888624,3.5272138,-1.4132429,-4.434393,-4.2866836,-4.1871805,-4.4577117,-4.6156554,6.7604,-0.19098769,-3.6053827,-4.2814746,-2.7724836,2.4854305
150.97673966710036,1.5330673,-3.799532,-4.7723145,3.0997336,-2.9074588,-4.790681,0.3180248,-2.8409812,0.14090805,-1.9101171,4.252561,-3.8201149,-0.22401506,0.2563358,-3.6792672,2.705674
163.97769453157306,1.309336,-2.0150807,-2.4179976,3.4582236,-2.1932437,-4.040471,-4.18982,-2.6504974,-3.264524,-2.959619,3.3740702,-3.3480158,-3.2714229,-2.1557305,-3.218125,2.9484758
164.00826925149738,1.4400946,-4.209077,-0.20351076,3.474326,-2.1339276,-2.7530777,-3.5746484,-3.1232996,-2.999886,-2.8681958,3.51975,-2.9763265,-2.6365318,-2.528215,-2.6160407,2.926561
169.98583471858657,1.1190132,-1.0953193,-3.403614,2.9515698,-1.8910782,-3.9776485,-0.15208653,0.55955696,-0.2749701,-0.8357888,2.918675,-3.1300628,-0.62955624,0.7291117,-3.0173037,2.5407603
188.17563513707617,2.4993842,-4.039288,-3.7834427,2.7741704,-2.9474363,-3.835231,-3.5552843,-3.6599827,-0.9249493,-3.525747,6.491868,0.42369145,-2.9851503,-3.4741163,-2.9072075,2.267822
195.06271277531698,1.2385609,-0.6045399,-4.0605206,3.0706074,-0.83736265,-2.6028483,0.21176511,-2.2091181,-1.6122627,-3.0323675,4.376086,-1.0561482,0.51448995,0.54370886,-2.9448407,2.524913
205.06005018215913,1.2888384,-1.6778746,-4.80513,2.6851068,-2.9691262,-4.4317617,1.6539301,-4.185622,1.3232225,-2.913211,3.6207683,0.9067261,1.8070772,-0.14304775,-3.8213134,2.7037463
206.05539519878883,0.9608342,-3.0669737,0.8625636,3.485014,-2.5357993,-3.1138318,-4.2882023,-3.9197187,-4.2473564,-4.0728765,4.3597274,-3.302627,-3.3197384,-3.529759,-2.7074642,2.665198
221.18619238088982,2.0122535,-4.360323,-1.8167374,3.207641,-2.129935,-4.7428007,-4.467766,-4.582487,0.4917403,-4.7653565,4.669827,-0.7212046,-3.5740156,-4.0378747,-3.7478287,3.1744797
243.09931152472012,1.5546452,-1.1375208,-4.3855867,3.182158,-1.3089083,-3.6763089,-1.0110892,-2.73873,-2.363781,-2.3379269,5.1650977,-1.6835399,-1.0262457,-2.308847,-2.8907492,2.78217
255.09915080142363,1.3741713,-4.0599017,-4.490245,3.2896261,-2.269083,-4.0535126,-0.47578764,-2.766534,-1.6314659,-3.195012,3.9630938,-2.4269757,0.05921547,-2.435938,-3.1558366,2.874716
261.10966185035926,1.0165701,-1.4590272,-4.036227,3.364695,-1.6514542,-3.272861,-0.46153247,-3.2961211,-2.3234673,-3.614149,4.7419553,-2.9157085,-0.022759462,-2.1860309,-2.902669,2.6987178
267.09922367205917,1.3245001,-1.8338555,-3.970211,3.2438543,-1.4415653,-3.1744483,-0.27018246,-2.884348,-2.6652062,-1.7677714,2.5638947,-2.8031344,-0.025290433,-2.700639,-2.9008548,2.804626
277.1046854722379,1.079465,-0.42745557,-3.9096994,2.8213747,1.164452,-4.0018463,-0.25811654,-3.7815537,1.2535948,-3.8072295,2.084253,1.0418606,1.2091,-2.992296,-2.3500955,2.9271057
283.1305129141175,0.9367842,-1.1771604,-4.9224925,3.32004,-0.2165111,-4.5495267,-0.37961414,-2.2302244,-3.5986452,-2.9395587,3.5079286,-2.287086,-0.38357475,-0.85227364,-1.4945424,2.8212109
305.1568601303938,0.64140874,0.08277968,-2.033846,1.8987681,1.4449416,-3.2110052,1.1219312,-1.0334727,1.3350056,-0.33086556,2.3186877,1.8262366,1.7095028,-0.36471534,-0.46075398,2.3980718
317.11518519135484,1.173379,-0.9373065,-1.1451743,2.2790325,0.69866663,-0.50800586,0.38412514,0.35233882,-0.25476173,-0.59696907,4.039044,1.1158284,0.4611312,0.1996318,0.58539134,1.4148643
325.177311613809,1.3737869,-3.6643133,-3.459683,3.271716,-1.2043484,-2.285758,-0.63232726,-2.5013375,-1.8287688,-2.30425,3.3906527,-2.568077,0.27979684,-1.0445197,-2.9862146,2.6238627
331.20901611987676,1.1731462,-3.2752802,-4.898625,3.1890497,-0.36590537,-4.1584563,-0.77833176,-3.2033103,-0.9419977,-1.6015403,5.1671042,-0.2881615,0.44776988,-2.4475257,-2.582866,2.4448974
409.18336016445807,-3.5968347,0.316122,-2.1331189,0.058998503,0.26832736,0.014843373,1.7784916,2.085121,0.08270301,0.39721194,-6.6840115,-1.1402823,0.45500845,0.6091489,-1.4027573,1.2915368
450.55301652070364,-2.7975943,-0.011035791,0.4350414,-4.0802073,-3.741032,0.5242533,1.9804254,2.1268535,1.2785114,0.017539352,-11.278754,-2.9007745,1.0110314,2.2401717,-2.069652,-2.010068
450.8877268561712,-2.918057,-0.5949222,0.06794973,-3.7952034,-3.6871533,0.84146506,2.0597146,2.1097872,1.6951323,-0.47467342,-9.920345,-2.1142933,0.5154572,2.27018,-2.7151,-3.0217478
453.2095792347797,-4.017993,0.18851897,-0.004881346,-1.0866016,-2.0546412,0.42448908,1.4889684,2.3785017,-0.05957326,0.5779023,-7.6894445,-1.0205022,0.4282005,1.1171063,-1.0502918,-0.13657403
463.9115409998158,-3.7734754,0.12874869,0.24347624,-3.7767682,-3.69047,1.0433646,2.2970667,2.2527509,0.08643498,-0.09625799,-9.864051,-2.9925275,-1.4243902,2.2465193,-1.7161418,-2.9276268
465.2283399515315,-1.6656792,0.3916678,-0.09976625,-4.376022,1.0950565,0.6433689,1.4998527,1.9683249,0.7855813,0.4188948,-12.806393,0.13311845,1.4170737,1.4129077,1.9152797,0.48817438
465.5631258867581,-3.4669073,0.47044936,-0.15868144,-4.351346,-2.1814826,0.78751487,1.7327241,2.1675236,1.0071502,0.5543532,-12.028345,-3.2673283,1.5553896,1.6866115,1.2736608,-1.6262561
465.89656668656824,-4.1084476,0.23369916,-0.85737634,-4.182331,-3.8448424,0.43982044,1.7137194,2.3872123,1.1699262,0.42430374,-11.3215685,-3.667481,1.3237998,1.9304731,-0.47607875,-3.2541945
470.5534619718108,-2.613693,-0.10616698,-0.88519204,-4.1033196,-3.4215884,0.46017927,1.900331,2.5673108,1.0788059,0.6553447,-10.665377,-3.1059964,-0.102458,2.2487073,-2.0852811,-2.932364
478.92025987617245,-3.8874893,-0.70580125,-0.37548614,-4.030135,-3.8310463,1.1857599,2.071529,2.3258708,0.63473666,1.0412954,-9.332535,-3.365871,-0.22436565,2.1923757,-0.34231356,-3.053454
479.9038387582657,-1.5620154,0.2794886,-0.14321151,-4.4876323,1.4823071,0.44349605,1.3387551,1.7344173,0.7156425,0.3518117,-12.768217,0.8518511,1.3317679,1.2037134,1.8870007,1.358128
480.2392946824935,-3.164209,0.36164573,-0.171098,-4.453183,1.2542576,0.5289146,1.461295,1.8783245,0.76980513,0.48715305,-12.751638,0.07484726,1.4714917,1.3056928,2.0093837,0.9590162
480.571938125089,-3.745411,0.5352003,-0.38228276,-4.4530716,-0.13950717,0.790091,1.6364427,2.2218397,0.8992071,0.6532323,-12.365728,-2.9882836,1.3526969,1.6975255,1.6395191,-2.4111776
480.90576653196075,-4.1437674,0.31835246,-0.26221105,-4.2118087,-3.9601815,0.5248899,2.0745056,2.1863427,1.1923728,0.5262515,-11.691649,-3.615921,0.8429826,2.152304,-2.5050936,-2.814101
485.2287549811139,-4.242904,0.4652612,-0.19253063,-4.142308,-3.2591383,0.6529777,1.6961995,2.459898,0.840542,0.59891635,-12.087201,-3.5559454,1.0261875,1.9472551,1.058738,-3.0057454
485.56335188492085,-3.7272806,0.31795332,-0.7472014,-4.096204,-3.8831682,-0.46453667,1.7535138,2.4714415,1.2796555,0.62322044,-10.401893,-3.5613575,-0.4079507,2.3626862,-1.0909255,-2.4611676
490.5909780269423,-3.2599115,0.18214819,-0.6500503,-3.6987853,-3.1088989,0.36099598,1.7502497,2.2408705,1.1764622,0.9284815,-9.262137,-0.6328276,-0.16794991,2.6670346,-2.4570084,-3.064503
492.92762636807333,-4.043514,0.31759784,0.36611545,-4.210967,-1.8938551,1.0905823,1.699636,2.1841261,0.71268505,0.8171543,-11.984812,-2.1423223,1.3843564,1.643623,1.7399378,-3.2580404
493.2619550954543,-4.2313023,0.131515,-0.067983516,-4.4267693,-3.72045,1.2615302,1.8568795,2.3073077,0.7569093,0.96286434,-12.55333,-3.138803,1.41133,1.8228449,-0.826569,-3.7021987
493.5955515817928,-3.8271773,0.15800062,-0.1826937,-4.1647315,-3.9433162,1.1783205,1.7873015,2.3077056,0.80321324,1.0919334,-11.86177,-3.4814017,0.012434307,1.9848123,-2.6463661,-3.8769195
494.579584838628,-0.6875758,0.22901335,-0.28840297,-4.2189574,1.5937488,0.4664326,1.3056885,1.6732694,0.59873486,0.3359992,-12.800607,1.0576559,1.2379464,1.175496,1.8995051,1.546197
494.9141973198271,-1.4858273,0.33331707,-0.22897981,-4.4118686,1.4951117,0.5026641,1.3936174,1.8222648,0.7122787,0.4213601,-12.643089,0.8069549,1.3911978,1.2604755,2.0545287,1.2687485
495.2473765981361,-3.9777749,0.4172513,-0.15720706,-4.501158,0.8078996,0.6819053,1.5373205,2.0629532,0.8099064,0.55840224,-12.878075,-2.4547074,1.4611609,1.489309,1.9755706,-1.1144494
495.581149111223,-4.1792893,0.5065557,-0.5618063,-4.225961,-3.7685182,0.7328028,1.862708,2.3368304,1.0724583,0.68866706,-12.650339,-3.2997985,0.90658617,2.0383193,-1.0431193,-1.9340391
497.7538424429379,-3.5471706,-0.33141008,0.3740716,-3.7509959,-3.388516,0.36923146,1.7876118,2.393277,1.03557,1.0109059,-10.090361,-2.8214953,-1.1599827,2.5415678,-1.7758572,-3.4156318
499.903935505119,-3.6403,0.39292052,0.07685313,-4.330589,-3.5420582,0.8704064,1.6345973,2.480622,0.9052923,0.49547166,-12.499829,-3.6365943,0.9891327,1.886992,0.8524161,-3.3082523
500.23858275884396,-4.128517,0.08334868,-0.3522111,-4.1544175,-3.4151201,0.71334356,1.6714499,2.5358636,0.85798824,0.6246746,-12.068408,-3.2292876,0.5948878,2.037544,-0.5882909,-3.2189765
500.57171018677553,-3.7402747,-0.010267369,-0.28566033,-3.935162,-3.790943,-0.16719638,1.4887347,2.5434792,0.9927593,0.8272033,-10.037269,-2.2367797,-1.780373,2.3317046,-3.070387,-2.3997927
507.9377993311231,-4.277345,0.1687817,0.38012487,-4.295094,-2.3980913,1.085369,1.6766012,2.21073,0.6907521,0.8899662,-12.507022,-2.6869092,1.3229915,1.6228353,1.6170013,-3.3174546
508.2711803315196,-3.6397688,-0.10400346,0.30279016,-4.180987,-3.812837,1.2603966,1.7425461,2.281723,0.5200399,0.88741827,-11.587847,-3.4240613,0.5294682,1.9098647,0.43772593,-2.9772592
508.6049300600752,-3.712061,-0.993505,-0.039817575,-3.8795552,-3.9484658,1.068535,2.0404136,2.4096975,0.24390863,1.2520568,-9.969942,-3.2967775,-0.24839939,2.299411,-2.5477116,-3.1839652
508.76054176492727,-3.9526894,-0.19858024,0.15397659,-3.8077695,-3.5696728,0.56350595,1.1845244,2.4597654,1.2170033,0.5283488,-10.187614,-3.204537,0.17222343,2.529523,-1.3759316,-3.3422203
509.0118103577783,-3.6060624,-0.7483953,-0.015220482,-3.864088,-3.4667914,0.09788509,1.7140822,2.5424063,0.8849297,0.9666387,-9.529001,-1.4306709,-1.1847377,2.55355,-2.0864763,-2.7871883
509.2552829055155,-0.37491658,0.123529844,-0.17599842,-4.262854,1.6655008,0.4084781,1.2489136,1.589928,0.5438204,0.2811055,-10.527871,1.3057017,1.2528697,1.1169727,1.8596709,1.5293027
509.58934554543896,-1.2821567,0.28852,-0.17147554,-4.6508546,1.5107656,0.45447728,1.2766619,1.6801081,0.6257104,0.41269523,-12.439685,1.0030935,1.3142,1.1590515,1.9720256,1.2254583
509.9229628592716,-3.4629447,0.42368925,0.044040196,-4.691513,1.2056301,0.7232393,1.5110393,2.0453374,0.80115014,0.591817,-13.155558,0.4309649,1.4185425,1.4519616,2.042114,-0.0768741
510.25777952582314,-4.4423633,0.38513404,-0.6328118,-4.341153,-4.0682583,0.57270837,1.9507753,2.4360278,1.011339,0.8391967,-12.373911,-3.8836668,0.760877,2.115901,0.17170885,-3.4506052
510.5904929207744,-3.8221037,-1.4093088,-0.18633395,-3.829047,-3.556388,0.50016266,2.0409112,2.4641304,0.86479306,0.9165462,-10.920752,-3.418954,-0.9213987,2.4903321,-2.1231897,-2.4300926
514.5795507688714,-3.9949713,0.27641577,0.27231634,-4.296689,-0.9599962,0.78609353,1.5604416,2.3688817,0.82006276,0.5818991,-12.623082,-2.4690003,0.8607517,1.7575915,1.338378,-3.3901365
514.9141088106072,-3.907976,0.23530827,0.025906626,-4.0443044,-3.547504,0.90797776,1.6327248,2.4865036,0.64271784,0.43870273,-11.708466,-3.895411,0.5326013,1.9090538,1.1923592,-1.2669518
515.24714677643,-3.9214332,-0.05179828,-0.56826115,-4.1462502,-3.6310182,0.9373734,1.7352927,2.4918475,1.06443,0.741657,-11.472029,-3.0338488,-0.36040846,2.1162672,-1.0459698,-2.9250185
515.7733296973558,-4.196536,0.42438108,-0.034889184,-4.195075,-3.2612357,-0.50760764,1.8507115,2.3701282,0.5608146,0.8226319,-11.395506,-3.48835,0.35663134,2.4586918,-2.3245268,-3.268064
516.0244151170525,-3.9614475,0.06414825,-0.4842407,-4.0136557,-3.569358,0.61036557,1.451412,2.4498086,0.8822247,0.7164153,-10.926902,-3.35914,-1.2323565,2.4746213,-2.4471815,-2.9273915
518.3211782528595,1.5321915,-2.2164488,-4.1905913,3.019525,-3.3227744,-3.9298897,-2.7493348,0.93565786,0.2510515,-2.2147267,3.6779237,-3.2746902,1.4775742,1.6809653,-2.9151864,1.0106064
519.7670910507547,-3.7180612,-1.9817151,-1.5957421,-3.7138972,-3.1342907,0.6949561,1.6256136,2.6669102,1.1106522,0.9705791,-10.304642,-2.1329074,-1.3038828,2.544304,-2.5569336,-3.1482496
522.2780079381146,-3.8298726,0.39308333,0.14997683,-4.445542,0.7038899,0.87156665,1.4556388,2.025305,0.59515285,0.7349261,-12.838129,0.26861793,1.448683,1.3745348,1.9831313,-2.4428482
522.9466030471535,-4.274428,0.13330124,0.20276424,-4.2870674,-3.3171277,1.1577482,1.6420771,2.30275,0.50119567,0.8876229,-12.311122,-3.1361182,1.3193804,1.8654318,0.90258265,-3.7532861
523.2801547418912,-4.2726684,-0.61110914,-0.5977907,-4.070511,-3.6440341,1.5721087,1.8258915,2.3039412,-0.06361471,1.1884732,-10.082483,-3.6545851,-2.3178458,2.2243047,-1.9483589,-3.501671
523.9306489382229,-0.23905611,0.11869812,-0.17580995,-3.9774425,1.6906643,0.443342,1.207463,1.5898445,0.55415064,0.32532147,-10.523273,1.3749293,1.2907734,1.139087,1.8933251,1.6173747
524.2657076843612,-0.3929137,0.10373814,-0.28465015,-3.4126532,1.6466265,0.3974352,1.1722021,1.5431553,0.51157314,0.2861382,-10.490453,1.3645571,1.2182488,1.0500436,1.7811714,1.5803792
524.5984796167957,-3.5884151,0.3494621,-0.05893289,-4.386743,1.367112,0.6557333,1.458281,1.9206476,0.72512037,0.5061368,-12.377066,-0.27348545,1.3565919,1.3250017,2.0256083,0.9723042
524.9322255579777,-4.6061916,0.35173056,0.094772406,-4.415572,-3.1539183,0.90384984,1.7841109,2.3820662,0.8794062,0.75512224,-12.305802,-3.6081421,1.1271695,1.8171642,0.9775565,-3.4935532
525.2675637278638,-4.0869417,0.098737784,-0.4657537,-4.234825,-4.0100026,0.8438789,1.8710108,2.265322,1.1100492,0.54468083,-12.325815,-3.6797776,0.7224374,2.2069094,-2.6423843,-3.5263538
526.78001799694,-3.777847,0.30357948,-0.4099594,-3.8877623,-3.494718,0.8049615,2.0630217,2.2463818,0.4646234,0.8624109,-10.193679,-2.5737665,0.64625406,2.6359522,-2.6742024,-3.1532176
529.2549223397006,-3.4749432,0.40135646,0.16633047,-4.447698,0.24400157,0.7552866,1.4934572,2.2774286,0.7765728,0.6082424,-13.118207,-2.2260115,1.3267114,1.6584016,1.625248,-0.25438756
529.5893463118568,-4.237901,0.20378016,0.22323324,-4.4054213,-2.5991025,0.9381167,1.5823088,2.4272316,0.7600782,0.7381146,-12.726251,-3.3471138,0.48996687,1.904871,1.2095957,-3.0528536
529.922664198904,-3.5266113,0.34601477,-0.10726869,-4.188405,-3.2266726,0.6637225,1.6003796,2.5201058,0.7773316,0.47699675,-11.919145,-3.3744662,0.28528103,2.0824451,0.36946097,-2.777187
530.25659065734,-4.028609,0.08823187,-0.5914934,-4.021328,-3.8041813,0.6232834,1.5401342,2.6397283,0.8177396,0.6688152,-11.037179,-3.5150518,-1.8985875,2.3321073,-2.808991,-3.3031225
532.2566698359487,-3.895284,0.3407321,-0.042033933,-4.2929726,-0.75360906,0.71121824,1.5593817,2.3075223,0.82713664,0.520641,-12.1939,-3.4137967,0.7959475,1.5610914,1.676492,-0.28084692
532.7584946111834,-3.8644474,0.12792283,-0.15697473,-4.0189037,-3.4692953,0.60900944,1.8516208,2.438511,0.85820746,0.530142,-10.880346,-2.3237278,-0.57350165,2.0299733,-2.4982426,-2.990543
533.2590179998325,-4.1915293,-0.68607116,-0.40786475,-4.0524135,-3.838415,0.31260088,2.0911226,2.696129,1.0071126,0.12347871,-10.628312,-3.285968,-1.3108634,2.5226314,-2.8602047,-3.2938118
537.9558254673497,-4.1256347,-0.24439213,0.36530846,-4.067383,-4.0703015,1.3488898,1.8541118,2.4407547,0.13296622,1.178451,-11.480397,-3.7173724,0.7566401,2.0966532,-3.199635,-3.3842487
538.6060509169396,-0.14815822,0.07048016,-0.18054,-4.4195843,1.6346383,0.37711677,1.2100034,1.5263299,0.49376172,0.26042652,-10.896065,1.4012761,1.1802506,1.045248,1.8234695,1.6830704
538.9403787567521,-1.0052422,0.190173,-0.12246754,-4.3021626,1.5648427,0.48658845,1.2534554,1.6481074,0.5174621,0.4121455,-12.865131,1.1023468,1.3157163,1.154418,1.988614,1.4984777
539.274086627344,-3.8117657,0.4430922,0.04787045,-4.6827064,1.4159983,0.67539203,1.3773929,1.8861213,0.75872374,0.5217877,-13.093013,0.9636038,1.5020763,1.3393422,2.0457907,-1.0106605
539.6075740206704,-3.6107576,0.45129836,0.030587379,-4.352138,-2.19898,0.932176,1.5923067,2.3062158,0.8556687,0.71214455,-12.88625,-3.5005975,1.4590825,1.7239225,1.5715067,-3.6003182
539.9413320927383,-4.176534,-0.043427184,-0.14351897,-4.1499066,-3.8316529,0.24949506,1.9118241,2.339985,0.9360746,0.9313013,-11.555046,-3.6633332,0.13292323,2.2970192,-3.10562,-3.4100518
543.9300571574971,-3.9092026,0.40300837,0.06278735,-4.482487,0.6787116,0.8834015,1.3971242,2.160251,0.6131512,0.58823854,-12.724482,-0.9004006,1.12743,1.4819993,1.8427031,-1.1025532
544.2646646425169,-4.0698423,0.46650618,0.32311973,-4.2544284,-0.22567077,0.862543,1.5381896,2.400895,0.63518614,0.7153779,-12.050197,-2.42943,1.1009991,1.7959288,1.6313441,-2.8798664
544.598305571382,-3.9747982,0.36321288,0.33297142,-4.2342753,-3.978571,1.1106329,1.4225028,2.5353284,0.66798544,0.73153377,-11.958427,-3.4526944,0.40142614,2.0044215,0.57489145,-3.403497
544.9319321857902,-4.205897,0.18978438,-1.1604412,-3.9847517,-3.521146,0.4791366,1.0247457,2.8767138,0.7647227,0.86676204,-11.410396,-2.8818283,-1.0348057,2.5295045,-2.243711,-3.5009475
552.26974141865,-2.4783492,-3.0993748,1.1477412,3.4825935,1.398608,-0.2146986,-3.785373,-1.3850204,-4.0318365,-3.8877504,3.1555028,-1.4154339,-1.9926487,-3.2942412,0.69114864,2.064363
552.6311290343571,-4.32116,-0.5762666,0.3157946,-4.314025,-4.076144,1.3105348,1.7745252,2.3631907,0.13151903,1.170967,-11.976813,-3.5864446,-1.2625406,2.0536969,-2.6623552,-3.543934
553.2806751977768,-0.2812078,0.1291978,-0.27703804,-3.7621968,1.6520371,0.41720235,1.1823356,1.6375384,0.45821077,0.32614914,-11.55927,1.2828792,1.3122511,1.1336504,1.8503022,1.5938683
553.61540315256,-1.1322594,0.23049574,-0.10875245,-4.535419,1.6930946,0.57096565,1.2956898,1.7363329,0.6202115,0.4014,-12.224305,1.4255643,1.309428,1.1773108,1.9453474,1.3549545
553.9493235760538,-1.80699,0.3277993,-0.029349208,-4.527523,1.3175867,0.6187015,1.3916668,1.8968775,0.69643694,0.5327729,-13.295889,0.7749552,1.4499028,1.4099636,2.0296874,0.6788847
554.2846624362412,-4.0551653,-0.0032346803,0.17374356,-4.267925,-3.5357738,0.7267248,1.8875911,2.3500495,0.9332565,0.87116444,-12.194351,-2.7691061,1.2171512,2.155352,-2.001446,-3.1610441
554.6167325164191,-4.171211,-0.29529658,-0.5775292,-4.0933075,-3.9827018,0.8190344,1.8155295,2.5852625,0.7791237,0.9296666,-11.460498,-3.2243445,-1.8848257,2.4256039,-3.4274387,-3.5798426
554.771232013622,-4.254411,0.5249497,0.25310206,-3.9536726,-3.5508041,0.6949417,1.5940323,2.5057998,0.7951209,0.62641203,-11.408766,-3.564531,0.5985114,1.8409879,0.86566037,-3.3674335
555.2712385340405,-4.0247054,0.6144796,-0.73798215,-3.9981525,-3.8609037,1.0278306,1.5221552,2.477768,0.8607559,0.8258452,-10.675769,-3.1212852,-0.2679383,1.9369745,-2.5844004,-3.170773
558.6060387649404,-3.9068696,0.32098848,0.117127374,-4.010449,0.502372,0.8319661,1.3758733,2.200817,0.5475748,0.59254056,-12.784857,-3.1741693,0.95945275,1.5293852,1.8088927,-0.26702997
558.9402700704871,-4.489856,0.40944222,0.105422914,-4.209344,-0.21615581,0.8799739,1.4711918,2.3682728,0.52212155,0.6501054,-12.516488,-2.670893,0.6462821,1.8013498,1.5818,-2.2663782
559.2737127305819,-4.444197,0.0033866595,0.15021068,-4.234227,-3.5308495,0.96392494,1.5514368,2.541828,0.6304518,0.82250506,-12.079153,-3.9723945,0.4192966,1.8777939,0.41083077,-3.51031
559.6074053637994,-3.985943,-0.17976177,0.3362755,-4.08695,-4.031974,0.8158856,1.357109,2.655614,0.61904526,0.70368665,-11.260336,-3.5874753,-2.6002367,2.0574977,-2.1014597,-3.382425
566.3030077463626,-4.1398745,0.29869527,0.32656792,-4.488797,0.036684092,1.1411203,1.5932376,2.2796628,0.52751076,0.9040339,-12.522188,-1.2965328,1.3441727,1.6158708,1.7506307,-3.8323953
567.3062723764642,-2.2919865,-0.61183363,0.39741606,-3.1931899,-4.005868,1.4047561,1.6483537,2.5134003,-0.58552164,0.9807508,-9.259412,-3.3888595,-0.119001605,2.2143352,-3.0173914,-3.3859437
567.9566053446767,-0.2735448,0.14750278,-0.20968457,-4.0371804,1.5987735,0.44583386,1.229154,1.6127616,0.51354605,0.37421536,-12.437978,1.3846473,1.2630883,1.1074692,1.856652,1.6556703
568.6244512297033,-3.980914,0.3910007,0.022200778,-4.3321524,1.2576052,0.6833868,1.4201427,1.9144335,0.66541743,0.5034083,-12.752682,-0.38516587,1.4951596,1.31431,2.0662446,0.6310216
568.958298611368,-4.1417656,0.6156854,0.1121593,-4.3651204,-1.7186711,1.0193206,1.6549052,2.3454783,0.9116529,0.7940838,-12.694294,-3.3871822,1.2923942,1.7327185,1.6164422,-2.8056717
573.2808027957229,-4.4268503,0.4314606,0.2200603,-4.35993,-0.04286008,0.94942445,1.4893014,2.303245,0.47570002,0.6929129,-12.480462,-3.1735892,1.0909024,1.5955986,1.8837084,-3.316853
573.6157713601772,-4.2768683,0.5378009,0.2634545,-4.4053345,-0.9500464,1.0080924,1.401821,2.4127033,0.54376554,0.75617975,-12.6689205,-2.9015844,1.0440346,1.8126305,1.6354893,-3.7519808
573.9488434368914,-4.1283193,0.2268475,0.31919548,-4.3146796,-3.2218883,1.044853,1.3745849,2.515057,0.31402028,0.8134394,-12.521552,-3.5836177,-0.23586878,1.9024856,1.160445,-3.7860408
574.282823708664,-4.1982856,-0.16101599,0.36708793,-4.140608,-3.2965877,0.76998913,1.2002621,2.6820574,0.014276974,0.8242125,-11.380599,-3.417263,-1.5371697,2.2566872,-1.5533254,-3.1380675
576.7847297500665,-4.787067,0.40489885,0.1340764,-4.337492,0.7493916,0.9509595,1.4418877,2.2182162,0.62968016,0.54459774,-12.90764,-2.3450072,0.65133846,1.4785881,1.8774168,0.31924242
581.9821163075625,-4.091935,-0.50575376,0.5199321,-4.1178784,-4.0150375,1.6464633,1.4763845,2.18899,-0.012056943,1.4254093,-11.680579,-3.5775015,0.72491205,2.0752277,-3.2542074,-3.6643906
582.6316699482917,-0.4614713,0.13962172,-0.17343076,-4.4749203,1.620704,0.52036107,1.2464367,1.6276834,0.5317447,0.38340604,-12.3605795,1.4111954,1.3166286,1.1806307,1.9316446,1.4278742
582.9665417603859,-1.5904068,0.27573717,-0.11607183,-4.5757775,1.6070694,0.58282924,1.3449558,1.7472802,0.6128157,0.47822443,-13.309198,1.312453,1.4442015,1.3304856,2.0466373,0.9106579
583.2998526402897,-4.1845512,0.39911652,0.0071847006,-4.5643535,1.3008589,0.7210811,1.3872532,1.9907314,0.69574505,0.6084347,-12.472872,0.5705734,1.4380451,1.3495886,2.0306084,-0.7097033
583.6338435125647,-4.1986794,0.30553865,0.12105461,-4.489987,-1.5117841,0.9690781,1.7018524,2.2818828,0.7224438,0.6991043,-12.663673,-3.3251688,1.0710276,1.7899079,1.4408445,-3.4778745
583.9675320416991,-3.9945238,0.14103857,-0.2837938,-3.9937854,-3.8465035,0.9318119,1.7257167,2.4409752,0.80418515,1.0400507,-10.921158,-3.6626096,0.15196222,2.4366858,-2.9027352,-3.5914805
587.9566405582815,-4.0730014,0.44370663,0.14737041,-4.4840426,0.6229589,0.99117583,1.4287696,2.3354995,0.48398754,0.66843206,-12.840799,-1.9115134,0.9464491,1.6396608,1.8845702,-2.4956279
588.290947483365,-4.421963,0.38404542,0.2837923,-4.2322907,-0.96393293,1.0168327,1.4740086,2.3731928,0.47165546,0.72125024,-12.470566,-3.571687,0.4783353,1.7645501,1.5292677,-3.2848344
588.6245140788945,-4.372164,0.19966611,0.13237241,-4.3732634,-3.2435863,1.081759,1.5388709,2.5003912,0.18724827,0.7974854,-12.437483,-3.1281953,0.49625188,1.9871612,0.9967062,-3.3868492
588.958112943333,-4.008942,0.35881612,0.37080353,-3.6718106,-3.7210114,1.2260007,1.3710289,2.535777,0.015439907,0.83929193,-10.323458,-3.0430892,-3.1204932,2.318469,-3.0565782,-3.1370842
596.6574473957705,-4.3241773,-1.2916554,0.5902615,-4.1253448,-4.062324,1.7119926,1.6549183,2.4274178,-0.39971885,1.3194704,-11.331149,-3.7901235,-2.9947066,1.9944834,-3.2057135,-3.6924376
597.3068354780905,-0.8879219,0.20119272,-0.13120458,-4.280762,1.5384204,0.5107406,1.3446848,1.7395309,0.5883736,0.4633338,-12.66022,1.146544,1.2932142,1.1864297,1.9762605,1.1978391
597.641335302347,-2.4072587,0.27196097,-0.043413665,-4.5495453,1.539267,0.55479974,1.3486133,1.8069024,0.6611416,0.5516305,-12.0533,1.2749802,1.4138759,1.3298572,1.9954723,0.37711343
597.97541909505,-3.9260757,0.42086828,0.14527111,-4.575523,1.1030152,0.8100716,1.4989697,2.083029,0.7314588,0.643732,-13.108581,-0.33137923,1.4328297,1.4378237,2.043008,-2.4517086
598.642981296282,-4.142728,0.16098194,0.39622393,-4.089284,-3.851552,0.7620913,1.5284463,2.3749046,1.2031084,0.94162637,-11.784241,-3.5935822,-1.2182248,2.4758883,-2.4847722,-3.5848029
602.6316334779631,-4.0771675,0.40577808,0.15905102,-4.5151296,0.32833362,1.0118393,1.414052,2.324032,0.48210543,0.772326,-12.786896,-1.4682574,0.2632797,1.7476447,1.7397988,-3.677114
602.9660757273422,-4.4555054,0.3298878,0.3280504,-4.2841015,-1.0266521,1.052143,1.3905789,2.3123915,0.47146702,0.75370246,-12.208436,-3.3845706,0.7106847,1.7447952,1.3397691,-3.1137056
603.2998283170422,-4.4331217,0.25517747,0.27004313,-4.171172,-3.0865839,1.1358491,1.274497,2.6100366,0.20832554,0.79828113,-11.652042,-3.2095833,-1.3518432,2.0108373,0.42422506,-3.294491
603.6335686535476,-4.0652184,0.21797507,0.5106345,-4.0614324,-3.2765353,1.028707,1.0307678,2.5219429,0.19105287,0.52485573,-11.45928,-3.0421362,-3.1706028,2.1619725,-0.301037,-3.8692095
610.3291443798283,-3.8059356,0.005557482,0.20139965,-2.9272063,-1.7260319,1.1592423,1.3224599,2.4989884,-0.449782,1.1304917,-7.7499466,-2.960683,0.6727574,1.8046415,0.7316902,-3.1687567
611.3324826283111,-3.5697582,-0.6537901,0.011234914,-3.7105474,-3.6831872,1.637821,1.7661295,2.208728,-0.93960196,1.4115814,-9.99288,-3.1929407,-0.79209894,1.9473436,-2.9944954,-3.153006
611.9828288944624,-4.131081,0.39819032,-0.03149482,-4.676569,1.4921048,0.71182644,1.3214673,1.8681732,0.66848165,0.57628936,-13.334635,0.80529404,1.3831636,1.2674763,2.0485847,0.8182681
612.6507417911749,-4.4532304,0.4338708,0.10786885,-4.51513,0.83297443,0.9074718,1.425179,2.090139,0.6810148,0.71627545,-13.140751,-0.32703885,1.4539264,1.5523286,2.0010042,-2.9243267
612.9845472297768,-4.2686763,0.3639568,-0.06783995,-4.423393,-3.7827406,1.2378423,1.6714318,2.3817449,0.7826624,0.8701632,-12.623146,-3.6511862,0.90784365,1.9677627,-0.5737861,-3.7975912
613.2314676950899,1.7987345,-3.7966564,-4.5133677,3.630436,-1.446752,-4.4371324,-4.0429115,-4.237185,-2.915641,-4.225423,4.7872434,-2.0261915,-3.3258696,-3.8665636,-3.448795,3.1996734
615.4957687178843,-2.1907582,-4.000119,-4.315212,3.815681,1.538732,-0.950921,-3.6546535,-3.3481438,-3.9797635,-3.966732,2.8823986,-2.3077407,-3.1673608,-3.622558,-0.24443023,1.2231102
617.307072248301,-4.4235015,0.3190086,0.32533488,-4.3656635,-1.1096362,1.0121678,1.4568063,2.4919374,0.3453677,0.7430412,-12.48657,-2.9809525,0.37721357,1.7537454,1.0731373,-3.6106918
617.6419495365926,-4.349235,0.23233823,0.21277167,-4.3138833,-2.5265248,1.0093778,1.3688745,2.5082223,0.08452047,0.7577056,-12.403519,-2.9945278,-0.04219918,1.8953886,0.7499474,-3.5786395
617.9753606282869,-4.403429,0.4745825,0.26163888,-4.1467924,-3.211664,1.0941445,0.9444987,2.5136602,0.4385353,0.8208958,-12.233718,-3.8849359,-1.2875255,2.0294752,0.8489541,-3.3276722
618.3091164648787,-3.9657907,-0.37362066,0.4312433,-3.8907428,-2.9595568,1.317121,1.311652,2.640025,-0.0577306,0.52287567,-10.712198,-1.8748605,-2.7632973,2.2041297,-1.95657,-3.3745835
626.0084241371368,-3.8765926,-0.4553661,-0.099637605,-3.6480112,-3.3900473,1.8343129,1.2017303,2.496965,-2.095951,1.3345932,-10.13665,-2.7968671,-2.8267064,1.8587918,-3.0541968,-3.288902
626.6576566538322,-2.9566827,0.3566932,0.08742753,-4.5632896,1.378068,0.7057925,1.3530167,1.9599288,0.5633331,0.60880727,-13.299774,1.0700082,1.447986,1.352043,2.1309445,-0.14971676
626.9925645287154,-3.7058952,0.39637002,0.1059329,-4.596965,1.130765,0.7816409,1.4320688,1.9696705,0.70453113,0.6485971,-12.732764,0.7290279,1.4191645,1.4652857,2.01992,-2.1300333
627.3258403263696,-4.2003384,0.53381103,0.19860545,-4.4115434,0.16451159,0.937999,1.506553,2.2668338,0.71889216,0.8113361,-12.780836,-1.4635589,1.3604577,1.6652267,1.6788747,-3.4809403
627.6600715072444,-4.516892,0.15261252,0.14985155,-4.425834,-3.7835696,0.99328625,1.6385651,2.447666,0.8184548,0.8075827,-12.260915,-3.403439,-0.97496796,2.0962107,-1.8121856,-3.6111712
627.9938600471125,-4.019479,-0.50392896,-0.64952546,-3.9015682,-3.9758165,0.66814876,1.1561319,2.6421952,0.38269958,1.2996688,-10.778679,-3.2835672,-1.1970357,2.834275,-3.280317,-3.4247897
631.9825059466988,-4.2620807,0.19539802,0.40644515,-4.2672777,-3.1936398,1.2727344,1.2112644,2.5244515,0.2672856,0.93142533,-11.527386,-3.16819,-0.2441912,1.8732028,0.57773703,-3.8773327
632.113831429033,1.2219117,-4.257932,-4.7229652,3.504184,-1.9251602,-4.302876,-2.1416333,-3.5648785,-2.82894,-4.1206675,4.254513,-3.0550566,-0.82104105,-3.7037106,-3.2709537,2.8789775
632.3168808809797,-4.3849807,0.28096804,0.14223954,-4.199984,-3.6673534,1.2480735,1.2956032,2.580244,0.1112547,0.9056262,-12.0750675,-3.6229613,-1.5437531,1.9067165,0.15196334,-3.916043
632.6508208317952,-4.2717223,0.23512572,0.3764756,-4.2154307,-3.9578917,1.3004612,0.9740988,2.522617,-0.044845123,0.84668815,-12.124207,-3.8110085,-3.0226264,2.0053856,-2.300351,-3.7355819
632.9844083206727,-4.0303874,0.09020126,0.4362363,-3.7433333,-3.580867,1.3441389,0.5124605,2.6605642,0.43171495,1.0932393,-10.846696,-3.341219,-3.6851346,2.2627351,-2.7355156,-3.2706714
633.1117401972615,0.9642996,-3.898238,-4.0889273,3.528352,-1.6041746,-3.9518452,-3.6294901,-3.4903128,-2.5293057,-2.789447,4.7428036,-3.233987,-3.0804696,-3.3504386,-2.6075306,2.667662
640.6837182505567,-3.5834858,-1.35954,0.17597702,-3.5526786,-3.5507698,1.4643581,1.6515357,2.4597228,-3.0996726,1.5728527,-9.603752,-2.8824642,-2.1914425,2.177518,-2.7617662,-3.0707722
641.3335183619116,-4.1234007,0.5066103,0.3173796,-4.5735455,0.92080337,0.9331707,1.5185401,2.205676,0.72359985,0.7397648,-12.837294,-0.2935919,1.4660366,1.5738786,2.0222275,-2.9831553
641.667673331466,-4.482876,0.499281,0.18698955,-4.4238024,0.7473657,0.87910426,1.5109658,2.1878018,0.6749996,0.7895286,-12.575698,-1.589914,1.4010059,1.609024,1.9428836,-3.6230054
642.0014831520969,-3.8431745,0.21452735,0.20005165,-4.458225,-0.61951274,0.97316915,1.5763935,2.3239198,0.73447627,0.8044677,-11.830036,-1.5255256,1.250207,1.7362856,1.2204847,-3.53989
642.6692622988348,-3.580128,0.036774475,1.0417539,-3.740759,-3.415569,0.6275226,0.610591,2.537246,0.5021689,1.4378686,-9.687504,-3.052904,-2.105127,2.6659417,-2.6505377,-3.0961888
646.6580257684512,-4.441472,0.4439501,0.38688514,-4.1832056,-3.6769047,1.2919636,1.1092434,2.5445006,0.20625687,0.94289035,-12.243311,-3.6207836,-3.0979884,2.0229266,-2.4798145,-3.631808
646.9925690334887,-4.135377,0.30320528,0.43399954,-4.203897,-3.4221306,1.0002882,0.87999153,2.5947614,0.076166056,0.87864596,-11.621504,-3.207936,-0.9409218,2.0176942,-0.1612498,-3.6189735
647.3260359946927,-4.243287,-0.4836208,0.45116565,-3.8800583,-3.5496035,1.4352517,0.9973907,2.6963732,0.13661467,0.70102316,-11.586271,-3.5153198,-3.5070312,2.0315275,-2.5769143,-3.6167233
647.6599161348003,-3.628971,-1.6454563,-0.58225465,-3.6134188,-3.1866121,1.6348526,1.0954816,2.8016129,-0.62163204,1.0529984,-9.660961,-2.918384,-2.885126,2.519223,-2.416306,-2.9224102
655.0253372499009,-3.9930897,-0.8433488,0.9564474,-3.865724,-3.7889764,1.5706342,0.928813,2.5481749,-1.2145907,1.5277945,-10.893251,-3.5060198,-3.1337261,2.1644351,-2.9871693,-3.4979448
656.008808959616,-4.127382,0.3375194,0.17440005,-4.534086,-0.49900416,1.0380386,1.5920705,2.288931,0.74459624,0.78845537,-12.363487,-1.7800633,1.2681258,1.7346538,1.4451593,-3.7820404
656.6769149669507,-4.2158027,0.21104433,0.3433206,-4.3297205,-3.8712144,1.0384177,1.5802543,2.3451982,0.77075326,0.95179355,-12.466351,-2.977405,0.7126837,2.0045023,-1.7792242,-3.983931
657.0108110592557,-4.368711,0.24917288,-0.123772964,-4.2193246,-3.904037,1.1086429,1.2090275,2.6520693,0.5650583,0.736382,-11.613346,-3.8422618,-3.2791162,2.3689013,-3.4166508,-3.6341467
661.333466947226,-4.198461,0.37786016,0.4401439,-4.2656946,-3.7548041,1.4211588,0.9832341,2.580782,-0.3370913,0.9185496,-11.815814,-3.6266215,-3.3453674,2.1072083,-2.1430385,-3.747692
661.6680914675109,-4.334962,-0.03368438,0.64871204,-4.1437516,-3.6507218,1.0697632,1.28629,2.6951485,-0.7476349,1.1564769,-12.103193,-4.0062127,-3.4370863,2.06,-2.1373904,-3.5495512
662.0016556758274,-4.2048993,0.19455354,0.4862003,-3.8808603,-3.7074335,1.1388453,0.1959067,2.8179064,-1.2150388,0.710993,-11.020952,-3.351938,-3.3496442,1.7877882,-3.180635,-3.7419689
664.8366094006194,-0.16892642,-0.014840325,-0.241723,-3.6861827,1.721098,0.39997524,1.0332503,1.4928166,0.3643349,0.1955138,-10.643521,1.3692658,1.1028854,0.91850454,1.8259013,1.8070294
665.3361093271064,-1.6238863,0.26754004,0.031690568,-4.357679,1.6368549,0.62849987,1.2060279,1.8208443,0.57110727,0.40173376,-12.530873,0.66601825,1.2124703,1.0770508,2.1311808,1.3349015
665.8375133345984,-4.2140093,0.498355,0.19907229,-4.573739,-0.26147187,1.0359545,1.3934697,2.3179939,0.5738731,0.5532947,-12.966564,-3.3440042,0.7525938,1.5694559,1.8267608,-3.2170773
666.3378653010126,-4.170257,0.082007356,0.3686512,-3.5441926,-3.5610144,1.3668083,0.9789197,2.6070056,0.19346157,0.7744995,-9.654974,-3.1992967,-3.146306,1.4186771,-1.4688917,-3.2035537
670.6842149008764,-4.484487,0.48347855,0.12953618,-4.3627186,-3.7705624,1.2103709,1.5071197,2.3924127,0.65215015,0.939718,-12.660375,-3.6378422,0.36837465,1.9977031,0.42281282,-3.725194
671.0184734885361,-4.4426622,0.08804991,0.33156717,-4.357771,-3.8935263,1.2608293,1.65908,2.441757,0.69548786,1.0105704,-12.368192,-3.6251278,0.22889356,2.0476017,0.37943035,-3.9397528
671.3518386047365,-4.183956,0.18379922,-0.10259268,-3.972153,-3.889537,1.3574258,1.0401279,2.6160123,0.15355788,0.9667422,-11.692112,-3.809822,-2.0846891,2.157292,-2.5207598,-3.8002052
671.686369461285,-3.705997,0.08154992,0.3505375,-3.911333,-3.4727697,0.9653724,1.1488198,2.4901776,0.7359759,1.0462117,-10.482659,-3.2016056,-2.8069663,2.4385078,-2.531567,-3.0489728
676.0087263541498,-4.1622596,0.053715434,0.6793126,-3.8308976,-3.8162382,1.1335353,0.63986766,2.7038574,-1.5184028,1.2536972,-10.895603,-3.2379236,-3.100756,2.0728433,-2.3152683,-3.611372
676.3440946859712,-4.028513,0.22069246,0.19775775,-3.7790797,-3.7085524,1.3042542,0.43453842,2.6304524,-0.63117903,0.8185002,-10.363498,-3.4235923,-1.3510965,2.2294338,-2.7854404,-3.3773465
676.6770209830461,-3.7317472,-0.62396437,0.8609647,-3.4851325,-3.2036912,1.1900392,-0.35448676,2.9666097,-1.6584044,0.7778056,-8.831875,-3.2419212,-2.2854843,2.1673133,-2.5303488,-3.4085648
685.3596181849049,-4.4622965,0.25856334,0.52274936,-4.2704887,-4.0128303,1.1774925,1.552874,2.4441102,0.25801542,0.9341843,-12.057393,-3.4717226,-2.7703996,2.2744796,-2.2219899,-3.81265
685.6938257835305,-4.326864,0.056470074,-0.06880612,-4.178709,-4.0698295,1.0166479,1.2242886,2.5212317,0.70296526,1.088199,-11.329439,-3.7968383,-0.48850793,2.2385728,-3.2782826,-3.8076286
686.0279313931892,-3.5824385,-0.79558444,-0.69690657,-4.164843,-3.74352,1.0435686,1.606507,2.697547,0.708442,1.1752303,-11.383388,-3.116498,-2.4514847,2.6408124,-3.2829535,-3.565724
686.8496251342218,-0.5232934,0.025814448,-0.22623585,-1.7106156,1.8029326,0.38637823,1.0124387,1.4443713,0.40490168,0.21104102,-8.7080145,1.4593009,1.0768211,0.917186,1.7349762,1.7280171
687.3504403753851,-2.656828,0.28286213,0.016954174,-4.5970855,1.6692736,0.64470863,1.2316784,1.736476,0.54592824,0.4025166,-13.921942,0.9413816,1.1649228,1.0609179,2.1210508,1.2748036
687.8507106093722,-3.7651987,0.2615177,0.1851563,-4.36908,0.8728389,0.96460545,1.2753503,2.2175348,0.46692723,0.56857204,-11.988961,-2.8377376,0.90716124,1.4741173,2.0814128,-3.275071
688.3515765378075,-4.2174907,0.0779962,0.774744,-3.9551866,-3.9002209,1.3513305,0.74319154,2.738097,-0.7156266,0.7854159,-11.428917,-3.75792,-3.5342684,2.0242908,-2.4499679,-3.772628
691.0187258623997,-3.7305212,-1.3260262,0.22387849,-2.9552436,-3.084689,1.8094096,0.3011015,2.7214534,-1.6695988,0.621624,-8.676317,-2.9902058,-3.038982,2.0595694,-2.1417377,-2.954469
700.0348936237547,-4.1109877,-0.023360096,-0.9703703,-3.8996181,-3.0310628,1.0608361,1.4536734,2.482858,0.4258484,1.2045662,-10.971203,-1.9779395,-1.5771662,2.3224905,-2.981622,-3.251675
700.7031875343506,-3.4414687,-0.57302046,-0.12458504,-3.91701,-3.65179,1.1562039,0.925604,2.624493,0.79089355,0.95917356,-9.195411,-3.0240881,-2.618558,2.411977,-2.1500888,-3.0413477
706.1323636420491,1.2929211,-3.892463,-4.5676847,3.4919343,-2.0215511,-4.2710614,-0.96911764,-3.9395375,-3.6338503,-4.4237375,4.3631897,-3.0871139,-1.5372629,-3.843779,-3.162076,2.8261693
707.130415769561,1.496811,-3.7924433,-4.382799,3.5401766,-2.113641,-4.080483,-3.5395396,-3.6102068,-3.534336,-4.099796,4.5683174,-2.1388693,-2.9762344,-3.3944666,-3.0868826,2.9239426
708.8632285375837,-0.29009798,0.035067465,-0.2318906,-2.9703062,1.795479,0.40108827,0.99734014,1.4670041,0.32019538,0.1759258,-10.177532,1.5598958,1.0716373,0.9024161,1.8294436,1.7493172
709.3630779129818,-1.2203655,0.13389315,-0.050820872,-4.430228,1.6958237,0.611082,1.0960236,1.7103453,0.42724928,0.3952892,-13.727207,1.1005911,1.125809,1.1027404,2.0276718,1.4199568
709.8640888724873,-4.539208,0.3657777,0.23639196,-4.7180405,0.93259495,0.9897484,1.3122671,2.2105885,0.58455116,0.6616393,-13.1822815,-0.034753237,0.90701246,1.4989711,2.1091158,-3.4078305
710.3643860557818,-4.263457,0.53592473,0.08041244,-4.023397,-3.536946,1.4023014,0.873886,2.8107982,0.02139538,0.31088108,-11.79909,-3.2497218,-3.3506324,1.880868,0.59164107,-3.4547086
714.7102193079945,-3.5895646,0.15069568,0.86780125,-3.4212964,-3.3232765,1.1996291,1.2849292,2.2619631,-0.45950568,1.3234277,-9.44791,-3.1403248,-1.1261449,2.6242433,-2.5786402,-2.5986972
715.0445821791457,-3.6578634,-1.2057471,0.45361167,-3.5996752,-3.3845997,1.4909128,-2.3688712,2.8060718,0.30257946,1.3212191,-9.699035,-2.9050653,-0.55674005,2.4386826,-2.7034621,-2.919014
730.8767630007383,-0.23187646,-0.055223655,-0.23304734,-0.8475541,1.6540794,0.33970457,0.95597565,1.3692778,0.23211981,0.18129173,-6.833961,1.4368132,0.9827923,0.8482545,1.720238,1.6663533
731.3768159003127,-0.90001315,0.124435276,-0.07545067,-4.3097963,1.6976193,0.56660783,1.0469725,1.6370579,0.36869073,0.2772756,-11.72909,1.2894062,1.1120497,0.9934519,1.9986694,1.4382962
731.8771190384252,-4.283872,0.41837156,0.23434371,-4.5396276,0.973543,0.94190836,1.3442612,2.1810293,0.44291493,0.62787646,-13.487907,-2.9219866,1.1096488,1.4324075,2.2226677,-3.089819
732.3776301809983,-4.463406,0.18173432,0.5204257,-4.1923203,-4.012587,1.4259715,0.9504074,2.6598377,0.060820617,0.79275393,-12.297098,-3.7501159,-3.3570077,1.9381425,-1.9262236,-3.8818417
752.8898617937245,-0.12524873,0.01932152,-0.23961845,-1.5349088,1.7719156,0.43096384,0.9775757,1.4791971,0.34330085,0.21394028,-7.208751,1.5548736,1.08568,0.93943137,1.7623096,1.6355791
753.389508370205,-1.5463816,0.23593535,-0.023953486,-4.622653,1.6736077,0.5492966,1.1094735,1.6876636,0.43018007,0.33712485,-13.539911,1.3391225,1.1177856,1.0284628,2.0015743,1.2542735
753.8900434182241,-4.5674934,0.4484586,0.22873452,-4.479379,0.8523538,0.99706966,1.2760922,2.187904,0.32771948,0.67656493,-13.0753355,-3.1200264,1.0726793,1.4256554,2.1844478,-3.0721183
754.3906651160707,-4.3357124,0.38960397,0.45798564,-4.0185413,-3.6952527,1.4185416,0.79704714,2.6770096,-0.43310282,0.7191531,-11.554239,-3.7147639,-3.0197656,2.021857,-0.4340136,-3.789138
774.9021119012651,-0.2919916,-0.04261184,-0.20332429,-1.5543638,1.6661835,0.4030462,0.9628209,1.3856872,0.22169971,0.176247,-6.0389633,1.4852978,0.9977312,0.87164253,1.669097,1.5882123
775.4027308716969,-2.1445038,0.19562532,-0.10785238,-4.6273212,1.7187927,0.5736672,1.1694959,1.7032065,0.4507454,0.40396723,-13.205962,1.2966381,1.1513306,1.0974792,1.9880486,1.2572684
775.903432460491,-4.554712,0.42855048,0.2125263,-4.511596,0.9252295,0.97027355,1.2934126,2.1550076,0.44015163,0.65764797,-12.902525,-0.77694297,1.0609759,1.4319355,2.024335,-3.265561
776.4039661244722,-4.406281,0.050243977,0.5600066,-4.162274,-3.5192523,1.459309,0.8860141,2.6743295,-0.4336582,0.90410095,-12.238676,-3.3459783,-3.350625,1.9028972,-1.3952574,-3.8509536
796.9161402359701,-0.545226,0.0864352,-0.12702204,-4.1868486,1.7339131,0.4879431,1.0582627,1.5230287,0.35228527,0.30157027,-12.053084,1.5604888,1.1232486,1.0456585,1.8987802,1.5211949
797.4154612314934,-1.1896453,0.19687182,0.05413989,-4.3439465,1.6551588,0.62231123,1.171296,1.7602472,0.4510883,0.4253535,-12.9756975,1.162421,1.2048745,1.188492,2.0973358,1.1245978
797.9165098916963,-4.438562,0.42489737,0.22627388,-4.575413,0.9130663,1.0553833,1.3697828,2.2873824,0.36472875,0.6695345,-12.892096,-0.437533,0.9119878,1.484352,1.9875484,-3.4614248
798.4169615560422,-4.341221,0.06553662,0.5535891,-3.9593518,-3.8232489,1.4502596,0.98595333,2.5591807,-0.6804155,0.90147024,-12.21954,-3.9270828,-3.0375059,1.9429471,-2.9679368,-3.7306345
818.4274786359504,-0.3305799,0.07313205,-0.14529131,-3.455727,1.7479541,0.44843954,1.0129471,1.5323439,0.35015824,0.25926802,-11.027787,1.5753124,1.1091443,0.9786261,1.7769141,1.5506878
818.9283439183455,-0.6177169,0.07920242,-0.113467425,-3.8233047,1.7226213,0.5021644,1.0292608,1.6115348,0.31950533,0.3073955,-10.598255,1.3592552,1.0653936,0.97417873,1.9112461,1.4170886
819.429132422968,-3.9836233,0.26071835,0.12549232,-4.5622163,1.5831882,0.75914353,1.1481986,1.8440764,0.4267498,0.50106376,-12.707445,1.1542399,1.2529339,1.2167443,2.1610851,-0.17799181
819.9296502201292,-4.6313524,0.35282683,0.3465567,-4.662887,0.6119263,1.0229422,1.1896544,2.1971922,0.22962643,0.6856037,-13.195053,-2.6516852,0.70925677,1.5459234,2.0531547,-3.5949461
820.4302987687867,-4.203489,0.1772268,0.627143,-4.114834,-3.9730365,1.5075568,0.82399666,2.745788,-0.7987502,0.7739021,-11.902018,-3.7910407,-3.6899478,1.848127,-3.00441,-3.732401
841.9426105287413,-4.383102,0.42883232,0.47883558,-4.467302,-0.112786055,1.1875012,1.2718167,2.4223278,0.10966102,0.7675931,-12.3621435,-2.0885606,0.6557019,1.6450322,1.7377063,-3.710977
842.443289935428,-4.1303163,-0.12366785,0.62255824,-3.8900886,-3.8176577,1.5876956,0.4281651,2.8596685,-2.2899194,0.856257,-11.349983,-3.6482232,-3.6502898,2.1501477,-3.47562,-3.699126
855.7394047398545,-1.5339715,-4.154021,-3.7943668,3.9438868,-1.1869103,-3.5546966,-3.6929045,-3.6224904,-3.9496138,-3.9855103,3.447307,-2.9234939,-3.3174322,-3.5247529,-2.3815556,2.0593212
864.4566041414442,-3.9598904,0.24887468,0.7704633,-3.9335458,-3.7859344,1.7449831,0.54059297,2.648708,-1.2889866,0.9026845,-11.3176985,-3.5286267,-3.4466918,2.1265101,-3.2315578,-3.5706756
874.7845865062392,-1.302986,-3.9523976,-3.4521205,3.9070625,-0.9028917,-0.80412954,-3.9902363,-3.7353394,-4.3065104,-4.0863333,3.700197,-0.5702485,-3.557725,-3.9052527,-1.0849131,1.614292
876.7994265118355,-1.5713769,-4.1166143,-4.3366256,3.8749151,-0.8593937,-3.5010293,-3.9644806,-3.7641509,-4.3090377,-4.3011994,3.9910288,-2.4770439,-3.4557564,-3.8888013,-1.9748324,1.7654274
879.7397730424627,-0.896808,-4.5636954,-3.3110118,3.8081474,0.90761626,-3.1019757,-4.4781485,-3.7763655,-4.778303,-4.7037945,4.0337157,-2.1370192,-3.7677116,-4.282052,1.1033176,1.8408037
880.7436150035622,-1.8753775,-3.9793642,-4.3236494,3.9786754,-1.1767325,-4.0632687,-3.8982713,-3.399721,-4.20405,-4.1080723,3.9740777,-3.2843807,-3.443041,-3.7135468,-2.2115974,1.834159
882.7588778658212,-1.4794188,-3.647063,-3.9753623,3.884303,-0.24607942,-3.8583648,-3.7941077,-3.65997,-4.2008705,-4.0871663,3.5382118,-2.5986073,-3.164795,-3.706536,-2.1741834,1.6028657
886.469730388757,-4.0661387,-1.6202023,0.79878294,-3.9790416,-3.4940479,1.7808092,-0.69501144,2.734219,-1.4060767,1.4307986,-11.110872,-3.064587,-3.476342,1.9557134,-3.0518758,-3.3022213
902.81480752945,-1.755443,-3.7095335,-4.0978513,3.8048398,-0.66853845,-1.2908756,-3.80881,-3.6370678,-4.080572,-3.968384,3.894106,-2.3222346,-3.3974063,-3.592047,-1.6180831,1.8541348
905.7553324984265,-1.8381648,-4.006275,-4.565779,3.8500369,0.0032219908,-4.0094748,-4.1364565,-3.7163744,-4.495346,-4.3070908,3.462696,-2.9430923,-3.52845,-3.9613972,-1.4433024,1.9821528
906.7590834625811,-1.8476725,-3.9650757,-4.0192356,3.7422068,-1.2244927,-4.044431,-3.7010925,-3.3559284,-4.046427,-3.8794215,3.9345403,-2.7813048,-3.3825116,-3.6573856,-2.4986067,1.5800116
907.7703952060843,-0.9534792,-4.2231565,-4.826375,3.8109446,0.7713025,-4.6040897,-4.285246,-3.9771597,-4.630552,-4.517232,4.270505,-2.3434856,-3.5054462,-4.156475,-1.9174027,2.0477602
908.4830134545888,-3.7221792,0.23986657,1.2966139,-3.5656848,-3.2863717,1.8015567,-2.7824676,2.559947,-3.052235,0.9365825,-9.953068,-3.0387373,-3.3191433,1.125776,-2.6415458,-3.3060563
908.7745114487701,-1.8040396,-3.893223,-4.3959765,3.8975842,0.070235886,-4.024321,-3.7956305,-3.5488591,-4.109246,-3.99096,3.8912117,-2.6967978,-3.4339235,-3.6048775,-1.5292299,1.730016
929.9953015752143,-4.2477055,0.30498102,0.9090793,-4.228718,-3.9257424,1.5961138,-1.1259501,2.7040148,-2.2069314,1.1768581,-12.15084,-3.6019464,-2.6194644,2.2000353,-3.280393,-3.93781
952.0085148819553,-4.175051,-1.0122916,0.8551358,-3.8559616,-3.7805068,1.6870571,-0.23558268,2.7656298,-3.1548882,1.4372898,-11.540243,-3.5013998,-3.5537639,2.250017,-3.5644,-3.726406
973.5207398593361,-4.0181746,-0.18512532,0.84711915,-4.0812025,-3.8820474,1.6984183,-0.24230547,2.6820762,-0.61633235,1.2957027,-12.044643,-3.683459,-3.0936744,2.0955508,-3.3811672,-3.9971766
974.0216424123246,-3.8413048,-1.755305,1.201104,-3.6535707,-3.5463054,1.8098656,-1.2405491,2.6574774,-3.6583197,1.6046597,-9.957034,-3.2484014,-3.130833,2.1496005,-2.8638458,-3.4169633
995.0330679869421,-4.1232295,-1.1674322,0.86729485,-3.9611208,-3.9023488,1.7622412,0.12473213,2.7962043,-2.8807976,1.1611389,-11.543068,-3.6721125,-3.526269,2.2651465,-3.5419028,-3.6780849
995.5339872845539,-3.9869273,-0.9377696,1.1556345,-3.7488914,-3.456744,1.9091402,0.89988494,2.2746294,-2.851116,1.1798748,-10.114737,-3.2720408,-3.5642745,2.2380102,-2.4315112,-3.177099
88.04038948230482,1.8671896,-0.7418912,0.55114144,2.1454828,0.8697701,0.058629677,-2.5843942,-3.8481314,0.15324946,-0.13671647,4.416952,2.2480917,-0.22633208,-3.7473686,-1.6326681,0.017072702
96.9222867837585,1.8265066,-0.3542549,-4.8907266,1.9471335,-3.3307476,-2.5595255,1.7209722,-2.5046449,1.3276722,0.43589437,4.219004,-1.3310183,2.2501752,1.592974,-3.4329486,-1.1959828
108.90216723266548,1.6345809,-0.773276,-3.3917484,2.0976188,-0.4242472,-1.0606147,1.1506753,-0.05774341,0.6664761,0.12531044,4.070792,0.7618827,1.5721371,0.9792566,-2.770105,0.8330432
110.89905292095045,1.6805654,-0.8953582,-4.3575463,2.1199212,-3.3615386,-1.9080571,1.4814787,-0.8277621,1.197934,0.45640883,4.038194,-1.1101217,2.0686965,1.4283718,-3.696931,-0.5417784
111.0200149747156,1.3452393,-4.1993995,-0.03766569,1.9169115,-3.941279,-2.230435,0.93112093,-3.864592,1.8822232,0.40754184,2.6297092,-1.4688544,2.522118,1.4914236,-3.5382116,-2.725804
118.0228939088949,1.6819607,-2.9473574,0.06945732,2.1209478,-2.7241535,-0.6236572,0.13382728,-2.8312752,1.7021368,-0.037827525,3.0573106,0.9444011,1.6376628,-0.31408247,-2.821775,-0.8864955
125.00134359200638,1.709805,-1.6888647,-1.5152537,2.1478417,-0.1521204,-1.500943,1.1400491,-1.8187884,0.88526446,-0.11265815,4.354962,0.6880384,1.7320962,1.0962209,-2.1436713,0.901367
126.99838427140018,1.5326314,-4.0705976,-3.9438043,1.1364241,-3.9891021,-4.145662,1.7022302,-3.9277146,2.6079042,-0.57136947,-1.1126127,-3.5952652,2.7798724,1.826984,-3.7095282,-3.1020699
130.06243457097617,1.9468094,-3.5915008,0.51571816,2.0866258,0.44913828,0.1573198,-4.3482356,-3.3106573,0.33292308,0.058773603,4.601715,1.9866692,0.7081768,-3.151208,-1.461636,-0.272804
139.02313448504393,1.2766017,-0.43458995,-0.7149324,1.895135,1.1288322,-0.38047558,1.0948436,-2.7809093,0.65035844,-0.4868128,4.085728,1.7228515,1.4713033,0.76655805,0.47974506,0.11014441
142.99868975070655,1.9410682,-3.420057,-0.50476253,1.3388805,-3.5418208,0.7054391,1.394318,-1.3464632,1.1315969,-0.81469405,1.0166576,-2.6441777,2.4374137,1.1643906,-3.2415066,-2.9237492
150.88684917028493,1.8097377,-0.2703114,-4.9605474,1.3436866,-4.3019614,-4.156257,2.044334,-3.56006,1.689633,0.52046174,2.1387644,-3.8867767,2.534986,1.8706834,-4.100774,-2.4402578
152.884037473799,1.8062721,-0.43755686,-5.028969,1.3190831,-4.255673,-4.1555433,2.1459105,-3.3250375,1.7890737,0.66538346,1.8333647,-4.117415,2.6357832,1.9915429,-3.863333,-3.1750414
154.06243273088305,1.8745731,-1.8880905,-0.46004394,2.0401962,0.6168335,-0.3785612,-0.37435192,-1.9347206,0.85739744,0.030424578,3.94847,1.5102516,1.5320046,-0.08706773,-1.7349371,-1.5777194
156.92541498590168,1.7870432,-1.1998174,-1.1527478,2.3971677,0.13691907,-0.549032,-0.27702504,-0.39806038,0.329143,-0.5399882,4.855714,1.3834485,1.1010133,0.10334955,-2.4367557,0.80342954
168.043215974591,1.9317979,-2.6137953,1.9327232,2.6563256,-1.2229272,0.72236013,-3.281568,-3.5764983,-4.084803,-2.6021354,5.7660093,1.9219812,-3.0323198,-3.56867,-1.3496909,0.042851094
170.9024289952744,2.2346094,-1.7249477,-0.37579885,2.5973542,-1.9347235,-0.15396549,-3.3214235,-2.9433868,-1.1941108,-0.27916765,5.554222,0.5480426,-1.4030493,-2.8660715,-2.99399,-0.21926565
173.00938539915737,1.8647197,-4.027501,-0.83809143,1.4322258,-3.2944138,0.23343162,0.7871351,-3.5212162,2.0498035,-1.5360546,-1.2103071,-2.133239,2.5544343,1.0777344,-3.0592258,-2.3678637
176.02838560193672,1.2222371,-4.604695,-0.13753186,2.8501155,-4.1091905,-4.531744,-0.9896545,-4.1056213,2.1179473,-4.7480116,4.7534456,-3.662632,2.1274252,1.1096691,-3.5905485,-2.1647177
177.90594518143388,1.8261019,-0.19344755,-4.210717,1.9475893,-2.0550988,-3.9279008,1.627742,-1.2333248,1.2131655,0.44423184,3.8437514,-0.07849448,2.111471,1.4349155,-3.0960221,0.3108793
179.9028414094079,1.5593932,-0.075706765,-4.5612597,1.2404283,-3.7972033,-3.9462,2.0441403,-3.8762603,1.7990719,0.3288309,1.5987926,-2.8092844,2.5742993,1.833418,-3.8443751,-2.835093
183.01622524361176,0.9579044,0.43582428,-2.8750327,1.8517084,0.57847667,-4.1984434,1.3456484,-2.54903,1.829603,-1.4395977,3.4851606,1.3290874,2.150322,1.1002263,-2.2222164,-3.3105307
183.96314896731928,1.9341291,-1.5655149,-1.3714082,1.8873713,-3.809093,-2.7186387,1.1848289,-1.9124318,1.4445745,0.35732096,2.2090251,-2.5883083,2.166574,1.2108005,-3.5831168,-2.4636555
187.00169540760507,1.5789979,-0.35945466,0.090516634,2.4431963,0.7863691,0.07389931,-1.2700906,-2.254347,-0.4201565,-0.6889846,5.1751704,1.996566,-2.2000847,-4.193134,-0.4130508,-0.12104075
188.04567146893132,-2.1871967,-3.3963861,-3.8904264,-3.0725496,-3.9494483,-3.7588565,0.23127626,-3.5702791,3.2963932,-3.6556442,-6.4590535,-3.104936,3.0485914,1.4498284,-3.4795341,-2.9903204
188.06161420969258,-0.29312524,-4.0352902,-4.5742617,-3.182163,-3.7780333,-4.2717495,1.8553624,-3.764298,3.056974,-2.4204564,-2.9269419,-3.5159829,3.1618173,2.3745298,-3.754313,-3.6580377
192.8747678301292,1.6260277,-0.08349635,-2.1979373,2.0152588,-0.49677193,-2.2452352,0.80607074,0.07658303,0.49757344,0.28009748,4.2185106,0.83668876,1.338022,0.57208514,-1.9710481,0.59616405
196.05467685267845,1.6507688,-0.45674905,-0.16180152,1.77677,0.8546161,-0.5226284,-0.049733486,-2.3709478,1.0740219,-0.14147753,3.9521322,1.8862606,1.5672032,0.5964033,-2.2973886,-1.4664818
196.84284972347632,-0.022070821,-1.2690967,-2.864094,-2.1303709,-4.1532145,-0.3032,2.3629909,-3.380615,1.9373989,1.4497552,-2.223478,-3.9954495,2.838053,2.0240955,-3.7798479,-3.3756797
197.92142179424647,1.9874614,-3.1578622,0.5350608,2.680212,0.93205273,0.51033044,-3.3659554,-2.6090248,-4.056276,-0.5627277,5.318907,2.531035,-3.276867,-2.9034488,-1.5767106,-0.48854378
197.97079029094564,1.7577581,-0.89893323,-0.16556269,2.2445428,0.7797037,-0.580279,-0.18432328,-2.3074868,0.15457736,-0.7524068,4.864167,1.436933,0.78091556,-0.8384459,-1.2093602,0.24468791
198.83997255852645,-2.888017,-2.484765,-3.3806503,-3.4709005,-3.9327052,-0.8043452,2.5945642,-3.306317,2.1330616,1.6664065,-6.237643,-3.4504669,2.8885927,2.2729895,-3.21657,-3.351168
199.03801410164277,0.9511328,-0.30801418,-3.4812777,0.8119843,-3.0663762,-4.006228,1.4852134,-3.6517022,2.4094229,-0.19499294,-3.231754,-0.5659822,2.933633,1.7829791,-3.8420126,-2.9264438
203.00783554791133,1.8372965,-1.1854749,1.5549606,2.163387,1.705496,0.09569822,-3.6344254,-3.6799266,-3.7568898,-0.4228043,3.6447706,2.8195457,-3.331305,-3.8065574,-1.199201,-1.8755608
204.94176571712612,1.6711558,-0.62916267,-3.7440426,2.088339,-0.22061628,-2.1272085,1.3607624,-1.6131876,1.0472084,0.18207188,3.8313918,-0.5561432,1.9671189,1.2936567,-2.8686833,0.6148613
206.00182596328784,2.254312,-3.1216478,-0.736814,2.1162765,-1.1871163,-0.23155612,0.40560004,-3.6101735,0.37522283,-0.082991146,3.468529,1.1951258,1.0267646,-0.75271463,-3.307538,-2.4198961
206.93902676715402,1.8079379,-0.8834739,-4.7224703,1.8119669,-3.5148795,-3.2258468,1.8485751,-3.341275,1.7243806,0.48698553,1.7896171,-3.4787009,2.5853822,1.8533418,-3.7137837,-2.8237724
210.84240628593324,-0.29382426,-3.4571161,-4.714587,-2.880756,-4.176098,-4.5100484,2.6861944,-3.8455036,2.674655,-0.6921809,-5.514624,-3.9998524,3.0858302,2.5485406,-3.9875433,-3.786955
211.001576672857,1.417527,-4.6110272,-0.058770128,2.7090523,-4.272821,-3.9596498,-3.4627762,-3.5182757,2.355093,-3.9619203,4.2245274,-3.570273,1.9406742,1.2225391,-3.112815,-1.4454696
212.88710115128885,2.1477938,-2.1392875,-4.663012,2.142043,-3.881332,-4.0924582,0.84842455,-2.766985,1.6280669,-0.15121035,3.1212986,-3.011093,2.259878,0.65426815,-3.4362607,-2.3249698
216.03618526722593,1.6488777,-1.5005493,-1.8065305,2.1378572,-0.58691275,-0.6945191,1.0714475,-0.8296224,0.8067714,-0.21415818,4.1141434,0.30832186,1.7443495,1.0768073,-3.0440984,0.5571195
216.9287627592466,2.2316887,-3.1022897,0.44044173,3.0184226,-0.089470714,-0.054027554,-3.7694268,-1.8834608,-4.3600607,-1.2496706,5.429941,2.4267135,-3.6267107,-3.554438,-1.9780803,-1.3312224
217.01241249182988,2.074617,-1.8441509,0.64188385,2.4254546,0.71172196,-0.5887054,-3.8717368,-2.4121888,-0.9582932,-0.48651642,4.983625,1.2995054,0.80524725,-2.3187678,-1.6154672,0.87756765
219.04566742133866,1.4667765,-3.8045485,1.3480848,2.038383,-4.265371,0.99591476,0.6428831,-4.1386256,0.98797923,-0.2667464,3.094457,-3.40698,1.8195056,0.7909154,-3.3700666,-2.6477816
224.95798481468776,1.8700016,-3.3351142,0.5708184,2.8493652,1.062175,-0.20652008,-4.1921077,-1.9364341,-3.651209,-0.4724785,5.1926603,2.2595446,-3.4534478,-3.636579,-1.6180727,-0.62750953
224.98973047401952,1.8456459,-1.3416523,0.93292475,2.3390472,1.3939497,0.42418984,-3.66867,-3.6150432,-2.2497056,-1.0447528,4.338636,2.4088097,-1.0161029,-3.4885926,-1.6465143,0.028575111
225.06208254065837,1.1997589,0.19208476,0.110540494,2.151804,-0.009438828,-2.5604107,-0.41494352,-3.6897283,1.1022645,-0.22905801,3.9904685,2.0219693,1.0747914,-0.93780357,-2.9952977,-0.87551135
225.98662968204684,1.8670197,-1.5931493,-1.2129414,2.162827,0.28111407,-0.7527849,-0.12141416,-3.394951,0.69318783,-0.008309772,4.1261215,0.9928338,1.3537736,0.4471457,-2.9295003,0.39898974
227.20205935346317,0.29569942,-0.5919404,0.19660537,2.087612,2.5077,-0.27626857,-1.0207849,-2.9164114,-0.2898609,-4.1669908,0.6173632,2.9302816,-2.9898076,-4.362012,2.1310203,-0.35886383
228.0514646729996,0.33392146,0.96382314,-4.1416016,-4.0324717,-3.7840009,-2.443716,2.8214989,-3.695488,1.6786582,0.7652741,-5.6308675,-1.9338634,2.7547932,1.7309448,-3.418565,-3.5496178
228.064637989851,1.7001046,-1.6153555,0.27021345,2.5180824,1.4251487,0.37720764,-4.3310747,-2.5200458,-3.687726,-0.746293,5.367363,2.025042,-3.5273755,-4.347437,1.1879926,0.9263535
229.01209235449537,1.746876,-1.7519184,1.1986583,2.8897288,1.7341644,-0.14860833,-3.7810178,-3.101462,-4.430516,-2.6406522,5.9802437,2.840661,-3.4864147,-3.8341208,-1.1224897,0.13323174
230.01681152516386,1.0853304,-3.7998455,-4.05519,0.81069005,-3.6499083,-3.9900026,1.687251,-3.5512881,2.8503447,-4.257114,3.0201545,-1.5539804,2.693815,0.8692029,-3.0680752,-2.7441964
234.85947578714223,1.6759285,0.1460509,-4.736206,1.5038427,-3.4448056,-4.508966,1.936282,-3.334651,1.8163395,0.23652758,3.4809933,-1.3205249,2.5358045,1.6621403,-3.9516768,-1.6261164
236.00500697158222,1.1782345,-1.6129645,-3.9992833,-3.119458,-3.2077785,-0.2335696,2.3322556,-2.6602597,2.2639585,-3.1829293,-3.1240225,-1.8744047,2.9845738,1.4006623,-3.0170367,-3.2811532
238.90117805852654,2.0010564,-0.31476256,-0.3039245,2.2966926,1.0887754,-0.2472296,-3.8679743,-1.3426731,-4.403721,0.020360846,4.7822495,2.1029477,-3.6046677,-4.1765027,-1.3883208,0.9049749
239.01703058836446,1.1143423,-0.078730814,0.5761399,3.0597944,-0.43399236,0.91776437,-3.7762625,-3.2558172,-4.0171323,-2.2746458,5.9192824,1.6935518,-3.5384696,-3.661834,-1.5487906,-0.6714196
241.2176960257089,-0.29333073,-2.7746873,0.46250653,2.2954676,2.8501184,0.030375676,-4.5907946,-2.3476496,-3.3142838,-4.578871,0.53103805,3.2235305,-3.9138691,-4.2227364,2.2070065,-0.85132104
243.9569907819224,1.7260596,-0.708844,0.18480362,2.0601013,0.5643505,0.02925431,-1.768847,-2.1343594,-0.47189325,-0.041745756,4.578581,1.7193394,-1.0590636,-3.033344,-2.2609406,0.5774934
243.96634125345926,2.2857943,-3.9895504,0.8623407,2.8419683,-1.9089473,0.29399505,-4.265639,-3.587185,-3.9627728,-1.3902041,4.9956913,1.9520619,-3.6497164,-3.49305,-2.1807997,0.16012241
245.05446506999195,1.9458658,-2.1662123,1.3241297,2.5370712,1.4852589,0.8713033,-4.0567846,-3.8405051,-4.7950687,-0.8350284,5.5087905,2.548187,-3.8674605,-4.024878,0.8570701,-0.5703279
252.02560449977886,1.8799592,-1.171123,1.3567512,2.617715,1.627395,-1.9014021,-3.9485848,-3.5363264,-4.468156,-0.96934885,5.34137,2.586078,-3.4681191,-3.8656094,-2.2365181,-1.0642608
253.00992732046052,1.632163,-2.3570461,-4.579596,1.2515497,-2.789907,-4.4033213,1.4495504,-3.566306,2.36588,0.041941088,-0.31076288,-2.4414995,2.718307,1.7245576,-3.7439115,-2.5265555
253.21776629818507,0.765675,-1.9827144,0.4539801,2.602753,2.5503201,0.4298665,-4.831423,-1.8796961,-5.20187,-4.7149405,2.0511107,2.8306403,-4.344015,-4.595663,2.4340575,0.02164295
258.9966528160474,1.8437331,-0.7175448,-1.2849479,2.2173784,0.32134464,-2.4425976,0.8951817,-3.1366186,1.0197757,-0.49915904,2.8901196,0.8846564,1.8021098,0.6119576,-2.2869868,0.71270037
262.90041445787443,1.4003818,-3.261365,-4.7281146,0.15523247,-4.201539,-4.596133,2.2977889,-4.009884,2.4547017,-0.23835084,-0.26669264,-3.4099953,2.9208665,2.2353415,-3.9843304,-3.3767023
263.0410068270129,1.9397439,-2.849365,-2.9424489,-1.7856945,-4.067954,0.46569598,2.032395,-3.0515223,1.384845,0.7563573,-4.202758,-3.4024231,2.8009126,1.7951608,-3.8330748,-3.6560626
264.8975673009733,1.2836322,-2.7459993,-4.7393403,0.33105588,-3.930209,-4.4514675,2.2903783,-3.9619682,2.3412209,-0.073947586,-2.8206196,-4.0773745,2.883232,2.1995006,-4.023354,-3.5606203
266.9424158596048,1.9738948,-2.0944278,-2.9965396,2.3316445,0.07962812,-0.5785293,-0.04348653,-2.4507918,0.47358048,-0.43177676,4.3999057,1.1366147,1.1053889,0.39281967,-3.3596382,0.051297724
269.24867786223507,-1.1169877,-4.5797424,0.53165805,2.021567,3.1898804,-0.17964934,-4.000453,-3.863637,-4.5398293,-4.556844,-0.49618363,3.5769708,-3.8607116,-4.029578,1.8025185,-1.9595062
270.0913605695849,1.8100709,-2.419747,-0.2904784,1.7725474,-3.7747905,-2.1566396,1.4914185,-3.8651125,1.7235543,0.28095874,0.7342951,-2.6153946,2.4202058,1.6491288,-3.746676,-2.735697
271.10340537771975,1.5754691,-4.259154,1.3514936,1.1055493,-4.711504,0.91561544,0.9387561,-4.6030574,1.2339079,0.37398475,-1.5819223,-3.3784263,2.1210668,1.2205915,-3.7779346,-2.914058
275.03658577190896,0.13781112,-3.1711204,-4.281758,-0.33587083,-3.8204207,-3.4391782,1.6572306,-3.422064,2.8207178,-0.5852989,0.34406185,-3.017086,2.7519479,1.0321047,-3.1622355,-3.1553376
280.0286298039873,1.7989321,-0.6434707,-3.2393527,1.7115504,0.15264687,-3.9381807,0.9052756,-3.3850858,1.8323182,-0.119150646,3.1824305,0.9302007,2.260663,1.3720633,-3.5406196,-2.83201
281.0362856493995,1.9572741,-3.8796604,-0.63803834,2.1088529,-1.2541623,-0.5704591,1.1404959,-3.3448575,0.96943206,-0.514127,4.708087,-0.764195,1.8653479,1.1411343,-2.7053146,-1.8525832
281.0518004312097,1.6684723,-2.5336964,-0.415412,1.9602842,-0.9756256,0.23414853,1.1579701,0.34785354,0.58732295,-0.059722718,3.0540805,0.6839298,1.6798722,0.99822223,-1.2822883,0.29960412
281.24029940640725,-1.9837011,-3.7090573,0.8298897,2.4633982,3.01042,0.47030574,-3.9845307,-3.6117125,-4.306539,-4.0309215,-0.1082232,2.9497335,-3.5512035,-3.7501051,2.3403091,-1.6168759
283.25573969089584,-1.2161497,-4.740532,1.1365896,1.8579711,3.0404766,0.49084255,-4.3988266,-4.0187273,-4.622124,-4.5646925,-0.016841173,3.4705088,-4.0189304,-4.262918,1.998957,-2.409978
284.26762446091493,0.93316364,-1.1082457,0.058308337,2.1431186,2.702154,-0.2765484,-4.2551026,-4.028681,-2.3402927,-2.250676,1.3986989,3.174953,-3.8458712,-4.4464746,1.7712989,0.7605186
284.7752181446451,-2.1001947,-4.1471195,-4.553096,-3.5463924,-4.177341,-4.3853536,2.809251,-3.802081,2.7770746,-1.842312,-6.246089,-3.666415,3.1420064,2.6307092,-3.9036345,-3.522487
295.2282245509332,-1.7263929,0.15575466,0.8056613,-0.5681996,3.3115544,-2.8059556,-4.110572,-3.6500134,-4.207361,-3.5947347,-1.7287748,3.8591573,-3.0555234,-3.527109,0.72918516,-2.2403126
296.99945362653375,-1.9421918,-3.8411112,3.1106856,2.4352403,-1.8100824,-0.8618258,-3.6304274,-3.669726,-3.8043761,-3.934681,1.250611,2.3196814,-2.7797663,-3.2508457,-2.4136834,-1.6212993
301.21751275776575,-1.6100427,-4.7317696,-0.36176944,1.8560859,3.2486584,-0.37899834,-4.487755,-3.2848284,-4.7200284,-4.2780647,-0.27041554,3.5207622,-4.0806074,-4.220036,2.2858524,-2.9714925
303.05047978091903,1.9429322,-3.1778023,-1.4108644,2.2677689,-3.8043933,-2.4311233,1.0000993,-3.8460817,1.4241908,-0.6881828,4.6228027,-3.1782513,2.0300276,1.0992845,-3.4749253,-1.7071396
304.23647570057256,0.99370104,-2.3028774,-0.19623926,2.5761933,2.5375855,0.41193032,-4.8545527,0.0068502743,-5.156329,-3.9921203,3.04567,2.7611554,-4.268981,-4.529307,2.3350594,0.40291953
307.26475333661443,-3.0719829,-4.977958,0.41280788,2.0265012,3.2035613,0.9432719,-4.5657353,-3.75157,-4.8908963,-4.573856,-0.33209753,3.4188602,-4.13196,-4.3680778,2.2388387,-1.9988905
308.0987783478931,1.8435355,0.3065222,-3.93254,1.8670199,2.2126336,0.07763641,-3.570763,-3.7610128,-1.0377303,-1.9448425,4.681279,2.5845573,-2.361646,-3.2315297,-1.0487742,-1.4737873
323.028674108115,1.9243574,-0.07279504,1.5368434,2.0176728,1.849784,-0.21194696,-4.596641,-4.18288,-4.9115696,-0.46682793,4.8944497,3.0382392,-3.9466765,-4.3207216,-2.316031,-2.1449513
327.2334488570279,-0.9553487,-3.529586,-2.3803174,1.6032999,3.2063763,-0.18775763,-4.336886,-1.8263881,-4.7397394,-4.047918,1.1651905,3.4550402,-3.873638,-3.8027241,2.3102272,-3.0373666
329.24916906370004,-0.9826162,-4.415875,-0.5030392,1.895312,3.295371,0.24651967,-4.535786,-2.897503,-4.872461,-4.466387,-0.2569039,3.471489,-4.165973,-4.2348633,2.4496305,-2.604592
331.2643761131768,-0.145248,-4.6240954,-1.2218324,1.5514725,3.2404807,0.6492052,-4.610529,-1.7549707,-4.8562713,-3.892295,0.19315791,3.566842,-4.029693,-4.1568894,2.3722765,-2.9935765
333.09419689884004,1.7244215,-4.199316,-0.029887386,1.9767026,-0.021926342,-0.16602837,0.7879609,-1.665802,0.58090353,0.10804979,3.7519298,1.4919014,1.7078557,0.88523245,-2.9014149,-0.67401356
347.04014579367134,1.13084,-0.73116314,1.8563808,2.1751711,2.5288305,0.08771748,-4.030457,-3.8580854,-4.2555985,-4.0105314,3.6490192,3.3935444,-3.4708385,-3.7797863,-2.0147665,-1.009326
360.9624010138954,-0.85967505,-3.6662445,-4.1119494,-3.045064,-3.2435627,-3.5951786,1.446323,-2.9600997,3.3582761,-3.604044,-2.6182456,0.24252996,2.5712233,-1.7956058,-2.986356,-2.6773438
360.9714027015639,-2.114603,0.6533247,1.263581,2.832161,2.870329,-4.430366,-4.120521,-3.9869533,-4.4534836,-4.273416,2.6775444,3.3092597,-3.6378632,-3.9096465,0.2321829,-1.9822221
362.051071780642,1.2035948,-3.006408,2.527651,2.7555873,1.5645498,-3.2552364,-3.8658702,-3.6272495,-4.2481785,-3.666666,4.7106733,3.2440138,-3.481402,-3.714326,-2.7595046,-1.7239963
362.9596002952725,-0.6805939,-0.24255577,-3.5168242,0.6376975,-3.2819383,-3.788182,2.024201,-3.6742332,2.4360967,-0.5223253,1.1282372,-3.1033008,2.8225954,1.5403789,-3.3614821,-2.7560499
364.9569285058741,0.8037694,-1.3798028,-4.2387767,1.1273259,-2.159323,-4.160577,1.6389142,-3.6365445,2.6301975,-0.13552658,1.7256882,-1.2310147,2.5539284,0.94260347,-3.5717018,-1.9696591
382.9051074017063,-0.51310134,-3.3277557,-4.3421187,2.0427535,-2.7213502,-2.564887,1.3804138,-3.5554254,2.6588283,-0.39081103,-1.8965135,-2.3038583,2.7355657,-1.9199339,-2.5447655,-1.5747955
384.9021188095627,0.88861775,-3.6111023,-4.079378,0.4629883,-2.5747519,-3.692107,1.6335325,-3.067272,2.772351,-3.1386929,0.19729948,-2.3104866,2.7556736,1.5256692,-2.5607207,-2.731952
393.2782623168676,-3.1888576,-3.073078,-4.2069807,0.7470318,-2.893458,-3.2460246,1.4616584,-3.201919,3.0932858,-3.927602,-1.5015044,-2.8481333,2.782716,-0.46166614,-2.6385834,-1.4307011
396.9206742817861,-0.0836275,-1.3316216,-2.9648385,2.1369252,0.92217904,0.22746027,1.1191307,-2.7473168,2.0518432,-2.4486766,3.97496,-2.3685603,2.367728,-2.08275,0.10836982,-1.3171039
398.9177721690224,1.008157,-3.3509183,-3.5878103,1.6391727,0.72967523,0.24691416,1.4404006,-3.5899704,1.9909654,-1.0412585,4.1283197,-0.79669505,2.2264578,0.49480867,-1.5229435,-2.0458708
423.9395643825002,0.14058496,-3.2941744,-0.2911516,1.800888,2.303822,1.0614572,-0.67046875,-3.765468,0.68616307,-1.9725821,2.970934,2.9208093,-1.3535371,-3.407885,1.8524357,-0.7503344
437.9553421313627,0.29351813,-4.413256,-0.03818496,2.6688688,2.4119542,1.5069191,-3.6570182,-3.5968893,-4.3555417,-4.4136777,2.2985425,2.908088,-3.660741,-3.9197397,2.4331431,-2.4901264
439.9524092951356,0.39163256,-3.2257454,0.20480561,2.7878218,2.388857,1.550787,-3.5993655,-3.2333694,-3.2740343,-4.0886416,2.4114883,3.217597,-3.332422,-3.4968424,1.8748767,-2.08191
451.9709186513586,-1.4248909,-4.356514,-2.6595695,2.8569226,2.685454,1.6741354,-3.9944398,-3.9515731,-4.2244577,-4.2536974,2.3620484,3.2382832,-3.6562824,-3.8306172,1.8197829,-1.4480596
457.90052695249165,-1.6369638,-4.379748,-0.6083132,2.8416333,2.6541865,1.8123859,-3.9784222,-3.3591404,-4.0476255,-4.0588255,1.5583017,3.1922154,-3.5557199,-3.7053838,2.5279365,-1.3921547
459.8977515489512,0.7301385,-3.3356628,-0.88920623,2.5708778,2.6105125,1.8943309,-4.0052366,-3.530419,-3.966644,-4.133594,2.0530095,3.1737552,-3.619558,-3.636614,2.2889423,-2.0201094
464.85043842507764,-0.6705506,-2.970734,-4.013241,0.94198006,-2.6601763,-3.3828695,1.9128897,-3.3104312,2.754733,-2.9744756,-0.11943889,-2.741871,2.6324074,0.9874202,-2.9810462,-2.6541872
465.986391371257,-0.047839954,-4.9057145,-1.7719498,2.9321625,2.5810027,1.3511888,-4.6014857,-3.4086113,-4.788304,-4.708556,2.0599146,2.9528441,-4.175501,-4.4067783,2.409326,-1.0390599
466.84747244516325,1.0466374,-3.5912716,-3.7056742,0.93482053,-0.17052402,-2.4315464,1.2904536,-3.3538435,2.5884216,-0.7207084,-1.1392338,-1.1312575,2.735616,0.6287184,-2.1203358,-1.379561
467.98362166700974,-1.4779509,-4.525367,-1.2609707,2.9873533,2.6961055,1.3366163,-4.398772,-3.715366,-4.7428727,-4.5480604,1.7858355,3.0027893,-4.096411,-4.194973,2.5248706,-1.882441
471.91621148448985,-2.4072683,-4.561054,-0.39747533,2.9437282,2.6961112,1.5977896,-4.3256598,-3.8007681,-4.735306,-4.4584913,1.7282755,2.9265237,-4.0913405,-4.2135696,2.4144447,-1.784278
473.91335764945956,-0.63765347,-4.662315,-1.729241,2.8798945,2.7463312,1.8441948,-4.3238688,-3.9194534,-4.6198244,-4.525815,1.316375,3.1050184,-3.8803434,-4.138948,2.5671966,-2.0274713
528.2732926516458,-0.6386971,-4.9368987,1.1910218,2.439406,2.9018207,0.6374056,-4.605864,-3.6343818,-4.890787,-4.679803,0.55393124,3.2467291,-4.1876717,-4.4673176,2.3850822,-0.91923845
788.5476587894711,-0.7203041,-2.8943021,0.3282215,2.22496,2.9733057,0.048214905,-3.9672153,-3.3512607,-4.340728,-3.9566193,0.25682855,3.0685265,-3.4882958,-3.6056757,2.4061663,-0.7605247
885.553757973446,-0.24689463,-4.966744,1.1141307,2.3721716,2.8049197,0.3565889,-4.6139383,-3.2269766,-4.8928266,-4.6327095,0.6624317,3.2321386,-4.2736692,-4.4317417,2.3207216,-1.4562662
886.556970803666,-1.321806,-4.2320766,1.641251,2.1891718,3.0258305,0.4267669,-3.9173996,-3.54936,-4.313769,-4.0191526,0.67190814,3.15932,-3.49839,-3.6899107,2.6132665,-1.9890841
