,Shared topic 1,Shared topic 2,Shared topic 3,Shared topic 4,Shared topic 5,Shared topic 6,Shared topic 7,Shared topic 8,Shared topic 9,Shared topic 10,RNA private topic 1,RNA private topic 2,RNA private topic 4,RNA private topic 5,RNA private topic 6,RNA private topic 7,RNA private topic 8,RNA private topic 9,RNA private topic 10
HES4,0.026294975,0.7177712,-1.6557401,-0.39376682,0.027462715,-1.6042866,0.7296753,-0.1313489,0.9093484,0.38555416,0.291944,-1.7572446,-0.2758077,0.84000075,-0.8501656,0.23613332,0.45355228,0.57378423,-1.2489396
AGRN,0.7645032,-0.9087057,-0.18889199,0.33859426,0.71548766,-0.16313346,-1.7730201,0.7546567,-2.8838882,-0.6730316,1.0699979,0.15571229,-1.8353013,-0.17535293,0.06874813,0.7956927,-2.7184343,0.107118495,-1.4387406
TNFRSF4,0.7279367,-2.3612282,-0.14768234,0.5320409,-0.14159079,-2.4128664,-0.28449127,1.0584952,0.43146732,-0.20267038,0.615284,-2.164671,-2.4226637,-0.67383605,0.2801895,1.4342608,-2.3000734,-1.4471838,-0.052076478
SDF4,0.032162186,0.41193286,-0.67822754,-0.6266069,-0.5460528,-0.4925909,0.4954253,-0.34230146,1.0411013,0.675018,-0.2577368,0.17730129,-0.14827664,0.40678668,-0.6581639,0.017332463,0.5942398,0.74926573,0.2708022
MXRA8,0.7389602,-0.4555547,-1.090878,0.25162992,0.5650334,-0.10811055,-2.3187387,0.0041716993,0.570186,-1.1412492,0.8572653,-0.22709686,-0.9224639,-1.8176197,-0.9731248,0.6428673,-1.9242504,-0.039234843,0.2680237
AURKAIP1,0.2036455,-0.0031096353,-0.77458227,-0.026361138,0.034093484,-0.14803882,1.1776536,-0.28720665,0.8364726,-0.6150126,0.20340563,-0.065709405,0.3932373,1.065574,-0.44386956,-0.0021532173,-1.4743559,0.45673788,-0.43548736
CCNL2,0.10204187,-0.46162337,0.2793814,0.118360445,0.67592615,-0.1696164,-2.6041431,0.33596474,-1.9954123,0.6620289,-0.17437835,-0.24871807,-1.6439933,-2.6390781,0.49287686,0.36433038,-0.43858016,-1.7514981,0.11483588
MRPL20,0.005025284,-0.044292696,-0.61297596,0.020706696,0.18512459,-0.012742935,0.7700187,-0.17549543,-0.18055347,0.7619064,0.44977647,-0.17544022,0.8053749,-2.0600033,0.113697216,0.14142047,-2.3147047,-0.2925104,-1.19356
VWA1,0.16800791,0.5807602,-0.65904284,-0.5028649,-1.1487148,-0.69389784,1.166342,-0.12711188,0.8523008,0.00052497914,-0.17352854,-0.07172541,0.49868336,0.7438542,-0.75881517,0.36526287,-0.47674626,0.8668559,-1.1957952
SSU72,-0.16049832,-0.26768532,-0.8859003,0.28736025,0.5767468,-0.059262514,-0.9837717,0.5731459,-1.5119745,0.34069252,0.058124278,-1.3463455,0.34414715,-2.119995,-0.5030181,0.7190575,0.5075713,-1.1001692,-0.47816935
GNB1,0.21154211,-0.20171802,-0.5109231,-0.24687308,0.17490818,-0.11081599,0.7418952,-0.0496906,-0.4228262,0.7555931,0.08256868,0.55664945,0.53783524,-1.3858358,-0.011856778,0.18203036,0.23006128,-0.52552027,0.39312387
FAAP20,0.21923503,-1.28437,0.09101385,0.8586091,1.0624225,-0.4397125,-1.0133139,0.651105,-2.8126602,-2.7190573,1.0253913,-0.16072023,-0.37382823,0.50919145,0.5463163,0.33266845,-2.4662187,-0.11953559,-2.258284
RER1,-0.57876563,0.46006197,-0.38884923,0.10624514,-0.047056396,-0.3382364,-0.035026547,0.29895622,0.19673799,-0.124697275,-0.43557438,-1.6696986,-1.2014475,0.83845973,0.1746166,0.2919027,0.009457111,0.8451728,-0.80765605
TNFRSF14,-0.5353583,0.5068967,-0.71635324,-0.071845986,0.10532038,0.065895736,1.1069839,-0.36185086,0.38567078,-0.29556942,0.31536114,-0.29676697,-1.7531192,0.51886725,-0.310014,0.056588177,0.34860778,0.7461181,0.16073748
CAMTA1,-0.01462948,-0.63518816,0.013955518,0.6697457,1.1680659,-0.5926082,-2.8656545,0.6173526,-2.585966,-0.23415612,0.39942664,-0.10358967,-2.6008713,-2.3777196,0.31280312,0.37980977,-1.9971513,-2.694113,1.1419758
VAMP3,-0.7726926,0.10084119,-0.103992656,0.5762142,0.46022367,-0.21569566,-2.0537179,0.33040825,-1.1312033,0.71499544,0.55829346,-0.071344174,0.5758769,-2.638346,-0.5709931,0.027592074,-2.5671213,0.3861708,0.046883665
PARK7,-0.049762655,0.4958457,-0.44706345,0.10243858,-0.05274805,0.13702367,0.025287746,0.19926742,-1.3819337,-0.3206859,-0.42255086,0.80047137,-0.17764892,0.49874339,-0.0006933548,0.45039415,-2.456816,0.3878671,-0.10027762
ERRFI1,-0.069011346,-0.056598596,-1.0342218,-1.0375677,-0.04625759,-0.17371167,0.8490005,-0.08723969,0.13821079,1.3327328,-0.44616106,-0.9610159,0.5810956,-0.1739726,-0.3241383,0.0959181,1.2138493,0.4984978,0.40319636
RERE,-0.10365938,-0.3934993,-0.25696805,0.5529884,1.0926126,0.25937992,-0.46348432,-0.33927578,0.62359273,-3.0874112,0.5936022,0.7286696,-2.517578,-0.552636,0.4399875,-0.3222614,-2.1913357,-2.424775,-1.5438392
SLC2A5,-2.0354414,1.1271977,0.027307568,0.26049042,0.5999793,-0.06701852,0.708245,-0.9182719,-3.052288,-0.5196558,1.1255891,-1.290526,-0.4394283,0.84359354,-0.004856482,-2.540426,-1.3238479,0.17921951,-1.4554877
CLSTN1,-0.11468107,0.5979728,-0.39870873,-0.00716597,0.0029278537,-0.012906064,-1.4174632,-0.048236616,0.60072637,-0.04399996,0.089847535,0.28680867,-0.006863125,-0.97722673,-0.023039551,0.07187334,0.352226,-0.07542593,-0.5091
RBP7,0.51729643,-0.032493852,-0.47076938,0.25480655,0.07553907,-1.5088574,-0.41173694,0.33540812,-2.152504,1.0680404,0.312591,-1.5160545,0.3938618,-0.52782845,0.62609005,0.7996878,-1.9160621,-1.0358199,0.51919204
PLOD1,0.71935314,0.34230575,-0.36204717,0.2626433,-0.24917951,0.30617103,-0.6744115,-0.17269887,0.33663547,-3.086868,0.39125553,-1.3637148,-1.0183605,0.084403396,0.049886346,0.92204034,-2.5325015,0.023137474,-1.6039075
DHRS3,-1.8008602,0.8257151,0.18924455,0.50356054,0.54811263,0.46674892,-2.0648084,0.082503654,-2.668891,-0.19330032,0.771458,0.19187485,-0.92265725,-2.7885249,0.44008106,-1.2147847,-2.747362,-0.06326641,0.86527777
SZRD1,0.5322732,0.3703682,-0.39451787,0.33877477,0.4817481,-0.68479586,-1.1256249,0.26166508,0.3281316,-2.6100144,0.63025546,-0.71258825,-2.836515,-1.5333292,0.5682034,0.53870255,-2.5503666,0.7637328,-2.5652544
SDHB,0.23431428,-2.7482483,0.43624666,0.8852435,1.2095734,0.7494342,-2.530401,0.043791633,-2.7078326,-2.6806257,-0.1344923,0.9547926,-1.9065741,-1.3720028,0.71096724,0.42502958,-2.294008,-2.5964198,-0.25919724
AKR7A2,-0.22629347,-1.8417331,0.16937642,0.90253735,1.1123596,-0.312713,-0.8513033,0.57773405,-1.5231522,-2.8135219,-0.957172,0.459664,-2.522899,0.0124466345,1.0156431,0.09561773,-1.4946703,0.560906,-2.4340672
CAPZB,0.7400753,-0.24795662,-0.21672127,0.18678293,0.40108192,0.07461528,-2.4510655,0.39995483,-2.1006577,-0.08327606,0.13412134,-0.11094746,0.6913214,-0.22686952,0.36930954,0.73043835,-1.7309252,-1.9119444,-0.032375608
MICOS10,0.16400659,0.6070523,-0.6273298,0.07230807,0.19787288,0.050580353,-1.8566283,-0.17902197,-2.631822,0.6033554,-0.35978243,0.5151114,0.48284543,-0.035936847,-0.17308956,-0.07317999,0.07391563,-0.13389541,0.23094057
RNF186,-0.49296534,0.67536664,-0.9463974,-0.3286509,0.17284195,-1.2053444,0.6704125,-0.66415095,0.6743172,0.93801314,-0.18633302,-1.2480236,0.29877034,0.8824757,0.112735726,-2.443875,1.0557919,0.9757272,-0.534609
CAMK2N1,-1.2334892,0.46614495,-0.30179518,-0.143196,0.07216903,-0.10381008,0.82266176,-1.1350925,0.6504671,0.82655686,-0.058833454,0.10445975,0.19393963,0.47566068,-0.854999,-2.5961127,0.36722863,0.631057,0.836008
PINK1,0.13742498,0.029355552,0.04606379,0.3248354,0.8117564,-2.286584,-1.3791409,0.3925635,-1.4957699,-0.79484254,0.61382216,-1.0200202,-0.62658346,0.16346662,-0.0124402745,0.014975527,-2.685641,0.027922755,0.8417151
DDOST,0.12767185,-2.8689938,0.23944364,0.80099887,0.9332468,-0.06442781,-2.9407196,0.70818955,-0.21501142,-0.70982605,-0.5907099,0.39453593,-0.083022505,-2.4345767,0.87217987,0.6618593,-2.4858773,-2.810335,-0.4425032
HP1BP3,-0.7147981,-0.048623573,-0.37755436,0.036140773,0.28963444,0.11867182,-0.84544706,0.19396052,-1.2623436,0.6317038,0.039959405,0.65761644,0.5947811,-0.15324503,0.029517848,-0.07509458,-2.6727705,-0.21123321,0.32952332
ECE1,0.77561265,-1.1298445,-0.076184295,0.7380778,0.4994719,-0.5262428,-2.6048133,1.0321156,-1.7799772,-0.85399896,0.7217399,-0.48160815,-2.469067,-2.4106688,0.677426,1.2132151,-2.2282488,0.38108715,-1.7260269
ALPL,-0.7286434,-1.3524338,0.84316146,0.9725879,0.6341291,0.49441895,-2.108326,0.6985998,-2.575849,-2.2207227,0.27075306,0.5825808,-2.4965515,-2.2930825,0.98207146,0.8347717,0.25309035,-2.4281244,-2.4233866
CDC42,0.11940329,0.4954853,-0.5053989,-0.360323,-0.3414678,-0.071864866,0.4826536,-0.2821537,-0.08642285,0.89889085,-0.5473329,-0.8968306,0.8297054,-0.35875925,-0.76175636,0.23474531,-0.004665486,0.70565194,0.97602016
C1QA,0.40507478,-0.10857048,-1.9741958,-1.2699758,-2.2590258,-1.1045158,1.3916382,-0.46540904,1.3114929,0.8939189,-1.4014276,-2.9014714,0.87715495,1.3465459,-1.3909751,0.38425654,-0.61695516,0.6493509,0.8562748
C1QC,0.78572434,-0.37772906,-1.6224589,-0.43505406,-0.99806046,-0.49000058,0.23447753,0.37292564,0.9643567,0.7660671,0.06531602,-2.7142096,0.8803822,0.5489343,-0.32188773,0.99691266,-2.784027,0.07117793,0.7057438
C1QB,0.33093286,-0.60114455,-2.338845,-1.5678973,-2.6401777,-1.751445,1.6944227,-0.4445701,1.3497574,0.82724124,-2.2025676,-3.0287726,0.9443575,1.6841182,-1.2081863,0.34407702,-0.49455422,0.0802651,0.5206323
TCEA3,-0.23301704,0.20159532,-0.6356412,0.05339496,0.414833,0.22813474,-1.7232754,-0.9687011,0.7221661,0.31332955,0.49701574,0.29409474,0.42527506,-1.9383712,0.126417,-1.8918818,0.624656,0.4532087,-0.28849095
FUCA1,0.24113992,-0.8068418,-0.5507521,-0.0059532863,0.118416436,-1.2078869,-0.14411278,1.2455376,0.6654648,0.21342205,-1.6148933,-0.58294153,-1.2269573,-2.2403052,0.53303087,1.5793219,-2.5234923,-2.0980148,-0.5579574
CLIC4,0.20588279,0.036279105,-0.3755421,-0.39686888,-0.05482177,-0.55218244,0.5444649,-0.86117333,0.22458012,1.2459708,-0.28880373,-1.4746851,0.6933217,0.59002274,-0.6353291,-0.4788068,0.8285569,0.3098975,0.39088252
SYF2,-1.0575453,0.116073474,-1.1441815,0.25228354,0.27974817,0.5210584,-1.6520902,-0.38292974,0.04118055,0.59561414,0.41951683,0.14858356,0.42102015,-1.463747,0.4700536,-1.4973197,0.72631943,-2.199417,0.13657437
TMEM50A,-0.002562155,-0.87660885,0.24070159,0.40689903,0.7206485,-0.39104295,-2.925542,0.39537522,-2.8179286,0.7002781,-0.9759795,0.6678422,-0.13784964,-2.5321696,0.5203755,0.08643303,-1.5150148,0.14441414,0.6671388
SH3BGRL3,0.35396343,-0.18517798,-1.2268763,-0.8373666,-1.341547,-1.0761734,1.0774316,-0.25785118,1.2883323,0.60836697,-0.85617626,-1.8867401,0.6849911,1.2464772,-1.3688596,0.34066194,0.21555328,0.7508368,0.14166285
CD52,0.99020714,-2.8125067,-0.67034465,0.3513761,-0.5216922,0.5583408,-2.1096928,1.2339854,0.1675814,-0.24643849,-0.37169313,-2.1337376,0.9491725,-1.8421301,-0.6497585,2.0221996,-1.8753616,-2.170456,0.905117
HMGN2,-0.24879247,0.16946232,-1.5631611,-0.78708655,-0.90618575,-0.47563544,1.6439523,-1.7465043,0.7347192,0.75252503,-1.1455091,-0.03742377,-0.008481259,1.2384021,-1.7438397,-1.308857,0.60125077,0.58892226,0.92437565
NUDC,-0.7209671,0.1263634,-0.11927955,0.45783243,0.628431,0.3653962,0.3191737,-0.24360658,-1.8132982,0.094966836,0.5794362,0.80111617,-2.7425122,-2.615184,0.4507663,-0.25675565,-2.4993656,0.5642543,-1.0222646
FCN3,-0.74177635,-2.9227855,0.20138349,1.1723756,-0.09385843,-2.9175076,-2.2586343,1.5713574,-2.5019639,0.6535736,-1.7418228,-2.0573616,-0.91200477,-1.9634855,1.5981214,1.5889051,-1.8153795,1.0664823,-1.9637543
WASF2,0.44814727,0.8105532,-0.9639907,-0.20845288,-0.4046804,0.13259108,-0.7289336,-0.11424697,0.8690631,-0.28775305,-0.82752013,0.3377365,-1.1084777,0.45281145,0.16727173,0.39511323,0.4976402,0.8175889,-0.49626184
ATP5IF1,-0.2301882,0.59284705,-0.70998085,0.0149071915,0.1852586,0.12488075,-0.5193033,-0.5455009,-0.36260837,0.9219544,0.3518288,0.24921627,0.71663797,0.4970673,0.041538186,-0.88923407,-0.70750123,-0.143602,0.14525315
LAPTM5,0.67953146,-1.3947526,-1.5080115,-0.5183681,-1.9994174,-0.7942219,0.7285216,0.41784137,1.2919003,1.0789496,-1.5174845,-2.3963826,0.994728,0.75763506,-0.32381478,1.0175431,-2.160943,0.04855813,0.9740901
SERINC2,0.24626382,0.5293836,-0.5557037,-0.23192114,-0.06975731,-0.060327586,0.222311,0.024537187,0.6164603,0.22068958,0.3030186,0.47939643,-2.3370035,1.0130843,-0.42451432,0.20000586,1.1746415,0.2906142,-1.9795446
TINAGL1,-0.25219053,0.19838029,-0.41263717,0.2170707,0.37720606,-2.0605824,-0.25991037,0.22623345,1.2780806,-1.048037,0.6738464,-1.501354,-0.6146665,-1.1272557,-0.41151285,0.12601627,-2.60932,1.0052934,-0.09232903
PTP4A2,0.122713976,-0.0942403,-0.37872127,0.39392272,0.02229294,-0.18054871,-1.7369361,0.3577992,-1.7160493,0.83377,0.07133611,0.66031635,0.8099976,-2.6857069,0.44713485,0.3267717,-0.61600554,-0.13232478,-2.3387039
KHDRBS1,-0.4095398,0.30023673,-0.36557227,-0.02392851,-0.065427646,0.24822766,-0.14034621,0.11677309,-0.25030833,0.7268691,-0.6182635,0.88284993,0.7011354,-0.07619847,-1.1278219,0.36891937,0.46597105,-1.5448233,0.38020912
EIF3I,0.37177038,0.32125905,-0.6411637,0.06426812,0.16064267,-0.2541762,-0.23013802,-0.0076045147,-0.5311722,-0.25331953,-0.085301995,0.18042186,-0.07767204,-0.48665008,0.2629023,0.30728003,0.043647405,-0.2992554,-2.1687467
MARCKSL1,0.5823137,0.18565984,-0.08024356,0.68255055,0.90649694,-2.502359,-2.6835854,0.9961697,0.21767326,-3.030395,0.21471937,-1.1385268,-2.4643104,-2.1131842,0.96063447,1.3564892,-2.3156397,-1.3046917,-2.4375494
RBBP4,0.19923477,-1.693842,-0.28304085,0.46560082,1.0143858,-0.51358694,-1.7603468,0.4728951,-1.5437311,0.20482418,-0.2523774,0.6153702,-2.377022,-2.5161324,0.20654637,0.44006562,-2.3876472,-0.7718317,0.7910874
AK2,-0.3484123,0.16580828,-0.56823575,0.000106377265,0.17261522,-0.06210562,-0.14302681,0.22019398,-0.4099926,0.18570827,-0.13035873,0.469663,0.10841952,0.66133255,0.23914833,0.11833118,-2.0529652,-0.423513,-0.41124967
PHC2,0.21349974,0.048536833,-0.4143264,0.2267085,0.35727763,-0.9531811,-2.5128891,0.55116796,0.18095936,0.43178946,0.70133656,-0.81110513,-2.5399096,-0.15037964,0.5785539,0.72691023,0.160722,-2.0468993,-0.70746905
GJA4,0.07737246,0.4323825,-0.88544863,0.15748459,-0.118396044,-2.733925,0.7251276,0.29045993,-0.50130045,0.5870336,0.3662731,-2.4201868,-0.6668229,-1.9226156,0.3031569,0.4633063,0.00011301399,0.90614235,-0.40278453
TMEM35B,-1.634046,0.29342946,0.05006916,1.0676485,0.8477345,-0.15655552,-2.0600584,0.7917642,-2.4674342,-0.98464555,-0.9549778,1.418544,-2.210536,-0.9163205,1.1510228,-0.773865,0.02505539,-2.4054973,0.2002103
SFPQ,0.008561746,-0.28395548,-0.11698459,0.016399985,0.13449475,0.10948647,0.8294065,-0.002744352,-0.7160159,-0.6896043,-0.43800953,0.12802413,-0.5332814,-1.2703184,0.00462058,0.2928956,0.41643533,0.7044031,-0.10750542
PSMB2,0.299449,-0.73866934,-0.021920852,0.71441543,0.85818624,-0.6649844,-2.2359722,0.97690654,-2.6667092,-1.2382349,-0.50559443,0.68146974,-0.40540507,-0.7343058,0.12440851,0.8155011,0.5982059,-0.5612872,-2.5283122
EVA1B,0.81707525,-0.24059743,-0.6063981,0.22154045,0.4382249,-0.4271102,-0.4160491,0.73815787,0.32418102,-2.713107,0.24219261,-1.7179323,-1.6220378,0.9888971,0.4833244,1.005231,-2.3536608,0.20405129,-2.5549502
NDUFS5,0.05352227,0.4900023,-0.31525147,-0.25749338,-0.24376523,0.08307234,-0.03862552,-0.80920804,0.36819124,1.0143963,0.085427254,0.44039148,-0.012527337,-0.6757959,-0.7370652,-0.3281434,-0.25950933,-0.47920406,1.3549025
PABPC4,0.25971854,-2.6360774,0.06339919,0.3112979,-0.30762556,0.6736026,-0.08234735,0.6301098,-0.50053066,-0.08112398,-1.52392,0.9790668,-2.4895492,-2.702968,0.9121934,0.9000171,-2.385326,-2.49597,-0.016095927
HEYL,-2.4850862,-1.8454281,1.2649368,0.7417526,0.060482573,-2.552976,-2.0150979,1.8054385,-1.9333286,-1.9385533,-2.0464942,-1.2517354,-2.036242,-1.7410911,0.9667713,1.0435166,-0.80474097,0.1617153,-1.8341463
CAP1,-0.0047181165,0.18933013,-0.18164404,-0.33937046,-0.6423388,-0.55559224,0.5504781,0.14958577,0.42521688,0.9673068,-0.74079275,-0.7683814,0.44335,1.1005467,-0.8199439,0.33029515,0.48829117,0.16194333,0.69765306
PPT1,-0.08026474,-1.7433907,-0.12930506,0.07523819,-0.19652393,-0.05818782,-0.36860844,0.43218377,1.1805739,0.065645866,-1.3188066,0.52938527,0.60492384,-0.21845399,0.29825926,0.4130259,-2.3619423,-2.2900422,0.8099544
CITED4,-0.9542548,0.110990606,0.8734698,0.71961004,0.56613666,0.37085167,-2.54818,0.9267489,-2.642294,-2.7083733,1.125631,0.3600755,-2.5391705,-2.2189653,0.4956655,0.7665531,-0.7955639,-2.4780927,-2.144246
PPCS,-0.19291832,-0.044360545,0.92909116,0.6800126,0.8439205,0.2832702,-0.95150656,-0.9822518,-1.4219084,-2.637533,0.5198742,0.5394789,-2.356581,0.22251238,0.25944498,-0.9073818,-2.2988255,-1.4978335,-0.8929684
YBX1,0.30114678,0.1860245,-0.62720406,-0.5919026,-0.7143432,-0.25478908,0.86704165,-0.6017839,-0.5440875,1.2192636,-1.8638309,-0.024906348,0.9882186,0.71480125,-1.1485614,-0.1739964,0.78140396,0.54406613,0.9152115
SLC2A1,0.12559943,0.5097496,-0.2164953,-0.7332432,-0.94440955,0.047543555,0.35128233,-0.45688033,0.8921719,0.7656516,-1.3959492,0.27704415,0.11370043,0.45780098,-0.50359523,0.014645648,-0.6531214,0.642507,0.95324844
HYI,-1.7337933,-2.8057559,0.47598666,0.85623044,1.029441,0.4980687,0.88680804,-0.16186869,-2.694228,-2.7653098,0.96376824,0.6008713,-0.30171904,-1.4520515,0.18128644,-1.9427722,0.1660776,0.08505245,-2.4317524
PTPRF,-0.15997024,-1.9973623,0.42671794,-0.046178628,0.22621213,0.41775322,-0.06944918,0.3843913,-1.7249434,0.5897796,-0.07281198,0.8585742,-2.5114956,-0.08670084,0.8942052,0.3519976,-1.8652276,-1.0181937,-0.10492641
ATP6V0B,0.21208048,-0.19783166,-0.4162159,-0.100417495,-0.43673906,-0.6921171,1.2621058,0.122929946,0.7415933,0.2043281,0.5012166,-1.8923986,0.7373561,-1.3665631,-0.03609456,0.6909137,-2.2911992,0.5849519,-0.43319467
ERI3,-0.75625545,-1.2295439,0.64004993,0.9887216,1.1133901,0.5780373,0.20045191,-0.42992392,-2.524085,-2.9273777,1.1826844,1.2459896,-1.6268123,-2.3707674,0.6410743,-0.5205907,-2.300901,-0.42396185,-2.2227533
UROD,-0.8171056,-0.38804764,0.3195523,0.3740801,-0.0009876539,-0.24326378,0.69686943,0.38403356,-2.2744055,-1.1244249,0.14122933,-1.1875895,0.22754174,0.36825868,0.32323217,0.13536878,-0.082436405,0.119935974,-2.2048426
PRDX1,0.31470224,0.16872607,-0.39991948,-0.14670332,-0.21826135,-0.004110202,0.26215795,0.0065767197,0.16022128,0.41749492,0.16565658,-0.07227504,-0.19128492,0.6663806,0.0100661125,0.51132834,-0.43834743,0.12786826,-0.49858275
AKR1A1,-0.48204297,0.5701853,0.12780705,0.111246414,-0.14599173,-0.027585743,0.288762,-0.08177402,-0.7718527,-0.16997199,0.52509236,-0.13541916,-3.1417353,0.45519963,0.13027476,0.28067547,-2.7753303,0.49617836,-1.9561385
TSPAN1,-0.8588395,0.7924997,-0.7127234,-0.79429895,-0.07034615,-0.22495635,1.328775,-1.5856136,0.31258935,0.5744873,-0.061937235,0.40503633,0.3859684,0.2580303,-2.3613,-2.0485742,0.07272754,1.1013024,0.5389575
LRRC41,-0.71043944,0.71005857,-0.0032879415,-0.13569322,0.4016991,-0.12430254,0.89734244,-0.18317883,-1.022619,-0.59534395,0.3070996,0.24697594,-0.9785184,0.6086676,-0.23661529,-1.2233063,-0.8123125,0.5324832,0.6260006
UQCRH,0.55176294,-0.38668346,-0.14703047,0.05957158,-0.09474385,0.4383588,0.14296705,-0.29870182,-1.4739282,0.6664635,-0.30661544,0.59840024,0.328808,0.21256492,0.46861854,0.410735,-2.1335871,-0.2743594,-2.156789
PDZK1IP1,-0.49089622,0.26233515,-1.0137281,-0.77805203,-0.9304175,-0.6533762,1.6246481,-1.7488927,0.6242012,0.5266215,-0.5906719,-0.12166075,0.359863,1.1539619,-1.9320285,-1.5080783,0.65118665,0.73431486,0.14511238
CMPK1,0.10340083,-1.6809306,0.458515,0.26794216,0.43582177,0.44490257,-0.7169497,0.20463985,-1.5875969,-0.10392363,-0.71599364,1.4220849,-0.7213042,-2.650305,-0.68951935,-0.012911017,-0.3948718,0.27454263,-1.3917204
TRABD2B,-0.48595253,0.36190015,1.3481585,0.78823864,0.5012162,-0.16828525,-2.652531,-0.48650157,-0.18756798,-2.572439,0.5321499,0.25442684,-2.3078024,-2.081047,0.19702095,-0.91328126,-1.4265348,-2.2690036,0.24743813
RNF11,-0.042050544,0.0146252215,0.203455,0.07290123,0.3452085,-0.20323804,-2.1148129,-0.02546739,-0.786343,-0.03125914,-1.3105443,0.06382677,-1.8701032,-2.7382004,-0.18025073,0.67632145,0.4620909,0.46200985,-1.9516705
ECHDC2,-1.8769788,0.24280041,0.4302557,0.43698674,0.5296011,0.1971665,0.115457766,0.24745177,-1.4381577,-1.4990022,0.48278046,0.55933726,-2.259079,0.36746866,0.5093721,-1.8205024,0.82784724,-2.340781,-2.3663566
SCP2,-1.0109785,0.019460168,0.1836241,0.11856801,0.24317203,-0.03863145,-0.30948862,-0.04610334,-1.6063181,0.4112558,-0.4237271,0.6104708,0.7597012,-0.39271098,0.11773232,-0.1375899,-1.7417159,-1.5260237,-1.3044629
CZIB,0.23528485,-1.4588307,0.75564575,0.68343925,1.0613172,-0.019959575,-1.9091251,-1.7702302,0.4627192,-2.1457977,0.76892257,-0.3280121,-0.80571955,-2.2521915,0.9189224,-1.042289,-2.3122923,0.045355923,-2.2890925
TMEM59,-0.3141041,0.42954707,-0.39387813,-0.66908073,-0.5075583,-0.1657101,0.83605754,-0.8839498,0.57433206,0.8232783,-0.6809443,-0.76812375,0.5272886,0.47844657,-1.1142492,-0.82978326,0.91948307,0.708434,0.7207329
MRPL37,-0.31813756,-0.41805828,0.69099337,0.9310327,0.92122567,0.52601045,-0.41162357,0.28514224,-2.752912,-2.9613242,0.6533239,0.0439451,-2.2150612,-2.2045739,0.68424445,0.50220966,-2.308313,-2.565158,-2.3067703
PLPP3,-0.13250512,0.31915858,-0.47364855,-0.80795926,-0.1983744,-0.35656485,1.0215956,-0.47204834,-0.0942263,1.2011117,-0.40212673,-0.52011293,0.41574392,0.056089763,-0.79168636,-0.218969,0.45898497,0.12332862,0.78599954
JUN,-0.5689325,0.5081274,-0.8256567,-1.2195578,-0.66174483,-0.67132646,1.0244663,-1.558624,0.39020848,1.2278596,-1.0469785,-0.34802008,0.5358098,1.1390818,-2.5242598,-2.184426,1.1167192,0.61918765,0.7918323
CYP2J2,-1.2451677,0.9880854,0.47223762,0.10151184,0.4963659,0.5460981,-0.9607769,-2.1483457,-1.0280619,-0.21287951,0.7360491,0.6939285,-1.263181,-2.4261918,-0.002355453,-2.3976989,-0.2893021,0.082297236,-0.6194934
NFIA,-1.3494666,0.23263417,0.16526811,0.11591046,-0.22614723,0.15406778,0.115303285,-0.18757224,0.63590336,-0.5896629,-0.31151512,-1.414507,0.63377595,-0.8539029,-0.3704463,-0.3572381,-0.16390166,1.1636895,0.05609621
PGM1,-0.12790783,-1.8436375,1.1557481,1.1004459,1.2614686,0.21392679,-1.4163411,-0.1483499,-2.504477,-2.8086538,0.46162668,-0.62642676,-2.2128832,-1.8372635,0.9940422,-0.64520496,-1.9367665,-2.3677042,-1.5647117
JAK1,-0.7806059,-0.19936536,-0.31957775,-0.074971385,0.27734843,0.05626657,0.29977334,-0.079465725,0.17571467,0.6608816,0.1363407,0.3852161,0.2045544,-1.412834,0.44611585,-0.278549,-0.29648015,0.18817039,-2.7119877
AK4,-0.3083965,-0.2368458,0.4358503,-0.073663734,0.14621156,0.38978198,0.21166945,-1.1304257,-0.11268146,-0.041171055,-0.04191738,0.32154506,-0.74357337,-0.5013177,0.43076968,-1.0067528,0.6120201,-0.42369926,0.3030315
LEPROT,0.054237437,0.25413388,-0.17027554,-0.08868883,0.2970634,-0.020334994,-2.2872846,-0.07202809,-1.5331777,0.8464607,-0.7638223,-0.37971643,-0.9329849,-2.3064547,0.31335902,0.2617261,0.78174216,-0.5174731,0.30725524
SERBP1,0.25306827,0.2395644,-0.08129218,-0.12842822,-0.33551943,0.23676768,0.21148908,-0.36082244,-0.99354565,1.2452108,0.21925479,0.4855356,0.3537382,-1.7478595,0.25775108,0.35858756,-1.2463034,-2.6441147,0.4867777
GADD45A,-2.0312424,-2.4919817,0.45561373,0.57474387,1.847545,0.152086,-2.4567385,0.56619215,-2.6845412,-2.7955015,0.055531863,1.6576337,-2.1069722,-2.1545224,1.2920359,-1.4555594,-2.138354,-2.203302,-2.2014863
GNG12,-0.18597502,-0.3391683,0.4506225,0.16265951,0.67710316,0.6231876,-0.8448076,0.050718307,-2.8912227,-0.6538372,-0.6131849,1.1107922,0.59867185,-0.6387174,0.9875025,-0.61757934,-1.8852197,-2.6563056,-0.4252057
SRSF11,0.22953346,-0.0035833244,-0.115022436,-0.30620506,0.26456037,0.10340261,-1.0952083,-0.22867031,0.46706602,0.8862584,-0.43247372,0.46708512,-0.9936179,-0.05541101,0.3842048,-0.44493294,1.0223651,-2.9693205,0.6512602
CRYZ,-2.6253371,0.29463446,0.74866277,0.29403925,0.56158364,0.5151681,-2.439262,-1.1851549,-0.17314957,0.2020183,-0.090910636,1.270829,0.13683432,-0.24196339,-0.32218957,-2.198115,-1.0119928,0.06552523,-1.5240738
ACADM,-2.1332028,0.49561808,0.5567957,0.33065984,0.3739112,0.47234604,-2.8512404,-1.9853512,0.42434072,0.17276748,-0.5484289,0.8763444,-2.2390733,-2.3006637,-1.8602905,-1.555513,0.77975756,0.41121262,-1.6776793
RABGGTB,-0.22339514,-2.5291994,0.21631114,0.4175741,0.7163945,0.74152684,-0.40109038,0.27204713,-0.39320832,-1.5041784,0.005670621,0.72639066,0.29813838,-2.548511,0.41097283,-0.81508946,-0.18210173,-0.78443104,-2.4953883
GIPC2,-2.841995,0.4323026,1.1607054,0.5414823,1.2477804,0.3677861,-2.7024503,-1.2924111,-1.9255861,0.13478255,0.67604095,0.5425118,0.6675189,-2.2352748,-0.91759604,-1.7262107,-1.9004099,-2.5506845,-2.3676074
ADGRL4,0.4666618,-0.38300735,0.06827702,0.08259806,-0.02667713,-0.63620436,-0.42833096,0.7089557,-2.6776195,1.092818,-1.8233745,-0.80029726,-0.09768309,-2.45523,0.9075653,0.96238065,-0.51225686,-2.6958423,-0.52537614
GNG5,0.17618157,0.20392424,0.0026371677,-0.23819788,-0.017081117,0.14420044,-1.6692634,-0.075428404,0.46132055,0.59204036,-0.44071147,0.96850634,-0.45222825,-0.95114774,-0.009139894,0.5345289,-0.86075354,-3.015775,0.65682346
DDAH1,-1.3373375,0.14936878,0.81621933,0.46655846,0.38928452,0.45118392,0.83778405,-1.0517086,-2.1054673,-1.1904091,-0.3275161,1.0317096,-2.0901444,-2.2723074,0.08842292,-1.2904493,0.14663643,-0.14084522,-2.6353106
CCN1,-0.22377759,-0.018140702,-0.33855125,-0.26779997,0.09865351,0.6301009,-0.6307564,0.37111977,-0.124625884,0.89433354,-0.6845759,1.0983812,-1.25866,-1.8135256,0.51561326,0.42140037,-2.1378124,-1.140784,0.9697116
SH3GLB1,-0.0003014977,-1.4496868,0.061155092,-0.16958688,0.1499435,0.20114245,0.18264998,0.34144425,0.43472287,-0.13042843,-1.0319101,0.48876214,-0.2582232,-0.24470834,0.87562513,-0.027586605,-2.4884734,-3.0175169,-2.464847
SELENOF,-0.38802695,-1.3034935,0.31365827,0.32322723,0.48567614,0.23785566,-2.9992115,0.5349929,0.19278264,-0.0301486,-0.37641335,0.5088657,0.16288486,-1.0743697,0.5128506,0.679767,-0.9809146,-2.8579805,-0.8791489
GBP3,-2.2085495,-1.3024347,1.2366441,0.47340837,1.1176273,0.5201715,-2.12459,-0.18380295,-2.4766119,-0.5344628,0.8427487,0.30143616,-1.1174303,-2.233945,-0.34679314,-1.4659109,-2.1187446,-1.885641,0.8640301
TMED5,-1.0748552,0.3502516,0.86432177,0.26529005,0.5197465,-0.008471037,-2.9536288,-0.027761606,-2.9759114,0.6790107,0.254957,0.46410826,0.5319126,-2.567464,0.33484212,-0.50244343,-2.3097024,-1.3474392,0.6566699
CNN3,-0.19145371,0.27337945,-0.5664025,-0.42313528,-0.2873065,-0.38081038,0.6832992,-0.5121513,0.5692934,1.1843331,-0.41770515,-0.88832617,0.91640747,-2.318574,0.09979171,-0.47972324,0.5882111,0.767335,-0.38669598
SARS,0.006281702,0.40157995,-0.5327696,0.124611095,0.4381741,0.29602882,0.2498343,0.13861917,-1.5787499,-2.401411,0.13080595,0.48521718,-2.8123677,0.31345934,0.61573976,-0.15881114,-2.2336373,0.15042885,0.07927366
AHCYL1,-0.15037706,-1.3786011,0.051674105,0.18597291,0.41573358,0.5636895,-0.6214035,0.08656491,-2.5460632,0.7280269,-0.7511716,0.52891386,-0.8065579,-0.28751218,0.4865068,0.35364217,-1.0531291,-0.6876408,0.47486952
SLC16A4,-2.2265623,0.70244855,0.9543457,0.16002385,0.69355816,0.83021444,-2.9091465,-1.0588071,-2.7168374,-0.006101131,0.52531946,0.70917875,-1.351856,-2.4859977,-0.9042862,-1.6914005,-0.6112323,-0.06253309,0.50837123
LAMTOR5,-0.2335775,0.6968691,-0.018658066,-0.14274347,0.052207015,0.34911454,-0.14157712,-0.6631329,0.45926964,0.05146258,0.002900336,0.7982254,0.06506066,-2.3049383,0.06755336,-0.88274276,-1.2324501,0.5187741,0.42449632
ATP5PB,-0.29879948,-0.95222616,0.4360383,0.21534747,0.45511362,0.35681048,-2.5230696,0.2963584,-2.8194892,0.6342853,0.08096204,0.71109897,-0.05769215,-1.374808,0.077031896,0.45778316,-2.6908646,-0.40097842,-0.54457414
RAP1A,0.1814567,-1.5371118,0.67191637,0.5564606,0.6891447,-0.36633754,-2.9474633,0.83494914,-0.70114374,-0.09201066,-0.45805365,1.1726453,-1.3870418,-2.4200597,1.0942141,-0.17062506,-1.6697085,-2.5806015,0.36949843
CAPZA1,-0.7467194,-0.2199539,0.38884526,0.37096995,-0.8201972,-0.011558607,-3.1194067,0.6890884,0.3078197,0.30463737,-1.6213989,-0.81806475,-0.20149943,-2.7258127,0.70232755,0.721194,0.5157032,-2.8119154,0.16080992
RHOC,0.2534131,0.24453428,-0.9443256,-0.6333736,-0.9653047,-0.8874082,1.4255232,-0.47057706,1.0514727,0.04475806,0.10614767,-1.8974835,0.072779804,0.3907914,-0.69005257,0.5526327,0.31683278,0.11390051,-0.021041825
CSDE1,-0.05161392,0.39187622,-0.556302,-0.46105364,-0.6069907,-0.06749398,0.9334856,-0.9268591,-0.014858495,1.0691563,-0.4696871,-1.0180274,0.5874266,-1.7813907,-0.541957,-0.41492018,1.2489599,0.6286512,0.712608
ATP1A1,0.23548925,0.7353722,-0.05742912,-0.18199025,-0.0937957,-0.02902251,-1.2938286,0.025423128,-0.2043612,0.8043759,-0.06015384,0.5528939,0.02474313,-2.4379604,0.06664379,0.47613886,-2.5230556,0.60052276,0.6068209
PDZK1,-2.7723262,0.5109739,0.3385006,0.12815893,0.5862427,0.13382809,0.023112155,-0.8211031,-0.06597008,-0.109915316,0.76885873,0.37699714,-2.7931876,0.37262842,-0.9163538,-1.2045928,0.6986458,-1.3023447,-2.9938939
RBM8A,0.13960578,-1.1099608,-0.06471622,0.27447456,0.24680436,-0.2736909,-2.7326353,0.43204856,0.13556439,0.45086047,0.67432714,-0.39818218,0.17376119,-0.45934084,0.5498566,0.25107786,-0.93785816,-2.1819885,-0.7503921
MTMR11,-2.7564611,-0.8304819,0.94375455,0.9819057,1.3718354,-0.124304175,-2.5589619,0.03152542,-2.4616578,0.07167025,0.9314824,0.34437037,-2.344603,-2.216324,-1.0155679,-1.447006,-2.2318602,0.319731,-2.2327626
APH1A,-0.23111995,-0.23002627,0.022827957,0.5183976,0.53309286,0.14062294,-2.6277807,0.68846613,-2.0710351,0.0540282,0.85868454,-0.30005607,-2.1899376,-2.6421556,0.5656979,0.1804314,-1.3607707,-0.012637884,-1.9811156
MRPS21,0.27767745,-0.20932613,-0.009791764,0.07253273,0.48640463,0.032589998,-1.3002678,-0.057173494,0.8230648,-2.674041,0.7024686,-1.9476769,-1.0015887,-2.5532007,0.38397318,0.39718124,-0.04807643,-0.43125042,-0.39679837
MCL1,0.5378504,0.3896989,-0.79569316,-0.7154928,-0.45782012,-0.060815673,-0.13083103,0.090538576,-0.20404133,1.2261772,-1.0621165,0.55913174,-0.35030988,0.47558644,-0.3949313,0.760145,0.5081423,-0.3581152,0.52420175
ENSA,0.051311556,-0.63440126,-0.10555408,0.073781416,0.3811087,-0.21764229,0.99969923,0.05517213,-0.8651285,-2.1243162,0.85621864,-0.13407359,-0.35567477,-1.1401639,0.032297343,0.37331605,0.29467213,-0.81277573,-2.4232314
CTSS,0.5541321,-2.6730552,-0.70088595,-0.2975668,-0.8838515,-0.2370852,0.67063963,0.87875193,-0.2741061,1.0489669,-2.9068074,0.37211615,0.44355738,0.96885306,0.4236229,1.1154184,0.54844296,-3.0224876,-0.2532975
CERS2,-0.57477576,0.17588638,-0.021931324,-0.40876645,-0.18864967,0.00014973835,0.6824089,-0.4486882,1.0767741,0.26049587,0.14618716,-1.2632042,0.6151084,0.5305486,0.185951,-0.8331287,-1.0084903,0.71906865,0.44200042
PSMD4,-0.03263846,-0.5924871,-0.22394934,0.5102004,0.4555519,0.33163273,-1.9843891,0.34257194,0.326119,-0.1442031,0.8590691,-0.83603495,-1.335368,0.6707853,0.65472335,0.53633046,-2.5340717,-2.0247376,-2.7995205
PSMB4,0.39447454,0.3976447,-0.32711416,-0.38671756,-0.32671648,0.0061925543,0.70190436,-0.5858282,-1.548738,0.7448028,-0.55347925,0.37277013,0.4801027,0.9517709,-1.1199727,0.30191374,0.9374445,-0.33345824,-0.22174914
RORC,-2.5352874,-0.753313,0.22563832,0.9583473,1.2549016,0.5664382,-2.7731035,-0.25873116,-2.3268583,0.47963902,0.8392691,-0.03195539,-1.4569107,-2.4216008,0.53685087,-2.0890734,0.37098643,0.37300888,-0.340327
S100A10,-0.40796033,-0.16780812,-0.92005545,-1.6620426,-2.036873,-0.7553451,1.5566908,-2.367393,1.1961898,1.0255694,-2.1428683,-2.1918132,0.6413796,1.03764,-2.3760061,-1.9090832,1.1947697,0.40501493,0.88412297
S100A11,-0.03792274,-0.17344663,-1.0616262,-1.8993623,-2.576922,-0.8540289,1.5218825,-1.6647005,1.3710048,0.7207821,-2.203013,-0.90179056,0.5998601,1.3445435,-2.4033687,-0.46097776,0.62485284,0.16135453,0.7855066
S100A9,2.6741433,-2.1615903,-2.7869956,-1.9423012,-2.3639784,-2.6310694,-1.4430324,0.5704574,-0.44103068,0.5733982,-2.0252993,-1.9460131,1.5316298,-1.4889731,-0.8245545,3.008678,-1.5276426,-0.6990482,0.87456113
S100A4,0.4762325,0.18393253,-0.80167884,0.14716545,-1.8000879,-0.83745897,-2.0410476,0.58926183,1.3814718,0.16429566,-1.6138426,-1.7797434,0.11686503,0.54703695,-0.081821665,1.0458596,-0.46154606,0.881376,0.6622722
S100A16,0.3947163,-0.8753279,0.09810703,0.26627734,0.1239136,-0.4364488,0.304222,0.032343462,-2.221605,0.20495915,0.22308691,-0.08640872,-0.8954394,-2.321208,0.104213536,0.85554165,-0.13136105,-2.5613015,-0.24403647
S100A13,-0.07517088,0.17889698,-0.8431118,-0.19673623,-0.11815598,0.15821081,0.6238386,-0.44618985,0.7403159,0.4942784,-0.13287827,-0.79936,-0.7047805,0.8972124,-0.28287634,-0.026450165,0.24354985,0.7059538,0.6179989
ILF2,0.44338757,-3.1331458,0.7167645,0.9263096,0.045124557,0.66713285,-2.2233787,0.75020576,0.22759615,-2.3974843,-0.58934355,-1.15743,-2.5124738,0.15594491,-0.119231,1.2716142,-2.3600354,-2.502951,-2.355646
SLC39A1,0.03072757,0.17521524,-0.17886135,-0.01675214,0.49345848,-0.30066124,-0.043213736,0.42261934,-0.83810335,0.44397014,0.8506457,-1.82342,-0.28698176,-1.6637188,0.82275176,0.24966477,0.10609331,-0.020672882,-2.9839275
JTB,0.108218,-0.3387225,-0.17331026,0.05850164,0.44108853,-0.058901582,-0.97616404,-0.027272632,-1.1710268,0.19811928,0.19045354,0.22085708,-0.8053469,-0.43681508,0.33508173,-0.19930491,0.7384549,-0.74218994,0.11079984
RAB13,0.29877463,-0.2457128,-0.30036876,-0.05211157,0.06855256,-0.5360808,-0.4559343,0.2034135,0.92375195,0.40841237,0.12923644,0.3127979,-0.42346328,-2.6569545,0.26137343,0.47353247,0.20941553,0.012553327,-0.7507532
TPM3,0.058307845,0.21840303,-0.57683635,-0.24110784,-0.21535586,-0.19258262,-0.2125721,0.10202354,0.18597169,1.1728003,-0.26492742,-1.299499,0.95318484,-0.39687383,-0.4122898,0.3759209,0.014321731,0.6255242,1.0922565
C1orf43,-0.29876062,0.29308927,0.02794207,0.06489213,0.31405726,0.45692244,-2.9101398,0.08036125,-2.690145,0.37789065,0.15796116,0.45322412,-0.16972959,-2.766228,0.23111871,0.4720159,0.5385063,-0.89974946,-2.4172945
ADAR,-0.27888197,-1.1737028,0.30598462,0.05287724,0.3087507,-0.04831623,0.16219252,0.09634435,-1.3864846,0.50961024,-0.7050292,0.10460366,-2.3853166,-0.05269929,0.2259031,-0.24623908,0.9371344,-0.7865011,0.71046734
PMVK,-0.12338691,-0.4256297,0.30411628,0.4347007,0.6509821,0.018084219,-1.0111364,0.23762906,0.35441494,-3.1597817,0.92944944,-0.24006274,-2.6715262,-1.8882232,0.5363137,-0.14036271,-2.622889,0.4271503,-1.4401339
PBXIP1,-0.11029699,-0.21879068,0.3378017,0.44977146,0.6738603,-0.24614316,-1.7145892,0.33955178,0.49829528,-2.9164388,0.8361721,-1.4402947,-1.4390776,0.31151456,0.33856827,-0.33916274,-2.693384,0.43830824,-1.9841303
SHC1,0.8199308,-1.2498888,0.07804598,0.11410266,0.1881818,0.21948685,-0.44563365,0.61043644,0.049506295,-2.1931417,-0.0422258,-0.21363895,-1.047533,-1.2237941,0.8444841,1.0807544,-2.409403,-0.27093253,-2.6743243
EFNA1,-0.12204207,0.2656961,-0.43675938,-0.33716545,-0.28939387,-0.31410035,1.3727506,-0.76636827,-0.523867,0.82606834,-0.0837218,0.21184553,0.2238078,-1.2393788,-0.27568084,-0.45438793,-0.14628623,0.9402505,0.6604173
DPM3,-0.06443653,0.571904,0.0677625,0.6695392,0.54316694,-1.3953583,-0.49264562,0.30911887,-1.340354,-2.8469737,1.0043257,0.32556927,-1.0718485,-0.5983033,-0.4925676,0.82895553,-1.2443397,-0.67220795,-1.6555303
KRTCAP2,0.3764556,-0.07074365,-0.109689794,-0.49961483,-0.39889255,-0.075449765,1.3023926,-0.060444,-0.14866666,0.07060211,-0.4974201,0.44184056,-0.12908149,1.3463789,-0.8128845,0.27114266,-0.49147153,0.08781772,0.7793152
MUC1,0.47542945,-0.056623485,-2.9085135,-0.10776871,-0.27571142,-0.3639108,0.9983413,-0.04803694,1.0952647,0.12551619,-0.31836483,-0.007029527,0.38494867,0.8135537,0.5974957,0.21388343,-1.2218975,0.3045117,-0.94758743
GBA,0.06608665,0.36619318,0.4742041,0.5171201,0.6465653,0.08868179,-0.9110143,0.5669605,-2.7024746,-3.195843,0.37860894,-1.5391891,-2.7558107,0.81099033,-0.100140266,0.68800455,-2.5081239,0.013787093,-2.695331
FDPS,0.1534291,0.30832508,0.118590966,0.8284032,0.98245084,0.10877041,-2.6220915,0.6565401,-2.4619992,-2.5579567,1.3646866,-1.4788102,-2.7326524,-2.4070876,0.29865617,1.182976,-2.518361,-1.667366,-2.6269739
RIT1,-3.0403993,0.3104141,0.9989619,0.66458553,0.7892908,0.31901032,-1.519769,-0.88481814,-0.5376675,-0.44969565,0.68675035,0.15124002,-1.7131178,-2.305993,-1.2698066,-1.6800753,-0.15202823,-0.43709543,0.69782025
SSR2,0.35726616,0.7338661,-0.15585682,-0.21707614,-0.21638493,0.13004422,0.2806539,-0.5035796,-0.4391792,0.5412837,0.0022498395,0.48152378,0.43908158,0.57362354,-0.43545362,0.07088698,-0.72160596,0.66983813,0.31255338
LAMTOR2,0.5862734,-2.8274908,0.48418552,0.49145743,0.19080156,-0.35354474,0.8284261,0.3020917,-0.28876972,-2.4280338,-0.6951956,-0.03923838,-2.6088617,-2.164811,0.44370043,0.7325502,-2.24035,-2.4302027,0.4902773
LMNA,0.42451492,0.30372244,-0.61944234,-0.41696072,-0.6922478,-0.3875775,1.0052286,0.07278755,0.9362268,0.016651815,0.31322274,-0.90649396,0.5260304,0.10625497,-0.4891296,0.62777936,-0.75984347,0.89188117,-0.39675468
PMF1,-0.4000663,-1.1752986,0.38448527,0.8799697,0.8392201,-0.70612264,-0.64978313,0.1480705,0.45106506,-2.6986241,0.87853813,-0.27422044,-1.3517344,0.68479437,0.96467227,-0.92684203,-2.2559602,-2.717774,-2.4506028
CCT3,0.6127793,-1.4269515,0.4847758,-0.0074755703,0.17476569,-2.8176353,0.59484345,0.448171,0.37013334,-0.35708046,-0.759562,-1.8087016,0.057173554,0.2911089,0.36890006,0.87292004,-1.0529602,-0.17659004,-1.6873076
MRPL24,-0.6112934,-1.2476691,0.6739573,0.74318016,0.38721102,-0.5597477,-0.97117746,0.7204563,0.45836693,-1.7855039,0.50155365,-0.9812713,-0.48021075,1.0890977,0.62800074,0.18133035,-2.610326,-2.7738035,-1.9123362
HDGF,0.09983853,-0.33729246,0.32785764,0.212465,0.45048934,0.30094793,-1.5559499,-0.49239716,-0.103822924,0.17936668,0.7320689,0.4070907,0.12710059,-2.4897332,0.14122622,-0.13685605,-2.6437304,-1.0612987,-1.6551199
IFI16,0.20763144,-0.39962566,-0.005751739,0.36597344,-0.10889754,0.12594765,-3.0646,0.92669743,-2.9585333,1.0423287,-1.5991712,0.16734475,1.0396624,-2.6100228,0.96887445,1.0049734,-2.559966,-3.0214617,-0.5333166
DUSP23,0.59304994,0.12853757,-0.6055459,0.26221308,-0.11520627,0.1763105,-1.780465,0.37828887,-2.8693917,0.35161877,-0.26194867,0.13912147,-1.6730392,0.35061422,0.81592274,0.65204066,0.30285287,-0.4686772,-0.7350564
TAGLN2,0.10611371,0.31049806,-0.8827789,-0.8591518,-1.3785352,-0.5723234,1.2461827,-1.0004574,0.7510057,0.8952559,-1.2882391,-1.7012179,0.16372898,1.1900496,-1.2120707,-0.13644643,0.71264946,0.6834597,0.34740075
PEA15,0.5705974,0.38586116,-0.05824565,0.38831937,0.078632735,-0.59169006,-2.9530396,0.53575146,-2.907699,0.4666561,0.38418436,-1.7203801,0.7457496,-2.1857007,0.026007246,0.94765663,-2.6092021,-0.40654007,0.33420768
COPA,0.08963571,0.43653718,0.23755518,-0.08020554,0.15107761,0.025667323,-1.3164992,-0.19551602,0.24366108,-1.1990259,-0.767829,0.3705523,-0.5411765,-0.5241736,-0.06336793,0.088570885,-2.3909824,0.4908921,0.13243757
NCSTN,-0.20653166,-1.0355564,0.2789849,0.12533627,0.5861681,0.07821097,0.24032639,0.30722243,-1.0192002,-1.901936,0.73153275,0.13454694,-2.5380635,-0.35074937,0.42491665,0.5911054,-2.7038572,-0.14828122,-0.67407364
TSTD1,-0.87441117,-0.36102286,-0.045293406,0.40936673,0.80341357,0.061262872,0.61998814,-0.74788827,0.83414644,-3.003706,0.67418694,-0.423954,-1.0793319,0.5054805,0.39743358,-2.3688617,0.26168528,0.23661454,-2.5311298
UFC1,0.5162152,-2.7196665,-0.06376851,0.6052502,0.92044103,-0.18353364,0.22809398,0.64032364,-2.4829571,-1.7089798,0.85789466,-0.4505089,-1.8589677,0.44703692,1.2193655,0.5722417,-1.7351497,-1.1340804,-2.6226683
ADAMTS4,0.975556,-3.2140374,-1.373259,0.33859912,-0.9259052,-3.207683,-2.5168216,1.1423256,-2.8543458,1.9991664,-2.876087,-2.0599365,0.6386561,-2.416322,1.2440411,1.7039539,-1.4940939,-0.09911036,-0.6776396
NDUFS2,-0.85540247,-2.4905527,0.5812314,0.28235725,0.5906651,0.16950066,-1.8841224,0.76404625,-2.6047332,0.6323466,-0.12916957,0.4869234,-1.6296484,-2.4044135,0.8226738,-1.0459619,-1.5233296,0.24207932,0.2826266
FCER1G,1.0766977,-2.4239018,-2.597987,0.10620126,-1.141199,-2.0152879,-2.2361321,1.2717817,1.1754752,0.9204776,-2.1800566,-1.70164,-0.010242369,-0.21125758,0.8569923,1.6665382,-1.4326054,-0.27427375,0.96311885
SDHC,0.0069046663,-0.15234727,0.48504722,0.35052183,0.70186347,0.54095006,-2.8595238,0.037609927,-1.7105645,-1.838322,0.4857224,0.73965406,-0.8908475,-1.6996146,0.58623815,-0.08282805,0.21406129,-0.4679031,-0.5109155
FCGR2A,1.0987581,-3.1602764,-0.5842279,0.31562373,-2.2703712,-1.3609324,0.6257742,0.97242004,-2.152078,0.9765244,-2.9483685,-2.263715,-0.20184924,1.020598,0.32681224,1.693905,-1.7865056,-0.7183376,0.72831583
FCGR3A,1.1213166,-3.208554,-0.17144361,0.29317257,-3.0869546,-2.175001,-2.6180472,1.1600097,0.2111687,1.5638939,-3.09753,-2.5774817,0.99268425,-2.3710444,0.4465153,2.0567229,-2.560839,-2.749178,1.2672352
MGST3,0.104039736,0.4560765,-0.5510825,-0.5472371,-0.34790954,-0.28862283,1.0871911,-0.74690884,0.5414394,0.16227448,-0.3299591,-0.24554281,0.48734966,0.88620716,-0.96413934,-0.3579632,0.2825048,0.79746723,-0.5484915
TMCO1,-0.97904843,-0.1347992,0.41847488,0.014409565,0.22391024,0.18549809,0.6100189,0.30853167,-1.9477186,-0.7495746,-1.099237,-0.17094246,-2.8680356,0.5476405,0.5506231,-0.45490187,0.77367705,-1.7228936,0.32634914
CREG1,0.43657562,0.19156854,-0.5263975,-0.31598836,-0.040703155,-0.13935027,-0.4700174,0.1482465,-0.28117383,1.095873,-1.5084741,0.22955456,0.16875984,-0.8491649,0.008320241,0.6959265,1.0784504,-1.4927914,0.6871651
MPC2,-0.6168396,-0.14167088,0.23672996,0.23089638,0.42380127,0.38915145,0.021698011,-0.81018734,-3.0503001,0.6385255,0.41714075,0.23767786,1.0552313,-2.793668,-0.31289023,-0.92462885,-1.4037362,-1.9703286,0.26668468
ATP1B1,-0.35342023,0.31587476,-0.17710805,-0.9938471,-1.378081,-0.22703929,1.3958137,-1.731158,-0.106107466,1.0164446,-1.545089,-0.23366874,0.6003815,0.5345512,-2.2044373,-1.4756174,0.96109426,0.7961879,1.0
FMO1,-2.8744235,-1.9885191,2.241008,-0.040173743,-0.5408224,1.1279672,-2.3412924,-2.6531944,-2.4027698,-2.5705194,-1.3256924,1.4963619,-2.0105212,-1.8976368,-2.3265128,-2.3111074,-1.7608049,-2.0341082,-1.8301187
PRDX6,0.1043417,0.44960356,-0.27153778,-0.19728664,-0.25349575,-0.14422582,0.28261688,-0.5734175,0.8382297,0.6550268,-0.46464127,-0.44784823,0.40654466,0.56276274,-0.15994272,-0.16990246,0.026178867,1.0848575,-0.39630598
QSOX1,0.8751365,-0.6989456,0.3883413,0.4325877,0.3209792,-1.4600927,-2.9200532,0.47742334,-0.78546107,-0.3948216,0.100788444,0.48512203,-1.2009779,-2.3718832,0.22458367,0.9536426,0.4675241,-0.47535452,-0.39165705
GLUL,0.46553144,-0.11744761,-0.41537252,-0.36427176,-0.21896552,-0.4287184,-0.13915984,0.57336783,-1.3835709,1.2031994,-0.85081714,-0.06934497,1.1137099,-1.9973258,-0.9943418,1.0753095,0.6336811,0.030711427,0.12849157
LAMC1,0.8000827,-0.5194779,0.10570723,-0.13640824,0.33271185,-0.5553073,0.44243038,0.58341306,-2.204654,-0.08150555,-1.9960481,1.0103531,-0.09577495,-2.5456839,-0.046451334,1.1113403,-0.66513896,-0.98816305,0.1958258
ARPC5,0.08355739,-0.45302093,0.1437472,-0.04227521,-0.044624805,-0.01681314,-0.8932114,0.58605474,-0.5327397,0.8783259,-1.6036457,0.8700716,1.0790615,-1.2426418,0.18449895,0.7795552,-1.6657394,-3.051381,0.4447881
IVNS1ABP,-0.015365428,0.57015246,-0.41662812,-0.49081454,-0.48313028,-0.19804499,0.7116038,-0.3404956,-0.30983984,1.0403218,-0.6946028,-0.71222407,-0.41288385,0.96431494,-1.1712179,0.014489146,0.9170395,0.34255868,1.0073904
RGS1,0.45819703,-2.5493846,-1.017256,-2.085988,-1.7479508,-2.5527995,-2.308424,2.1872313,-2.3699586,1.6717278,-2.083975,-1.9117984,0.0034783946,-2.0566728,1.1093065,2.4132946,-1.8749923,-1.573564,1.0193416
CFH,2.077324,-2.76846,1.9105767,-2.6380494,-2.8177867,-1.8664178,-2.1820354,-0.80968165,-2.1672192,0.8241454,-2.388416,-2.097099,-1.6017827,-1.6713532,1.1193717,2.1139312,-1.7023917,-1.7757815,-1.5059845
TMEM9,0.21930715,-0.6096411,0.45940694,0.020669,0.46025956,-0.20531662,-0.7174464,-0.5366417,1.2463133,-3.1428006,0.80236083,-0.636429,-2.90967,-1.754759,-0.3451511,0.26354972,-2.7663808,0.9069982,-0.80930287
PHLDA3,0.23502883,-2.49497,-0.11043763,0.48403102,-0.022623261,-0.030819058,0.72694355,0.4520632,-1.9414814,-0.07608724,0.7022001,-2.0190885,-2.529813,-0.85243016,0.57133114,0.6665358,-1.1811559,0.3319151,-1.6171412
CSRP1,0.24813576,-0.83436316,-0.43173304,0.18378355,0.21369222,-1.1106641,1.1233785,0.33818236,0.93024826,-1.5901961,0.8006349,-2.074041,-2.8849578,-0.16267489,0.031932984,0.76040506,-2.8269746,0.79542065,-2.7914557
ADIPOR1,-0.53805244,-1.3045808,0.526616,0.14841053,0.81582737,0.3068451,-2.002136,0.6952252,0.32626292,-2.0440097,-0.43101683,-0.036930047,-0.838921,-2.2717054,0.6142353,0.60506475,-1.4298011,-0.638611,-1.4725755
SNRPE,0.38297677,-0.31057778,0.06492889,0.23155634,0.39810178,0.539273,-1.1764073,0.19693379,-2.6502635,-0.045769088,-1.1504828,0.9812419,-0.25832596,-2.4663177,0.7671712,0.16412392,-0.26459396,-0.3793043,-1.5298345
REN,-3.181706,-2.8291185,0.89633405,0.3343062,-1.8872921,-1.3597126,1.5684713,0.14066745,0.4822929,0.92534715,-2.5979943,-2.284886,-2.6976898,0.63507426,-0.954987,-1.5906341,-1.7491896,1.9915475,-1.3320115
CDK18,-0.2036418,0.5055177,-0.102986895,-0.42159387,-0.4710697,-0.057673234,1.0939693,-0.85278505,0.6971196,0.18374205,0.061387286,0.34264287,0.18584903,0.45301768,-0.87519747,-0.6143498,0.8612114,0.68569905,-0.35956758
NUCKS1,0.2503562,0.61159056,-0.11010889,-0.28181437,-0.22845495,0.05850456,1.0034975,-0.668135,-1.1531148,0.48400715,0.06422788,-0.28073093,-0.21965139,0.2944437,-0.14880963,-0.12752903,-0.27161765,0.773719,0.754069
MAPKAPK2,-0.033037063,-0.10185785,0.24483545,0.10605509,-0.22311446,-0.27765128,0.2991354,0.20166415,-0.26136833,-1.4611772,0.34564304,-1.6445405,0.31500408,-1.8797176,0.06265909,0.6113715,-2.8536189,-1.0248401,-1.5982707
CD46,0.0045226156,0.17436092,-0.016682802,-0.20521636,-0.021330914,-0.014054285,0.09786541,-0.19004282,0.66939974,0.974585,-0.08990307,0.16000909,0.89778334,-0.68481076,-0.05137631,0.23947884,-1.7620765,-0.5668908,0.6495892
CD34,0.19205499,0.531052,-0.731577,0.16388905,-0.43895277,-1.2494076,-0.14408717,0.50551695,0.5984115,-0.27761948,-0.6500947,-1.9227096,-0.39230025,0.98196834,0.2717961,0.4407675,-0.1297469,-0.12442298,-0.15962413
NENF,0.18374887,0.28352955,-0.1873834,-0.07675795,0.085931405,0.037698075,0.23385414,-0.12377209,-1.0612051,0.336225,0.2203339,-1.4408998,0.7935072,0.88239014,-0.11409024,-0.4585698,-0.502146,0.27548355,0.49772108
ATF3,-1.7336317,0.6524487,-3.1564748,-2.1936548,0.73499304,-0.14132224,-1.5068333,1.0675395,-0.4501566,1.3953836,0.3394249,0.85339904,1.227047,-2.2567425,-1.4537457,0.85605294,-2.4882586,0.3933312,-0.87347025
MARC2,-1.9927738,-2.126323,1.1149879,0.33789968,1.2671527,0.35651535,-0.25353384,0.19294617,-2.6957831,-1.1392703,-0.21158232,0.5354583,-2.54847,-2.2852697,-0.59778297,0.056529626,-2.2513533,0.032438822,-2.469933
AIDA,-1.8924071,-0.6910317,0.37989345,0.347948,0.49729133,0.61461204,0.89614356,-0.18332982,-3.0078108,0.36098585,0.48594576,0.9429121,-2.8968036,0.44946003,0.32772562,-0.5543544,-2.3268287,-0.25848198,-2.5684001
CAPN2,0.26071975,-0.23897779,0.4167123,0.5508255,0.66217875,0.32763097,-2.331634,0.6934063,-2.743002,-2.1420398,-0.27151018,0.9952102,-1.0840409,0.05926962,-0.25538346,0.81548935,-1.8193731,-2.6598728,-0.053743407
DEGS1,0.08397904,-0.81302726,0.73105466,-0.096880764,-0.42731854,0.36076516,-0.26177457,0.080224805,0.52235556,-0.2351503,-0.2937314,0.6058948,0.24491058,-0.4253048,0.478769,0.47439757,-2.1611369,0.4659756,-1.5546197
CNIH4,-0.28119954,-0.3374538,0.9211463,0.66889125,0.73663455,-0.15159823,-2.2705615,1.0737131,-2.7365806,-2.3402243,-1.2682112,1.1658124,-2.4318464,-2.3782458,0.74932355,0.76066726,-2.415541,-2.6982667,-2.3738887
SRP9,-0.4352882,0.3401083,0.07793293,0.11109961,0.24607182,0.28666362,-0.937162,-0.5673028,-3.054618,0.37276676,-0.0023403976,0.5043938,-1.4739442,-0.66069245,-0.12126494,0.20956618,0.29875466,-0.7320889,-0.39108178
EPHX1,0.33550823,0.29652178,0.04210282,0.20765732,0.42833582,-0.08788287,0.5980181,0.11766827,-2.9547575,-2.4174376,0.765112,0.21262321,-0.4228964,-0.3849214,0.54646736,-0.03611938,-2.8046863,0.41095215,-2.9444547
H3F3A,0.013924148,0.36460885,-0.71237457,-0.99850166,-0.8289102,-0.45624876,0.8161247,-1.100999,0.79504746,1.108939,-1.4735284,-0.0141284205,0.58508974,-0.08463196,-1.5375538,-0.29044896,1.1359037,0.6654351,0.809334
COQ8A,-0.45965368,-0.8662432,0.71403223,0.6185715,0.70379126,0.3045409,-0.5487405,0.66151386,-2.6921008,-2.8350763,-0.5891837,-1.0427812,-2.3656306,0.5116341,0.70753396,-0.3878856,-2.1193879,0.96498007,-2.588879
ARF1,-0.36685228,0.42754844,-0.41024843,-0.6484181,-0.51751554,-0.30765846,0.60151964,-0.5431506,0.64604217,1.0152967,-0.4932566,-1.3972362,0.06845308,0.9155038,-1.026346,-0.32399186,1.1505852,0.6261834,0.45587462
MRPL55,-0.502296,-1.6022295,0.23548207,0.43085334,0.6037959,0.2230319,0.485337,0.2646567,-0.95988715,-2.5030332,0.7097984,-1.1294775,-2.789559,0.6049865,0.5738016,-0.7732959,0.21465111,-0.32247528,-1.8356322
GUK1,0.27478832,0.43698063,-0.5012243,-0.41939497,-0.71945834,-0.43280852,0.97000104,-0.49481827,0.70250565,0.46888795,-0.23100668,-1.4870137,0.50217974,0.9734874,-0.860705,0.19271822,-0.08560237,0.93276656,0.13001963
RNF187,0.36709023,-0.26889327,-0.16591385,0.04436909,0.059514444,0.014549356,0.4508423,-0.54114145,0.9473362,-0.4537786,0.3132261,0.43914902,-2.3122292,1.0174385,-0.0024773637,-0.047157373,-0.16250472,-0.15113911,-0.5143308
AGT,-1.8903205,0.6209639,0.083031155,-0.2333492,0.044379383,0.01078795,1.0943773,-1.2007488,0.50621283,0.12297047,0.13038096,0.2372646,0.07677095,-0.4602184,-0.0657929,-2.9300508,0.9134946,0.85569453,-0.4459277
EGLN1,-0.5002711,-3.308626,0.45723456,0.4132092,0.85229576,0.67002505,-2.9887953,-0.4025702,-1.2825973,0.90022653,0.6776799,-0.6353881,0.6620358,-2.5558143,0.32341328,-0.69812524,-1.37788,-1.5477037,-0.24865328
IRF2BP2,-0.48712635,0.45183858,-0.5497058,-0.35679436,-0.2729394,-0.18665615,1.172642,-0.72546476,-0.17112298,0.71090895,-0.049984977,0.32218468,0.7597085,0.84391963,-1.3114675,-0.3219474,0.93565077,-0.36204693,-0.26820832
TOMM20,0.15443069,0.3846309,-0.35121638,-0.23863713,-0.1599241,0.09648661,0.15782939,-0.5410873,-0.4253446,0.87066424,0.0897911,0.58735734,0.45752844,0.005762856,0.0017288332,-0.08983736,0.4362128,-0.80848736,0.11573381
NID1,0.7431389,-0.7455971,0.28761837,0.1695284,-0.7094066,-0.11169289,-2.7459657,1.1775205,-2.684843,1.1065567,-2.6993277,-1.2075213,-2.375679,-2.0972848,0.9009763,1.7140005,-0.93095094,-2.68892,-1.9862479
COX20,-0.08715736,-1.2195055,0.6842062,0.71289647,0.8636119,0.4915549,0.5247299,-0.62199485,-2.8704615,-0.7802729,0.044158857,1.1418377,-2.7105215,-2.5902326,1.0773547,-1.7768736,-1.7534642,-2.5377557,-0.28871396
HNRNPU,-0.1122183,0.42488888,-0.5158826,-0.8705972,-0.62286794,-0.20478116,1.0033967,-1.0606524,-0.27963418,1.1808335,-1.2704706,-1.106436,0.4252704,0.67912704,-1.4051546,-0.63526654,1.0133947,0.6802419,0.8298122
SH3YL1,-2.5219305,0.22975081,0.8355866,0.52539164,0.8111747,0.27318108,0.22754093,-1.9965909,-0.014338117,-2.911739,-0.3431693,1.4888171,-2.662979,0.571696,-0.5443459,-2.6387026,-1.8694808,0.22142245,-1.1522249
ACP1,-1.3878615,-0.59540445,0.7678654,0.753222,1.0794725,0.6629783,-2.2706633,0.33521417,-2.7250307,-2.0581222,0.23484068,0.5048008,-0.7646357,-1.8726958,0.64035434,-0.3877592,-2.3023329,-2.6294134,0.09736984
ADI1,0.020526085,0.126495,0.4405791,-0.011022278,0.4923317,0.32866532,-0.4569102,-0.5512732,-2.5156453,0.418413,0.40365788,0.61895186,0.6858441,-2.6874986,-0.11953549,-0.28737906,0.0007091442,-0.74323976,-2.816853
ID2,-0.2174228,0.10517768,0.2578166,-0.41306067,0.19975765,-0.010733036,0.35761896,-1.1138798,-0.24997267,0.839285,-1.1677668,0.90037787,0.689299,0.26000574,-1.3613896,0.10313515,-0.14223875,-0.38815328,-0.9339903
YWHAQ,0.05742893,0.11609873,0.06850431,-0.062547415,-0.10990148,0.3003902,-1.7193722,0.21478117,-2.5688488,0.75909394,-0.41709262,-0.066561125,-0.049519543,-1.4803984,0.041906785,0.6505172,-0.0117369145,0.33163634,-0.7932519
CYS1,-2.7279704,0.54464936,1.0084955,0.7706007,1.2564771,0.45369682,-2.7494094,-2.520277,-0.05286838,-2.7960882,1.0325783,0.8990364,-2.734192,-2.5651727,0.01663199,-2.7323582,-0.08508537,-0.5169138,-2.5151076
HPCAL1,0.035520703,0.59025437,-0.28832442,-0.35537183,-0.08594857,-0.110377595,0.653505,-0.78871304,-0.621476,1.0248193,0.2553888,-0.512927,0.585182,0.5260858,-0.8283291,-0.5981114,-0.66185534,0.6241971,0.74693465
PDIA6,0.36349007,-0.30450395,0.088659965,-0.33611703,-0.29862073,0.04137384,0.44028556,0.011444796,-1.852853,0.90403825,-1.7287984,0.4110882,0.3976404,0.9607508,-0.20713902,0.43106025,-0.43255916,-0.047432803,0.74461764
LAPTM4A,-0.11253101,0.514125,-0.36906058,-0.5788151,-0.39795673,-0.023026738,0.013668446,-0.9335379,0.69105756,1.0757974,-0.95495456,-0.34822345,0.3430566,0.023850853,-0.9755371,-0.5423823,1.0476302,0.63250226,0.7244764
SDC1,0.45347416,0.30357146,1.0925462,-0.18978845,0.10093611,0.21951424,-1.1965489,-2.2418528,-0.7993168,-0.42267725,0.59537303,0.041591927,-1.0367026,0.002804171,-1.9090419,-0.1734896,0.25080907,-0.31774807,-1.9079782
RHOB,-0.42890397,0.38254443,-0.7821993,-1.0640438,-0.5016637,-0.73228824,1.2405933,-1.0339261,-0.18064347,1.1759455,-0.64719856,-1.7691934,0.54722434,1.0584215,-2.117973,-1.3749322,0.9286941,0.54228616,0.9570283
SF3B6,-0.15190947,0.25333634,-0.11466754,-0.06689116,0.31265682,0.20292675,-3.356753,-0.1204659,0.36432102,0.41172493,-0.48258272,0.47378018,-1.4790729,-2.461348,0.39127952,0.36693954,0.37542528,-0.80527574,0.22557077
HADHA,-0.13424954,0.14500067,0.027618976,-0.10690566,-0.2144716,-0.58405346,1.2458134,-0.14893547,0.55914885,0.17001133,0.08444269,-1.4063673,-0.10611542,1.1107029,0.04864586,0.13280092,-2.5153434,0.9379189,-0.02054687
HADHB,-0.3671757,-1.2682066,0.34652936,0.32627204,-0.06196513,0.3734451,-3.115425,0.3599055,-0.25068384,0.79941225,-0.26310396,0.38972688,0.26265526,-2.410292,0.5350482,0.50012827,-0.24861999,-1.5417745,-2.8537006
OST4,0.10801997,0.18238926,-0.59582853,-0.89123535,-0.89392823,-0.3542724,1.3225069,-1.1639107,0.48039594,0.7932075,-0.75542516,-1.1156739,0.80369335,1.0068766,-1.4376168,-0.47814506,0.22723383,0.51268,0.7016869
KHK,-2.545335,0.8199611,-0.1655486,-0.15905358,-0.16834912,-0.15475966,1.6893185,-1.855701,-0.1820862,-0.48120153,0.369217,-0.4480791,-2.320397,1.0544195,-0.8945276,-2.9026098,0.5317177,1.1916933,-0.111809716
ATRAID,0.35172614,0.44481108,-0.0733246,-0.09350188,-0.023938961,0.286477,-2.0358887,0.017608041,-0.057149675,0.18326949,0.008536544,-0.43620464,-2.5862744,-0.49667448,0.35442054,0.35395825,-2.0197861,-0.062296055,0.41975966
SNX17,0.7529117,-0.31716955,-0.04373744,0.46611375,0.29879507,-0.1190681,0.23575729,0.056545768,-0.9594594,-1.5223894,-0.54776645,-1.557097,0.04952006,-0.0020075804,0.4839029,0.7844946,-2.5284472,-0.3480641,-0.6967296
MRPL33,0.22479586,-0.6341053,-0.34926885,0.4277839,0.48713428,0.12641941,-3.0505135,0.8332671,-0.47594333,0.30135742,0.4935787,-0.7703802,-2.3815734,-2.5248322,0.5669474,0.7460001,-2.47492,-0.35891348,-1.5200298
FOSL2,0.6189223,-0.069376,-0.23107375,-0.25841966,0.2417023,0.15447855,-2.9123642,0.66567755,-2.873899,1.2110564,-1.194641,0.24474707,1.163837,-2.58401,0.9557909,1.0192127,-2.566596,-1.4815569,-1.6101245
PPP1CB,0.32310975,0.2247651,-0.44742826,-0.26451206,-0.07554844,0.16157828,0.2740615,-0.44862184,-0.59010196,1.0520214,-0.5969924,-0.44219327,0.63647103,-0.6401972,-0.33613628,0.32526788,0.9346486,-0.40136704,0.5957251
YPEL5,-0.6173039,-2.4619906,0.5523228,0.7760023,0.8230169,0.5671733,-2.19092,0.6160719,-2.536386,-0.49396938,0.15487462,1.3042877,-2.525409,-2.3401823,-0.25984117,1.0965344,-1.6010195,-1.7510158,-1.5127316
LBH,-0.4234652,-0.4438891,0.1448577,0.6976788,0.75770277,-2.62267,-0.4532497,1.2198871,-2.8389835,0.557158,0.7980448,-1.4884652,-2.4605813,-2.2885852,-0.52227646,1.5829864,-0.6618635,-2.6633213,-2.3669717
GALNT14,-0.72511786,0.458961,0.19969603,-0.017209804,-0.042246275,0.3090769,0.86631966,-0.73692447,-0.47063106,0.19344825,0.30910066,-0.6060789,-1.3296471,-0.18598211,0.32032424,-1.7109679,0.706071,1.0567435,-0.7784891
DPY30,-1.631345,-2.223739,0.81456923,0.73483574,1.1689961,0.3842127,-1.8391396,-0.049514372,-2.0647404,0.2625957,0.805224,0.44063446,-2.2641454,-2.362881,-1.4080634,-0.305207,1.1229769,-1.8329321,-1.5154977
LINC01320,-0.4548954,0.91731197,-0.19634794,-0.4174617,-0.32201868,0.23128073,-1.4758627,-1.6271846,0.5306968,1.1372328,-0.33939475,-0.688088,0.19076435,0.0058940346,-0.21767332,-2.5350974,0.65018237,0.99833775,1.2951192
CRIM1,0.09226512,-0.17452545,-0.612328,-0.5810435,-0.03440899,0.08813999,0.42720094,-0.490842,0.6822143,0.94853413,-0.72975904,0.5181559,0.20141242,0.8121947,-0.6322632,-0.29470453,0.8531313,-0.3871037,0.65928686
COX7A2L,-0.8761614,-1.4036478,-0.059783824,0.26122034,0.3858917,0.28689802,0.37228954,-0.11343578,-1.6973147,0.3201046,-0.1770511,0.79851097,-1.6589565,-0.87644124,0.3889835,-0.5025742,0.32645342,-0.07116757,-0.2033204
ZFP36L2,-0.21775997,0.11297032,-0.12267738,0.5498406,0.46770707,-0.55128247,-2.3337932,0.7431837,-0.9908204,0.13094184,0.4960686,-0.59493476,-0.27562863,-0.12959474,0.24110405,0.92024297,-1.5949137,-0.5873536,-2.4704146
LRPPRC,-1.6163352,-1.9394286,-0.2184865,0.06137723,0.14034624,0.37021264,-0.41329166,0.15859157,0.9812356,0.33059195,-0.63748056,0.7443881,-1.8945473,-1.4208089,0.7423492,-0.4392785,-1.9293084,0.41258892,0.79222757
MCFD2,-0.97520787,0.34750554,0.12644757,0.31950197,0.69745785,-0.16870138,-0.7010695,0.33715126,-1.5759455,0.22310711,-0.25104663,0.8228361,-2.4579043,-2.5087466,0.32215393,0.19637027,0.5881796,-1.7648383,-1.6284884
CALM2,-0.08255717,0.41889223,-0.62375593,-0.6475159,-0.47613212,-0.19614457,0.7463381,-0.49177223,0.38733068,1.0408292,-1.1199104,-1.0105733,0.47353825,0.64327115,-1.2388763,-0.2577242,1.1927209,0.5685172,0.79687685
EPCAM,-2.9771137,-0.35909396,0.6665379,0.33372226,1.3180844,0.15125436,-1.3876675,-0.7426847,-2.6902494,0.024902606,0.7041148,1.1394142,-0.5499243,-2.516538,-0.15968294,-2.3315058,0.030337574,0.021852545,0.38281265
SPTBN1,0.1081247,0.57933086,-0.4189248,-0.46884862,-0.51995456,-0.5837381,0.8981819,-0.4558481,0.07336619,0.9490953,-0.5694309,-0.99826765,0.7750797,0.5021601,-0.994198,0.100139566,1.0052863,0.79279613,-0.033926286
CFAP36,-0.829503,0.0054174834,0.32707322,0.66156125,0.91322356,1.1272051,-2.6368365,-1.321888,-2.908991,-0.8518628,0.34283492,1.2723258,-1.629284,-2.280946,0.75156766,-1.4751972,-1.9734249,-1.2416378,0.7535086
EFEMP1,1.700318,-0.8154528,-2.577358,-2.260709,-2.6437187,0.7691793,0.79552865,0.030208522,1.4772626,-0.30314207,-2.2371209,-1.0345671,-0.6328327,-1.7478245,-1.3576783,2.0897655,-1.2144226,-1.9603949,1.5484475
CCT4,0.0066832877,-1.3974147,-0.11554883,-0.034413822,0.118164785,0.27557757,0.63622856,0.2842181,-1.2647829,-0.053740762,-0.92599124,1.0169374,-2.5153859,0.5263337,0.32391256,0.32662594,-0.07042747,-0.40269732,-1.8805943
MDH1,-1.0663596,-0.5122061,0.47382084,0.28818506,0.5120264,0.50980365,-3.1437395,0.5664391,-0.7028177,0.18486077,-0.83398503,1.2750884,-2.3403015,-2.7534008,0.18797745,0.51877725,0.31658778,-1.6939116,-0.016944582
UGP2,0.35493448,-3.2149303,0.66415495,0.20198601,0.5056382,0.44156936,-2.9584277,0.25087026,0.7014493,-0.55861515,-0.81528884,0.046010338,-2.4433777,-1.2167035,0.81107605,0.61424565,-2.1866584,-2.8121727,0.19464725
RAB1A,-0.33957148,0.07162036,0.3819809,0.1961106,0.34013543,0.28268483,-1.9078574,0.33336434,-2.5334175,-0.04545575,-1.2066624,0.7484017,-0.63207674,-2.740251,0.4409834,0.5644896,-0.7010212,-2.584564,0.36918682
ACTR2,0.39675298,-0.044837706,-0.17998813,0.01223144,-0.18761125,0.04530246,-0.13581264,-0.10921926,-0.61968845,0.8241102,-0.83437514,-0.30224118,-0.65413165,0.15696558,-0.110179774,0.7193672,0.9200492,0.112615675,0.3825589
PCYOX1,-0.64353657,0.39459518,0.6440016,0.13628113,0.5499989,0.2592621,-0.4868464,-0.48023266,0.29133138,-2.4867952,0.92020124,0.62780094,-2.2582881,0.06538075,-0.4735957,-1.3531128,0.5222173,-0.72342366,-2.6850312
SNRPG,0.16356613,-0.34180892,0.20580289,0.4697371,0.12877177,0.26604867,0.12873505,0.3941699,-2.6505973,-1.5635179,0.15259287,-1.425121,-1.8023392,-0.427493,0.49660116,0.829612,0.6855047,-0.97677904,-2.65404
TGFA,-0.5591553,-1.8001676,0.63018376,0.36734438,0.8645928,0.5155953,-1.768426,-0.3435237,0.3070248,-0.38385257,0.42556927,1.4576246,-1.8288902,-0.2932974,-1.0325308,-0.18339916,-2.1069632,-2.1870418,-2.1120574
NAGK,0.10160638,-2.916136,0.7552894,0.9900941,0.019654617,-0.43845117,-1.6546668,1.1521949,0.13640052,-1.6653422,-0.352491,-1.8401676,-1.3186454,-1.1960989,0.6119129,1.0122261,-2.3297715,0.5682588,-2.3279006
DYSF,0.641838,-0.075495295,0.3283871,0.4145654,0.6245909,-2.5760682,-0.10558442,0.32042915,-0.17896202,-2.4383056,0.77364683,-0.523061,-2.5666277,-2.2968986,-1.2188381,1.0304364,-2.7202656,0.28817135,-0.8013472
RAB11FIP5,0.13098164,-2.6283548,1.1489775,1.0455493,0.87136513,0.10612037,-2.643296,-0.19118093,0.5024039,-2.7966146,1.2715435,-0.9436931,-0.43420327,-1.983497,-0.9741404,-0.8352414,-2.3313546,-2.355287,-2.3542674
CCT7,0.12867245,-0.5808168,-0.009052801,-0.016839985,0.3503619,-0.12083459,-2.6886983,-0.10240977,0.7252656,-0.04888014,0.5130563,-1.3531163,-0.23539911,0.45594746,0.5494993,-0.013751906,-2.6177788,-0.017346669,-1.1296072
MOB1A,0.18224631,-1.3484603,0.063590504,0.14880238,0.3705586,-0.097844146,0.84104407,0.48568442,-2.8945622,-0.53324974,-1.853533,0.053201098,-1.410232,-1.786268,0.84495866,0.5477059,-1.3265724,-0.694964,0.22164084
WBP1,-0.4458946,-1.3664062,0.42005002,0.74407345,0.90653586,0.25969976,-2.325265,0.5992955,-1.0403363,-2.949009,0.9785136,0.37779006,-2.5193355,0.5098725,0.24778645,0.5936862,-2.568859,-0.6595812,-2.6714027
AUP1,0.38027263,-2.2716546,0.74754727,0.73237365,0.5359395,0.2567788,-2.620041,0.7474498,-1.3281162,-0.7560825,0.91429824,-1.731889,-1.7526525,-2.1942816,0.01567423,1.484895,-2.3365564,-1.0266427,-1.8711239
POLE4,-0.06492799,-3.1046646,0.52790284,1.2509956,1.1005298,0.47061872,-2.681056,0.78771645,-2.3196764,-2.4339046,0.7875955,-0.57800347,-2.2673857,-2.0737858,1.1439587,0.6881869,-2.222174,-2.3004527,-2.3992171
REG1A,0.22265166,0.0019832193,-0.539992,-0.83446693,-1.0162742,-0.20654732,-0.8181754,-0.19879392,0.7503793,1.492032,-2.133823,-0.24397862,1.0899204,-2.0433197,0.61016816,-0.07886402,0.65865016,-0.0026050957,0.8541833
SUCLG1,-2.3065183,0.0017279097,0.7527591,0.3717209,0.89386374,0.4176832,0.14437692,0.17690805,-2.9141312,-2.6729746,0.034114204,1.040352,-2.6539152,-1.4708798,-0.28107867,-0.909413,1.4090322,-1.2087741,-1.739222
TGOLN2,0.15594757,0.37824798,-0.011193386,-0.40748006,-0.10063894,0.02170519,0.35822225,-0.32335833,0.44396794,0.7976079,0.08016384,0.09172301,-0.04196893,-0.5702089,0.012611659,-0.08960513,0.4109706,-0.35304007,0.69840425
CAPG,0.4413366,-0.24134152,-0.31173205,-0.38906494,-0.8929586,-0.24445209,0.9379654,0.083702266,1.1410265,-0.76405317,-0.8305957,0.109300934,-0.07015058,1.0732957,-1.2397616,0.7352258,0.046431277,0.664197,-0.14743948
MAT2A,-1.0732089,-0.27966744,0.23352392,0.19141498,0.07948038,-0.19699177,-2.9418063,0.69216293,-1.5860373,0.5066497,0.04449672,0.29707018,-1.6036035,-2.7457032,0.13129047,0.89862114,-0.033445496,-0.08374275,0.061562825
VAMP8,0.2877269,0.17974481,-0.5177912,-0.23739523,-0.16294499,-0.3358139,1.2391406,-0.48913878,0.55919653,-0.051597826,0.25473645,-0.3589416,0.4266997,0.5926156,-0.32967174,0.15923272,-1.4943278,0.64814126,-0.06743243
VAMP5,0.40776297,0.4353411,-0.8659963,0.3451387,0.46717477,-1.2235177,0.0015036995,0.23946,0.16624255,-1.1243532,0.7172093,-1.369354,-0.40388796,-1.7387768,0.12614231,0.58743733,-0.46042436,1.0068167,-2.957794
RNF181,0.03708725,0.52328014,-0.22457208,-0.005350723,-0.0494318,0.08090826,0.3701743,-0.146803,-0.81731665,-0.5006468,0.076658584,0.3933291,-0.4689919,-1.3858068,0.24405973,-0.10690317,0.41281003,-0.28007302,-1.039976
CHMP3,-0.654336,0.27162763,-0.06484185,0.3332385,-0.01283504,0.010896499,-3.2038076,0.18722083,-0.685197,0.4658304,0.15278539,0.6281613,-0.255982,-0.76589555,-0.28300875,0.32913494,0.6197194,-2.3233597,-0.37063578
CYTOR,0.78533256,-2.8734322,-0.7464986,0.039310824,0.16168316,-0.09767401,0.034940198,0.47629127,-2.716789,0.9740089,-0.44066256,-0.96969867,0.59111786,0.028291784,-0.040520556,1.1176578,-1.204633,-0.12875651,0.50340635
SNRNP200,-0.037038,0.002792289,0.44103196,0.20055757,0.3693726,-0.12345274,-2.2560709,0.51701784,-1.7754794,0.44613418,0.6272462,-0.78939396,-2.6984565,0.58979535,0.35746643,0.48893145,-1.7737507,-2.2872252,-2.496695
COX5B,-0.20701429,-0.02666524,-0.8512925,-1.1729946,-1.6712053,-0.6128695,1.5104975,-1.7404633,1.2296249,0.5068652,-0.8549981,-1.7115976,0.21693982,0.9323923,-1.5771413,-0.7247303,1.0678583,0.41333312,0.519935
RNF149,-0.21028052,-0.1875688,0.1804067,0.045415796,0.408645,0.48784423,-0.113188244,0.15183815,-2.497805,0.20878729,-0.39238593,0.92786914,-0.49256852,-2.7061734,0.009901994,0.69282097,0.01062361,-1.7275314,-1.336086
PANTR1,-1.5068828,-0.9432055,-0.004607512,0.8429899,1.626222,0.53921235,-2.5549781,0.08711337,-2.6130626,-2.2332635,0.69530547,1.3618231,-0.07093525,-2.2382581,0.34741524,-0.81526506,-2.0280602,-2.4509282,-2.3399918
POU3F3,-0.7469853,-0.3450368,0.37050483,0.17211318,0.61552566,0.678192,-2.4028523,0.1332272,-1.9203067,0.04710339,-0.2627506,0.50099134,0.3435307,-1.7485707,0.2527098,-1.1600115,-0.3918398,-1.0895684,0.5170323
MALL,0.25905767,-0.13448024,0.15625744,-0.11258956,0.3362607,-0.7628423,0.6478519,0.042319875,-2.6571639,0.36411762,0.66753733,-1.489638,-0.7127047,-2.5485134,-0.39834487,0.4850077,0.7608495,-0.041872077,-1.0594779
MTLN,0.5422828,-1.2778794,0.19499137,0.20252381,0.38149068,0.07719406,-0.23470084,0.45573083,-0.6757766,-1.8205407,0.8598512,-1.0282933,0.12533066,-1.637115,0.047423195,0.72055435,-2.7635462,-0.47158605,-1.3990803
PAX8,-0.9292134,-0.18111832,1.1646773,0.54007554,0.85468096,0.09991706,0.4034673,-0.757934,-2.5931177,-2.1517246,-0.09103935,0.17272404,-2.4234316,-2.4476898,0.9366658,-2.2676413,-1.3635397,0.3173568,-2.3879063
SLC35F5,-1.1485196,-0.4898434,0.50011283,0.44639134,0.6584443,0.6075616,-0.596224,0.21758026,-2.7114022,-0.38719854,0.47721964,1.0302101,0.7168188,-2.4593084,0.2597856,-0.18206449,-0.38637266,-1.4185951,-2.6666737
ACTR3,0.29421794,-0.111586444,-0.18470173,0.057438247,-0.11302385,0.022498168,-2.4160795,0.27935144,-1.0224955,0.8237116,-1.697567,-0.4948723,0.17554164,-1.0584165,-0.0015238497,0.7212225,1.2393723,-0.25215715,0.14255191
INSIG2,-0.83898103,-1.4613006,0.7992396,0.4280082,0.7768498,0.488535,-2.8645513,0.12925334,-0.37899438,-0.192204,0.27177215,0.6488833,-0.53593165,-2.3356879,0.53950554,-0.66549397,-0.04013503,-2.4430096,-2.524013
DBI,0.19250831,-0.017910693,0.073985465,-0.43250147,-0.16458789,0.23914054,0.34667075,0.021855319,-2.1128595,0.5649744,-1.0742439,0.4847126,0.7011893,0.64715976,-0.11228682,0.274827,0.51868,-0.36450192,-0.553041
TMEM37,-1.3609637,0.536245,-0.07858789,-0.40850914,-0.5170391,-0.07319708,1.3644698,-1.4817462,0.7293793,0.6207174,-0.00024160753,-0.15983689,0.099777296,1.0967021,-0.72857076,-1.6598189,-0.5768971,1.0512983,-0.85291916
INHBB,0.58971786,-0.17443901,-0.3414747,0.06545541,0.33460772,-0.50992507,-1.2869911,0.55969536,-2.430824,0.9377715,-1.2063,-0.15162791,0.34366277,-0.56690913,0.75460887,0.7431316,-0.36327726,-0.5656786,-1.0489229
GYPC,0.28784734,-1.0183253,-0.112100005,0.23940635,0.26568276,-0.23084123,0.24866253,0.14627708,0.68439066,-1.0386245,0.37371463,-0.45723203,-1.4340323,0.21772523,0.5446753,0.4836032,-2.537516,0.68716997,-1.1594541
MZT2B,-0.2015461,0.15391731,-0.772266,-0.8704139,-1.2408582,-0.36588326,1.5939221,-1.2944449,0.58534396,0.49962318,-0.908,-0.22894348,0.4320049,0.83436084,-1.0765023,-0.68251354,0.25353768,0.9713842,0.21992056
CCDC115,-1.284476,-2.3560133,0.61582077,1.211797,1.3837556,0.63237405,-2.5660655,0.18697454,-2.621858,-2.3979633,0.6785754,-0.19700572,-2.3286815,-2.1751869,1.1150454,-0.45819733,-1.4033016,-2.5335784,-2.2377279
MZT2A,-0.21048212,0.08625308,0.118472084,-0.01139451,-0.26392177,0.15723665,0.41777873,-0.38463867,0.48309612,-0.34087926,0.6329223,-0.8117251,0.38831502,-1.5846833,-0.1418822,-0.09663073,-0.6003691,0.3734902,0.28764334
ACMSD,-3.0628734,-0.4333353,1.2499548,0.7291196,1.4179684,0.32952613,-0.86487865,-2.7572374,-2.654385,-1.7003679,1.402805,0.80843437,-2.6494725,-1.322046,-1.6303649,-2.7695656,1.4183726,-2.1594052,-0.63193625
UBXN4,-0.32581773,0.21015227,0.24047537,0.19805126,0.17216095,0.30821908,-1.1111685,-0.01870908,0.028024264,-1.0309831,0.05555967,0.56649846,-1.8209177,-1.8202878,0.54155964,-0.29320067,-1.4823722,-0.75345856,1.2495611
DARS,-0.73564565,0.6310899,-0.12610103,0.029796246,-0.022157807,0.32555267,-0.37328503,-0.28233635,-0.4843701,0.92792416,0.23580186,0.6760999,0.84106517,-2.8251529,-0.3549424,-0.51937634,-0.40428117,0.472936,0.79749095
HNMT,-1.0140524,-0.5583296,0.4091459,0.5128112,0.5500816,0.569849,-0.7727251,-0.045098186,-1.0832258,-0.32722953,0.61966705,0.84502035,-1.54392,-2.2290514,0.34428898,0.106485955,0.072904006,-2.4413888,-2.1122417
DPP4,-0.96504986,1.0343323,0.021109901,-0.16467604,0.659882,0.5191091,-1.9516054,-0.2670418,-1.6008737,-0.28514042,0.5218237,0.8346403,-1.5378425,-0.9945598,-0.51045775,-0.8610394,0.6644541,-1.0799625,0.80084556
DYNC1I2,-1.9772063,-0.1635518,0.09150312,0.3752078,0.44649863,-0.62596995,-1.0166997,0.58666193,0.16543205,0.120722756,0.39407465,0.77830195,-0.1769563,-1.3088428,0.21981671,0.074640125,-2.73953,-0.8478958,-0.62144595
ITGA6,-0.8965587,0.5409337,0.3346259,0.0040532313,-0.3689057,-0.22017553,0.03761024,-0.3854868,1.0668991,0.12731577,0.13462414,-0.98893964,-0.33119056,0.4653907,-0.49489504,-0.757994,0.20336816,-0.28517386,-1.6547359
OLA1,-1.2862395,-2.327455,0.6754,0.9364165,0.9057617,0.5049365,-2.637846,-0.47530773,0.014862841,0.010707193,-0.4463399,0.6015636,-0.04075861,-2.3455849,1.1841689,-0.76481044,-2.161385,-1.5552595,0.29972434
ATP5MC3,-0.16533923,0.0037467063,0.015875816,-0.019008314,0.12668824,0.2759082,-0.45712265,-0.12084307,-1.2936988,0.4892235,-0.039602764,0.3826558,-2.3532734,-1.9923953,0.4132393,0.27822015,0.09839132,0.6543346,-1.7287376
HNRNPA3,0.28704357,0.15739898,-0.18184744,-0.27789614,0.051137894,0.06934126,-0.35350493,0.09785572,-1.4614353,0.9262765,-0.17764409,0.6481498,0.7079923,-0.15990572,-0.1808169,0.26630905,0.597147,0.14311561,-0.6604618
UBE2E3,-0.0011159219,-3.0380735,0.61894006,0.582817,0.54150426,0.8251301,0.5713094,-0.78058773,0.10730284,-3.0928254,-0.163157,1.4135643,-2.473847,0.22740777,0.4545956,-0.9678232,-2.2292242,-1.8110465,-2.2784636
FRZB,-2.4466362,-2.2842562,1.6582086,-0.6283387,1.5523049,-0.28956813,0.3859708,-1.4118887,-2.4751122,-2.3637712,0.6361582,-0.0962335,-1.9167931,-2.0132365,-0.29550132,-2.0351498,-1.4811453,-0.5911277,-1.7349302
NCKAP1,-0.15776633,-1.5996094,0.22318922,0.09368892,0.2397124,-0.15894838,-0.44936073,0.29862326,-1.1308451,0.3341164,-2.1284099,0.6227645,-0.6805267,-2.8458831,0.42303315,-0.123711444,0.0680822,0.565197,-0.8956055
ITGAV,0.56864965,-2.9871268,0.023362344,-0.3474239,-0.42331147,0.5228256,0.7943612,0.29133818,-1.3973749,0.8885795,-2.4654467,0.37752306,0.45607397,1.1918466,0.023097958,0.9345316,0.16912103,-2.9255552,-0.9008004
TFPI,0.351428,0.21165054,-1.0860201,-0.319122,-0.033423003,0.11704766,-0.42951852,-0.18612614,-0.59190494,1.1573055,0.015158414,-1.0924103,0.55741507,-0.059397534,0.21012507,-0.13848938,0.8479103,-0.14057365,0.4148207
COL3A1,1.0042472,-1.0642234,-0.89262724,-0.9277072,-2.8270836,-3.094906,0.17551821,-0.35733488,1.579103,1.3949229,-2.3868785,-2.4569087,1.3949351,-2.5326564,-0.49918956,1.1233555,-1.3339126,-0.2673487,0.6734907
COL5A2,1.8358614,-3.024054,-0.36876076,-0.17256606,-1.587943,-3.1415348,0.068319656,0.7084644,-1.7929527,1.0490472,-2.3984573,-1.9611337,1.7290908,-2.1339927,-0.7484601,2.0324259,1.4363989,-2.261895,-1.426466
SLC40A1,0.85944617,-0.58507353,-0.4106773,-0.54088295,-0.15189926,0.031004759,-0.36197308,0.48344573,-1.5868464,1.1218245,-0.80850637,-1.3865077,0.57163733,0.910722,0.43036774,1.0297513,-2.2436383,-0.8957978,0.73092884
GLS,-0.12079557,0.37577477,0.19206324,-0.14443472,0.14302748,0.2761673,-0.8705428,-0.92167395,-0.5267824,0.78403986,-0.9203306,0.6741315,1.0116266,-0.510229,-0.5554247,-0.6745831,-2.0032847,0.5199499,-0.55030316
MYO1B,0.51434165,-2.8232145,0.16794804,0.31714824,0.3992543,-0.35452694,-2.5288615,0.8629591,-0.95614755,0.55541134,0.12632482,-1.7695643,-0.25656158,-1.4360276,1.0308263,1.1532991,-0.19222358,-2.100785,-2.2935944
SF3B1,0.14379936,0.2964516,-0.07301535,-0.081610925,0.27606952,0.27415574,-3.1727045,-0.06352112,-0.39444777,0.58725953,0.046520397,0.3778271,-0.86356294,-2.0117083,0.35069123,0.104017794,1.0307013,-0.6412476,-2.4628377
SPATS2L,-0.2851241,0.49767715,0.67456484,0.34787714,0.82296276,0.19406477,-2.4185963,0.12221783,-2.6725266,-2.20884,0.62634856,0.68727785,-1.5648261,-0.44600463,-0.33098835,0.18817638,-1.5414648,-0.82205987,0.12289828
BZW1,0.13143781,-2.3003705,0.49180254,0.04785844,0.46613377,-0.6499779,-3.0648174,0.70195377,0.11534378,0.5336359,0.050938733,0.30162376,0.29779294,-2.6048036,-0.549933,1.0508733,-2.562937,-2.997234,1.1500797
CLK1,-0.8130497,-0.029016877,-0.20682092,0.09904602,0.6416721,-0.08779138,0.10948335,0.2639278,-1.9358819,0.43346652,0.28178027,0.96951896,-1.7861671,-2.6418765,-0.19293982,0.33671445,0.608328,-0.0041277544,-2.127962
NDUFB3,-0.597584,0.27624804,0.14199299,0.5908431,0.78049237,0.2769611,-2.986691,0.8103391,-2.9364831,-0.7307118,-0.035040494,-0.102773696,-0.23356116,-2.4552815,0.8457412,-0.1537138,-1.5328726,-1.8593242,0.5309931
CFLAR,-0.5345981,0.61571413,-0.099148415,0.12065319,-0.12127797,-0.6788197,-0.50746834,0.40294936,-0.25811854,0.5702468,-1.5859197,0.8333476,0.022572506,0.15664719,0.0068733925,0.23907325,-0.56288755,0.82008225,0.17504896
SUMO1,-0.7425062,-0.25063264,0.53952503,0.4593359,0.53547335,0.14701033,0.42486212,0.35321856,-1.336083,-2.9037256,0.058304872,-0.25337547,-2.7667613,-1.4692339,0.5058269,-0.7319539,0.836921,-0.30350474,-2.548643
EEF1B2,0.0034411398,0.002947147,-0.82323456,-0.88958526,-1.2528946,-0.24401532,1.035947,-1.3986721,0.8876562,1.1273217,-1.1832409,-1.2177569,0.6728823,0.6985802,-0.9374638,-0.5199781,0.6910424,0.3329129,0.89951026
PECR,-3.0462003,0.23136178,1.1815916,0.18130623,1.4193069,0.2202536,-1.8891964,-2.6727517,-2.6222534,0.30128524,1.0399407,0.6334352,-2.4986508,-2.3226879,-1.6060424,-2.6100202,0.9721376,-2.187515,-2.3661885
XRCC5,-0.35150346,0.2314889,-0.041778013,-0.021771288,0.33137682,-0.032758586,-1.2521079,0.13942938,-2.191109,0.47339162,-0.36810613,0.5801469,0.25841525,0.11305068,0.100557335,0.092136815,-0.47368756,0.3441383,-0.33330426
IGFBP2,1.818567,-2.7244043,-3.1364474,0.5443542,0.6720972,-2.4652812,-2.5285168,0.12982745,1.0767951,-2.732635,0.8739397,0.33763242,-2.3412814,-0.55817366,-1.4812648,1.8972559,-2.3364522,0.34251016,-1.9883118
TNS1,-0.13551283,0.43474448,-0.5740837,-0.5961185,-0.48360917,-0.22054714,1.0974725,-0.877733,0.46049222,0.63073486,-0.608071,-0.6870595,0.5231155,1.2289613,-1.1910778,-0.88626045,0.23547822,0.84336305,0.46654168
ARPC2,0.547967,-0.053717192,-0.5935502,-0.26810852,-0.545553,-0.22223614,0.4916789,-0.004102977,0.1332066,1.0762808,-1.0501039,0.07018154,0.38478687,-1.0337008,-0.3485393,0.5918996,-1.1730694,0.41444126,1.2631235
AAMP,-0.0623709,-0.39003864,-0.1429797,0.37207004,0.6810759,0.009160463,-0.024183966,0.6337458,-2.361513,-0.5727458,0.34112278,0.5099993,-1.2973627,0.5574588,-1.041151,0.86484057,-2.1758907,-0.75588524,-2.252418
PNKD,-0.23712574,-0.18743353,-0.09672156,0.5918565,0.9084199,-0.39560062,0.38143995,0.35852847,-1.2551504,-0.9184826,1.1078874,0.088180155,-2.6428266,-1.8805251,0.15280496,-0.35081673,0.42545342,-0.11971958,-2.591502
TMBIM1,0.032846972,-0.45116132,-0.16252157,0.07135458,0.04176373,-0.65042526,0.4635843,0.6073241,-0.13825686,-0.26358953,0.408737,-1.1336167,-3.0021303,-2.0420783,-0.03948054,0.7677195,0.29554978,-0.093506604,-0.8278567
CTDSP1,0.23639062,0.01577149,0.0034630145,0.17893039,0.1595707,-0.12436586,0.677885,0.100286,-0.48313263,-1.7433202,0.8067973,-1.004635,-2.4450169,0.20593569,0.1389623,0.2457225,0.40679616,0.1461219,-3.0328455
CNPPD1,-0.7682324,0.5607682,0.21343827,0.7224538,1.1079233,0.4517945,0.12014364,-1.2444861,-2.5473838,-2.5973608,1.4729962,0.27368882,-2.8643517,-0.20671964,0.13869245,-2.2643292,-2.202819,0.5510358,-2.747738
RETREG2,-0.7729674,-0.46861622,0.07310943,0.54536945,0.63399684,0.14462236,0.22361775,0.16484633,0.24455269,-3.0157158,0.87510794,0.23514085,-1.455092,-2.6746483,-0.16564927,0.28766668,0.48279622,-1.9671715,-1.7045966
OBSL1,-0.3290674,0.45300484,0.058247007,0.1466939,0.5287368,0.06998843,-0.43210304,-0.10275064,-0.09154798,-0.9729197,0.5930445,0.7945837,-1.8770559,-2.863898,0.7814557,-1.1462091,-2.8125863,0.54756737,-1.1230066
SERPINE2,-0.21902248,-2.8977363,1.6553518,-0.645112,-1.8488384,0.98574036,-1.7691389,-2.122424,1.3036313,-0.376218,-2.0610135,-0.681367,-2.1255703,0.4320279,1.332208,-1.4384866,-1.8656124,-1.8096225,-2.06661
MFF,-0.8938047,-2.4633968,0.54635215,0.49399632,0.9160735,0.22950053,0.20384948,-0.2429308,-2.8191397,0.899124,0.57398456,-0.598307,-0.77673507,-2.304348,-0.4362788,-0.6831509,-2.4184103,-2.820404,1.1325854
CCL20,-1.676495,-1.6132876,1.5535967,-0.021120489,-1.7165915,0.26872104,-2.025295,0.8104389,-2.1508677,1.5203475,-1.568422,-0.0047992966,-1.5976782,-1.4559119,-1.5584049,1.1575109,1.5859509,-1.8014218,-1.3735292
NCL,0.20155533,0.045381043,-0.22174838,-0.20806822,-0.12297313,0.061668053,0.7482598,-0.34170023,-0.29295233,0.7474893,0.2815727,-0.74596703,0.34162122,0.32705113,-0.79188174,0.07001353,1.1108747,0.5712705,0.689937
ACKR3,0.62123877,-1.5827636,0.05772179,0.03078611,0.064792566,-1.0491153,-0.9380621,0.7821927,-2.1212654,1.2634602,-2.0712261,-1.1549029,-0.41294557,-2.063965,0.7156841,1.1692638,-1.2599137,0.20901147,-1.115962
COL6A3,1.8093953,-2.812098,0.90965116,-0.41456127,-2.0877175,-1.1114529,-2.2951736,-0.9522665,-0.3077776,1.4881462,-0.20137158,-1.7111762,-1.4123931,-1.8475125,-0.41342515,1.9139261,-1.5766261,-2.2588553,1.1272683
RAB17,-0.70644844,-0.13147989,0.45738572,0.62753206,1.2141554,0.45856234,0.29085055,-1.1913234,-2.4326549,-2.1648595,1.3883954,0.051638443,-2.039622,-2.4184816,0.91107655,-2.428929,-2.656757,-1.7369484,0.49758175
NDUFA10,0.23209508,0.11712196,0.34104934,0.13590337,0.6107883,0.27399352,-2.2033806,-0.30872706,-1.4362842,-0.7607961,0.7008249,0.34476775,-1.1601696,-0.8138137,0.115854256,-0.38282683,-1.9923909,0.19615026,0.251968
COPS9,0.079252735,-1.7136434,0.03424821,0.12684307,0.19409184,0.083862625,-1.4822975,0.33187422,-0.65282404,-0.04473008,-0.069155306,-0.43224272,-0.04997346,-2.3639767,0.2522583,0.3865653,0.30667,0.42372236,-2.9426901
PPP1R7,-1.067087,-2.3774247,0.58421856,0.85229456,0.73629826,0.04324191,-1.0152165,0.9786614,-2.1997423,-0.9824263,0.5135746,-1.1511843,-2.699597,1.2514869,0.848864,-0.2626059,-2.5285118,-2.268788,-0.86904716
HDLBP,0.51597923,0.4095604,-0.18210949,-0.10131888,-0.2780779,0.087014146,-2.1268816,-0.100559436,0.7367102,0.080086805,0.07382918,0.59959275,-0.9457483,0.23748091,-0.25133282,0.6524731,-1.2453014,0.29191253,0.11521815
SEPTIN2,0.09508615,0.31403425,0.005167365,-0.18340142,-0.083405785,-0.006966194,-0.3602275,-0.11253263,-0.9645171,0.9140979,-0.2535739,-0.09791231,-0.60872185,-0.5460639,0.0022288682,0.33141598,1.0354444,-0.2504761,0.41711804
STK25,0.024930337,-0.5811164,0.3858903,0.46713853,0.78674984,0.20987241,-0.4696129,0.30319482,-2.5112674,-0.391819,0.72382665,0.5921971,-2.1992326,-2.447094,-0.23114863,0.8167865,-2.1140223,-2.201576,-2.4537146
BHLHE40,-0.14420089,0.52052027,-0.747191,-0.44961497,-0.30284932,-0.50252527,0.8889122,-0.5837365,-1.0546423,1.149676,-0.6915773,-0.009622911,0.4894652,0.0004470841,-0.9605914,-0.27784723,0.98217875,0.31415835,1.0927136
ARPC4,0.27336177,-0.26852912,-0.34267068,0.0225261,-0.12822422,-0.38323826,1.2972995,0.2174451,0.8456256,-2.0892575,-0.0937335,-1.9465944,-2.6493127,1.4422814,0.18293425,0.48392656,0.5528887,0.66684127,-2.7960231
BRK1,-0.29909983,-1.1136373,-0.21199335,0.4669219,0.39560345,-0.1725766,0.674572,0.45798075,-0.13475385,-1.7325687,0.5294129,-0.216962,-0.1843177,-2.4475987,0.5564992,0.39709303,0.7297134,-0.53988534,-2.5294547
LSM3,-0.47000915,-0.31032288,0.35498926,0.90532607,0.9437472,0.16232981,-1.6853739,0.51023155,-2.6757817,-2.1411378,0.017775472,1.5302894,-2.4387949,-1.6573508,0.6512538,0.049767043,-2.2621205,-0.93865806,-2.246968
CRTAP,0.0976179,-0.21629359,-0.06749625,0.0262856,-0.41449618,0.005058783,0.958255,-0.11465463,0.32604232,0.40284094,-0.15364677,-0.55427,0.42608896,0.5514607,-0.36218536,0.028879927,1.0009078,0.37392253,-1.3535239
ACAA1,-0.91018254,-0.15949053,1.1379187,0.8461731,1.0213842,-0.55136234,-2.2698972,0.39897466,-2.3125892,-2.5606976,1.2940608,-0.7038349,-1.4108765,-1.1344023,-0.10452582,0.03389079,-2.286721,-0.087363444,-2.3440428
CTNNB1,0.35240158,0.16502814,-0.38551536,-0.4952595,-0.77581614,-0.60900074,1.1155523,-0.09036746,0.12795322,1.073541,-1.7567947,-1.0395465,0.973475,0.63745755,-0.6380755,0.6182203,-0.1371196,-0.4597258,-0.08510078
LTF,-1.161412,-1.54632,1.6071651,-1.1853236,-1.6573582,1.7031034,-1.3120074,0.119529866,-1.7760125,-0.7885434,-2.0333617,-0.007948542,0.9331461,1.104669,1.9180573,-0.44056356,-1.3845042,-1.7139767,-0.49599457
TMA7,0.29405433,0.34342256,-0.2101611,-0.07500468,0.039917044,-0.21441676,-0.16041362,0.034352157,0.4479681,0.78379035,0.30954528,0.3243751,0.53256136,-0.69976616,-0.48827544,0.44309455,-0.25197437,0.0007211026,0.48879614
SHISA5,0.14203079,-0.71189237,-0.1689204,0.19411239,0.21303584,-0.5098211,0.575264,0.645647,-0.240174,-1.3129163,0.2010471,0.0077058035,-1.5977212,-0.9175736,0.51130056,0.6416768,-2.6364365,0.7009061,-2.2445514
UQCRC1,-0.56908643,-0.157961,-0.027811559,0.321412,0.37422216,0.07334292,0.9035589,0.07445847,-2.1950228,-1.6569735,0.81356484,-1.8417367,-0.5425886,-0.50240076,-0.4511954,0.35622114,-0.093104355,0.43873444,-0.14466837
NDUFAF3,-0.13740557,-1.3484237,0.1915967,0.5726012,0.6775921,-0.9119771,0.146812,0.77051526,0.27216,-2.7005343,1.1374874,-1.5613357,-2.9084022,0.2730855,-0.26145673,0.7587534,-2.686615,0.85338825,-2.7677584
RHOA,0.04720536,0.5193129,-0.6151451,-0.6483731,-1.0238155,-0.6789738,1.1163535,-0.8433538,0.36954328,0.9582756,-0.8940973,0.07796991,0.8849364,0.63699645,-1.686808,-0.13133548,0.6729293,0.7114333,-0.032087464
SEMA3F,0.64544684,-0.5541398,-0.040409043,0.06313557,0.26236787,-0.9904841,-2.8873696,0.8836288,1.0661193,-0.49588698,0.09371505,-1.298975,-0.3851003,0.16467042,0.61440295,1.1179988,-2.5375633,-0.09475827,-2.5751238
GNAI2,0.3922008,0.00013781444,-0.6339887,-0.55392754,-0.7796362,-0.84502083,0.8339445,-0.21276385,0.5499873,1.1032671,-0.37167102,-1.4500719,0.8452953,0.8744602,-0.9116456,0.5849383,-0.7010597,0.19019589,0.56054604
HYAL2,0.28957465,0.17697899,-0.5062129,-0.13506001,-0.09378266,-0.9793898,0.20375398,0.66029364,0.8752375,0.009579675,0.5621662,-2.2545528,-0.13194197,0.77118886,-0.13555127,0.9121807,-1.3295647,0.62177885,-1.4604819
STAB1,1.2812711,-2.871091,-0.7184434,0.23748203,-0.4438678,-3.3973615,-1.0995141,0.9057664,0.84467256,0.22592962,-1.0835692,-2.633782,0.69088244,-0.85050404,0.76488256,1.6167591,-2.6178076,0.0063011087,0.13442709
SPCS1,0.32278007,-0.68741745,0.22343402,0.17050101,0.5885513,-0.33059075,-1.1758641,0.510563,0.0900595,-1.8812218,-1.3488864,0.961896,-2.3792672,0.071870275,-0.5702756,0.7678863,-0.9718463,-1.5384582,0.37444112
SELENOK,-1.4496955,-0.24679832,0.38163373,0.7365042,0.9516372,0.3565795,-2.8657577,0.874527,-2.8468215,-0.027464394,0.69065857,-0.13755168,-1.3648851,-2.3773968,0.94693875,0.62114775,-1.5635977,-1.7293239,-2.484903
ARF4,0.44912833,-0.71376866,0.32143497,0.44113603,0.5111286,-0.37235633,-2.2897036,0.7155887,-2.5862546,-0.3029591,-0.89669424,0.2386453,-2.3993902,-2.4325917,-0.014637771,0.9117223,0.08669212,-2.7404366,0.83339655
FLNB,-0.14856118,-0.40604267,0.88431686,0.11202955,0.18046463,0.31695598,0.6431243,0.06169669,-1.0454735,-3.047799,-0.5273674,0.26310822,-2.6724844,-0.78388256,0.43497077,0.2518405,-0.71530634,-1.4783459,-0.36835065
ARL6IP5,0.3909114,-0.3143485,0.22068608,-0.0060816845,0.065721706,-0.041063573,-0.62190074,0.047378436,-2.176177,0.56373996,-0.23489451,0.46138215,0.15438159,-2.4326558,-0.14663154,0.55357504,-1.6561226,0.22250526,0.4663233
PROS1,0.088560015,-0.7846722,0.57190037,0.034250773,0.3524299,0.5348419,-0.37064466,0.26912168,-2.3538027,-0.3883872,-1.5299038,1.3311164,-0.60590774,-2.1878912,0.45278174,0.32461524,-2.304813,-0.49989957,0.29971126
MTRNR2L12,-1.516619,-0.051346824,-2.9639356,-3.4263744,-3.462371,-1.4663787,1.9917244,-3.4551086,1.6783022,1.2040168,-3.1035485,-1.4668548,0.6284809,1.323844,-3.2215552,-2.9125133,1.4554626,0.8009949,1.0312483
COL8A1,-0.3893426,0.64892113,-0.050862372,0.07000571,0.5044659,0.051430564,-0.46853662,0.27600133,-2.5899942,-0.4198787,-0.7108416,0.53144735,-0.5092845,-2.8279705,0.4760925,0.2959808,0.4280583,0.24528429,-0.9805773
NIT2,-0.17236577,-2.3065012,1.200912,0.6421979,0.77114743,0.97133255,-2.7187912,-0.2703357,-2.7365582,-2.4002914,0.7602955,1.5038836,-0.43695623,-2.2144797,-0.17988913,0.04400335,-1.9650935,-2.498511,-0.580471
PCNP,-0.39516717,-0.457377,-0.22776079,0.1349983,0.4638965,0.26013932,0.090988345,-0.082336165,-1.0787337,0.62566745,-0.030278513,0.22001745,0.3546999,-1.8447781,0.6177622,-0.46875837,-2.8264773,-0.295273,0.5229028
HHLA2,-3.0758755,0.3424992,1.1481291,0.3855746,1.3722324,0.6411494,-2.5083017,-2.8694513,-1.8333495,-1.8125839,0.7044602,1.017541,0.35772812,-1.2257789,-2.078849,-2.743523,-1.5876312,-1.0110008,-1.2200129
COX17,-0.07354196,-1.5001562,0.011949511,0.2975827,0.39213762,0.17102735,0.2089197,0.08501923,-2.971256,0.13859951,0.17330566,0.588249,-0.20330705,-1.5059229,0.29280388,0.086557396,-0.38403293,0.029728452,-2.2184432
FSTL1,0.31871322,0.22954069,0.30209005,-0.959449,-1.0121415,-0.16821146,0.78465784,-0.46816155,-0.15600902,0.80620706,-1.6418736,-0.9856214,0.683958,-0.18960094,-0.1881984,0.12464579,0.47717407,0.5944678,-0.15042007
NDUFB4,0.24069437,0.44233495,-0.3646225,-0.52416396,-0.5206476,-0.019336935,1.0930918,-0.8996612,-0.0313657,0.59312433,-0.68756604,0.4585205,-0.04560623,0.24868852,-0.12572384,-0.09439074,0.8507338,-0.17192344,-0.36192235
FAM162A,-0.17672698,-0.67666394,0.20102307,0.02554403,0.17361996,0.6468483,-1.729861,-0.18801275,-2.6997943,0.8460686,0.010173348,0.6896166,0.34253713,-0.6603791,0.63227576,-0.3573067,-0.04250233,-0.38046974,-1.487462
PARP14,-0.59994453,-1.2919576,0.7125195,1.0152549,-0.13300413,-1.2257394,0.36374092,0.91889596,-2.696057,0.28214207,-1.8077135,-0.62927574,0.32965124,-2.3049915,-1.0103985,1.1954674,-1.9836215,0.41914436,-2.2638297
SEMA5B,-0.3787042,0.17546384,0.13667987,-0.050116014,0.18420644,-0.0691508,0.046260085,-0.44622108,0.3468828,-0.41860813,0.7734668,-1.3138592,-2.8918586,0.24704702,-0.06169407,-1.2773091,0.6610887,-0.22947446,-0.4751636
PDIA5,-1.3795931,-0.10794564,0.93032,-0.13116014,0.6657727,0.47871116,0.3651231,0.04462198,-2.8456638,-0.3388484,-0.21524596,1.0344081,-2.8334308,-1.1781507,-0.11435858,-1.0792104,0.5449207,0.2926597,-2.693642
MYLK,1.0418495,-1.0564425,0.32686228,0.12382483,0.70256394,-0.68891823,-2.7244833,0.365907,0.2583444,-1.0729644,0.09559138,-1.5728633,-2.2796996,-1.3308115,0.51600796,1.2148341,-1.1857803,-1.5424054,-2.392767
ITGB5,0.6607521,-0.66928077,0.005021519,-0.1919919,-0.1308393,0.117162645,0.35885516,0.27203122,0.32264385,-1.1434624,-0.58247656,0.70144206,-2.87937,-1.1150305,-0.2915024,0.88722014,-0.59697664,-0.16361971,-0.1649904
ALDH1L1,-1.7249799,0.4039785,0.16943233,0.52755725,0.8467444,0.4440952,0.8060033,-0.38872808,-2.951985,-1.6534643,1.1504557,0.8079651,-2.8468344,-2.4536464,0.53350514,-1.3951145,-1.6928356,-0.5146046,-2.6071396
MGLL,0.08403402,0.57236934,0.061732713,-0.21541971,-0.6085406,0.024652425,1.010534,-0.6177593,-0.48350823,0.52915794,0.0736766,-1.2435575,0.7755417,0.47504202,0.09481384,-0.12861773,-1.1441761,0.22862197,0.5225377
SEC61A1,0.26788047,-2.092968,0.18576735,-0.055769198,-0.24527538,-0.18434332,0.83829796,0.026875865,1.1843884,-0.52044654,0.64062864,-1.1873403,-0.27122816,0.15791196,-0.5981522,0.8621577,-2.0197237,0.36705464,-1.3809288
RAB7A,0.094242886,-0.045065578,-0.02961207,-0.088174656,-0.3649145,-0.13726614,-0.75611466,0.14702402,1.3945944,-0.47372794,-0.020320643,-0.34955838,0.30287525,-2.1761107,-0.38523036,0.6395595,0.63884336,0.65419966,-0.124845706
CNBP,0.015148019,0.50390506,-0.31099993,0.0148243895,-0.012504344,0.20880362,-0.76828486,-0.37785277,-0.71744734,1.0003991,-0.35690013,0.56818736,0.5272211,-2.333178,-0.05195616,-0.5280969,0.6972563,0.4488001,0.8828029
H1FX,0.01918465,0.5125959,-0.64337206,-0.540096,-0.8293704,-0.71177775,1.2989004,-0.55289614,1.2992193,-0.2378872,0.21158853,-1.7562765,0.25744885,0.49665985,-0.55980885,0.34289008,-2.4520457,0.6264965,-0.3055487
PLXND1,0.6506476,-0.298961,-0.26285726,-0.06986781,-0.3440256,-1.3473315,0.30907226,0.55994004,1.1856639,-0.94168437,-0.31860065,-2.4227278,-0.86815006,0.84103894,0.3190187,0.95075643,0.23206353,-0.7882468,-0.040931795
TMCC1,-2.5779228,0.54878724,0.58871657,0.3316241,0.9367854,0.63762087,-2.754583,-1.4259881,-2.931714,0.57606804,0.8370092,-0.05731802,-1.8044072,-2.6941192,-0.040572766,-2.2535028,1.304721,-2.5938625,0.885111
ACAD11,-1.9136896,0.61264443,0.4501793,0.15096658,0.3886537,0.6289107,-0.22754808,-0.91177136,-0.71548676,-0.14613642,-0.013085933,0.8818507,-0.254099,0.24913065,-0.2220524,-2.3026466,-2.8474672,0.08333681,0.8007978
UBA5,-0.9862497,0.48734674,0.75204533,0.20194235,0.81888795,0.854346,-2.2492204,0.13048784,-2.5310385,-0.94938475,0.45093778,1.5618848,-1.776508,-2.1879687,-0.6103757,-0.03687117,-1.4365218,-1.8797573,-0.52809125
SLCO2A1,-0.963859,0.52725875,-0.819094,0.25176388,0.24751745,-1.226439,1.5285548,0.40394217,-1.3797696,-1.5167242,0.6656006,-1.2359601,-2.7997515,1.2678868,0.47794175,-0.015349802,-2.1631246,1.0233296,-2.432401
RNF7,-0.5248639,-1.4528174,0.34942093,0.5929285,0.58470106,0.5469494,-1.0665988,0.6231237,-2.6233253,-1.1019962,0.36955404,0.72344136,-0.17686132,0.559672,0.8290551,0.23680528,-1.2426901,-2.5620782,-1.7525613
PLOD2,0.31517547,-0.47039533,-0.11932727,-1.2290857,-0.43042824,0.31882125,-1.2680609,-0.42152822,0.13583347,1.6999665,-1.5283201,0.5253437,1.2336798,-1.8227898,-1.509559,0.50336605,-0.75150883,-0.54679096,1.3589934
TM4SF18,0.4522956,-1.150672,0.7615605,0.28550452,0.27859938,-0.7493001,-2.2743735,0.44197077,-2.6200612,0.5014571,-0.62059027,-1.3170459,1.1705478,-2.1562455,0.4549751,0.4676216,-0.4845167,-0.99229735,-0.9426168
TM4SF1,0.5355063,-0.22082455,0.03950426,0.0023077324,0.21599782,-1.2561022,-0.20597337,0.78001285,-2.504749,1.1444573,-1.4880998,-0.6574148,-2.0228317,-1.0433989,0.68956757,1.0311697,-1.85945,-0.48231286,0.599453
WWTR1,-0.0055871396,0.41289195,-0.3120609,-0.024452925,0.31463084,-0.031312056,-1.0065492,-0.07223892,-0.20939842,0.27696216,-0.5400645,-0.33633524,-0.13048202,0.6604394,-0.4025559,-0.32011402,1.083563,-3.2008538,-0.43780088
SERP1,0.035629287,0.12974878,0.028030917,-0.06731489,0.07798256,0.15412179,0.57008797,0.2277618,-3.1019247,-0.26556313,0.053444486,0.5972785,-0.8432286,0.5331956,0.10553259,0.24686798,0.44973934,-1.4566997,-0.692207
EIF2A,0.24767034,-1.302078,0.29257578,0.27922443,0.55846757,0.5727784,-1.2805396,-0.49853656,-3.0263617,0.7577957,-1.8262254,0.34907883,-0.43077955,-2.4536252,0.93024045,-0.6897806,1.2156589,-2.7978048,0.19708917
SELENOT,0.08353331,-0.6408099,0.5303188,0.21781103,0.36676803,0.23887737,-0.7304261,0.3847433,-2.5052972,0.08812944,-0.08204246,0.48526934,-2.269572,-0.80328244,0.26591542,0.7943026,-1.7945285,-2.8511882,-4.0280585e-05
MBNL1,0.14681461,0.047945365,0.313381,-0.012270091,-0.05036764,-0.31406897,-1.313943,0.07097506,-0.85837394,0.893964,-0.17087989,-1.2031898,-0.5348565,-1.8694897,0.3564215,0.14468326,-0.9856143,-0.53080034,1.3277973
MME,-2.9320896,0.3248196,1.6616372,0.14766334,0.943432,-0.18322279,-2.0974414,-0.91572016,-1.7516252,-2.52848,-0.61141384,1.6083229,-2.515896,-2.051697,-1.9647608,-2.3352294,-2.1694233,0.8353396,-2.3086686
SSR3,0.22352381,-0.711035,0.61797374,0.21600723,-0.3242441,0.6828048,-2.452305,-0.22864598,0.27618647,0.52177984,-0.9161297,0.9939621,-2.1627963,-2.0809617,0.12804474,0.824263,-2.0462084,-2.5937605,-2.0264986
SEC62,-0.25463808,0.50429547,-0.15074582,0.061553378,0.06398848,0.12281498,-0.45696187,-0.41386786,-1.7981895,0.7567357,0.35284424,0.4427783,-0.09322915,-2.2913637,-0.14256144,-0.14657828,0.7647619,-0.09881835,0.46560588
TBL1XR1,-0.5269038,0.32276905,-0.14797735,0.19447955,-0.3179406,0.2633577,0.7074859,-0.20594405,-3.2725985,0.45820278,-0.22068292,-0.14051773,-0.22169727,-1.0529996,-0.09508581,-0.7902651,1.1732587,-0.07769041,0.75238776
NDUFB5,-0.089641616,-0.9938425,0.3487709,0.6331585,0.2000155,0.9421419,0.46381018,-0.06893742,-1.8829843,-2.3903377,-1.2756916,1.3320625,-2.7732503,-2.5757456,-0.5369637,0.9004062,-2.102809,-1.4470584,-0.72459894
FXR1,-0.27718222,-3.0789971,0.44605663,0.547917,0.35642022,0.62897503,0.70933783,-0.09016481,-1.8123295,0.40146512,-0.2757746,-0.37894106,-0.04366883,-2.5976512,1.0157181,0.071266666,-2.3014185,-2.6144392,-2.4591856
AP2M1,0.2707724,-0.12844844,-0.38625258,-0.24031146,-0.31024092,-0.11564742,1.2882719,-0.43827537,-0.12216802,0.5144759,0.047754653,-0.3995668,0.55816156,0.13952151,-0.6610592,0.19263986,0.16917042,0.8381099,-0.4559396
EHHADH,-3.1589882,0.7744678,1.1489363,0.0245413,0.9972024,0.6591663,-0.7198973,-1.6193801,-2.940496,-0.7565215,0.51656306,1.7014432,-1.9784595,-0.28442445,-1.090218,-2.7672632,-2.4371986,-1.7874762,-2.5948958
EIF4A2,-0.09901954,0.608571,-0.7065327,-0.5124502,-0.24090898,0.04742137,-0.0015039218,-0.87357944,0.1348165,1.1425973,-0.533982,0.2763048,0.65176225,-0.15339647,-0.36684448,-0.73195183,0.7427003,0.059842926,0.79166514
P3H2,-1.1564343,-0.049760774,0.4518715,0.460678,0.6265275,0.30406246,-1.0232376,-0.11741382,-2.0777783,-0.29680938,0.44402796,-0.23044024,-2.6183307,-2.2050726,0.693362,-1.1314529,0.85280627,-0.44409347,0.008358871
HES1,0.021648353,0.61420095,-2.0885503,-0.5835284,-0.28939676,-0.71786165,1.2529347,-1.1562,0.19635804,0.98137283,-1.2423953,-0.0033231121,0.1267581,1.029483,-1.2699208,-1.0158818,1.1525053,0.5973605,0.44659397
ATP13A3,0.23681521,-3.154006,0.73113513,-0.06117884,-0.6669629,0.93906903,-1.6024504,0.77390623,-2.7486417,0.42822778,-2.0016308,1.0521146,0.8420124,-0.28208795,-0.2516363,0.6758659,-1.0902252,-1.4408684,-1.3948565
MUC20,-2.7490506,-2.6553876,2.1609352,-0.98123425,0.72563255,-0.18813372,-2.2381105,-2.3384535,0.7636418,-2.4399698,-0.46023327,-0.93975896,-1.1637527,-1.8227984,-0.42551202,-2.1190634,-1.5454316,-0.37891993,-1.7306248
ATP5ME,-0.0016632578,0.34008864,-0.579129,-0.7203764,-0.894277,-0.34470156,1.277595,-1.3170329,0.8207874,0.6011816,-0.41437095,-0.39648494,0.6117101,0.8482713,-1.2653166,-0.12420184,0.26788494,0.80562556,-1.0884055
SPON2,0.4062449,-0.23232484,0.015171493,-0.115714036,-0.4219968,0.20211716,0.7364624,-0.032793608,0.45755854,-1.1905105,-0.1528302,-1.3490092,0.10805676,1.3181919,0.12486799,0.060183,-3.0417123,-0.20331687,0.3283356
CTBP1,-0.15863773,-2.8828063,0.6430447,0.27268878,0.46500495,-0.18895511,0.8786661,0.10186815,-0.019476699,-2.1606097,-1.7686712,0.24516965,0.008527459,0.01752239,0.26180908,-0.009006497,-1.6910855,0.46152234,-2.6256588
MXD4,0.70434785,0.18775235,0.57573074,0.74075127,0.6482694,-0.56625444,-2.6341426,0.39194763,-2.6814547,-2.3316722,1.3440785,-1.8190978,-2.591785,-2.4515097,-1.0474415,1.1670564,-2.3710022,0.27690697,-1.1415949
SH3BP2,-0.034344565,0.54864943,-0.41928652,-0.16037849,-0.0060544363,0.15833372,0.096531235,-0.09021848,0.43228647,0.02482805,-0.22324559,-0.009856575,0.4302698,-1.8761885,0.17573802,0.24253924,-2.016046,0.32932743,-1.5609688
ADD1,-0.46026957,-0.32641768,0.29301828,0.21589434,0.33609876,-1.1357784,0.75791997,0.17480722,-1.3929712,0.30342335,0.47417435,-0.54931235,-0.09615602,-2.7129002,0.47549108,0.06484165,-2.4236145,0.12465087,-0.6336089
MFSD10,0.2166778,-2.6595738,0.78683376,0.9160757,1.0569792,-0.2109544,-2.7004192,0.84291655,-2.6466835,-2.1630557,0.72065276,-1.0321183,-2.4872315,-2.095139,0.99678814,0.75807256,-2.2722948,-2.1521251,-2.506886
LRPAP1,-0.14470077,0.5806593,-0.19988942,0.22230558,0.3215106,-0.18920703,0.19052689,0.26379663,-0.39554918,-2.7071865,0.7007678,-1.0304368,-3.0288715,0.65503186,0.3337631,0.38929847,-2.013626,-0.09056965,-0.48585102
MRFAP1,0.025371706,0.4722652,-0.18613508,-0.0113995895,-0.08951362,0.0069818404,0.04121826,-0.1925822,-0.49514323,0.85655016,-0.1900548,-1.2230211,0.40611282,0.6163269,-0.09467104,0.22436565,0.24647783,0.1982779,0.3483519
WDR1,0.28321457,-0.6669368,0.18185896,-0.084925346,0.23446523,-0.8760351,-0.3899742,0.63748556,0.3976904,-0.334274,0.19490865,-1.4632721,0.07652929,-2.6564457,0.14650257,1.0493377,0.44850463,-1.1697499,0.06693236
CPEB2,-1.0555208,-0.02769627,1.0070174,0.3212261,0.98293823,-0.48167548,0.4898743,0.3418555,-2.7226348,-1.2688664,-1.969141,-0.3120299,-2.3579895,-0.029325576,1.4509411,-0.74896294,-1.9219756,-2.5253015,-1.359755
FBXL5,-0.49796423,0.50526667,0.14175354,-0.17683165,0.013258961,0.122429185,0.3365788,-0.879312,-0.525825,0.54165834,0.1826318,0.1402206,0.36650014,-1.4257962,0.08800503,-1.4188886,0.7253917,-0.010441291,-1.6458182
FAM200B,-1.5432822,0.10681847,0.32056087,0.8655346,1.2087203,0.64080894,-2.598284,-0.17605068,-1.525204,-2.2107,1.197448,0.18181647,-2.4501324,-1.7847724,0.89080364,-1.5459405,0.60614234,-2.0044816,-2.1660783
LAP3,0.68130755,-2.187002,0.47633386,0.54987913,0.3587372,-2.8951454,-2.6883247,0.97935843,-2.7451568,0.72776765,-1.9893206,0.30955383,-0.49256217,-2.3685997,-0.12062172,1.4168266,-2.4232428,-0.24588346,0.6998856
RBM47,-0.63432467,-0.38526616,0.7061413,0.3910455,0.6515845,0.4376102,-2.9070327,0.4337144,-2.9152772,0.09838924,0.6907159,0.56280065,-0.3060842,-2.36448,0.39639395,0.30235988,-2.133673,-0.64346504,-1.6928653
OCIAD1,-0.9308629,0.3807026,0.16853799,0.0049383854,0.036312602,0.2998637,-0.017307902,-0.5117128,-1.3483775,0.5464588,0.21581239,0.19859268,-1.4197401,0.1231515,0.54122084,-0.63475984,-0.52250546,-1.9674231,-2.4599535
OCIAD2,-0.3793413,0.40389803,0.025579426,-0.05126591,0.093190864,0.08277688,0.4282694,-0.85125154,-0.36597148,0.217287,0.4261792,0.053813733,0.64844906,0.4796902,-0.27916715,-1.9025044,-0.8056373,-0.025269935,0.5696178
SGCB,-0.62846917,0.02162797,0.9546444,0.2988887,0.654558,0.48967037,-1.3377842,-1.517593,-1.4010977,-0.091743216,-0.028805183,1.1971188,0.38691983,-2.3564014,-1.6396425,-2.2851233,-0.7904507,0.12471093,-2.0995834
KDR,-0.06378258,0.32244855,-0.11378951,0.033013795,0.25486267,-1.68369,-0.12878715,0.3001607,-2.7688832,0.6196455,-0.36385164,-0.52013546,-0.7385871,0.11828307,0.046080925,0.53837234,0.411117,-0.13438311,-2.238628
UGT2A3,-3.3618739,1.3052143,-0.34570476,0.090629235,0.974647,-0.15024826,0.6875593,-2.644612,-1.4874247,-0.9290861,0.9745756,0.782096,0.02777852,-0.18183734,-2.403976,-3.2607157,0.8091652,0.8201196,-0.5067052
UGT2B7,-0.54098773,0.5231688,0.0039701946,0.3685553,0.78929985,0.38030478,-2.561463,-1.8880649,-2.7111568,1.0446045,0.7725401,0.58214736,1.06318,-1.5650922,0.3340726,-2.7047772,-2.4316692,-1.1622072,0.1013406
JCHAIN,-1.4083678,-1.6671863,-1.6082165,0.67427844,0.43991113,-1.4901445,-1.2587104,-1.1974167,2.1311262,1.3197947,-1.3692894,-0.825191,2.4663785,-1.0537206,0.21758762,-0.9933201,-0.96128404,-1.2884706,-0.9520135
SLC4A4,-1.8277134,0.97086376,0.5145402,0.003162887,0.6777264,0.7407229,-1.11826,-2.1540744,-3.0861485,0.020417254,0.08171061,1.3013886,0.06991482,0.52889854,-0.35556796,-2.7284646,0.348584,-2.8914318,-0.6931092
SCARB2,0.16124144,0.543644,-0.005424678,-0.19193709,-0.10828893,-0.17046663,0.1232191,-0.2985864,-1.3349751,1.0784801,-1.0016905,0.81553143,0.6824575,-1.9521388,-0.39640018,0.38505286,0.6133302,0.2952553,0.1760255
CCNI,-0.1579479,0.14852202,-1.2563739,-0.9745928,-1.7569048,-0.29758722,1.1281856,-1.979007,1.3214648,0.9738812,-2.2291188,-0.124280296,0.4621981,1.0629764,-1.8902676,-1.0550754,0.77384096,0.65488225,0.968793
CCNG2,-0.50172365,-0.87394553,0.5850268,0.26285514,0.78987896,0.91065246,-1.6729109,-0.13206314,-2.4662392,-0.33076146,-0.44838268,1.4988842,-0.47365433,-0.37756425,0.44068077,-0.51844937,-2.3084679,-2.942565,0.027058337
HNRNPD,-0.06292265,0.41333133,-0.32414398,-0.024519043,0.038246527,0.17979233,-2.159843,-0.44406834,0.046808366,0.90667075,0.009575098,-0.18130721,0.81445944,-2.7965784,-0.5109517,0.1892228,0.78824013,0.46397078,0.26149836
HNRNPDL,-0.018593572,0.57166797,-0.37847653,-0.1602959,0.02572301,-0.120053716,0.484993,-0.05201291,-0.8326038,0.67587894,-0.3601487,0.5222769,0.57472265,0.71679,-0.3851004,-0.04112578,0.5448562,0.52878594,-0.9929916
