,Shared topic 1,Shared topic 2,Shared topic 3,Shared topic 4,Shared topic 5,Shared topic 7,Shared topic 8,Shared topic 9,Shared topic 10,RNA private topic 1,RNA private topic 2,RNA private topic 3,RNA private topic 4,RNA private topic 5,RNA private topic 6,RNA private topic 7,RNA private topic 8,RNA private topic 9,RNA private topic 10
Ppp1r14c,0.51590955,-0.021177975,0.2868849,-0.35339478,-0.7225306,-0.33281526,0.3713503,0.53363526,-0.667626,-1.1698769,0.47792262,-0.35272047,0.3367923,-0.58528787,-0.58943033,-0.8023082,0.43068793,-0.31549156,0.18859924
Plekhg1,-0.69483244,-1.378166,-1.1544448,0.7338181,-2.5640025,1.6391181,-0.81383157,-1.6317273,0.32385218,-0.85811895,-1.0025533,-1.3230174,-0.87215364,-0.98861945,-0.3590221,-0.20959698,-0.7602061,1.7698686,-0.5334455
ENSMUSG00000096054,0.01992968,-0.07516258,-0.43457702,-0.16413489,0.5246949,-1.293561,-0.009529394,0.2650303,0.13537581,-0.33008546,-0.20716535,0.66262776,0.08737725,0.1012579,0.0025627746,0.21410955,0.051666036,-1.1551162,-0.8427838
Vip,0.9956456,1.0133852,-0.35232446,-0.2513029,-2.724164,-0.3237455,0.6677062,1.0330791,-1.4332384,-0.32756305,-0.12198928,-0.21082607,0.4987681,-0.55080914,0.044936713,-0.6323718,-0.6201083,-0.4913999,-0.31328735
Lrp11,-0.13559358,0.32518002,0.18758073,-0.45037308,0.04587488,-1.1593794,0.14798185,0.25490773,-0.2676861,-0.67025286,0.34555978,0.0008230588,0.4427692,0.04552105,-1.1375506,0.008376194,-0.55899024,-0.7557541,-0.599652
Pcmt1,0.04957064,0.37583965,0.20259726,-0.39636248,-0.42176437,-0.4954675,0.074117295,0.10047535,-0.29271722,-0.14424169,0.15403323,-0.0673012,0.24372348,0.32261464,-0.5237622,-0.31121236,0.0355556,-0.6831813,-0.1887299
Ginm1,0.07083961,-1.2200981,-0.0628048,0.7658534,-0.32988775,0.78992945,-0.24210885,-0.33947068,-0.114557005,0.3824697,-0.4784016,-0.62707335,-0.52842915,0.27204585,0.24896845,0.23278302,0.6259401,-0.64293265,-0.69406646
Ppil4,-0.3330677,-0.06462535,0.106904134,-0.8519099,0.016397791,-0.19963364,0.009169578,0.031953383,0.12974913,-0.0012538763,-0.019141791,-0.010199974,0.019740336,-0.007439877,0.16446714,-0.0906994,-0.7162104,-0.7020177,0.13117313
Ust,-1.0129124,-0.22891192,-0.71450394,0.2368997,0.6308923,0.9957719,-0.08911232,-0.08086816,-0.28697938,-0.15475006,-0.5969243,0.8752577,-0.7459008,0.42717835,-0.42781338,-0.34568658,0.06029995,-0.057104558,-0.7447249
Sash1,-0.05384123,-0.0011403877,-0.43254197,1.0390296,-0.7748862,0.52810717,-0.20014553,-1.1244732,0.44429705,-0.1380556,-0.33713633,0.38796777,-1.2263756,-0.109399356,0.6404186,-0.7115712,-0.7584694,0.35903922,1.0114406
Shprh,-0.09877435,-0.4600832,0.009524629,-0.03239331,0.04631546,-0.5111341,0.014502305,0.012792222,0.0121902665,-0.00849692,-0.023700114,0.034584265,0.0006933182,0.024715152,-0.05462022,0.080538034,-0.07621753,-0.23926088,-0.11707619
Utrn,-0.5273466,0.22696765,-0.90210575,1.0721283,0.21868668,-0.55328226,-0.20059009,-0.90460944,0.31450665,0.4427435,-0.687594,0.51027787,-0.22591053,0.18511857,-0.03634996,0.70644337,-1.2928476,-0.917942,0.10404477
Phactr2,0.40407345,0.4367185,-1.5718467,1.3488247,-2.7733712,-0.35045084,-0.6014039,0.6852669,-0.13895488,-0.82629025,-0.10124543,-0.6083616,-0.33481252,-0.77611476,-0.03916641,-0.92256165,1.3040491,-0.71646816,0.91155833
Aig1,-0.41999236,-0.12560207,0.6730774,-0.3860553,-0.08427236,0.043610655,0.19029762,-0.15817732,-0.46734422,-0.07644697,0.103412084,-0.83656913,-0.1290102,0.45749718,-0.22345003,-0.05896744,-0.64540285,0.54365563,-0.032317635
Vta1,-0.6291426,0.0733412,-0.2175786,0.30564496,0.46772334,0.5441289,-0.060482822,-0.05805291,-0.114031956,-0.016746992,-0.04298474,-0.043645073,-0.16665357,-0.06383777,-0.18114261,0.35499814,-0.21161015,0.30487877,-0.057976346
Ifngr1,0.22739422,-1.0764875,-0.13785931,0.31655642,0.5181697,0.45381954,-0.68609273,-1.2833942,0.20548078,-0.34090194,-0.030195976,0.43930417,-1.2236636,-0.17639467,0.07320752,0.82820576,0.09422629,0.3772408,-0.62073404
Map3k5,-0.29049656,0.30576596,0.8040699,-0.4397997,-0.00090666115,-1.3496943,0.22484362,0.33556336,-0.8776896,0.31323487,0.2543271,-0.84217244,0.90007985,0.37548015,-0.96581596,-0.5685193,-0.14214568,-1.0282182,-0.12624739
Map7,-0.871402,-0.3293631,-0.4530952,-1.5224755,-0.025720552,1.095841,-0.19804288,0.16027172,0.37775755,0.3420523,-0.2963071,-0.5244997,0.31873006,-1.1939465,-1.0278448,0.0091203805,-0.42979342,1.4646326,-2.0150907
Pde7b,-1.9190137,-0.79936033,-2.1277885,-1.5670975,2.5053658,-1.5089142,-1.827333,-0.469412,1.1499908,1.0133901,-1.6175517,1.4560632,0.08497448,-1.5243045,-0.13257879,0.8982228,-1.6105434,-1.2378616,-1.3417559
Hbs1l,-1.1071815,-0.319925,0.10554897,-0.73232675,-0.033538878,-0.0065481775,0.029297626,0.19320627,-0.057528123,0.047206566,-0.10449924,0.080716394,-0.005967318,0.07245234,0.029347602,-0.33454156,-0.73631585,-0.7759205,-0.5153586
Stx7,0.4216362,0.11499527,0.3743837,-0.046919074,-1.3966415,0.2443453,0.041574117,-0.05016434,-0.30113938,-0.20037606,0.59330213,-0.3886171,0.0047060605,0.06371991,-1.0955174,-0.8605675,-0.33877814,0.03810552,0.6043958
Ctgf,0.3559154,-1.1640671,1.7886972,1.0072019,-2.1820405,0.031679742,-0.55210364,-1.6055437,-0.37176135,-0.3653356,1.6697595,-0.43879193,-1.5075203,-1.1362498,-1.3559203,0.27047423,-1.7477373,-0.17240593,-0.068407714
Med23,-0.5663897,-0.06768331,-0.019979937,-0.54227763,0.19945103,-0.662038,-0.0029006798,0.005442263,0.23595515,-6.648307e-05,-0.18440364,-0.054005504,0.007942426,0.041290347,0.4790672,0.17951481,-0.2403895,-0.58310366,-0.81265384
Epb4.1l2,-0.4156803,0.5396686,-1.5238467,0.7223647,-0.76426697,1.1511486,-1.1954695,-0.18038222,-0.2751151,-0.8563764,-0.8407122,0.07668011,0.006230329,-0.6334623,0.13553202,-0.056448635,-0.6287277,0.7297419,1.0427796
L3mbtl3,-0.0605848,0.49595803,0.080247365,0.49149242,-0.98895633,-0.93331194,0.2017463,0.5616291,-0.7210342,-0.8800475,0.17232531,-0.38975406,0.9186367,-0.28447482,0.2989625,-1.3662926,0.46073917,-1.0061185,-0.30930206
Arhgap18,-0.5549444,-0.60912913,-0.37933803,0.2925103,1.906645,-0.7734854,-0.8746628,-0.6467704,0.36896837,1.1303837,-0.6505667,-0.17106289,-1.234459,-0.4460239,0.59280324,0.36902398,0.11713674,-1.1062318,-0.22398162
Lama2,-1.4729784,-0.3134151,-1.5601153,1.7224138,-1.6778855,0.97687775,-0.5910742,-0.11929844,-0.5008722,-0.76418406,-0.8738506,-0.1048393,0.06893732,-0.64376074,0.6860172,-0.72935516,-0.664142,0.69921404,1.0775864
Ptprk,-0.27860957,0.91938066,-0.12837967,0.23027928,-3.9875937,0.3347645,0.773003,1.165203,-1.6058047,-1.6961086,0.5419598,-1.3268017,1.3177931,0.56435305,-0.8163074,-1.2747301,-0.26277903,0.105930716,-0.54515094
Soga3,0.108682424,0.1043497,-0.02463535,-0.27594525,-0.0101404,-0.54894775,0.0025000495,0.07348441,-0.09226435,-0.18084423,0.20471585,-0.105886,0.093874626,0.08582673,-0.120829135,0.06066064,0.14296809,-0.2984421,-0.71232146
Rspo3,0.6376405,0.9087523,0.8974289,-0.23021206,-3.7182403,-1.1150557,0.53752744,0.9953404,-1.8741336,-1.6167861,1.2770879,-1.1826212,0.7209484,-0.30154416,-1.0429093,-0.6753987,-1.4814563,-0.75047225,1.1634431
Trmt11,-0.71999025,-0.33903903,0.02847265,0.33683223,0.36227953,-0.39884394,-0.021603754,-0.0017107078,-0.025689714,0.011380747,-0.5466027,-0.01924103,0.09379094,-0.22610492,0.036904708,0.0062957914,-0.16450992,-0.46622154,0.077615745
Hint3,-0.09009811,0.31850475,0.24456558,-0.8367758,-1.4967871,0.49651575,0.3763494,0.12205742,-0.29634145,-0.0030967828,-0.25684425,-0.729646,0.17454398,0.41513696,-0.62377495,-0.36548084,-0.20615697,0.3781349,-0.3374825
Ncoa7,0.17253965,0.0049784235,0.19047466,-0.65231067,0.05127245,-1.0792321,0.026811458,0.011899894,-0.114989586,-0.34726247,0.26160523,0.17075594,0.026791891,0.069891185,-0.42710665,-0.13064769,-0.026494414,-0.7458737,-0.14150909
Rwdd1,-0.058525156,-0.052686565,0.007060945,0.041572403,-0.070562154,0.1619899,0.001418385,0.008366819,-0.0069935815,0.0021957227,-0.0007991178,0.021061154,-0.0001587244,0.013342236,-0.15902823,0.005407454,0.0029235312,0.023749446,-0.22085404
Lama4,-1.4560452,0.97571516,-0.40605375,1.5980248,-2.4268508,0.174406,-0.23329945,0.13294387,-0.24326266,-0.042736758,-0.8052188,-0.5630767,1.2781124,-0.4336336,-0.8404885,-0.8640596,-1.2094939,0.0770729,-0.7508692
Gtf3c6,-0.7400991,0.15959425,-0.21090476,0.16270132,-0.47675318,0.99248266,-0.15503407,-0.2426156,0.25228748,0.06311993,-0.20153023,0.023493567,-0.2946125,-0.353736,-0.19133613,0.49311784,-0.87082136,0.4805783,0.03393686
Cdk19,-0.7764134,0.5129273,-0.268618,-0.63246876,-0.012112856,0.5754298,-0.39189863,0.01654174,0.30401716,-0.52423304,-0.56803167,0.25310913,0.703527,-0.08793961,-0.9123294,0.47857046,-1.310424,0.6672086,0.19432196
Cdc40,-0.5728885,0.21258558,-0.30523345,-0.409705,0.37832612,-0.55893075,0.031131634,0.38647607,0.039660428,-0.07642025,-0.2067431,0.24431416,0.44352642,0.070705615,-0.11042849,-0.30980173,-0.6602498,-0.7885829,-0.7424823
Cd164,-0.5388826,0.17185214,0.31982568,0.024488626,-0.8347317,0.91443837,0.06083334,-0.11924573,-1.0353223,0.026959948,0.25244743,-0.47946593,-0.30786055,-0.2703695,-0.52595955,-0.34282437,-0.35853535,0.63448274,0.5115496
Cep57l1,-1.1376337,-0.8625754,0.08369256,-0.020348994,1.749116,0.15713103,-0.46978292,-0.30578104,-0.080604635,-0.051788773,-0.4814727,0.8932033,-0.56409454,-1.0054464,0.547401,-0.43729433,0.45775315,0.3299351,-1.3386438
Ostm1,0.008220903,0.10229672,0.036471367,-0.2713686,-0.17614,0.2729327,0.030914633,0.03636901,-0.5279792,-0.03049376,0.07978647,-0.16518061,-0.018291414,0.040704157,-0.123786785,-0.107261226,-0.01697059,0.09355618,-0.60705614
Sec63,-0.032134145,0.18480754,0.045924492,-0.00727068,-0.50685906,-0.16096523,0.0065735886,0.14454925,-0.06622935,-0.36374557,0.06411852,-0.14200431,0.19059944,-0.01481322,0.062262546,-0.01692002,-0.3096193,0.0062674843,-0.7105004
Atg5,-0.03563889,-0.6306002,0.04102058,-0.06598057,0.18793696,0.023686586,0.0135638155,0.014708777,-0.29274184,-0.16274938,0.031038987,-0.017249342,-0.078492604,-0.027485326,-0.05736489,-0.09832432,-0.014416717,-0.07623058,-0.47301787
Hace1,-0.3699743,-0.41152796,0.16089633,-1.2819917,0.22550853,-1.1631894,0.082589135,0.34123346,0.11923183,0.018986493,0.5357058,0.19515988,0.08334977,-0.043058567,0.011830258,-0.54991615,-0.47932723,-1.16824,-1.2474579
Ascc3,0.016728513,-0.19915573,-0.17779893,-0.027913569,0.2976575,-0.7004532,-0.06090073,0.052299026,0.067760274,0.0014667013,-0.16144463,0.19598041,0.05002744,-0.6200259,0.1073295,0.070127375,-0.012426515,-0.76999885,0.0064138747
Dcbld1,-0.42070845,-0.6013541,0.49382624,-1.5111761,1.2355494,-0.3824652,0.08013855,-0.9855785,0.42838645,-0.0576881,-0.22403222,-0.021626635,-0.8997992,0.118293196,0.6617797,0.23708454,-0.68444556,-0.49156553,-0.5341536
Fam184a,-0.16201599,-0.6844791,-0.90791,0.6259349,0.7875018,-0.0942435,-0.62038976,-0.12822774,0.5151318,-0.072179824,-0.21998794,0.66066176,-0.91456294,-0.6791884,0.60214806,-0.085125655,0.60230297,-0.34457144,-0.9718467
Hsf2,-0.050343093,-0.48975968,-0.003682317,-0.0208009,0.055107407,-0.13202854,-0.002915925,0.034518573,0.060026933,0.026311778,-0.06282221,-0.01099552,-0.020072151,0.02138418,0.14288588,0.00081148435,-0.45760116,-0.116831355,-0.22778818
Gcc2,-0.015129647,-0.051916804,0.050558545,-0.086812854,0.05373899,-0.6317287,-0.0034019519,-0.00212424,0.035166323,0.015055127,-0.01501997,0.031414315,0.026075672,0.04657995,-0.009501108,-0.06622604,-0.07086908,-0.6650907,-0.5011896
Lims1,0.13695814,0.010751943,0.011630275,0.83608407,-1.292572,0.9639274,-0.3074839,-0.22328316,-0.2359364,-0.021473773,-0.15929331,-0.70212597,-0.07340766,-0.051303927,0.6375488,-0.43110695,-0.17007063,0.31901276,-0.14789909
P4ha1,-0.668927,-0.66204923,0.18880585,-0.1015052,0.6041409,0.048080783,-0.13005126,-0.2327672,0.50084937,-0.39803007,-0.4027399,0.9347866,-0.30499694,-0.25396702,-0.0050308434,-0.16337267,-0.32826364,0.055232435,0.100716636
Mcu,-0.050570674,-0.7080192,-0.020778034,-0.45722038,0.38607073,-0.63305515,-0.0042449264,0.01579535,0.0019905036,0.04849319,-0.01046136,-0.03862858,0.021167116,-0.21730621,0.06150099,0.01006993,-0.024176076,-0.78288144,0.022270892
Dnajb12,-0.13479093,-0.40576532,-0.014220575,-0.10374805,0.12411931,0.18003038,-0.008415238,-0.015990648,0.23064964,-0.030393394,0.025736505,0.14450221,-0.030523881,-0.05292425,-0.11415848,0.1136773,-0.567246,0.31738,-0.54370797
Anapc16,-0.074582614,-0.057913255,-0.002117021,-0.0060914764,0.05985305,0.114148475,-0.009440068,-0.048265632,0.07963654,-0.0035609088,-0.030057369,0.032420985,-0.09365844,-0.040417068,0.08723064,0.0027021917,-0.06488,0.37218532,0.044483364
Ascc1,0.18468896,-0.08953385,-0.21580537,0.40874833,-0.20622376,0.47445884,-0.020113453,-0.024045222,0.008141682,-0.118299335,-0.3347988,0.055330545,-0.00026008073,-0.10617319,0.58994305,-0.18451236,-0.055833537,0.059243537,-0.0540964
Sgpl1,-0.6634903,-0.2194684,0.022021133,0.30576634,-0.021212243,-0.08327821,0.0017672239,0.017252995,0.0005729346,-0.079940945,-0.026438206,0.04470801,-0.1355324,-0.041582607,0.27434972,0.030714042,-0.12802164,-0.30210266,-0.96742135
Ppa1,-0.012116672,-0.13472119,0.024286345,-0.02656797,0.032985233,-0.14369862,0.023962703,0.0047263135,-0.0692012,-0.015409154,-0.031878807,0.0072965184,-0.029095905,0.11589061,0.0024758454,-0.025613617,-0.020283476,-0.37311724,-0.2750472
Sar1a,0.0066992734,0.02335185,-0.004055815,0.0967906,-0.022762686,0.074577644,0.002605578,0.0022144548,-0.25740117,-0.03418097,0.014781029,-0.045780618,0.00038355045,-0.01697264,-0.28388864,-0.03262217,-0.0145379435,0.2727835,0.1358383
Hk1,0.637107,0.19605117,0.5032212,-0.5517723,-0.68529177,-0.91347134,0.41748333,0.13278265,-0.2972352,-0.28943264,0.478961,-0.016102113,0.09424142,0.5325164,-0.8905095,-0.7626426,-0.55531293,-0.9630008,0.71731055
Slc25a16,0.030049486,0.09311882,0.037243575,-0.30327535,0.024543358,-0.6440809,0.020002099,-0.0071072783,-0.023568073,-0.0016017267,0.32389173,-0.005997083,0.04048291,0.022455892,-0.4975548,-0.08710499,-0.0894555,-0.4791626,-0.43100497
Rufy2,-0.09154371,-0.023612373,0.043237664,-0.13145678,0.08522299,-0.64902663,0.1180829,0.012914346,-0.5003673,0.025743032,0.02383475,-0.16254875,0.06615498,0.05648239,-0.0036095069,-0.9446029,0.46267107,-0.78227115,-0.55091155
Nrbf2,-0.11970509,-0.18709396,0.090098575,-0.21034369,-0.1223985,0.2260562,0.013611538,-0.006254641,-0.020873664,-0.0014797747,-0.119308166,-0.053229157,-0.03454287,0.14456233,-0.003185762,-0.00659404,0.0070348065,0.34739774,-0.5327587
Arid5b,0.36495295,-0.07374622,-0.06448748,-0.01648526,-1.2621075,0.490641,0.26643082,0.34606478,-1.0025904,0.051381897,0.07435969,-1.1319861,0.17662673,0.0038172943,-0.0065810266,-1.0759478,-0.55969864,0.6985786,-1.0386243
Fam13c,0.34964895,0.34773508,-0.12935983,0.3864358,-0.5975663,-0.3710909,0.00600013,0.20122273,-0.20716414,0.034157664,0.3286338,-0.9272404,-0.48963335,-0.32071295,0.092286244,-0.43881717,-0.38211355,-0.039976597,0.38794887
Tfam,-0.34843105,0.37861797,0.09771194,-0.06560174,-0.7458608,-0.038722575,0.024441862,0.071997404,-0.105785936,-0.110521,0.011706205,-0.06951402,0.104870565,0.0656588,0.24869223,-0.41889185,-0.1814745,0.10885072,-1.1246513
Ube2d1,0.04155251,-0.47972274,-0.6009304,-0.39954683,0.18649958,0.82807213,-0.052028432,0.013297777,0.107240744,-0.08140837,-0.18772292,0.022725487,-0.08233613,-0.0017083372,0.05709174,-0.20480731,0.14308551,0.61757636,-0.6040829
Cisd1,-0.11620373,0.007936832,0.04119564,-0.08064382,-0.13154922,0.8112039,0.008421063,-0.038459726,-0.010867958,-0.020112922,-0.010895074,-0.04024265,-0.20512114,0.06994547,-0.8164865,-0.13997251,-0.002719665,0.8976461,0.0476286
Bcr,-0.30753177,-0.55750245,-0.7394983,-0.5456342,1.3361647,-1.0060353,-0.6387034,-0.5965169,0.8740958,0.71748686,-0.21294163,0.86366034,-1.0607269,-0.8290686,-0.5532936,0.75090855,-0.16457649,-0.72658193,-0.058991693
Specc1l,-0.63549405,-0.64559364,0.12595573,0.6647021,0.5579432,-0.23594485,-0.052605078,-0.20496571,-0.13702595,0.22131033,-0.26170936,-0.025669886,-0.07369197,-0.18093847,0.5795341,-0.24017218,0.3565792,-0.38563174,-0.77570224
Snrpd3,-0.4265861,0.009563067,-0.011819599,0.16462247,-0.35042325,0.8233906,0.016967636,-0.006482252,-0.08368443,-0.02051172,0.010796514,-0.1277737,-0.27628818,0.079713255,0.006786591,-0.07823286,-0.20678261,0.84982854,-0.009646346
Cabin1,-0.19112228,-0.3483225,-0.043964017,-0.13528803,0.23404059,-0.46106523,-0.012921722,0.033767197,0.026807722,0.013028426,-0.013025281,-0.023907185,0.003505269,-0.24772178,-0.01677269,0.039673693,0.099397056,-0.8235444,-0.29233846
Prmt2,0.14539507,0.005172963,-0.022823613,0.22042514,-0.10191784,0.0509876,0.01226555,-0.05247257,-0.19249666,-0.12368819,0.009452659,-0.62031776,-0.65520173,-0.8782658,0.19697766,-0.36877635,0.82886046,-0.22405057,0.72810876
S100b,-0.57541823,0.29721302,-0.88624424,0.2230486,-1.6985263,1.130885,-0.73250514,-0.98135287,0.49859464,-1.2372712,-1.4440149,-0.014179236,-0.22834088,-0.0745826,-0.38955668,0.40306476,-1.0051764,0.8592033,0.7990535
Pcnt,0.1946653,0.3231024,0.05541016,0.27624068,-0.22810096,-0.1621013,0.023373805,-0.07663844,-0.8803444,0.00076881325,-0.020716736,-0.05100373,0.09313938,0.060771067,0.04578372,-1.014247,-0.2010299,-0.60197854,-0.04613958
Mcm3ap,-0.69888026,-0.40817967,0.024848633,-0.34735322,0.5491571,-0.59865046,0.030857159,0.07326994,-0.041247267,0.05575469,-0.3362007,0.16363394,-0.17322272,-0.0018381501,-0.1524099,-0.07831199,-0.24670704,-0.23130019,-0.19974844
Col6a1,-0.039391853,-1.69945,0.50504744,-1.0885656,2.2368197,-1.155728,-0.027666187,-0.8558422,0.14566028,1.5154841,0.38768902,-0.88937455,-1.835459,-0.25502634,1.0042084,-0.34459653,-1.6190811,-0.859395,-1.0586134
Pcbp3,-0.6329866,0.13579491,0.00927681,-0.18989468,0.5399129,-0.53411627,-0.0006532427,-0.053344164,0.020052224,-0.018477501,-0.047666453,0.46907732,-0.046781827,0.0239727,-0.05733137,-0.08458857,-0.18943264,-0.41901103,-0.2961564
Fam207a,-0.18396737,-0.55110186,0.03484244,-0.27337107,0.22505379,-0.030299356,-0.004436888,0.006007732,0.0045015635,-0.013787766,-0.0029650207,0.0070032286,-0.22095592,-0.008980637,0.258099,-0.117701255,0.02057796,-0.16646615,-0.99436516
Pfkl,0.17099418,0.28093848,0.60527235,-0.39285472,-1.4027783,-0.91313964,0.33913675,0.4992139,-0.49263692,-0.17927855,0.83826727,-0.5150585,0.28219932,0.34777102,-0.79663974,-0.1755902,-0.5544862,-1.037635,-1.0687131
D10Jhu81e,-0.016450547,-0.062012423,-0.15250833,0.18562615,-0.32205734,0.36652136,-0.008301001,-0.0043470263,-0.037520137,-0.017959835,0.0034363023,0.00973119,-0.0019991752,0.027236369,0.047545128,-0.019937871,-0.046130966,0.24051549,0.6022751
Trappc10,0.016519956,0.052676704,-0.0039203246,-0.008626649,-0.029233493,0.05355448,-0.004246023,0.0019031449,-0.028716529,-0.016485598,-0.02649029,-0.03657669,0.049665224,-0.042644646,-0.0884138,0.0051852996,0.044258848,0.48797038,0.027625827
Agpat3,0.16739017,0.7531746,-0.26574117,0.19343667,-0.35713664,-0.24260336,-0.020354256,-0.001801607,-0.11946835,-0.34958345,-0.6232054,-0.010670823,0.27046892,0.4283914,-0.5921639,0.2718663,0.068427525,0.011634317,0.3908201
Rrp1,0.0069053755,0.20044301,-0.034370348,-0.11226016,0.07742604,-0.4666136,-0.008943469,0.0015565016,-0.015265281,0.0023881036,0.02561008,0.041178197,-0.048227202,0.06497433,-0.3840073,-0.0025440534,-0.01896087,-0.26382777,0.1531586
Polr2e,-0.110962234,-0.19451736,0.09022243,-0.09343025,0.19765691,0.21583816,0.0031012665,0.0014020303,-0.21497977,-0.011937142,-0.09080707,-0.05108571,0.028354788,0.04602106,-0.07748023,-0.05695932,-0.08453395,0.12193579,-0.62749666
Atp5d,0.027937816,0.3328751,0.023081336,-0.098411284,-0.4226873,0.381959,-0.002109538,-0.051415823,-0.030246414,-0.44707787,-0.66079915,-0.07683503,-0.0724954,0.3945056,-0.75167656,0.04585068,-0.036097106,0.48118302,0.8108753
Ndufs7,-0.23017447,-0.59081775,0.018177822,-0.9568447,-0.2681931,0.63946086,0.02022088,-0.009992632,0.07791238,0.005619895,-0.12510706,-0.08702004,-0.11681198,0.54875773,-0.6618834,0.034752846,-0.060450766,0.49738654,-0.6255479
Gamt,-1.4306444,-0.30716273,-1.0399015,-0.9558771,-0.45370287,1.8763486,-1.3370428,-1.7004529,0.0035089848,-0.43402404,-1.2010045,0.15544513,-0.75256824,-1.305552,-0.26160824,-0.03203694,-1.256224,1.5751978,-0.1484002
Uqcr11,0.08283528,-0.15836333,-0.029720547,0.4425856,-0.6951292,0.834457,-0.10472287,-0.30618614,0.13669515,-0.013822915,-0.35364014,-0.6207342,-0.20938033,0.09488139,-0.12376351,-0.46604627,0.03629721,0.50637,0.6679415
Ap3d1,0.42758045,0.3776806,-0.07886352,0.0941048,-0.060978737,-0.7547298,-0.010091099,-0.0366957,-0.02148214,-0.064881645,0.081419975,-0.045968495,0.026082309,0.027349493,-0.187725,-0.047664788,-0.03264561,-0.6832017,0.47291225
Timm13,-0.5161506,0.035108726,-0.14777085,0.2038323,-0.24812481,0.768354,-0.07516698,-0.29680577,0.61459285,0.047858838,-0.24630958,-0.058527,-0.36927396,0.07772541,-0.56017697,0.5264301,-0.15177436,0.080276266,0.4611463
Gadd45b,-0.6187323,-0.022583777,-0.30617964,0.3118088,0.5178227,-0.7902038,0.014793465,0.03528476,0.20504557,-0.07593084,0.12938681,0.9301413,-0.38299242,-0.2921208,-0.5843285,0.36619437,-1.2149521,-0.5486018,-0.60103124
Gng7,-0.60730463,-1.453594,-2.2082512,-0.42258158,1.5979195,-0.8087706,-1.9776847,-1.5822988,1.2547355,0.8971118,-1.675684,0.8999392,-2.3588474,-2.009247,-0.28777882,1.514877,-1.2402667,-0.4588442,-0.15310153
Thop1,-0.053592257,-0.010203003,0.103079565,-0.8388503,0.29778644,-0.23977187,0.023775931,-0.05225074,-0.0758528,-0.046194874,-0.032379527,0.05639652,-0.030908147,-0.005554512,-0.10094317,-0.048072997,0.13308428,-0.83503586,-0.20240764
Map2k2,-0.015083396,-0.10429385,-0.028198197,0.03740737,0.13228908,0.098135576,-0.041498847,-0.01156839,0.008519083,-0.028729843,-0.025218558,0.014567485,-0.00799436,-0.2654711,0.06417823,-0.02943336,0.13731557,-0.19298226,0.2549794
Hmg20b,-0.41905075,0.49293932,-0.9680596,0.78547555,-0.8033062,0.6565987,-0.180942,0.02335922,0.058817018,-0.6560991,-0.4138027,0.37820533,0.38234863,0.22716501,0.1308866,-0.4818562,-0.092642955,0.48929605,-0.66644615
Nfic,0.033299435,1.0282725,0.11656097,0.23580329,-1.6103709,0.042138696,-0.094192654,-0.28013247,-0.0780776,-1.0248581,-0.5091658,-0.00082906435,0.7118518,0.7987638,-0.551037,0.15596266,-1.2370425,-0.06673144,0.86812556
Zfp433,-0.6246832,-1.1167723,-0.10213507,0.3261122,0.5070523,-0.20265514,-0.01104881,-0.13746816,0.43043077,0.35812044,-0.06909249,-0.097830944,-0.30063885,-0.5921071,0.90665996,-0.023642061,-0.23928751,-0.27581084,-0.8838613
AU041133,-0.8580053,-0.14801568,-0.046077788,-0.52226675,0.7292695,-0.0040498516,0.019118357,0.012748698,-0.10308285,0.07504404,-0.25643447,-0.059319418,0.2818972,-0.2955647,0.42044547,-0.03725699,-0.17249882,-0.4969434,-1.3130738
Tdg,-0.13002132,0.244008,-0.041095283,-0.77209294,-0.017334202,0.3027445,-0.016753374,0.003798391,0.10969756,-0.012340802,-0.36262426,0.066126354,0.26634854,0.05346995,-0.086038314,-0.025497848,-0.25568274,0.046373036,-0.71398634
Hcfc2,-0.7102864,0.31436285,-0.014194409,-0.14112872,0.037779257,-0.17693347,0.14506114,0.10865799,-0.53988594,0.12886058,-0.4047978,-0.6607985,0.5944729,0.083990335,-0.058050893,-0.12460744,-0.8212352,-0.99400043,-0.32384968
Nfyb,0.023182333,0.13080475,-0.011528331,-0.10237742,0.04446423,-0.34871182,-0.0037122087,0.044006262,-0.08802756,-0.0023996,0.13771304,0.014084841,0.064063855,0.046815597,0.028970081,-0.042865098,-0.5513634,-0.4250857,-1.0802448
Txnrd1,-0.40760815,-0.12329713,-0.01720769,-0.05052843,0.3046041,-0.2547217,-0.01049673,-0.05584785,0.033352576,0.13308129,-0.08418839,0.0734422,-0.09561971,0.120725654,0.19269183,0.009629183,-0.06746211,-0.05382845,-0.6139402
D10Wsu102e,-0.060507823,0.0069968957,0.035163395,-0.29977942,0.2184796,-0.87746763,-0.007221296,0.02331141,-0.040085834,-0.016337778,-0.025327213,-0.042921774,0.020258255,0.055427015,0.032347787,-0.10229121,0.07327964,-0.8649278,-0.3993908
A230046K03Rik,-0.3416581,-0.11135085,0.075635456,0.35446146,-0.6072818,0.38763356,0.15572244,-0.017158654,-0.758364,-0.09300843,0.2429266,-1.2174356,0.11612985,0.2147504,0.31217602,-1.4099398,0.5988987,-0.012176841,0.021889698
Appl2,0.128279,0.6843842,-0.9243015,1.2693056,-1.6075368,0.11520919,-0.27815142,-0.3216142,-0.16938153,-0.2085935,-0.5496923,-0.68588525,0.64446026,-0.18695697,0.51588136,-0.53908706,-0.65836674,-0.38389316,1.3057083
Polr3b,-0.1543274,-0.14002737,0.022864277,0.0978742,0.00057942374,0.05619434,0.013137196,-0.013470167,-0.41240337,0.013373964,0.005879764,-0.0053447112,-0.07280615,0.04000334,0.05809268,-0.06593262,0.00012972021,-0.05710184,-0.25205064
Ric8b,-1.0046979,-0.5874508,-0.6715266,-0.19666095,1.6449909,-0.84009117,-0.61201996,-0.7688087,0.9655242,0.6078354,-1.3458539,1.1802171,-1.0563805,-0.44946572,-0.30948272,0.7527585,-0.06830274,-0.4172803,-1.3135284
Hsp90b1,0.3983083,0.022353433,0.0013734553,0.02320049,-0.18219793,0.12154605,-0.021569766,-0.025026936,-0.01004851,-0.3767912,0.05958823,-0.020758945,-0.05749165,-0.011213281,-0.04430649,0.066054285,0.11066995,-0.0054497304,0.3018268
Utp20,-0.058756128,-0.11125066,-0.0004425759,0.012762523,0.18401167,-0.45738134,-0.0033395381,-0.0035417087,0.0047499724,-0.008533331,-0.03753466,0.040054325,-0.03573224,-0.021248525,0.08093224,0.004847589,-0.008535841,-0.32414842,-0.6332457
Ano4,-1.0028389,0.444073,0.14492269,-0.91933614,-1.4942627,1.2629766,0.2741823,-0.3791728,-0.13001755,-0.8244524,-0.4696545,-0.91134465,-0.65604407,0.80806905,-0.7461408,-0.7671938,0.33565453,1.2949373,-1.353208
Scyl2,-0.13359435,0.011170722,0.22790323,-0.27263847,-0.32593784,-0.6822781,0.121388584,0.39873043,-0.35204348,-0.3856724,0.3202463,-0.4742719,0.5440344,0.2344539,-0.10030287,-0.5449942,0.09746414,-0.548449,-1.3003188
Actr6,-0.12743269,0.033357173,-0.0012991569,0.033779897,0.03767673,0.019778898,-0.0122424,-0.023923209,-0.0572252,0.008581144,-0.0070071598,-0.016267136,-0.010222497,-0.016916726,-0.014926841,0.007981626,0.068045996,-0.005492526,-0.20798941
Uhrf1bp1l,-0.030657899,0.40626052,0.07511756,-0.84152865,-0.41033328,-0.59312713,0.092530295,0.100700974,0.0080641005,-0.48531288,0.02226442,0.028240915,0.15356264,0.43010098,-0.7666979,-0.022402659,-0.01707282,-0.4679914,-0.14603196
Apaf1,-0.029891757,-0.3195338,-0.2699836,0.50491166,0.32002544,-0.34375802,-0.117615886,-0.12918173,0.23939374,0.36288127,0.025174564,-0.54236746,-0.51013035,-0.67523646,0.8893599,0.34873748,-0.19116975,-0.9123534,-0.28003493
Gm872,0.05045594,-0.31583923,-0.71854335,0.65522975,0.71288764,-0.8390423,-0.29977533,0.5229661,0.016971579,-0.6490082,-0.8218429,0.1039037,0.4751839,-0.8372467,1.5264062,-0.5611057,-0.1173901,-1.2072693,-1.114188
Lta4h,-0.36658716,-0.89045954,-0.07513653,0.22164428,0.050479606,0.14614339,0.0055517876,0.040012836,-0.004256232,-0.01583109,-0.32725215,-0.017706923,-0.042530112,-0.06843446,0.11381107,-0.1054415,0.074754536,-0.20651533,0.5709306
Snrpf,0.26358613,-0.013795066,-0.45168754,0.58264726,-0.5446723,0.4942028,-0.14285022,-0.059747797,-0.0027208084,-0.25809106,-0.1576361,0.045951404,-0.13466147,-0.5271963,0.4211974,0.021885537,-0.09766734,0.09525065,0.8892183
Metap2,0.2904024,0.040206373,-0.13652584,0.43073788,-0.1773674,0.4706924,-0.13259394,-0.08057692,0.025381077,-0.07902149,-0.26603276,-0.026206927,0.059097264,-0.1739143,0.06990945,-0.065108605,0.54452294,0.20678052,0.72464466
Nr2c1,-0.01742694,-1.2325094,-0.23378272,0.479576,0.42545727,0.21978058,-0.04221268,0.001941374,0.041896902,-0.11597949,-0.37077177,0.086178325,-0.0535507,-0.89716697,0.1081918,-0.09711017,0.71059495,-0.46695372,-0.8521429
Ccdc41,-0.11170421,0.052587733,-0.047190405,-0.01668326,-0.13325611,-0.6945344,0.00812374,0.04402606,0.04364961,0.019312667,-0.23642069,-0.032779213,0.18278837,0.08649977,0.10459525,-0.055287804,-0.24023028,-0.40315422,-0.2979241
Plxnc1,0.095871836,-0.43472794,-0.56909674,0.71271473,0.040231973,-0.82561374,0.046552245,0.6408025,-0.81156594,0.63261986,0.3877082,-1.5935673,-0.037364945,-1.2433918,0.67658323,-0.48623452,0.8625893,-0.8780639,-0.17399092
Mrpl42,-0.11334028,0.18309654,-0.006862812,0.065663576,0.0001680702,0.46437612,-0.012224931,-0.014551476,0.018936807,0.008070716,-0.045414936,0.0123041645,0.01091637,-0.012644107,-0.09506385,-0.16266067,-0.045851804,-0.035652354,-0.48870498
Eea1,-0.00069526583,0.04057381,0.11363568,0.3648415,-0.20271012,-0.1972871,0.0006603478,-0.045162365,-0.05767382,-0.019317783,0.036998823,-0.40622127,-0.018502455,-0.02858602,0.21209387,0.00062505825,0.08168783,-0.0014752771,-0.09866422
Atp2b1,0.36383596,0.17864211,-0.2793161,-0.09291965,0.15699853,-0.71246296,-0.44233105,-0.31886292,0.40983096,0.08689867,-0.025998686,0.16840097,-0.44344747,-0.17429608,-0.72956383,0.79705095,-0.19930078,-0.4825484,0.60597354
Cep290,-0.010546361,-0.12796947,0.13739285,-0.13928653,0.29395208,-0.4596432,0.06191551,-0.08908968,-0.889771,0.06563705,-0.17590296,-0.5542437,0.23427157,-0.06913964,0.5162249,-0.75004566,0.60018337,-1.3176187,-0.80020565
X4930430F08Rik,-0.3145942,-0.12218332,0.023473525,-0.43383303,-0.104662195,0.5676254,-0.0008351255,0.04629647,0.015075808,0.017536955,-0.026291028,0.048307016,0.0035916655,-0.024051799,-0.18445297,-0.12514767,-0.07724346,0.12032765,-0.653863
Lrriq1,0.33191344,0.2643557,0.19771612,0.68769985,-1.9356713,-0.58634526,0.2273788,0.86971545,-1.3776215,-1.5138661,0.5756114,-0.7311293,0.1814569,-0.24823223,1.2194475,-1.1364206,0.3054083,-0.9078898,-0.58769864
Mettl25,-0.25970143,0.04149734,-0.032705132,-0.18353547,-0.13443522,0.5283923,0.010866206,0.013938631,0.015465998,-0.008861695,0.0053313407,-0.015917726,0.3216972,0.074564755,-0.1739634,-0.15889686,0.066512145,0.057463758,-0.8601915
Ccdc59,-0.066694036,-0.1942177,-0.021610444,-0.012821838,0.07501979,0.32468566,-0.019622855,-0.017613055,0.04270608,0.030234847,-0.08828464,-0.10325136,-0.011169449,-0.2991641,0.15909393,0.06842048,-0.32002053,0.06999095,0.757107
Ppfia2,0.38701397,0.480292,-0.22404076,-0.12743229,-0.04075606,-1.2764248,0.15028979,0.54970354,-0.7249465,0.1821751,0.040477317,-0.8455497,0.63654584,-0.1448508,-0.83143795,-0.22660828,0.53890353,-0.8929153,0.20983948
Lin7a,0.53741,0.8374861,-0.82049537,-0.24287707,0.27951354,-1.6136094,-0.16079122,0.35851306,-0.4784715,0.84467757,-0.17336515,-0.8628546,0.6462938,-0.026594115,-0.17330629,-0.51249003,0.4580066,-1.3277944,-0.22880496
Ppp1r12a,-0.08589886,-0.048162345,-0.104874425,0.39047164,0.015212825,-0.260282,-0.0023384327,0.06951677,-0.032902338,-0.06694177,0.04396957,0.012331918,-0.015289743,-0.24682043,0.033420112,-0.0027892764,-0.0062850444,-0.33156416,0.30949533
Syt1,0.69572324,0.5218867,-0.12836723,0.12267906,-0.3368926,-0.70138556,-0.20605342,-0.16304296,0.004391719,0.16134742,0.2467809,-0.4553537,-0.05750514,0.004406418,-0.8109888,0.4362757,0.10615707,-0.60079885,1.0111393
Zdhhc17,-0.04300854,-0.025175143,0.013951918,-0.13877028,0.14669769,-0.20977661,-0.0005747007,-0.0036302796,-0.012789245,0.013022692,5.458263e-05,-0.019917332,0.0008548976,0.0031379305,0.052142166,-0.070221245,0.08307651,-0.2050762,-0.33858654
Osbpl8,-0.33023053,-0.42605948,-0.39556494,-0.46524835,1.3216258,-0.80773395,-0.25867206,-0.14033948,0.58906376,0.54740405,-1.0531999,0.8691221,-0.30054614,-0.070530355,-0.4480004,0.6979364,-0.32600918,-0.15398447,-0.517321
Nap1l1,-0.13540675,0.081208035,-0.15338656,-0.14164211,0.08617539,-0.2223839,-0.028744211,0.030440852,0.06279645,-0.0042728973,-0.2751294,0.030844837,0.094501115,0.050591554,-0.0029352193,0.01130876,-0.010147841,-0.31003088,0.007839689
Krr1,0.4010417,0.5205864,-0.1875066,-0.051326595,-0.6093857,-0.7389486,-0.009885631,0.037347466,0.021069042,-0.14298995,-0.11415921,-0.08118519,0.03978768,0.22616357,0.17906746,0.039002784,-0.13098435,-0.3186166,0.09311588
Tbc1d15,-0.4855941,0.022263842,-0.025611477,-0.41424796,0.22776994,0.0069160424,-0.010477665,0.0032842746,0.020154957,-0.0067079295,-0.11028857,0.19971849,0.05858382,0.025109252,0.15320098,-0.07596748,-0.6552571,0.078679875,-0.4203537
Ptprr,0.023520147,-1.1350539,-0.03138323,-0.5016025,0.42720583,-0.37091735,0.03606304,0.1322533,-0.16320923,0.03569955,0.507441,-0.5211707,-0.10470874,-0.6475038,0.2252202,-0.38860446,-0.0109935645,-0.9924225,-0.46380597
Ptprb,-0.84265864,0.13831441,-0.84930515,1.7909602,-2.0404859,0.16010265,-0.91272664,-1.1419475,0.30697578,-0.022400973,-0.43403694,-0.26675057,-0.039549183,-0.32937804,-0.6034213,0.19008753,-0.5796549,0.21430646,0.5091768
Rab3ip,-0.153967,-0.2037742,0.72266835,-1.0301154,0.4577486,-0.9337539,0.109609105,-0.09931164,-0.17478047,0.02195884,0.35471997,-0.017652726,-0.30556133,-0.15118563,-0.6143284,-0.2200756,-0.2732532,-0.17421639,-0.26315206
Cct2,0.012007348,-0.032027908,0.0034341468,-0.07984513,-0.037400197,0.4290777,-0.007409224,-0.02310237,0.006339352,-0.004184842,-0.013422292,-0.070298746,-0.06151881,-0.062475454,0.032446925,0.0070169554,-0.0027620913,0.007939739,0.74974644
Frs2,-0.20192981,0.136152,-0.01223865,-0.03475648,-0.28266984,0.45850724,-0.014398475,0.045462724,0.09133503,-0.15069056,-0.0058545833,0.3085182,0.004358414,-0.011656605,-0.1390533,-0.17232578,-0.67053866,-0.23872705,-0.23092477
Yeats4,0.12437926,0.112231046,0.120595865,-0.24937966,-1.1131939,-0.28296944,0.020475212,0.061732024,0.0032492601,-0.018039795,0.19213252,-0.2579369,-0.030216059,0.0021310777,-0.5185615,-0.018447457,-0.31854248,-0.61190295,0.49631172
Cpm,-0.35238928,-1.2271564,-1.0406178,-0.9721461,-2.5277452,2.015481,-1.3727795,-1.5177635,0.019888403,-0.6439875,-0.6723686,-1.1174821,-0.87143236,-1.1225303,-0.8431269,-1.2006009,-0.6494569,1.866802,-0.57652646
Nup107,-0.050105166,-0.29163313,-0.027272118,-0.33214945,0.32113093,-0.290764,-0.011841046,0.0043480303,-0.050499342,0.030873323,-0.01712552,0.004663247,-0.007409964,-0.08939016,-0.08709862,-0.0052764453,0.054111328,-0.16884293,0.20006363
Rap1b,0.11577192,-0.034561966,-0.008771113,-0.020444982,-0.2844299,-0.059955735,-6.321284e-05,0.058763146,-0.08408786,-0.076805614,0.043763522,0.02517681,0.010789743,-0.15846008,-0.18418108,-0.07704372,0.04909654,-0.2012551,0.24260983
Tmbim4,-0.8743829,-0.18925633,0.046748035,0.49817738,-0.3991419,0.9272471,-0.27675384,0.060352128,0.05378399,-0.100097,-0.5999107,0.064033724,-0.03080601,-0.77728426,-0.3937578,-0.3379989,-0.20090127,1.0320644,0.41305724
Llph,0.10892656,0.64007044,-0.016095104,-0.2930592,-0.4678495,0.40878534,-0.031139288,-0.022537934,-0.06329675,-0.010648182,-0.09844698,-0.0656159,0.18258591,0.059473824,-0.25280532,-0.41107395,-0.07334946,0.23333368,0.28232256
Tbc1d30,-0.26348767,0.89868766,-0.5340277,-1.8899343,-0.049909562,-0.6858954,0.5198048,0.6888276,-0.18054561,-0.48958087,-0.43836045,0.9340209,1.0538836,0.58708364,-1.1589551,-0.7971391,-0.9839887,-0.9661261,-0.8346903
Tbk1,-0.019771643,-0.24430166,-0.026837094,-0.04003786,0.37232652,-0.59231764,-0.010002433,-0.0074010543,0.021695463,-0.00992231,-0.01510192,0.08900296,-0.0019697805,-0.15110876,0.03372738,0.017196821,0.0027645444,-0.75605255,0.076509915
Srgap1,-0.7353743,-2.0945032,-1.5314252,-0.29305738,2.028437,-0.13420597,-1.4303743,-1.7005724,1.2825397,-0.24563524,-0.54976,1.4262291,-2.0077384,-1.4551225,-0.51337844,1.0831016,0.7506422,-0.5588604,-0.8958587
Usp15,-0.15691493,-0.111040555,0.052631926,-0.11390309,-0.0063133957,-0.28255036,0.027431086,0.0015737718,-0.02671455,-0.007980527,-0.06314483,0.006029785,0.039844904,0.0024053126,-0.020369658,-0.14095677,-0.010376686,-0.06992747,0.3304175
Fam19a2,0.20014462,1.3605232,-1.5073503,-0.932661,-1.148954,-0.9776763,-0.07266522,1.2409551,-1.0242226,0.206141,-0.36513358,-0.8703799,1.5413939,-0.8517151,-0.89162934,-0.5377175,0.052335355,-0.615968,-0.34004083
Os9,0.19685613,-0.0539881,-0.031340413,0.27456543,-0.49756086,-0.04532165,0.0012186528,0.016558556,-0.0749466,-0.096079685,0.18498112,-0.07219041,-0.08302747,0.023341395,-0.11769491,-0.024177432,0.23301572,-0.89687246,0.47766587
Pip4k2c,0.123440005,0.38839367,0.4851118,0.07367433,-1.6215746,-0.53348494,0.2531216,0.6862925,-0.73241514,-0.49809507,0.61784923,-0.5460048,0.6796736,0.49114415,-0.8806336,-0.78050655,-1.0005221,-0.40918335,-0.4133571
Mars,-0.1783319,-0.35186046,0.060326245,-0.9225516,-0.06588205,0.12146232,0.047295064,0.037413802,-0.1704273,-0.050494548,0.07146273,-0.011354222,-0.011231311,0.0476438,0.018371545,-0.095023386,0.0644881,-0.26637605,-0.3436341
R3hdm2,0.17147094,0.5743448,0.38068753,-0.38045084,-0.7349831,-0.8085402,0.18907413,0.050601568,-0.1917419,-0.6405058,0.11379227,-0.14067721,0.46800217,0.45002657,-0.6002165,-0.16830686,-0.49611562,-0.5476442,0.4880626
Naca,-0.05250213,-0.094663806,-0.052616987,0.40294087,-0.0488975,0.42940322,-0.047866553,-0.01573725,0.020677773,-0.07457213,-0.060434528,-0.02040069,0.02479593,-0.031022789,0.107000776,-0.042553976,0.027652513,0.46613297,0.23527308
Cnpy2,-0.006393753,0.08616669,-0.016284956,0.015020212,0.025243685,0.64886457,-0.07107671,-0.0656838,-0.63084674,-0.02663772,-0.03447417,-0.1983445,-0.38480234,-0.2779613,0.599174,0.17106806,-0.0052471147,0.40082017,0.08598466
Cs,0.101057835,0.074649304,-0.020607617,-0.04357316,-0.99070525,-0.15205336,0.05215483,0.053468607,-0.016072953,-0.26128465,0.010642197,-0.0770663,0.08955205,0.1706464,-0.11839706,-0.08012877,-0.026711993,-0.11274147,-0.53321666
Smarcc2,0.14861241,0.37841833,0.00085402245,0.12507531,-0.41663057,-0.30334452,0.013095742,0.014510953,-0.15152404,-0.15926169,0.09433263,-0.09618962,0.059492506,0.028461007,-0.055571754,-0.55027723,-0.016302526,-0.39917248,0.48832998
Myl6,0.09649242,0.11622077,-0.0824601,0.6130491,-0.6223216,0.5394984,-0.106418654,-0.086232975,-0.02462898,-0.41042432,0.22325188,0.013254788,0.06929928,0.08339691,-0.6546035,0.3622709,-0.5047781,0.19113082,0.69517916
Pa2g4,-0.7050509,-0.0018368624,0.09357666,-0.051544815,-0.33213854,0.44606057,-0.0027180687,0.04408993,-0.11950542,-0.0052443175,-0.06076067,-0.09271256,0.34715816,-0.17701817,0.09716679,-0.0972436,-0.0028883063,0.20452666,-0.27624735
Erbb3,-1.8960268,-1.2790036,-1.6760143,-1.2685084,-2.4476771,2.2733533,-1.721543,-1.5876895,-0.5184698,-1.0759212,-1.564344,-1.0850694,-0.8603217,-1.1257087,-0.67001027,-1.0186083,-0.83096576,2.3778982,-1.2643492
Cd63,-1.6717328,-0.90390986,-1.041855,1.6127353,-0.9964988,1.2225829,-0.9979214,-1.0430676,-0.053070385,-0.43928766,-1.2112228,-0.68747014,-1.0853864,-1.010143,1.2894258,-1.1619279,0.4841615,0.542417,-0.08948426
Eif4enif1,-0.0507757,-0.004996192,0.020615675,-0.098886386,0.12872024,-0.9366785,0.014695305,-0.0075772665,-0.03757448,0.03730373,-0.11651159,0.015865304,0.0188141,-0.060012203,-0.017983476,-0.022555403,0.00053175614,-0.8306755,0.2816168
Drg1,0.010511725,-0.16197509,0.09200399,-0.41671792,-0.22757022,-0.7308728,0.033835296,0.07123548,-0.15503645,-0.015591182,0.098300144,0.046458025,0.4089663,-0.13111755,-0.80991536,-0.16585748,-0.09735098,-0.26783037,0.0035321852
Selm,-0.33250016,-0.3893925,-0.020095669,0.18693608,0.025388643,0.61731565,-0.0848492,-0.19112016,0.48411003,0.022696378,-0.25962886,0.123548284,-0.1800483,0.16468911,-0.19010006,0.2347876,-0.18816006,0.109162584,-0.9041749
Pes1,-0.13627182,-0.2554661,0.031677395,0.14235614,-0.07210255,0.16242798,-0.015168113,-0.07328963,0.031452127,-0.021025196,0.042448174,0.0854786,-0.16396978,-0.2717499,0.03998331,-0.07481687,-0.08706016,0.5694208,-0.34418234
Ascc2,-0.16583,-0.12676768,-0.013705797,-0.12517068,0.46059126,-0.9487896,-0.014963919,-0.0063341623,-0.0646785,0.10150444,-0.051773645,0.00282149,0.022493988,-0.51122856,0.10783674,-0.040989943,0.20736848,-0.6376283,0.2829329
Nf2,-0.019600943,0.001281854,-0.045096137,0.0812664,-0.0018692594,0.22620091,-0.009136751,-0.008790244,-0.014876081,0.0020454796,-0.004023049,-0.020944118,0.030297244,-0.014111905,-0.14634033,-0.039058764,-0.049127165,0.5771429,-0.0027856855
Nipsnap1,-0.09043105,0.41800633,0.068567656,-0.5681985,-0.101346135,-1.1066704,0.039304417,0.028285917,-0.0010343828,-0.038079087,-0.29859784,-0.057968557,-0.06176386,0.5421675,-0.18106729,-0.04229827,0.10989814,-0.4316124,-0.39288086
Thoc5,0.0163667,-0.42545697,-0.009578891,-0.1707004,0.09085993,-0.15399024,0.016118167,0.0316264,-0.24846756,-0.015582218,0.019458786,-0.0039226315,0.049060762,0.030266356,0.06947587,-0.3114776,0.05628693,-0.5045504,-0.13014163
Nefh,0.26802346,1.5530871,-0.29630062,-0.46624455,-2.0187192,-1.5939075,0.55128217,0.35969612,-1.1175091,-1.4544877,-0.5909408,-0.664791,0.67720234,1.6791263,-1.4471847,-0.639299,0.33057094,-1.083021,0.19327271
Dbnl,-0.030017791,0.13873348,-0.00349976,0.54880613,-0.48948103,0.3768377,-0.007379903,-0.0040872702,-0.0760939,-0.04138033,0.0056160255,-0.042358432,-0.08581554,0.043048106,-0.028257992,-0.0334612,-0.18471238,0.52265406,0.19812118
Ykt6,-0.09880832,0.61934584,0.028519392,-0.07780315,-0.97493494,0.29488713,0.07531402,-0.012763034,-0.12528163,-0.36014938,0.05418683,-0.053017404,0.20644951,0.37121093,-0.7766836,-0.14715022,-0.29484656,0.27270368,-1.0424557
H2afv,-0.31392667,-0.8646105,-1.1758887,0.37215018,0.0013671666,1.0651065,-0.81434304,-0.5636894,0.8690819,0.4371873,-0.66207165,-0.05395315,-0.64438945,-1.2359096,1.1941409,0.13416897,-0.24414332,0.26997894,-0.2693669
Tbrg4,0.39416713,-0.23696283,0.24069983,-0.75940555,0.06791902,-0.93761784,0.07284446,-0.100169025,-0.032502595,-0.13461538,0.3259305,-0.09682121,-0.18432169,-0.038558647,-0.31163836,-0.8069513,0.43590993,-0.34115162,-0.24295405
Adcy1,0.50366837,0.8297353,0.43720844,0.0063225282,-1.5041447,-0.9860711,0.09957952,-0.12624563,-0.38909784,-0.8302383,0.2163868,-0.0767381,0.100647226,0.6362748,-1.7230287,-0.4224131,-0.9208427,-0.82369703,1.0566329
Tns3,-0.2165966,-0.85948396,-0.85757583,0.6392145,-1.2260233,1.5258708,-1.3597008,-1.5816547,0.28070086,0.18793392,-0.5045721,-1.0348656,-1.6118138,-0.89784706,0.33854863,-0.15951383,-0.8046726,0.9766334,0.70860356
Grb10,0.41327396,-0.58612764,-0.5568572,0.60426086,0.79231733,-1.575695,-0.16439079,-0.11480024,-0.004183698,0.17100157,0.38523743,0.09753705,-0.35743573,-1.4089328,0.07704422,-0.9544294,0.9915109,-1.3087932,-0.40922183
Cobl,0.10347422,0.5014682,0.2742005,-1.3773019,-0.08226188,-1.3171304,0.0596444,0.38041237,0.084560595,-0.4827943,0.8232469,0.67728,0.42329875,-0.009452028,-1.2947156,0.21261576,-2.0095048,-0.8833639,-1.0601649
Vstm2a,0.6681868,0.30681428,-0.2906346,-0.33648401,0.096502766,-1.2281488,0.5260621,0.14500093,-0.6360785,0.010828225,0.30625445,-1.0882925,-0.12102198,0.096718624,-0.39871225,-0.7215315,0.9280097,-0.9415067,0.13261025
Sec61g,-0.13838013,-0.867369,0.0619829,0.57703173,-0.01987642,0.54883766,0.007947896,-0.101116516,-0.18903945,0.036443513,-0.09090885,-0.109437026,-0.24292949,0.033844694,0.30386487,-0.2771987,0.16010332,0.083477974,-0.2823993
Egfr,-0.43065658,-0.8399014,-0.7582442,1.4198653,-1.0453116,0.51435685,-0.7683698,-0.50037587,0.5356192,-0.37142065,-1.060411,-0.46488547,-0.64495933,-0.72382575,1.6280171,0.23124798,0.16402605,-0.61911315,0.68783516
C1d,0.015803892,-0.071904086,0.019777616,-1.7082341,0.19429232,0.41751924,-0.028168358,-0.010787924,0.06373326,-0.014116654,-0.04102008,-0.023044433,-0.47507703,-0.058887266,-0.051471077,-0.068818,0.026896277,0.10233278,-0.29462537
Rab1,0.40141279,0.12560235,-0.0008717312,0.034249235,-0.27109477,0.11266344,0.09708195,-0.032344706,-0.7626887,-0.32707554,0.48237064,-0.00046059495,-0.043144703,0.39083794,-0.49274322,-0.15730582,-0.59319186,-0.46728566,-0.24965756
Lgalsl,0.08354114,-0.24873261,0.21277158,-0.3002323,-0.1392187,-0.65185905,0.09988248,0.07912883,-0.14928642,-0.030907042,-0.0769738,-0.104915194,0.008686156,0.73596317,-0.78234756,-0.31846687,0.045446597,-0.5721569,-0.20805691
Ugp2,-0.011461776,0.04888586,-0.0023603698,0.43114337,-0.72098875,0.7064997,-0.0024555025,-0.08051255,0.014700281,-0.23350862,-0.07844469,-0.08970349,-0.066492446,0.11415851,0.15617341,0.009886893,-0.0833054,0.6402339,0.077378355
Mdh1,0.08840508,0.2622484,0.060004335,-0.4696452,0.003107082,-0.60994345,0.025345327,0.00028794844,-0.063977316,0.05839212,-0.11282608,0.0066409037,0.010447659,0.49853083,-1.1023736,0.019765306,-0.5300599,-0.5365519,0.28076518
Ehbp1,0.13459776,0.005221975,0.026742313,-0.37531093,-0.10638295,-0.62507516,0.0838676,0.07205796,-0.34388202,-0.2947029,0.015636614,-1.1945891,0.36552975,0.010196406,-0.32078803,0.30205554,0.098601915,-0.645907,-0.66772854
Cct4,0.014586415,-0.38580498,0.014062891,-0.124707796,-0.04944927,0.40689334,-0.006327793,-0.012316318,0.0030545664,0.015808577,0.051525842,-0.06418224,-0.042433072,-0.038227018,-0.00448339,0.051123817,0.018643158,0.104694605,-0.39879075
Ahsa2,0.09555753,-0.51850444,0.06393675,0.7722421,-1.0776935,0.6262686,-0.051451672,0.07804586,-0.8360846,-0.15125681,-0.5948313,-0.67931175,0.023491448,-0.23224843,0.6691006,-0.7444299,0.84297824,0.20017499,-0.19002718
X0610010F05Rik,-0.14862192,0.10366676,0.2973287,-0.573738,-0.43963706,-0.69983333,0.23553874,0.18148884,-0.350609,-0.42101508,0.44445783,-0.024586111,0.07046772,0.18310028,0.15593268,-0.884324,0.12323345,-0.26866615,-0.8892878
X5730522E02Rik,-0.83732367,0.10660226,-0.11758768,-1.7078526,2.1369185,-1.8367473,0.15695377,0.43443805,-0.70796573,0.39783153,-0.958167,0.45253035,-0.19597697,-0.09382561,-0.5831077,0.38966188,0.5506969,-0.82065165,-0.3085908
Ccdc85a,0.20361355,0.27709827,-0.30615693,0.32390314,-0.97263896,-0.9737533,0.26879427,0.13563389,-0.33200422,-0.32629088,0.008056667,-0.18526313,0.3462992,0.3422685,0.017012557,-0.5180944,0.53608555,-1.1762214,-0.21642138
Pnpt1,-0.29751095,-0.7061939,0.18410604,-0.16096619,0.18973327,-0.24793224,0.044160306,-0.042600866,-0.36272645,0.073634274,0.20653516,-0.14593115,-0.107419655,0.17105603,0.124123126,-0.21475217,-0.061038334,-0.8566248,-1.2574832
Ccdc104,-0.0750652,-0.27325064,-0.0010958273,-0.15837164,0.015191603,0.39084098,-0.01174551,-0.021761147,0.016606102,0.03382312,-0.24799009,-0.0021643676,-0.028446404,0.017510641,-0.037979502,0.024789792,0.11345902,0.08607132,0.393325
Eml6,0.11419426,-0.45246464,0.1259676,-0.4365017,0.38042462,-0.70498294,0.020519322,0.022019908,-0.23928116,0.13739385,0.07225386,-0.65482473,0.01354522,-0.13151084,0.019143587,-0.48054028,0.06204076,-1.2028064,0.024387008
Acyp2,-0.04930904,0.7393184,-0.08641435,-0.28923768,-0.0066783316,0.42012486,-0.034455117,0.013449717,-0.5831221,-0.095037065,-0.13614105,-0.12962331,0.17585084,0.1380613,-0.42060268,-0.34382254,-0.29281417,-0.02688911,0.60427564
Psme4,-0.7636299,-0.06300279,0.03541485,-0.009955161,0.019877385,0.00661104,0.013674047,0.01512039,-0.043752346,-0.02842886,-0.0052067367,-0.009514166,0.046704803,-0.008222095,0.29020596,-0.055321433,0.06935339,-0.34144303,-0.8916709
Erlec1,-0.07455795,0.0635497,-0.007462297,-0.028684225,0.007984978,0.109861575,-0.001396092,-0.00342,-0.014055047,0.005763294,-0.14307012,-0.015764853,0.0036043976,0.0222425,-0.051200837,0.03961078,0.04399787,-0.18558058,-0.07173437
Fbxw11,-0.019405834,-0.022207266,-0.01662354,-0.022303268,-0.0039536315,-0.0782718,0.0046967217,0.016512483,-0.016909499,-0.002318377,0.0025337134,0.0026309704,0.035556015,0.00294582,-0.029478474,-0.0036471195,0.044757403,-0.34518674,-0.8523708
Npm1,0.034095824,-0.5414895,-0.03908031,0.30320492,0.0066761407,0.45094454,-0.032429412,-0.030046687,0.01437912,0.07206728,-0.05730585,-0.06917465,-0.13569382,0.07976987,0.19219299,0.021405768,0.034833163,0.17476372,-0.1691804
Slit3,0.015258165,-1.0538498,-0.89869124,-0.7254505,1.7450638,-1.6961464,-0.5797376,0.28734753,0.5997719,1.0333649,0.40422672,1.0607699,-1.3358612,-1.4197367,-0.27459398,0.7022001,-1.1585536,-1.2046865,-1.3651612
Rars,0.055326853,-0.015390333,-0.0073876856,-0.036969513,-0.043656994,-0.22715962,-0.0059273117,0.0057157325,-0.002034059,-0.014823306,-0.003322864,-0.01829785,-0.047561396,0.016406123,-0.028879276,0.027166324,0.041230604,-0.09682958,-0.33715087
Wwc1,0.2555154,-0.00537601,-0.43660042,-0.057842437,0.31139493,-0.7303395,-0.07775593,0.008225946,0.15330489,-0.005764201,-0.14032744,0.3979417,-0.67520314,-0.09861851,-0.003481386,0.058946595,-0.07988176,-0.88794076,0.2674449
Mat2b,-0.2491225,0.62140954,0.18018569,-0.92304736,-0.14520611,-0.550399,0.043783523,0.37902594,-0.28962895,-0.19454402,0.029985774,0.2573462,0.7599008,0.120558865,-0.52980566,-0.6395098,-1.0136658,-0.27385098,-0.7048959
Gabra1,0.4448413,0.9366297,0.3200425,-1.0047346,-1.4606386,-1.2034192,0.4647287,0.4478677,-0.88749593,-0.78954345,-0.083059035,-0.85483557,0.80830145,0.84623253,-1.3962822,-0.66430676,0.3694427,-0.9337492,0.23095982
Slu7,-0.3047248,-0.022392979,0.004514834,0.021791583,-0.008843439,-0.00082326436,0.008015036,0.0020329675,-0.012730756,-0.014065057,0.019264348,0.0121706845,0.024787096,0.031992428,-0.033937532,-0.004655701,-0.00023164827,-0.016057486,-0.050371807
Ublcp1,-0.040669255,0.111909814,0.52788514,-1.0569847,-0.8403954,-0.06711099,0.59753096,0.029536452,-0.51960206,-0.9580158,-0.029732587,-0.5526172,0.22405894,0.77858126,-0.6147541,-0.16314487,0.05301233,0.18244083,-0.5500679
Adam19,-0.96225035,-0.13795099,0.2064213,-0.62152094,-0.3722468,0.47938403,0.5007486,-0.0086822575,-0.46976525,-0.30203822,-0.07513128,0.108118154,0.3338159,0.7110552,-0.25520965,-0.34913933,-0.4307993,0.55103403,-0.9766539
Gnb2l1,-0.10583155,0.011184055,-0.08096305,0.49030474,-0.61976635,0.9875472,-0.2162264,-0.22752793,0.30066317,-0.2944308,-0.30538166,-0.27154937,-0.40349242,-0.57773423,-0.069596805,-0.13793798,-0.34005812,0.60088885,1.2274975
Rnf130,-0.22568528,-0.52262634,0.35646778,0.27957276,-1.0882399,0.99990827,0.020665051,-0.009025517,-0.86680716,0.080986746,0.46103945,-0.58729446,0.29753467,-0.5836718,-0.38956657,-0.6561255,-0.14673033,0.7783348,-0.7858858
Sqstm1,0.217914,0.18826528,0.043445956,-0.06221864,-0.590109,-0.34800562,-0.018581903,0.026548022,0.009294836,-0.26789564,0.08295474,-0.065600745,0.02233747,0.02301906,-0.33103347,-0.5235732,0.11687682,-0.042268384,0.21428423
Canx,0.1898299,0.09077728,-0.011121283,-0.08057826,-0.14239842,0.18027778,-0.0041390527,-0.1132768,0.021206422,-0.021440988,0.18431126,-0.034395803,-0.25474367,0.1184436,-0.21327887,0.026341073,0.080458365,0.13643244,-0.204964
Rufy1,0.048763074,-0.16437109,0.01299645,0.02858548,-0.014989705,-0.07428762,0.0057001235,0.0024613324,-0.078596294,-0.02295552,-0.02163506,0.015840143,-0.011811246,0.054891016,-0.014148968,-0.10628984,-0.002669699,0.037179146,0.05385662
Zfp354a,-0.13439375,-0.99371016,-0.12880388,0.0033600957,0.6642008,-0.67748225,-0.025310628,-0.23949514,0.2719848,0.0803316,0.10913747,0.13093191,-0.8677515,-0.5962961,0.11984896,0.2877711,-0.011285145,-0.22011507,0.4009942
Nhp2,-0.23609824,-0.55497885,0.06293447,-0.3042645,-0.022287756,0.3368992,-0.08267378,-0.08101691,0.5022803,-0.20502621,-0.6663184,0.6237519,-0.2953281,-0.5516463,-0.5714368,-0.06329863,0.35530472,0.08298761,0.450603
Ube2b,-0.020603035,0.045469537,0.003632896,-0.008170838,0.007041495,-0.3516926,0.008909975,-0.008297934,0.0041578417,0.013895933,0.0160477,0.007578897,-0.0463673,0.029610634,-0.3110753,0.014230085,0.009355511,-0.24142109,-0.18341486
Cdkl3,-0.3723782,-0.51537305,-0.20418574,-0.37114212,0.48414758,0.079653524,-0.06796496,-0.09869381,0.63842213,-0.084876925,-0.6583836,0.12631455,-0.4546357,-0.068241715,-0.21377775,0.19259623,0.8732639,0.12587646,-0.56937414
Skp1a,0.31507507,0.20575428,0.110371195,-0.27157015,-0.48784715,-0.09021758,0.035166323,0.020074971,-0.092779815,-0.1813851,0.13956878,-0.03678473,0.21345879,0.2609764,-0.65511876,-0.0761117,-0.17786895,0.0521051,-0.5043035
Vdac1,0.24216151,0.08302667,0.06927951,-0.36687535,-0.07420114,-0.56233037,0.09067548,-0.06775008,0.0777858,-0.07396072,0.38326564,0.14761797,-0.3641177,0.41167122,-0.5199715,0.035672687,-0.41575667,-0.5908338,0.1741564
Hspa4,-0.029066881,0.2955994,0.0008000008,0.0030505138,-0.15031025,-0.28829038,0.0056560547,0.03215584,-0.08686743,-0.028252127,0.030727217,0.03554224,-0.035449963,0.23658468,-0.38630864,-0.11912828,-0.029846659,-0.12678471,0.073698886
Kif3a,0.232593,0.16538817,0.024140844,-0.47411138,-0.15124159,-0.45510995,0.056024518,0.04059879,-0.11032581,-0.024340281,0.216241,-0.06300858,-0.037993226,-0.012953738,-0.13163982,-0.3154303,0.17220703,-0.57250917,0.09559932
Rad50,-0.1246897,0.046795662,0.04231846,0.16361655,-0.023600843,-0.16810055,0.0047085537,0.01327878,-0.33698705,-0.012004886,-0.3458459,-0.0696604,0.05576811,0.086360686,0.5517058,-0.79454315,0.06917051,-0.17226678,-0.54778284
Acsl6,-0.05322308,0.465922,-0.00748855,0.22138432,-0.37890255,-0.56342334,0.15012485,-0.071501754,-0.2213559,0.013079055,-0.26349357,0.019070387,0.422999,0.40226513,-0.21859783,-0.6353068,-0.5335242,-1.285025,0.65388316
Hint1,0.09444592,-0.03424281,-0.04422463,0.48921132,-0.68671554,0.4779947,-0.076723196,-0.077206954,0.08025222,-0.07993005,-0.7015394,-0.5064905,-0.020516131,-0.099327706,0.17535567,-0.14538932,0.2260229,0.6530689,0.27560863
Anxa6,-0.0549337,-0.3972707,-0.060760383,-0.07846013,0.43734813,-0.9936598,-0.029101342,-0.027065784,0.0883056,0.069486514,0.0017747085,-0.086998194,-0.012824911,-0.0056063747,-0.24655774,0.5169164,-0.104410924,-1.0668639,-0.22744133
Sparc,-0.20864666,-0.0960475,-1.0119042,1.2755206,-0.72267735,0.26971665,-1.0629474,-1.219915,0.32916716,0.15603125,-0.79358035,-0.173123,-0.74546367,-0.49002793,0.2742388,0.7387308,-0.2954064,-0.010949952,0.7206631
Atox1,0.14574027,-0.7400792,0.38662457,0.2620024,-1.3348153,1.1345202,-0.3066817,-0.71545374,0.2176088,-0.251006,0.122294046,-0.3944006,-0.76887417,-0.24689943,-0.42802233,-0.18496352,0.07393752,1.3220634,-0.37636858
Gria1,0.39238134,-0.79865175,-0.40695706,0.47505954,0.8151532,-1.1032163,-0.17678401,-0.4459202,0.33492982,0.59002733,0.1004364,0.03678338,-1.1582469,-0.77385366,-0.19552325,0.43359774,0.77073497,-0.8977979,0.31260592
Fam114a2,0.13544144,-0.22286205,-0.4541301,-0.70301557,0.29403967,0.40642154,-0.086749844,-0.13558212,0.55037165,0.0873969,0.028851548,0.25205564,0.059004456,-0.45512426,-0.058577955,0.023738317,-0.29060283,0.1842675,-0.6563207
Gemin5,-0.07445219,-1.0558624,0.06478731,-0.61936224,0.117220804,-0.25353685,0.0091057755,0.022268094,0.025886422,0.22477797,-0.37867746,0.02461944,-0.13845496,-0.4844559,-0.17031245,0.057409193,0.420094,-0.5286141,-1.0591162
Guk1,0.09493103,-0.11475141,-0.05455496,-1.0560825,-0.35807034,0.6187284,0.012644625,0.004472227,0.08278758,-0.023809498,-0.0043726424,0.057060834,-0.07020214,0.018679647,-0.13361499,-0.048667602,-0.032082986,0.4385461,-0.38714132
X2310033P09Rik,-0.09304187,-0.20343928,-0.07864704,0.56966686,0.21578811,-0.40166998,-0.07041722,-0.11175186,0.14942521,0.23730928,-0.20793772,-0.2928095,-0.32262453,-0.05196823,-0.19215938,-0.016746916,-0.0144359525,-0.24821013,0.6119729
Cops3,-0.1964802,-0.9696388,0.00056668965,0.22961009,0.07616933,-0.10575731,0.009910349,-0.0077122673,-0.019517131,0.013696287,0.06500238,-0.10087771,-0.019271791,-0.1083092,0.14859909,-0.062685706,-0.007553662,-0.17805175,-0.65828645
Flii,0.28276828,-0.31661564,-0.27770454,0.80184144,-0.90063834,0.1627368,0.07689219,-0.029674701,-0.5928838,-0.31483904,0.06270479,-0.6600065,-0.01793114,0.030745668,0.61035454,-0.1770665,0.11251411,0.399956,-0.43049324
X2410006H16Rik,-0.8560143,-1.2353474,-0.17618003,0.52501357,-0.07776964,0.5629337,-0.22219282,-0.0001182886,0.36175203,-0.030977149,0.09192545,0.022847282,-0.33543682,-0.4338586,0.50394416,-0.2746255,0.43771684,0.4444937,-0.81200534
Tvp23b,-0.4425444,-0.47105768,-0.030534882,-0.58119243,0.12063591,0.38650233,0.0043875454,0.03284141,0.060679972,-0.03468549,0.08240303,0.08319348,-0.10416006,0.021065414,-0.12884697,0.04425874,-0.24968553,0.08077501,-1.1190922
Cox10,-0.04189194,0.12438944,-0.0063650673,0.01435477,0.06831458,-0.179662,-0.009839986,-0.022477891,-0.010747741,-0.009659794,-0.039560743,0.020283198,0.007529286,0.00064652995,0.009501257,-0.013934471,-0.009228008,-0.29091096,0.04608421
Elac2,0.12709773,-0.020768452,-0.063623995,-0.25671017,0.16579682,-0.079781,-0.02078242,0.0071404125,-0.0019657768,-0.07186788,0.035282563,-0.012913796,-0.082004555,0.023217665,-0.109702796,0.052030314,-0.053362884,-0.18053724,-0.55471337
Arhgap44,0.48082042,0.6621265,0.9477103,-0.46180764,-0.65890115,-1.6444368,0.28259012,-0.06171285,-0.96859753,0.0053984304,0.87328476,-1.0926992,0.41494486,0.55894035,-1.3083067,-0.269806,-0.28668943,-0.76143384,-0.05891441
Gas7,0.30232015,0.45377862,0.032862443,-0.7880254,-0.013767769,-0.29102188,-0.17650838,0.013415774,0.083662584,0.020776872,0.004518028,0.18104592,0.06830001,-0.17560846,-1.1529301,0.16798657,-0.27859747,-0.2294146,0.44718084
Stx8,0.089439474,0.2672108,0.01987091,-1.121771,-0.10793438,-0.29708704,0.004000586,0.010638811,-0.15323934,0.015068369,-0.030734995,-0.1360058,0.04294366,-0.11374147,0.029526716,-0.099553324,0.041777905,0.02054507,0.2243501
Myh10,0.40272307,0.24017367,-0.21903157,-0.36967722,0.2806957,-1.4683826,-0.077919245,0.04079351,0.18767124,-0.12866215,0.10289926,0.4208597,0.01118561,0.18255913,-0.20346521,0.28861567,-0.24641849,-1.3128365,0.3015494
Kcnab3,-0.46167594,1.9502144,-0.5713525,-1.1908722,-2.9765458,-1.0871133,0.75668216,0.63333595,-1.941356,-1.4357451,-0.95374805,-0.83913803,2.000447,1.6404645,-1.3353201,-1.2382381,-1.0329094,-1.2065172,-0.90380824
Elp5,-0.031124383,0.050213598,0.00831662,-0.040122416,-0.01931627,0.22416918,0.004226677,-0.008196038,-0.021422552,-0.00089642225,0.0015963869,-0.003343181,-0.12646706,0.0154236015,-0.14320022,-0.024330026,-0.027025605,0.18588719,0.1397895
Psmb6,-0.40747797,-0.91017413,-0.1464303,0.65577596,-0.60484016,0.9010247,-0.115743026,-0.06505477,0.07733005,-0.06828752,-0.032969445,-0.38068613,-0.259387,-0.20791075,-0.039215375,0.33127555,-0.20701303,0.6618782,0.20244737
Rabep1,0.29678196,0.2631059,-0.019382408,-0.111076064,-0.078846276,-0.2321503,-0.017288633,-0.0076703797,0.0125421295,-0.039417237,0.0364754,-0.021612234,0.019482734,0.06888084,-0.66300815,0.017726192,0.021591062,-0.46269032,0.6311927
Nup88,-0.20319885,-0.5062192,0.048217893,-0.5382478,0.77038705,-0.6883518,0.022737743,-0.07805842,0.12608501,0.14859557,-0.17484273,0.23875938,0.044919103,-0.18821116,-0.31700906,0.067267045,-0.22044495,-0.41134837,-0.99659973
Txndc17,-0.12824632,-0.17661807,0.006874781,0.34803674,-0.619689,1.0791069,-0.031103777,-0.16109079,0.018757064,0.014194524,0.25238404,-0.45666882,-0.3385757,-0.4749551,0.24193282,0.09025202,-0.078601725,0.7603115,0.15417881
Ube2g1,-0.30997664,0.7889845,-0.03879827,-1.5690812,-0.5154363,0.09464404,-0.052610423,0.39931923,-0.04894628,-0.8458471,-0.2975924,0.43487367,0.875391,0.05846917,-1.1851021,-0.4801192,-0.65002817,0.33108556,-0.044285264
Ankfy1,-0.16831473,-0.66264385,-0.0026715964,0.053421058,0.6132003,0.044123873,-0.020044547,-0.16895351,0.011368579,-0.05682246,0.082736716,0.015962875,-0.23973776,-0.18784101,0.42861792,-0.15547642,0.1619782,-0.26916784,-0.5419224
Camkk1,-0.0340057,0.26556283,0.602588,-0.53991264,-0.06897151,-1.9241772,0.11746962,0.039361104,-0.24463391,-0.13548063,0.26465654,0.032396547,0.33003494,0.18273336,-1.1683753,0.11899902,-0.21941313,-1.0476494,-0.03927183
X1200014J11Rik,-0.014802165,0.013291287,-0.029636063,0.09002445,-0.011380916,-0.28838652,-0.0038043286,-6.724798e-05,0.017959945,-0.025091304,-0.042208225,0.0061479984,0.045252424,0.002749637,-0.010043584,-0.4532418,0.04207485,0.0068333396,-0.028515076
Aspa,-1.6830252,-1.7473539,-1.5254511,0.093550004,-2.8060014,2.022421,-1.6838679,-1.9591541,-0.3600091,-1.6254033,-1.7591579,-0.74379486,-1.7139446,-1.4836215,-1.2456659,-1.4336106,-1.063429,2.2986157,-0.82367814
Rap1gap2,0.8144668,0.6832661,0.7025623,-0.9173429,-1.2465572,-1.3253864,0.26068273,0.14521596,-0.9977883,-0.20353971,0.6319304,-0.6281535,0.28670472,0.7612504,-1.4822036,-0.5057726,-1.3120303,-0.85648775,0.91848594
Tsr1,-0.03050566,-0.17758192,-0.02021186,-0.27723855,0.055990145,-0.48554298,0.010145239,0.08555568,-0.19266075,-0.019282296,-0.018226711,0.037921343,-0.020498095,0.12400508,0.16447492,-0.22610772,0.32919583,-0.58368313,-1.1377285
Vps53,-0.14652617,-0.42616484,0.14166816,-0.79489785,0.12788397,-0.36635152,0.027737048,0.035156455,-0.16047782,-0.0059525096,-0.04330122,-0.09234948,-0.010360926,0.24066237,-0.1750252,-0.0073648477,0.1621298,-0.12604818,-0.82656586
Gosr1,0.07993462,0.104498476,0.010082554,-0.056123987,-0.060525097,-0.5533049,0.013980338,0.0023822072,-0.052317373,-0.001947511,0.092842184,-0.07160498,-0.026393041,0.0015822584,-0.07634774,0.014307436,-0.009346515,-0.54179686,-0.001987375
Blmh,-0.40306643,0.026374001,-0.024439692,-0.046796538,0.1361106,-0.025622569,-0.012103956,-0.038182445,0.031707115,0.0041598864,-0.16090901,0.24612008,0.027393177,0.011183279,-0.05027197,0.029553456,-0.03681793,-0.24880679,-0.05857613
Ccdc55,-0.11870223,0.040292148,-0.035622552,0.20263751,0.039713737,0.3444538,-0.029730618,-0.029423846,0.015633464,0.024315527,-0.5160657,0.01618668,0.056544688,0.012165514,0.07740725,-0.013874112,-0.02908085,-0.07827848,0.14429274
Supt6,-0.047196835,0.07844186,0.03131027,-0.07321417,-0.020280063,-0.555049,-0.0010737244,0.029731508,-0.02692755,-0.016348828,0.039396867,-0.12811886,0.011006597,-0.012604678,-0.39370048,0.18425944,0.0056612967,-0.43719444,-0.4583402
X2610507B11Rik,0.080605984,0.49985668,-0.070511915,0.20018467,-0.014178924,-0.31299505,-0.1577544,-0.060253188,0.042437732,-0.041482143,0.015871517,0.15672533,-0.12022614,0.0891718,-0.34394956,0.3289296,-0.23309976,-0.036860477,0.67288196
Vtn,-0.541167,-0.7171862,-0.15129413,2.150172,-1.666656,-0.33093777,-0.5333867,-1.0211014,-0.07972242,-0.6150792,-0.42234674,-0.35362872,-0.22782317,0.03967585,-0.1948141,0.26571083,-0.33366755,-0.84313107,0.22979802
Tmem199,-0.26607883,0.12320444,-0.07970237,0.18007587,0.13297805,-0.21671225,-0.0441786,-0.04098207,0.02534137,-0.03890844,-0.08736028,0.050604448,-0.0006612404,-0.107733004,-0.22351444,0.15539804,0.58180404,-0.6097823,-0.34323213
Poldip2,0.10975872,0.39207542,-0.012980647,-0.1769244,-0.50311285,-0.06952196,0.016979158,-0.02834887,-0.052601118,-0.10526883,0.06416863,-0.07047485,0.04728703,0.14022689,-0.024690298,-0.1485691,-0.015341373,0.15840949,0.57405365
Ift20,-0.034198698,-0.021653404,-0.01548529,-0.12815507,-0.062208638,0.14035231,-0.000157962,0.0036044032,0.03755434,-0.032890096,-0.03565419,0.051085092,0.05272326,0.021781594,0.062349774,-0.1687848,-0.23569518,-0.008390328,-0.6911721
Rhot1,-0.11662871,0.04763342,-0.014158872,-0.016552323,-0.023666104,0.07717206,-0.005207884,0.005711445,-0.007328017,0.00396822,-0.033203874,-0.011396289,0.00874066,0.011848779,0.011386575,-0.023926428,0.0225953,0.08720198,0.065728165
Asic2,0.38068953,0.08193784,1.0073504,-0.5560112,-1.6846201,-0.6994099,0.75864893,0.65541345,-1.4351294,-0.6693615,1.3534284,-1.4090025,0.3196609,0.3019844,-1.0753436,-1.0302007,0.29110166,-1.1859751,-0.52295566
Heatr6,-0.60699666,-0.4210018,-0.32604477,-0.007803835,1.0361282,-0.09621392,-0.050488647,0.059478756,0.018051809,0.09562147,-0.38913682,0.082908064,-0.3569177,-0.18883125,0.47643027,0.36286432,0.46885094,-0.4835036,-1.0139714
Ddx52,-0.42996666,-0.4588167,-0.012107146,-0.0067574764,-0.08796389,0.35503188,-0.0072818077,0.020650806,0.018254528,-0.029318077,0.036566384,-0.029930994,0.054902684,0.007925898,0.23853737,-0.14117543,0.05013626,0.17299195,-1.2915376
Tada2a,0.09195522,0.20737572,0.2560471,-1.019922,-0.35526383,-0.36835366,0.11668777,0.23914878,-0.043327395,-0.5124224,-0.47632042,0.07025498,0.8470146,-0.12645714,0.15665464,-0.34286168,-0.8368299,-0.45845973,-0.42295244
Aatf,-0.28317264,-0.02856786,0.018474562,-0.18950218,-0.028291093,0.22809783,0.0066698794,0.03542016,-0.04503882,-0.01022984,-0.040926345,-0.0703,0.24025138,-0.0074049262,0.06532673,-0.12555265,-0.025290053,-0.018678349,-0.853048
Bcas3,-0.027196685,0.010479897,0.03648254,-0.07984049,0.08371432,-0.5777558,0.01655459,-0.015350841,-0.026161188,-0.019631118,-0.010408653,0.24228399,0.08076228,0.055942643,-0.07937811,-0.07171122,-0.3899545,-0.3229778,-0.19519408
Vmp1,-0.768339,0.5642004,-0.17134413,-0.49512637,-0.018822394,0.8029534,0.064019725,0.056099128,-0.4278479,-0.08191532,-0.29364616,0.060215954,0.5132838,0.14295278,-0.80578876,-0.92670923,-0.65715796,1.015976,-1.1572642
Gdpd1,-0.09561951,-0.61219263,0.07091153,-0.2022022,-0.0018174159,-0.11720613,0.015983522,0.022238042,-0.015722638,-0.015176911,0.050444648,0.06872783,-0.28281495,0.04769991,-0.088622116,-0.23736602,0.013524822,0.19976376,-0.17877261
Trim37,0.49338114,0.67766184,-0.028550126,-0.36562198,-0.06970006,-0.92866033,-0.101790786,-0.023384063,0.17493932,0.0874982,-0.18604794,0.1106047,0.14558107,0.34954473,-0.89561063,0.19132167,-0.48235807,-0.6300779,0.93305546
Sept4,-1.5140761,-0.124384485,-0.43138754,-0.0894645,-3.2274656,1.5464158,-0.25580138,-0.86314553,-0.004452786,-1.0187771,-1.7299527,-1.0958599,-0.17811961,0.15979624,-0.49890366,-0.54654676,-1.046722,1.7154909,-1.5526651
Cuedc1,-0.5084031,-0.277114,-0.06976862,1.2070295,-1.635607,0.6945166,-0.11460328,-0.17037489,-0.06150467,-0.4095896,-0.4594059,-0.87942237,-0.29354224,-0.1456209,0.7737062,-0.3350621,0.73496366,-0.048345353,0.5283006
Dgke,0.13698904,0.33059034,0.29529783,-0.4841535,-0.23625022,-1.247058,0.1890949,0.38609627,-0.3264646,-0.29929253,0.039242875,-0.422885,0.35460874,0.43157017,-0.5738319,-0.5043712,0.30088192,-0.97441894,-0.2625443
Utp18,-0.20485763,-0.23427275,-0.06533596,-0.10562305,0.09252561,-0.027873201,-0.041473832,0.10204973,0.088185206,-0.034205135,-0.09418419,0.18501946,-0.02399297,-0.6078616,-0.17369328,0.002870287,-0.02545023,0.007901681,0.31054324
Luc7l3,0.15769164,-0.017117154,-0.22849992,0.23570777,0.08762542,-0.24341583,-0.07804251,-0.028756795,0.016927147,0.17868264,-0.11841792,-0.23105608,0.024114892,-0.40410194,0.24008162,-0.002964598,0.07309888,-0.3775628,0.5110184
Cacna1g,0.2718878,0.7055422,0.39538696,0.12457952,-2.3383045,-1.090159,0.852469,0.59098536,-1.6974624,-1.1564317,1.0588487,-1.0040317,1.1996555,-0.47117105,-0.98996747,-1.6396116,0.66392374,-1.4787927,0.055287644
Lrrc59,-0.113754384,0.19340697,0.19649197,-0.38957918,-1.5883752,0.21216738,0.09813737,-0.01702498,0.17530096,-0.16362171,0.038006272,-0.34385625,0.18910213,0.4178484,-0.25006506,-0.20115936,-0.39502582,-0.08382603,-0.9285659
Pdk2,-0.38598573,0.1312403,-0.037212476,0.28463912,-1.423009,0.98157066,0.024873562,-0.011460312,-0.16451819,-0.10881229,0.13809615,-0.16597132,0.02208182,-0.17246617,-0.67160773,-0.8870538,0.2536144,0.7912112,0.26087233
Kat7,-0.32442197,-0.57950515,-0.02777224,0.35937914,0.18772149,-0.68411964,-0.006913179,-0.017026301,0.011049713,0.0028638502,-0.058921594,-0.03589806,-0.0038664257,-0.10418292,0.19158864,0.018453307,0.0031122563,-0.15735103,-0.78734666
Slc35b1,-0.0764948,-0.3170458,0.01349297,-0.0040504127,-0.014059899,0.30798176,-0.008469039,-0.008801312,0.048182625,-0.031267073,-0.024994826,-0.040822335,-0.004443753,-0.14294201,0.07157595,-0.09278116,0.28864107,0.010012923,0.031223347
Phb,-0.01814669,-0.09142895,-0.012800319,-0.02948706,-0.0076692295,0.24162935,-0.008146424,-0.030360427,-0.0011063664,0.033116836,-0.022551803,0.05637726,-0.059663907,0.055144228,0.008570063,-0.00967993,-0.16812794,0.14986551,-0.0816716
Snf8,-0.0024361364,0.0092242295,-0.01261124,-0.9017148,-0.15504122,0.7040688,0.020865466,0.014753431,-0.06591287,-0.06067629,0.04542347,-0.0056203622,-0.042793233,0.032954063,0.19190215,-0.35899326,-0.00968497,0.24780671,-0.2773556
Atp5g1,0.0028320728,-0.06666943,-0.010094835,0.17915648,-0.07495946,0.3793199,-0.009508104,-0.015620207,-0.0212604,-0.003888858,0.025863748,-0.026228748,-0.039178856,0.014367594,-0.07371233,-0.027378054,-0.02021038,-0.02432596,0.54128414
Pnpo,0.053618915,0.593742,0.093489155,-0.43473333,0.050013967,-0.9686709,0.041989647,-0.059863027,-0.24337973,-0.11592842,0.07741035,-0.061466858,-0.2709456,0.333233,-0.38398927,-0.17197154,0.036102846,-0.40434945,0.23400597
Mrpl45,-0.06713081,-0.054460842,-0.014241448,-0.8691299,0.09899612,-0.092989735,0.00092432904,0.0040836507,-0.0009508968,0.0023366795,-0.022124223,0.024064293,0.0050606723,-0.00080642465,0.008083288,-0.031057244,0.01540464,-0.13012855,-0.92528266
Psmb3,0.022031842,0.03574276,-0.00573053,-0.019031426,-0.25637597,0.5673524,0.004664894,-0.023056293,0.01013133,0.0034301162,0.025093317,-0.021111283,-0.061444547,0.010211297,-0.1650316,0.013682555,-2.2669241e-05,-0.16936862,0.24215373
Pip4k2b,0.28964218,0.25539503,0.1411729,-0.60101914,-0.2844747,-0.82806444,0.044239163,0.046460956,-0.13788278,-0.04801721,0.45537078,-0.056895714,-0.045499183,0.09703653,-0.6666457,-0.42413303,-0.36025706,-0.44289643,0.45577577
Cwc25,0.021386666,-0.05330675,0.03340735,-0.031233903,-0.055836357,0.043006316,0.005183564,0.00355651,-0.007873584,-0.0072561456,-0.004333778,-0.0036579429,-0.0035798158,0.02134176,-0.015853006,-0.015530137,-0.002562579,0.021661248,0.09244637
Ppp1r1b,-1.2579588,-1.6683862,-1.0356553,-2.0484936,2.0720148,-1.143227,-2.1058054,-1.4990505,1.3307554,0.5781935,-1.1709507,1.415313,-1.5256449,-2.0966637,-0.8129319,1.4722773,-1.899018,-0.39725795,-1.6875302
Med24,-0.21520661,-0.42200565,0.115804754,-0.5208485,0.3337323,-0.7395007,0.020336553,0.07275686,-0.12041047,0.03024572,-0.036482457,-7.7984005e-05,-0.2631254,-0.009937116,-0.35402486,-0.19430543,-0.29775065,-0.62885845,0.18087786
Top2a,-1.1503313,-1.2731658,-1.5429904,1.7035624,-2.043755,1.6312069,-1.4787694,-1.3503152,-0.39889258,-1.3952262,-1.254204,-0.6697375,-1.5638545,-1.204893,2.522419,-0.8223326,-0.8604193,-0.51012725,-1.1858548
Smarce1,-0.21464644,0.01058669,-0.11984157,-0.017425796,0.10849403,0.14275074,-0.008497285,0.0014083369,-0.009057243,-0.005488395,-0.019353963,0.00704682,0.022523247,-0.042171884,0.17262143,-0.008923971,-0.014653746,-0.078108884,-1.0160189
A830036E02Rik,-0.05321807,1.5538675,-1.2981997,-0.87442446,-2.1430788,-1.7819834,0.22037569,1.1791393,-1.4056188,-0.51460564,-0.041990608,-1.0040326,1.8409297,-0.32764715,-0.8176778,-1.2006798,-2.1040359,-1.091166,-0.7893321
Acly,-0.87569094,-1.1257123,0.086900525,-0.5032281,0.083248466,1.0687652,-0.047454197,-0.07468626,0.10915771,-0.061258692,0.34903523,0.25248766,-0.6985346,-0.24971607,-0.34920263,0.4979394,-0.41842306,0.87547594,-1.3435568
Cnp,-1.532954,-1.3633543,-0.8289458,-0.9067607,-2.1738265,1.6085956,-1.7441149,-1.5867363,0.39723495,-1.1339021,-1.5272411,-0.950815,-1.8065743,-1.5605209,-1.228017,-0.2467004,-1.4386581,1.7868797,0.006388613
Dnajc7,-0.0763936,-0.1327486,-0.077997155,-0.017148396,0.60800827,-0.3426057,-0.14334801,-0.07156754,0.3686695,0.32745147,-0.24333617,0.49677956,-0.16279094,-0.63163537,0.014683398,0.30260676,0.13375922,-0.47904888,-0.36176684
Kat2a,-0.05391538,-0.95223635,-0.0049713817,-0.67484444,0.42073834,-0.37569368,-0.007857031,0.08328585,0.01196185,0.040233687,-0.30892274,0.23329835,0.08413065,-0.22837853,-0.7833417,0.052747786,0.057287462,-0.4506968,-0.07687633
Atp6v0a1,0.27863428,-0.19416614,0.30689096,-0.45657447,-0.10402481,-1.0398805,0.20497374,0.14954263,-0.17859499,0.056062505,0.25720835,-0.20668201,-0.13892578,0.39275798,-0.43207657,-0.29293782,0.0031052062,-0.6398668,-0.49058974
Mlx,-0.033298593,0.27481487,0.10869313,0.1306643,-0.6467406,-0.54622257,0.005037933,0.05296757,-0.3290568,-0.049496718,0.022176981,-0.21173148,-0.009168773,0.038428597,-0.25051966,0.00036763746,0.3521426,-0.6132119,-0.35530496
Tubg1,0.41309103,0.4753508,0.27553195,-1.4605515,-1.5640488,0.116515376,0.13585217,-0.080215044,-0.105169825,-0.043949626,1.3851988e-05,-0.5194937,-0.07469198,0.1668735,-0.5412684,0.05967918,-0.23518859,0.5246246,-0.29729134
Ezh1,0.0005731896,-0.06275753,0.0035402807,-0.0079891505,-0.0045595253,-0.07612609,0.0003944302,-0.003248292,0.0055840816,-0.0038653787,-0.007688269,0.009380075,0.0010125978,-0.013449795,0.000121414094,0.002480597,-0.0055061127,-0.04146027,-0.011065341
Dhx8,-0.6784086,0.031588983,-0.023215983,-0.3360816,0.104002625,-0.23711412,-0.008156188,0.01889876,-0.0019994827,0.042554103,-0.007944782,0.07855112,0.07886121,0.062647246,-0.05038031,-0.13182646,-0.06671164,-0.2464482,-0.9293442
Mpp2,0.28036025,0.3284592,0.1888176,-0.29989552,-0.17304035,-0.06777094,0.042543072,0.068380766,-1.2213621,-0.07520731,0.3409928,-0.25925857,0.034709066,-0.19398195,-0.54132706,-0.23979284,-0.6823656,0.11323297,0.4484309
Lsm12,0.16323224,0.11320238,-0.0024310742,-0.010214907,-0.47928303,0.1187963,0.02937314,0.008555939,-0.028804362,-0.08741353,0.16333516,-0.18881929,0.029734958,0.08239509,-0.0741304,-0.37407777,-0.07584674,-0.27388886,0.35727382
Ubtf,0.08029232,-0.091554455,-0.070209995,-0.24809524,0.22141205,-0.28283617,-0.03510245,0.018715713,0.046369437,-0.028672293,-0.0120567875,0.42727762,0.040663965,-0.12290481,0.062009517,0.36506125,-0.25197884,-0.35673246,-0.21669813
Ccdc43,-0.024750872,0.18816917,0.026480759,-0.20635489,0.08811619,-0.045509852,0.0011872029,0.018390987,-0.3154443,-0.042704996,-0.025277263,-0.020164,-0.076341465,0.13044207,-0.107338145,-0.19288094,-0.30700397,-0.24467239,-0.3891308
Gfap,-1.0174516,-1.2348725,-1.3728849,1.8390529,-3.1025279,1.8248531,-1.7381322,-1.9892839,-1.040758,-0.89827913,-0.9487827,-1.1529725,-1.240232,-1.2214191,0.34507707,-0.5350925,-0.11273301,0.47116232,0.6719314
Nsf,0.40070722,0.37489727,-0.02629691,-0.39512867,-0.047284182,-1.3018898,0.038817473,0.09881874,-0.1818437,-0.06477889,0.46633422,-0.17726833,0.018934786,0.24161081,-0.88746905,0.31712508,0.04450534,-1.0670248,0.3026083
Cdc27,-0.17134435,0.10366985,0.352316,-0.2011962,-0.33247948,-0.39702675,0.10936697,0.16016461,-0.34424374,-0.1837404,0.21176352,-0.107565165,-0.062733814,0.6659372,0.29811934,-0.38363773,0.044760346,-1.0529041,-0.97316676
Myl4,0.6086365,1.4575098,1.6483293,-1.2889004,-3.54047,-1.8024247,1.2080532,-0.30903617,-1.5813633,-1.2061412,0.020787654,-1.0939541,-0.3439206,2.2415624,-1.0992674,-0.95382833,-1.2203671,-0.8452935,-0.42862442
Tlk2,-0.10346154,-0.14250632,-0.0034424958,0.0123678595,0.025002364,0.11796641,-0.009929868,-0.0023599549,0.050756924,0.019710533,-0.050955176,-0.016113529,0.0044998173,-0.019598013,0.013647913,-0.029721646,0.03005557,0.19980907,-0.22842413
Ccdc47,-0.0011683734,-0.10143134,0.035595823,-0.11107026,-0.04682457,0.01316737,0.02115547,0.0010401922,-0.018011866,-0.034290228,0.07818401,0.00821991,-0.025662385,-0.014228249,-0.111808464,-0.003999492,0.06309938,0.047291465,-0.5111146
Ddx42,-0.028367972,0.2653059,0.0027287614,-0.27440512,0.0035612937,-0.41185582,0.0061466508,-0.004204574,-0.049550787,0.013419663,0.104117796,-0.011762859,0.008545075,0.12414406,0.014276127,-0.07083693,-0.57745993,-0.37427,-0.20546147
Psmc5,0.4258334,0.12568435,0.0047045117,-0.1271489,-1.0099295,-0.008018617,0.049018696,0.035703544,-0.07065618,-0.527868,0.054034546,-0.12686332,-0.040856104,0.16653195,-1.041273,-0.07936199,0.034648027,-0.18781209,0.6431813
Tex2,0.52397466,0.4912724,0.085225835,-0.91456765,-0.54673386,-1.0537597,0.0717608,0.11250801,-0.16253965,0.0143009145,0.4254981,-0.2674272,-0.029274816,-0.18955632,-0.648771,0.17237207,-0.13003132,-0.9475697,0.07007688
Cep95,-0.3992834,-0.041360095,-0.24729371,0.35435542,0.44158542,0.33474702,0.013160749,-0.1819682,-0.10290949,-0.0094140265,-0.21253942,-0.08298223,0.3108226,-0.08051364,0.44911247,0.0016354752,-0.6813001,0.20163219,-1.3075514
Nol11,-0.25100937,-0.018677456,-0.008411562,-0.027003495,0.034962963,0.041268934,-0.0005735613,-0.0029756485,0.025734864,0.004889123,-0.043507155,0.0352561,-0.008059419,-0.03411898,-0.020537626,-0.020401167,0.09246698,0.0012292634,-1.4039944
Psmd12,-0.0059481463,-0.07358402,0.01577127,0.179779,-0.029504059,0.045973826,0.001381494,-0.0055737756,-0.09276662,-0.011794949,-0.09933658,-0.16017567,-0.01621672,0.1000272,-0.007862304,-0.097205155,0.007665787,-0.047266696,0.13525964
Prkca,0.2077466,0.5648787,-1.0435064,0.22123039,-0.12490437,-0.7123963,-0.1474254,0.61799455,-0.22114678,-0.114284225,-0.021445826,-0.15524986,0.5890081,-0.39754796,-0.4096256,0.08739049,0.43161526,-1.1317874,0.1265347
Cep112,-0.7071793,-1.6421485,0.33313718,0.8398587,0.7459214,-0.40637013,0.04521646,-0.21058393,-0.23125046,0.20121329,-0.8535946,-0.59914863,-0.94896317,-0.90414417,0.48929012,0.42468542,1.1619914,-0.74008894,-0.77866966
Axin2,0.022519978,-0.28334436,-0.08944134,0.8704815,-0.02614652,-0.2605862,-0.001040605,-0.020391619,-0.6453576,0.011379644,0.10347195,0.34990346,-0.9980754,-0.098907016,0.421931,-0.5454412,-4.1911928e-05,-0.6335222,-0.10435514
Rgs9,-1.9076812,-2.3572915,-1.7150209,-1.2163706,2.434032,-1.2212044,-1.9398036,-2.4385538,1.3816458,1.0106646,-1.4412906,1.5265359,-2.3862271,-2.182681,-0.20896707,1.4924163,-2.105746,-0.8859195,-1.6480012
Abca5,0.2281295,0.3016066,-0.1239601,-0.96546835,-0.05128573,-0.92178863,0.44075918,0.3633718,-0.631535,0.19517694,-0.07386366,-0.37944993,0.5510332,0.24594013,0.031710736,-1.198317,0.055397924,-0.97965735,-0.40474725
Sdk2,0.22506714,-1.2918296,1.4020904,0.22276889,-0.6502956,-0.52252257,0.45692205,-1.2033052,-0.6749241,0.027137792,1.0299107,-1.2594532,-2.1757927,0.30093598,0.37549514,-0.7901673,0.37037814,-1.0664306,0.20651728
Ict1,0.077698946,0.08259885,-0.0016800276,-0.2558113,0.037669122,-0.041085534,0.0019655048,0.0034862612,-0.11619093,-0.0030170856,-0.046913628,-0.10666128,0.041627623,-0.011798698,0.06333788,-0.04634564,-0.6181886,0.18250802,-0.2973799
Nup85,-0.011622341,0.09980897,0.013634032,-0.26650745,0.015693657,-0.32644734,0.004959425,-0.086597376,0.09789234,-0.008876906,-0.006407678,0.017800964,-0.022342093,-0.058131248,-0.0060165534,0.039654195,-0.009501401,-0.2502129,0.13746257
Mrps7,-0.48112193,-1.1600529,-0.5641954,-1.0198346,0.5465609,1.0242082,-0.06670412,0.13973002,0.18882845,-0.033760384,-0.6463944,-0.32971522,-0.28092125,-0.46952832,-0.06877974,0.19922967,0.77811015,0.3467376,-0.8138659
Sap30bp,-0.42891777,0.014241456,-0.056729645,-0.5161463,0.18156628,-0.043492127,-0.0036421618,-0.005033588,0.19783717,0.026668673,-0.30392784,0.123683065,0.10557935,0.04120234,-0.10539294,0.1534635,-0.21860264,-0.02725592,-0.7342581
Exoc7,-0.026814958,-0.06764226,0.006437254,-0.041135553,0.015215613,-0.308411,0.0011853923,0.021296773,-0.03654268,-0.007916997,-0.012680694,-0.0033475615,0.0049112043,0.0021367,0.03653513,-0.028646395,0.06528797,-0.22734953,0.15081456
Prpsap1,-0.74673647,-0.47553873,-0.05928262,0.93461716,0.052643567,0.4300409,-0.013541018,-0.023783969,-0.24943829,-0.047838666,-0.009553354,-0.13997337,0.013979257,-0.028056368,-0.0124765625,0.072437,-0.0699304,0.06488129,0.24281695
Sec14l1,-0.63668865,0.2816972,-0.5355281,-0.19158046,0.6203392,-0.77028084,-0.05532209,0.22108282,0.3582782,-0.22810745,-0.42717186,0.71421665,0.109661795,0.30546993,-0.67392504,0.43803224,-0.050203823,-0.73653007,-1.246846
Cyth1,0.017898869,0.033540245,-0.3602088,0.24907097,-0.40816444,0.800602,-0.0048620887,0.035243243,-0.30003408,-0.008351114,-0.53445953,-0.23337728,0.120914,-0.25000492,0.104950584,-0.27622196,0.11694289,0.68016887,0.0015191529
Rbfox3,0.36824414,0.6225024,-0.14966802,-0.29775813,0.17877412,-1.3398423,-0.24687867,-0.00085620425,0.14605442,0.24852988,-0.22791883,0.02139216,0.38745326,0.09685826,-0.9681186,0.5763231,-0.21074337,-0.8513893,0.6509115
Gaa,0.4528161,-1.1804808,-0.23895168,0.531548,0.64627266,-0.74452597,0.00048988115,-0.69502234,0.27068228,0.6038995,-0.100057855,-0.059389118,-1.668586,-0.96483845,0.061413698,-0.17731412,1.179939,-0.21452121,-0.4667545
Eif4a3,-0.9178383,-0.28227732,-0.030177174,0.18056405,0.24981524,0.4347969,0.03044854,-0.35413104,0.037778813,-0.00896316,-0.20274651,0.13197017,-0.45060045,0.00405511,0.5000985,0.10299301,-0.008181207,-0.19954129,-0.59847766
Azi1,-0.29410034,0.5950356,0.029321147,-0.025672624,-1.1361604,-0.15957764,0.062095616,0.06874489,-0.4578307,-0.1867325,-0.031912025,-0.1949664,0.5596717,0.26544806,0.36328664,0.009177167,0.37730208,-0.37698793,-0.4933383
Hgs,0.38722676,0.40063757,0.08518094,-0.8993781,-0.5986287,-0.18364993,0.07044874,0.23780607,-0.6087511,-0.26639506,0.22895627,-0.26831332,-0.10260419,0.37075746,-0.60412604,-0.78347236,-0.4245319,0.020157093,0.6406219
Mrpl12,0.016829295,0.06856157,-0.0024169046,-0.031980876,-0.06384578,-0.020909242,-0.00048686194,-0.0075131264,0.017222356,0.018586488,-0.009886763,-0.024403661,0.008189117,-0.018693246,-0.036962736,0.0689876,-0.047880266,-0.11334282,0.1893006
Lrrc45,-0.7011983,0.11395691,-0.05540273,-0.10918532,0.18069488,-0.4270518,0.028648062,0.06231926,-0.15443893,-0.033650868,-0.43084246,0.004000788,-0.012463485,0.15568684,0.6363601,-0.024987452,0.18686195,-0.6816705,-1.5737543
Ccdc57,-0.13774514,-0.50549704,-0.5199423,-0.46228078,1.1985536,-1.0931212,0.48428404,0.5499175,-0.87084967,-0.11676027,-0.2973753,-0.49374968,0.038649336,-0.6642452,0.8837796,-0.5605391,0.6074203,-0.7510996,-0.42788216
Tbcd,-0.07417535,-0.100534834,0.037981547,-0.87893105,0.03134453,-0.10186846,-0.0035369005,0.060140375,0.007666608,-0.013803307,-0.037634123,-0.002038199,0.07374731,-0.0031015845,0.028213086,-0.001649994,-0.4015851,0.09162311,-0.47604758
Rab10,0.07240913,0.22657256,-0.1281078,-0.70677775,-0.23417167,0.7072851,-0.027626347,0.032598738,-0.15780275,0.0070353146,0.10899345,-0.12902604,0.17303342,0.26250532,-0.4079005,0.2401725,-0.72579056,0.51137286,-0.2968094
Efr3b,0.008564533,0.24381165,-0.018553115,-0.35343722,-0.27680975,-0.5929764,0.00568333,0.0012514817,0.06593481,-0.08373592,0.017745113,0.16787241,0.044285845,0.13219264,-0.08583241,0.037784528,-0.08807672,-0.98938686,0.26516944
Itsn2,-0.16323811,-0.16744626,-0.005977711,-0.03139722,0.07090989,-0.0076554245,-0.003806913,0.0029841212,0.047924086,0.06881072,0.03555716,-0.025098888,-0.0043444075,-0.15642846,0.04798761,-0.05625324,-0.17465393,0.19273156,-0.7173947
Atad2b,-0.70051455,-0.44399506,-0.33687764,0.54776657,0.19241065,0.5048393,-0.15358852,-0.08445802,0.23084295,0.09503808,-1.2058921,-0.36274418,0.030678805,-0.5924161,0.7621541,-0.6534595,0.24014576,0.6523044,0.19685172
Smc6,-0.0070073656,0.067746535,0.0067006713,-0.034900874,-0.009853955,0.13989127,0.0023904755,0.00013480245,-0.07176046,0.000982224,-0.018829245,-0.020612868,0.012446164,-4.0905597e-06,0.018784273,-0.02801544,0.0033061935,-0.10017897,-0.30404678
Fam49a,0.08462991,-0.027648937,0.44729245,-1.2130152,0.07834488,-1.3917776,0.2125007,0.038842093,0.055242192,0.42575225,0.491084,-0.09949386,0.15300465,0.25895873,-0.42313775,-0.42150235,-0.88862216,-0.7973538,-0.8790125
Ddx1,0.019972058,-0.069057666,0.016031947,-0.5732408,-0.046660293,0.29517335,0.020758832,0.029312508,-0.12822594,-0.0009324133,0.01610351,-0.0632391,0.09384801,0.09094582,-0.06526086,-0.2862515,-0.11669052,0.07115132,-0.6664509
Nbas,-0.3382549,-0.18732175,0.010053456,-0.41819888,-0.121811345,0.5014083,0.00934654,0.008805917,0.096555725,-0.08414143,-0.5812358,-0.02546263,-0.06384127,0.081059456,0.14952879,-0.039686106,-0.12640658,0.7133497,0.28775367
Lpin1,-0.41111395,-0.49732733,-0.09749003,0.76662755,0.35541767,-0.12393163,-0.02582363,-0.12007459,-0.14131571,0.052660577,-0.5929781,-0.17023194,0.07069644,-0.13156796,0.9633127,0.026036143,0.124953024,-0.6615652,-0.3149593
Pdia6,-0.020466901,-0.030037005,-0.00813006,-0.07217253,0.014630871,0.20479184,-0.00047577685,0.0030464893,-0.02339104,-0.00015734689,0.014331463,-0.008672045,-0.013086347,-0.033588607,0.020270059,-0.0019615043,-0.0026562547,0.027724348,-0.12744446
Nol10,0.013051743,0.19369179,0.02494346,-0.5671352,0.07180295,-0.5325233,0.006547235,0.012809006,-0.1373634,-0.07478465,0.03843953,0.033866726,-0.037267823,0.014231483,-0.1351083,-0.39879334,-0.14744537,-0.26373777,0.35962278
Itgb1bp1,-0.55763954,-0.525039,-0.81502247,-1.2079556,2.0991132,-0.7052584,-0.55208457,-0.34859833,0.61817384,0.5553087,-0.4010956,1.3721434,-0.281461,-0.10555428,-0.0013092522,-0.45459324,-1.0938921,-0.7237108,-0.20901683
Cpsf3,-0.5638427,-0.46250248,-0.23049043,-1.4528388,1.2471054,0.15018696,-0.3389507,-0.035416763,0.57854986,0.76193255,-0.5825092,0.91554904,0.07899089,-0.52205473,-0.09409985,-0.079916365,-0.2220702,-0.36847934,-1.2978375
Taf1b,-0.50789654,-0.18517995,0.020683516,-0.041053038,0.7207312,-0.6647891,-0.023013653,-0.026274947,0.07127019,-0.0059176553,-0.5157774,-0.026252761,0.40008253,-0.22053301,0.2897385,0.032434113,-0.047418945,-0.454895,-1.3291017
Kidins220,0.16815552,-0.41393635,0.021427667,-0.16058853,0.1792179,-0.43049368,0.014183853,-0.03720513,-0.018475184,-0.005108066,0.17275195,0.054395992,-0.3313259,-0.059211943,0.08117027,-0.032641336,0.19239691,-0.5681646,-0.37140957
Id2,0.07392725,0.49105394,0.8586051,0.3251353,-3.9993753,0.026470996,0.38281104,0.40348646,-0.6268742,-1.3061199,0.8057392,-1.5033561,0.38886255,0.87614655,-1.3078752,-0.778975,-1.8455555,-0.5609556,0.965154
Myt1l,0.30279824,0.13609457,0.045727834,-0.36834198,0.47656882,-1.3539906,-0.23722963,-0.1648372,0.42370364,0.14677359,0.20779714,0.33135954,-0.2530109,-0.10445115,-0.7702916,0.7511684,0.005843617,-0.7180481,0.12881754
Lamb1,-0.13396391,-1.882953,-1.5496513,0.2997687,1.859324,-1.0166211,-0.35626402,0.0118137775,0.7057181,0.98664117,-0.4974253,0.75119877,-1.5749308,-1.3938901,0.45293942,-0.09124829,0.44945204,-0.65764797,-1.4661227
Dld,0.10733556,0.03785232,0.04875119,-0.5594425,0.051456057,-0.85353154,0.0050259004,0.02221135,-0.042763956,-0.014697833,-0.0485259,0.007081699,0.01285698,0.0021648693,-0.029626103,-0.04719258,-0.46770984,-0.3827501,-0.05178437
Cbll1,0.08072428,-0.15868223,-0.008273918,-0.04997532,-0.028339528,-0.20709097,0.0037312806,-0.0041976892,0.0071606454,-0.00933793,0.020807173,0.008212916,-0.060937583,0.09442121,0.091610506,-0.009671495,-0.03480924,-0.16254102,-0.51210886
Bcap29,0.3211975,-0.24481502,0.2575906,0.014105494,-0.3951867,-0.12811704,0.12869841,-0.008042882,-0.34303942,-0.25709254,-0.096785784,-0.18432614,-0.3976019,0.5019076,-0.22573584,-0.71690375,0.44887638,-0.21499112,0.043278664
Cog5,-0.049750283,-0.02990325,-0.06925487,-0.059483923,0.09016453,0.0028117117,-0.016189942,0.03420269,-0.07252148,-0.016669678,-0.009131644,-0.0045710066,-0.0013904449,-0.02520386,0.005725182,-0.069114,0.07600588,-0.21694237,-0.13888247
Prkar2b,-0.1623999,-0.7238997,0.10390442,-1.2449753,1.6741942,-1.1247193,-0.5344511,-0.114054784,0.49966794,0.7803515,-0.06887778,0.74740493,-0.6906732,-0.6085774,-0.29781476,0.39561564,0.27948287,-0.5897018,-1.0880482
Nampt,-0.12985142,-0.2760265,0.035470594,0.007358276,0.035915647,0.20556709,-0.0023020024,0.0061741928,0.04911386,0.010728775,-0.0475965,-0.005075129,-0.13968205,0.018373162,-0.15188062,-0.08189707,-0.36950797,0.30018163,-0.055894345
F730043M19Rik,0.3014579,0.47981963,-0.8860802,0.31156752,-1.323242,-0.9000343,0.29096103,0.95116144,-0.47440562,-1.2420446,0.5462818,-0.47903344,0.459771,0.40463707,-0.89103395,0.01566309,-0.042028088,-1.2632492,0.44276705
Twistnb,-0.029340222,-0.53235877,0.023880547,-0.582426,0.0071707554,0.24430981,0.020080263,0.043955587,-0.032480735,0.0035881193,-0.008115022,-0.20846367,0.0114698745,0.021172663,-0.09846866,-0.023904322,0.0960261,-0.60521597,-1.3555608
Hdac9,0.7091981,-0.20770267,0.041826732,0.36983824,-1.5377325,-0.397731,0.29452345,1.0991905,-1.0760202,-0.6383481,0.40247533,-1.1942711,-0.24192154,-1.0599124,0.06713976,-1.0650874,1.1277404,-0.49529454,-0.44110206
Snx13,-0.11266882,0.011717904,0.16308744,-0.14595242,-0.23255591,-0.4157974,0.24906103,0.09851385,-0.241068,-0.15503731,0.13701668,0.06548174,0.3149028,0.20502362,-0.02964695,-0.88750726,-0.06452286,-0.45756897,-1.4322058
Bzw2,0.17683466,-0.18307061,-0.48643154,-0.20903803,0.7003635,0.110647134,-0.17525135,-0.10778228,0.06423757,-0.11730672,0.085924365,0.32907382,-0.42479327,-0.71912384,0.006061035,0.7085505,0.34115028,-0.3377011,-0.21612896
Ankmy2,0.018283488,-0.22763531,-0.01752456,-0.17912246,0.06809907,-0.33467332,-0.0109547,0.009063062,0.02934298,0.004593001,0.0019265957,0.0400861,-0.0054999674,0.0034524826,-0.06934966,-0.035895314,0.009085047,-0.40332234,-0.43848065
Dgkb,-0.24500386,-0.72744554,-1.4273535,-0.33761537,1.5306044,-1.2194927,-1.3349801,-0.4084203,0.93436694,0.83547944,-0.92038643,0.87438214,-1.7451154,-1.5253569,-0.4023264,1.03634,0.29265985,-0.86224496,-0.5581741
Ifrd1,-0.113289125,0.33549997,-0.035776664,-0.010933781,-0.23895442,0.13576771,0.011413773,0.09548769,-0.058585834,-0.031775698,-0.1495495,0.0010618705,0.021400988,0.1317863,0.112728044,-0.13360201,0.03983604,-0.44389254,0.11889378
Nrcam,0.63717854,0.32385054,0.15097517,-0.24625058,-0.84463316,-0.95925677,0.18881713,0.19566937,-0.40846014,-0.581737,0.56670284,-0.28187492,0.26256073,0.005415396,-0.8083914,-0.43268102,-0.0022049118,-0.94802636,0.7251038
Scfd1,0.0058261272,-0.19972794,0.049139123,-0.9397133,0.11396886,-0.038008153,0.0091871815,-0.019945934,-0.05469109,0.00997917,0.017602995,-0.07346572,0.026363662,0.061187055,0.03801488,-0.03718075,0.010508542,-0.2442391,-0.49576673
Coch,-1.5833213,0.22854821,-1.5019609,-0.5644953,1.2809854,-0.7944291,-0.84702736,0.019662555,1.4055429,-1.1193286,-0.8064201,2.0229182,0.5733502,-0.37236083,-1.0977665,0.05896213,-1.6508795,-0.32471862,-1.0488747
Ap4s1,0.15774871,-0.31283203,-0.1545915,-0.32611048,0.34071136,-0.43969193,-0.13652843,0.008057623,0.27284804,0.08373765,-0.71645653,-0.074024744,0.06625045,-0.83038557,-0.76208884,0.2792306,-0.7742895,-0.14623097,1.2492217
Hectd1,-0.0035167402,0.00014900224,0.019143932,0.08252174,0.006209268,-0.3726271,-0.009716906,-0.020413179,-0.001576858,0.099088855,-0.019747766,0.021930108,-0.018749323,0.00906582,0.03660181,-0.009276113,-0.011021077,-0.3756049,0.13370483
Eapp,-0.011241872,0.024474492,-0.012412893,0.07731127,-0.036491416,0.3693446,-0.03164017,-0.0045729447,0.0004913194,-0.007732832,0.0057567065,0.0056207115,-0.008545478,-0.025474284,-0.0983629,0.033372305,0.02785415,0.09476343,0.0853649
Snx6,-0.5086758,-0.44211856,0.058033094,0.22412966,-0.097353294,1.0137254,-0.007349091,-0.004167035,-0.4432393,-0.16633114,0.08728418,-0.3998638,-0.3622272,0.11059118,0.31736696,-0.6049274,-0.07909879,0.70171905,-0.800809
Baz1a,-1.4513634,-1.3546588,-1.1762462,0.20184465,1.3905661,0.8280817,-1.0863346,-0.14933112,0.6448242,-0.25191626,-0.8582584,0.8876903,-0.8891335,-1.047644,0.59429824,1.054339,-0.19159333,0.29894453,-0.84671944
Srp54a,-0.2233373,-0.13770126,0.093233675,0.11492995,-0.025887035,-0.19039,0.031739235,0.06337651,-0.5087177,0.0013164994,0.26680025,0.044090863,0.04811087,-0.00093307975,-0.18826903,-0.16944715,-0.0474062,0.07934871,-1.4484318
Fam177a,0.16427726,-0.18780154,0.24358259,-0.70814776,-2.0544295,1.3122524,0.2614298,-0.12222265,-0.9075669,-1.074911,0.34965235,-0.6017078,-0.5188096,0.12352784,-0.14085016,-0.90333253,-0.4025406,1.3181173,-0.8390689
Srp54b,-0.027310997,-0.18992214,0.07247548,0.041031014,-0.05574078,-0.18515247,0.021294717,0.030496567,-0.0603402,-0.0037972874,0.14847948,0.0034876592,0.014707212,-0.078439616,-0.21382919,-0.015066355,-0.01223582,0.025327513,-1.0639912
X1700047I17Rik2,0.16009608,-0.05139561,0.29015738,-0.639878,-1.8967572,1.3491005,0.32496902,-0.08637576,-1.2620585,-0.98988694,0.15112515,-0.96423376,-0.30275393,0.12076716,-0.43452126,-1.3870354,0.15582567,1.2669183,-0.79716486
Psma6,-0.0958581,-0.073964834,0.009635344,-0.083388396,-0.11624121,0.49611083,-0.0031089643,-0.014951839,0.014241736,0.021435987,0.0103162695,0.0062479684,-0.015311895,0.13976038,-0.018017918,-0.07708643,0.04563048,-0.010343279,-0.5433953
Nfkbia,-1.3389218,-0.0546837,-0.5156819,1.4150593,-0.5313362,0.40158474,-0.67078704,-0.82275134,0.10114444,0.28820294,-0.27886826,-0.3288104,0.11338741,-0.26461542,0.054816198,0.5224782,-0.3497155,0.11307617,0.002548755
Brms1l,0.0108140595,0.059142876,0.013090417,-1.0924056,0.0037847,-0.1387601,0.04486415,0.027580207,-0.081549965,-0.10190178,-0.08010261,0.012467231,0.17962459,0.14512815,-0.07046869,-0.15397982,-0.042330045,-0.32147583,-0.7553219
Mbip,-0.12707634,0.08044503,-0.03504352,-0.008143465,0.10892735,0.116617456,-0.003393573,-0.0024600078,-0.038720276,0.00046903687,-0.007577623,0.02081735,0.036365535,0.025882257,0.087674014,-0.14388831,-0.008884098,-0.3288136,-0.34288016
Sec23a,0.5061755,-0.087560646,0.16036144,-1.0193535,-0.815295,-0.79474485,0.14115912,0.1348619,0.083548196,0.092310466,0.23060714,-0.269496,-0.5228862,0.3900707,-0.6391653,-0.1594862,-0.43453613,-0.7234541,-0.0026635553
Trappc6b,0.1836745,-0.1340175,0.106962435,-0.33100224,0.11364189,-0.9648102,0.03329771,0.05062261,-0.3639676,-0.10685233,0.040787447,0.003459976,-0.035499822,-0.13705038,-0.42574772,0.1306185,-0.5562303,-1.0409874,-0.13161077
Pnn,-0.2984395,-0.24226397,-0.071344115,-0.08904145,0.15537047,0.011195935,0.0019172542,0.036476154,0.012850914,0.02854058,-0.19031672,0.0094838245,0.03451481,-0.06177901,0.21189997,-0.1925383,0.08449667,-0.2518209,-0.35299498
Ctage5,-0.47236794,-0.026007965,-0.019692494,0.30155188,-0.00959021,0.012920309,-0.009397372,0.043191325,-0.033290055,-0.08681806,-0.15121791,0.039154403,0.10326887,-0.0869208,0.0762494,-0.06739494,-0.044387747,0.10464746,-0.3705241
Fam179b,-0.013884872,0.022775829,-0.017562771,-0.01876384,0.075193346,-0.8827429,0.0035508617,0.010233495,-0.042608995,0.002642469,0.0012868026,0.022773718,0.11112395,-0.16867559,-0.008983164,-0.019386102,0.011329218,-0.965342,0.048623413
Fkbp3,0.024970997,0.40769812,0.22383867,-0.3077664,-0.41408855,-0.20044218,0.099207774,0.03158808,-0.36409476,-0.22798909,0.24327701,-0.20279026,0.21577577,0.5371856,-0.104488626,-0.7683321,-0.25111425,-0.2971132,0.13516332
Fancm,-0.021469535,0.07353886,-0.005443051,-0.23934655,-0.047495767,-0.015297304,-0.0017584877,0.063923664,-0.30910698,-0.084673285,0.07741233,-0.059608895,0.4535107,-0.076688334,-0.20811503,-0.018402211,-0.079077296,0.07830213,-0.2921604
Nemf,-0.3552183,-0.7521732,-0.02681473,0.12157357,0.09636338,-0.23272689,0.0013468569,0.011681183,0.06559024,0.11228059,-0.11432863,-6.034677e-05,0.008710813,-0.15991381,0.020381542,0.03306038,0.071781255,-0.47953033,-0.31248492
L2hgdh,-0.47452763,0.18933864,0.13946588,0.14191628,-1.0038937,-0.67749065,-0.007527973,0.44530824,-0.21847032,-0.30852216,0.6097036,-0.43132713,0.6387238,-0.14789747,-0.37677854,-0.3684008,0.48628497,-0.577248,-0.9709198
Cdkl1,-0.09626688,0.070998915,-0.003418129,-0.44504333,-0.1985281,-1.6252757,0.06284205,0.2271674,0.050828155,-0.021021439,0.05880855,-0.68852806,0.2782119,-0.89481187,-0.27142394,-0.052755576,0.09625414,-0.95387757,0.24108823
Atl1,0.0381059,0.2768591,0.29113734,-1.0955412,-0.12536007,-1.0876707,0.21896146,0.2600785,-0.19443418,0.019140858,0.48045534,-0.23940037,0.25385094,0.23605537,-0.513816,-0.58511484,-0.19011426,-0.6622229,-0.84285885
Tmx1,-0.32070237,-0.7482798,-0.002945384,0.19018297,0.16315822,0.12989172,0.0620925,-0.024231456,-0.20987122,0.01538501,-0.055321116,-0.66725314,-0.13524681,0.018920084,0.25326502,-0.1443443,0.10358606,-0.031363413,-0.5649169
Arid4a,0.057992067,-0.07433256,-0.08619173,-0.0039162035,0.19443475,-0.60787135,-0.08402619,-0.009579085,0.0962452,0.38998824,-0.00932061,-0.31356478,0.02229364,-0.4591886,-0.013728033,0.37785137,0.09260436,-0.7335092,0.21448427
Timm9,-0.2891736,-0.736142,0.14290121,-1.2611113,0.8056115,-0.48172072,0.20335943,0.30271873,-0.5229983,-0.77614164,-0.27752706,0.78641456,0.31705454,0.4093532,-0.65296453,-0.24278454,-0.22187565,-0.54210794,-1.1288303
X2700049A03Rik,-0.6234382,-0.72298574,-0.022154242,0.2623146,0.24473268,-0.13746391,-0.024631258,0.013374462,0.010058295,0.035777897,-0.160966,-0.11345569,0.045347553,-0.14586331,0.71468556,-0.102625854,-0.18156786,-0.16481034,-0.5458528
Daam1,-0.18054803,0.023295822,-0.33093327,-0.16559644,-0.5284921,0.9393487,0.065386705,0.009991479,-0.2788439,-0.057438508,-0.20601103,-1.0690106,-0.013852849,0.22211759,0.29663414,-0.7768077,-0.14988634,1.2456138,-0.7844703
Jkamp,-0.5672523,-0.75779617,0.023939287,-0.06093347,0.08865574,0.01456872,-0.0044171074,-0.010986441,0.032149673,0.012450152,-0.02955127,0.044126865,-0.008312922,-0.051696025,0.07793019,0.0063825375,0.016454697,0.14525452,-0.64199775
Rtn1,0.6814695,0.38721222,-0.13949183,-0.10498001,-0.008987986,-0.49051315,-0.18555461,-0.084439896,0.08778325,0.22745432,0.43857285,-0.29259342,0.04100757,-0.45070857,-0.7434552,0.45590684,0.14328955,-0.5873859,0.7989868
Dhrs7,-0.080261454,-0.055555418,-0.048543196,0.069561034,0.14308414,0.674344,-0.047462814,-0.059439227,0.043008655,0.0022689719,-0.033782188,0.09566879,-0.046262894,-0.080493785,0.19976102,-0.0629608,-0.09113645,0.08233254,0.18633361
Mnat1,-0.0056052683,-0.50436026,-0.05387351,-0.009979066,0.051931813,0.33433995,0.0040008533,0.018365672,-0.08801196,0.03004971,-0.09892242,-0.03434202,-0.0027879772,-0.08670078,0.23566356,-0.036671195,0.07769228,-0.33180898,-1.1965002
Snapc1,-0.05472901,-0.59890294,0.005351636,0.3131332,0.019316865,-0.6304473,0.009553575,0.09428692,-0.24846494,0.06768067,0.046246056,-0.10874167,-0.08870091,-0.10437462,-0.062345307,-0.13031334,0.19167951,-0.5060797,0.18352573
Kcnh5,-0.2005522,1.6174841,-0.9681891,-1.2942497,-0.8217728,-1.9449246,-0.18219642,1.0842865,-1.2671154,-1.0546231,-1.0260462,-0.76739454,1.8864962,0.24058829,-0.92224056,-1.0087836,-1.2093161,-0.81327456,0.1528787
Syne2,-1.1611253,-0.37864658,-0.5713292,1.8580148,-0.93740463,0.1038243,-0.25240257,-1.4562554,-0.025007406,-0.7021136,-0.9197889,-0.49037716,-0.7457803,-0.078652464,1.7079216,-0.22239073,-0.40333676,-1.0108126,0.40567127
Mthfd1,-0.9658805,0.025507512,-0.18121238,-0.3922232,1.2724297,-0.63076407,0.0004576203,0.0126106385,0.05691748,0.073836915,-0.26953444,0.23329268,-0.31670764,-0.17051384,0.03310426,-0.06384735,0.26615554,-0.24507134,-0.59140354
Sptb,-0.28604114,0.580216,-1.0041876,-0.6310094,1.3241112,-1.8026017,-0.31437626,-0.2719835,0.71270144,0.6287011,-1.4179087,0.46538684,0.08917387,0.2603266,-0.34870872,0.8490348,-0.51489913,-1.1844307,0.27062008
Fut8,-0.06172091,-0.23942053,-0.01928704,-0.0025474022,0.10601485,0.20834176,-0.003144426,-0.0026035325,0.018820364,0.040290315,-0.015721424,-0.009569101,-0.12849192,-0.09355616,0.0605817,0.01262442,-0.09125661,-0.10087409,-0.72495556
Gphn,-0.19441897,0.020466646,-0.1737129,0.07007426,0.4078318,-0.4151809,-0.027292365,-0.067492045,0.15449232,0.05752903,-0.14290126,0.21605848,0.015738508,-0.12363366,-0.19401877,-0.032838956,0.10192687,-0.4032325,-0.5232747
Atp6v1d,0.10074368,0.43588522,0.19108222,-0.8558282,-0.18354166,-0.8098117,0.076014616,0.100211196,-0.08519663,-0.10443592,0.29771104,-0.14209923,0.4140564,0.33362085,-0.850667,-0.26488596,-0.51379937,-0.59961456,0.008674073
Plekhh1,-1.4163418,-1.1541442,-0.8984752,-1.3491336,-1.7610592,2.05087,-1.5715854,-2.0905406,-0.8195122,-1.4892845,-1.5176615,-0.5014738,-1.9318023,-0.6021722,-1.4355825,-1.2672619,-1.2422136,2.2747583,-1.2905272
Vti1b,0.0077874362,-0.01171549,0.0049441094,0.11425532,-0.022718871,0.06455633,-0.012137251,-0.018377656,0.013398727,-0.0003265535,0.023109853,0.021284603,-0.17692895,-0.007679096,-0.061952304,0.03145742,0.002238481,0.036857218,-0.82445353
Erh,-0.22602546,-0.35820886,-0.12199371,0.2873943,-0.18312186,0.68285537,-0.011706638,0.010024198,-0.04273177,-0.07358888,-0.17091475,-0.024482671,-0.019126823,-0.27724338,-0.023288986,0.009403322,0.5168366,0.5285262,-0.38293648
Cox16,-0.612844,-1.0951021,-0.19145413,0.40781617,0.2619027,-0.11805939,-0.015631484,0.022438966,0.28381166,-0.07865097,-0.52813464,0.12905471,0.3064022,-0.6156708,0.32271758,-0.015746862,0.3422249,-0.21103396,-1.2982811
Med6,-0.38558298,-0.97518766,0.046225067,-0.51326835,0.24254797,-0.68713576,-0.04099582,-4.7225592e-05,0.5480143,0.0029498027,-0.040566344,0.13293816,0.01733714,-0.34684798,0.1427429,0.13724697,-0.20211284,-0.4851109,-0.27852455
Rgs6,0.21415442,0.8854114,0.81731033,-0.4298016,-2.5294757,-1.1594843,0.45627555,0.7670641,-0.47077632,-0.90855753,-0.112212144,-0.9267781,0.6310522,0.8853293,-1.0563248,-0.444714,-0.08109371,-0.5782171,0.0034472663
Dcaf4,0.031965245,0.6695766,-0.11355898,-1.0344803,0.360806,0.0069747106,-0.0715801,-0.071037136,0.06931171,0.04177721,-0.12520896,0.0016697703,-0.07304644,-0.11273607,-0.3904872,-0.08380388,-0.09500206,0.10617472,0.15990742
Psen1,-0.054442767,-0.3411437,0.056860883,-0.22231609,0.19221687,-0.22817524,0.0048232544,-0.08158109,0.03035531,0.01627633,-0.018079666,0.11279526,-0.18903755,0.054719754,0.02729591,0.0385303,-0.12754427,-0.16433781,-0.33771017
Numb,-0.59580654,0.29834166,0.38181415,-0.18406919,-0.87503964,-0.377228,0.29162046,0.57858306,-0.21128675,-0.038484834,0.31121227,-0.1451227,0.9235302,-0.08348246,-0.10585244,-0.6210847,-0.9915382,-0.27370563,-0.9973779
Elmsan1,-0.5096452,-0.9018413,-0.7092854,0.24661258,0.4442438,0.4008297,-0.13851878,0.07070586,0.26144278,0.036175564,-0.45657897,0.17532253,-0.39670393,-0.31749198,0.15246314,0.09859448,-0.08297986,0.34946445,-0.5902965
Fam161b,0.04274408,0.15193139,0.0077574444,0.39297172,-0.22414458,-0.49061945,0.011336446,0.10177705,-1.1644987,-0.046228547,-0.11742675,-0.28739408,-0.051891293,0.17534094,-0.037812814,-0.3899803,-0.081595875,-0.16187836,0.84615296
Entpd5,0.3257785,-0.36935484,0.26084468,-0.22835183,-1.931498,1.4118354,-0.23218937,-0.058877103,-1.1174059,-0.23455673,0.14076136,-0.9950826,0.29987192,-0.049548935,0.4613755,-0.67222404,-0.51678777,0.81150246,-0.17710973
