,Shared topic 1,Shared topic 2,Shared topic 3,Shared topic 4,Shared topic 5,Shared topic 7,Shared topic 8,Shared topic 9,Shared topic 10,ATAC private topic 1,ATAC private topic 2,ATAC private topic 3,ATAC private topic 6,ATAC private topic 7,ATAC private topic 9
chr1-3670549-3671127,-0.013312175,0.11028951,0.2229553,-0.8204872,0.3133971,-0.60289735,0.040333845,0.0026709873,-0.5272114,0.04590367,-0.019013558,-0.002305195,0.019726511,0.016795494,0.042974588
chr1-4785238-4786165,-0.00056143804,-0.10422442,0.0026997973,-0.039711356,-0.0792909,0.0018438238,0.007350617,0.014361635,-0.1455924,-0.00625163,-0.008976527,-0.006057471,0.0017775225,-0.006112299,0.11079736
chr1-4807393-4808287,-0.06167101,0.28610817,-0.03289875,0.2521296,0.016747124,0.39404887,0.010265044,-0.017202219,-0.4810275,-0.024692647,0.034999732,0.3313083,-0.13392006,-0.113139026,0.046149503
chr1-5082765-5083688,-0.0011624646,0.048121054,-0.00015533854,0.07933011,0.3042011,-0.13724606,0.0009518823,0.00052355835,-0.014268526,0.004102916,-0.2641262,0.01758951,-0.01331287,-0.016757028,0.033770323
chr1-7397642-7398498,-0.0047929683,-0.21055907,-0.0072652707,-0.04923076,0.7150617,-0.035926946,-0.00437183,0.0035906383,-0.014962547,-0.008908418,-0.22887173,-0.19971083,0.11943038,-0.054394837,0.101818435
chr1-9299334-9300126,-0.10007015,-0.04560437,0.0065131024,-1.060032,1.1411741,-0.75782233,-0.013680919,0.34629488,0.15968132,-0.0028971098,-0.12273289,-0.19773066,0.10296856,0.1141601,-0.3109205
chr1-9544984-9545778,0.0051538115,0.04270656,-0.00020339375,-0.23213787,-0.3360713,0.16909257,-0.00037700092,0.0007532704,-0.027961021,0.0009283177,0.04285968,0.017515888,-0.0044167987,-0.012526918,-0.0019251675
chr1-9747989-9748772,0.0041153748,0.22508028,-0.40077466,0.15404376,-0.01042559,0.07734886,0.0011077425,-2.2822962e-05,-0.0061510243,-0.013740483,0.0051184883,0.010632314,-0.019983402,-0.06559478,0.040143386
chr1-9943668-9944558,0.009186539,-0.67560136,-0.02446205,0.11804533,0.78917336,-0.021418717,-0.014380934,0.013723637,-0.20904315,0.009843291,-0.14932695,0.21434933,0.05391764,-0.08001418,-0.04302043
chr1-10037597-10038480,-0.048130065,0.17841943,0.038462184,0.31480137,0.107996784,0.42598885,-0.14195262,-0.28962344,0.034357373,-0.009987949,-0.058221895,-0.73526734,0.04575727,0.045385484,0.089982316
chr1-10232633-10233357,0.0054285,0.0016467541,-0.008192128,0.09451581,-0.28245074,0.12369427,-0.004360559,0.0014671533,0.02422575,-7.0989714e-05,0.19127758,-0.15751016,-0.0066493987,-0.014541489,0.07062009
chr1-10993120-10993963,0.016745813,0.05929123,-0.023510754,0.82275546,-0.24677554,0.0037540398,-0.12676121,-0.098434374,-0.052940913,-0.024051255,0.35185033,-0.06301299,0.0581833,-0.044775985,0.13672589
chr1-12992149-12992896,-0.0055870507,0.010894299,-0.028829489,-0.0888046,0.7815113,-0.037414026,-0.0020564438,0.006047989,-0.013593795,-0.005907596,-0.17223553,0.031707343,0.037281573,-0.028470252,0.0021405206
chr1-13589188-13590132,-0.025348237,0.43117243,0.018745309,0.24973364,-0.807371,0.2676471,-0.010194777,0.015991468,-0.30072096,-0.003078731,0.035810858,-0.06334891,-0.043373846,-0.036973815,0.15517469
chr1-16656499-16657438,0.0029369292,-0.024319232,-0.0011238477,0.27421385,-0.09062737,-0.0806877,-0.0021417076,-0.015856477,-0.028073069,0.0011201687,-0.08123149,0.0038809634,-0.0056076506,-0.0011492075,0.05072331
chr1-17097385-17098240,0.0042380216,0.1703715,0.04346597,-0.8248327,0.2030122,-0.09677743,0.050515547,0.055980206,-0.26303005,0.005509294,-0.25329086,-0.19036567,0.083478145,0.025515897,-0.08945961
chr1-21218278-21219172,-0.0057267286,-0.045621302,0.011865815,-0.21881711,-0.061433673,-0.07624237,0.00024208635,0.034118075,0.06899921,0.0013280159,-0.15311651,-0.031546205,-0.0013506153,0.023055326,-0.03572144
chr1-23382813-23383657,0.0012655146,0.037101798,-0.0040223277,0.08639414,-0.013201576,0.34803313,-0.012232434,-0.016191024,-0.0033787275,-0.001821942,-0.076641575,-0.053081393,-0.00085886905,-0.015142958,0.08798747
chr1-23762607-23763433,0.009067035,-0.47888047,-0.010839279,-0.3892744,0.39849478,-0.14225356,-0.003908541,0.03658513,-0.008116338,-0.003943464,0.026069745,0.08193081,0.040915623,-0.028876157,0.03302186
chr1-24005162-24006042,-0.001192282,-0.0912702,0.0046257493,-0.27868292,0.28817004,0.24498454,0.001479383,-0.03352314,0.010039781,-0.00059177185,-0.17856175,-0.14944276,0.013744212,-0.0063411063,0.00921314
chr1-24099861-24100722,0.005550149,0.19665018,0.004248619,-0.008413937,-0.19350837,-0.18179825,-0.0032355392,0.005138441,-0.021516345,-0.0019625379,-0.1034027,0.0003172004,0.019535296,0.0003976413,0.0002237061
chr1-24612392-24613261,0.6498819,0.8999293,-0.33012122,0.22401752,-0.74177706,-0.42520455,-0.14333495,-0.30438694,-0.18698566,-2.3092775,0.709001,-0.0054475227,-0.4327959,-0.25441816,1.2686409
chr1-24678235-24679114,-0.0022956845,-0.0042474605,0.002342611,0.19096866,0.20430195,0.08369338,-0.0009899457,-0.004242694,0.016502874,-0.0036936179,-0.46669766,0.10607456,-0.0058529605,-0.008711754,-0.014752504
chr1-25228406-25229303,-0.043769047,-0.109934896,0.028746987,-1.0440086,0.93398213,-0.9527973,0.06282207,0.24398246,-0.013828641,0.03408976,-0.34591112,0.1319327,0.090206005,-0.077377066,0.057663873
chr1-33907375-33908281,-0.00082568056,0.1191306,0.006881522,-0.56097925,-0.1333452,0.006087447,0.014352196,0.044209596,-0.08143222,0.009430305,-0.24043751,-0.22888564,-0.0056602024,-0.023750689,-0.00911895
chr1-34439170-34440093,0.02152454,0.010414732,-0.020534772,0.46916506,-0.26212883,-0.38794222,-0.0038472477,-0.025510432,0.0445398,-0.009221734,0.048535008,0.2972313,-0.0009629903,-0.018299885,-0.010296066
chr1-34579324-34580212,-0.004069331,0.5337149,0.0029675723,-0.8162578,0.4776378,-0.77411556,-0.012570991,0.09060505,0.13051121,-0.011565071,-0.61009985,0.07566566,0.30807653,-0.0028244366,0.052275833
chr1-34801537-34802032,-0.006679258,-0.24801083,0.09117407,-0.38493848,0.33621317,-0.88806605,0.051603664,0.074161515,0.13415319,-0.01650233,-0.21177955,0.06237014,0.15005791,-0.14833264,0.10470033
chr1-34802133-34802586,0.06540846,0.2443849,0.36587644,-0.51679873,0.18509856,-1.2206755,0.16852629,0.44944745,-0.31775996,0.14957902,-0.69380814,0.0060863537,0.262696,-0.14522012,-0.26894298
chr1-34842542-34843475,-0.0003884825,-0.19057092,-0.004049724,0.15952472,0.039672807,0.2243659,0.0007485667,0.0073268306,-0.0052423486,-0.0064070886,0.039899595,-0.031795043,0.015918465,-0.0037776497,-0.0072764405
chr1-36471113-36471953,-0.00014956063,-0.3964138,0.0038186582,0.38627043,-0.018995225,0.33604494,-0.0040421607,-0.03479936,-0.4834421,-0.011756898,0.10767875,0.20448221,0.0026389817,-0.031576797,0.086713746
chr1-36546850-36547716,0.014252591,-0.4705684,-0.006558202,0.29815465,-1.0228281,0.36651006,0.056419227,0.050035525,-0.26012424,0.016692106,-0.11620795,-0.15915331,-0.05860402,-0.06101368,0.045651823
chr1-36939302-36940211,0.004379919,-0.25655574,-0.006062939,0.23908514,-0.1708613,0.42806342,-0.0038279064,-0.032575484,0.16293122,0.0018013718,0.15505627,-0.31818685,-0.028531004,-0.058062725,-0.051215466
chr1-37429599-37430475,0.0016590464,0.001249624,-5.3674835e-06,0.085508704,-0.12142907,-0.15363751,0.00026945808,0.013375826,-0.058504656,-0.0052784607,0.02863164,0.0058251363,0.020597704,0.0031141888,0.020960215
chr1-37677984-37678830,-0.051612865,-0.11593626,0.35594848,-1.0123149,0.5572941,-0.94466,0.1237023,0.5671875,0.14431173,-0.022478728,-0.35961252,-0.17970611,0.34781408,0.05537959,-0.36078927
chr1-37719412-37720287,-0.07735646,-0.17104962,0.08631444,-0.66687286,1.0933349,-0.9725935,-0.024617907,0.2862138,0.07720536,0.03534057,-0.6538099,-0.246839,0.29930982,0.14957817,-0.09469158
chr1-37725674-37726479,-0.08236218,-0.46470353,0.2672751,-0.8675271,1.0384967,-0.9202186,-0.031098546,0.28840187,0.43549648,-0.049032673,-0.5593709,-0.19777453,0.3899218,-0.03613686,-0.084434345
chr1-37864591-37865538,0.0016183066,0.24226357,0.003158575,0.024560139,-0.1466942,-0.1589883,0.0008740559,0.0049739517,-0.0078878,-0.00371976,-0.14269818,0.24297732,0.014993314,-0.069187954,-0.14590886
chr1-37996693-37997549,0.012627501,-0.33964598,-0.009179472,0.110372484,-0.26466405,0.28243807,-0.0066409153,-0.013467981,0.14300847,0.0008911625,0.14783525,-1.608558e-05,-0.00042523743,0.008264406,0.00608403
chr1-38987272-38988180,0.0033995123,0.07599527,-0.0009245869,-0.17112944,0.17885438,-0.09446112,0.0014599932,-0.009421212,0.06556393,0.00223408,-0.12465938,-0.05025923,-0.023171958,-0.018797204,-0.033342805
chr1-39478271-39479094,-0.023211362,-0.398419,0.00095496105,0.19849075,0.5489878,-0.25839907,-0.02273935,-0.000649508,0.2472458,0.00041432702,0.045023948,-0.08684818,0.07272708,0.059961196,-0.041970268
chr1-39535442-39536272,-0.007868322,0.16455859,-0.0038211537,0.17900902,-0.16245705,0.3682668,-0.0033155072,-0.010868312,-0.06018199,0.010658077,0.07857796,-0.27280244,-0.0020632327,0.012581376,-0.038160376
chr1-39576990-39577715,0.008836041,0.27166817,-0.09788512,-0.051689528,0.307779,-0.2115513,-0.028717471,-0.038165618,0.03401378,-0.010255741,-0.05870785,0.17061487,0.16698796,-0.02782918,0.24190009
chr1-42850889-42851731,-0.0023961365,-0.07938446,-0.00017450264,0.027164223,0.31759825,-0.084772274,-0.002002093,0.0024614611,-0.032901283,0.0020239004,0.10876917,-0.055011414,0.013238229,-0.003394014,-0.027038278
chr1-43092120-43093061,0.018300103,-0.10613168,-0.0088145295,0.32619846,-0.107440695,0.01555222,-0.0013924559,-0.026692165,-0.02968081,0.0025968235,0.008680402,0.022807814,-0.03471351,-0.013860804,0.0020053396
chr1-43098193-43099107,-0.0013674416,0.25923264,-0.019035464,-0.11079312,0.18639612,0.13697784,-0.009482656,-0.0023328403,0.036323085,-0.0052891276,0.06197304,0.0069231763,-0.035660673,-0.009967091,0.16561736
chr1-43163416-43164280,0.05231594,-0.09664267,0.6226894,-0.21210377,-0.36249077,-0.7282436,0.31776336,0.39808694,-0.31632993,-0.081801,-0.33053273,-0.103470385,0.006257907,0.33324906,-0.41375008
chr1-43827425-43828208,-0.025710901,-0.018990222,0.013790519,0.2295759,0.04216734,0.22948651,-0.005722435,-0.017914426,0.13887219,-0.00034562848,-0.16510235,0.040427618,0.038896523,-0.092646405,-0.0007929377
chr1-44118570-44119231,0.001354311,0.15984444,-0.012223798,0.35359868,-0.122098066,0.14768751,-0.006667519,-0.02336313,0.053718474,-0.00033164816,-0.049061824,-0.046288792,0.013750681,-0.008942687,0.009925875
chr1-44147533-44148437,0.0020807413,-0.06053255,-0.009435983,0.16074334,0.09364369,0.2508708,0.0004540527,-0.00494011,-0.06298797,0.00138108,-0.078614846,0.030309785,0.010071446,-0.0012269863,-0.009869627
chr1-45794882-45795804,-0.0064179134,-0.15458956,0.0028409436,0.2813247,0.11511871,0.2576155,0.0031593926,-0.018152636,-0.10199683,-0.0027277207,0.006347779,0.05346199,0.008940432,-0.07355375,0.013741918
chr1-51333752-51334690,-0.0039224643,0.029514648,0.29480985,-0.86574954,0.34213227,-0.66106766,0.22567534,0.18142685,-0.53675944,-0.011414853,-0.47902468,0.2568243,0.18312871,0.01346008,-0.40913987
chr1-51478051-51478930,-0.0016044654,-0.020994607,-0.0035552448,0.24421352,0.33876735,-0.25116834,0.0015520036,0.007110486,0.005110848,0.00032103623,0.012597299,-0.016317012,0.015461049,-0.01052913,-0.034206036
chr1-52118968-52119869,-0.011973585,0.088895924,0.0038459753,0.7557115,-0.39013585,0.034509555,-0.0035983531,-0.0172435,-0.024066202,-0.0076462207,0.32528323,0.082651876,-0.03465085,-0.0009792655,-0.08560845
chr1-52231834-52232658,-0.0087089185,-0.04552009,0.012890793,-0.008186343,0.3669548,-0.1740567,-0.0014859147,-0.013755014,-0.032480344,-0.007421871,0.10681511,0.16980207,0.055374686,-0.009881408,-0.10665317
chr1-52232873-52233722,0.0016314004,0.1747465,0.060622953,-0.17048877,0.07988524,-0.38729295,0.0035332562,0.0013652513,-0.24242853,0.012945357,-0.26482484,0.03811501,-0.0041031805,-0.016521715,-0.1267338
chr1-52500033-52500911,0.006592537,-0.14072509,0.04135807,0.18861914,-0.22864616,-0.0633181,-0.012518785,-0.033629745,0.17532077,-0.009504834,0.023398345,-0.012585141,0.06542391,-0.065497495,-0.013434281
chr1-52726540-52727368,0.0031844394,0.5075726,-0.014603712,-0.57014865,-0.16990706,0.19001047,-0.0038943738,0.0063812262,-0.006818314,-0.0080830725,-0.17460674,-0.009183168,-0.008693396,0.0029319432,0.09544611
chr1-52816952-52817827,0.017741142,-0.03334192,0.016483951,0.1870768,-0.7134737,-0.22762127,0.007834099,-0.011479824,-0.009833066,-0.011550684,0.101157494,0.17216031,0.010021464,-0.054867543,-0.03193435
chr1-52844553-52845413,0.009162951,0.07630061,-0.009027668,0.6121107,-0.30512723,0.216689,-0.0049479785,-0.033650167,-0.21954222,-0.02125954,0.06957535,-0.0051268907,0.0075274766,0.07999876,0.011076376
chr1-52952524-52953430,-0.0065919654,-0.20572183,0.062310185,-0.18791601,0.451894,-0.32778567,0.026822215,-0.015368763,-0.1721041,-0.003177227,-0.24030286,0.011893834,0.2565062,-0.012823006,-0.11475174
chr1-53296597-53297512,0.059219345,0.08062012,-0.048521575,-0.02088882,-0.33103725,0.3538133,-0.019338282,0.15579109,-0.2665731,-0.044698715,0.44331077,-0.01383465,0.021735774,-0.026562676,-0.14245032
chr1-53313161-53314089,-0.0023065202,0.19393766,-0.0024017796,-0.12594362,0.01594311,0.2649414,-0.008889394,-0.0040168585,0.01843142,-0.012804266,-0.03332109,-0.151828,0.0012851326,0.00032082177,0.18582194
chr1-54194450-54195137,-0.04887922,-0.06807137,0.3773035,-0.75310516,0.29520416,-0.3632437,0.0027214116,0.036918513,0.031330466,-0.0107877115,-0.21590969,-0.25224215,0.022111733,0.07608313,0.17951864
chr1-54557187-54558079,0.009611544,0.09938581,-0.01227679,-0.18178575,0.10248135,-0.42568895,0.0051225508,-0.009978213,0.017878674,-0.008634551,-0.1367946,-0.06801495,0.017060865,0.00400055,0.10424336
chr1-55026988-55027845,0.0037238807,0.08636248,-0.0090250205,0.1045537,0.13799785,-0.14061347,-0.0017007858,0.00062054803,-0.016735338,0.000582487,0.07778257,0.067770384,-0.0041566305,-0.008688102,-0.03497833
chr1-55130861-55131696,0.0018210008,0.09726585,-0.007815577,0.2557091,0.08196647,0.24259765,-0.013770812,-0.02734328,0.015994666,-0.0058262167,0.34732336,0.0023847395,0.01066433,-0.0051787,-0.0036595967
chr1-55236951-55237708,-0.003645258,0.2586563,0.0051704743,0.18142067,0.08106785,0.08755729,-0.0031772132,-0.02684274,-0.12784132,0.004157694,-0.10382682,-0.062364873,-0.009950383,0.015199172,-0.014020501
chr1-55405501-55406300,-0.005161246,0.0023097522,-0.019758195,0.09437566,-0.32501578,0.63177294,-0.009065101,-0.0014447701,-0.03639625,-0.033223663,0.13933343,0.34881502,-0.034449656,-0.1457993,-0.31193584
chr1-57377407-57378186,0.0058343383,-0.014927116,0.004159195,-0.24521378,-0.31269434,0.23192446,0.0048797545,0.034903817,-0.20716311,-0.0136310635,-0.16415496,0.18327616,0.0074917274,-0.011528409,0.0055834902
chr1-57406202-57407094,-0.0027851602,0.025598183,-0.0011038501,-0.22034732,-0.2587906,0.37353268,0.002017654,0.0008960019,-0.025545178,0.003333489,-0.14018863,0.09302565,0.01102462,-0.054160234,0.042635147
chr1-58392496-58393415,0.0268289,0.36966848,0.015486523,-0.027043302,-0.22236228,0.1610133,-0.0033359972,-0.08296149,-0.26977876,-0.012777751,-0.10866951,0.2603699,0.044148803,-0.13784333,0.0043759244
chr1-58585852-58586755,0.002260556,0.17356552,0.006988306,-0.1551918,0.27987775,-0.35438886,0.007347369,-0.024642777,-0.107128404,-0.006060957,-0.05498888,0.14988302,0.01292344,0.021395342,-0.07553685
chr1-59119641-59120513,0.0049480046,0.10375377,-0.012175834,0.02748898,-0.48251313,0.20318994,0.0026485375,0.010740773,-0.020624937,-0.0010907335,-0.12936378,-0.045607127,-0.019638352,-0.012281015,0.033128027
chr1-59236832-59237717,-0.015295646,-0.13337448,-0.0048480714,0.056230653,0.050370906,0.16733298,-0.018828982,0.05960548,0.013911653,-0.009962426,0.13563758,-0.35230377,0.12985353,-0.08247038,0.02881227
chr1-59670315-59671185,-0.009595686,-0.03443947,-0.0017980651,0.3659327,-0.4254751,0.04108266,0.0018137633,-0.0026675803,0.06974147,0.0028559705,-0.09922857,0.5179721,0.02734518,-0.14127047,-0.026042098
chr1-60342922-60343858,0.00198732,0.068411656,0.011835103,0.15945394,-0.37310293,-0.07549865,-0.0019107113,-0.0051011164,-0.02842791,0.0032728133,-0.055281553,-0.030862253,-1.0084293e-05,-0.001551544,-0.01569534
chr1-62702897-62703812,0.01663495,-0.034861814,-0.016519908,0.51451194,-0.21073556,-0.24478701,0.0027046604,0.00022133028,-0.49289605,-0.01758395,-0.03721236,0.15868095,-0.02583136,0.05629636,0.032871664
chr1-62706265-62707096,0.0018655969,-0.27465272,0.027717365,0.4040722,0.044339575,-0.07883264,-0.00059816573,0.02150842,-0.302213,-0.010022942,0.27413973,-0.2857376,0.1556608,-0.044141408,-0.13421121
chr1-63176371-63177286,0.0022500055,-0.19061674,0.0038034644,0.29379424,-0.11569645,0.19576037,0.0009795709,-0.012302218,-0.009762607,0.0072422787,-0.06354914,0.015768962,-0.033687793,0.021121636,-0.023653865
chr1-63445445-63446256,-0.010490137,0.18601193,0.20173913,-1.1104047,0.62362903,-0.5585815,0.037667133,-0.0051159007,-0.025821438,-0.0019821613,-0.5770716,-0.036921233,0.12378636,-0.004075075,0.042115226
chr1-64445741-64446604,-0.0037754695,-0.15128069,0.09776701,0.021472005,-0.18084234,-0.22311601,0.009890011,-0.025276065,0.03880434,0.0019965,-0.15529904,0.1942238,0.016924674,-0.0105117755,-0.1682477
chr1-64690519-64691301,-0.011608749,-0.02741177,-0.010530541,0.1159617,0.47035998,0.4552403,-0.03616909,0.022068296,-0.06671313,-0.02077467,0.2547089,-0.025422549,-0.028777752,-0.011446929,-0.03311383
chr1-64737323-64738193,-0.15429902,-0.27207166,-0.08359268,0.50399184,0.32393217,0.47820783,-0.27499935,-0.39032042,0.094689295,-0.00784936,0.20031625,-0.055775367,-0.08538703,-0.17907427,0.363444
chr1-64956345-64957246,-0.11250729,-0.252413,0.012471104,-0.3246629,0.6550772,-0.44414455,0.0030808127,0.14431384,0.31398886,-0.012395158,-0.21291544,-0.08465518,0.040566176,0.0061137867,-0.036168143
chr1-67038331-67039157,0.0012269056,0.21793777,0.0033062,-0.0065079094,0.14521296,-0.17004736,-0.006681128,0.025855834,-0.1630836,-0.011709009,-0.37693512,0.027975725,0.19749153,-0.02863039,0.00077990256
chr1-72283961-72284830,-0.0029163165,0.10926736,0.09666907,-0.80471325,0.29501283,-0.13340451,0.068586856,0.050851997,-0.48744747,0.011865345,-0.13568394,0.11275777,-0.0076555707,-0.0151733365,-0.08728856
chr1-72582869-72583702,-0.0005741831,-0.2581254,-0.0077422014,0.29478043,0.11329093,-0.12325375,-4.2346994e-05,0.0044974783,0.0064905607,-0.0029532965,0.040655665,0.03455159,0.022000773,-0.010864188,-0.027975174
chr1-74303620-74304521,-0.17089997,-0.5128512,0.05460268,0.67204016,-0.8690364,0.8343622,-0.10598236,-0.30784696,0.06885364,-0.059611827,0.017286297,0.048715588,-0.18455744,0.029859638,0.029636728
chr1-74505570-74506421,0.00046815167,-0.1604735,-0.006137955,0.25138322,-0.32273865,0.12629752,-0.0014711779,0.014283789,-0.008521249,0.0058985217,-0.14663969,0.36359543,-0.028404972,-0.02546723,-0.045315538
chr1-74587661-74588488,0.0035902937,-0.031092985,-0.00097058865,-0.14636911,0.017477538,-0.082632214,0.0013696386,0.013964338,-0.046110153,-0.0012559905,-0.14932632,0.0013546458,0.022620639,0.0010429707,-0.015582128
chr1-75142395-75143217,-0.00048099473,0.09234194,0.003936941,0.21170536,-0.3774653,0.27767032,-0.0010277437,0.0036072345,-0.09356509,0.000487532,-0.017988138,-0.007896736,-0.018408827,0.012553271,-0.00924091
chr1-75168330-75169245,0.07882712,-0.25974345,0.0051947404,0.4578645,-0.16354305,-0.11795998,0.020452503,0.025548102,-0.2756609,-0.038640298,0.2817501,0.3486268,-0.12819375,-0.23021974,-0.08505729
chr1-75191507-75192381,0.005980437,-0.013246376,-0.0044543454,0.5158444,0.059026994,0.3444374,-0.020691631,-0.029828364,-0.13640882,-0.0030035244,0.16933294,-0.078831494,-0.0002172075,-0.023441246,0.047684845
chr1-75218868-75219630,-0.038259685,0.0587511,0.016225234,-0.20508808,0.22091316,-0.5102983,0.04620486,0.035812557,-0.013347591,-0.008090933,-0.3424158,-0.24620554,-0.010479321,0.019780478,0.050550252
chr1-76070528-76071436,-0.021540428,0.29107437,-0.074402384,-1.0675012,1.1583297,-1.0265484,-0.09781423,0.6396353,0.3474714,-0.039846573,-0.55771077,0.032195423,0.24234068,0.022834241,0.080912404
chr1-77514765-77515636,-0.027338248,-0.12136771,0.024067672,-0.22771306,0.7978389,-0.48349458,-0.013212637,0.026969194,0.02217903,-0.0019300836,-0.005125296,-0.11317733,0.108007155,0.0033561266,-0.18973769
chr1-78488500-78489429,-0.0006805294,-0.26081628,-0.0037344273,-0.13640203,-0.0066763163,0.27713776,-0.00077411975,0.023665572,0.0006433322,-0.003073595,-0.20713033,-0.0405549,0.030502312,0.01655691,-0.013580242
chr1-79761234-79761940,-0.0072012017,-0.21789958,-0.020593729,0.19619054,0.008669414,0.03958206,-0.02206063,0.0017335236,0.4347301,0.007940005,4.6036555e-05,0.0897572,-0.043521773,0.01576583,-0.022076467
chr1-79858021-79858771,-0.01228926,-0.0887734,-0.17891374,-0.04771743,0.6752644,-0.13481829,-0.025963338,-0.0048507424,0.23172809,-0.0059899804,-0.16803075,-0.18364823,0.09765673,-0.041684054,0.21099786
chr1-82283002-82283860,-0.0063783084,0.109822564,-0.018197173,0.544206,-0.67782474,0.4995974,-0.020618392,-0.30329636,0.19585891,0.00015583262,0.13624915,-0.07905949,-0.054208964,-0.042520236,0.17109999
chr1-82724650-82725511,-0.0021978344,-0.08971477,-0.0012352783,-0.26831758,-0.010901926,0.17022449,0.0054932586,0.008965253,0.050559998,-0.0034915311,0.15579137,-0.030817637,-0.010089684,-0.006214124,-0.011956027
chr1-85895273-85896154,-0.0007671568,-0.10528119,-0.008092992,0.098443665,0.15412778,0.32637805,-0.018979123,-0.011265261,0.07512261,0.0085344175,-0.060186364,0.049685527,0.005335685,-0.14390793,-0.072762
chr1-85916794-85917698,-0.3508873,0.18276317,-0.03710142,-0.7565798,1.5151983,-0.3975306,-0.033098865,-0.02892777,-0.24916565,-0.07730443,-0.41237944,-0.3989176,0.15982145,0.38028574,0.06945896
chr1-86064164-86065039,-0.003988174,-0.03647761,0.008099085,0.41885316,-0.26997775,0.2777777,-0.00054689957,-0.008278391,-0.16026242,0.0011091611,0.16718121,-0.12370005,0.054233335,0.021284886,-0.07667939
chr1-86154233-86155109,-0.0020276771,-0.101818785,0.0019588592,-0.0653728,-0.06348775,-0.06006275,-0.0038986064,0.024782758,0.069781154,-0.0037222542,-0.07932924,0.077182606,0.009232317,0.017561639,-0.012423242
chr1-86582193-86583056,-0.011896681,0.33346915,0.0033412785,-0.07297753,-0.38128498,0.33837608,0.0015594063,0.009696621,0.024429156,0.0049322434,-0.040941976,-0.23397383,0.020845184,-0.06879611,-0.007912715
chr1-87755598-87756460,-0.0072196973,-0.15097341,0.016431144,0.039781127,0.7819164,-0.26442987,0.0027964,-0.07511472,-0.11905606,-0.005700352,-0.08550086,0.083380334,0.023686092,-0.020113064,0.04157418
chr1-87813017-87813836,-0.010262777,-0.28123897,-0.09468151,-0.28178212,1.5008196,-1.034832,-0.027683012,0.06057676,0.15064444,-0.046518747,-0.28554168,-0.0395877,0.12111489,0.27526933,0.16051742
chr1-88277093-88277914,0.004564323,-0.13662629,-0.03318174,0.7536218,-0.35955194,0.30928254,-0.010289503,0.015207418,-0.22313619,-0.001385212,0.310864,-0.21591993,0.006856488,-0.004171905,-0.0062118284
chr1-89069892-89070709,0.017009512,-0.42268944,0.0044300663,0.69314754,-0.21795836,0.10193572,-0.00049556105,-0.03040201,-0.044370204,-0.008323319,0.16510136,0.068206914,-0.040948384,-0.015834976,-0.10234499
chr1-90998333-90999183,0.04007619,0.072845116,-0.017802192,-0.23396267,-0.101485446,-0.29069746,0.02548299,0.33704075,-0.4148612,0.0013771295,-0.19790031,0.014938563,0.07768335,-0.091924265,-0.077853456
chr1-91209342-91210229,-3.161889e-05,0.19491304,0.02410738,0.40956184,-1.4259921,0.15376095,-0.003346535,0.009429423,-0.050438102,-0.0067746975,-0.14259389,-0.0103717875,-0.113662824,0.04250665,0.17100473
chr1-91249790-91250666,0.00047524396,0.0019094836,-0.0054843132,-0.01965231,-0.5439656,0.38858005,0.012290583,0.005536479,-0.024855895,-0.004987497,0.1790782,-0.041610315,-0.020884557,0.009867065,0.0070808777
chr1-91398345-91399189,-0.022423657,0.15499437,-0.03245284,0.61448026,-0.33684972,0.3339826,-0.02613719,-0.0247775,-0.24715377,0.0047297403,0.1235164,-0.30713618,-0.0037750679,0.046600625,0.015088083
chr1-91458947-91459850,-0.0019937246,-0.0090171015,-0.006426501,0.31945547,-0.3298362,-0.13059954,0.0030210111,0.008744792,-0.03239307,0.001385415,-0.05520918,-0.15248834,0.038422283,0.010427628,-0.00095896685
chr1-91494161-91495045,-0.0048020636,-0.37267688,0.04432492,0.06795133,-0.13630956,-0.06749401,-0.003526244,0.015770076,0.042901237,-0.0037679097,0.057209212,0.24733236,-0.011426994,-0.007163868,0.0011092646
chr1-91540078-91541003,0.16609222,0.42664635,-0.038676772,0.30274296,-1.0238018,0.12571914,-0.035024773,0.016646402,-0.37591583,-0.035279643,0.41741487,0.16047713,-0.047416516,-0.18320955,0.007906458
chr1-92473337-92474260,0.012026408,0.38205147,-0.013745414,0.051485687,-0.6649886,0.054243907,0.006333317,-0.021432031,-0.09673878,-0.020251175,-0.053674642,0.19917013,0.020176202,-0.048732407,0.027295234
chr1-92906917-92907636,-0.0027254773,-0.18882415,-0.010698956,0.18238693,0.13784574,0.08258167,-0.0053388225,0.022617355,0.08224569,0.0012828517,0.18624032,-0.04693833,-0.011645398,-0.04443282,-0.037768137
chr1-93101592-93102304,-0.020117437,-0.2630614,0.0030994623,-0.32553682,0.65206337,0.22227925,-0.0026238433,0.008556938,0.07508519,-0.0034276706,-0.19144776,0.2898858,0.00019445363,-0.01365973,-0.0756246
chr1-93343168-93343924,-0.023675606,-0.045451123,-0.024240037,-0.09686864,0.37768197,0.37316257,-0.22940457,-0.04738453,0.1628774,-0.015714852,-0.15365948,0.19795536,-0.09992482,0.48001027,-0.056971125
chr1-93803603-93804530,-0.0010198381,-0.016287744,-0.005397717,-0.028759433,-0.06821504,0.16186352,0.00020074776,-0.0065033888,0.015854627,-0.00810459,-0.024657285,0.24689068,0.003481153,0.0073585785,-0.06332185
chr1-95313450-95314205,-0.025357144,0.111575946,0.008765167,0.07561441,0.38705927,0.050676424,-0.012055848,-0.15172364,0.1579369,0.008068217,0.08523649,-0.2940043,0.014411813,0.0039438684,-0.13454019
chr1-95667177-95668053,0.0024040951,-0.3106096,-0.032832913,0.06916989,0.7381209,-0.16714002,0.0026969272,0.003964174,-0.06879683,0.0062332065,-0.09501186,-0.0260515,0.15964974,-0.004542735,-0.15013693
chr1-96871806-96872590,-0.43434644,-0.39822084,-0.013596639,-0.49567857,1.0960925,-0.6957158,0.08361375,0.06156105,0.35765502,-0.110837966,-0.34784377,0.009264717,0.4107716,-0.20684691,0.11075552
chr1-97976676-97977569,0.012755299,0.07659768,0.0023345968,-0.07113095,-0.15183313,-0.07004687,0.0008719674,-0.0081528155,0.06598461,-0.007881355,-0.051525008,0.060844466,0.009600942,-0.006641185,-0.02259097
chr1-105663368-105664251,0.0021644067,-0.04211672,-0.0047925636,0.27380762,-0.45914322,0.45277092,0.004531463,-0.013144784,-0.17346737,0.0033227296,0.1543902,-0.04240526,-0.029556625,-0.013794465,-0.03633208
chr1-118389005-118389790,-0.0006260393,0.10985814,0.0003757156,0.1455742,0.0425408,0.24679807,-0.006541899,-0.07921976,-0.020726765,-0.0016598003,0.078837164,0.08811486,-0.010320118,-0.0018264656,0.0041233595
chr1-125435250-125436094,0.020342859,-0.14207153,-0.047228914,0.31705126,-0.05109041,0.22917673,-0.0014922686,0.005764612,-0.07406703,0.0060652904,-0.010063642,-0.053109627,0.008475553,-0.017947085,-0.03128162
chr1-125911795-125912512,-0.039190255,-0.7573546,-0.050873064,-0.58456653,1.0421356,0.02528091,-0.109187774,-0.015072908,0.24567974,-0.0008819662,-0.19132058,-0.17289054,0.19336602,0.27611077,0.052876037
chr1-127868402-127869288,-0.015318427,0.08307598,-0.0049141534,-0.5734495,0.24697925,-0.19512112,0.0052826283,0.011494334,0.14937514,0.0025078338,-0.38835225,0.034798514,0.025518103,-0.038046885,-0.15836976
chr1-128102632-128103550,0.0049847024,0.08660832,-0.007130691,0.16307321,0.050786536,0.10935679,-0.0028840995,0.0033215028,-0.07583557,-0.0081720725,0.12847212,-0.026633972,0.027451193,-0.01839913,-0.014141414
chr1-128416750-128417586,-0.03236877,-0.3404152,-0.0037298515,0.28023925,0.5144972,-0.072488755,-0.0047227303,-0.024047494,0.289812,-0.0038356485,-0.009953248,-0.0032139737,0.01579382,-0.027874216,-0.04045368
chr1-130715357-130716269,0.00237559,-0.25014034,0.0033093402,-0.32202154,0.12516922,0.13778643,-0.0040145335,-0.0022682415,0.13975155,-0.0036844057,-0.1259811,0.038963262,0.097238705,-0.030896213,-0.006458136
chr1-131137823-131138731,0.0044722725,-0.06978273,-0.011007948,0.11133231,0.111411795,-0.11058952,0.0010244632,0.014260591,-0.09186843,-0.006153321,-0.13667725,0.12317866,0.011777188,0.01131221,-0.04753291
chr1-131524883-131525791,-0.031962838,-0.12515593,0.0013379293,-0.09927637,0.1792506,-0.08407505,-0.0049604923,0.053264163,0.15809715,0.009898717,-0.058770068,-0.44166878,0.0421739,-0.07100907,0.05270238
chr1-132391286-132392130,0.3677227,-0.18286857,-0.28975233,-0.43716556,0.5337204,0.22127911,-0.078604974,-0.07127067,0.1472512,-0.01034622,-0.44454008,-0.078072675,0.027909368,0.2998752,-0.21963736
chr1-132417199-132417957,-0.04680695,0.4715243,-0.07259472,0.26806986,0.16446035,0.35170794,-0.0440288,-0.06844113,0.14346835,0.026907867,0.24737337,-0.40653944,-0.15430154,-0.055010058,-0.05234002
chr1-133024903-133025822,-0.012722704,-0.16477206,0.0024259288,0.3427005,0.03611155,-0.22701868,-0.0006884208,0.0269327,-0.0030726702,-0.0007888728,0.09775689,0.07753059,0.009557424,-0.026254201,-0.025291722
chr1-133180948-133181775,-0.023059232,0.15782824,0.005503524,-0.6763031,0.5280732,0.011290243,0.0050927023,0.03422808,-0.23071934,-0.0229114,-0.17679188,0.16365561,-4.4828263e-05,-0.035842407,-0.057199042
chr1-134098923-134099770,-0.022166146,0.23571916,-0.021630632,0.91256547,-1.2981924,0.29754746,-0.007937234,-0.07549387,0.11421709,-0.03758362,0.29879808,0.0010330798,-0.1518052,-0.15677696,0.007824765
chr1-134344261-134345060,0.0049285195,0.2844888,-0.13633808,-0.75041294,1.0256702,-0.69983864,0.0141421985,0.022710595,-0.08068701,-0.015482707,-0.10069886,0.11917106,0.16890097,-0.0035804703,-0.08511098
chr1-134494322-134495172,0.0066098245,0.09886367,-0.015426847,0.26223978,-0.2978473,0.17465101,-0.0037567394,-0.011002763,0.0043779532,-0.0030890745,0.08060114,-0.0040902463,-0.0074503785,-0.00860791,-0.016645648
chr1-134955458-134956275,0.030571287,0.13774727,-0.0058536516,-0.21975684,-0.036716256,-0.26151237,0.00869871,0.028184837,-0.2897265,0.001235913,-0.30601802,0.041851394,0.03235934,-0.0070250873,-0.025753152
chr1-135313283-135314151,0.0044473954,-0.2148714,0.0125465635,0.12511753,-0.16183257,0.29934257,0.011044198,-0.023471765,-0.06964573,-0.015545642,0.08501718,0.119702876,-0.035828747,-0.07359196,-0.13306963
chr1-135429977-135430810,-0.035024434,0.13744353,-0.013447152,-0.18689053,-0.24981347,0.6346034,0.0017399378,0.00046634433,-0.13750361,-0.0016382703,-0.23207834,-0.095472865,0.12961479,0.06224965,-0.05415673
chr1-136130988-136131817,0.007961882,-0.018263092,0.007953116,-0.093623854,-0.53429997,-0.07124584,0.0073059183,0.0057913205,-0.07815806,0.004903277,-0.081551336,0.05495854,0.01478104,-0.04027208,-0.005821749
chr1-136139902-136140806,-0.0035619205,-0.048428107,0.004848251,0.17304707,-0.0043164343,0.14262955,0.0021282597,-0.0090631815,-0.025157226,0.0018058394,0.18187773,-0.0049832957,0.00091698853,-0.018498385,-0.011075521
chr1-136345658-136346431,-0.0003359337,0.009703518,-0.00016357332,0.06783424,-0.14687565,0.11066472,-0.00081626925,-0.001324208,-0.01951583,0.0006716995,-0.077909924,0.028196028,0.0024565896,0.010308808,-0.0032536178
chr1-136414867-136415783,0.0012073502,-0.24987876,0.010491371,0.25027788,-0.08301739,0.07333489,-0.0041516637,-0.024742363,0.24344422,-0.007389922,-0.07044845,0.010029302,-0.02786542,0.02591931,-0.030795451
chr1-136624412-136625271,0.007756958,-0.012902568,-0.010086325,-0.39553013,0.40698677,0.031905387,-0.0016476731,0.015512668,-0.22560295,-0.0017370826,-0.12201251,0.06471222,0.09926636,0.006423986,-0.04115028
chr1-137898172-137899006,-0.0010893118,0.19189236,0.024102084,0.13430409,-0.6350384,0.19041185,0.0048865397,0.0044125183,-0.21410729,-0.016981876,-0.040362556,-0.08901584,-0.00805463,-0.058361847,0.07371178
chr1-138963444-138964197,-1.6639837e-05,-0.04875758,-0.0035401518,-0.0598937,0.3877176,-0.14931001,-0.00013622148,-0.0029076678,0.033259157,0.0028459616,0.06329265,-0.14465499,0.011611006,0.007928377,-0.038133964
chr1-143776686-143777583,0.00055545993,0.058516163,-0.005195161,0.03230009,0.1600383,-0.12627387,-0.0017418936,-0.013359849,0.010680073,-0.0024611284,-0.002838977,0.20935345,0.01015842,-0.0074025323,-0.02161927
chr1-144003816-144004720,0.0011971096,-0.10959639,-0.08910475,-0.08692682,0.87631965,-0.2930584,-0.044858623,-0.0030520498,0.38106552,-0.0153156975,-0.4375861,0.09483525,0.0139164915,-0.026126612,-0.0891834
chr1-146497430-146498302,-0.009303758,0.41019833,0.004764877,-0.4783389,-0.3413592,0.040790047,0.0035344712,0.14182502,-0.22688645,-0.009105814,-0.26205325,-0.10420956,0.12768507,-0.17117524,-0.037071034
chr1-150392626-150393481,-0.00037482448,0.23621045,-0.0027862221,0.14791808,-0.013394851,0.04294881,-0.006223615,-0.0071393414,-0.084862046,0.0001672135,0.14932397,-0.029243473,0.016683636,-0.012340954,0.07090863
chr1-151428157-151429002,-0.0010117316,-0.0064529898,-0.0022346415,0.29173526,0.08081584,0.2165511,-0.0104543585,-0.014932297,0.06882637,0.005162284,0.051624473,-0.019446004,0.007220523,-0.018499894,-0.019865517
chr1-151754858-151755696,-0.0022219361,-0.09572554,-0.0009777896,0.099103354,-0.131826,0.43972158,-0.0066224155,-0.018687565,-0.024169149,-0.0016146632,0.034304507,0.36912483,-0.0037700117,-0.011421694,-0.010651687
chr1-152902638-152903489,-0.006955331,0.17712405,-0.0044843177,0.10420413,0.43050945,0.1272957,-0.0076926984,-0.0008790717,-0.19349599,-0.013885232,0.11221351,0.12113577,-0.0037902514,-0.0554331,-0.30613008
chr1-153487179-153487967,0.0013741547,0.108224705,-0.0004140756,-0.058808163,0.046173453,0.094605684,-0.0040476066,-0.004581563,-0.11030613,-0.004754572,-0.07983813,-0.022435177,0.032838788,-0.03570279,0.020929467
chr1-155416924-155417724,-0.002249218,0.11679561,-0.0163498,0.10298582,0.045650724,0.15796527,-0.029034737,-0.0014186269,0.16882735,-0.005842541,-0.07336281,-0.050443657,-0.012122618,0.0010265739,0.06764721
chr1-155812354-155813238,0.021499397,0.51503956,0.007049257,0.15479192,-1.229042,-0.007508856,0.0039864266,0.117070705,-0.15442544,0.0010912102,0.045984466,-0.42571786,0.009607256,-0.028422395,-0.15005264
chr1-157443310-157444180,-0.0062111937,0.03864744,0.0016401404,0.15203837,0.053871788,-0.91757417,0.0036716377,0.075944155,0.18798764,-0.0011185847,-0.16213617,0.06018652,0.0017693958,-0.005754693,-0.016707823
chr1-160792426-160793222,-0.006262712,-0.041977406,-0.004495333,-0.24382146,0.21048334,0.65208346,-0.0036327539,-0.006326501,-0.06978724,-0.007296334,0.00029361882,-0.030204223,0.053766884,-0.031931657,-0.03354128
chr1-161034518-161035339,-0.016158294,-0.105059855,-0.01786952,0.4011012,0.43910813,0.2832759,-0.02966921,-0.010222448,0.054305684,-0.0015792993,0.21487035,-0.13835818,0.01968352,0.0831707,-0.10038343
chr1-161070221-161071159,-0.0007651754,0.15224455,-0.0073944917,0.25317466,0.18543929,-0.062980704,0.003946937,-0.008871461,-0.113211915,0.00039214606,0.28190586,0.09391567,-0.017494703,-0.02858064,-0.040381946
chr1-161250708-161251554,0.093278326,0.13207774,0.00017958973,0.39881623,-0.41860187,0.1182093,-0.00419428,-0.04697489,-0.01465394,-0.01507061,-0.116190776,-0.027210401,-0.02701889,-0.16403036,-0.037902232
chr1-161968802-161969676,-0.006016829,-0.15922402,-0.011151599,0.23117812,0.43135583,0.052162822,0.0059699854,-0.016766012,-0.12233259,-0.008206812,-0.12473316,0.34932864,-0.009108872,-0.030607404,0.020621289
chr1-162477524-162478299,-0.0036703018,-0.17907238,0.0037023795,-0.14871614,0.33322635,0.21810634,-0.0103200795,-0.008766892,0.09603064,-0.0032828948,-0.117489606,0.16518314,0.034054406,-0.004187324,-0.06499332
chr1-163929579-163930418,0.00017107408,-0.07767277,0.0018574904,0.15047684,0.2898761,-0.08411407,-0.001683598,0.002058555,-0.05525292,0.002194986,-0.054167155,0.017263804,0.00093139196,-0.01723769,0.012294711
chr1-163994516-163995383,0.0031731613,-0.1435189,-0.006034682,-0.39873987,0.3681837,-0.09997506,-0.0053020404,-0.056153692,0.19584458,-0.00647466,0.057795018,0.16819857,-0.020912547,-0.006630202,0.028361214
chr1-164307069-164307952,-0.011915356,-0.06869843,-0.013137782,0.0030157121,0.11705834,0.35609308,-0.0011648097,0.014566541,0.15433207,0.0027649195,-0.014834772,-0.3512564,0.006041478,0.003489095,-0.10768081
chr1-164454463-164455340,0.031367756,-0.47627974,0.12475014,-0.72268283,0.48460275,-0.6724491,0.05792041,0.03714026,-0.12406212,0.029321674,-0.24241585,-0.33552742,0.12286242,0.039135437,-0.2640577
chr1-165075357-165076241,-0.012383432,-0.038539942,0.4064845,-1.3038843,0.7132857,-0.9929438,0.34103692,0.19836919,-0.1306714,0.054206796,-0.14696205,-0.13864015,0.39977914,-0.12581287,0.01839767
chr1-165236545-165237394,0.0121752005,0.087577425,-0.012764028,-0.18416186,0.40747878,0.11301563,-0.010280607,0.0020373377,-0.099732794,-0.009138383,0.06443369,0.0062317657,0.017843375,-0.006602319,-0.1398921
chr1-166002413-166003228,-0.0033295962,0.10982658,0.000609921,0.39014125,-0.6476353,0.31384918,-0.0012616065,-0.0018681287,-0.15473332,-0.00044864253,0.01165917,0.075578615,0.005029215,0.0015943282,-0.010838318
chr1-166378896-166379721,0.006178409,0.09261614,0.003869971,0.11517696,-0.44475538,0.22944692,-0.0005721978,-0.005881054,-0.06797196,0.0036965283,0.36246175,-0.07487223,-0.0061760233,-0.062419556,-0.12028495
chr1-167259441-167260363,0.019892972,-0.10097896,0.23720627,-0.877021,0.27402434,-0.9980911,0.1052331,0.4371141,-0.07048272,0.02091078,-0.5522752,-0.13522625,0.2380552,0.029819183,0.20182906
chr1-167349675-167350508,-0.005849526,0.010385883,-0.20513968,0.6334505,-0.032811522,0.33185336,-0.020393917,-0.02109102,0.019548433,-0.006508388,0.19181132,-0.08711464,-0.03869544,-0.040633563,0.100065
chr1-167393565-167394510,-0.00020959263,0.11627874,0.0038007924,-0.2547019,-0.08967789,-0.45056868,0.020481022,0.022760214,-0.09822954,-0.0074134665,-0.06802742,-0.042140126,0.05129192,-0.010489507,-0.0448222
chr1-168431923-168432715,-0.00046536676,-0.06813322,0.0030667814,0.42781588,0.26969665,-0.016702898,-0.01387853,-0.0062837712,-0.12329458,-0.013290391,-0.114547305,0.45253634,0.032323107,-0.023572734,0.043149527
chr1-169968834-169969760,0.003510476,0.0070964443,0.00052595476,0.06429334,-0.5111737,0.35870492,-0.010597627,0.0069999634,0.14141573,-0.009421027,0.04110897,0.14642604,0.041859325,-0.08706798,-0.022190062
chr1-171110787-171111640,0.0045395214,0.39798942,-0.022550741,0.12782776,-0.24041116,-0.25193486,-0.003074557,-0.046691377,0.1939169,-0.019009255,0.035890013,0.1264985,-0.044923663,0.0031439743,0.14965235
chr1-171150096-171150998,-0.0014423227,0.0020847968,0.0066786655,-0.1366261,0.24900201,0.003959811,0.00017349534,-0.026403701,0.02622151,-0.0045514833,-0.15483367,-0.03196132,0.015289765,0.022173906,0.01984138
chr1-171246690-171247596,-0.0061409455,-0.32817522,0.0024899438,0.18571366,0.39130455,0.35735565,0.0023871684,-0.008667993,-0.20361166,-0.005827432,0.17561124,0.031989913,0.016081447,-0.05128029,-0.04515562
chr1-171280908-171281773,0.008794587,-0.1617274,-0.02046975,0.45566523,-0.5198715,0.4510167,0.008936703,-0.019221481,-0.18784873,0.0075255223,0.1788544,0.041184038,-0.03881979,-0.036165122,0.017522909
chr1-171287438-171288318,0.006142108,0.2514224,0.0008493565,-0.18595605,-0.42293358,-0.2794001,0.0058462634,0.021780413,-0.03698863,0.003928541,-0.28700352,-0.11076322,-0.017411362,0.0004825164,0.044905376
chr1-171345217-171346073,0.0043140994,-0.030782104,0.0024053042,0.19047132,0.08982047,-0.22745699,-0.0061657177,-0.004233703,-0.009390105,-0.006564727,-0.09675891,0.0677212,0.0057276357,-0.021821229,0.007988813
chr1-171410965-171411821,-0.004555509,-0.018169925,0.0019209733,0.24572329,-0.17358261,0.12650327,-0.0020726344,-0.01544057,0.02871498,-0.0048934342,0.091381304,-0.009013356,0.027284445,-0.018391157,0.0387475
chr1-172082279-172083199,-0.005033268,-0.04144489,0.01673303,-0.08809604,-0.11587325,0.14183389,-0.00096193445,-0.0016855702,0.077298194,0.00027649323,-0.16784716,0.03503625,0.0487635,-0.0091901645,-0.006039365
chr1-172328882-172329789,0.03345575,-0.0877383,0.41043165,-1.0398892,0.23317236,-0.879767,0.45174953,0.3871198,-0.20651062,-0.06683572,-0.3242359,-0.049285166,0.24965231,0.014725212,0.12312954
chr1-172376153-172376962,-0.01387761,-0.3601709,0.0026579984,-0.2648323,0.28479302,0.2933862,-0.023644052,-0.01356557,0.23459256,0.011408988,-0.15185215,0.023029445,0.07671509,-0.10500447,0.015293418
chr1-172562794-172563634,0.1313594,0.060288187,-0.13833864,-0.19112028,0.20594937,0.060625613,-0.07088808,-0.09034604,0.24421912,-0.029131109,-0.183947,0.3861485,0.06759263,-0.016483989,-0.16682653
chr1-172632580-172633423,0.01110833,0.39633462,0.017537804,0.6976899,-0.87688494,0.09596471,-0.027529815,-0.014768507,-0.47699538,-0.021495814,0.13917954,0.08202272,-0.08742523,-0.10396665,0.20419204
chr1-173335809-173336740,-0.18871441,-0.18152823,-0.51997143,-0.8829266,1.4390835,0.29796985,-0.060428355,-0.021620171,0.15610768,-0.03239815,-0.103855975,-0.50129503,0.18327583,-0.015770735,0.02037774
chr1-175492031-175492874,-0.0010418021,-0.26823184,-0.011646896,-0.50755435,0.67932266,0.021955032,-0.0068783187,0.009117258,0.119353876,0.007934412,-0.08512602,-0.07456199,0.026982414,-0.024529139,-0.0068373806
chr1-175625108-175625955,0.020531222,0.35166734,0.007075568,-0.304062,-0.63037634,-0.14712729,0.007240311,-0.005860932,0.04491616,0.009874506,-0.070636615,-0.120086275,-0.02507127,-0.019652344,-0.1606535
chr1-175692351-175693214,0.00095884874,-0.05699325,0.03155998,0.20416185,-0.3842137,-0.097724,0.0021313638,0.00066290575,-0.03410867,-0.0075103533,0.22455785,0.17866436,-0.035489626,-0.03467289,-0.014661452
chr1-177796165-177796972,-0.0026619027,-0.14505836,-0.009932951,0.4010335,0.16983029,0.14012271,-0.002957499,-0.045131348,-0.03760874,-0.0075698216,0.17456874,0.048161257,0.010308037,-0.00071645115,-0.0071013276
chr1-178187119-178187999,-0.0023924676,0.025387919,0.0050705364,0.24086091,-0.30864316,0.06249658,-0.0012946422,0.0002766193,-0.08318294,-0.0030267842,0.0308686,-0.20237763,0.045001928,0.023286445,0.005461633
chr1-180195644-180196467,0.0011050963,-0.028617019,0.00051738875,0.14235342,-0.58075154,0.21761347,0.010471629,0.0014806575,-0.1366322,-0.0020013084,0.01592741,-0.042503875,0.00935841,-0.017622888,-0.010855087
chr1-180725575-180726502,-0.05126305,-0.04620875,0.00644128,0.20484985,-0.35957056,0.16106094,0.004410847,0.026782565,-0.007950304,-0.01063171,-0.19850425,0.13027753,-0.014837007,-0.011657382,0.045676768
chr1-180903916-180904750,0.01590888,0.3298494,0.0041774367,0.07135971,-0.75801355,0.2582241,0.0023769613,-0.007031524,-0.07151007,-0.0044516884,-0.3045231,-0.09814974,-0.0033998776,0.008357119,-0.077662736
chr1-181841933-181842730,0.121259496,0.22250308,0.012521516,0.604656,-0.93158174,0.39422902,-0.020468019,-0.3309835,-0.4526447,-0.030342018,0.18480437,-0.2253501,-0.23889476,-0.37673405,0.27748445
chr1-182019995-182020856,0.0012671701,-0.13208985,0.021407206,-0.50146925,-0.09014361,0.042850528,0.0045631477,-0.006108622,0.03427107,-0.005632774,0.040883616,0.0028303594,-0.0018489228,-0.008878065,-0.016796835
chr1-182764649-182765216,0.0123854745,0.50178546,0.007863963,-0.770495,0.41230947,-0.26363033,0.01648816,0.012233187,-0.49208847,-0.006835151,-0.21981631,-0.023247063,-0.00039476997,0.019976426,-0.0593832
chr1-183345084-183345927,-0.018772127,0.13652375,0.00018192074,-0.13390948,0.20748278,-0.351915,-8.442699e-05,0.004771079,0.06350357,0.0027248017,-0.26125726,0.042458393,0.0061452873,0.017189201,0.004333682
chr1-185203743-185204608,-0.0020644986,0.22625022,-0.0030168968,0.22074379,-0.23462549,0.25612792,-0.0036767586,-0.0022796253,-0.15030743,-0.001737721,-0.057608463,0.035330426,-0.022207431,-0.02102127,0.0147244735
chr1-185328809-185329660,-0.02673391,-0.020149648,0.008341836,0.4740337,-0.19024885,0.071818344,-0.020570008,-0.02064602,0.29816493,0.011716742,-0.08844637,-0.28701895,-3.1679992e-05,-0.08814702,0.06009235
chr1-189921777-189922590,0.2778773,0.4115881,0.16967227,0.14055884,-1.4855533,-0.20529178,0.10771957,0.21939261,-0.7099169,-0.15511538,-0.07715477,0.24194983,-0.030506626,0.014107765,-0.017945552
chr1-190911328-190912203,-0.0032202532,0.009460484,0.002887169,-0.5570597,0.11245257,-0.087835975,0.0018445209,0.02415437,0.020144897,0.0069749355,-0.16149701,-0.07777966,0.0068280185,-0.029086547,-0.03001327
chr1-191907294-191908057,0.0015133873,0.3419406,-0.038671374,0.1711697,0.095121324,-0.1974736,0.001250694,-0.0014811981,-0.2107455,-0.008267276,-0.121595524,0.07741612,0.1339856,-0.023724213,-0.16223264
chr1-192266705-192267613,0.011624218,-0.554733,0.08522095,-1.0547596,1.4081452,-1.001217,0.13485351,0.30790752,-0.19847544,0.0060571264,-0.30686787,0.12619348,0.13300064,-0.12392957,-0.11469806
chr1-193575709-193576598,0.004104621,-0.34925467,0.082527936,-0.13457009,0.23784915,-0.31653452,0.010260633,-0.02462953,-0.067715675,-0.0047686636,-0.2501206,0.08613221,0.009110766,-0.10940308,0.05075601
chr1-194620366-194620883,-0.010535392,0.24905284,-0.038193777,-0.08459989,0.4930185,-0.2222941,-0.013114149,-0.021522608,0.2184748,-0.010185966,-0.061202228,0.117691725,-0.020793764,-0.031059321,0.10425007
chr1-195017913-195018739,-0.0006519119,-0.121545844,0.0020945903,-0.24392319,0.15811548,-0.043933094,0.0049891635,0.01582354,-0.07212061,0.011781423,-0.022295047,-0.05864731,-0.006163483,0.028286831,-0.03166726
chr1-195130831-195131639,-0.0051747165,-0.051401455,-0.03138823,0.42036736,0.2717716,-0.029070662,-0.033543173,-0.18379365,0.080155276,-0.020292578,0.17808935,0.27774313,-0.05530156,0.040618192,-0.18061341
chr1-195241238-195242145,0.019018486,0.393561,0.03405952,0.29365802,-0.88913554,-0.6135959,0.023448827,-0.015225139,-0.20405553,-0.0052543306,0.1360631,-0.06510409,-0.02038267,0.014237291,0.03537194
chr10-3973061-3973435,0.03213588,0.3901605,0.00041403287,0.116877146,-0.7167799,0.1793157,-0.013269089,0.08515092,-0.22341284,-0.067838855,0.06622349,0.55005956,-0.09864356,-0.2705918,-0.13394047
chr10-4431895-4432817,0.055211846,0.0029583967,0.018837806,-0.13715415,-0.91539466,0.036443006,0.033301152,0.071705244,-0.40463805,0.018671706,-0.24221511,0.059182543,-0.111585505,-0.0046048425,-0.08419444
chr10-5805397-5806297,-0.008204264,0.43372312,0.0066641164,0.17493673,-0.25086492,0.059705563,-0.0063409633,-0.05721747,-0.14193825,-0.011219863,0.2171559,-0.102463715,-0.068489194,0.06266417,0.013720118
chr10-5921988-5922884,-0.024662586,-0.30111092,-0.017118,-0.3348845,0.87014604,-0.42974514,0.04048883,0.035194483,0.1716282,-0.023689836,-0.096796915,0.05654209,0.08487027,-0.13062474,-0.06472624
chr10-7211937-7212489,0.003756543,0.44923133,0.061630577,0.66772974,-1.7475632,0.6132685,-0.006067194,-0.20866542,-0.08418806,-0.021361021,0.07118231,-0.01519917,-0.096357144,-0.030218547,-0.22299714
chr10-7589534-7590284,0.09335538,0.17614461,0.27869722,-0.47933426,-0.5088284,-0.07534216,0.13531193,0.052794103,-0.27153578,-0.054385375,-0.55681586,0.27452648,-0.107359916,-0.15964447,-0.1951699
chr10-7662879-7663784,0.002388499,0.19216385,-0.005113289,-0.052269787,-0.2804028,-0.016587535,0.0016200553,0.0074268533,-0.04332198,0.00091444026,-0.20747112,0.049321707,0.010296295,0.0053445115,-0.017628621
chr10-11149100-11149931,-0.0041776975,0.20030062,-0.00435577,0.061935637,-0.016308032,0.114956774,-0.001318326,-0.010077392,6.74804e-05,-0.0024007438,-0.014292234,0.09189385,-0.018082418,-0.005950336,-0.08493607
chr10-12922493-12923315,-0.0054345974,-0.01062344,-0.016140038,0.5913652,-0.013390746,-0.013774698,-0.005455155,0.003416338,0.0068026003,-0.004356095,0.1606757,-0.028115151,-0.020806251,0.01188008,0.019631868
chr10-13008057-13008899,-0.009942032,0.5644011,0.026110006,0.15954919,-0.8707284,0.24025859,-0.00941167,0.061378498,-0.4887796,0.006432182,-0.0037794667,-0.0669122,-0.11702197,0.0453095,-0.07164893
chr10-13500884-13501725,-0.04049375,0.019401534,0.042777255,-0.3640571,0.5569827,-0.20473903,-0.0050319824,-0.037119497,0.08942243,0.0058510164,-0.34393388,-0.32004425,0.032472894,0.00857074,0.026177237
chr10-13552753-13553657,0.0060256273,0.0053134426,0.009576226,-0.03589536,-0.44275874,0.2532249,-0.0007557179,0.0040405793,-0.049323313,0.0034025353,0.024570353,-0.06414604,-0.0075890264,-0.008440121,-0.026737208
chr10-13868401-13869267,-0.027569318,0.31640163,0.032411437,-0.5659001,-0.009924453,0.16941516,0.0021654582,0.003687312,-0.06552096,-0.008940214,0.09183195,-0.12896435,0.015508263,0.0027419492,-0.10014418
chr10-17723930-17724788,-0.0023321852,0.17815195,-0.009269258,-0.21639633,0.35465032,0.011394546,-0.0037568049,-0.00018678994,-0.0014559655,-0.0034998017,-0.07908933,-0.0027518226,0.009486933,0.014544393,-0.011120485
chr10-18234697-18235600,-0.0058390363,0.07743589,0.0081009865,-0.18595652,0.041146994,0.25947356,0.00064294704,-0.0055001597,-0.085116304,-0.0010491848,0.028737728,0.026118986,-0.016431471,0.013256631,-0.06058201
chr10-18743259-18744142,-0.010296571,-0.44621462,-0.0032595068,-0.7781369,1.1347816,-0.5034542,0.030427737,0.19388714,0.03295741,-0.0021960326,-0.421779,0.17448853,0.08655665,-0.0521712,-0.17328207
chr10-19014959-19015769,0.004341206,0.073633716,0.016384821,0.30269498,0.22782747,-0.08810256,-0.008859752,-0.048440766,-0.12582839,0.0026943358,0.21566427,-0.3630617,-0.052068323,-0.06490989,-0.00031799922
chr10-19933839-19934715,0.0014087856,0.022108182,0.0051915534,-0.12201043,-0.023103923,-0.23054957,0.003279454,0.022558667,-0.18885031,-0.00048675592,0.016002594,0.019286623,9.44676e-05,-0.008656793,-0.037852503
chr10-20547745-20548612,-0.40468997,-0.012500524,-0.6692832,0.3176692,1.458751,-0.3739097,-0.1048944,-0.551568,0.6214512,-0.21776657,-0.13743833,-0.4638663,0.24038582,-0.35137403,0.02171731
chr10-22644745-22645641,-0.003782409,0.36107773,0.023884524,0.52338487,-1.2111007,0.08548423,-0.014621536,0.040279265,-0.23510727,-0.010831377,-0.20554155,-0.028746706,-0.036647078,0.044570684,-0.04880475
chr10-22730969-22731870,0.00064981414,-0.24451798,-0.010179263,0.42780674,0.15393443,0.21381782,-0.00074787537,-0.020796632,-0.075273916,0.0012563986,-0.19129069,0.02658914,0.024256125,-0.0021407667,-0.0063203904
chr10-23786851-23787733,0.0073599443,0.020269997,-0.002461304,0.16136609,-0.16163431,0.15584497,-0.021929365,-0.10012889,0.18527113,0.0016393701,0.14651832,-0.4733179,0.024971081,-0.10965124,0.056623314
chr10-25199592-25200397,0.0035484761,0.10257112,0.0063553965,0.28457183,-0.59061134,-0.22816819,0.00175719,-0.009458867,0.029397376,-0.0062035113,-0.03303152,-0.016437212,-0.005919337,-0.005825608,0.016248276
chr10-25359335-25360226,-0.0126647595,-0.30792844,-0.24384797,0.54804474,0.025923602,0.40360576,-0.03464923,-0.12302176,0.5008808,-0.039002936,0.20417845,-0.28823942,-0.056369938,0.025073698,-0.19986814
chr10-29312936-29313810,0.0018208985,-0.18380594,0.009553241,0.111330874,-0.40027547,0.42737567,0.0043350533,0.0024426177,-0.10274725,-0.0019101797,0.10608941,-0.030995129,-0.053721428,-0.025305528,-0.03673395
chr10-30600243-30601156,-0.014787939,-0.24977887,0.003711629,0.38729045,-0.513271,0.15235396,0.0060537527,-0.009724023,0.13525093,-0.00044438164,0.16997229,0.2863246,-0.04794921,-0.034668274,-0.005528365
chr10-30617933-30618813,-0.00087625586,-0.13424803,0.0029145603,0.04926632,0.023508798,0.13066699,-0.001830919,0.002048272,0.0033319378,-0.0041394457,-0.021990286,0.046509087,-0.0002608982,0.027431395,-0.08012942
chr10-31313091-31313972,-0.0032505044,-0.037845444,-0.0051873676,0.37212354,0.050615612,-0.205071,-0.0005791818,0.012927132,-0.019762164,0.0037566626,-0.05011699,-0.03853991,-0.023221985,0.00036384613,0.009845242
chr10-31445442-31446285,-0.060819395,0.08604625,-0.18065663,-0.36354968,0.78770566,-0.49514136,-0.026310828,0.11405989,0.4140553,-0.042365655,-0.15073024,-0.47195253,0.15791434,0.09831936,0.08339977
chr10-31609275-31610057,0.0013190579,0.11587284,-0.0042178654,-0.05311094,-0.18830797,0.135185,-0.0018718849,0.0035637578,0.0036226662,-2.0261272e-05,-0.06341681,0.07540887,-0.0012506371,0.0025821065,-0.012450119
chr10-34281815-34282641,0.0028355073,-0.0712345,-0.0012475397,0.044469345,-0.1608552,0.18553832,0.00035399056,-0.028612034,0.19336842,0.0003836956,-0.26592124,-0.08635248,0.0071693687,0.0019828945,-0.016292598
chr10-34297194-34298021,0.0009246355,0.002896036,-0.002631615,-0.60028726,0.29327637,-0.0016321128,0.00320281,-0.0007824738,0.028299682,0.0040102405,-0.30181587,-0.05376131,0.017529974,-0.0055107274,0.05033765
chr10-39369396-39370165,-0.04341613,-0.013684378,-0.018566644,-0.08048771,0.35774052,0.19677974,0.009169188,-0.002692803,-0.1099125,0.0013540448,-0.05936435,-0.3227129,-0.047250103,0.39405394,-0.06586197
chr10-40300582-40301449,0.0025024987,0.03152095,-0.0041195834,-0.14447229,-0.099228404,-0.09136156,-0.00087174465,0.0048827142,-0.018292138,-0.0007296521,-0.21532321,-0.08508585,0.06257723,-0.01910982,0.07607302
chr10-40301980-40302804,-0.0065907254,0.21257523,-0.00042475335,-0.0032885196,-0.11564006,0.25663424,-0.00037344627,0.0044331,-0.07909881,-0.0036971779,-0.048865348,-0.11577334,-0.038179506,0.12936333,-0.03652002
chr10-41302703-41303541,0.003708607,0.15061972,0.0031859905,0.21957828,0.26044244,-0.2095537,0.0014451211,-0.040124737,-0.16939971,-0.007633571,0.11598235,0.14264688,-0.08782298,0.00013816296,-0.061422873
chr10-41449861-41450726,0.00076573377,0.029376365,-0.0041393917,0.264269,-0.63883746,-0.18302596,0.0055724327,0.013891037,0.011682841,-0.008281301,0.23423307,-0.03824433,0.034858003,-0.003695885,-0.017742734
chr10-41489860-41490739,0.0058942777,0.1240265,-0.020267792,0.7077769,-0.3892185,0.05008141,-0.005970044,-0.04808281,-0.084671155,0.007665546,-0.177969,-0.20634139,0.009991498,0.04110396,0.04187475
chr10-42017979-42018875,-0.0128044,0.02970454,0.0033964454,-0.3460214,0.3451761,-0.12348864,0.0017743442,0.022495404,-0.038154785,-0.00606961,-0.11268223,0.1132839,-0.0033577334,-0.024161719,-0.018840482
chr10-42277566-42278379,0.00087377866,0.05905197,-0.018015955,0.43590128,0.13704976,0.12462035,-0.0015038698,0.0060237357,0.017407646,-0.00956947,0.049748138,0.10184427,-0.008995495,-0.03346429,-0.113256946
chr10-42678554-42679379,-0.0016852163,-0.11945137,0.009580383,0.09308741,-0.28697503,0.15949991,-0.00015038213,0.0013785367,-0.048496068,0.0051542344,-0.12211008,-0.034986414,-0.044924084,0.016078014,0.0101217935
chr10-43901276-43902205,0.0030850328,0.06393479,-0.0036637492,-0.044500947,0.308823,-0.30882865,-0.005175282,-0.03322589,0.060876712,-0.0077959374,-0.24002619,-0.15617734,0.022725156,0.051746424,0.073764555
chr10-44267954-44268881,0.0029826288,0.06797076,0.002522853,0.17498654,-0.28566182,-0.35351616,-0.0016368101,-0.008126616,0.05995439,-0.0020370022,-0.14316076,0.06637778,-0.0048467536,-0.015548264,-0.023634374
chr10-45066574-45067501,-0.016098522,0.5479003,-0.047780514,0.073206946,-0.22576377,0.016474694,0.005642056,0.063055664,-0.3969072,-0.013982195,0.08100487,-0.1507041,0.06097046,0.16266863,-0.074134745
chr10-45577735-45578537,-0.0025311094,0.034051526,-0.003210904,-0.49729136,0.1668788,0.056235503,0.00449865,-0.004618279,0.017409418,-0.0011521865,-0.238684,-0.07758941,0.015132088,0.002219126,-0.02006753
chr10-49788288-49789131,0.0081615485,0.20551094,0.009848101,-0.9602196,0.5103092,0.09353589,-0.009690258,-0.008789166,-0.043334704,-0.00080547365,0.08151728,-0.09532093,0.036796927,-0.013112747,-0.3185598
chr10-52381694-52382545,-0.0025622179,0.03715561,0.013863045,-0.3484659,0.27512807,-0.14220363,-0.0019315736,0.0052773827,0.02033763,0.0011806148,-0.26196554,-0.29355428,-0.0031517916,0.06406177,-0.15276134
chr10-52704285-52705190,0.013750763,-0.7083018,0.0461894,-0.870292,0.3840477,0.17704815,0.083884336,0.05611835,-0.3087078,0.032679074,-0.6415872,-0.2645111,0.08381322,0.1053804,-0.09882731
chr10-53379363-53380153,-0.009451242,0.3534602,-0.012906917,0.33037087,-0.23777014,-0.21008171,-0.0073263235,-0.023283618,0.12240293,0.0020667273,-0.40469292,0.063517645,0.0028591082,0.00076262426,0.05094094
chr10-53629549-53630253,-0.020654213,0.008225171,-0.16741139,0.53911346,0.44797963,0.2922853,-0.02832173,-0.042847026,0.049442217,0.021520223,0.1277831,-0.34858197,-0.04305364,-0.084080294,-0.0032708498
chr10-56228426-56229326,-0.004739817,0.436494,0.0018843499,-0.025419148,-0.3165625,0.069432095,-0.002815747,-0.0005478668,0.09940554,-0.0065550664,0.13178061,-0.08972037,-0.024947273,-0.008689336,-0.0046075406
chr10-57485976-57486778,-0.0012011349,0.18203983,0.000656254,-0.25741038,-0.188184,0.07710875,-0.00046897295,0.0011332912,0.055583518,0.0003148574,0.054972816,0.033329066,-0.009298178,-0.0048732534,-6.466654e-05
chr10-58322913-58323826,0.0052484362,-0.10654025,0.0059923963,0.5208415,-0.7211617,0.36114728,0.00024188463,-0.013165098,-0.17977966,0.0031983645,0.20545174,0.23718208,-0.21937725,-0.0698798,-0.103253305
chr10-59322972-59323777,-0.00467906,-0.15914074,-0.0029093495,0.044379007,0.06806208,0.33246037,-0.004051684,-0.0042661093,0.19917594,0.0039143846,-0.050019775,-0.10436103,-0.021723075,0.010662598,-0.025605084
chr10-59978720-59979638,-0.05406655,0.1313189,-0.009407988,0.6053963,-1.0041509,0.47771302,0.009080199,0.029586218,-0.35377643,-0.025943099,0.29792485,-0.0058297836,-0.06337063,0.00338735,-0.05479018
chr10-60105882-60106508,-0.016746677,0.32142124,-0.0071703503,0.25826234,0.4795821,-0.2696953,0.002094779,-0.033991992,-0.024338791,-0.018549487,0.0076788496,0.36150968,0.026916834,-0.12064773,-0.091042355
chr10-60106626-60107299,0.00294406,0.15891935,0.0025692757,-0.054586746,0.1750347,-0.46059343,0.002223716,-0.012527905,0.024626125,-0.007643167,0.09445331,-0.03806608,-0.006357061,-0.018200831,-0.007077731
chr10-61147267-61148024,0.0069181235,-0.27337024,-0.0008640739,0.3236862,0.10015396,0.10728916,-0.00046397612,-0.008252798,-0.09711872,-0.00221776,-0.039205745,0.08847066,-0.025214281,-0.013379337,0.02105084
chr10-62865099-62865931,-0.06823466,-0.057751216,0.0018961107,-0.18351908,0.31850272,0.4705311,0.0043467716,-0.020339036,0.03589508,-0.0058975285,0.11887114,-0.020025777,0.037574634,-0.00923924,-0.21640256
chr10-62920116-62921022,0.00021591937,-0.048881955,0.000806517,0.04429316,-0.36239755,0.21372521,-0.000598311,-0.008224142,0.107593946,-0.005120677,0.05416254,0.05234938,-0.0018318687,0.008817607,-0.019989768
chr10-63243474-63244285,0.004747231,0.15464483,0.004280694,0.28451708,-0.3634708,0.060511943,-0.007140368,0.0019178722,-0.10949269,0.0006496232,0.089491464,-0.0068316087,-0.02107221,-0.023100695,-0.21958809
chr10-63338602-63339360,-0.0012422758,-0.09620056,-0.013471762,0.34515613,-0.036443416,0.34799653,-0.0014977216,0.0052839546,-0.009451449,0.0069724615,-0.054470792,-0.15421271,-0.017742915,0.018160008,-0.09297745
chr10-63429521-63430289,-0.0085754935,0.07341302,-0.0072677042,-0.151152,0.7616092,-0.1881175,-0.0059627825,-0.05466745,0.014373359,0.0054745656,-0.03880938,-0.30863115,-0.010732594,-0.053473897,0.24328072
chr10-67979126-67980048,2.121071e-05,0.116501674,0.0036137782,-0.13822547,-0.111794904,0.44216982,0.0005903977,-0.010981379,-0.07472997,-0.00028571533,0.11858035,-0.073295884,-0.023066167,-0.005180364,-0.022199504
chr10-70096542-70097454,-0.002340553,0.23243684,-0.010134361,0.08008749,0.43406644,-0.19726543,-0.00042458074,0.010754213,-0.1348683,-0.0018698254,-0.13669303,-0.0019005546,0.01581658,-0.01510244,0.016260494
chr10-71344469-71345385,-0.006408324,0.11307781,-0.013857244,0.05287807,0.07617865,0.39621204,-0.002339488,0.022726374,0.0039839894,-0.013940596,0.107492596,-0.06646848,0.016573554,-0.0063495194,-0.18474221
chr10-74967993-74968817,-0.07173433,0.09518334,0.14741406,-0.71904427,0.31101465,-0.84749883,0.220026,0.37314677,-0.21908195,0.06904825,-0.36616436,-0.24892153,0.18412471,0.023226602,-0.16325936
chr10-75135282-75136221,-0.3075334,-0.97718674,-0.32855988,-0.9796848,2.066822,-0.950693,-0.27253512,-0.049395606,0.6764088,-0.37017122,-0.6347319,-0.32365775,0.5841586,-0.40427434,0.0877442
chr10-75763895-75764810,-0.04017814,0.015520889,0.018152181,-0.22342637,0.62467515,-0.7102775,-0.0013731909,0.020678716,0.096826136,0.0064321286,-0.31632635,-0.13484576,-0.016986704,0.21284226,-0.045513034
chr10-76237416-76238323,-0.013656425,-0.0090930415,-0.037178107,0.3158225,-0.19102055,0.73941875,-0.037447933,-0.058501657,0.026739249,-0.0075308657,0.5036122,-0.2038698,-0.067361854,0.028477253,-0.07345695
chr10-77417857-77418650,0.0024789905,0.26436332,-0.018328236,0.005198599,0.0019838065,-0.28658712,0.0026165112,0.022567973,-0.04076369,-0.003411639,-0.22451374,0.23069489,0.0033627993,-0.017652847,-0.024660032
chr10-77581311-77582179,0.002699967,-0.024001991,-0.012588072,0.37622443,0.39969647,0.20230213,-0.010825434,-0.032016337,-0.0869932,-0.0024770172,-0.18239713,0.041241556,0.026277032,-0.009147211,0.06836585
chr10-77588842-77589755,-0.16974723,-0.41180152,-0.12639028,0.22468849,1.0612497,-0.6723549,-0.053534526,-0.0235189,0.57663184,0.033425286,-0.3556057,-0.0625291,0.058228236,-0.17368989,0.040970374
chr10-77590606-77591359,-0.36487976,-0.30972305,-0.05516977,-0.6699125,1.2821052,-0.62766373,0.011230791,0.19304135,0.26870653,-0.008103163,-0.52976674,0.09970594,0.11359938,-0.00852203,-0.08285354
chr10-77621863-77622768,-0.0014827598,0.0042121713,-0.0006902575,0.19399609,-0.14559743,0.3488732,-0.0066895387,0.0053446675,-0.010649415,-0.0049133743,-0.0089464765,0.097617455,0.009218642,-0.0077010505,-0.03359219
chr10-78009064-78009938,0.037962526,0.07611311,-0.0016914046,-0.013772335,-0.16899441,-0.12150829,-0.00047134448,0.015081842,-0.30636534,-0.00544284,-0.010606876,0.010372487,-0.063279875,-0.022220291,0.041434627
chr10-78169332-78170258,0.0005988106,-0.059973184,-0.003381811,0.15165967,-0.44987947,0.28861204,-0.0012353252,-0.0035949855,0.10685925,0.0014538183,0.0033062126,-0.01232513,-0.010786301,-0.0025621385,-0.03290547
chr10-78425299-78426135,-0.005245877,-0.30286208,-0.0037760744,-0.21205704,0.6406117,0.31907776,-0.0027443287,0.016698008,-0.08263715,0.011903923,-0.32490376,-0.3019107,-0.015221816,0.01392398,-0.19568348
chr10-78457779-78458547,-0.6995574,-0.23629273,-0.20980036,-0.024027804,1.5082622,0.1065415,-0.12112092,-0.5158181,0.1450808,-0.027956674,-0.01375938,-0.06754455,-0.068808265,0.015486711,-0.13302824
chr10-78574266-78575199,-0.0064574867,0.030188287,-0.07975087,0.4697861,-0.45312214,0.52501124,0.00042990057,-0.003020061,-0.012001968,0.0015936071,0.21520358,-0.5991516,-0.04600325,-0.03899087,-0.017229155
chr10-78787411-78788338,-0.0007406793,-0.23624206,0.085225634,-0.40632793,0.29702255,-0.33348945,0.13743946,0.08268593,-0.16151795,-0.0073219505,-0.40393487,-0.2932721,0.082527876,0.13299188,-0.18436587
chr10-79668683-79669538,0.00050079025,-0.051394362,0.01255542,-0.44084516,-0.2733851,-0.03188583,0.022913437,0.015324274,-0.114137955,0.009140013,-0.24648246,-0.12219032,0.034903176,-0.0262841,-0.052744843
chr10-79704038-79704848,0.0015676828,-0.080151595,0.005229521,0.28163072,-0.16588399,0.06159336,-0.00064621615,-0.018080484,-0.0035987408,-0.0031328064,-0.09014999,0.045111418,-0.025469162,-0.0030484733,-0.0076395916
chr10-79908271-79909174,-0.023901112,0.06652665,-0.029108277,0.45473137,0.25325823,0.32206932,-0.017513923,-0.08791502,0.09715077,-0.011980328,0.32802585,0.27453455,-0.09220717,0.005453303,-0.10861514
chr10-80167412-80168233,-0.024265233,-0.30138132,-0.018626504,0.27990684,0.2779892,-0.22146828,0.003254352,0.0085676,0.31404996,-0.011949526,0.013019727,0.20376009,-0.05687692,0.052147064,-0.15776896
chr10-80172520-80173383,0.0013537739,-0.20615932,0.0013962972,0.0572908,-0.11117618,0.121244535,0.013051067,0.018277008,-0.16164786,-0.0077383644,-0.18448561,-0.03110417,-0.015072407,-0.0027222026,-0.010958634
chr10-80248922-80249848,-0.00043197515,0.119257115,-0.017767528,0.4268285,-0.2365768,0.19186401,0.002111928,0.0039387415,-0.15529269,-0.0011911151,0.013262077,0.028437302,-0.0093822945,-0.005222575,-0.028503116
chr10-80260820-80261589,0.0018908697,-0.18991327,-0.000356142,0.6333222,-0.30313084,0.38778514,-0.004962721,-0.035339553,0.09817595,-0.003492281,0.2709828,-0.05068087,-0.06967947,-0.056046788,-0.036183096
chr10-80295501-80296374,-0.0060018953,-0.48324344,0.010850485,-0.13311306,0.47136936,-0.38166323,0.015602778,0.016603624,-0.0037925693,0.008745816,0.08555382,-0.40066135,-0.0016912065,-0.06058564,0.02480622
chr10-80329458-80330336,0.022074454,-0.32109335,-0.08569316,0.16837177,0.274859,0.12750554,-0.011680298,-0.00027251168,0.05316302,-0.0048218635,-0.04996182,0.20270465,-0.023384016,-0.057734463,-0.06257966
chr10-80398779-80399139,0.008660333,-0.06341517,0.0044433204,-0.0064525986,-0.8218856,0.47102383,7.7483615e-05,-0.004787452,-0.19584142,0.0030414236,-0.055959105,-0.06831198,-0.025836337,-0.013152412,0.09236149
chr10-80406452-80407321,0.012699023,-0.49431685,0.020588078,0.3697475,-0.35842,0.19592713,-0.004987024,-0.010168285,-0.02894249,0.004311658,0.060969606,0.01834898,-0.050707348,0.029179929,-0.07361218
chr10-80826080-80826879,0.0020405562,-0.027197998,-0.002516121,0.46484894,-0.024363384,0.16244292,-0.0037028138,0.018383723,-0.01549803,0.0020697087,0.0017456976,0.00830815,-0.024133522,-0.025744205,-0.028437063
chr10-80843679-80844566,-0.28934154,-0.5281757,-0.11397108,-0.84762084,1.6316817,-0.69517285,-0.060599327,0.32084534,0.18791091,-0.0014927112,-0.13192624,-0.15371059,0.07519815,-0.013468306,-0.11801705
chr10-80854830-80855677,-0.012539329,-0.17016529,-0.037560627,-0.36024928,0.45326993,0.3297773,-0.00097645953,0.016208488,0.20090665,0.0022855713,-0.12034861,0.075721815,0.020115253,-0.059105612,-0.0020829043
chr10-81014525-81015363,-0.10816454,-0.7623406,-0.1517078,-0.06201162,1.0079886,0.39739132,-0.04832371,-0.11531202,0.17494616,0.008120871,-0.22322184,-0.030909138,-7.620269e-05,0.21716873,0.0041517788
chr10-81135900-81136728,-0.016184263,-0.056152303,-0.0021318013,0.30417684,0.5511944,-0.10842508,0.008969611,-0.025114752,-0.20888449,0.0020919153,0.006992871,0.109886825,-0.053749677,0.19718423,-0.35730347
chr10-81137096-81137960,0.0017690167,0.04664312,-0.0012946386,0.17871892,-0.21613292,0.24883777,-0.0041700485,-0.023135232,-0.10233362,0.005936237,0.18542872,-0.13185206,-0.013258419,-0.002782867,-0.06769303
chr10-81167387-81168212,0.01861473,-0.26599976,-0.30378807,0.39645785,-0.2584832,0.40737352,-0.0019428257,0.003906803,-0.0872088,-0.03445292,0.16293074,-0.0796868,0.01945702,-0.017342987,0.21412082
chr10-81182486-81183416,-0.035357807,-0.17381132,0.029219745,0.09398516,0.27101558,-0.29287317,0.005171662,0.06784459,-0.05913741,-0.016610373,-0.22569957,0.20997353,-0.1000819,-0.041846815,0.0331459
chr10-81192285-81193149,-0.006410595,0.061004877,0.002430265,-0.27860868,0.3252222,-0.25391433,0.00044188256,0.007937198,0.04214416,0.0034156148,-0.062929936,-0.0024411771,0.003324804,-0.05071261,-0.0021686433
chr10-81232767-81233640,-0.029134842,0.16159639,0.024849016,-0.19211444,0.4863415,-0.18081577,0.009157166,0.12746237,-0.4023264,-0.017997028,-0.3376296,-0.10281652,-0.072805814,0.12559016,-0.09778654
chr10-81378162-81379038,0.006669039,-0.13744344,-0.059083384,0.5691718,-0.47545242,0.23043057,-0.00066252006,0.082880065,-0.14279176,-0.018033374,-0.38496375,0.40991542,-0.01793201,-0.046411425,0.038286507
chr10-81496045-81496927,0.004294723,-0.0051356605,-0.0022769829,0.18410726,-0.18615234,-0.030198174,0.001831186,0.007027272,-0.056723513,-0.0076378896,-0.037035927,0.078453176,-0.001176624,-0.0047577024,0.012798275
chr10-81559078-81559911,-0.007540765,-0.044386473,0.0009555097,0.10434148,0.20461357,0.23531306,-0.0018088992,-0.0007356089,-0.053746466,-0.005028826,-0.016729228,-0.29255483,0.004900522,0.003461777,-0.0073421523
chr10-81560066-81560699,-0.006080723,0.06487723,-0.00215228,0.1721515,-0.37916967,0.404693,-0.0009728151,-0.018438801,-0.17822823,-0.0044000717,0.07710576,-0.085958794,-0.020409161,-0.007056629,-0.07395971
chr10-81648604-81649471,-0.0073805917,-0.026183031,-0.0016850332,0.20421982,0.028795645,0.42669392,-0.00586102,-0.034816936,-0.010973338,-0.0040638912,0.15492462,0.009546116,-0.0555205,-0.02727501,-0.014349901
chr10-82858783-82859597,-0.05530817,0.4312394,-0.056544166,0.13813192,0.33793747,0.12384216,-0.033494826,-0.06562091,0.11317662,-0.025561903,-0.2743799,0.40350792,-0.030426629,0.061187435,0.024641637
chr10-83359791-83360628,0.00498612,-0.25580317,0.021685261,-0.039466042,-0.08206265,-0.07720721,-0.0061734198,-0.026800858,0.1306661,-2.9323885e-05,-0.17584623,-0.004244887,0.029839944,-0.052957777,-0.03050958
chr10-83543548-83544465,0.0013573207,0.09149451,0.0028981497,-0.20973873,-0.23174578,0.110707164,0.0012556891,0.0044806213,0.025016876,-0.0047324602,-0.037041422,-0.119128294,-0.023808653,-0.0030253525,0.021561634
chr10-84621948-84622889,0.010893596,0.071116686,0.04078158,0.108005926,-0.4958043,-0.66857606,0.024271518,-0.0063960566,-0.06752055,-0.018390777,0.10304261,0.0888526,-0.086762294,0.32667398,-0.033898488
chr10-85127597-85128452,0.004728092,-0.53453386,-0.02012391,-0.01313779,0.44318157,0.04401604,-0.005264983,0.018538382,0.15901175,-0.0004815173,-0.23274434,-0.129362,-0.020976245,0.025497308,-0.10550127
chr10-85184818-85185678,-0.043822814,-0.052044265,-0.026292399,0.56433845,-0.021220066,0.2844676,-0.04602022,-0.0125826495,0.3305699,-0.009324534,0.32174814,-0.45085338,-0.051318966,0.038279682,0.1357749
chr10-85916587-85917424,0.0020068348,0.116761565,0.02249872,-0.17713176,-0.29349992,-0.00040140955,0.0043078074,0.00018237966,-0.08836294,0.0019405329,-0.075718544,0.044804696,0.008958293,-0.013692235,-0.03344595
chr10-86021597-86022423,0.0021305769,0.04516375,-0.002185457,0.15116131,-0.4250256,0.22567727,0.00023742698,-0.0055941814,0.010124202,0.0008348285,-0.038748354,0.07549383,-0.00686312,-0.019606387,-0.006732746
chr10-88378918-88379718,-0.001969574,-0.3385215,0.00396083,-0.48499456,0.1292963,0.06771708,-0.0011134535,-0.010726437,0.15874557,-0.007094684,-0.011602932,0.0347345,0.03446699,0.029364591,-0.045837097
chr10-88503457-88504297,0.0059086676,0.116124794,-0.0042123455,0.35798374,-0.06552139,-0.36469916,0.0048930836,0.017629942,-0.5201521,0.010355781,0.03232136,-0.22119164,-0.031586055,0.0011970713,-0.058217485
chr10-88730840-88731703,0.0071270345,-0.26932397,-0.022185022,0.51541936,-0.04209048,0.17849241,0.0055570244,0.0089672245,-0.25279462,-0.00748712,0.33068094,0.10067838,-0.038083844,-0.04324466,-0.026810464
chr10-89685840-89686668,0.00869154,0.31084862,0.017019644,-0.52565366,-0.2832106,0.073481776,0.025168525,0.027710946,-0.28243595,-0.012257052,-0.13133305,0.18027513,-0.042320974,-0.05546741,-0.07991007
chr10-90722693-90723583,0.022507146,-0.17644934,0.19361946,-0.7427207,0.43718407,-0.5534974,0.11109471,0.33203256,-0.24135475,-0.020671377,-0.22073607,-0.036568724,0.057131328,-0.037488915,-0.22376189
chr10-90723871-90724724,0.03651818,-0.122811705,0.10961458,-1.0896153,0.8759315,-0.7925934,0.026296522,0.14684838,-0.2145399,0.0822748,-0.7792096,0.017184775,0.08647217,-0.041804347,-0.22186466
chr10-91082446-91083339,0.00050889933,0.34272325,-0.017353587,0.38363954,-0.3598971,0.28891754,-0.015089357,-0.024700604,0.035259258,-8.6958404e-05,0.0972413,0.050677232,-0.058754962,-0.049939293,-0.07981809
chr10-91123603-91124407,0.0073870523,-0.00503811,0.0022334212,0.36855057,-0.03210455,-0.42030698,0.002930741,-0.0033004126,-0.055348802,-0.0026644932,-0.051249593,-0.012749118,-0.09485822,-0.007080635,0.026777865
chr10-94035410-94036256,0.05297963,-0.3247519,-0.003303511,0.617819,-0.70836854,0.2684554,0.00069230376,-0.0021461265,-0.101232074,-0.012684658,0.35716558,-0.3916843,-0.09307359,0.019752232,-0.06212418
chr10-94147684-94148522,-0.0058817808,0.016118396,-0.00093424297,0.25282025,0.11023099,0.38252798,-0.0011222289,-0.008767575,-0.0050612376,-0.0039515565,0.09947422,0.011049863,-0.011023877,-0.025807623,-0.028110871
chr10-94198667-94199518,0.005534676,0.3060938,-0.010279545,-0.15806858,-0.20771837,0.032365333,-0.00326063,-0.011028421,0.043460708,0.00950793,-0.292186,-0.11047402,0.035544854,0.0897067,-0.025012441
chr10-95940335-95941145,0.06001691,-0.21807054,0.01152374,0.5894839,-0.7090791,0.16288179,0.0035077638,-0.08140854,-0.12911564,-0.018186241,0.4169465,0.038359825,-0.051471587,-0.06798881,-0.018121235
chr10-98589559-98590396,-0.7625486,-0.22121245,0.09497973,-1.1340754,1.3421321,-0.8903005,-0.14259169,0.31564537,0.5054962,-0.11176327,-0.49890545,-0.12762351,0.4310829,0.16460156,0.09894391
chr10-99106657-99107541,-0.00052548957,-0.052677274,-0.0016863645,0.20563485,-0.120041884,0.037387446,0.0013952038,-0.0017500459,-0.02344046,0.0026706613,0.014211236,-0.0017727222,-0.01233442,-0.019285306,0.00035570914
chr10-105840816-105841744,0.0064307796,-0.05374845,-6.589403e-05,-0.19388944,0.06787929,0.20150611,-9.967358e-05,-0.019044042,-0.053391594,0.0014390395,-0.16467792,0.06724434,0.007219269,-0.0034737547,-0.008785157
chr10-106470022-106470779,-0.020737326,-0.18649994,-0.0075761084,-0.534299,-0.06553453,-0.1525669,0.055314038,0.21032615,0.07658292,0.007452856,-0.439853,-0.09090106,0.036050037,0.171273,-0.044170905
chr10-107272274-107272917,-0.021299541,-0.2882135,0.056345746,-0.53777486,0.56533533,-0.15208247,0.005562146,-0.041601747,0.26743153,-0.04083793,-0.08919451,-0.18613319,0.037240844,0.0016644406,0.2791662
chr10-109010553-109011479,0.0162016,-0.025695957,0.12005621,-1.2444239,1.070375,-1.0051274,0.27927804,0.3578389,-0.31822035,0.08040078,-0.47253186,-0.07558355,0.390648,0.1675976,-0.229834
chr10-112928477-112929313,-0.0017143765,-0.0719641,-0.008015461,0.05464528,0.2592379,0.29294875,-0.0032103187,-0.024097877,-0.010636478,-0.0025343185,-0.056024663,0.02545874,-0.0099890325,0.030256024,0.042821415
chr10-115384265-115385154,-0.03404403,-0.16187967,-0.01135878,0.31976622,0.13050519,0.25647694,-0.014087074,-0.009439087,0.21417938,-0.014645265,0.31583744,-0.30170158,-0.016630013,0.18497968,0.005182027
chr10-115385438-115386206,-0.007714841,-0.06291552,-0.0005546703,0.08638084,0.010752313,0.22262886,-0.006235713,0.014215157,0.060082126,-0.009420445,-0.09113477,-0.079618745,-0.0076147653,0.041588116,0.009007564
chr10-116018057-116018911,-0.02550803,-0.043729115,-0.030904436,-1.1104566,0.9594646,-0.11619113,0.045075577,0.08177528,-0.067245215,-0.012947226,-0.62932575,0.07155771,-0.028910847,0.1730147,-0.10863236
chr10-116473302-116474072,0.15738574,-0.05072947,0.012092126,-0.7768657,0.0087260455,-0.42004567,0.22110507,0.10850408,-0.36503062,-0.020783696,-0.3106818,0.049326442,-0.093919724,-0.0806794,0.117960095
chr10-116950011-116950834,0.0012941625,-0.1551085,-0.001544332,-0.000117996584,0.21513298,-0.20984976,0.0008237741,0.00897044,-0.007967514,-0.0044293804,-0.029172,-0.19466297,0.007767374,-0.0043684714,0.077570565
chr10-117148106-117148921,-0.00287762,-0.024084084,-0.0029043653,0.31737036,-0.58180404,0.15212525,-0.004732323,0.005091769,0.022253416,0.0007383524,0.123131275,0.06393945,-0.025296133,0.0101549495,-0.021644587
chr10-117792365-117793216,0.011235438,-0.3068986,0.0044515454,0.5404248,-0.13833718,0.27477044,0.0007088543,-0.029427553,-0.24023809,0.0018709502,0.15570463,0.004275319,0.005974488,-0.024327882,0.019572109
chr10-120112489-120113361,-0.008471937,-0.5512151,-0.059398193,0.44958997,0.42040431,0.16109769,-0.03210687,-0.15183952,0.52583575,-0.004647441,0.06401983,-0.006639476,-0.07130846,-0.045272287,-0.20268267
chr10-120226830-120227666,-0.0025247992,0.17623037,-0.0059750364,-0.17105962,-0.08047138,-0.0021290907,0.0033592375,0.040323116,-0.24301466,-0.01139841,-0.01151661,0.29778025,0.018258462,-0.023917936,-0.041126907
chr10-120978963-120979797,-0.0023948986,0.042440284,-0.00029552434,-0.4324944,0.13006362,0.0043165134,0.015204669,0.0044891825,-0.017989712,-0.008584021,-0.07180898,-0.13546069,-0.044053134,0.082462095,-0.011679496
chr10-121364698-121365529,-0.0060683074,0.3105346,0.018911509,-0.009428454,-0.07864137,0.15622227,0.0011109221,-0.008547266,-0.28729886,-0.01218673,0.03287609,0.0588039,0.0017048903,-0.010894222,-0.023624154
chr10-121586346-121587278,0.0017487671,-8.355847e-05,-0.013434839,0.31777686,-0.0020276904,-0.015645498,8.953653e-05,0.010190527,-0.01753139,-0.0026977663,-0.070481785,-0.029286552,-0.008744787,-0.046567835,0.014644848
chr10-121625937-121626780,0.0024068595,-0.08860842,-0.007984638,0.61820954,-0.20469368,-0.09203234,0.005079576,-0.011607985,0.08481031,-0.012405185,-0.0029811368,-0.11019107,-0.14939806,-0.027739577,0.023906738
chr10-122678612-122679464,0.0031751867,-0.0048433687,0.0020404358,-0.18388227,-0.035463806,-0.07503104,0.006253931,0.0004737213,-0.01785483,-0.0013125036,-0.2050434,-0.08318241,0.052725565,-0.0166344,0.00011164303
chr10-123075947-123076769,0.055890586,-0.3430252,-0.06613385,0.18744946,-0.42395788,0.45172447,0.015065354,0.18582664,-0.41462037,-0.026669037,0.18787362,0.08283505,0.019643473,-0.0629287,-0.27301052
chr10-123196592-123197508,-0.010146588,-0.28220633,-0.013774979,0.17397295,0.5726912,0.16243272,-0.008110777,-0.00095758593,-0.07116978,0.001628188,0.0019168097,-0.16961457,0.001644452,0.023810254,-0.035500526
chr10-127265960-127266744,0.0046775825,-0.08001297,0.018977115,0.14717665,-0.6387331,-0.15209828,0.002218574,0.018700622,0.056686252,0.0038116197,-0.064072154,-0.05897021,-0.023289861,-0.025651082,-7.08656e-05
chr10-127290347-127291154,-0.00019888891,0.08235801,0.0020528003,0.3245242,-0.19344682,0.19649263,-0.0031507425,-0.08563592,0.06403342,-0.014127722,0.11261819,0.14166433,0.06724975,-0.0128802145,-0.08874845
chr10-128035198-128036021,-0.004482869,0.041503374,-0.008620039,0.19146706,0.05408758,0.13986284,-0.005273859,-0.008870556,-0.02264592,-0.00218285,0.3556426,0.083828725,-0.026171211,-0.004289354,0.047962524
chr10-128231782-128232669,0.0045986166,-0.2088145,-0.0023958187,0.3403124,-0.3806621,0.13787533,0.0006300467,-0.010401039,0.01944106,0.007089243,0.06815254,-0.055090748,0.04001349,-0.008613516,-0.042974073
chr10-128270114-128270988,-0.0075436234,-0.13737817,0.019903667,0.33049515,-0.8298423,0.5136764,0.011104463,-0.009746711,-0.12913172,0.019894551,-0.17750405,-0.34005332,0.005532048,0.009308122,-0.06643005
chr10-128368372-128369285,0.025597956,0.29641125,-0.0109388195,0.10380566,-0.35791188,0.25766212,0.0019336609,-0.010891027,-0.2899801,-0.002688996,-0.024571287,-0.16785613,-0.01857298,-0.039349075,-0.030709721
chr10-128411211-128412080,0.0032989166,-0.22166005,0.009035547,0.16459014,-0.12497645,0.29413673,-0.0043009524,-0.005340918,0.06543269,0.009496861,-0.021518439,-0.40922618,0.008073901,0.007551786,-0.08133447
chr10-128525562-128526363,0.029093444,0.37982345,-0.13191484,0.8687295,-0.8938775,0.21532993,-0.008234981,0.043531653,-0.5037208,-0.039721373,0.29616567,-0.10762598,-0.103778854,-0.123626426,-0.13422357
chr10-128547235-128548108,-0.0010810081,-0.1265464,-0.008744451,0.27817622,-0.044415228,0.070659615,-0.0026418606,0.019363847,-0.17722306,0.006133345,-0.016759478,-0.051467817,0.009790994,-0.001776669,0.0023144942
chr10-128565733-128566592,0.0031180608,-0.055813815,-0.008236827,0.38381615,-0.10532169,0.26290312,0.0019607001,-0.006453016,-0.049511027,-0.006519017,0.046772774,-0.052045938,-0.013340951,0.0045654206,-0.06684264
chr10-128673511-128674435,-0.013923122,0.06542126,-0.012421752,0.66769946,0.21227276,0.15709522,0.0021625524,-0.010535902,-0.31815934,0.0021160722,0.25902277,-0.053116232,-0.081825055,-0.004085121,-0.025590302
chr10-130541787-130542685,0.0005750324,0.085413575,0.0029888828,-0.30997783,-0.15402143,-0.19468252,0.0011625625,0.00015995165,0.09614723,-0.00030024344,-0.1553644,-0.035330147,-0.0075494894,0.019647654,-0.00087316666
chr11-3192815-3193754,-0.00063069654,0.043600757,0.014170002,0.34229526,-0.24706863,0.08066948,-0.006822418,-0.060067173,0.083352275,0.0041686236,-0.053565342,0.18952377,-0.0077066747,-0.03101472,-0.02551374
chr11-3266013-3266917,0.012850613,0.1612295,-0.020970777,0.25221193,-0.28965142,0.43049502,-0.00040593135,-0.086604744,-0.34990108,-0.013025452,0.29241723,0.23244181,-0.026656272,-0.041262567,0.016230421
chr11-3514396-3515229,-0.007658806,-0.23435226,0.010420217,0.3970418,0.5568182,-0.096185796,-0.0045039053,-0.025333865,-0.09596397,-0.01204072,0.18099138,-0.076560155,-0.0021495102,-0.004007792,-0.030114895
chr11-3963435-3964340,-0.13279544,0.00082076486,-0.17331482,0.45396724,0.08285564,0.33531627,0.0040147975,-0.09369927,0.34677264,-0.021291036,0.3138963,0.032558866,-0.063125275,-0.23808706,0.11392702
chr11-4160023-4160899,0.014222238,0.15965761,0.00599123,0.20956703,-0.34194562,-0.10654119,-0.013959978,-0.018939052,-0.16701274,-0.012574408,-0.12323212,0.21704715,0.117061935,0.004537569,-0.06197849
chr11-4186349-4187195,-0.02129697,0.5365363,-0.077379726,0.50421953,-0.2600929,0.02280922,-0.034871656,0.058269933,-0.09415464,-0.01326746,0.25817758,0.15115713,-0.04004044,-0.019018177,-0.051679693
chr11-4703884-4704801,0.04762164,-0.5014859,-0.015876008,0.015080299,0.1032586,-0.15834406,-0.011139765,0.018476391,0.05032423,0.0129248295,-0.3811468,0.02739842,-0.07257326,-0.008953068,-0.079931796
chr11-5520520-5521361,-0.00991541,0.109408125,0.001423378,0.30712438,-0.5505762,-0.023031587,0.00086448283,0.014614884,-0.012728607,-0.00096489594,0.16469707,-0.43992123,-0.052646782,0.11714887,0.015636256
chr11-5707098-5707941,-0.0007143126,-0.051028144,-0.00061813265,-0.51348966,0.20488061,0.095059566,-0.00550013,0.0048033274,0.042418525,-0.0013080651,-0.13819309,-0.0348729,0.019192938,0.0039488096,0.0008631158
chr11-5740693-5741487,0.010239906,0.123632416,-0.0006994808,0.073847145,-0.6079637,0.17113164,-0.0012746175,-0.0048330193,0.035032377,-0.002263904,-0.08404891,-0.1362964,-0.016966784,0.018998288,-0.0026771217
chr11-5788080-5788935,0.006042068,-0.0029987202,0.004986494,0.17052053,0.083532095,0.04161847,-0.0016343899,-0.08417302,-0.0378244,0.00042095556,0.02859183,-0.17631094,0.045342825,-0.010041932,0.065314904
chr11-6199825-6200722,-0.021098018,0.37270728,-0.00042648966,-0.009506165,-0.2847333,-0.0025111476,0.005586545,0.07197559,-0.24258384,-0.0031504217,-0.08602651,-0.39805916,-0.013577754,0.30026627,-0.120436415
chr11-6625702-6626583,0.0030005672,0.12932509,0.0032727318,-0.0013228084,-0.31224367,0.07525497,0.002420874,-0.006396237,-0.110323474,0.0011193752,-0.1400703,-0.02026959,-0.028015884,-0.0004694284,0.011556987
chr11-16257253-16258133,-0.08925937,-0.23077567,-0.06954999,-0.88349265,0.54048705,-0.61367345,0.22968669,0.21741527,0.2102052,0.037955377,-0.41545627,0.04178971,-0.06067895,0.093417004,-0.17791948
chr11-16260791-16261576,-0.012580391,-0.27006787,-0.047674626,-0.38526598,0.8705072,-0.11651106,-0.00080673315,0.07278553,-0.11727043,0.005927427,-0.16744998,0.11286431,0.033159513,0.043208826,-0.020403445
chr11-16507751-16508598,-0.0012437747,-0.01020279,-0.011307477,0.06533493,0.23297212,0.030302715,-0.0023240868,0.005296051,-0.012315208,-0.0041307057,-0.021062464,0.18297252,-0.010757489,0.00012674343,-0.042831194
chr11-17158856-17159665,-0.0013260099,-0.14418572,-0.005682781,-0.090276636,0.60840863,-0.09816891,-0.0020599035,-0.005037724,0.0049651703,-0.000994662,-0.116275124,0.07600566,0.02526519,0.0030431012,-0.013204604
chr11-17211329-17212188,-0.007592703,-0.22970328,-0.014403918,0.025834804,0.32823718,0.35338205,0.0013095721,0.0022685656,0.055913765,0.0020620916,-0.125882,0.024028894,0.0012171164,-0.017350806,0.006472306
chr11-17257211-17258107,-0.009905604,0.09102213,-0.0026713565,0.08166827,0.5081657,0.047874093,-0.01234155,-0.066932544,0.09149823,-0.008699471,0.19794758,-0.18113878,-0.006106379,-0.012127256,-0.04122909
chr11-19834992-19835879,0.009421522,0.27970442,0.1013352,-1.0126148,0.79024947,-1.1205279,0.069440015,0.40684494,-0.022834646,0.071457624,-0.7096957,0.16320224,0.23576677,-0.156193,-0.3576509
chr11-19925134-19925975,-0.0026606182,0.24256116,-0.003894004,0.15073724,-0.04940069,-0.25175896,0.0010563241,-0.013905075,0.04174296,-0.00845253,-0.014935164,0.030460589,-0.023341322,-0.019685986,0.0025482124
chr11-20035308-20036082,-0.04060272,0.27204308,0.022964217,-1.0910783,0.6111591,-0.98063326,0.27367508,0.27771297,0.074116096,-0.038323037,-0.746542,0.5017008,0.16329001,0.095924355,-0.07112884
chr11-20112480-20113318,0.007993522,0.09529789,-0.036812272,0.49366412,-0.7174795,0.14031398,-0.0013470848,-0.013214394,-0.0028927934,-0.0075966963,-0.13145751,0.09062091,0.016865905,0.08605077,-0.011642686
chr11-20542559-20543496,-0.0118049905,-0.31202012,-0.012109359,0.23646185,0.3289522,0.16613358,-0.0043887612,-0.027866637,0.061411638,-0.016819749,-0.29410934,0.3354783,0.023044188,0.026791349,0.10133056
chr11-20741180-20741981,-0.0014007653,-0.08478188,-0.001745725,0.032666605,-0.0036814613,0.22079511,-0.00058744696,-0.015850715,-0.0020269938,0.00010743353,-0.08690023,0.07684817,0.0045039365,0.0024332008,0.0118755605
chr11-20987457-20988315,-0.30367962,-0.8776819,-0.039093666,-0.57842827,1.2991176,-0.7170211,-0.011822476,0.029634412,0.6875298,-0.03105937,-0.23715493,-0.21109113,0.08446143,0.087532446,-0.36846307
chr11-22981696-22982608,-0.005308756,0.05536977,-0.00028843145,0.4139506,0.047634132,0.51876587,-0.019076023,-0.0076176357,-0.1537515,-0.010170778,0.31192926,0.012177369,0.0008397114,-0.015952796,-0.02394204
chr11-22990256-22991103,0.006451226,-0.3493553,-0.021007579,0.1388505,-0.5455302,0.25062352,-0.0005509407,-0.0025435786,0.23574847,0.004109939,-0.041635334,-0.1369056,-0.003617379,0.05909333,0.051269524
chr11-23256967-23257912,-0.011863593,-0.3662792,0.012225534,0.32841146,0.17533875,-0.13318576,-0.013988908,0.021843292,0.124929234,0.020055853,-0.043618534,0.051653415,-0.10760635,-0.049047034,0.000674043
chr11-23665717-23666588,-0.0040521924,-0.31296486,0.0026976748,-0.05257787,-0.2063868,0.37561005,-0.017985372,-0.063306734,0.27084452,-0.008157257,0.054544117,0.2299802,0.09560993,0.112153664,-0.039045103
chr11-23770551-23771454,-0.04421187,0.3583779,-0.027310703,0.6329284,-0.3178442,0.47071236,-0.026273627,-0.07217416,-0.12910825,-0.045912746,0.21905039,0.3461292,-0.015292031,0.027614027,-0.073934585
chr11-29172584-29173183,0.004408772,0.0132347485,0.0024033936,-0.041751537,-0.35480204,0.07068237,0.004030072,0.00019774714,-0.12019797,2.9078976e-05,-0.023614423,-0.03493783,-0.020076035,0.007775744,-0.00015039262
chr11-29547590-29548541,0.0005238486,0.099921316,-0.00162605,-0.069513135,-0.17411235,-0.02899465,-0.0013546294,-0.0058162455,0.07997083,-0.0016970739,0.059011053,-0.03401557,-0.0027363906,-0.00037819153,-0.010289647
chr11-30025646-30026566,0.005076123,0.42276785,0.0043944446,-0.19753005,0.1241029,0.020085411,0.0025341143,-0.008632747,-0.10235393,0.005946533,-0.021913158,-0.20071554,-0.049931467,-0.05565646,-0.033920955
chr11-30985858-30986761,0.004929018,0.23356083,-0.01607542,0.2199152,-0.27499324,0.3235118,0.0028170173,-0.0072283945,-0.055835977,0.0035839276,-0.043636173,-0.18817307,-0.0536506,-0.0030051018,0.0058980584
chr11-31671467-31672377,5.864011e-05,-0.047891866,0.003985562,0.3141935,-0.19717069,0.090583354,0.0043498455,0.0011404402,-0.09872592,-0.0012520046,-0.07447265,0.015149992,-0.016395323,-0.0016112119,-0.003780197
chr11-31694675-31695553,-0.03349163,-0.35176095,0.043998107,-0.5319143,0.64943844,-0.4228544,-0.014818258,0.09908397,0.10693497,-0.006836233,-0.310432,-0.06020325,0.3291925,0.03359003,-0.14796364
chr11-31870148-31871095,0.011723157,-0.25062364,-0.009283764,-0.039995953,0.37137434,0.04930124,-0.0026451156,-0.01914325,-0.0038127978,-0.037749615,0.057007935,0.22072273,0.08239541,0.35503924,-0.3395755
chr11-32061797-32062661,-0.022220297,-0.15509881,-0.011542705,-0.5320838,1.275986,-0.88186073,-0.027069611,-0.017403323,0.2257093,-0.0017783851,-0.31840992,-0.013098782,0.1000447,0.10644047,0.03893104
chr11-32220874-32221740,-0.015075805,0.41195166,-0.07996501,0.868566,-1.3039418,0.24219765,-0.008758588,0.021888725,-0.39773816,-0.02627058,-0.32697964,0.22734863,-0.17224887,0.017873008,0.18706983
chr11-32454708-32455563,-0.011174965,0.010276124,0.009172361,-0.12415823,-0.176284,0.48895624,0.0013318948,-0.0055246637,-0.03757007,-0.0003134496,-0.031586513,-0.09843597,0.0049411412,0.0120193185,-0.017227942
chr11-32532882-32533615,0.04418925,-0.15214302,0.025288787,0.25517106,-0.21295363,-0.36372012,0.013461971,0.016906474,-0.36965114,-0.010009557,0.07489643,0.0936193,-0.034071844,0.025479838,-0.1437277
chr11-40692169-40693059,-0.0064400514,0.107244514,0.008710408,0.25303465,-0.33822396,0.2322279,-0.005492636,0.0022082804,-0.09524549,-0.0006109877,0.12530382,0.24838196,-0.011780567,-0.012153398,-0.040282384
chr11-46055786-46056732,-0.008780944,-0.016909603,0.015205772,-0.8305621,0.18895525,0.27792713,-0.002329654,0.12565863,-0.15391095,-0.016099928,-0.16177377,-0.021216096,-0.07234765,-0.0033416932,0.018144783
chr11-46436685-46437477,-0.0049795737,-0.13907489,-0.0023620185,0.28833354,-0.13492131,0.38908973,-0.002455906,-0.015022032,0.011808274,0.0016223906,0.14634645,0.0057124444,0.0056865267,-0.01878417,0.005359153
chr11-47988619-47989394,0.008575831,0.15827097,-0.0072622267,-0.5202966,0.4893222,-0.5178416,0.005619443,0.014410217,-0.04431048,-0.006428537,-0.14903253,0.083906285,0.01034771,0.00073425,-0.017220618
chr11-48799777-48800693,0.0042659147,-0.11311618,-0.014580152,0.22126856,-0.46122378,0.22768426,-0.003309611,0.0068970136,0.07884037,-0.0041620582,0.029496806,-0.007443307,-0.014748208,-0.008177121,0.025585491
chr11-48816696-48817604,-0.01865788,0.018909136,-0.033230014,0.33401388,-0.32032445,0.41597047,-0.004078004,0.010760474,-0.24801779,-0.022155691,-0.10752661,0.023312554,-0.038843,0.43668726,-0.029080464
chr11-48871209-48871915,0.06975687,0.04464609,0.015374906,0.8033965,-1.2471421,-0.23701964,0.071369216,-0.06703723,-0.34394875,0.0026487352,0.14122798,-0.19069313,-0.027921582,-0.20164555,-0.008802126
chr11-50130784-50131643,-0.0044082073,0.11649502,0.0061295596,0.36085385,-0.48653227,0.14456442,-0.0045340825,-0.0043487325,-0.016539767,-0.0042134374,-0.17146155,-0.14262876,-0.01773962,0.03349404,0.049477294
chr11-50430496-50431390,0.009845664,0.10650328,0.0060627814,0.46072283,-0.46667156,0.2678791,-0.008599537,0.024317442,-0.40562397,-0.0054526743,0.16453408,-0.34487885,-0.090308785,0.013881865,0.032098535
chr11-51262773-51263506,-0.01107064,0.14193577,-0.00086882187,0.10244464,0.31774512,-0.2366421,-0.0019083762,-0.017241145,-0.02610141,0.0045265984,-0.1763875,-0.032298557,-0.019543832,0.010379038,0.105388746
chr11-51756005-51756846,0.00072281115,0.25092036,0.0049638264,-0.031094061,-0.5310084,0.0761764,0.002262191,-0.00032791047,-0.14368476,0.006572711,-0.046734203,-0.12601708,0.018711323,-0.041291352,-0.02550333
chr11-51855403-51856198,-0.007227905,0.026479028,0.0031465935,0.360181,-0.0050358307,-0.053518176,-0.008933693,-0.038639408,0.10109673,0.0051139635,0.15007697,0.13785003,0.0044139107,0.019590659,-0.12147955
chr11-52003776-52004702,-0.0008851908,-0.38960144,0.003306847,0.20802642,0.025255412,0.40267044,-0.0059526535,0.0059867264,0.0041465103,-0.009159975,0.06279975,-0.106809825,0.0021704428,0.009813791,0.0078024035
chr11-52396142-52396985,-0.0019197288,0.23255435,-0.014140499,0.046743643,0.3341053,0.017948085,-0.0039745327,0.0069404184,-0.32505,-0.022289952,0.031301677,-0.07027299,-0.0070588817,-0.28733972,0.16995633
chr11-53300157-53301079,-0.0020189171,-0.031409457,0.0021013103,0.15889382,-0.166688,0.2122004,0.0012915622,-0.0021472555,-0.09000416,0.0010989929,-0.038425926,-0.032499872,-0.018180106,0.0024212708,0.033878837
chr11-53478529-53479358,-0.014080909,0.008181649,-0.027984293,-0.7286864,0.6457858,0.045493804,-0.0034457194,0.039917145,-0.006751294,-0.019689094,-0.21379966,-0.033510726,0.19716091,0.184821,-0.28509572
chr11-53567004-53567884,0.0019210946,-0.34329265,-0.0010504134,-0.3954997,-0.106659465,0.23884109,-0.0022026796,-0.0009958,0.11259708,0.005954305,-0.13038997,-0.05782493,-0.024177343,0.048059564,0.025427323
chr11-53891388-53892232,0.018232418,0.25097308,-0.0053196647,0.49571872,-1.0990921,0.40375268,-0.0033174853,0.012328435,-0.108344965,-0.048835598,0.42479375,0.09876373,-0.08928227,-0.0768217,-0.05857068
chr11-54522416-54523301,-0.0033341674,-0.46600264,-0.019726645,0.21624264,0.06448155,0.28072554,-0.006616572,-0.12277258,0.3744651,0.006839078,0.28631318,0.27674422,-0.079987735,-0.07660875,-0.02167084
chr11-54955610-54956526,0.026143428,-0.29224643,0.018065479,0.20057628,-0.44662547,0.3881069,-1.9896128e-05,-0.10409809,-0.23083009,-0.002440437,0.19498295,0.013503576,-0.05820911,0.031007713,-0.030489149
chr11-55469004-55469917,0.00110706,0.2147797,0.025245564,0.29621947,-1.040531,0.08281094,0.0018545564,0.014865546,0.00853186,-0.0074476846,0.14188704,-0.27969027,-0.06859669,-0.016001265,-0.0037914407
chr11-58322902-58323813,-0.005870427,0.07983041,-0.0057065357,0.2016676,0.4320506,0.20312192,-0.004330341,-0.00937557,-0.0042750565,-0.006076076,-0.08338975,-0.03842828,0.030483022,-0.0030998853,-0.044215698
chr11-58846833-58847670,-0.0076936614,-0.30757567,0.0062560495,-0.521289,0.04109201,0.053827792,0.010696313,0.14378308,0.012401398,0.015091874,-0.1457752,-0.29882,-0.011231081,0.0046136673,-0.087004125
chr11-59191338-59192263,-0.005491686,-0.4652422,0.0006033014,0.25072813,0.33739835,-0.0152747575,0.0025569974,-0.011158236,-0.041231163,0.006521606,0.29714584,-0.45931876,0.026562098,0.06129807,-0.038426716
chr11-59227821-59228754,0.038048208,0.08160189,-0.012945639,0.069786005,-0.37782508,0.22835678,0.0017079654,-0.030827563,-0.2897895,-0.038724877,-0.08056796,0.4529515,-0.098186515,0.040848803,0.12675738
chr11-59847818-59848706,0.007806855,0.16505204,0.02995368,0.038063623,-0.6748115,0.04871102,0.016903179,-0.036888886,0.033717208,0.00072811963,0.07580311,-0.0857386,-0.08065463,-0.13171434,0.07315158
chr11-60045953-60046856,0.021721601,-0.48067346,-0.0027294976,0.1624059,-0.28780407,0.038831364,0.017037041,0.0077493847,-0.15605655,-0.013659478,-0.15249942,0.093348466,0.007826096,-0.026208071,0.16174853
chr11-60139479-60140277,-0.010084168,0.070971504,0.0019336126,-0.67874676,0.5768414,-0.2646807,-0.002080147,0.007842336,-0.0032922209,-0.010246892,-0.20371704,-0.038894337,0.0017817334,0.115292534,-0.021117443
chr11-60352498-60353351,-0.00057560595,-0.009955509,-0.009559606,0.34723136,-0.512134,0.2810396,-0.006289457,0.013778976,0.123066016,-0.00071180356,0.0936854,0.0035935813,0.011186105,-0.03820401,-0.10015916
chr11-60726743-60727514,-0.010072965,0.115843855,0.00899542,0.57271546,-0.97969896,0.2709219,-0.005513188,-0.03904795,0.16935259,-0.0030081952,0.33637705,0.08876312,-0.05251756,-0.20358765,0.029849546
chr11-60931638-60932466,-0.004490561,0.29378986,0.050134066,0.4199117,-1.3616889,0.22660054,0.03105264,-0.001971596,-0.32720822,4.2606145e-05,0.09840156,-0.04681913,-0.19633232,-0.10801608,0.11112109
chr11-61929839-61930721,0.001966975,-0.14897858,-0.0008867285,0.13430484,-0.14220706,0.13243996,0.0029419714,0.0050355946,-0.056110602,0.006351501,-0.10763566,0.039625574,-0.01077168,-0.0055615543,-0.008520352
chr11-62280989-62281839,0.011839698,0.34873542,-0.007483243,-0.107941024,0.20134649,-0.6042047,-0.0038981922,-0.007775342,-0.14344157,0.012405307,-0.3761727,-0.1984916,-0.054339904,0.036557596,0.010497103
chr11-62602421-62603272,0.009284642,-0.24852385,-0.004032622,0.23503326,-0.19635761,0.023361547,0.008316307,0.027022026,-0.28368875,-0.0041357363,0.021702599,0.18532854,-0.014508865,-0.01567221,-0.033422317
chr11-62879105-62879950,-0.0034655684,0.31717345,-0.0011380475,0.027246933,-0.20654914,-0.09363423,0.0012723632,0.0081794355,-0.06904025,-0.009162102,-0.04345426,-0.0016251871,-0.0087087825,0.008463236,0.044483114
chr11-65806701-65807615,-0.0058191335,-0.044186298,0.0042136307,0.24822922,-0.54729974,0.31124982,-0.0022011844,-0.014683593,0.019205524,-0.007388139,-0.07493024,0.026884552,-0.05501084,-0.006988935,0.15240894
chr11-67664399-67665108,0.0038036653,0.22115955,0.41145378,-0.8913008,0.23636138,-0.6766095,0.18829963,0.36030138,-0.64696944,-0.010348226,-0.3493442,0.1684229,-0.008477255,-0.09832243,0.08948386
chr11-68692713-68693587,-0.0038725806,-0.22797595,0.0019419468,-0.045291256,0.33469707,-0.39308038,0.002576986,-0.0029250483,0.25870597,-0.0025508935,-0.23888214,-0.06360985,0.015643626,0.0338004,-0.003763421
chr11-68967497-68968377,-0.0075011496,-0.21399109,0.2712584,0.23739477,-0.86829895,-0.003042978,0.0531458,0.16436872,-0.2627419,-0.04510291,0.15322778,-0.24088305,-0.15402877,0.21170099,-0.06779046
chr11-69408352-69409131,-0.0040095304,0.09901833,-0.0105101885,0.16460185,-0.2939813,0.26072204,-0.00095071504,0.0017671083,0.0007687037,-0.0017361968,0.17549124,0.03132946,-0.00409546,0.0005077163,0.01221111
chr11-69632443-69633319,-0.0029538139,-0.017706621,-0.000895628,0.5698761,-0.66997397,0.3399589,0.0023275765,-0.005824011,-0.17726426,-0.020299394,0.2617455,-0.025896631,0.047803387,0.0033432979,-0.041941542
chr11-69681539-69682363,-0.00021508275,-0.18839057,0.005276195,0.09866193,-0.38523477,0.3273463,0.00493082,-0.018545343,0.014981986,-0.0056113945,-0.20677456,0.26095524,0.011089755,-0.0034904813,0.015961263
chr11-69921060-69922005,0.00095059583,0.13745093,-0.0035402074,0.4096459,-0.35479942,0.38249838,-0.008143534,-0.015402644,-0.13435584,-0.0062756175,0.27182084,-0.05299337,-0.06728147,0.0021687625,-0.023052743
chr11-69980193-69981120,0.005662593,-0.046987843,0.0013423661,0.26044768,-0.24921955,0.15578555,0.0025465887,-0.033183735,-0.030032527,-0.0029254663,0.11409631,0.014960497,-0.017343942,-0.011964822,0.02785908
chr11-70668622-70669511,0.0041897777,-0.03973498,-0.0011201588,0.04869946,-0.19577102,0.03516212,0.0014406733,0.0009456453,0.0079424465,0.0023286012,-0.023761906,-0.012964642,-0.012867655,-0.004735369,-0.0044884216
chr11-70763961-70764853,-0.00462566,-0.1624655,0.0015167366,-0.106112115,0.01902591,0.11819663,0.002766765,-0.011687227,0.26490527,0.0030843385,-0.057586968,0.11942569,-0.015358286,-0.00020583838,-0.047021173
chr11-70844384-70845190,0.0061797597,-0.184562,0.0488066,0.07227752,-0.4703799,-0.089829564,0.013492306,-0.022092229,0.016997946,-0.00010735332,-0.09470255,0.0084466655,0.009239119,-0.012854811,-0.05063081
chr11-72207096-72207930,0.0076956367,0.04490888,0.005071658,-0.2252232,-0.5393983,0.136339,0.008445921,0.010463259,-0.09762856,0.00015504897,-0.12712103,0.044685367,-0.01441201,0.0063239723,-0.0060271434
chr11-73047495-73048331,0.0035995706,0.3159623,-0.011682211,-0.035318576,-0.84008074,0.07318864,0.020360235,0.030275214,-0.13904852,0.014665599,0.016324904,-0.014888621,-0.043443248,-0.010869489,0.031516764
chr11-73176747-73177600,-0.011349421,0.08718097,-0.020253627,0.47735608,-0.665347,0.2306107,-0.0016488706,-0.008513779,0.10782736,-0.0015769685,-0.14919387,-0.0066353283,-0.09433467,-0.012206781,0.19754498
chr11-73198785-73199735,-0.0085161,-0.058587212,-0.0046926746,0.20755978,-0.089151785,0.23522015,0.0034990027,-0.0071178577,0.040168412,0.0017824883,-0.119865865,0.018842455,0.0005820546,-0.0066702277,-0.016792811
chr11-74554428-74555364,-0.42273718,-0.83374363,0.11174433,-1.0760639,1.6083422,-0.54328054,0.014418661,0.053344972,0.24249884,-0.09278504,-0.51788956,-0.14550814,0.25116524,0.42301154,-0.46075994
chr11-75170053-75170975,0.01306786,-0.27029496,0.10225807,-0.2603143,0.014808282,-0.6043303,0.0637264,0.032887943,-0.13324007,0.0008252091,-0.31177363,-0.031021284,0.10827873,-0.12651396,-0.068929195
chr11-75486356-75487223,-0.003192954,0.052065786,-0.031833366,0.40513262,-0.08699235,0.16254054,-0.0031453222,0.0017317705,-0.042902365,-0.002882284,0.22670981,0.08728041,0.0038751082,-0.011163159,0.012376597
chr11-75587836-75588598,0.0017503115,-0.22165185,-0.00016033309,0.34510714,0.1039561,-0.12447933,0.007078316,-0.0034424688,-0.12168057,0.007782917,-0.012129979,-0.15207253,-0.052336846,0.03998718,0.0038812116
chr11-75630502-75631412,0.042371828,0.12027036,-0.0020590143,0.1970415,-0.8770451,0.21408266,-0.0006508407,-0.04496819,-0.018129857,-0.0021938754,0.14934713,0.00059535797,0.0076735085,-0.007176897,-0.054110773
chr11-75678991-75679697,0.010341933,0.30915573,-0.050646774,0.42255142,-0.6039603,0.24681556,-0.0040957415,-0.0047754017,-0.08176027,0.0001952522,-0.24568343,0.03181643,-0.012922,-0.023007149,0.00467571
chr11-76179160-76180036,-0.004677432,-0.40786096,-0.0053497045,-0.02510629,-0.2636667,0.05780177,0.0037056229,0.017142452,-0.019469155,-0.000113938935,0.064107895,0.08847586,-0.044742003,0.03832527,0.018864965
chr11-76217118-76217967,0.0038642944,-0.18012458,0.025629476,0.12409224,-0.8201599,0.03142701,0.0017558739,0.010276659,0.078101434,0.0021514073,0.14217323,-0.15271606,-0.06408422,0.046149302,-0.021343354
chr11-77216179-77216837,-0.010259901,-0.7564017,0.002840383,-0.14665695,0.09776744,0.40368155,0.0012601004,0.029880567,-0.12103266,0.0072397664,-0.016001847,-0.10140414,0.0036184273,-0.0014129038,-0.013103384
