,Shared topic 1,Shared topic 2,Shared topic 3,Shared topic 4,Shared topic 5,Shared topic 6,Shared topic 7,Shared topic 8,Shared topic 9,Shared topic 10,ATAC private topic 1,ATAC private topic 2,ATAC private topic 3,ATAC private topic 9
85.02883948530474,-4.5341806,1.918685,2.2435606,-3.5984561,2.506407,3.532232,-5.6016226,-5.3796635,-5.4616513,3.315422,1.2163646,-8.227666,14.337801,-3.4301841
95.06068721922534,-5.2477226,1.6821138,4.053656,-4.321471,-4.5874515,2.206772,-5.7513165,-3.6940086,-5.1172404,3.0894206,-1.2040702,-7.8809495,12.487267,-3.3747892
104.10721613216346,-1.2087631,1.6588402,3.9978416,-1.0299969,1.1593722,2.808689,-0.7569662,-0.84109175,0.31332245,2.388217,1.1660869,0.9271492,16.50357,-0.7267256
114.0663487757167,-5.476785,1.7997519,4.0191464,-4.3851714,1.5260797,2.9224746,-4.3571525,-5.4672904,-5.597207,2.5520127,-0.45018128,-8.664975,17.455036,-3.3200514
119.08989347482412,-4.364306,2.0389175,2.9266474,-3.918296,2.2828922,3.3104281,-5.8378177,-5.429063,-5.575277,3.2782202,0.10988058,-8.305256,16.760906,-3.3642578
120.10201086819092,-4.672424,-0.33707014,-2.898531,-2.4747982,2.942605,2.8163185,-5.5156183,-5.0581107,-4.7705593,3.6042562,2.9521239,-3.384808,7.6935287,-2.4457982
126.02200299722656,-3.621739,1.3745214,3.1759589,-3.7053595,2.492442,1.0536515,-4.9698167,-4.1138754,-1.2031369,3.7648056,-0.42977569,-6.847678,10.7163725,-3.1053774
127.02700210702301,-3.1977694,1.7930093,4.3209295,-3.7834299,1.1909388,1.2478489,-4.738753,-4.5337267,-4.1949162,2.1400797,-1.0118644,-6.5423903,14.612709,-2.6446586
130.08648087626347,-2.3039904,2.0327117,4.3072367,-3.3206885,1.9880273,0.03372478,-4.0011554,-4.5244985,-4.4357467,1.9084316,0.42539567,-6.612379,13.508293,-1.310392
138.05260963693527,-4.947573,1.7320706,4.365448,-4.072461,2.202445,1.9582367,-5.34717,-4.923035,-4.809374,0.866686,-1.0753388,-7.664587,16.880041,-3.0388591
141.07147334429604,-4.8558226,1.6684479,3.895935,-3.7475753,1.8120742,3.2474165,-5.982774,-5.422891,-5.5350566,2.8636107,0.33434665,-8.261918,18.259817,-3.3329751
142.94804145265775,-5.2143373,1.0762882,4.279832,-4.6063285,1.5245008,1.4539899,-4.4166417,-5.095534,-4.660204,2.3859878,0.501192,-7.8669214,15.499598,-3.0445447
146.16516858340012,-1.0737936,1.9831812,2.4409935,0.41356653,1.7887741,3.2361834,-5.0793676,-3.159172,-1.3471859,3.0436306,1.642399,-2.5913913,16.402763,-2.2633803
150.97673966710036,-3.5044672,1.5034221,4.178467,-4.5300007,1.8038224,2.6426833,-5.2325287,-5.203567,-5.3704243,2.1741574,-0.4154191,-8.474563,16.771553,-3.4285924
152.04718107340682,-3.646923,1.3754369,4.2511992,-4.0409236,1.6008222,1.984846,-5.41213,-4.7983184,-4.5554075,2.33838,-1.346481,-7.16477,15.234158,-2.8733857
156.07691831543409,-0.95536375,1.2087938,4.071216,-3.08489,2.2732348,2.4072976,-5.4047117,-2.5579016,-3.2332206,2.4047928,0.83760726,-5.0689874,16.023884,-2.3227587
157.04607935405934,-4.900787,1.0259833,2.778274,-4.257969,2.7630205,3.0252903,-4.785727,-5.136962,-5.2116766,3.4445226,-0.97777164,-8.342623,13.476677,-3.4012792
158.04032672175362,-4.9987173,0.91470563,3.3052962,-4.310649,2.4914868,3.2064724,-6.0138245,-5.370805,-5.6617985,3.3492217,0.24594663,-8.844314,16.586899,-3.8331027
159.16856324044997,-5.119048,2.6197677,4.4109836,-4.346582,-3.4673007,-1.6325485,-4.8612165,-4.91057,-5.0035977,2.005499,-2.7115235,-7.792189,7.9635973,-2.502171
160.13314159280725,-4.9923034,1.7204381,3.6469991,-4.1817513,1.9231554,3.1120605,-5.4067783,-5.4429846,-5.6160727,2.9456244,0.7855745,-8.619533,17.539429,-3.408189
163.97769453157306,-5.2088017,-0.504976,4.002237,-4.7820435,1.8602533,1.9566212,-5.63516,-5.269806,-4.904631,3.297538,-0.6216647,-8.4289875,16.475517,-3.6290653
164.00826925149738,-1.3392035,1.1936138,3.784273,-3.819497,2.2218945,1.6073358,-4.341099,-4.1695843,-1.0342032,3.304743,0.03566447,-5.2057343,13.868874,-1.577287
164.11679986249476,-5.005611,0.8627787,2.4357426,-4.112553,2.7827675,1.7937349,-5.467419,-5.0118704,-5.365545,3.9555452,-0.4725243,-8.30855,10.932896,-3.0978994
164.93001813169528,-4.3433805,1.4366885,4.586498,-3.5723786,-2.2127078,-2.000318,-4.491054,-4.03896,-3.9417076,-1.1527209,-1.9923233,-6.272127,8.777513,-2.596409
167.03134892372694,-5.2525578,1.585346,3.2529387,-4.2718244,2.272237,3.4832768,-5.8594637,-5.510051,-5.614391,3.124125,0.876507,-8.803652,17.011845,-3.4302638
169.98583471858657,-4.8194118,1.4347433,4.1539645,-4.664937,1.4696648,2.0943446,-2.8760695,-5.3456035,-3.0619771,2.9336097,-0.75582284,-8.118658,16.772326,-3.4897614
181.06253357277816,-3.7127638,1.1506708,4.190257,-1.3460413,1.3817127,2.4749112,-5.0177145,-4.2530203,-4.6675243,2.255918,-1.4114366,-6.632025,16.493004,-2.8616526
184.07346765759067,-1.8170501,1.6793923,2.5071836,-3.9425735,2.8104935,2.6498876,-5.7782416,-4.523152,-5.003344,3.4510698,0.113227025,-7.4486594,12.967489,-3.125672
185.05740413292418,-5.0558987,0.7928531,4.1813593,-3.7645512,1.0285883,2.5850792,-5.703065,-4.9750304,-5.0763416,2.4194508,-2.0137303,-8.077398,16.638634,-2.9467583
185.95976571022555,-4.467292,-2.3477135,4.177308,-4.189915,1.687936,-1.4130237,-5.0741467,-4.401864,-4.7606926,3.711108,-1.5580177,-7.113805,13.478741,-3.228376
185.9903670258029,-4.6856275,-0.07339307,4.1192446,-4.45327,1.9280874,1.5693266,-5.005004,-4.768707,-3.810974,3.125265,-0.8619545,-7.285509,14.821494,-2.8304224
188.0766250994236,-5.0363493,0.9785622,4.112912,-3.3460336,0.7868822,2.6344473,-2.7221806,-4.8421307,-4.608619,2.5622408,-2.188548,-7.7922106,16.786312,-2.1365507
189.0714434682931,-4.491534,1.0253022,4.0852222,-2.5346272,0.8362737,2.5513968,-5.0928273,-4.878595,-4.9194865,2.661807,-1.131933,-7.2285147,16.442577,-2.1490092
195.0419453058757,-4.737685,1.1361194,4.1528883,-4.229858,1.7606349,2.2703424,-5.6225247,-4.877599,-5.0606613,2.6632628,-0.701705,-8.177351,17.176975,-3.2944517
195.06271277531698,-3.8681633,1.9022664,4.187454,-4.2360463,1.3009624,2.6926012,-4.9112983,-4.646089,-4.997254,1.6923138,-0.88724136,-8.113046,16.8168,-2.9970098
197.05746415042407,-4.27977,1.3401158,4.2937756,-4.096225,1.3335637,1.4157277,-5.326097,-4.648274,-4.9244723,2.6043034,-2.7124577,-7.7839193,16.17558,-2.8990278
199.07325281002025,-3.9396803,1.5006821,4.4202986,-3.4455802,1.6976211,-0.3530327,-4.587901,-4.1151857,-4.2950077,1.566666,-0.06677719,-7.061518,14.939437,-2.6090987
202.066501544518,-5.4398446,0.22783406,3.2654119,-4.8016305,2.4604683,2.6832411,-5.893618,-5.5988593,-5.710811,3.698241,0.20502572,-9.050789,16.130077,-3.8228745
202.09219427994782,-4.276913,1.0465329,4.179229,-4.1847515,1.4256284,1.9816566,-5.7774787,-5.126264,-4.919826,2.8202126,-0.5483284,-7.8311934,16.729923,-2.4387124
203.08696082268418,-4.627541,-0.18803705,4.222928,-4.029955,0.5814543,2.2444606,-5.096137,-4.414633,-4.535072,3.0449097,-2.13045,-7.603835,16.504457,-2.9394846
205.06005018215913,-5.270382,2.0177906,4.2676554,-4.4687285,0.21192466,2.573727,-0.8715117,-4.810533,-5.378353,1.7627984,-1.8566974,-8.609988,15.756501,-2.7878287
205.12064445969258,-4.1536865,1.9632226,3.7665384,-2.870567,2.0474339,3.1891046,-5.7943754,-4.584527,-5.1381483,2.654412,0.59799284,-7.3819714,17.243431,-2.6604543
206.05539519878883,-0.6988205,1.7822251,3.4422586,-0.6019957,2.1455097,2.9652398,-5.700566,-2.4915905,-2.1682029,2.7815635,1.7635124,-3.5955486,16.172958,-2.426584
206.1275855995987,-4.3019333,1.8965466,1.2374097,-3.8247316,2.5560575,3.4687915,-5.7626276,-5.372831,-5.4234376,3.4774551,1.5356133,-8.325762,11.860365,-3.3691938
209.09389973284416,-3.7788575,-0.049343757,4.140156,-3.5544925,1.8327804,1.5273465,-4.9201155,-2.8996043,-4.2508326,2.7639651,-1.1472738,-6.650585,15.220797,-2.7022526
211.07315270468837,-4.8216624,1.3306292,4.2868085,-4.5388646,1.7122862,2.1785195,-5.748981,-4.899823,-5.2785378,2.4903855,-1.6069502,-8.290633,17.11474,-3.09437
214.05565761455762,-3.6544836,1.2465662,4.1986284,-3.5200279,2.0409493,1.3953434,-5.1276307,-4.462655,-4.3848615,2.4722955,-1.5179462,-6.8613014,16.175804,-2.7083383
215.06810475732192,-3.3098462,1.6628784,4.0233436,-4.3067446,1.6758541,2.7538736,-5.7204714,-5.371574,-5.368311,2.579223,-0.5249367,-8.3302555,17.086088,-3.1633503
218.05051074472152,-4.1923237,0.93113625,4.3059297,-3.7511513,-1.3584601,2.20274,-4.5132465,-4.636677,-4.3702,2.4557874,0.8976807,-6.9795027,13.667892,-2.294104
221.18619238088982,-4.7207336,0.5094546,3.1330943,-4.180418,2.142787,3.0355055,-5.181437,-4.9192433,-5.040422,3.755246,-0.7070291,-8.074821,12.75558,-3.1525893
222.02929539630048,-2.820089,0.27461433,1.9819492,-3.8878567,3.5623944,1.3817849,-5.00463,-4.864379,-4.7310762,3.3769855,-1.1613392,-7.626848,4.678122,-3.3286645
222.1963781206182,-4.6290903,1.6740396,3.7973366,-4.104586,-2.803146,2.293721,-5.111661,-4.6373844,-4.8684697,3.6164582,-0.7764507,-7.4023504,13.59193,-2.9410565
223.10945238689277,-3.31492,2.1381266,4.115933,-3.4120176,1.968389,1.7917463,-5.1796675,-4.1890926,-4.333686,2.4572148,-1.7976971,-6.9389496,16.374939,-2.4270751
227.06803885421309,-4.407894,1.328021,4.252891,-4.3518085,1.5665134,1.6254611,-5.4009247,-4.7917457,-4.9790177,2.546618,-1.7601119,-8.02014,16.964401,-3.311701
228.2264048730009,-4.9175735,0.91583693,4.550506,-4.5070286,-4.035372,-3.2807114,-3.905471,-4.9807267,-5.077517,-3.4797637,-4.0613184,-8.15765,3.2847252,-3.2690048
231.06294028159982,-4.5308805,1.0583252,4.20499,-4.125148,2.049638,1.8427732,-4.9882936,-4.7962027,-4.650413,2.8210697,-2.0364623,-7.633677,17.370941,-2.598339
233.02111811266192,-4.875531,0.39507723,4.241953,-4.567858,1.0774279,1.4488705,-4.730971,-4.7058945,-5.0759096,2.8297753,-2.2779238,-8.442989,16.317707,-3.1707263
234.0818681659536,-4.2008657,-2.3126647,4.1152534,-3.591618,1.5358338,2.4193687,-4.588766,-4.3725286,-4.2465568,3.1388464,-1.1387762,-6.426875,16.214678,-2.5466452
241.02950206629706,-4.489953,0.8749669,4.5502505,-3.9820466,-3.4069982,-3.0198028,-4.1275396,-4.4848585,-4.2779784,-3.57033,-3.0270736,-7.038068,-1.4518886,-3.1725473
241.0473618927395,-3.9161534,0.47159058,4.3279905,-3.6148129,2.1796083,1.7135813,-5.2343535,-4.514987,-4.5405273,2.4937313,-2.2929664,-6.778034,13.852043,-2.5785887
243.0829710976259,-4.5527678,1.8168004,3.8386679,-3.8625863,1.841584,3.077685,-5.9861183,-5.4940066,-5.3200755,2.8611836,0.9922456,-8.175451,17.831808,-3.0324173
243.09931152472012,-4.563098,1.5566598,4.083652,-3.9479485,1.3590431,2.7736578,-3.5324023,-4.3999233,-4.4027915,2.6484935,-0.435161,-7.5853786,17.190662,-2.456456
244.07724123305323,-5.4070277,0.8661653,2.247802,-4.513438,2.7618208,3.2491937,-5.692178,-5.4731274,-5.5160484,3.6197505,0.1277019,-8.986334,9.467272,-3.8015707
247.09425491750557,-4.033459,0.7392711,4.110185,-4.228218,2.1324706,2.1108108,-4.986664,-4.7499166,-4.810648,2.8965008,-1.4026641,-7.72398,17.569952,-2.685735
251.10447077523585,-4.2746553,1.0432805,4.14997,-3.8679276,2.3489504,1.5873903,-5.2484303,-4.3914714,-4.612326,2.8384185,-0.7887915,-7.2736154,16.76168,-2.92346
253.08364230631653,-4.8278613,1.1183249,4.1707077,-4.4235463,1.8160166,2.2618437,-5.712261,-5.2014136,-5.3618374,2.9209135,-1.6374931,-8.440544,17.26453,-3.3411744
254.13623336117078,-4.9390397,0.8644784,-3.0990121,-4.2054534,3.7938268,3.5076919,-5.20829,-5.116924,-5.0789986,0.9315834,-1.1618767,-8.556032,6.0323076,-3.1022806
255.09915080142363,-3.5044703,1.6408305,4.022113,-4.182116,1.5940843,2.6846445,-5.4842825,-4.803406,-5.050095,2.5596092,-0.3900097,-8.132592,16.711477,-2.9985106
255.1356014347429,-4.6815214,-1.3345032,4.4349356,-4.0396485,-2.211166,0.23064859,-5.064073,-4.6484027,-4.288482,2.550363,-2.8187494,-7.414298,13.751406,-2.6074424
261.05228436757915,-4.2769384,0.31331974,4.268575,-3.738759,1.615256,1.7737283,-4.9828267,-4.554183,-4.3777986,2.7991028,-0.6757984,-7.1476393,17.166742,-2.562786
261.07334112304517,-4.373214,1.1043701,4.0061626,-3.9960177,2.0765607,2.2012918,-4.9340086,-4.858598,-4.782252,2.944972,-0.19306296,-7.1536236,16.826906,-2.7019696
261.10966185035926,-4.3842025,1.7689277,4.053017,-4.1185536,1.8110074,2.6706507,-5.1521845,-5.2030025,-5.116451,2.4865603,-0.17973189,-7.9800053,17.643915,-2.7046728
265.11993582059335,-3.7945104,1.3376154,4.021532,-2.8152902,1.9131926,2.84281,-4.9301834,-4.249386,-4.507371,2.3326845,-1.7484937,-6.495431,16.801819,-2.768563
267.09922367205917,-3.5246294,1.467691,4.105889,-3.8196182,1.5969898,2.5836701,-5.6581707,-5.171635,-4.99329,2.7128441,-0.09365472,-7.771598,17.392963,-2.98223
267.1355665990693,-4.40885,1.1720439,4.2216067,-4.184953,1.6108456,2.0542152,-5.4839616,-4.5986013,-4.7521944,2.6136878,-1.2743975,-7.554521,16.807858,-3.0771825
269.114922695292,-5.0888743,1.0572374,4.2284365,-4.3450165,1.5499945,1.9545063,-5.7567005,-4.512956,-5.1266665,2.8307552,-1.7730371,-8.288795,16.840763,-3.1469758
270.13096213522044,-3.3124151,1.3576417,0.8838774,-4.014799,3.065613,3.487993,-5.808906,-5.4679427,-5.5410757,2.9538667,2.015073,-8.290667,7.5937686,-3.408869
274.1705467265059,-4.8054304,1.9836318,3.9582498,-4.199462,1.6990082,2.9637022,-5.3307204,-4.552999,-5.2941127,2.4091804,-1.175992,-8.04114,17.72631,-2.938887
275.12535495048786,-4.5730767,1.1752844,4.1360655,-3.7107446,2.2103431,1.8178343,-5.173407,-3.9496462,-4.634071,2.83096,0.39771125,-7.127699,17.243984,-2.5054696
277.1046854722379,-1.6981834,1.0348188,3.415863,-0.0027985147,2.0669405,2.382902,-0.9024695,-2.7534611,0.8181554,2.9280262,0.5005117,-1.8329309,15.692366,1.7909899
277.1199314280742,-4.4216356,1.1288332,4.2352057,-3.6870613,1.7784234,1.5187103,-5.0670877,-4.4910145,-4.3863378,3.015391,-0.892004,-6.8596907,16.887718,-2.5766895
279.1918698917662,-4.318209,-2.8475916,-3.4313195,-3.3937068,2.229965,2.2269285,-4.749287,-4.1589293,-4.4971714,4.294089,0.87818944,-7.0697956,5.797902,-3.0727148
279.2543320460134,-4.4044075,1.2347295,2.9637876,-4.0198994,-0.5685793,3.49298,-4.8194695,-4.4062176,-4.479982,3.5122182,0.7288816,-7.3424153,13.401508,-2.9820971
283.1305129141175,-2.1352265,1.6629848,4.08797,-3.900452,1.4514109,2.658826,-5.5835295,-3.3947358,-4.840009,2.5978076,0.58556134,-7.2950444,16.90162,-2.7340257
293.1149201372592,-3.8609228,0.9481412,4.09953,-3.72339,1.9153017,2.3700325,-4.9829125,-4.394647,-4.580744,2.9466631,-1.1928473,-7.1669354,17.381378,-2.6946008
305.1568601303938,-0.3835374,1.5952405,3.0969477,1.6037266,-0.40742752,1.7222604,1.2266531,0.2224733,2.1017716,0.81010264,-2.0604603,3.054822,10.347073,3.1194932
313.2138117541359,-4.243752,1.4602292,4.153531,-3.7181685,1.7050105,2.1506493,-5.1173797,-4.2416754,-4.374898,2.878865,-1.2985396,-7.017739,17.473867,-2.3299031
317.11518519135484,-0.96346724,1.5905467,4.0125203,-1.1028866,1.1344225,2.757798,-0.6585822,-0.63439566,0.4182159,2.3363438,0.9883365,1.2911084,16.462116,-0.17420772
321.13096874610164,-0.15505578,-1.8311054,2.703958,1.5385567,1.6785231,1.1028987,0.4704299,-0.0019032424,1.9622793,2.4644115,-0.7525937,2.2206242,11.157589,2.889324
325.177311613809,-3.1706145,1.6167334,4.057331,-3.8170633,1.4205018,2.7234287,-4.077889,-4.501956,-4.3247094,2.5283623,0.048574045,-7.11187,16.87038,-2.258935
327.19299949538106,-3.9964974,0.33822444,3.9957006,-3.7272139,1.8661488,2.846084,-5.0613594,-4.603806,-4.8259435,3.0493472,-1.5921204,-7.2770634,17.468933,-2.9512734
331.20901611987676,-4.045971,1.8741559,3.995221,-3.4774108,1.429458,2.830293,-1.8249934,-4.7001915,-4.7485905,2.4107556,0.41426492,-7.4666166,16.72105,-1.9096644
349.18302226417984,0.16007698,0.3065663,1.9919,-1.6728463,-2.1464257,-0.94627535,2.260127,0.7828247,3.0378416,-2.1461387,-2.8181598,5.0889974,-1.8506138,2.5314217
365.1570478361734,0.8551138,-1.4607371,1.5387905,2.1246238,1.2348204,0.5730366,1.3577969,0.97171855,2.7286546,0.9056893,-1.8881744,5.6717415,6.384934,3.0622818
382.2223302420728,-4.2670083,1.259795,1.2561293,-3.9039533,2.6945305,1.9845047,-5.1494513,-4.9476347,-4.808549,4.0107875,0.41772568,-7.6016703,11.896776,-2.9211783
400.3421458375981,-4.074973,-4.4760566,-4.3670416,0.5791212,2.9557772,3.8840168,-5.59193,-4.7700915,-3.2725117,2.3871763,2.374666,-3.106677,0.6871271,-1.5812498
409.18336016445807,1.0440097,-0.093182735,-0.21156089,1.9645447,1.1928165,-2.5485516,1.5776298,1.3490416,3.0367055,-2.709848,-2.4897115,6.356368,-6.8553615,3.0505033
424.3420088682949,-1.4300181,-4.775508,-4.560315,-0.8538027,3.1424277,3.702808,-5.744846,-4.9306083,-3.5335095,2.4602225,2.8334565,-3.8609934,-0.27171373,-3.047234
427.36111282551303,-4.337306,-4.7599344,-3.7887504,-3.6503084,3.062788,3.9712331,-4.0901685,-4.7856317,-0.16341105,1.5807083,1.8361619,-3.4217753,0.46591902,-2.0926752
450.55301652070364,1.9623412,-4.0653358,-3.9523022,1.6679155,-4.0976634,-4.0131035,1.4886892,1.7288548,3.1758816,-3.9468744,-3.6952932,7.474086,-23.389166,-0.56312543
453.2095792347797,1.5857903,-0.75745106,-3.4090877,1.17985,-3.1931722,-3.4843152,1.7831981,1.5830386,3.2984629,-3.6710036,-3.9410527,6.83702,-16.561455,2.3446944
465.2283399515315,1.1212955,-2.1784751,1.4360964,3.012563,-2.0339172,-1.9407052,1.1999859,1.2881724,2.598502,-2.148676,-3.1598647,6.220887,-12.999599,3.742101
465.5631258867581,1.5595869,-4.508138,-4.0804725,2.7081747,-4.5159497,-4.1422634,1.6526448,1.6329314,3.0599163,-4.369744,-4.210605,7.299125,-24.98692,2.8701828
465.89656668656824,1.7131094,-4.473269,-3.9483237,2.051063,-4.169729,-4.066799,1.702072,1.8511918,3.2752652,-4.148242,-3.946771,7.5187054,-24.733358,0.8768656
470.5534619718108,1.7805471,-4.2817183,-4.0070143,1.617475,-4.0531263,-4.0024886,1.4090614,1.811496,3.284706,-4.2031612,-3.9262557,7.519288,-24.244383,-1.108013
478.92025987617245,2.1307285,-4.238453,-3.803814,-1.556848,-4.137158,-4.0274973,1.4242313,2.0777736,3.4862354,-4.175146,-3.9092221,6.9719725,-23.374683,-2.1825526
479.9038387582657,1.3565134,-4.763088,-4.0790043,3.2084212,-4.4659743,-4.189082,1.3931526,1.4929556,2.8055894,-4.070329,-4.1389985,6.558717,-25.278845,3.9821928
480.2392946824935,1.4238985,-4.3991795,-4.156255,3.1406145,-4.4614134,-4.28931,1.5069087,1.543493,2.887488,-4.2097282,-4.2281632,6.719901,-25.763966,3.7417958
480.571938125089,1.5990508,-4.486648,-3.9903033,2.6611164,-4.376423,-4.190816,1.6206242,1.7167972,3.114332,-4.1834435,-4.0754447,7.3405094,-25.022562,2.826686
480.90576653196075,1.7028581,-4.3723145,-3.9619164,1.1715949,-4.165581,-4.132396,1.7585413,1.9008417,3.2554662,-4.0378103,-3.744604,7.548965,-23.726254,-1.0518612
483.0757223974028,-4.7798057,0.30157912,4.3262334,-3.2799907,1.6909757,2.0220551,-5.601702,-3.9188175,-4.733121,2.4992926,-1.3465577,-7.271894,14.529862,-2.769559
485.2287549811139,1.5495722,-4.4519362,-3.6618266,2.6537468,-4.009622,-3.7433982,1.4309644,1.7430105,3.1118,-3.820992,-4.0111103,7.367671,-22.382538,2.468169
485.56335188492085,1.7893826,-4.4121614,-3.9350326,1.549089,-4.1473064,-4.06876,1.4994618,1.8274425,3.300625,-4.094031,-3.8291402,7.4453907,-23.574833,1.1314638
485.89639233200955,1.7506417,-4.158136,-3.906486,0.45645308,-4.064893,-4.0070176,1.3522958,2.0462856,3.3391674,-3.8966153,-3.4631999,7.272293,-23.451172,-1.6191657
488.2306001257723,1.6741623,-4.4036894,-3.8705466,-0.19510832,-3.9311223,-4.0641875,1.8057011,1.826558,3.5065687,-4.1742086,-4.221623,7.3317223,-23.9598,-1.4211484
492.92762636807333,1.7433813,-4.660525,-4.175039,2.503146,-4.469855,-4.245936,1.5561962,1.7970116,3.1747644,-4.2462516,-4.283594,7.4594116,-25.217855,2.2044594
493.2619550954543,1.9202255,-4.4773283,-4.054638,1.7872491,-4.4297967,-4.3168225,1.6009505,1.9597725,3.3221297,-4.2113667,-4.157588,7.6798325,-24.896769,-1.002103
493.5955515817928,2.0690634,-4.46432,-4.0044847,0.09095462,-4.2532377,-4.091202,1.6250643,2.099568,3.387784,-4.2178383,-4.137764,7.4625406,-23.7276,-1.7459967
493.9294846090314,2.061928,-3.9732432,-3.8498273,-1.5323936,-3.9706426,-3.9048693,1.444662,2.183719,3.4626935,-4.194091,-3.5455399,6.709511,-22.077335,-1.9944994
494.579584838628,1.2894403,-4.7437363,-3.7205799,3.2934518,-3.989252,-4.1318054,1.3117276,1.4499753,2.772671,-3.6573918,-4.1831293,6.4333878,-24.146404,4.0867434
494.9141973198271,1.3133765,-4.705219,-4.137978,3.169019,-4.662863,-4.290206,1.4215081,1.475676,2.800487,-4.2219086,-4.42789,6.5812798,-26.023544,3.9174616
495.2473765981361,1.5186179,-4.855387,-4.1552687,2.9594553,-4.46704,-4.3059196,1.5873908,1.5674692,3.0988233,-4.285168,-4.257644,7.1186895,-25.139044,3.298864
495.581149111223,1.7523208,-4.0920796,-4.0038705,1.7763155,-4.415168,-4.2542477,1.7407404,1.9177816,3.350382,-4.1981926,-4.171649,7.6682415,-24.448437,0.5694126
497.23584017034875,1.5792351,-4.340413,-3.4009678,-1.3730909,-3.792919,-3.9332979,2.001193,1.9720063,3.576858,-3.7219431,-3.7301362,7.2383175,-20.706573,-0.94616616
499.903935505119,1.6000581,-4.597122,-4.0863547,2.56156,-4.4672413,-4.2034197,1.5452212,1.7575365,3.085432,-4.1475735,-4.251949,7.3274,-24.546547,2.06949
500.23858275884396,1.7139685,-4.505224,-4.0842047,2.2424848,-4.0414095,-4.1299043,1.4528257,1.799139,3.2105293,-4.020808,-4.155916,7.491269,-24.497438,1.4570615
500.57171018677553,1.8584496,-4.3332686,-4.0951633,0.9987482,-4.2462034,-4.124311,1.4721818,1.9209409,3.432217,-4.071137,-3.9873636,7.606162,-23.962145,-1.7696669
507.9377993311231,1.8499838,-4.8053565,-3.981084,2.1988668,-4.2918186,-4.252859,1.6666822,1.9193546,3.2944226,-4.16435,-3.9482224,7.59312,-24.427147,1.2542409
508.2711803315196,1.8956497,-4.565863,-3.9854794,1.4532293,-4.350049,-4.2020392,1.542002,1.9898678,3.250578,-4.29319,-4.0586257,7.4802394,-24.575016,0.16255361
508.6049300600752,2.1699858,-4.386799,-4.062516,-1.037079,-4.447905,-4.1536183,1.3237289,2.2058477,3.357793,-4.1042376,-4.119084,6.6782494,-24.016705,-2.060653
508.76054176492727,1.4403204,-3.9341013,-3.9132998,1.1107659,-4.141349,-3.8450418,1.7602148,2.1902158,3.3500984,-3.8755133,-3.8328228,7.0271826,-22.04714,0.4805635
509.2552829055155,1.2383788,-4.8489537,-3.888845,3.3093219,-2.2223542,-3.8363128,1.3326495,1.3479425,2.7282534,-3.0656757,-4.0569005,6.205168,-24.987011,4.153343
509.58934554543896,1.3375485,-4.660327,-3.9862804,3.2858968,-4.115876,-4.1024933,1.4343531,1.4800706,2.86307,-4.10053,-4.2197576,6.6182485,-24.610617,4.045044
509.9229628592716,1.4513658,-4.774801,-3.9733708,3.135099,-4.4874754,-3.9869351,1.5769796,1.6824892,3.019074,-4.0518665,-4.0010767,7.101234,-24.602924,3.7491608
510.24236974262993,1.8806952,-3.6642213,-3.991304,1.9557307,-4.055423,-3.9251268,1.5728391,1.4903202,3.1966817,-4.0616884,-3.7012095,7.3714256,-22.924297,0.33095226
510.25777952582314,1.6800618,-4.405448,-4.1072717,1.6814568,-4.286597,-4.195253,1.7124261,1.7721703,3.1670773,-4.3001823,-3.9793987,7.4013042,-24.603867,0.7466725
510.5904929207744,1.8401749,-4.2217684,-4.0788307,-0.16516794,-3.7332196,-3.95578,1.6456684,2.0691853,3.4130347,-4.0966415,-4.064388,7.2007294,-22.741722,-1.9081621
514.5795507688714,1.4831123,-4.676977,-4.1283727,2.7139854,-4.190747,-4.415585,1.4705591,1.6328313,3.0624785,-4.0702496,-3.9498956,7.215171,-24.945404,2.9811654
514.9141088106072,1.8267367,-4.5387053,-4.017077,2.2398565,-3.8473315,-4.149305,1.5529213,1.7945815,3.3346238,-4.0697107,-3.883855,7.716304,-24.232994,0.5335467
515.24714677643,1.8366627,-4.471805,-4.0576134,1.8968831,-4.3529196,-4.235539,1.4884642,1.8848141,3.2720428,-4.221105,-4.1185656,7.44417,-24.918194,-0.18100789
515.5812041673266,1.7548913,-4.300621,-3.8170292,0.25766158,-4.159658,-3.9094942,1.034422,2.100928,3.4511588,-4.015309,-3.6238859,7.2691565,-22.7701,-2.2159824
515.7733296973558,1.6895233,-3.3287587,-3.8210125,-0.89833194,-3.8482945,-3.6654403,2.0425043,2.0881503,3.4127903,-3.88919,-3.276246,6.7215385,-21.262936,-1.9273862
518.3211782528595,-4.5801,1.2624353,4.489383,-4.2512536,-3.7881389,-3.2416608,-4.3277516,-4.5455337,-4.5624,-3.7047148,-3.5811446,-7.7463083,-4.914563,-3.1627116
522.2780079381146,1.7884603,-4.781869,-4.1104836,2.6752188,-4.3248987,-4.216591,1.5902952,1.8169996,3.1707842,-4.2998977,-4.114046,7.341402,-25.205807,2.8768024
522.9466030471535,1.8511405,-4.559256,-3.9886146,1.5665951,-4.3736453,-4.1790257,1.6190424,1.9643868,3.3645656,-4.2903805,-3.9409254,7.539201,-25.018185,-0.7004736
523.2801547418912,2.097299,-4.336304,-3.9213088,-0.8573052,-4.263891,-4.1710896,1.5437856,2.1636243,3.39193,-4.1479053,-3.8459117,6.8988495,-23.886791,-2.050454
523.9306489382229,1.1110805,-4.7232537,-3.5845094,3.1888537,-3.2962234,-3.5922866,1.2793821,1.3416463,2.6260483,-2.2044408,-4.1547112,6.0807424,-23.278664,4.1846657
524.2657076843612,1.2361671,-4.5765123,-3.9687817,3.2381701,-2.9497292,-3.8738055,1.3211758,1.3455217,2.6513662,-3.4672296,-3.7846348,6.116003,-25.20224,4.1744103
524.5984796167957,1.446797,-4.795931,-4.0744586,3.1504269,-4.4463177,-4.2835603,1.4575703,1.5946763,2.9447854,-4.2201433,-4.152414,6.956545,-25.36414,3.7405012
524.9322255579777,1.6708353,-4.3357377,-4.079836,2.5142105,-4.3520317,-4.1851215,1.6606507,1.8000243,3.1596472,-4.126133,-4.1979394,7.520999,-24.287453,2.3634975
525.2675637278638,1.8170213,-4.5415316,-4.0377045,0.87794703,-4.3480425,-4.1051373,1.7397653,1.9479573,3.4021988,-4.127894,-3.929272,7.5409117,-24.449917,-1.5216547
529.2549223397006,1.5102216,-4.8410625,-4.136691,2.9698653,-4.3426476,-4.190737,1.4359912,1.6026647,3.0448136,-4.147724,-3.9474235,7.18516,-25.101524,3.3450904
529.5893463118568,1.5533373,-4.805285,-4.06267,2.597453,-4.379853,-4.1977625,1.4481188,1.7306677,3.1433918,-4.109082,-4.0656824,7.572049,-25.10183,1.895195
529.922664198904,1.7358909,-4.647847,-4.133027,2.060662,-4.318397,-4.3022637,1.5742975,1.804439,3.2682817,-4.100738,-3.961224,7.541771,-24.62375,0.37152636
530.25659065734,1.6790605,-4.456166,-3.9234836,0.18304859,-4.3368845,-4.0365925,1.3661894,2.0590377,3.418145,-4.205718,-4.1024275,7.401083,-24.320122,-1.9750654
532.2566698359487,1.5999081,-4.617745,-4.104303,2.6069665,-4.164048,-4.384632,1.5808934,1.7639306,3.1621203,-4.3667874,-4.1831894,7.5241156,-24.982643,2.8039045
532.7584946111834,1.7780046,-4.4139,-4.11993,0.9295915,-4.2996063,-4.1862435,1.6092596,1.8372675,3.3275163,-4.237015,-3.9000263,7.344702,-24.308987,-1.5464357
533.2590179998325,1.9576944,-4.384979,-3.9769223,-0.14238219,-4.243093,-4.0610433,1.5517205,2.0085795,3.3847995,-4.0988503,-3.8441079,7.5460486,-23.884823,-1.2578697
537.9558254673497,2.0026698,-4.3952694,-4.0604134,-0.77904123,-4.426533,-4.0889044,1.3990959,2.166985,3.4522047,-4.2206416,-4.0366855,7.1676626,-24.502743,-1.9199647
538.6060509169396,1.2259616,-4.390749,-3.842802,3.2680926,-3.74853,-3.7273808,1.3032172,1.3954076,2.6976151,-1.7750549,-4.0916467,6.2626696,-23.781702,4.2402873
538.9403787567521,1.253674,-4.72572,-3.9018784,3.2335582,-3.9472075,-4.064295,1.343169,1.4372191,2.7140288,-3.0850456,-4.1845307,6.22948,-25.122488,4.0819855
539.274086627344,1.4270793,-4.7327237,-4.021759,3.1309075,-4.356511,-4.3305035,1.4753082,1.5893147,2.871725,-4.16551,-4.3772182,6.7043386,-25.749365,3.8060594
539.6075740206704,1.6519458,-4.787848,-4.1033463,2.7363868,-4.431163,-4.201116,1.7310505,1.8046869,3.213525,-4.2759085,-3.912155,7.417309,-25.297203,2.588642
539.9413320927383,1.9058039,-4.4280133,-3.9340587,0.14541425,-4.253198,-4.0489674,1.712843,2.0869567,3.412521,-4.1600566,-3.906522,7.5164976,-24.318636,-1.8412253
541.2620774824768,1.7181842,-4.371081,-3.8457534,-1.8772404,-4.2378407,-4.1028275,1.9288648,1.882318,3.5008142,-4.163015,-3.781306,7.2246823,-24.092754,-1.8999268
543.9300571574971,1.5650157,-4.1842823,-4.17243,2.956834,-4.4692316,-4.2705517,1.4286768,1.6672612,3.0831342,-4.2582893,-4.22908,7.3262143,-25.343884,3.3129978
544.2646646425169,1.6172696,-3.8820086,-4.057031,2.770563,-4.4310575,-4.1948977,1.5086688,1.7085401,3.0874033,-4.2398243,-4.1848316,7.3305683,-25.105307,2.829186
544.598305571382,1.6235218,-4.600581,-4.111637,2.0920875,-4.531908,-4.334468,1.4909263,1.7695051,3.1160517,-4.0913486,-4.203093,7.467993,-24.611618,1.0020243
544.9319321857902,1.9055177,-4.2801375,-3.8499339,0.72717416,-4.100063,-3.9535084,1.4249208,1.9340703,3.4723513,-3.962273,-3.7995067,7.523573,-23.623734,-1.3567162
552.26974141865,-0.6953522,-4.442765,-4.1375375,0.4675686,2.835658,2.8349338,-5.695524,-2.0116432,0.185791,3.2910986,2.6876369,-1.7499361,3.5539026,-2.9073572
552.6311290343571,1.9917885,-4.4853735,-4.116455,-0.79281235,-4.3207397,-4.1864305,1.4637847,2.2167425,3.3900201,-4.236897,-3.9586096,7.0354457,-24.584665,-2.1432598
553.2806751977768,1.2153955,-4.238281,-3.7316082,3.2871976,-3.3542995,-3.5698402,1.3253206,1.4013301,2.7290697,-2.6551554,-4.2078996,6.162836,-24.064335,4.144759
553.61540315256,1.2504036,-4.867871,-3.965882,3.200808,-4.646676,-4.2643347,1.3201492,1.4437459,2.7119644,-3.1171052,-4.0870833,6.3042736,-24.947351,4.026096
553.9493235760538,1.3798697,-4.7922263,-4.1282067,3.0279639,-4.3009477,-4.4331255,1.4700923,1.5268124,2.890503,-4.297844,-4.299552,6.85667,-25.74741,3.6423702
554.2846624362412,1.6135365,-4.389572,-3.7462378,1.5813667,-4.3017893,-3.963147,1.7899364,2.024839,3.3350704,-4.1491637,-4.0148797,7.3921995,-23.882418,-0.013470404
554.6167325164191,1.7704952,-4.486682,-4.0211115,0.71730006,-4.283557,-4.1735244,1.7615032,2.0369425,3.364147,-4.1246095,-3.9353049,7.470684,-24.334146,-1.3135856
554.771232013622,1.8041962,-4.628695,-4.156268,2.2392828,-4.312454,-4.268247,1.5940131,1.7832096,3.2044578,-4.275011,-4.0475287,7.5298686,-25.212227,0.5844614
555.2712385340405,2.0027685,-4.4130173,-4.0097013,0.8926718,-4.28373,-4.0302396,1.510594,1.8444225,3.3850589,-4.153052,-4.1008434,7.4794283,-23.790186,-1.6260592
558.6060387649404,1.5507299,-4.3859863,-4.0272813,2.9711409,-4.353695,-4.213143,1.4781024,1.7148021,3.0445905,-4.149622,-4.182171,7.2405577,-24.467966,3.3151946
558.9402700704871,1.6521626,-4.7280855,-4.1608963,2.656735,-4.2497373,-4.286086,1.538996,1.7135613,3.123791,-4.2912,-4.2182374,7.3610554,-24.790756,2.783369
559.0931126248909,-5.1310406,1.2182205,4.1480494,-4.35288,1.5653311,2.538223,-5.429589,-5.1105433,-5.308849,2.922133,-1.4207796,-8.344484,16.664772,-3.3552377
559.2737127305819,1.622953,-4.8394184,-4.1343474,2.1932876,-4.4465933,-4.2464037,1.4836046,1.8427788,3.2080853,-4.2303224,-4.210627,7.508626,-24.574146,0.8347252
559.6074053637994,1.756051,-4.5037637,-4.011483,0.7170903,-4.0648937,-4.181414,1.2581949,2.0057716,3.471447,-4.0569806,-3.8949416,7.575221,-24.262709,-1.9874232
566.3030077463626,1.7592031,-4.572767,-4.154008,2.3457448,-4.456482,-4.212989,1.498718,1.9168009,3.210957,-4.343278,-4.449421,7.552142,-25.447279,1.8330173
567.3062723764642,2.0644102,-4.3995132,-4.075689,-1.0563042,-4.1370325,-4.0304675,1.4572971,2.3986943,3.4352417,-4.1412783,-3.9097617,6.6803184,-23.433426,-2.1785128
567.9566053446767,1.1885188,-4.5685034,-3.9608078,3.2515852,-2.8924825,-4.0386515,1.2962087,1.4053352,2.713579,-3.3128328,-3.9936619,6.1537123,-24.852352,4.0967507
568.6244512297033,1.4498569,-4.7063723,-4.163059,3.075508,-4.6737213,-4.397902,1.521132,1.6214136,3.0035088,-4.1725764,-4.171788,7.0090837,-24.975912,3.678236
568.958298611368,1.6708847,-4.583181,-4.0120316,2.4298048,-4.5297265,-4.24502,1.6712385,1.8824525,3.20843,-4.3828506,-4.0779004,7.667058,-24.90388,2.3695695
573.2808027957229,1.5494256,-4.7784457,-4.1098123,2.8430786,-4.5144362,-4.4199386,1.49508,1.6927344,3.076057,-4.102949,-4.2294927,7.4337893,-24.861994,2.941588
573.6157713601772,1.5864826,-4.6086755,-4.0437074,2.6674695,-4.4890857,-4.2969007,1.4564898,1.6995243,3.1251333,-4.1905103,-4.147142,7.3823347,-24.46341,2.5288835
573.9488434368914,1.7208501,-4.660829,-4.0290146,2.3042204,-4.3335485,-4.137768,1.4847686,1.9219292,3.360816,-4.1068625,-3.8641837,7.8360767,-24.3805,1.0181314
574.282823708664,1.7581708,-4.5197515,-3.9325793,0.6310133,-4.2704906,-3.9483237,1.3897438,1.9958837,3.4258285,-4.1053524,-3.7717333,7.339033,-24.234205,-1.5253993
576.7847297500665,1.6431179,-4.7254596,-4.0913367,2.8347363,-4.584258,-4.4202337,1.5555605,1.632634,3.0831406,-4.28694,-4.201378,7.3437424,-25.660275,2.8148234
581.9821163075625,1.9915439,-4.3824296,-3.9032826,-1.1979377,-4.2909584,-4.071541,1.5932148,2.3117943,3.4624515,-4.185556,-4.17525,6.191739,-24.28493,-2.1758034
582.6316699482917,1.2980322,-4.9450083,-3.736828,3.259455,-3.5643642,-3.8941147,1.3812404,1.5014745,2.8203073,-3.4640923,-4.2016287,6.552785,-24.731966,4.042754
582.9665417603859,1.2894864,-4.558572,-4.0408764,3.1802602,-3.6035795,-4.197902,1.3664796,1.5091199,2.8559382,-3.895167,-4.1780906,6.5993967,-25.2695,3.934603
583.2998526402897,1.4537969,-4.629826,-3.9989142,3.0650537,-4.676963,-4.3828883,1.477139,1.603627,3.061692,-4.047976,-4.2975755,7.0084085,-25.103014,3.5519736
583.6338435125647,1.6779805,-4.626929,-3.9947326,2.389664,-4.4755874,-4.2129545,1.7607753,1.8749325,3.2373388,-4.2239513,-4.113213,7.511298,-25.426428,1.8864212
583.9675320416991,1.874351,-4.409694,-4.008023,-0.35549948,-4.2983923,-4.088152,1.6479952,2.1796691,3.4031706,-4.1870255,-4.028004,7.2782307,-24.2989,-2.026768
585.2881746710144,1.5884486,-4.251311,-3.9457624,-2.5155358,-4.2445617,-3.9603066,1.9765654,2.1299608,3.6275613,-3.9689114,-4.00869,6.5670195,-23.643078,-1.8362252
587.9566405582815,1.5206103,-4.723711,-4.112173,2.788963,-4.3901143,-4.1904693,1.4352553,1.722645,3.118112,-4.2159066,-4.1166453,7.315589,-24.732075,2.9251978
588.290947483365,1.6449606,-4.6763635,-4.0112596,2.587819,-4.061191,-4.2050285,1.4695001,1.7114921,3.1569972,-3.9698908,-3.7352867,7.3780084,-24.086483,2.6817257
588.6245140788945,1.70915,-4.632155,-4.007905,2.3081455,-4.431598,-4.2860184,1.4585301,1.8881378,3.2914152,-4.1688294,-4.1322837,7.6382685,-24.589375,0.64534616
588.958112943333,1.8662567,-4.421955,-3.892077,0.55108654,-4.164334,-4.174451,1.2523111,2.0356455,3.5037417,-4.191625,-3.7998924,7.5622888,-24.700487,-1.8064469
596.6574473957705,2.1452787,-4.3315434,-3.8332725,-1.2319443,-4.194149,-4.0934167,1.4998194,2.3109105,3.3647172,-4.082565,-3.9996521,5.6124763,-24.301186,-2.2153664
597.3068354780905,1.3544326,-4.7060523,-4.1184316,3.2022421,-4.2384276,-4.188592,1.4026725,1.5471948,2.8764062,-4.1034474,-4.373553,6.7287874,-24.838575,3.881285
597.641335302347,1.3640406,-4.2748184,-4.0555253,3.1073124,-4.391888,-4.365002,1.3911992,1.5468161,2.9066324,-3.8362844,-4.517261,6.7640095,-25.233143,3.7460194
597.97541909505,1.5271323,-4.8389893,-4.153258,2.9735103,-4.431387,-4.262455,1.5728079,1.6767054,3.056788,-4.189221,-4.0906086,7.1288424,-24.96793,3.3733373
598.642981296282,1.7499145,-4.2736783,-4.0906806,-0.7213084,-4.284617,-4.1734366,1.7071235,2.0869792,3.4216769,-4.302465,-3.9182546,6.9117537,-24.008007,-1.73127
602.6316334779631,1.6631957,-4.676898,-4.166262,2.6970856,-4.492001,-4.3154144,1.4319263,1.7395304,3.137086,-4.20328,-4.246615,7.466427,-24.805843,2.278891
602.9660757273422,1.6848373,-4.7390337,-4.0680323,2.4019623,-4.3322597,-4.3025055,1.5651474,1.8214473,3.2281055,-4.098901,-3.9842944,7.6478143,-24.526407,1.4218955
603.2998283170422,1.7116166,-4.7624855,-4.0407796,1.8267256,-4.4027843,-4.206125,1.4797943,1.9442538,3.3241787,-4.190612,-3.8997238,7.5974336,-24.39476,-0.8738136
603.6335686535476,1.7655416,-4.5059977,-3.9830532,0.28803042,-4.3136783,-4.1405854,1.1892884,2.0368588,3.4140215,-4.251401,-4.062201,7.1907344,-24.225878,-1.9408548
610.3291443798283,1.9519353,-4.345835,-3.9634385,0.07377749,-4.2180834,-4.1169686,1.3905556,2.2302918,3.3991776,-4.0756683,-3.6791465,7.1638875,-23.545147,-1.3531172
611.3324826283111,1.7527379,-4.353299,-3.8980937,-1.5138842,-3.9199512,-3.9463465,1.2232649,2.402605,3.543708,-3.956138,-3.5788555,3.814876,-23.488537,-2.1954918
611.9828288944624,1.4190216,-4.8242655,-4.12644,3.0472376,-4.5277095,-4.288338,1.4710953,1.5645812,2.9475126,-4.199987,-4.1865153,6.827429,-25.248602,3.566593
612.6507417911749,1.5270982,-4.468537,-4.1509995,2.7384114,-4.456078,-4.312785,1.5109419,1.7448024,3.0940273,-4.319327,-4.046985,7.3425465,-24.709898,2.8622568
612.9845472297768,1.7220664,-4.552998,-4.1028466,1.9847878,-4.4626455,-4.285712,1.7606107,1.9719399,3.3586583,-4.2900624,-4.085886,7.670538,-25.078753,0.3775047
615.4957687178843,-1.0695364,-4.3545203,-3.9993858,-1.2282693,3.7223196,2.901733,-5.110461,-4.3575487,-4.7463965,2.496657,2.1980138,-6.257957,-5.0328674,-2.922135
617.307072248301,1.6297629,-4.532088,-4.030958,2.5180416,-4.302239,-4.2136807,1.533672,1.7881871,3.2115202,-4.0949106,-3.887186,7.56435,-25.198143,1.8077996
617.6419495365926,1.6948421,-4.751264,-4.1498995,2.3212867,-4.5682025,-4.2831554,1.431129,1.7937338,3.2645543,-4.285815,-4.163339,7.5874414,-25.16745,1.3229964
617.9753606282869,1.7972519,-4.607884,-4.068371,1.5387365,-4.234363,-4.197436,1.3891696,2.0393217,3.3927853,-4.198455,-4.210872,7.6592627,-24.444098,-1.8236122
618.3091164648787,1.8726153,-4.4127355,-3.9038692,0.29299742,-4.25161,-4.0426407,1.4155849,2.0687885,3.3862236,-4.0541325,-3.9122126,7.219987,-24.114536,-1.8935792
626.0084241371368,2.0087469,-4.178683,-3.8321502,-1.879611,-4.2508936,-4.048398,1.2081461,2.4859083,3.4747365,-3.930021,-3.8278995,3.6401198,-22.781567,-2.2615848
626.6576566538322,1.4984103,-4.737596,-4.2033834,2.9808118,-4.5434966,-4.246527,1.4870211,1.6308061,3.0001886,-4.325016,-4.305005,7.131691,-25.674713,3.4570932
626.9925645287154,1.5776416,-4.8650084,-4.066551,2.9785285,-4.47746,-4.1916018,1.5794495,1.7637132,3.0734825,-4.178697,-4.1387177,7.409742,-24.877113,3.3327515
627.3258403263696,1.6490017,-2.356623,-3.9528065,2.623221,-4.533933,-4.261562,1.6355637,1.8021901,3.2299109,-4.3063755,-4.0383716,7.5779057,-25.228722,2.478014
627.6600715072444,1.8022162,-4.492289,-4.00448,1.2650938,-4.4123845,-4.0881457,1.863106,2.086639,3.4247625,-4.228271,-4.1243277,7.54692,-24.531277,-1.4113973
627.9938600471125,1.6521615,-4.4473433,-4.174275,-0.26768637,-4.226813,-4.115704,1.3965181,2.0264266,3.4619172,-4.1722836,-3.91464,6.91411,-23.408756,-2.1118543
629.3143872161478,1.7148616,-4.007773,-3.8156395,-2.0724745,-3.6920207,-3.8831728,1.9029579,2.0189292,3.6170688,-3.9678595,-3.6593268,6.249496,-23.043541,-1.096926
631.9825059466988,1.7923517,-4.600536,-4.1880984,1.9802665,-4.1991363,-4.2300954,1.4656963,1.9966948,3.3309307,-4.268453,-4.2480216,7.698586,-25.029686,-0.48134804
632.113831429033,-4.5536485,1.9332569,4.091525,-4.134414,1.5978554,2.9750853,-4.8472147,-5.498779,-5.207655,2.645534,0.07677614,-8.189562,17.783325,-3.1258638
632.3168808809797,1.77661,-4.7254047,-4.127715,1.8751627,-4.4649143,-4.2209907,1.5487568,1.988439,3.358538,-4.149,-3.9087524,7.6810894,-25.01592,-0.87805015
632.6508208317952,1.8413101,-4.5511966,-3.828672,1.386622,-4.2272415,-4.046667,1.593324,2.0286815,3.4402542,-4.134211,-4.396818,7.6305943,-24.665457,-1.6102036
632.9844083206727,1.7538103,-4.270536,-3.8364875,0.003704977,-4.2076373,-4.0536375,1.1111808,2.3327117,3.345438,-3.9642026,-3.8927314,6.778365,-23.33168,-2.2110078
633.1117401972615,-5.127789,1.6519895,4.0324645,-4.5623183,1.509482,2.8592641,-5.6562657,-5.4607873,-5.612401,2.6463814,-0.9595997,-8.911276,17.894972,-3.439184
634.1118418026093,-4.459445,1.2777244,4.070108,-3.9062927,1.789388,2.1169493,-4.9302397,-4.5045824,-4.616413,3.0058634,-1.699751,-7.5327377,16.82991,-2.8006399
639.4958013225602,-0.39073715,-4.1385927,-3.8637414,-2.9639077,3.8702762,3.0054653,-4.819081,-4.2767,-4.5972013,1.2001184,1.7474703,-6.5538526,-3.0985794,-3.2869813
640.6837182505567,1.9817986,-4.1188507,-3.9980662,-1.825384,-4.0454865,-3.8397143,0.8061552,2.423728,3.517966,-3.9694455,-3.5248067,3.3963885,-22.354012,-2.054466
641.3335183619116,1.5168927,-4.619896,-4.136988,2.6679049,-4.3671174,-4.437044,1.5611571,1.7484766,3.0893881,-4.273967,-4.227689,7.223963,-25.107958,2.7644286
641.667673331466,1.6363791,-4.781866,-4.1276255,2.7946281,-4.5485163,-4.2134094,1.5800694,1.8143122,3.1466916,-4.1865835,-4.19789,7.4374604,-24.806517,2.8088012
642.0014831520969,1.7934703,-4.5849476,-4.067643,2.0335472,-4.331056,-4.1787686,1.6847558,1.9400479,3.3373506,-4.3182945,-4.0086985,7.7145233,-24.550953,0.8708611
646.6580257684512,1.7244211,-4.637279,-4.157037,1.885676,-4.455431,-4.303532,1.4082887,1.9426036,3.3481011,-4.1566076,-4.1356134,7.7024994,-24.88403,-1.088419
646.9925690334887,1.768179,-4.545401,-4.0757914,1.5530639,-4.371166,-4.1285677,1.377258,2.003827,3.3368788,-4.2525697,-3.9734838,7.5361156,-24.554283,-1.4172409
647.3260359946927,1.8141233,-3.9380054,-3.9606507,0.091381855,-4.356064,-4.1406074,1.2892417,2.116885,3.4665694,-4.119678,-4.006856,7.445585,-24.881464,-2.2794776
647.6599161348003,1.7023181,-4.1916065,-3.9926026,-0.48619932,-4.2776294,-3.962981,1.0910618,2.209188,3.4727933,-4.1786094,-3.8308997,6.4122705,-23.422012,-2.1792924
655.0253372499009,1.9845015,-4.404911,-3.9663668,-1.489248,-4.0843,-3.865418,1.1439524,2.1821027,3.4992187,-3.9859548,-3.671798,5.144909,-23.697062,-1.6727673
656.008808959616,1.7725245,-4.547548,-4.138266,2.3876188,-4.4905033,-4.1575723,1.6656541,1.8478636,3.2558835,-4.306732,-4.1387377,7.5909343,-25.067148,1.6647872
656.6769149669507,1.7887582,-4.6619215,-4.087171,1.27646,-4.356823,-4.24469,1.7713023,2.017172,3.4137816,-4.101816,-4.117689,7.656804,-24.81908,-1.0863914
657.0108110592557,1.7315627,-4.1881003,-3.9382534,-0.6403476,-4.4081817,-4.1013966,1.8223376,2.0772207,3.456665,-4.2727056,-3.873946,6.7457933,-24.625404,-2.1445398
661.333466947226,1.9093281,-4.51007,-4.0877934,0.2827672,-4.2780347,-4.2479157,1.2368329,2.1398973,3.5215614,-4.1767898,-4.1442914,7.6892195,-24.351427,-2.27408
661.6680914675109,1.7971232,-4.5300856,-4.130253,0.26281112,-4.236104,-4.174185,1.2854624,2.1717486,3.4814615,-4.1712074,-4.2440357,7.400462,-24.349329,-2.2132304
662.0016556758274,1.9086199,-4.409052,-4.049578,-0.23640767,-4.23611,-4.2024517,1.1452944,2.19522,3.4876726,-4.2290635,-4.1579213,7.1384983,-24.427416,-2.3499293
664.8366094006194,1.2691401,-4.907168,-4.104654,3.3210175,-2.1204839,-4.2045255,1.2589492,1.3274184,2.7250302,-3.4888315,-3.9130087,6.2237654,-25.78074,4.18479
665.3361093271064,1.5015875,-4.805089,-4.232218,3.189091,-4.334839,-4.336637,1.4309208,1.5669885,2.954169,-4.2786374,-4.294415,6.9109464,-26.073277,3.8591087
665.8375133345984,1.7516927,-4.831789,-4.1161003,2.6575506,-4.3871408,-4.227827,1.4550223,1.8268893,3.2180161,-4.1772685,-4.3080797,7.6950035,-24.541538,2.1413052
666.3378653010126,2.1288567,-4.395932,-3.8107104,-1.4287225,-3.97978,-4.0756106,1.3363947,2.0540159,3.5453262,-4.0613003,-4.1101737,7.1049137,-23.40943,-2.3524466
670.6842149008764,1.7229218,-4.5277605,-4.097752,1.2967312,-4.349066,-4.1671133,1.6241755,2.0846615,3.392815,-4.234272,-4.19194,7.7099485,-24.76494,-1.3913463
671.0184734885361,1.7493061,-4.443049,-4.081328,1.1626196,-4.4292436,-4.228896,1.8123184,2.0185115,3.3978045,-4.234189,-4.1761494,7.3786583,-24.768703,-1.5767405
671.3518386047365,1.8216399,-4.307299,-3.9700203,-0.6330432,-4.275264,-4.078945,1.6069697,2.2398627,3.444684,-4.285919,-4.157531,7.0937543,-24.324501,-2.3260925
671.686369461285,1.4295791,-4.305707,-3.8881502,-0.9863123,-4.167017,-4.1687393,1.3001733,2.4786072,3.4145105,-3.9997656,-3.5440102,5.7004585,-22.90179,-2.014179
673.340584198945,1.6459202,-4.200771,-3.8305218,-2.533336,-4.1805596,-3.8793685,1.8555648,2.0926578,3.68047,-4.167708,-3.268087,4.98339,-22.070038,-1.9852802
676.0087263541498,1.8976198,-4.4059324,-3.9829674,-0.38953564,-4.237717,-4.145022,1.2844552,2.161578,3.4681246,-4.1041403,-4.0085864,6.974494,-24.269188,-2.1562252
676.3440946859712,1.9543043,-4.3756733,-3.9610934,-0.2355665,-4.1676297,-4.0852456,1.20952,2.1796973,3.42715,-4.0634217,-3.7562828,6.797106,-23.397152,-2.2590687
676.6770209830461,1.8864152,-4.179762,-3.546814,-0.7410099,-3.8936796,-4.1538897,0.9817086,2.2261927,3.3595173,-4.0031605,-3.6487665,6.8325996,-22.425846,-2.160062
685.3596181849049,1.8001925,-4.4945755,-3.9022913,-0.32524905,-4.2550206,-4.0077157,1.6995461,2.1914406,3.4708445,-4.038502,-3.9456208,7.19899,-24.138382,-2.3311129
685.6938257835305,1.8672909,-4.333768,-4.0725064,-0.73897785,-4.3353405,-4.1923995,1.6413509,2.1955855,3.4772735,-4.133219,-4.053923,7.1317983,-23.955627,-2.3108113
686.0279313931892,1.75986,-4.41466,-3.8540998,-1.1462033,-4.233888,-4.008639,1.7665604,2.2844415,3.469639,-3.979142,-3.8231132,5.1654963,-23.838106,-2.3473926
686.8496251342218,1.3750652,-4.816172,-4.221869,3.4055026,-2.5169668,-3.9589305,1.213852,1.4711392,2.7493067,-3.6434689,-4.1849856,6.326313,-25.691978,4.2796264
687.3504403753851,1.396246,-4.938298,-4.1975317,3.2416637,-4.0248303,-4.3452725,1.4122988,1.4922137,2.8475606,-4.165852,-4.2265477,6.513236,-25.597668,3.9206402
687.8507106093722,1.6077394,-4.6898074,-4.207963,2.638726,-4.4452057,-4.3105025,1.5867023,1.7133157,3.1448448,-4.3781376,-4.2039213,7.412359,-25.270044,2.5150864
688.3515765378075,2.0950358,-4.5043755,-4.1281652,-0.17838226,-4.1788034,-4.216233,1.3558949,2.0794325,3.5166893,-4.1759057,-4.1163993,7.2897854,-24.383593,-2.402784
690.6843536240796,1.8244021,-4.2636075,-3.8077986,-0.7348573,-4.0655565,-3.762854,0.9266573,2.1993895,3.403377,-3.510329,-3.6681921,5.5762367,-21.40829,-2.2954395
691.0187258623997,2.0402758,-4.3591704,-3.8025336,-0.84651196,-3.9526336,-3.855233,0.50657654,2.2469363,3.419824,-3.9410965,-3.696428,4.2481847,-21.634739,-2.3341231
700.0348936237547,1.676604,-4.230477,-3.8627012,-0.60981745,-4.0990167,-4.1064167,1.4592893,2.218494,3.4927263,-3.9311697,-3.5910306,5.869452,-23.355057,-1.9940009
706.1323636420491,-5.0932093,1.6800609,4.032397,-4.42181,1.5504167,2.911051,-5.5794578,-5.2341657,-5.607798,2.6511707,-0.06251635,-8.826695,17.321812,-3.2768526
707.130415769561,-5.306082,1.5935466,4.030057,-4.686478,1.6045815,2.76458,-5.6913705,-5.458665,-5.6896954,2.6753006,-0.7112811,-8.924206,17.326427,-3.498701
708.1304044704468,-4.549412,1.2830205,4.071749,-3.970147,1.8173044,2.5476494,-5.321444,-4.8032265,-4.7838836,3.0259352,-1.7515217,-7.650381,17.730019,-2.977254
708.8632285375837,1.2430533,-5.005278,-4.048772,3.3423839,-3.0895844,-3.9542189,1.242964,1.360638,2.6809843,-1.650018,-4.026149,6.1562643,-24.709188,4.2606955
709.3630779129818,1.3804027,-4.8958898,-4.2130504,3.1740158,-3.9313424,-4.4100294,1.3612736,1.5195423,2.8407137,-4.115844,-4.27087,6.6147394,-26.214481,3.881372
709.8640888724873,1.595693,-4.8003416,-4.1645803,2.72215,-4.501684,-4.327136,1.5626851,1.7279782,3.068164,-4.2289324,-4.175274,7.3349643,-25.34872,2.5612383
710.3643860557818,2.024225,-4.450933,-3.973066,0.0028776673,-4.1672196,-4.031352,1.5621779,2.0783243,3.4931324,-4.1538434,-4.04224,7.2865076,-24.38769,-2.2234313
730.8767630007383,1.2099317,-4.4584427,-4.20843,3.3518028,-1.2508012,-3.8025005,1.2620537,1.3642324,2.7260516,-1.975984,-3.7792976,6.104333,-24.844994,4.2195015
731.3768159003127,1.297783,-4.873069,-4.2296605,3.136779,-4.686104,-4.495804,1.3724453,1.4685146,2.8133826,-4.2248783,-4.4409056,6.6579337,-26.34196,3.9182177
731.8771190384252,1.7229488,-4.796921,-4.1736035,2.8212073,-4.5842485,-4.396047,1.5473939,1.8147397,3.085728,-4.2852592,-4.108596,7.471883,-25.376442,2.603709
732.3776301809983,2.0793622,-4.6110168,-4.025457,-0.13368014,-4.3363442,-4.1744604,1.5213975,2.0944288,3.5095243,-4.138124,-3.9978976,7.517702,-24.981897,-2.323548
752.8898617937245,1.1916575,-4.8828583,-4.209535,3.2941682,-1.6268284,-4.2637424,1.260612,1.3515263,2.6813831,-2.1929486,-4.1512146,6.14584,-24.83479,4.1920233
753.389508370205,1.456244,-4.7568564,-4.3028436,3.2381587,-4.099304,-4.36544,1.3776426,1.5903133,2.8555503,-4.155227,-4.1611013,6.7387857,-25.669619,3.9329638
753.8900434182241,1.6687052,-4.770028,-4.2573647,2.6894395,-4.4190474,-4.3364444,1.4781885,1.7673173,3.0898848,-4.3548155,-4.221117,7.3849587,-25.24811,2.5022962
754.3906651160707,1.9131327,-4.641065,-4.0486093,0.09773159,-4.4361815,-4.192993,1.4771072,2.033578,3.4294994,-4.244843,-4.2295117,7.45308,-24.427086,-2.2488184
759.5718929798202,-1.258215,-4.1392813,1.4585584,-2.9576662,3.7876258,2.3979607,-5.074235,-4.71344,-4.5610056,2.6413414,0.28429773,-7.2400675,1.4313445,-3.066615
760.5829527068927,-1.935405,-3.8574438,2.0892956,-3.2277405,3.5062683,2.590639,-4.998256,-4.4307094,-4.9046097,3.3433788,-0.012641608,-6.7002134,5.5270157,-3.1101356
774.9021119012651,1.3076146,-5.0026007,-4.0563664,3.2554934,-0.9303155,-3.9976492,1.265633,1.406728,2.702585,-3.4729488,-4.042995,6.2103767,-24.636805,4.1602244
775.4027308716969,1.4225739,-4.972719,-4.264176,3.2358077,-4.5092964,-4.3681884,1.3860519,1.569966,2.945478,-4.14952,-4.426624,6.8439965,-26.2664,3.9492874
775.903432460491,1.657402,-4.500367,-4.192516,2.7226365,-4.5634036,-4.3146124,1.510812,1.7926964,3.1083224,-4.340994,-4.292484,7.5111237,-25.370934,2.2948399
776.4039661244722,1.9765977,-4.6421185,-4.080792,0.08944598,-4.3826585,-4.117196,1.5964524,2.0807328,3.4436204,-4.1306667,-3.9913068,7.2247124,-24.493677,-2.4178023
779.1503449975296,-5.2497582,1.2267727,4.1190057,-4.6472745,1.9928266,2.5569825,-5.264749,-5.3774557,-5.4036407,2.8211985,-1.422872,-8.732012,17.797928,-3.4288633
780.1509340738697,-4.5215077,0.44290414,4.07412,-4.0056305,1.8624079,2.7522001,-5.1457148,-4.6469703,-4.6940317,2.8511615,-1.492917,-7.4546633,16.566858,-2.9656823
781.1489875498474,-4.2008185,0.56100255,4.0053883,-3.70852,2.2509751,2.8444238,-4.8003016,-4.556932,-4.620461,2.7559412,-0.5122919,-7.0950747,15.526777,-2.5067942
783.5699074493093,-4.2587814,-4.3377557,2.6298237,-4.1096487,3.578256,1.8672173,-5.2157598,-4.8529067,-4.8589697,3.3419964,2.000399,-7.7884727,5.361203,-3.1372626
786.5999111141772,-3.7501478,-3.8550498,0.8890413,-3.6175356,3.438682,2.6005454,-5.0322,-4.552449,-4.22522,3.7626064,0.36992514,-6.9441853,5.2438817,-2.8775184
796.9161402359701,1.3628267,-5.054212,-4.176129,3.3600655,-3.3262393,-4.245785,1.353234,1.5049857,2.78063,-3.3784025,-4.1076465,6.34334,-24.839458,4.14317
797.4154612314934,1.438152,-5.0673637,-4.1980014,3.1781576,-4.821348,-4.411356,1.381375,1.6301619,2.9302773,-4.305955,-4.2958117,6.864172,-26.233015,3.7876942
797.9165098916963,1.6834778,-4.655389,-4.1957984,2.6363988,-4.508655,-4.3549232,1.574784,1.8113879,3.1717165,-4.3399067,-4.1731577,7.6333327,-25.519043,2.088804
798.4169615560422,1.8378912,-4.4479127,-3.9159036,-0.39940977,-4.1398406,-4.2445955,1.6496336,2.1676476,3.4300807,-4.2667794,-4.170879,7.286928,-24.675528,-2.3253574
804.5505835336571,-4.69082,-3.4435096,3.4104447,-4.1037936,3.4433773,1.9762353,-5.4494777,-4.935999,-5.022444,3.147673,2.0300565,-7.928033,5.1034856,-3.1907024
805.5539318863223,-4.462118,-4.0426474,3.0723097,-3.8871114,3.857997,0.5877311,-4.9728,-4.485452,-4.482072,2.91019,1.1360165,-7.0819864,0.97814465,-2.9658077
806.5647575494983,-4.4116755,-3.8346949,3.2715309,-3.7983932,3.496314,2.3450253,-5.077886,-4.465588,-4.673401,2.862449,1.087913,-7.4737544,3.6312394,-3.0796983
809.5853423792465,-4.58974,-4.1711617,2.6476839,-3.7667382,3.178415,2.0483198,-4.87977,-4.558978,-4.6884074,3.6985853,1.9795076,-7.177265,4.341287,-2.9590504
818.4274786359504,1.3089536,-4.9524713,-4.182368,3.2200603,-2.1945276,-4.2230673,1.2687447,1.3887516,2.6706069,-3.196813,-4.0580416,6.213528,-25.14325,4.0465236
818.9283439183455,1.2604696,-5.0620165,-4.237848,3.2283273,-2.634041,-4.159381,1.3533123,1.5089071,2.8125942,-3.8905358,-4.2689776,6.599332,-25.934782,4.0346417
819.429132422968,1.4887424,-4.9119077,-4.258441,3.1068678,-4.513873,-4.558252,1.3960996,1.6388341,2.9954238,-4.37694,-4.4652915,6.9671135,-25.470558,3.645834
819.9296502201292,1.7376572,-4.715494,-4.226495,2.3353903,-4.5258136,-4.4078927,1.5882264,1.8745784,3.2355428,-4.347235,-4.1093745,7.779329,-25.17532,0.22088538
820.4302987687867,1.8974736,-4.585467,-3.9069734,-0.29595312,-4.302216,-4.1604424,1.3565744,2.2358167,3.4858398,-4.19974,-4.056115,7.1437445,-24.803558,-2.521267
832.5813861644606,-4.234377,-3.296282,4.0351405,-3.872264,3.055411,-1.2118362,-4.9667873,-4.4242167,-4.3885465,3.4526837,0.3894218,-6.7533436,9.9699,-2.827857
841.9426105287413,1.7393992,-4.7005987,-4.1263213,2.1190674,-4.4878,-4.320063,1.5670528,1.9274696,3.3060162,-4.310191,-4.1848493,7.6075363,-25.287392,-0.8892324
842.443289935428,1.835567,-4.543465,-3.8230238,-0.45935938,-4.2488933,-4.1233387,1.5709311,2.2558947,3.4290285,-4.160702,-3.98673,6.9942713,-24.69216,-2.5270047
855.7394047398545,-3.2778654,-3.8584924,-3.857839,-3.5990481,3.816905,3.348862,-4.892789,-4.6295547,-4.588693,1.5504773,2.0992172,-7.1355476,0.07479334,-2.6190076
864.4566041414442,1.7588854,-4.2833557,-4.03037,-1.0256367,-4.2456546,-4.0800014,1.2972766,2.297077,3.5298727,-4.1335564,-3.9167912,4.268287,-23.26436,-2.307045
869.6983997542958,-3.951335,-2.1034784,-3.9213955,-3.7956326,3.7557156,3.255973,-5.0726547,-4.4373055,-4.9312563,2.370896,-0.39892614,-7.877451,1.3253183,-3.6094449
871.7132406009542,-3.2109919,-4.0022492,-3.76797,-3.6240034,3.9574451,3.0019188,-4.752146,-4.4756656,-4.6762424,2.0433705,0.12963152,-7.767418,-4.1874456,-3.3330107
874.7845865062392,0.76812744,-3.7529914,-3.6453207,-2.4454927,3.7341483,2.8336563,-5.124605,-4.6358094,-4.6068487,1.0801111,-1.5012854,-5.211259,-3.4312592,-1.9766825
876.7994265118355,0.24793175,-2.9276667,-3.6096587,0.09246059,3.687848,2.6900065,-4.9157705,-4.5394635,-4.5829372,0.21687078,-1.2507269,-3.4375384,-2.8244,-1.7246038
879.7397730424627,-1.3231124,-0.8263589,-4.578801,-1.6764706,3.0296042,3.7645862,-5.8692875,-4.8775454,-5.48607,2.7534597,2.3321605,-5.939043,6.28847,-3.2643642
880.7436150035622,-3.1273363,-3.0957115,-4.117245,-3.74441,3.4798284,3.665271,-5.3074694,-4.5069666,-5.145763,2.1086576,2.437091,-7.64637,1.665472,-3.4126785
882.7588778658212,-4.4192924,-3.5884917,-3.9103103,-3.6541164,3.6765356,3.3979757,-5.0618186,-4.730267,-5.009246,2.468949,2.6181455,-7.5941353,0.9743686,-2.9093497
886.469730388757,1.6941682,-4.278211,-3.8384178,-0.86485785,-4.164619,-4.085156,0.9475121,2.3394437,3.4668467,-3.8815477,-3.7331226,4.6964498,-22.73511,-2.1922374
893.6984807001496,-2.4572456,-4.152717,-4.0398297,-3.5318298,3.865607,2.882349,-5.1188693,-4.569845,-5.0503626,2.6498713,0.967521,-7.8573475,-3.6375294,-3.4825213
905.7553324984265,-4.193638,-4.1034718,-4.0515823,-3.6354482,3.3925881,3.704416,-5.473471,-4.8826313,-5.2435055,2.376589,2.483876,-7.3624988,1.1670742,-3.132804
906.7590834625811,-4.418696,-3.97906,-3.5535731,-3.9450917,3.7306244,3.4256992,-4.9738555,-4.661002,-4.6461267,1.880305,1.4129183,-7.639385,1.2550578,-3.2219286
907.7703952060843,-4.4408197,-3.3200395,-3.930042,-3.5561333,3.282008,3.7141442,-5.452586,-4.9957433,-5.2608953,2.8134165,2.0636778,-7.6539793,4.521401,-3.3849945
908.4830134545888,1.7212859,-4.3395023,-3.8105488,-1.4553733,-4.110496,-4.105599,1.0957978,2.3030603,3.4697506,-3.9469595,-3.6866903,2.3087957,-21.75034,-2.4148884
908.7745114487701,-4.481772,-3.9449627,-3.3882,-3.387944,3.5005126,3.6683161,-4.766794,-4.5014205,-4.570898,2.0093684,1.1062559,-7.083894,1.6688337,-2.8711534
919.7137760898212,-3.962782,-4.040528,-3.9390845,-3.8717635,3.733556,3.3333745,-5.1646795,-4.716736,-4.906514,2.2511325,0.21009819,-7.6439,0.49230862,-3.2563658
922.7329686139682,-3.8481486,-4.3077874,-3.7109897,-3.875603,3.7696912,3.236159,-5.143102,-4.630383,-4.866076,2.4626398,1.0323979,-7.7224045,-0.86425114,-3.2630744
929.9953015752143,1.9150662,-4.442868,-4.013615,-1.0467161,-4.32719,-4.0664134,1.3226229,2.2576141,3.541439,-4.004305,-4.135948,6.556133,-24.23101,-2.311107
952.0085148819553,1.9302564,-4.41129,-3.9478803,-1.5047437,-4.256882,-4.0422487,1.2602801,2.2978683,3.484683,-4.062302,-4.2015996,3.1646533,-21.973564,-2.597499
973.5207398593361,1.7918773,-4.515748,-4.0534964,-0.8592628,-4.4646077,-4.2089715,1.3436891,2.3312855,3.5124354,-4.246448,-4.2385902,6.502694,-24.228561,-2.4590178
974.0216424123246,1.8962381,-4.2920227,-3.7376406,-1.5765697,-4.206132,-3.8941803,0.98255545,2.3644567,3.505048,-3.9116974,-3.5514643,2.6651368,-22.582798,-2.3586254
995.0330679869421,1.9486269,-4.403892,-3.864333,-1.7174357,-4.261688,-4.0677094,1.5409567,2.3664615,3.5556629,-4.14543,-3.8535895,2.8625274,-22.580444,-2.5300074
995.5339872845539,1.8947116,-4.368101,-4.1055584,-1.8237242,-4.0428104,-4.008552,1.3888667,2.3232121,3.47648,-4.0985336,-3.4525738,2.1426795,-22.266386,-2.5834851
88.04038948230482,-3.9865744,1.9417064,2.4984667,-3.240721,2.326117,3.1161094,-2.3943791,-3.5706005,0.047482282,3.202737,1.8902093,-3.419723,14.33881,-2.2284403
96.9222867837585,-5.483925,-2.9572508,4.5645027,-4.6197157,-4.3937864,2.2637904,0.059240025,-4.919756,-5.3492026,-1.3781985,-3.7940667,-8.764704,4.1368465,-3.7105536
108.90216723266548,-5.2255054,-4.3416286,4.3497887,-3.8593981,-2.9955428,2.9276571,0.056903765,-2.4214225,-4.5330415,2.2719681,-1.8758651,-7.483799,14.907524,-3.642765
110.89905292095045,-5.5680366,-4.0661964,4.3662405,-4.6659966,-4.1373205,2.3466568,-0.20878531,-4.8241544,-5.0488257,1.7959985,-2.570012,-8.775976,11.395602,-3.929348
118.0228939088949,0.30020806,2.1388907,-1.7355863,-3.724759,3.7043676,3.0409935,-3.5332074,-4.327118,-4.6695833,-2.5662189,-2.1945043,-7.715796,0.8954847,-3.139103
125.00134359200638,-3.8484788,1.7752851,4.0376954,-3.3722363,1.3925028,3.0605273,-0.8356781,-2.3332255,-4.8965626,2.1470203,0.98808825,-6.869471,16.229717,-3.1081004
126.99838427140018,-4.3366675,1.5235955,4.062314,-3.696251,1.7578139,3.051794,-1.9851464,-4.4304924,-4.667462,1.1224223,-0.14230926,-7.1975784,13.033479,-2.9648292
130.06243457097617,-3.455297,1.6060206,1.3940946,-3.165307,2.5883665,3.1077209,-2.5302577,-3.868392,-0.20205306,3.2878203,1.2804008,-5.4958262,13.452526,-2.6109025
137.91818012825166,-3.0980666,-4.4329495,4.3995514,-2.9854512,-3.4091988,1.9991874,-0.3910722,-3.3541906,-2.9859793,1.8424661,-3.2772362,-6.586959,11.004778,-3.120408
139.02313448504393,-2.4035964,2.4486225,3.3869271,-3.1293213,1.7799804,2.8505762,-0.922622,-1.1613828,-0.61748356,2.6148686,2.8723707,-3.4830842,14.778847,-1.6936084
150.88684917028493,-5.281392,-3.969928,4.649864,-4.538247,-4.3942995,-1.4463656,0.3293793,-5.116682,-5.23548,-3.0115452,-4.063473,-8.710522,-2.4755425,-3.6974123
152.884037473799,-5.2339377,-2.4638343,4.627402,-4.543317,-4.3428335,0.551048,0.35831502,-5.050861,-5.2412586,-3.1866062,-4.0711837,-8.691594,-1.247891,-3.8283353
154.06243273088305,-3.6316807,-1.4249713,3.4894037,-3.1609988,2.0758317,3.2302394,-4.5150266,-4.1354327,-4.3877406,2.8404589,2.1366727,-7.2040854,11.799216,-3.0565715
156.92541498590168,-4.8382607,-1.3360696,4.189836,-3.091684,-3.1841433,2.7510667,0.028591339,-3.9247475,-3.5946636,2.254811,-2.3613727,-7.0648813,12.057544,-2.4776034
168.043215974591,-0.4336379,-0.26553458,-2.8607473,-3.0819256,3.390715,3.39769,-4.4937057,-3.399012,-3.2190218,2.72164,2.8331618,-6.1476793,6.560801,-2.1984713
170.9024289952744,-3.7548172,0.28997207,3.8457534,-2.980658,-1.6775913,3.1386425,-0.67614305,-4.3814626,-2.4117923,3.1754606,-2.0473742,-5.9280643,12.675562,-2.5161517
173.00938539915737,-4.5488524,3.8807673,1.9329445,-2.8213618,-3.5245967,-2.4008374,-5.0176907,-1.694904,-4.108639,2.426402,-1.5125297,-4.6931496,7.1196337,-2.257296
177.90594518143388,-5.388509,-0.78040063,4.3944163,-3.3372245,-4.6215663,2.5063055,0.15251555,-1.862969,-4.731466,-0.11609113,-3.6815865,-7.4477158,8.460467,-3.6098108
179.9028414094079,-5.2246084,-3.0529108,4.5080805,-3.7959075,-4.2522755,1.3703499,0.24726738,-2.8396938,-4.5430493,-2.4956334,-4.1334534,-7.790609,1.9096766,-3.6636977
183.01622524361176,-3.4156063,1.7407241,3.6187363,0.5654615,-2.8519485,3.8676844,-5.1403155,-3.0333436,-4.639881,-3.319738,-2.835714,-6.5616927,10.595888,-3.0179205
187.00169540760507,-1.633491,2.919391,2.5837116,1.1615032,2.04163,3.0671122,-3.4651945,-1.0431389,-3.2141972,1.5428303,-1.8701037,-0.38349307,14.763075,0.05951168
192.8747678301292,-4.5020866,2.1810093,4.3703203,-2.1417603,-3.4401162,1.9136517,-1.0306355,-0.53307676,-4.2976985,-1.6333941,-3.2614644,-4.236477,8.215779,-1.3656087
196.05467685267845,-5.1229916,2.4320538,4.0631332,-3.3818233,-3.5659604,3.1011837,0.022230078,-1.5554972,-4.5502577,-2.588711,-2.503384,-6.7708044,9.985658,-2.8234844
197.92142179424647,-4.2338195,-2.9268098,3.521234,-0.25494558,-0.30108288,2.942316,-1.6855172,-2.954382,0.057988845,3.2527428,-0.6667177,-4.8509693,14.337078,-2.605389
197.97079029094564,-4.6572304,-2.982656,3.8368702,-3.5394335,0.8515357,2.9748435,-1.0336154,-4.487735,-2.8882515,3.007603,-0.90742207,-7.770198,12.900429,-3.2038655
201.99727910604085,-1.1038634,1.3101492,2.6207361,-1.1005248,2.899171,3.8122349,-1.8014152,-4.2966976,-4.337567,0.3099481,-2.3504155,-6.908247,12.62891,-2.9173212
203.00783554791133,-1.25525,1.1447533,1.4823064,0.47726047,2.507134,3.0211523,-1.7869037,-2.5916421,-0.08909944,2.99744,-0.11481385,-1.6199887,9.9872875,-0.1453315
204.94176571712612,-5.199758,-2.165335,4.4071994,-3.9100013,-4.121681,2.7423046,0.05013667,-4.4151793,-5.120334,-2.237587,-3.452995,-8.361254,2.43859,-3.6697
206.00182596328784,-4.1655726,-1.8940691,4.1294966,-3.2361705,0.9367528,3.3372648,-0.39393225,-4.1451387,-4.4810276,1.4359435,-1.9818288,-7.172662,10.299212,-2.7565997
206.93902676715402,-4.1542487,-2.1728215,4.6003976,-3.8836167,-2.8010757,2.1039717,-0.018287186,-4.3723717,-4.615812,-2.7275207,-2.9945245,-7.745158,-0.2097454,-3.3563018
210.84240628593324,-4.58993,-4.486454,4.4333143,-4.0834146,-3.844578,-2.9920835,0.1257412,-4.4310727,-4.5579305,-3.8878927,-3.763124,-7.7311687,-6.177813,-3.4967194
216.03618526722593,-4.6570487,-4.2895765,4.5512624,-4.0972157,-2.9212356,-0.7314381,0.37618938,-4.4595585,-4.676732,-1.6191193,-2.8185184,-7.5533504,-0.6600194,-3.20518
217.01241249182988,-0.65961343,-0.42418697,1.6094018,-0.6606599,3.2230134,3.513609,-3.5659435,-3.775347,-3.4223876,2.262638,-1.7712541,-7.137061,12.329653,-3.2464037
217.9921012573295,-2.921847,1.2304882,3.3010914,1.81285,0.113907255,3.1718228,-0.52520674,-0.8752648,-3.355249,2.1471438,-0.92808944,-1.5348113,14.233824,-0.8485871
224.95798481468776,-2.615714,-4.341055,2.8582957,-0.3691047,1.5226741,3.0225885,-3.5198917,-3.3591912,-0.06450257,3.6186023,-0.5506758,-4.3141747,12.764793,-2.2629704
224.98973047401952,-2.6999702,-0.01266415,3.1962845,0.7476007,1.2254336,3.1051512,-1.3060831,-2.787553,0.4086679,3.0782824,-1.257587,-2.3949237,12.996698,-0.62845457
225.98662968204684,-4.857683,-2.6131115,4.2385316,-3.5519025,-2.8030784,3.1812372,-0.36621818,-4.6371636,-4.7748055,0.37291402,-2.4440544,-7.876466,5.363455,-3.2736173
227.20205935346317,-3.95162,3.263869,2.5728574,-3.6045055,2.4495306,2.623789,-4.5539393,-4.223749,-3.503907,2.8342466,3.9655752,-6.754383,4.8796043,-2.6953812
228.064637989851,-0.65889484,1.0797865,2.661081,0.015182208,1.9644666,3.274018,-3.3229375,-2.3748636,-0.22473995,2.743674,2.2755508,-1.9637632,15.1414,-2.1690917
229.01209235449537,-0.060544007,2.4460843,-2.9828568,1.2028062,2.5156126,3.1467202,-2.1913347,-0.36325693,-0.1103862,1.8048248,-0.09558896,2.0200915,13.701368,1.164299
230.01681152516386,-4.3627896,1.9581158,4.3803186,-0.104252994,-3.6010084,0.47183573,0.85842264,-0.85104007,-3.9530106,-3.775244,-3.5152733,-4.1574616,9.296827,-2.2061794
241.2176960257089,-3.1951604,2.6354277,1.2829959,-3.6368098,2.7506325,2.7978046,-4.9017396,-4.550272,-3.927616,3.307315,4.1033225,-6.841449,4.7582316,-3.1163564
243.9569907819224,-3.9476712,2.9046648,3.1651998,-2.7667987,1.6927134,3.23632,-1.40428,-1.6996714,-2.4512293,1.447897,-2.9320283,-5.2084923,15.522423,-1.9826125
245.05446506999195,-0.48730442,1.5826089,1.8681171,0.65590584,2.0395916,3.4125693,-2.8837962,-1.2541037,-0.18317583,2.6192734,2.0809822,-1.6612673,14.669117,-1.5485911
253.00992732046052,-4.6629357,-0.5944982,4.515797,-4.009421,-3.7101176,-2.3170948,0.28795865,-4.6355743,-4.721954,-3.9458368,-3.3563755,-7.4100056,-3.543623,-3.2155037
253.21776629818507,-1.0431385,-4.6413355,-4.5460806,-3.0373805,3.1818273,2.8874278,-5.6646585,-4.738817,-1.1162261,3.582065,4.67705,-7.927804,-7.5718927,-3.6331723
258.9966528160474,-4.2672925,-1.4185556,3.9115696,0.61286,0.3324096,3.6521356,-1.0886958,-1.9439049,-3.6235013,-1.555048,-2.4837847,-6.236889,7.9308043,-2.8513236
264.8975673009733,-4.4831657,-2.7838318,4.5750194,-3.7450068,-3.519925,-2.1110291,-0.47933388,-4.3567543,-4.4413023,-3.2565818,-3.6413434,-7.5163527,-1.8522263,-3.2725687
264.9523385220318,-5.0474625,2.4620223,0.61259663,-3.370222,-3.738051,2.7352097,0.10597848,0.033184804,1.5276165,3.5220063,-2.7805297,-0.87035906,12.148364,-2.3877816
269.24867786223507,-2.9700046,1.9230379,-2.1292362,-3.6523778,3.181755,2.81019,-4.758807,-3.713182,-4.0667515,3.4986343,4.507822,-7.680919,-2.084832,-3.2312884
271.10340537771975,-4.230629,-2.8633585,4.4503956,-3.4394069,-3.5911772,2.937575,-0.91546315,-3.6028218,-4.581741,-1.4744123,-1.2068589,-7.0943375,3.1728334,-3.1322927
272.09058037630876,0.14875859,0.13206583,-3.013704,1.4569187,3.371852,3.3977678,-5.0590115,-3.55086,-4.468952,0.43593892,-0.5530799,-5.838418,-1.1863911,-2.3477604
275.0887830751128,-4.591069,3.3253088,-3.644392,-3.2830942,2.7523541,2.662473,-5.299638,-1.3614231,-0.022184972,2.5248046,3.2842057,-2.0495691,10.024582,-2.5082333
280.0286298039873,-5.0185285,0.45955223,4.4674687,-2.7727938,-4.283281,1.8154662,0.7714729,-4.028998,-4.7036843,-3.8678172,-3.8395908,-7.39806,2.6541777,-3.273997
281.0362856493995,-4.2599077,-3.070385,4.4825516,-3.4607933,-3.081943,1.1395139,-2.0707433,-3.5913074,-4.604495,-2.887398,-2.6629696,-7.1765985,0.9923191,-3.029704
281.0518004312097,-5.1116343,-3.719612,3.9798267,-2.9112742,-3.9286046,2.6798582,-0.46054578,-0.66789824,-3.0223768,2.9759343,-1.789411,-6.6004643,8.084287,-3.4131887
281.24029940640725,-0.7808679,-4.495998,-4.0907006,-4.274779,3.4019806,1.3313756,-5.0907946,-4.5628805,-0.7831814,3.8104184,4.8099484,-7.313154,-9.0323305,-3.1857347
283.25573969089584,-3.9447966,-1.8855183,-4.157586,-3.5980687,3.7497249,2.1052487,-4.8757443,-4.2705655,-4.27327,3.3266392,4.9036555,-7.5054626,-12.062502,-3.3388188
284.26762446091493,-1.158582,2.408958,-2.9360516,-4.1681995,3.026132,2.3936994,-5.080284,-4.485966,-2.7920947,3.5226164,4.4613266,-7.640251,0.113960505,-3.2951071
284.7752181446451,-4.590485,-4.010366,4.55678,-4.145692,-3.70483,-3.1080656,-1.1688253,-4.6030693,-4.4833093,-3.7117891,-3.8201344,-7.708295,-7.365063,-3.3257265
286.9342719186836,-4.742604,-0.61259013,2.9245975,-3.6653626,-3.7751644,2.4113522,0.5202448,-2.5194793,1.5519862,3.6939583,-2.9693198,-5.382515,11.73016,-2.4383059
302.53394518939615,0.16000818,3.3689418,-2.2045588,-3.0059912,3.2919102,1.8021271,-3.2484143,-3.3931317,-1.7792125,1.91916,-2.2936904,-0.78250873,3.9179506,-1.6692653
303.05047978091903,-3.4717247,-4.2998824,4.532824,-3.872973,0.29679802,-2.9573872,-2.997704,-4.602554,-4.5276,-3.636838,-2.217832,-7.132661,0.20650387,-3.0101929
304.23647570057256,-0.4465626,-4.794334,-4.6279206,-2.8297575,2.6373546,3.0614295,-5.9903374,-4.20885,0.8678828,3.570991,4.0700493,-5.7155514,2.9155831,-3.3586826
306.07659791226115,0.18414484,1.3538065,-4.465633,0.40175658,2.2654283,3.242296,-5.427521,-2.4627314,0.6039417,3.02668,1.7319468,-0.42856848,5.992037,-2.8565755
307.26475333661443,-0.87949675,-4.684017,-4.4267235,-3.6284213,3.2124407,2.5553348,-5.5306644,-5.2179127,-0.94523185,3.5666058,4.7120576,-8.35826,-9.887975,-3.746523
308.0987783478931,-0.14950936,2.5165765,-1.3085843,0.9602145,2.3028655,3.5802648,-5.0932407,-0.9132698,-0.9307451,1.9099705,2.1588523,1.0938404,14.416313,0.17862937
323.028674108115,-0.7125908,2.464705,-3.062753,0.46618414,2.042885,3.4282997,-4.383563,-0.9023043,-0.1739734,2.6684272,2.0780985,1.5000975,14.439323,-0.4050142
327.2334488570279,-1.3097377,-4.5408363,-4.2355723,-4.206562,3.5438836,0.5692545,-5.562721,-4.9716873,0.58807856,3.6534784,4.6615267,-8.484396,-9.889368,-3.6239014
328.23208497219093,-2.3738685,-3.9600601,-2.7855992,-4.278735,3.297305,3.6079607,-5.572369,-5.3353586,-5.329682,2.7951858,4.3644357,-8.855203,1.3332181,-3.8559966
329.24916906370004,-1.2655904,-4.9673276,-4.603234,-4.321173,3.214238,1.593979,-5.734248,-5.2860537,0.50957704,3.77319,4.6342583,-8.580191,-9.163321,-3.8817234
331.2643761131768,-1.760717,-4.9142632,-4.9274473,-4.248045,2.637151,2.5670147,-5.6659045,-4.7170835,0.54656583,3.7785108,4.411244,-8.232817,-4.5220137,-3.7325664
333.09419689884004,-4.2945647,-2.7204247,4.3536353,-3.41905,0.8525232,2.8419783,-0.5793869,-2.4125679,-5.103622,-1.3122658,1.9603348,-7.8001637,6.078644,-3.419516
347.04014579367134,-5.602376,2.38341,-4.529509,-4.7124248,1.2571032,2.6921515,-5.1993947,-4.9416986,0.32734662,3.871798,3.0661652,-5.509018,3.6065817,-2.9172635
347.0594908074702,-3.955131,3.5206535,-3.4035492,-3.0835755,1.3742839,2.9443793,-2.656933,-3.7825766,-0.28869945,3.1812677,1.3146847,-0.997672,6.41438,-0.31161925
348.9440056751589,-4.110259,1.840169,3.900732,-3.5383897,2.3943517,3.2995012,-3.4509614,-2.9674866,-4.0548663,0.51929796,0.9183286,-6.047005,12.09996,-2.8493667
358.01862973542296,-0.39273486,-1.4691876,-4.128933,-3.7819824,2.7075438,1.7592643,-4.6510215,-3.9713316,0.75131845,3.728803,-0.0071503674,-3.2356293,7.454714,-2.4237466
362.051071780642,-1.4441954,2.9526248,-4.410813,-1.4162085,2.2026489,2.9844468,-2.8912137,-2.6134338,0.569571,2.8274858,1.7538353,0.8118738,9.315733,1.592935
362.9596002952725,-4.5635095,2.201013,3.9348063,-4.1523566,1.8033506,2.9159973,-2.9335105,-3.8009846,-4.592891,1.7424505,1.9544897,-7.214473,14.273704,-3.0351236
364.9569285058741,-4.2499404,2.2053938,3.9597156,-3.6738205,2.099959,2.9917698,-3.8326473,-4.288389,-3.5480444,1.2353365,0.6302336,-6.095833,11.863447,-2.9064505
371.09470715668414,0.93652886,2.703401,-3.8702753,-1.3247297,3.6932786,3.2430737,-5.12631,-4.421214,-4.8588,-3.882879,-2.0111437,-7.2574253,-4.770216,-3.0413563
390.25012601755395,-4.1518674,-4.114984,-4.301845,-3.821769,2.772459,1.8937222,-5.0455394,-4.66713,-3.2711678,4.025325,4.7560897,-7.311595,-9.946717,-3.1967719
391.24406119228485,-4.3348475,-4.2871337,-4.3755484,-4.1313834,2.820702,1.7629621,-5.269702,-4.957149,-2.5368466,4.101625,4.746046,-8.529869,-9.194648,-3.645359
396.9206742817861,-3.9199483,1.6361697,3.6373131,-3.567998,2.4799,3.4686048,-4.405053,-3.3990169,-4.171843,1.7099407,3.0709672,-6.6204667,10.765081,-2.796407
398.9177721690224,-2.7489562,1.4888799,3.2402658,-3.688418,2.6578991,3.4760993,-4.5737157,-4.368728,-4.3930483,1.9545693,2.8928053,-7.0867214,11.584074,-2.938009
399.2752958986302,-4.2374606,-4.127018,-4.0205865,-3.853277,2.9251802,-0.49155095,-5.170762,-4.7366996,0.94681984,4.144212,4.8752294,-7.4700384,-12.898341,-3.2294464
409.05158671653425,-2.4142745,2.8830822,-3.3304868,0.832538,1.8650205,3.2070506,-2.0911987,-3.5677917,-0.5442677,2.6322894,-0.6500028,-0.6168468,10.35516,2.0173936
413.246789811073,-4.9335427,-4.619647,-3.8640544,-4.304878,2.7879825,0.7993192,-5.3082757,-4.8043466,0.1672157,4.1828666,4.6809297,-8.281822,-8.428644,-3.613144
416.15636215171224,-4.24198,2.3507771,2.7212524,-0.032542184,2.6320922,4.0403404,-1.8462282,-1.9327077,-4.3849626,-2.5383108,-1.5105697,-5.3043375,13.620695,-2.2651944
421.94272151368267,-1.2330354,3.148005,-1.3204373,-2.431891,2.7930448,2.6515083,-3.0126007,-0.75011706,-0.88104266,1.9594636,3.332102,-2.8621278,6.8573494,-0.80822814
423.9395643825002,-1.0384427,2.807942,1.4255024,-1.2390249,2.586599,2.9911704,-3.7161407,-1.0809839,0.07589997,2.0554698,3.2690258,-0.66401196,12.544487,-0.46837008
425.0809919451843,-1.4586927,3.615916,2.9040787,-2.9684553,1.7409599,2.3159864,-0.72713894,-0.72548974,-3.5730593,-2.239827,-3.2053034,-2.2024102,11.00428,-1.9164975
425.9366505887358,-0.32241485,3.058406,0.77771586,-2.4853,2.8506882,2.884304,-4.5298967,-1.4989731,-0.22657292,2.1074834,3.4156795,-2.0747287,9.508337,-1.7589924
431.0332641709292,-4.1888638,2.2380774,0.34081733,-0.94031894,0.14133912,3.6379526,-0.44904724,-4.627127,-1.0359339,3.2102711,0.93594694,-3.62679,12.44679,-0.5461996
432.02560397087444,-0.69276047,2.9071736,-3.0682127,-2.0620103,3.1968699,2.769784,-4.742081,-1.344013,-3.4370348,1.5223619,3.3630114,-2.9778502,7.987136,-1.9426961
437.9553421313627,0.291853,2.1807292,-2.169522,-1.6725352,3.1871283,3.3412962,-5.3576293,-2.5885594,-0.6851195,1.7694244,3.786423,-4.8509226,6.0976133,-1.3880633
439.9524092951356,0.19682612,1.9253325,-4.0136,-1.5502812,3.2893033,2.9579442,-5.2097597,-3.4740465,-2.1280684,1.8780988,3.9980943,-3.9343204,0.9993938,-2.8826435
440.2657472665796,-4.7417717,-4.57789,-4.5900135,-3.989075,2.8631961,-0.14091724,-5.382231,-4.1218624,1.008942,4.0438,4.692996,-7.8457947,-10.299091,-3.5584116
451.9709186513586,0.14433965,1.3959534,-3.7779405,-3.2334535,3.4425676,3.35759,-3.8119018,-3.1251917,-3.9210193,1.905293,4.037438,-6.460608,-1.6788626,-2.4902356
457.90052695249165,-0.017869145,1.403353,-3.914124,-1.9875662,3.5794892,3.0858185,-5.043022,-2.842635,-4.1569204,1.928081,4.1006565,-5.6196237,-1.4276545,-2.8809786
459.8977515489512,-0.17199783,1.1815202,-3.7123628,-1.1486424,3.5335205,3.291373,-5.197608,-3.796131,-3.6698072,1.3843963,4.0510225,-6.7392755,0.83182025,-2.96386
462.0669641770816,-3.7775326,4.029087,-3.2182844,-3.695085,1.6558379,-2.5245543,-4.5145397,-3.4254007,-3.94755,-2.9189646,-2.5051308,-4.468199,-2.0723176,-1.485995
465.986391371257,-0.62102365,0.46001068,-4.3203044,-1.2929657,2.8575156,3.361882,-5.542737,-4.1409354,-0.42605788,2.9068072,4.0785556,-5.5931997,1.6568553,-2.925214
467.30165329986954,-4.498059,-4.226301,-4.171044,-3.9667656,3.1103551,-1.0936375,-4.9480495,-3.941195,-0.052422415,4.2051716,4.8217816,-7.4096336,-14.017641,-3.4547179
467.98362166700974,-0.52094734,-0.15474615,-3.9817123,-2.9977627,3.3572662,3.4210074,-5.349275,-4.336372,-2.0533185,2.8989062,4.285906,-7.024463,0.6150553,-2.7955918
471.91621148448985,0.026719654,-1.7111663,-4.072724,-2.8444011,3.3992126,3.5112777,-5.3380327,-4.580871,-2.695589,2.3689244,4.2872,-6.6226425,-4.208166,-3.0108843
473.91335764945956,0.112243086,-2.1360912,-4.258468,-0.9268483,3.4244437,3.3833895,-5.411736,-4.629351,-3.570018,2.5305116,4.35648,-7.017835,-6.6234846,-3.5127091
528.2732926516458,-0.36641338,-1.7009678,-3.8089724,-2.1585555,2.5695922,3.4557724,-5.8636656,-3.2648237,0.08821732,3.3548608,3.8188589,-6.2360754,9.844881,-3.5215871
529.2763089845431,-1.5662991,-4.1146717,-3.8009422,-3.665099,3.2524376,2.5723398,-4.935143,-4.656178,-3.831259,3.6005306,4.5993357,-7.447981,-5.6006584,-3.292436
556.2687527107976,-0.49830687,-4.568626,-4.115266,-3.381544,3.6736495,2.9166248,-5.4143615,-4.6083417,-4.6470103,3.0389173,4.4855094,-8.075464,-5.848835,-3.503314
557.4581092568693,0.4417591,-4.5723853,-4.119288,-4.1304607,3.9224231,1.0406902,-5.3059425,-5.107239,-4.5448823,2.5602837,4.552442,-8.205858,-11.6792965,-3.688844
583.4739266558681,-0.57907265,-4.214783,-4.035233,-3.934631,3.7222884,-1.4730965,-4.85864,-4.761456,0.26230252,3.4879806,4.810003,-6.7740793,-14.376083,-3.2559316
591.2693226296545,-0.42768124,-4.0992002,-4.2552924,-2.523159,3.3499453,2.632534,-5.071869,-4.4254313,-3.911256,3.407458,4.35856,-7.5200534,-5.098167,-3.132347
606.0749691379767,1.0396266,3.4231725,-3.9260476,-3.1605275,3.584616,-0.2495699,-5.3108244,-3.7231245,-4.1863494,-3.855729,-3.4394293,-1.4182009,-2.4747307,-2.5220714
609.5120455413432,-3.841814,-4.4246955,-4.011966,-4.2617097,2.9339998,0.00035867482,-5.0917244,-4.408281,0.31036347,4.1489286,4.92326,-8.359539,-13.16587,-3.1684773
611.1462666242135,-4.1542797,3.6744392,2.853846,-3.4030073,-0.9900654,-3.0884821,0.50919765,-2.32462,-3.49162,0.7852953,-4.0258746,-1.5864269,7.6450934,-2.0158463
611.5274919331004,-2.6279209,-4.149873,-3.9719923,-3.8982317,3.0378397,-1.3985802,-4.9971747,-3.933279,-0.50325555,4.133477,4.786381,-7.034936,-13.278078,-3.4044914
633.511752861228,-3.2304044,-4.516588,-4.44214,-4.1500297,2.9209423,-1.1424743,-5.0381856,-4.384979,1.0478292,4.1204515,4.801687,-7.4883194,-15.522272,-3.7606463
654.496269279783,-3.2570598,-3.4714315,-3.7700596,-3.9639945,3.8844378,2.675769,-4.8617826,-4.457526,-4.6115713,2.7912095,4.5556183,-7.769109,-5.670502,-3.4766686
656.51187934263,-3.3206258,-2.8700352,-3.9153187,-3.725425,3.9358761,2.095105,-4.970685,-4.638951,-4.114939,2.6672823,4.4428873,-7.280635,-7.7376184,-3.1824694
657.5118501948282,-3.9383729,-4.2920127,-3.9018447,-4.1623178,3.1149304,-1.2728709,-4.920621,-4.3789406,-2.0078921,4.0505157,4.857108,-7.685253,-13.4496155,-3.3498333
659.5264959269217,-4.1322107,-4.047389,-3.9145103,-3.7820268,2.6736245,-1.3898072,-4.842515,-3.8737829,0.79463935,4.25236,4.8426285,-7.0045433,-16.340366,-3.1331081
680.5129143532625,-0.9537022,-4.0401015,-4.252632,-3.7990954,3.7868152,2.2339547,-5.0505776,-4.8352056,-4.445262,2.9029536,4.6471534,-7.7205334,-8.661415,-3.6201715
682.528756123638,-1.8381687,-4.001055,-3.8913963,-4.0204844,3.9037235,2.0031319,-4.8151293,-4.481293,-3.0870945,2.6206975,4.568673,-7.600133,-8.363325,-3.4107752
771.5214283600535,0.96384597,-4.189672,-4.2043643,-3.8297715,3.9871755,2.0460367,-5.0680313,-4.1391206,-4.827604,-0.40260306,4.207041,-7.2337384,-7.3183393,-3.6771734
786.5324780449847,0.6403774,-3.9505296,-3.8891459,-1.9438609,4.167901,1.9895386,-4.9428687,-4.062949,-4.6506414,-1.0201012,4.488379,-6.5467587,-9.395199,-3.124153
788.5476587894711,-0.10668187,-4.3491445,-4.304745,-1.8500607,3.2397583,3.3480415,-5.3517146,-4.944686,-4.9356694,2.9334614,4.363498,-7.8287573,-2.5909915,-3.2722764
885.553757973446,0.16771258,-3.1998286,-4.348555,0.5064039,2.7369528,3.5205011,-5.7895527,-4.394911,-0.8306382,3.1657398,3.9158304,-4.946586,8.363606,-2.8514647
886.556970803666,0.22649707,-4.2432885,-4.3302956,-0.9492814,3.362103,3.1850462,-5.672663,-3.8819587,-4.3462057,2.7395608,4.3837132,-8.041524,-4.6583486,-3.4051192
887.563849728756,0.71976644,-4.2292256,-3.6095817,-3.5081136,4.149573,1.5298846,-4.821367,-4.8016295,-4.5704594,0.77279955,4.436307,-7.2025414,-9.278025,-3.171572
