,Shared topic 1,Shared topic 2,Shared topic 3,Shared topic 4,Shared topic 5,Shared topic 6,Shared topic 7,Shared topic 8,Shared topic 9,Shared topic 10,RNA private topic 1,RNA private topic 2,RNA private topic 3,RNA private topic 4,RNA private topic 5,RNA private topic 6,RNA private topic 7,RNA private topic 8,RNA private topic 9,RNA private topic 10
HES4,0.3472238,-0.3757575,-1.9728813,0.28241473,-1.7336676,0.7485887,0.45681167,1.0972086,-1.0194159,-0.46752185,0.4422806,-0.58061445,2.0645707,0.23255949,-2.2894878,-2.2416298,-0.5447784,-0.5480825,-3.1747553,-2.8428643
AGRN,0.28777924,-1.9784888,-0.93493974,0.36681777,0.52292955,0.47135925,-0.43377826,0.74674815,-0.4822392,-0.25753683,0.5604932,-2.864554,1.6760153,0.59348714,-2.6869905,-2.259791,-2.2019904,0.21911393,-0.9854056,0.1443066
TNFRSF4,-0.8949691,-3.2646732,0.50850666,0.60877436,-3.551268,-0.079059795,1.0219998,1.4952921,-1.2506989,0.025710015,-0.062447224,1.3989352,2.293971,-1.4518913,-3.2344446,-3.1925018,-3.1888578,-2.050953,-2.0798423,-2.780106
SDF4,0.5637118,-0.13662888,0.533563,-0.066032544,0.3115089,-0.11715776,0.29364318,0.6418125,-0.5053099,-0.9980603,0.4577866,0.7584438,0.8634862,-0.70840436,0.3068543,-0.98430073,-0.20845619,0.4500307,-1.0392692,-0.27579534
AURKAIP1,0.20207776,0.50667787,0.40332288,-0.04004064,0.08949173,0.08010263,0.46818635,0.058671545,-0.2642463,-0.39113405,-0.1003157,0.6073416,-0.12052929,0.325766,0.1494207,0.28841853,0.21493416,-0.14007969,-0.3712798,0.12464669
CCNL2,1.074669,-3.4218318,-3.216677,0.47370884,1.1247956,-2.2638085,-0.49870512,0.6489158,0.5135805,0.37455118,0.362578,-2.4130952,-0.27823102,1.2330531,-0.68541557,-1.6331974,-3.042877,0.64676744,1.1336479,-2.6117604
MRPL20,-0.13703693,0.50838184,-0.4066266,-0.19107424,0.2612009,0.56832105,-0.5342519,-0.5418238,-0.02590444,0.37098458,0.30113196,-1.9931158,0.37342283,-0.3108042,-0.80658036,0.72531474,0.6247991,0.17888351,0.23112859,-1.817795
VWA1,0.05576595,-1.29596,0.88469726,-0.16322531,-2.1090012,-0.22405627,1.1166706,1.1688808,-1.0362006,-0.71643686,0.7473108,1.664901,1.4178556,-0.2328491,-0.6094824,-1.8230726,-2.5469184,-0.7319771,-2.2642171,-0.7093422
SSU72,0.29860497,-1.3982421,0.3695753,-0.06306177,0.19300859,-0.13544652,-1.6410301,-0.032456852,0.01366172,0.1584828,0.36726195,-0.3336638,0.8666619,0.23743401,-2.381619,0.213142,-0.5232528,-0.30370983,0.16425754,-3.0579565
GNB1,0.31766766,0.4209155,0.460489,0.03005175,0.44661134,0.099749036,-0.62017524,0.04638793,-0.26860356,-0.20960426,0.47848663,-0.39675367,0.65077597,-0.17810851,-1.2303339,0.11436833,0.62408346,0.09358911,-0.45577657,-0.25242135
FAAP20,-0.21747267,-1.4209435,-1.7077782,0.3390351,0.3603815,0.4514598,-0.97759235,0.027184524,-0.23385094,0.7850338,0.3447371,-2.9606266,1.2727698,0.06694511,-3.0604277,0.7274424,-2.4064267,-0.41549793,0.629468,-2.089535
RER1,0.4138829,-0.5336063,-0.41661543,-0.051660057,0.55434346,0.3835409,-1.0009232,-0.68108416,0.04024639,0.30300817,-0.30957785,-3.1104438,0.7542624,0.126868,-0.43312484,0.3565029,-0.36765128,-0.15218905,0.3911247,0.021192336
TNFRSF14,0.37406892,0.21611407,0.03329238,0.0056350473,0.4120955,-0.45757142,0.0941389,0.3971451,-0.1658696,-0.22518612,0.4792813,-0.2428427,0.17616627,-0.42186493,0.4309275,-0.11828495,0.027948158,0.5482398,0.009149856,-1.514614
CAMTA1,-0.21523918,-0.31031528,-3.157627,-0.07815978,0.6270712,0.8125239,-3.6099439,-1.182684,0.3529242,0.6990299,-2.202505,-3.1051214,0.018012045,0.6669542,-0.70670176,0.5659799,0.26151067,-0.31682545,1.0305796,0.53629655
VAMP3,-0.03927142,-1.4761462,0.51452863,-0.54539275,-0.67150986,0.8510624,-0.67911506,-3.507969,0.3473062,0.9097954,-0.05882128,-2.6446939,1.0493426,0.98776037,-1.0006092,0.5408894,-0.59954745,-2.8201334,0.79191643,-2.0464268
PARK7,-0.0146008115,0.72828686,0.003750135,-0.12686646,0.45047447,0.1029854,0.4393466,-0.36678296,-0.256325,-0.16526078,0.28207582,0.3317808,-0.30157465,-0.2786821,0.16154277,0.2107368,0.18291752,0.3877429,-0.085429356,0.5343171
ERRFI1,-1.700969,-1.7251103,0.7076336,-0.16128258,-1.8674996,0.36610046,-2.2540536,0.57883507,0.28575224,1.1443583,0.7397502,-2.6290736,-1.1464484,-1.195533,-1.9036009,1.697589,-0.22587602,-1.4917401,0.40194228,0.49950752
RERE,1.0648689,-2.7926106,-3.035718,0.17451423,1.0434477,0.42948687,-3.346008,-1.4715352,0.4006258,0.6175001,-2.6213434,-2.7575583,0.4827754,0.6249748,-2.6401227,0.3396823,0.4058897,1.0557212,1.0795996,-2.658219
SLC2A5,0.7637416,0.6565946,-2.1047945,0.037445303,1.1282629,0.048502807,-2.1838787,-0.45871395,-0.057064764,-0.8837289,-0.90785277,-3.2143652,-2.2639537,0.7793142,-0.39627713,-2.002996,0.87693787,0.9229654,0.44145033,0.787222
CLSTN1,-0.10952802,0.22724949,-1.5488765,0.05725324,0.3314821,0.4550339,-0.0037437764,0.4950971,-0.08070447,-0.28256527,0.44126767,-0.15204783,1.4657717,-0.2224527,-0.8697274,-1.4049078,-0.051069744,-0.20090419,-0.18507789,-1.9067152
RBP7,-0.9509872,0.9354593,-1.7668185,-0.045803964,-0.58863753,0.58192027,-0.26118726,0.9407722,-1.3304652,0.2946427,1.1621393,-3.2376256,1.4904628,0.11525952,-0.16515039,-0.35430342,0.31659904,-1.8185663,-3.303762,-0.14589384
PLOD1,0.29187483,-0.7941419,0.41757417,0.16279027,0.3538923,-0.018561818,0.57263136,0.54813397,-1.1339415,-1.2103378,-0.012660104,0.7389224,1.3651123,0.67224014,-0.45820162,-1.5853127,-1.4785734,0.07584513,-2.170426,-1.8999811
DHRS3,0.7449835,-0.981819,-1.1829364,-0.05908751,0.93567,0.40852547,0.0024751818,-0.028072659,-0.20135571,-0.14216508,0.07105859,-2.1393359,0.3599219,0.82976186,-1.2184964,-0.92384934,0.41214293,0.57743275,0.40119255,-2.1030288
SZRD1,0.03266767,-1.5734743,0.4226817,-0.08394313,0.2500561,0.10221121,0.29350415,0.3560294,-0.2486406,0.111893736,0.59710854,-2.4631426,0.7620565,0.444902,-0.25384718,-0.22045463,-0.37353966,-0.82777125,0.121441446,-2.7005546
SDHB,0.57938594,-0.22143483,-2.6418672,-0.189252,1.0747001,0.72906697,-2.2433805,-0.44812912,0.32454678,0.45072293,-3.1463826,-2.8262415,-1.2629865,0.9890845,-2.9217548,0.32550108,-0.3560668,0.61724055,1.3556443,-1.99711
AKR7A2,-2.3631375,-3.0723627,-1.5886565,-0.11759659,1.1302263,0.9968597,-0.9303952,-2.0298686,0.35529143,0.78477097,0.122759104,-1.3192078,0.52379394,0.6016121,-0.72794074,-0.47731838,0.6362826,-1.8302493,1.2979467,-2.3026721
CAPZB,-0.29243448,0.30859712,0.25371045,-0.018233556,0.29814133,0.13055745,-1.5744323,-0.034397274,-0.051620357,0.22470753,0.69352216,-3.317401,0.16638851,0.04257039,-1.6386838,0.47170505,0.41516268,-0.16364925,-0.15589081,0.7089697
MICOS10,-0.8228877,1.1159022,-0.7381156,0.18750653,0.43506023,0.18652983,-2.0367398,-0.8799858,-0.051783625,0.023266513,0.09902851,-3.4735413,0.24129948,-0.40168238,0.0185449,0.23505673,0.42082697,0.13019657,-0.30958486,1.0338138
RNF186,-0.2473235,-1.4494076,-3.3281276,-0.037723612,0.9039837,1.3100992,-2.811254,-0.63725734,0.15437864,0.56228256,-3.1551456,-2.814327,1.0784165,0.87280464,0.052358452,-0.8901296,0.39415354,-1.0434562,1.0691203,-2.4071097
CAMK2N1,0.14717755,0.9012885,-0.7697414,0.1539151,0.77406085,0.30017784,-1.4151969,-0.5836122,-0.2945059,-0.65771985,-2.8386505,0.055246904,0.08184859,0.54688346,0.08196755,-0.14455512,0.7372985,0.5375145,-0.27973396,0.3726166
PINK1,0.111919,-0.68242896,0.06775158,0.2533428,0.42206037,0.26496157,-1.1213361,-1.6032346,0.18420263,-0.04186145,-1.492334,0.23216674,1.3033553,0.92801684,-0.308359,-2.0814905,-1.3696527,-0.96627384,-0.2297956,-2.7688189
DDOST,-0.25810182,-3.3345408,-3.1615605,0.32044512,0.57585716,0.5911726,0.019863425,-1.4611056,0.3087952,0.9698179,-1.3860247,-2.660525,1.264529,0.833157,-0.16843866,-0.8573964,-2.3293262,-0.2728562,1.263806,-2.847255
HP1BP3,0.13930632,-0.030928966,-0.7200227,0.25178456,0.56290483,0.29892004,-1.6663344,-1.7532523,-0.07369673,0.15981084,0.26917112,-2.8841357,0.5115101,0.25424948,-1.4650147,-0.19998403,0.99023205,0.19154538,-0.47998112,0.061653826
ECE1,0.7699456,-3.049872,1.1598741,0.19454755,-1.8946512,-1.2693092,1.1424972,1.4147583,-1.1049184,-1.6992574,0.91621387,0.72359884,2.2053633,-1.244066,-2.5643883,-2.7535148,-1.2011094,-2.445529,-2.7708323,-2.5373383
ALPL,1.2342857,-2.7403216,-2.9979842,-0.59811366,2.0296183,-0.70442814,-3.110632,-1.0469384,0.73751193,-1.4927033,-3.0231197,-2.446479,-2.6399376,1.9207364,-0.3121173,-2.6061056,-1.4138273,0.91626865,1.4759978,0.2179116
CDC42,0.34095675,1.0057435,0.26153776,-0.052308332,0.42369723,-0.46558523,-0.5978797,0.46386787,-0.74448246,-1.1042651,0.23119622,0.0026993826,0.55209875,-0.4606156,-0.7769087,-1.1010861,0.6583023,0.59059876,-0.97991675,0.634545
C1QA,-2.1065493,0.15737577,1.7141379,-2.8170772,-3.417876,-3.3973978,1.1701437,0.30540708,-0.14458041,-0.3104783,0.7481711,2.2561278,-2.4516888,-3.3485515,0.69627964,-0.19150506,-2.5457437,-3.4032133,-0.6094035,-0.13404411
C1QC,-2.2878404,-3.5950432,1.7234032,-2.8345168,-3.293999,-3.6746423,1.2705019,0.24180864,0.5646759,0.643237,1.447694,0.9965192,-0.56728446,-2.497595,0.97523004,0.4119902,-2.9924612,-1.6367118,0.55507237,-3.2140298
C1QB,-1.7651349,-0.09152405,1.6799923,-2.9021862,-3.6094623,-3.6860957,1.111901,-0.09965118,0.06325302,-0.09934841,0.72625595,2.3162522,-2.772601,-3.1517472,0.70877516,-0.20628156,-2.657715,-2.4741554,-0.21844146,-0.4824536
TCEA3,0.40085155,0.7129933,-0.5796355,0.14407702,0.3729695,0.37053925,-3.474917,-1.0886561,-0.071232066,0.19474545,-0.671816,-2.773695,-1.1917876,-0.42732015,0.10425814,0.6460154,0.86210436,0.7539761,-0.026906654,0.19632877
FUCA1,-1.9320824,-3.074104,1.1572721,-2.1419036,0.012637504,-0.44001555,0.43893355,-0.7148132,0.68186426,0.8951775,1.4148335,-0.18084377,-1.2538545,-0.24489687,-2.185899,1.3586984,-0.6030011,-0.48335296,0.2862899,-2.657956
CLIC4,-0.009002146,0.97241825,0.13779512,0.002812615,0.2990188,-0.18005644,0.0020561158,-0.42587957,-0.7086718,-0.6538959,0.06125944,-1.0712668,0.60676324,-0.18780443,-0.20145932,-1.2944765,0.45093194,0.48759544,-0.5260596,0.6270964
SYF2,0.04781051,0.5293236,-0.7357752,0.11993233,0.5008911,0.2450326,-0.512074,-0.8862095,-0.09955499,-0.08224545,-2.9016228,-2.7245505,0.2524395,-0.3420874,-1.5798137,0.5871793,0.67916304,0.48444316,0.1602658,0.54977846
TMEM50A,-0.23257704,-0.18136653,-3.2566907,-0.5034291,0.58993703,0.62169325,-2.1635187,0.48641378,0.19377755,0.26366806,-0.8026544,-3.103881,1.2267941,-0.22075504,0.33546063,-0.12621753,-0.1490027,-0.11674388,0.45432803,-0.61409813
SH3BGRL3,-0.23332116,0.12226934,1.2579491,-0.7480764,-0.15814373,-0.86427265,0.8796153,0.2310447,-0.3923369,-0.7455161,0.5771169,1.2032738,-0.05400074,-0.89351094,-0.1578586,0.069920614,-0.38312027,-0.59792095,-0.42485967,0.2593919
CD52,-3.9135303,-0.64254105,1.1304092,-3.1830902,-3.6321177,-3.4216201,1.7250149,0.49759942,0.6902019,1.2146666,1.1706704,0.9777781,-1.0507908,-3.0481522,0.9740461,1.636764,-2.8126175,-3.2435594,0.70724684,-2.5262897
HMGN2,-0.09518557,1.1860749,0.5700588,-0.0528596,0.12886636,-0.37733075,0.16061437,-0.07214698,-0.6012641,-0.6302996,0.1833067,0.84608763,-0.7746825,-0.97947043,-0.12629065,-0.2143777,0.18835548,0.20566282,-0.59054834,1.3535993
NUDC,0.025346762,-1.494648,-1.1498595,0.48915118,0.4941577,0.5329353,-1.5048602,-0.86657614,0.109201446,0.33369067,-1.9760797,-2.4834666,0.75949734,0.08161282,-0.79071337,0.69510263,0.5128153,0.5299344,-0.024763,-2.355597
WASF2,-1.0586963,0.16764762,0.3319992,0.013709394,-0.15419891,0.5379323,-0.12435603,-0.09395956,-0.05738761,0.39655915,-1.4189143,-2.8809083,1.4422457,-0.16962658,-0.20142166,0.5901169,-0.24621789,-0.88540727,-0.080645375,-0.8682996
ATP5IF1,0.17207833,1.1781796,0.18321191,-0.072224796,0.3395448,-0.11137972,-0.6564213,-0.47742814,-0.24533807,-0.4869764,0.11787908,-0.017014941,-0.8627707,-0.65864617,0.26824024,-0.024102623,0.31496924,0.33741167,-0.40081117,1.1649936
LAPTM5,-0.39736992,-3.637979,1.8471291,-3.034495,-3.3147247,-3.619738,1.0387183,-0.59956855,0.45922902,0.44496837,1.4293838,1.5437506,-1.3192647,-2.5805986,0.22722712,0.34335107,-2.4144735,-2.7580357,0.39747903,-1.3816946
SERINC2,0.500756,-1.9443946,-0.09526575,0.09876181,0.69737047,0.482438,-0.18421473,-0.6088945,-0.05890525,-0.20405433,-0.9745955,0.4202998,0.78241795,0.13236482,-0.5569573,0.55173683,0.42262074,0.56681323,-0.7982752,-0.87640214
TINAGL1,-0.6057556,-0.43685308,1.0127493,-0.46846613,-2.5936267,-1.1151096,1.5640873,0.9902789,-0.6146868,0.08072475,1.6154586,-0.06823749,1.864834,-0.52563447,-0.8482887,-1.2252461,-2.7897677,-2.254408,-2.3786876,-2.976652
PTP4A2,-0.971826,-1.893722,0.022905208,0.078450516,0.5070441,0.10326242,0.048571482,-0.15186882,-0.06772041,0.37665442,0.3416426,-2.9197793,0.5682595,-0.1521395,-0.58890086,0.66146326,0.43618023,-0.029364344,0.23590825,-0.7338214
KHDRBS1,0.5401207,0.69869244,-1.1113254,-0.05740203,0.7016332,0.012056966,-1.908232,0.3336655,-0.3058934,-0.023969442,0.32920727,-3.2020943,-0.07605552,0.21428898,-1.8659285,0.2666485,0.6480915,0.60856956,-0.28064182,0.6015209
EIF3I,0.75903237,0.21059251,-1.4532222,0.017946593,0.7487442,0.4733932,-0.8447351,-0.6915064,-0.29369557,0.10793909,-1.7129434,-1.8942734,0.471539,0.2197128,-0.11285349,0.12769432,0.8122147,0.68592185,0.18474805,-2.7071276
MARCKSL1,-0.14194056,0.42194408,-0.39303324,0.1614477,-1.3769181,0.3401999,-0.21095264,0.901831,-0.9189871,0.27953213,-0.3842877,-1.1887006,2.0101922,0.030110482,-1.9569787,-1.9979092,-1.6558766,-0.75133866,-0.29365584,-1.6402229
RBBP4,-0.11597554,-3.4102354,-3.1003969,0.36706236,1.0407854,0.91655654,-2.5666192,-1.8792344,0.48123944,0.5764377,0.20618908,-2.9004881,-0.06640119,1.236125,-0.39998177,-0.60565567,-0.49526736,-0.19955724,1.0248326,-0.98670655
AK2,0.1077291,0.41088146,0.5036858,-0.081627496,0.49426684,0.03760722,-0.012196941,-0.6244312,-0.09406324,-0.011012732,-0.2265961,-0.045963228,-0.837123,0.3501373,-0.5783404,0.3680773,0.5329124,-0.14984334,0.13598183,1.0397002
PHC2,0.21055514,-0.8440766,0.30908966,0.11695312,-0.9083698,0.1973621,0.12047213,0.4554774,-0.15054014,-0.040755812,0.71328276,-0.4981367,0.93398803,-0.6481663,-0.5415533,0.42542666,-0.62791777,0.32648548,-0.43635932,-2.514743
GJA4,-1.8652539,-0.27226096,0.5746676,-0.52808416,-3.8057919,0.065270305,1.070756,1.4245049,-0.7437812,0.5039622,1.9734261,-2.3633518,2.1390429,-2.4217076,-0.22966869,-2.050866,-3.005073,-3.2728157,-3.0433085,-3.0575144
TMEM35B,-1.3152771,-0.9463452,-2.8898056,-0.2973931,0.048084732,1.077174,-3.5304942,-1.0948874,0.63331795,1.0913529,-0.7842262,-2.46489,-0.86206686,0.5693029,-5.098171e-05,-0.25076947,0.04009615,-2.4367883,1.6266081,0.5162903
SFPQ,-0.045082714,-0.48055357,0.06208547,0.06655618,0.65735465,0.038030863,-2.6919308,-0.11139931,-0.024705365,0.028306372,0.45025632,-2.7374573,0.4888436,0.0640158,-2.4822288,0.14299056,0.75694585,0.4995524,-0.16488937,-1.916859
PSMB2,-0.5291356,0.27114034,0.028320776,-0.21430843,0.5236969,0.43066776,-0.60274863,-2.521346,0.32624593,0.69171435,0.028167102,-3.0395103,-0.119431116,0.4473931,-0.3567997,0.8155905,0.4515349,-2.3340197,0.7893337,-2.0022085
EVA1B,-0.8389532,-1.0833862,1.0905415,0.120253205,-3.18671,0.059914317,0.56761384,1.1417772,-0.9702397,-0.055543624,0.55187726,1.8206148,1.87013,-2.458553,-3.071398,-2.5836356,-2.1135197,-2.8165786,-1.7749013,-3.1125495
NDUFS5,0.15085709,1.3554437,0.16553351,-0.15885475,0.24323359,-0.33490303,0.098035745,-0.17546716,-0.4994482,-0.7035196,0.18230754,0.051099375,-1.1128334,-0.6026793,0.25420508,-0.18714856,0.15995502,0.37463138,-0.75997055,1.3981229
PABPC4,0.4342019,-0.12257013,-0.9522473,0.40752044,0.80705124,0.39621,-0.58571345,-1.3759344,-0.8083285,0.060754713,-0.32278553,-2.9303942,0.46823505,0.09411818,-2.9284682,0.20791999,0.79743886,0.8999985,-0.7831376,-0.13200496
HEYL,0.60367584,-0.68067884,0.36034214,-0.7452496,-2.687624,-0.4178412,-0.25583085,1.7335835,-1.3119371,-0.28278828,0.6822742,0.57960415,2.2876248,-1.0311716,-2.2056606,-2.6879134,-2.426105,0.28705183,-2.754579,-2.9833953
CAP1,0.065143,0.217787,0.6442581,0.022414818,0.26767543,-0.18409933,0.0204545,-0.18930851,-0.27703822,-0.17114545,0.7629189,-1.9479748,0.48206937,-0.86588085,-0.94344115,-0.18891133,0.4173204,0.50973606,-0.6365728,0.75124836
PPT1,-0.4744086,-0.35035828,-1.463778,0.5029843,0.09396546,-0.2515986,-0.5128682,-2.9298038,-0.0529559,0.9214719,0.67383534,-0.2714847,0.9615892,0.43731898,-1.2299829,-0.41432256,-0.506056,-0.6313332,0.5166619,-2.5341144
CITED4,-0.6065526,-2.8970308,-0.39051232,-0.61000305,-3.4343271,0.330368,-1.0370688,1.4099491,-0.213208,1.7428263,-1.8859224,-0.29619396,1.9625471,-2.157009,-2.901625,1.9014893,-2.2525034,-2.8577523,-0.20029105,-2.4554217
PPCS,-3.7323,-0.577565,-1.04796,0.09545249,1.0798283,0.5792879,-3.6211197,-3.0451176,0.32354906,0.90773594,-2.277895,-1.7680584,-0.7871012,0.7443023,-1.2124279,0.8488075,0.9909725,-0.43025342,1.171883,-0.69881946
YBX1,-0.38119623,1.2485892,0.8929736,-0.17664935,0.17808875,-0.12686878,-0.1625471,-0.6447526,-0.33268833,-0.6387992,0.5473733,-0.95277005,-0.4916834,-1.0751247,0.124009386,0.19574715,0.53628314,0.117130764,-0.88196546,1.306553
SLC2A1,-0.5486013,0.9046761,0.44373998,-0.0042869397,0.20048222,0.02666037,-1.2547644,-0.0018754476,-0.08782585,-0.22530939,0.040287986,0.78731513,-0.31142431,-0.6448355,0.061785545,0.38670897,0.33725867,0.12910546,-0.1977482,-0.47737816
HYI,-3.5615945,-2.82168,0.00972007,0.50456345,0.36138248,0.7313885,-0.59689176,-0.088308394,0.012660191,0.47874933,-2.56011,-2.474463,0.75965655,-0.5697092,-1.5104147,0.80725604,-0.75309914,0.32892334,0.6183137,0.15785114
PTPRF,-0.2698979,-1.417543,-2.4946156,0.03578652,-0.27204373,1.1805308,-3.375733,-0.048288204,0.8470548,0.67248976,0.14402929,-2.2355247,-0.9553565,1.149075,-0.16091166,0.5291052,-2.3933725,-1.5260105,0.9025517,-1.0178962
ATP6V0B,0.091510795,-0.72107404,0.9055333,-0.723557,0.11399607,0.22457317,0.57358384,0.17744163,-0.15661417,-0.2974802,0.68386936,0.7103987,0.46701464,-0.184654,0.3651308,-0.1679737,-0.0024183213,-0.064494416,-0.14023723,-1.723854
ERI3,0.15918832,-2.9862988,-1.3160334,-0.045989443,0.4875005,0.6068549,-0.4272216,-0.5923298,0.07033972,0.47926575,-1.4337492,0.20471321,0.69534343,0.44550973,-0.37587553,0.45209262,-0.057593115,-0.60928625,0.77848184,-2.808961
UROD,-0.8075119,-0.96330935,-2.5221589,0.74798745,-0.03006485,0.92784804,-1.0821716,-0.38706076,-0.18313715,0.88599813,-1.4672621,-2.1895905,1.7219038,0.41894546,-1.8927171,-1.189692,-1.9011647,0.34243956,1.0634236,-2.016939
PRDX1,0.29708457,1.0921334,0.57599187,-0.14451803,0.27089772,-0.36293718,-0.04019591,0.15339993,-0.3263262,-0.40399617,0.59220284,-0.66336966,-0.15215246,-0.5149562,0.080844425,-0.07965275,0.05467221,0.29176426,-0.31785795,1.1311678
AKR1A1,0.53156376,0.63349426,0.28250712,-0.04990466,0.78797543,-0.13856487,0.10541648,-0.34187946,-0.2687256,-0.97709656,-0.20733106,-1.9884881,-0.51780766,0.2499364,0.28381562,-0.6702109,0.2671113,0.7586563,-0.053746328,0.9704054
TSPAN1,0.5904364,0.7617823,-0.8071997,0.15321638,0.7234063,0.15175948,-0.9975329,-0.95071626,-0.17095816,-0.8440718,-3.1591666,0.9719901,-0.48621425,0.324995,0.39635152,-2.629919,0.40348166,0.9108213,-0.10539937,0.23546441
LRRC41,0.95217156,0.00073270296,-0.7267024,0.2859192,0.57480234,-0.008983968,-2.4029152,0.40602687,-0.31943193,-0.41450584,0.31087902,-0.3660989,0.78385836,0.40652797,-0.085435584,-0.18671378,-1.5935045,0.82841504,-0.62789303,-0.43951884
UQCRH,-0.3003436,0.98818123,-0.5700074,-0.23957096,0.5710422,-0.093426086,-0.31751117,0.20256586,-0.10584004,0.06151362,-0.040242556,-1.1658213,-0.7401666,0.07074179,0.13047083,0.34211218,0.4613906,0.056750596,0.32331774,0.8586175
CYP4A11,0.95551336,-1.784432,-2.2860332,-2.0686824,2.0217292,-0.3950065,-3.1108112,-1.5784926,0.05185237,-2.8775911,-1.9369329,-2.814734,-3.0955482,2.0337512,0.4750984,-3.187623,0.26411033,1.2584656,-0.2428926,-0.068142295
PDZK1IP1,0.20721655,1.2309389,0.8751155,-0.7035203,0.3386485,-1.2722461,0.04644651,0.11836417,-0.84252125,-2.610668,-0.25910184,1.6807983,-2.623132,-0.36465436,0.345692,-1.4520175,-0.34089002,0.3745599,-1.5814433,0.99256283
CMPK1,-0.1900396,0.72649306,-2.558204,0.24343,0.700528,0.1303534,-1.0348049,-0.89353,-0.45079184,0.012173506,-0.7264617,-2.974591,0.52028507,0.40205428,-0.45982006,0.4478377,0.16437283,0.29418445,-0.53743726,0.5339201
RNF11,-0.4800699,0.24613558,-1.4521428,-0.058924038,0.19838445,0.47814757,-2.7120347,-0.34696755,0.039854523,0.61926115,0.13242401,-2.8355975,0.97627765,0.060044836,-2.1875658,0.06521934,0.32799515,0.5877486,0.31766358,0.08316351
ECHDC2,0.83641726,-1.9423723,0.08354154,-2.4961517,0.7739107,0.70295775,-2.9420197,-1.2917771,0.5375214,0.38999537,-0.9484379,0.9145115,-0.4539711,0.51428026,0.6623285,-1.2751099,-0.28425282,-0.44325373,1.1451775,-2.684575
SCP2,0.432499,0.95364,-0.9744356,-0.0043517053,0.7606731,0.16556756,-0.96414983,-0.8988101,-0.26964363,-0.1384267,-0.5925097,-2.203827,0.24134198,0.23405737,-0.069678046,0.06834725,0.6597785,0.15754788,-0.029900532,0.802344
CZIB,0.34379065,-1.4450728,-0.3832285,0.2693122,-0.2851591,1.0358263,-2.2245347,-2.7872658,0.20939516,0.7325192,-2.9326603,-2.7028148,1.177559,1.0349485,-2.942538,0.528795,-1.9209093,-0.67137665,0.9744869,0.08175017
TMEM59,0.030519111,1.3247404,-0.27147448,-0.08182108,0.3257622,-0.14614005,-1.3984219,0.18387575,-0.27674896,-0.41009042,0.36633444,-0.99604404,-0.24477668,0.11115965,0.2369239,-0.33003885,0.30183527,0.3298476,-0.6537535,1.1262823
MRPL37,-1.6702733,-0.31978816,-1.6355608,0.039650556,-0.1860998,1.0674903,-1.5460501,-2.393695,0.15487902,1.0107822,-2.1660435,0.7166747,-1.0720891,0.9958308,-0.767722,0.40747684,-0.1743214,-2.9445944,1.2918937,-1.0289341
PLPP3,-0.42951882,0.68020165,-1.1780016,0.34950653,-0.40655175,0.37131152,-0.75102067,0.4426414,-0.266296,0.15266505,0.24237542,-2.7545238,1.5488822,-0.34672704,-2.7715995,-0.37951168,0.4796125,0.4982002,-1.5887029,-1.2359414
JUN,0.56161904,0.89529496,-0.39962712,-0.08155987,0.6457928,0.019053325,-0.52826446,-0.015704278,-0.26454127,-0.54219466,0.45257515,-3.1634963,-1.533847,-0.43137008,0.6261482,0.39561749,0.6479286,0.69003195,-0.79622704,0.528737
CYP2J2,0.42598882,1.6129094,-2.9003437,0.18135962,0.6268138,0.5898751,-3.852426,-1.2885871,-0.40642896,-1.6083778,-1.245976,-2.537463,0.00077607686,0.5341946,-0.72011876,-2.1137435,0.87843996,0.31843236,-0.17269154,1.1031272
NFIA,0.09175752,0.22378002,-2.5665607,0.6180006,1.0511807,0.41589904,-2.3548012,-0.68162334,-0.25445855,-0.18202184,-2.6252077,-2.9537969,-0.92649126,0.57305276,-1.3991581,-1.0533555,1.207131,0.8802499,0.14177868,1.3246759
PGM1,-3.4973907,-2.4135027,-2.251709,-1.4085674,1.11713,1.234124,-3.1467946,-2.516899,0.4978263,1.06035,-2.522602,-2.3428478,-0.08135679,-0.13899173,0.4695688,0.56367683,-0.18283637,-2.6349056,1.6653714,0.1434585
JAK1,-0.66101515,-0.008890976,-1.2823555,-0.21028054,0.64308256,0.49492845,-0.8413186,-0.37001923,0.346456,0.37189862,-0.13388643,-2.7900608,0.66581935,-0.49492675,-0.029224757,-0.48594147,0.8856804,0.0676915,0.5586553,-0.16698617
AK4,0.5388916,1.2293364,-2.2138858,-0.0040694596,1.048158,0.22903015,-1.6269443,-1.7518487,-0.41493645,-0.5857215,-3.1207526,-3.3434515,-2.1692655,0.54056853,-0.0069465083,-0.30655035,0.8929291,0.7886763,0.053716928,1.3782321
LEPROT,0.5959919,-0.067974895,-1.6552683,0.027049119,0.9999964,0.550817,-2.1459022,0.21929537,-0.24014121,-0.24348481,0.16597362,-3.0999367,0.89177954,0.49584118,0.07752646,-0.6118883,0.6338835,0.7389174,-0.44859073,-2.278866
SERBP1,-0.117133886,1.1905926,-0.9052679,-0.02545664,0.40771794,0.26604939,-0.8280157,0.10775382,-0.3850702,-0.2364756,0.3814378,-1.773809,-0.053416565,-0.291196,-0.32603738,0.15745586,1.0005845,0.27915376,-0.73653775,0.71769875
GADD45A,-3.1953063,0.3175579,-0.3864431,-0.1152245,0.017515933,0.81968606,-3.5253468,-1.1803458,0.3009708,0.96671474,-2.4213955,-1.493593,-0.18376172,-0.3568446,-1.1667398,0.95815647,0.5651573,-0.6715016,1.0951046,0.57339483
GNG12,0.016294772,-0.20694424,-1.1871872,-0.9113358,0.8706541,1.1023049,-0.30169335,-0.86178356,-0.26009348,0.16747843,-0.44160274,-0.3639067,-2.2262857,0.77064097,-1.0730051,-0.2714609,0.67624396,0.20970447,0.7939768,1.2010726
SRSF11,0.008344095,-0.2835821,-2.121744,-0.08347437,0.7658385,-0.11201922,-0.5444504,0.63438433,-0.084058896,0.41465342,0.20792402,0.84040076,0.5492323,0.8392103,0.045636788,-0.23324126,-2.1845949,0.28135687,0.19695859,-1.6222553
CRYZ,0.774476,0.12091263,-3.5202365,-0.14663456,1.106655,0.55544865,-1.8674326,-1.1601592,-0.01555009,-0.03017486,-3.230194,-3.2942524,-2.1666782,0.78764063,-0.11420191,-0.0683482,0.6816563,0.96790534,0.6354729,0.69285
ACADM,-0.32974917,-0.886088,-2.6772678,-1.6129217,0.7917343,0.9574913,-1.011072,-0.66060805,0.15839761,0.7567652,-2.462515,-2.3897924,-0.96480554,0.79735523,-1.8301628,0.4176229,0.89673805,-2.334857,1.3505125,0.21029569
RABGGTB,0.2817207,0.1302805,-2.4391596,0.008620082,0.6937887,0.5518713,-2.1384661,-2.9922569,0.052034084,0.51687205,-0.21773964,-2.7890263,-0.3966116,0.19438668,-0.18912092,0.084795214,0.4715804,-0.040022794,0.5897721,0.8337951
GIPC2,-0.59214014,-3.3921316,-2.8254313,0.3873922,1.7188712,0.7000315,-0.24784721,-3.176032,0.2271545,-0.52511233,-3.089979,1.2003763,-2.267077,1.5607419,-2.6356409,-2.1730752,0.026809605,0.73438627,1.3590018,-2.5664186
ADGRL4,-0.47729874,0.116305575,-0.04672991,0.39989904,-3.78654,0.8176516,-0.9156821,1.1815307,-0.966877,-0.078629725,-0.5381027,-1.9367458,2.3104827,-1.6951059,-3.0335107,-2.9815276,0.22509694,-2.2084293,-3.213756,0.47546607
GNG5,-1.0985631,0.87127066,-0.09448885,-0.047895472,0.45338583,0.3667914,-1.1402278,-0.48064965,0.0015206118,0.22937751,0.2660835,-2.4449081,-0.174313,0.22281347,-0.6111665,0.4898164,0.75924766,-1.4473674,0.24921134,0.19741225
DDAH1,0.6793594,0.68730026,-2.5418732,0.01803658,1.256351,0.39862406,-2.0074768,-0.1837924,-0.42198953,-0.47770938,-2.0945818,-3.013442,-1.7160085,0.85203856,-1.8009385,-1.3196445,1.1382533,0.829354,0.7445502,0.44014522
CCN1,0.30307987,-0.046337206,0.91743284,-0.54720944,0.690046,-0.02676675,-2.789276,0.7208174,-0.32576096,-0.36267924,1.0513908,-3.2472856,-2.1207306,0.46300372,0.7339723,0.68916106,0.35118824,-0.05135931,-0.98903584,-2.2566373
SH3GLB1,-0.36071447,0.73007923,-1.7676612,0.27473542,-1.0577161,0.80089873,-2.592193,-1.9569001,0.05242661,0.60822827,0.63829374,-2.9724596,0.43738976,0.39918706,-0.5879529,0.20182806,0.28764388,-2.9184546,0.35102254,0.07819701
SELENOF,-2.7532778,0.16218221,-1.2792276,-0.013673858,0.6406712,0.5271655,-2.2284975,-0.92549586,0.388147,0.81717664,0.6680293,-3.0510952,0.8969062,0.016822472,0.100729816,0.13490763,0.33989218,-1.2221901,0.638869,-1.8671335
GBP3,-1.5266668,-1.4370098,-3.2844474,-1.9850792,-0.17241237,0.19142248,-3.306588,-0.9873711,1.1416999,1.6195709,0.47870824,-2.5517192,-0.47801158,-1.7770382,-1.1344956,0.71765417,-2.480019,-2.98559,2.125269,-2.6550448
GBP1,-3.0047505,-2.2051284,-1.8641825,-3.201241,-3.252314,-3.1756084,-3.1074991,-0.52512467,1.5113033,2.011587,0.8083296,-2.3258262,-1.320534,-2.542795,-0.9380213,1.1295726,-0.8991389,-1.5364182,2.3146343,-2.8505924
TMED5,0.10719171,0.7697429,-3.404631,-0.11860121,0.6974045,0.668809,-3.1582801,-0.76279205,0.16180146,0.5289061,-0.9009466,-3.0318277,-0.02552472,0.85525596,-0.80467796,0.13726711,0.10319524,0.5380962,0.75964457,0.9176855
CNN3,0.3107065,1.0174699,-0.24860163,0.016148359,0.2640719,0.13299416,-1.1282638,-0.060762797,-0.20354931,-0.2753806,0.578818,-0.43742183,0.4516566,-0.97403455,0.007654048,-0.28202727,0.54274666,0.55612624,-0.7822101,0.82279915
SARS,-0.8628214,0.46639788,0.23571472,-0.020303247,0.107812256,0.20368974,0.15184613,-1.206058,-0.012776915,0.16097291,-1.7830169,0.41816577,0.7374634,-0.06387768,0.23620851,0.80879766,-0.39983293,-0.758678,-0.18835129,-2.8342302
AHCYL1,-0.05323135,0.26003706,-0.8424888,-0.03091884,0.06449837,0.2220442,-0.34684452,0.22989705,-0.0531775,0.30686653,-2.3179853,-1.3969623,0.21622337,0.029598376,0.47974062,0.64241785,0.5914525,0.22955999,0.12935185,-1.6643635
SLC16A4,0.7666402,0.92911786,-3.4240437,0.21797985,1.3413484,0.55301994,-3.668149,-1.9513973,-0.12661381,-0.5665178,-2.5768406,-3.1463652,-1.784646,0.8740226,-1.2798105,-1.3069311,1.1263192,1.2831614,0.76798624,-0.43717
LAMTOR5,0.13351104,0.91921824,-0.31128895,-0.08581417,0.5619716,0.12051842,-0.97103995,-0.38352436,-0.073954456,0.035426132,0.12605858,-3.4494925,-0.71670914,-0.301282,0.34501255,0.40555838,0.594941,0.5606706,-0.055268697,0.6630976
ATP5PB,-0.4269242,0.6162659,-2.9072618,-0.21361221,0.9220181,0.74369353,-3.5833082,-0.9732815,0.03664469,0.4860083,-1.3252606,-3.2102306,0.080084436,0.35087708,-0.31711876,0.7068917,0.8089373,0.14470924,0.43908167,0.32670215
RAP1A,-0.9568439,0.7749481,-1.1274722,-0.20413841,0.0084311245,0.653514,-0.71082276,-2.8353121,0.17757049,0.85503155,-0.09141727,-2.5937686,1.0553256,-1.2491796,-1.5123451,0.80470806,0.9080455,-1.2562954,0.55101895,-2.4083745
CAPZA1,0.76306677,-2.4355192,-0.0077690487,-0.2706454,0.67045844,0.017207691,-0.5305065,0.17221643,-0.059392978,0.39929664,0.2908366,-2.0261948,0.5118005,0.43910733,-0.36467582,-1.2218347,0.5768014,0.5017635,0.7223555,-2.3628736
RHOC,-0.26430786,-0.108506486,1.0796494,-0.4137324,-0.8380615,-0.03498946,0.90079576,0.41548562,-0.66655207,-0.92917854,0.43956655,1.8508065,0.5604901,-0.96515954,0.23213407,-1.4607843,-0.80256647,-0.4496828,-1.116728,-0.08476774
CSDE1,0.12575689,0.96568245,0.5340672,-0.0110223945,0.3962252,-0.39610493,-0.7426862,0.10378228,-0.5012911,-0.5909683,0.078780435,0.29633313,-0.43348342,-0.17648949,-0.862513,-0.01025285,0.46415845,0.53326815,-0.7947157,1.1094116
ATP1A1,0.45100284,0.7814279,-1.2067595,-0.016611366,0.6123382,0.02216109,-0.46768758,0.2687792,-0.19102655,-0.48149776,0.12445588,-3.2817523,0.18805853,0.17596877,0.20002998,-0.21998607,0.42699173,0.5048177,-0.70545447,0.95720875
HAO2,0.8497097,-2.9335585,-2.9793317,-2.2055738,2.2181995,0.41152892,-3.2011628,-2.0048459,0.40460068,-2.295878,-3.1077492,-1.8435664,-2.5834365,1.9299998,-1.0433706,-2.761953,0.3740093,1.3645358,1.5937622,-2.619886
PDZK1,0.6076459,0.81013536,-1.4098277,0.034799278,0.8061209,0.057716344,-3.8466642,0.12537582,-0.16207497,-0.26666224,-0.9290812,-1.5418147,-2.151477,0.25761706,-0.5321491,-0.10603277,0.61975825,0.8826758,0.2741001,0.90136933
RBM8A,-3.9041367,0.34470338,-1.5329537,0.2126496,0.19407813,0.7458348,-0.76187116,-1.2118477,-0.01376646,0.71741444,-0.8993699,-2.3655279,0.62271774,-0.35705185,0.023149332,0.68197757,0.7554467,-1.2089409,0.6773201,-0.42441398
APH1A,-0.8289056,-3.5763547,0.42415875,0.04316036,0.47011414,-0.23071347,-0.5008423,-0.106007084,0.24405295,0.70756584,-0.24895056,0.20406684,0.6937548,0.742233,-2.4038079,0.5416378,-1.3165601,-2.149002,0.86087245,-2.6358147
MRPS21,0.19647568,0.33771974,-0.18924525,-0.004090549,0.34772325,0.103746384,0.11712165,-0.8127566,-0.2916182,0.0077738822,-0.16635,-3.0210516,0.043841653,-0.31436834,-0.081704386,0.30506235,0.21370627,0.41497502,0.14353406,0.5495259
MCL1,-0.9956619,0.21385625,0.7952276,0.14269644,-0.38904312,-0.7652484,-0.9494567,0.27746993,0.21852073,0.3166989,1.1482502,-2.8873496,0.41758817,-1.1052303,0.5591813,0.70106524,-0.04335418,-0.69704574,-0.68797714,-2.7221828
ENSA,0.72683805,-3.1623905,-0.19149944,-0.08413205,0.44349122,0.4787393,-0.9055495,-0.21135108,0.045549553,0.2300056,-0.027822256,-0.77907026,0.73925066,0.5505049,-1.0378097,0.19035104,0.1460495,-0.287621,0.44059968,-0.9471491
CTSS,-3.7302167,-0.6397367,1.3038316,-2.8632448,-3.3170671,-3.678181,0.3475642,-0.45907173,1.1416969,1.2657654,1.1723669,0.54231924,-1.9791234,-2.9703028,0.9126724,1.3334931,-1.0607129,-1.4369148,0.8774155,0.5912727
CERS2,0.5102441,0.8222531,-1.3326645,0.092270084,0.64675874,-0.1291996,-0.97134465,-0.12496791,-0.29953453,-0.41214707,-0.64636636,-1.2277999,-0.14532804,0.012537337,0.123774275,0.015901996,0.5796948,0.7240142,-1.0291778,1.0809195
PSMD4,-0.029708274,-1.3384918,0.09099544,-0.46733868,0.57054865,0.8004783,0.44892666,-0.45635667,-0.22567435,0.41717678,-2.7002635,-2.2342691,1.000702,1.0218809,-2.1746,0.89544153,0.12385337,-2.0945292,0.26539785,-2.52843
PSMB4,0.26309282,0.9886482,-0.076393664,0.0033769363,0.5832353,-0.003173531,-0.71026504,-0.16849034,-0.087436534,-0.29654133,-0.045598287,-2.472496,0.06478006,0.11063893,0.43061563,0.027460782,0.54730105,0.7661622,-0.39859727,0.79656017
RORC,0.671299,-3.0694058,-2.5869799,0.35319462,1.1391207,0.7301513,-3.2578077,-1.7819202,0.4584909,0.5148567,-2.6464992,-0.8246772,-0.9699704,1.3436213,-2.8249595,-0.12421252,-1.7366056,0.62606,1.5075426,-2.603678
S100A10,0.041688055,1.2171631,0.9833327,-0.637153,-0.0020258354,-1.0178249,0.13815558,-0.08086894,-0.927614,-1.9973272,-0.41966295,1.7301822,-2.4776244,-1.6232371,0.083823346,-0.9603424,-0.41830114,0.2238447,-1.0529137,1.1382935
S100A11,-0.056173082,1.1582404,0.9082919,-0.5831287,-0.10043864,-1.0841817,0.49557832,0.04268573,-0.5925956,-1.301269,0.121911585,1.5839497,-1.8818886,-1.7271943,0.25821453,-0.50775594,-0.2754061,-0.025030086,-0.72771937,0.92761815
S100A9,-3.2210245,-2.8969853,2.6703432,-3.097129,-3.1059124,-2.8045824,1.3770374,-2.8843906,-0.11666748,-0.7327338,2.470142,0.25556332,0.19807413,-2.5258129,-2.2570744,0.50886637,-2.3750107,-2.779671,-2.7283227,-2.274306
S100A4,-4.0346923,-0.83701104,1.7123187,-2.0299416,-3.1541436,-3.134725,1.3078623,0.10468325,0.32711607,0.40010965,1.4264671,1.7362661,-0.09123903,-2.9298835,0.97088116,0.48597303,-2.3259656,-2.9470036,-0.42552084,-2.1153631
S100A16,-0.60824317,-0.32943028,0.13738242,-0.11099731,0.15801418,0.911328,0.7171104,-0.34322053,-0.454142,0.424974,-2.3870614,-1.157848,1.5105652,-0.04227819,-3.2244434,0.83654207,-0.4470801,-3.0982943,0.5376292,-1.6423062
S100A13,-0.1432615,0.95077133,0.5635731,-0.38272873,0.0366959,0.06185786,0.538918,0.005036091,-0.5458789,-0.35419232,0.28597966,1.4671977,-0.2193664,-1.1946807,0.037472557,0.27307647,0.19675538,-0.1597664,-0.46364337,0.2613764
ILF2,-3.158943,0.048408132,-0.10677997,-0.7760744,0.38144463,0.42088342,-3.2564735,0.20855087,0.15082322,0.76184493,-0.7652023,1.1048261,0.46134827,0.6186465,-1.9965283,0.62904763,0.049025122,-3.1523893,0.8375754,-0.9101901
SLC39A1,0.114717245,-0.25801456,-2.7110767,-0.04878153,0.6013363,0.5371966,-1.2410734,-0.6416352,0.14685524,0.3665813,-0.7421099,-2.4115412,0.68039554,0.66030866,-0.5141443,0.66152173,-0.076906495,0.13280073,-0.2802862,-0.027631225
JTB,-0.07921194,-0.34978583,-0.28151655,0.06474921,-0.05317475,0.5176348,-2.4753036,-0.33225933,0.038154803,0.4389625,0.1435743,-0.8687766,0.41786504,-0.25583887,-0.1902759,0.71671194,0.31169614,0.13440056,0.19338515,-2.6355958
RAB13,-0.05896444,-2.7142107,0.19014461,0.025359418,0.31912327,0.49480617,0.13142852,-0.33163863,-0.17983744,-0.009387488,0.13527387,-0.021050354,0.95629525,0.07454538,-0.10253237,0.22478753,-0.07472934,0.16238211,-0.44069004,-2.2365334
TPM3,-0.34497052,0.447168,0.69586927,-0.18828821,0.22206126,0.30852783,0.049423456,-0.14749555,-0.15177257,0.013234959,0.5285103,0.407994,0.1820805,-0.66126084,-1.9162334,0.34365657,0.85079956,-0.22262521,-0.27683556,0.27004886
C1orf43,0.3076026,0.39692366,-2.163271,-0.0009676492,0.551872,0.42898744,-1.0991657,-0.8699276,-0.07152531,0.20724262,-0.72846335,-0.6551538,-0.16813442,-0.08457584,-0.69512224,0.69217294,0.7746581,0.71739,-0.0806069,-2.0646799
ADAR,0.40963554,0.10634057,-2.846437,0.02778309,-0.021206088,0.07551002,-2.5860462,-0.49751467,0.20033386,0.55068874,0.012887879,-3.0118654,0.36642167,-0.151346,-0.022375612,-0.16477308,0.46616822,-0.09348876,0.83583784,-0.8811637
PMVK,0.027230993,-0.5364145,-3.2813249,0.2905319,0.55975866,0.538472,-0.3713053,-0.8345314,0.053558342,0.3965366,-1.8932515,-2.070323,0.84985316,0.5872109,-0.21669318,0.21911187,-0.8633426,-0.0702242,0.6781792,-2.0151947
PBXIP1,0.5259974,-2.9618952,-2.7901704,0.18059808,-0.80448526,0.05072111,-2.5480163,1.1967865,0.31069213,0.7414514,-0.13711013,-2.2869744,1.796343,0.9740935,-3.0138357,0.05005975,-2.9608612,0.2808735,0.039725136,-2.855286
SHC1,0.01876569,-3.2149785,0.67486924,-0.54359955,-1.6868291,0.52353257,-2.1175354,0.7756957,0.37643787,0.95809287,0.77595884,-2.1465795,1.9111844,0.32624772,-1.5145044,-1.5599855,-1.5104645,-2.6951122,0.57014626,-2.8595314
EFNA1,0.6398179,-1.5416871,-1.3195723,0.23416334,0.42858604,0.3598137,-1.4448619,0.74598676,-0.41841245,0.10876538,0.3948098,-2.9854515,1.4381254,0.75738853,-2.542872,-0.766061,-0.25527292,-0.38518462,-0.3167313,-1.6409405
DPM3,-0.28927186,-3.451386,0.24282263,-0.0009243081,0.4482707,0.058461614,0.5456864,0.5977763,-0.28501618,-0.0033654575,0.361332,1.1298598,0.94792646,-0.5318657,-2.4124837,-0.11336763,-0.09751023,0.08204274,-0.047492128,-1.816173
KRTCAP2,-0.10249646,1.1419042,0.249232,-0.09391158,0.42789558,-0.20360304,-0.07850635,0.03962007,-0.34101766,-0.63374,-0.14232801,1.0471344,-0.3005584,-0.37429196,-0.627455,-0.17952432,0.42247832,0.42162833,-0.40031567,0.663401
GBA,0.38198033,-3.2600725,-1.899579,0.23298685,1.1838684,-0.1563593,-3.3598077,0.11296592,0.4415,0.5410763,-1.4091427,-1.2937744,1.3736304,1.661869,-2.0796788,-1.0678604,-2.6886144,-1.4994197,0.47913513,-0.5804511
FDPS,-1.5626602,-0.9156753,0.48292828,0.29684868,-1.5799311,0.48790878,-0.05961381,0.07734784,0.032769937,0.23552638,0.6711327,-1.2917272,1.1700675,-0.2712532,0.1448422,0.060863562,-1.0791289,-1.1318554,-0.11123423,-0.4969368
RIT1,0.58330786,-2.8811257,-1.300314,-0.56660074,1.4741156,0.7241821,-1.5280765,-0.63606924,0.18034038,0.18358612,-0.98581153,-2.6005757,-2.1222448,1.5969445,-1.6694571,-1.4754649,0.55027974,-1.0896469,1.4167728,-2.4443011
SSR2,0.34041783,1.1618966,0.17666523,-0.19302405,0.30928022,-0.16904819,-0.47689247,0.20636098,-0.4186157,-0.6329072,-0.15463398,0.89055914,-0.39231113,-0.7215951,0.21914645,-0.14611843,0.28461704,0.44812047,-0.5576169,0.71663743
LAMTOR2,-0.48980436,0.43618447,-2.6111212,-0.09992845,0.8017313,0.2503214,0.5062711,-3.6315668,0.2928681,0.7189908,-1.0230936,-2.3953648,1.2069439,-0.2523953,-0.6280795,0.12173872,-2.6985605,0.5267148,1.0741571,-3.0428162
LMNA,0.50017226,0.08709997,0.9529589,-0.15450236,0.15590107,-0.7560656,0.72814983,0.4924064,-0.7753323,-1.9431064,0.7258003,1.2610329,0.22308858,-0.71341455,0.29189205,-1.0187796,-0.3674176,0.5544633,-1.8022033,0.12289151
PMF1,-3.4111564,-0.9670109,-1.8962508,0.20633818,0.39352813,0.8509073,-0.41372412,-3.100066,0.41320994,1.0270699,-2.7187316,-2.6135721,0.5006149,1.1716808,-2.4217854,0.60110456,-2.298127,-0.73314774,1.452134,-2.600407
CCT3,-1.5252118,-1.0229226,-0.8461653,0.13978024,0.3640686,0.525486,-1.2290138,-1.1033388,0.11596264,0.3247751,-1.0608582,-2.5175397,0.44982544,0.5035795,0.2546793,0.13317838,0.1953978,-0.057402678,0.18885186,-0.11405255
MRPL24,0.33817956,-0.37853813,-1.9673938,0.59581935,0.5818999,0.46753812,-1.077812,-2.5268207,0.016406013,0.45385584,-2.0662668,-0.40951467,0.895543,0.7013225,-0.2341822,0.12199028,-0.26675302,0.15000114,0.50198704,-2.237178
HDGF,0.37834716,-2.5472212,-0.032518897,0.037834484,0.612504,0.7471723,-0.86596483,-3.3703387,0.088006735,0.5206781,-0.027600305,-2.584938,-0.26767498,0.5746883,-3.248487,0.6847954,0.5608274,0.4315436,0.5863762,-1.5941304
IFI16,-1.0998806,-1.0409675,-1.002499,0.043835953,-2.3175635,0.22195095,-3.4164255,0.98756474,0.25220317,1.2396262,-0.060690004,-1.9825958,1.4476701,-0.36024043,-0.12488877,0.19631563,0.09159263,-2.480552,1.0875217,-2.0381594
DUSP23,-1.1129456,-3.3454294,0.1755919,0.060656216,0.123094,0.42166764,0.41015327,-0.26187086,0.10039017,0.776139,0.65953654,-1.6277635,0.69290143,-0.49235868,-2.4228725,1.3806336,-1.5187347,-1.4112381,0.30966398,-2.0551505
TAGLN2,-0.05863689,0.6218325,1.3033351,-0.3045752,-0.5120364,-0.9520024,0.67566085,0.3311912,-0.78357023,-1.4645103,0.30476606,1.9685572,0.07483356,-1.0612012,-0.0280253,-1.1419928,-0.7223289,-0.82053846,-1.4544075,0.47751376
PEA15,-0.15226534,-2.9595208,1.05331,0.024337621,-1.1308458,0.3865672,-0.32936728,0.6168427,-0.2765129,0.5010634,0.92726094,-1.3462121,1.6885988,-1.1225688,-3.1581979,-0.16512896,-0.12950355,-1.1140553,0.2808824,-2.46693
COPA,0.45428178,-0.2803989,-0.4830389,0.007879727,0.6931738,-0.048762906,-0.18055208,-0.8758889,-0.021421134,-0.068009704,-0.76705223,0.47307995,0.5691955,0.25236657,-2.7850094,0.045867313,0.6178709,0.15094776,0.12728773,-0.6606153
NCSTN,0.9711025,-3.0632434,-3.0673506,0.65394247,0.78533477,0.22099142,-2.1821797,0.023192776,0.29303932,0.03971766,-1.3065866,-2.718025,1.1387208,0.5846055,-0.4367716,-0.5655399,-1.0535214,1.0735203,0.47057384,-2.8033388
TSTD1,-0.104682274,0.057494424,-3.06346,-0.041725922,0.76043636,0.8564514,-2.2582464,-3.526755,0.4673294,0.7539849,-1.8109607,-3.0706718,-0.21525589,0.4588786,0.6032258,1.0744276,0.08199479,-0.48592615,0.83865976,-3.2701447
UFC1,-0.5743832,0.6266072,-0.21567431,-0.065626234,0.4471048,0.4869417,0.008843643,-2.217469,-0.05926289,0.34486356,-2.4909747,-3.087758,0.1847745,0.27060187,0.294214,0.79665554,0.95748454,-1.0742712,0.324297,-0.8025973
ADAMTS4,-1.143053,-2.6725974,0.57253015,-0.14786594,-3.0583434,0.47346926,-1.3449277,1.9026866,-1.9324926,0.3452522,1.7811165,-2.176514,2.2826617,0.15245408,-2.8640826,-1.7653452,-2.7771008,-2.917374,-2.7982721,-1.6345041
NDUFS2,0.079978935,-1.1382967,-2.6955585,0.1339171,1.1669511,0.59780663,-3.5555444,-3.423534,0.095486075,0.4851861,-2.1937497,-2.3799782,0.40761173,1.2382317,-2.2245939,0.44939598,0.78725964,0.27620474,0.24094154,-2.040377
FCER1G,-2.8471427,-3.1515427,1.3714479,-3.6446686,-3.2165265,-3.2465289,0.6656238,-3.031856,1.2182007,1.7246579,1.6461135,-2.5838022,-1.3420238,-2.9363263,0.47472954,1.433932,-2.4235828,-3.1135697,1.5146434,-2.8578897
SDHC,-1.6547377,0.12063374,-0.6476195,-0.51713145,0.8971709,0.63862354,-0.5000282,-1.3559511,0.41953745,0.32638818,-2.3056247,-1.222189,-0.44594997,1.0327986,-0.019595312,0.1750303,0.5415712,-1.0792298,0.8734075,-1.8671504
FCGR2A,-3.5096498,-3.241219,1.6473567,-3.5469732,-3.2495089,-3.5271394,-0.2765968,-0.46858972,1.1022224,1.904185,2.0819306,-2.3578322,-0.8045583,-2.795437,-2.527484,2.0169618,-2.9272976,-2.9132493,0.9600087,-2.433197
FCGR3A,-3.670061,-3.2625873,1.0679615,-3.0987008,-3.5077634,-3.4170117,-0.4383404,-2.680426,1.3625239,1.8548948,1.6842109,-0.707038,-0.9624394,-2.9056547,0.25529623,1.6712791,-2.6588433,-2.9642649,1.4584621,-2.753478
MGST3,-0.13744944,1.0776418,0.4363968,-0.17812243,0.25080398,-0.12235359,0.04202321,0.123789705,-0.42535758,-0.74384594,0.32363743,-1.2841679,-0.24746262,-0.21558669,0.37838492,-0.042110942,0.2587605,0.28614342,-0.5233979,0.9226858
TMCO1,0.67784154,0.31197459,-1.5012689,0.27860016,0.75147724,0.11590443,-2.7173872,-0.34180313,-0.1936452,0.03755676,-0.66003007,-0.2521008,0.38338602,0.65553135,-0.25892654,-0.48788518,0.16898668,0.00888576,0.18902853,0.79724544
CREG1,0.20129813,-0.02412648,0.8478951,-0.7129466,0.42156288,-0.014912328,-0.6252091,-1.0210577,-0.021760227,-0.062275082,0.5636534,-2.6942117,-0.75835466,-0.35993415,0.34412038,0.72257036,0.6782454,0.016118608,-0.49148473,-0.8978167
MPC2,-0.32251114,1.0252317,-0.8457209,-0.03206715,0.58341634,0.31157336,-2.6974566,-1.4060794,-0.0674625,0.13009202,-1.334681,-0.947484,-0.16430864,-0.120169066,0.055767,0.21266067,0.768625,0.41660014,0.32879406,0.92758805
ATP1B1,0.3150759,1.4367806,0.17213303,-0.2807583,0.23105197,-0.8660092,0.13484176,-0.012724466,-0.63670397,-1.3277574,0.02683781,0.84625864,-1.3940692,-0.6173567,0.25047976,-1.4169735,0.07117415,0.516707,-0.61034805,1.2797837
FMO1,0.06637581,0.06873793,-2.8099759,-0.817973,2.2536883,-0.17790432,-3.3244483,-2.8883657,0.15262915,-1.8643976,-3.24601,-2.1711407,-2.926449,1.9250787,-2.7952738,-2.9295492,-0.077181354,1.1064932,1.3398496,1.1389415
PRDX6,-0.011986144,0.61267895,0.7330411,-0.07647695,0.4276334,0.2390697,-0.4586882,-0.24498339,-0.14267711,-0.2647696,0.11119492,0.89720315,-0.121107236,-1.5173092,-2.130782,0.39144006,0.6141409,0.46852273,-0.054248452,0.5872892
GLUL,-1.5946163,-3.2745652,1.2466097,-0.51729697,-0.93455195,-0.7039055,0.42532757,-1.441455,0.7532921,0.945597,1.2889123,-2.5450056,-0.42972174,-0.7043348,-0.2633282,1.3951148,-1.1572084,-1.5428686,0.4166264,-0.8134182
LAMC1,-0.09598214,0.5893605,-3.13931,0.20076784,-1.6057944,0.7776371,-2.5119708,1.115949,-0.1971512,0.3048923,0.6834804,-3.0299995,1.9120508,-0.10967821,-1.4788395,-2.7824903,0.17187205,-0.23922184,-1.8392582,-2.3378465
ARPC5,0.06501287,0.67915523,0.6797514,-0.09445363,0.09693969,0.1022498,0.1757173,0.010268676,-0.31245807,0.14903755,0.75565547,-1.2662642,1.1950834,-0.36941454,-0.15310955,0.024558341,0.35887566,-0.008469484,-0.3373173,-2.5425024
IVNS1ABP,0.5548142,1.3040777,-1.0092657,-0.15035032,0.328298,-0.22447732,-1.1219404,0.46330407,-0.5293248,-0.42310196,0.52487063,-3.2971625,0.39592656,-0.60150844,-0.0848512,-0.3465817,0.49801704,0.5916648,-0.7683538,0.63445234
RGS1,-3.0970762,-0.043768764,1.2875211,-3.384001,-3.3970919,-3.631924,-3.126784,-1.049286,1.1973222,1.9637649,1.4313005,-2.3416026,-1.1484522,-2.7006264,0.61893207,1.8917232,-2.6046674,-3.0138435,1.2002472,-2.430519
TMEM9,0.57046777,-0.3267036,-2.2289991,0.08022269,0.7430959,0.23088886,-1.2044157,0.47037882,-0.51375306,-0.12004446,0.0061835223,-2.9541616,0.29099655,0.49911636,0.09391163,0.33471382,-0.4889145,0.67503923,-0.8490833,0.29391727
PHLDA3,-1.1670201,-3.2837636,-1.0218505,0.46704906,-0.22509474,0.3795078,1.1934549,-0.06101973,0.020655964,0.3330159,-1.0532079,-0.50825226,1.4429042,-1.8223667,0.3101737,0.47156936,-1.8523617,-0.0680277,-0.04328075,-2.9997852
CSRP1,-0.36735535,-0.70146,1.5753088,-0.8631361,-3.3588986,-0.76244473,1.0313544,0.6757353,-0.49977896,-0.0863288,0.55178034,2.1426325,1.3397808,-2.8862426,-2.0644233,-1.3342744,-2.7960176,-2.9605865,-1.2569038,0.26809824
ADIPOR1,0.820304,-0.121855825,-2.9433086,0.20323281,0.54315823,0.33372876,-3.599678,-1.4918396,0.17162085,0.55116135,-0.1760913,-2.970159,0.5070831,1.3487076,-2.1664865,0.16194816,-0.25209454,-0.099675685,0.42042464,-1.7097096
SNRPE,-0.29719993,0.6412644,-1.0717899,-0.7736614,0.42939717,0.6292645,-0.8884199,-0.7009262,0.113783665,0.47304574,0.14206976,-3.1874123,-0.52388513,-1.0825454,-0.86065066,0.86714923,0.598624,0.18120135,0.5681124,-0.70619553
CDK18,0.8288036,-0.9062965,-0.42263123,0.19806401,0.8094901,0.07027748,-1.3668511,0.16431,-0.21400645,-0.1951839,-0.6256547,-0.3556653,0.4655075,0.4760631,-1.9283118,0.22805701,0.24263933,0.99399143,-0.30601844,-1.9021016
NUCKS1,0.22962756,0.30916658,-0.07803947,0.17858252,0.581687,0.0046959687,-0.751578,0.296457,-0.57188153,-0.71302086,0.04428249,-1.3428959,0.47556832,-0.2525893,-0.40874276,0.0424684,0.713578,0.5244275,-0.82154155,-0.30240032
MAPKAPK2,0.35617727,-0.49401733,-0.6376406,0.05154706,0.3628613,0.106090136,-0.3974565,0.7356604,-0.24164149,-0.031510267,-0.39782226,-2.369581,1.1214474,0.5331043,-2.3117778,-0.066382185,-0.17378137,0.29433638,0.03649798,-0.22101335
CD46,0.2701323,0.7171703,-2.1296978,-0.10887105,0.25488564,0.343122,-1.7415195,0.21419643,-0.08413525,0.40310678,0.6329862,-3.2590122,0.9896847,-0.37981096,-2.0264013,-0.10576365,0.15281034,0.6018207,-0.1436261,0.8288439
CD34,-0.40375182,1.0633557,-0.102288805,-0.38453338,-3.8546736,0.3460723,0.67586243,1.1383175,-1.4472888,0.18525617,1.4658761,-1.5323827,1.9227072,-0.55746686,-2.3780382,-1.574826,-0.08092228,-1.5136151,-3.2970943,-0.8248452
NENF,0.048009913,0.7779402,0.9068685,-0.24797423,0.1419215,-0.38108587,0.7055041,-0.22064207,-0.9131758,-1.3918818,0.026916202,1.6860149,-1.1875823,-0.17839226,0.055402484,-0.23232758,-0.2321942,-0.22037525,-1.4182996,0.6549861
ATF3,-3.3527453,-3.0082302,1.9702812,-3.179363,-3.2096665,-3.1367137,-0.054563742,0.14630137,1.0253268,1.1058809,2.0062797,-2.54378,-2.4417892,-2.4888427,1.2462609,1.9661456,-2.9829376,-3.126583,-1.7355996,-0.43851775
MARC2,0.2293404,-2.7021413,-2.9016054,-1.6758735,1.7168072,0.7557818,-3.2290099,-3.4505255,0.8553648,0.73394465,-2.8660374,-2.3028915,-2.0072315,1.5941118,-2.2894926,-1.0736045,-1.7646495,-1.0356706,2.0168266,1.1117346
AIDA,-0.27510905,-1.023108,-0.14521964,0.25092632,0.1731068,0.54022515,-2.7208831,-0.4735434,-0.09562181,0.16512725,0.10447249,-0.012679711,0.30703488,-0.53158396,-2.0286796,-0.071688026,0.24912402,-0.47299126,0.54265255,-0.0012421411
CAPN2,0.45597,-3.4109898,-2.766195,0.105270155,0.5672171,0.661409,-2.1947594,0.6184165,-0.02702436,0.36426693,0.2608018,-3.0162659,0.9968324,0.38740438,-2.333969,0.39342,0.5871028,0.30876756,0.17140631,-2.0056806
DEGS1,-0.34404182,-0.12843348,-0.6237059,-0.6206852,0.5945964,0.26321626,-2.342321,0.19202156,0.20372252,0.4606615,0.3173799,-2.5813763,-0.17237973,0.14326511,0.7082443,0.65138257,0.22706535,-0.25043124,0.14247608,-0.513503
CNIH4,-1.5153577,-0.23788773,-0.6869668,0.15800433,0.823876,0.80804807,-2.619271,-3.040929,0.3175921,0.54758906,-2.961234,-2.8082588,0.6097807,0.41335636,-1.4972053,0.8054381,0.11950708,-0.38166332,0.74760604,-0.63130915
SRP9,-0.39135334,0.7292298,-0.21975574,0.0949571,0.50453275,0.18197508,-3.4720633,-2.2286994,-0.014357318,0.01938814,-0.36297935,-0.3817926,0.40440312,-0.61423784,-0.5080266,-0.02170751,0.6723631,0.15153515,0.075982526,0.059218958
H3F3A,0.0819479,1.3407915,0.79699427,-0.24582872,0.16582921,-0.6579557,-0.47768316,0.015626699,-0.5413427,-1.1851816,0.27789542,0.8899565,-0.579967,-0.6842967,0.32185084,-0.2820852,0.0072038965,0.36942825,-1.00238,0.8940859
COQ8A,0.95716923,-2.9575474,-1.873927,0.91367096,1.0733006,-0.13279574,-3.3486974,-0.9333497,0.22331144,0.6389785,-2.7578385,-1.53407,1.4295827,0.94060004,-2.1726844,-1.6508204,-2.0151908,0.7410471,1.1831737,-2.67805
ARF1,0.21821389,1.0615742,0.3342582,-0.07331559,0.3846422,-0.33575368,-0.26732597,0.2270197,-0.23823749,-0.63033164,0.21770746,-0.40018433,0.21044141,-1.2478157,-0.2873552,-0.21229063,0.04919375,0.5998413,-0.41026735,0.9473131
MRPL55,0.30484226,-0.59716254,-2.2774613,0.052680284,0.288665,0.24131042,-0.7387959,0.61699957,-0.16764049,0.33328637,-1.2681626,-0.5107148,1.0274603,-0.13074368,-1.3953472,0.24895489,0.032413743,0.50714064,0.464732,-2.8676448
GUK1,0.033530507,0.6227445,0.9981682,-0.48715016,-0.08954646,-0.77006245,0.44627413,0.12632446,-0.6073454,-1.0077206,0.3437737,1.7296611,-0.8836225,-1.0983843,-0.03217413,-0.24431095,-0.2231918,-0.11416866,-0.86824125,0.3702895
RNF187,-1.2381783,0.31698012,-0.034710806,0.029188648,-0.5380075,0.35356915,-0.04723498,-0.033197857,-0.14309278,0.22318938,-1.2123,-0.87410116,0.7733447,0.16594474,-0.009810462,0.42860094,0.29094234,-1.0566205,0.1267905,-0.31625673
EGLN1,-0.6560741,0.05953667,-2.1681159,0.21529587,0.10359006,1.1714306,-3.2813427,-2.5776231,0.2361971,0.8761136,-0.16409308,-2.20168,0.5570583,0.26920334,-2.0119581,0.26437104,0.6125458,-1.9718853,1.2055124,-0.7533154
IRF2BP2,0.43091467,0.114292495,-2.7142146,0.044779554,0.57810473,0.27949357,-0.6002098,0.3407603,-0.24896218,-0.01544606,0.06250041,-2.7259598,0.67354286,-0.45082837,-0.14706622,-0.20468192,0.517621,0.40812945,-0.097411595,-0.3344425
TOMM20,0.3496066,1.0919363,0.052517597,-0.010875013,0.40349934,0.0261651,-1.8646666,-0.14182754,-0.5686078,-0.5505329,-0.061285082,-0.8021808,0.1886669,-0.9287767,0.0571946,0.31248587,0.6758892,0.54433095,-1.1055807,0.78750676
NID1,0.34209576,0.29569417,-0.23645987,0.4027177,-0.58613616,0.46554688,-1.9147654,1.1120896,-1.1010913,-0.23078142,0.1839323,-2.6517067,2.1269205,-0.014301163,-3.1921203,-3.0432663,-0.034862332,-0.5229928,-2.7136924,-0.8521868
COX20,-0.31416917,-0.048498653,-2.7939444,0.13832471,0.9309011,0.7544806,-2.3337588,-1.3188953,0.053734202,0.34160513,-1.7049782,-3.0011346,-1.0385967,0.5664695,-1.4111497,0.97235733,0.5719332,-0.07428493,0.15816255,1.0110238
HNRNPU,0.43222857,0.87557435,0.37538737,-0.039325036,0.3589818,-0.41605064,-1.3050009,0.36663654,-0.42074206,-0.88495845,0.50542027,-1.3871729,0.06268183,0.11757336,0.25562045,-0.3593794,0.3335376,0.45522967,-0.76655394,0.12075203
SH3YL1,-0.09681745,0.0245612,-3.3725848,-0.050305784,1.3396353,0.44751847,-1.0846044,-0.52291876,0.044132855,0.19643164,-3.503108,-3.1201725,-2.11873,0.96207654,-0.17435755,0.19085881,0.6372375,-0.04141393,0.94445187,0.7436944
ACP1,-0.23237988,-3.3415887,-1.256633,-1.8036463,0.886714,1.070614,-3.5957797,-0.39287758,0.18451788,0.941669,-1.870493,-1.8401042,0.66390765,-0.53084475,-2.3545692,1.0803151,0.61799407,-1.6243391,1.1732463,-2.6522336
ADI1,-1.1354067,-1.5803487,-2.1776521,-0.5726274,0.7900002,0.57247454,-1.1398289,0.1403138,0.5137105,0.6236585,-2.075381,-2.9197235,0.54097617,0.55525607,-0.8601412,0.5724068,-0.2475955,-1.3550978,1.1420964,0.34571683
ID2,-0.443559,0.17996952,-0.021880304,-0.058227073,0.5392933,0.5449298,-1.3873891,-1.702585,-0.011389592,0.1968887,0.13831137,-1.9225568,0.6925941,0.80119693,-0.48695204,0.059418824,0.71064067,0.15012233,-0.23644519,-0.7081182
YWHAQ,-0.34205016,0.69578135,-0.28820854,-0.016933281,-0.000991559,0.39900765,-1.8565991,0.27574232,0.021466427,0.07120689,0.60254085,-3.3474088,0.4845177,-0.33305988,-0.6595148,0.30624905,0.7266039,-1.3198549,-0.72973955,0.9141688
CYS1,0.15687558,-2.7373703,-2.6817663,0.40954578,1.4068475,0.73043895,-2.0389664,-1.465639,0.4015858,0.09785252,-3.2745967,-2.870683,-1.7709386,1.2202224,-1.307421,-0.88225275,-0.6558063,0.16356196,1.4276677,0.6301828
HPCAL1,0.24869394,0.62069494,-0.3128339,0.05093227,0.28020677,0.34852448,-1.4644711,0.16362678,-0.31873593,-0.27030107,-0.027540667,-0.21570234,0.44861475,0.13645254,-0.9410784,0.16422908,0.6570954,0.34551913,-0.75447696,-0.3259686
PDIA6,0.21461165,0.79487276,-0.5394388,-0.0366945,0.38859257,0.14326903,-2.033992,0.1531091,-0.17412232,0.05001636,0.5712614,-0.8258124,0.65596676,0.09488967,0.13384226,-0.47231796,0.20975265,0.36211413,-0.110039,-0.5986625
LAPTM4A,0.12832588,1.0406821,-0.5908398,-0.047206245,0.47535938,0.03332742,-1.5637383,0.12768187,-0.23727322,-0.23789969,0.47416344,-1.0448847,-0.30879432,-0.34470248,-0.06800957,-0.1436717,0.50790274,0.3847021,-0.35218424,1.0805893
RHOB,0.46603808,1.1159405,-0.12784836,-0.23426189,0.4834531,-0.13009329,-0.62524575,0.53700274,-0.6824615,-0.89220387,0.64345324,-2.368843,-0.104098834,-0.12135408,0.24708757,-0.037537698,0.47417504,0.468208,-1.2221491,0.8014096
SF3B6,-0.11240842,0.11365421,-0.76828337,-0.008028603,0.5990135,0.1660843,-0.4640607,0.09679992,-0.20639962,0.03297241,-0.076491654,-0.025390249,0.112545446,0.37636504,-2.8918214,0.37051383,0.14298894,-0.0042338693,0.119996704,-0.37493333
HADHA,0.28447363,0.45481494,0.26831228,0.06700688,0.5454323,-0.048359852,-0.13968034,-0.45617843,-0.38834405,-0.5863806,0.3334314,0.54034734,0.17328809,0.07970093,-0.58932,-0.28263423,0.38072178,0.43612343,-1.1543913,0.54032886
HADHB,0.49954572,0.5531196,-2.1646538,-0.03789399,0.83727133,0.2313907,-0.41543785,-0.5373982,-0.08479564,-0.026994498,-0.9220826,-2.7016294,-0.16227534,0.4658902,-0.055457912,0.05076675,0.560888,0.5546883,0.4011758,0.7933312
OST4,-0.10259941,1.115748,0.8099151,-0.297996,0.1561997,-0.33981007,0.2769349,-0.17614701,-0.42726845,-0.95839906,0.28572622,0.5184096,-0.5906881,-0.662973,0.59210306,-0.35609555,-0.138885,0.054500613,-0.6688267,1.1924572
KHK,0.07407455,0.42708343,-0.58207333,-0.19978942,0.5881053,0.1027354,0.18084572,-0.12545489,-0.11538132,-0.22351551,-0.3600388,0.8173147,-0.6976206,-0.07030341,0.47896215,-0.72580206,0.5697899,0.40062508,0.1945883,0.6308982
ATRAID,0.042363863,0.47904652,-0.39582354,-0.07290495,0.53495806,0.49158362,-2.4774876,-0.07176864,-0.01588312,0.034821358,-0.034853958,-2.4339015,0.3850717,-0.23041001,0.43634936,0.12379188,0.7479523,-0.21687199,0.015660824,-1.9521098
SNX17,-2.9095724,-2.7064593,0.6948245,-0.9873262,-3.364369,0.9028558,0.8308202,-0.60906523,0.44789526,0.96474457,0.42094523,-1.8769326,1.2915417,-2.5036788,0.7567171,0.3266827,-1.2521075,-2.5609844,0.9939027,-2.6976583
MRPL33,-2.1140578,-0.21118131,-1.0784956,-0.94079167,-1.4824752,1.2664654,-0.6783862,-3.4118884,0.67179674,1.1513398,-0.6742212,-2.9521773,0.65295655,-0.84917915,-2.5114133,1.2807791,1.0004823,-3.2125266,1.2262496,0.17064738
FOSL2,-0.74940807,-0.10376865,-0.21991034,0.51191926,0.354863,-0.93989223,-0.681492,0.5788555,-0.27867123,0.43241826,0.6259349,0.6027074,0.17841381,1.0601876,0.28435394,0.36981663,-1.6427674,-0.325516,-1.1834849,-2.907969
PPP1CB,0.5114093,0.92345166,-0.58842725,0.023406815,0.29649383,0.109576665,-0.3118902,-0.0549439,-0.45229796,-0.4533087,-0.019915119,-1.9226685,0.42524356,-0.53531736,-0.1281357,-0.21413279,0.4069047,0.3549803,-0.43082714,0.68696344
YPEL5,-2.0828013,-0.19672346,-1.4237691,0.31114212,0.6370751,0.7064264,-3.2262998,-2.386455,0.4263741,0.6884291,-2.7006264,-2.6239128,0.8167268,-0.17540632,0.098480046,0.23997405,0.6861427,-0.5474925,1.1902944,-2.2750804
LBH,0.5026727,-2.4827504,-0.24388655,0.081677,-0.24340287,0.44093665,-0.08624632,0.7921821,-0.2422851,0.0760338,0.5997513,-2.8163192,1.6836345,0.83822984,-3.1784687,-2.8129327,0.41043997,-1.3528609,-0.9737273,-1.1888431
GALNT14,0.5276339,0.090328045,-0.011825171,0.3805953,0.74343944,-0.007782213,-3.7915654,0.006004138,-0.15769927,-0.6662356,-0.7638339,0.30322278,0.33068714,0.6074038,-1.033803,0.13201348,0.06770071,0.98464507,-0.5945189,-0.7868506
DPY30,-0.43237087,-0.15504643,-3.3436542,0.1768421,0.6949397,0.9924194,-3.276143,-3.7141192,0.5145482,0.8676725,-2.6412385,-2.76916,0.9410055,0.010730772,-0.4043412,0.18050583,0.020774692,0.23775455,1.3729937,-2.7626479
LINC01320,0.6604977,0.31851393,0.11807146,-0.00044522982,0.67818147,-0.15269844,-3.2238142,-0.1876092,-0.038618978,-0.05556362,0.45458856,-0.99262834,-1.748252,0.017791914,0.07680955,-0.34398812,0.8479986,0.29382172,0.18762726,0.04244359
CRIM1,-0.054507084,0.6411248,-0.8650377,0.15311581,-0.20885475,0.26547614,-0.94263905,0.80997247,-0.63811576,0.044780605,0.4924627,-1.4118674,1.2506412,-0.23968747,-1.0018234,-0.4487918,0.5183526,-0.26884663,-1.6243367,0.104834154
COX7A2L,0.18217148,-1.2871324,-0.20553079,-0.40527004,0.83234006,0.56592584,-0.28061038,-1.2930602,-0.051213864,0.32655093,-0.6523846,-1.1779306,-0.7125037,0.81613284,-0.28663307,0.47681123,0.6061622,0.33976215,0.40385568,-1.757132
ZFP36L2,0.21380837,-1.127851,0.022173204,-0.05785341,0.3924608,0.033368234,-0.7439247,0.38839176,-0.0055496898,0.052225593,0.36888522,-3.1225908,1.0316942,-0.32220694,-1.345678,0.056534994,0.18801074,0.07289495,0.16945346,-3.11593
LRPPRC,-0.9562468,0.8553059,-3.2090912,0.2697985,0.7282646,0.6359576,-3.5302382,-0.6936192,0.07535553,0.13739592,-2.0913286,-2.9181273,0.21133605,0.9391233,-0.4144475,0.1429842,0.9688856,-0.24761756,0.3054833,0.50014806
MCFD2,-0.9722524,-2.0925372,-2.961063,0.12976083,0.35179305,0.7594955,-1.5142492,-0.40033233,0.6974422,0.88501537,-1.1985648,-2.6822822,0.9678277,-1.514283,-2.655965,0.26871324,0.8521261,-1.2021092,1.4291346,-0.5516286
CALM2,0.06780982,0.9684543,0.037589073,-0.03753002,0.20669664,-0.23068759,0.33927158,0.02791642,-0.32954806,-0.16159081,0.4997543,-2.8734171,0.2092403,-1.1760818,0.31869742,0.13157417,0.32853267,-0.042433105,-0.3753319,1.2054583
EPCAM,0.48927638,0.56604165,-3.1356728,0.03176688,1.112896,0.74094385,-2.8569992,0.0494124,-0.2902975,-0.35278848,-0.8504401,-2.7046354,-0.7805105,0.81951064,-1.2133201,-0.59235054,0.95520604,0.22812362,0.5825165,0.8918952
SPTBN1,0.4527144,0.98900056,0.30478948,-0.350148,-0.05050466,0.06648314,0.24424529,0.33883575,-0.5008337,-0.97425157,0.66406226,0.9410236,0.69290537,-0.98306036,-0.04506787,-1.7807901,-0.048144367,0.5326655,-2.035475,0.5840461
CFAP36,-1.1493235,-1.510459,-0.54903525,0.15088198,0.6054847,0.9422455,-2.0190985,-2.990819,0.40720978,0.7689219,-2.569083,-2.838053,-0.6789997,-0.47623196,-1.8241698,1.3028511,1.2593163,-0.5645322,0.75390124,-2.7088227
CCT4,-1.3058776,0.5421147,0.2902217,0.04109621,0.19746707,0.5745009,-0.6987362,-0.6555669,-0.0593751,0.27282134,-0.66842747,-2.2311025,0.7196259,0.13885354,-0.6609065,0.68282884,0.8133567,-1.3316354,-0.073492214,-1.0532364
MDH1,-0.40290168,-0.03614889,-1.0778263,-0.59066695,0.89945644,0.6646523,-2.0504978,-0.5583445,0.2620989,0.36841932,-0.68315953,-1.9582124,-0.7089979,0.19990136,0.21719214,0.625914,0.71596503,-0.33070964,0.5966616,-0.07955172
UGP2,-0.38115394,-1.2273926,-0.60416216,0.120884605,0.2172848,0.5033443,-1.4359943,-0.49863437,0.22299193,0.95844674,-1.1874774,-1.2926923,0.87347555,-0.9772398,-2.823679,0.89504117,0.41879964,-0.09196591,0.9590476,-1.9266405
RAB1A,-0.019338023,-0.98029363,-1.1531718,0.034012586,0.8065454,0.35342708,-2.7104158,0.11298273,-0.014460409,0.42988417,0.035953127,-3.0184596,0.64919585,0.61128986,-2.4123795,0.3786173,0.2938005,-0.39415416,0.55194575,-0.36261588
ACTR2,-0.6224682,0.10718335,0.68929815,-0.067056105,0.18077737,0.33934003,0.269129,-1.2135832,-0.043239947,0.23458995,0.66992164,-2.8554082,0.8345369,-0.25273857,-1.2119625,0.11202017,0.8679285,-0.78213036,0.042397615,0.1429153
PCYOX1,-0.031114008,0.91507435,-0.30241662,0.07505314,1.1305399,0.33259398,-3.4543345,-3.2438543,-0.091459125,-0.32932645,-1.310094,0.8304716,-1.6082933,0.749833,-3.0541708,-1.0884945,1.465301,0.05428158,0.08837814,-0.0659508
SNRPG,-1.2376343,-0.06694487,0.49181256,-0.12188238,0.38291848,0.4212361,-1.070663,-0.5008605,0.026079554,0.15154725,-0.50455016,0.8653738,0.17769286,-0.7792809,-0.31799942,0.28179055,0.4752864,-0.96810067,0.5288499,0.20659342
TGFA,0.6671655,0.0945659,-2.6508474,0.50939834,0.78196466,0.45561436,-2.9242601,-0.36348987,-0.08021891,-0.19496632,-0.48973408,-3.2262924,0.5330703,0.4088845,0.22264516,-0.07932744,0.25194627,0.89990395,0.04556336,-1.8989128
NAGK,-1.845763,-3.0961828,0.8561348,-0.24616529,0.8053152,-0.56156933,-2.031727,-2.2669175,0.46584824,1.0228047,0.41902035,0.13034335,0.39504725,0.9357967,-1.9068694,0.42431542,-2.2374542,0.5279837,0.93458295,-2.144967
DYSF,0.6785332,-2.117497,-0.8809541,0.6015973,-0.0054351883,0.27802745,-0.94865865,0.5350825,-0.08329981,-0.0037276985,-0.232461,-2.8176017,1.8330749,1.2171328,-0.6609591,-2.8134093,-0.8871259,-0.9173709,-1.1600864,-3.152301
RAB11FIP5,0.7446595,-3.3804712,-0.013712949,-0.0052637826,1.6368089,0.2609957,-3.4237745,-1.5211086,0.18348067,-0.15098044,-2.4765337,-1.0121192,-2.013075,1.8116903,-1.9788854,-2.1586769,-0.28887898,0.69361717,1.2105228,-2.5646987
CCT7,-0.1611842,0.9372087,-0.009821069,-0.04296171,0.5948623,0.34904462,0.62906605,-1.0948825,-0.30809352,-0.17211403,0.17542067,0.6450709,0.16220751,0.122982055,0.035492864,0.5319779,0.5116339,-0.24260199,-0.72327316,-2.7987843
ACTG2,-2.7117863,-2.3929613,1.687438,-2.914692,-3.1414304,-2.3890433,1.7242671,-0.15213314,0.8318527,0.6082245,1.5126537,1.6920229,0.68558353,-2.2247307,-2.6180182,-2.0505877,-0.15936606,-0.907447,1.1914223,-2.4404755
MOB1A,-0.1042399,-0.068112925,-2.8429203,0.009898196,0.84350497,0.16696455,-2.5052228,0.3226588,-0.05640918,0.468003,0.22815701,-3.0176756,0.7318429,0.11593507,-2.472494,-0.25992817,0.8324242,0.22337845,0.5722112,-0.60859716
WBP1,0.13098651,-1.6327984,-0.25872812,0.06068884,0.05076001,0.3179168,0.30373448,-0.75148225,0.015774764,0.61652374,-0.68720025,0.6415249,0.34823778,0.18037952,-1.9012454,0.9435798,-0.8944743,-0.969203,0.5560986,-2.7725894
AUP1,0.46672818,-3.552209,-1.9411246,0.11209684,-0.024381358,0.42406604,0.43817052,0.49819392,0.11029926,0.19198339,-2.1755784,-0.481996,1.1787726,0.80878997,-1.0634555,-0.20743181,-0.2468861,-0.9017613,0.62169355,-2.9667313
POLE4,-2.972642,-0.24346216,-1.55036,-2.0337534,0.40137288,0.94662744,-0.5751047,-3.7197504,0.6368032,1.2075685,-0.03803539,-2.5218182,-0.34713435,-1.548877,-0.7722879,1.5688442,-0.1165397,-0.34137246,0.94191945,-1.8264306
SUCLG1,0.0005684081,-2.5500462,-3.3183413,0.33428627,1.3138345,0.6021863,-3.4863977,-2.114261,0.59814024,0.32544968,-1.9123614,-2.765293,0.5841941,0.6456841,-0.080155045,-0.029087381,-0.22742184,0.4222285,1.1212019,-2.2584434
TGOLN2,-1.2314299,0.14907987,0.27325925,0.018270535,0.2856443,0.11956824,-0.5866332,0.21859303,-0.07487305,-0.18474546,-0.1078907,0.55192703,0.5332435,0.48088375,-1.139613,-0.4385404,-0.20287396,-0.9823265,-0.17659067,0.36204794
CAPG,-0.2395056,-0.2495366,1.1131657,-0.29759458,0.28346536,-0.47896188,0.58073187,-0.3382498,0.062379275,-0.027448839,0.4336235,1.2426031,0.21561295,-0.32030725,0.56278443,0.54940814,-2.6672719,-0.29045856,0.07039196,-2.9817295
MAT2A,-0.44186643,0.018725105,-3.4132538,0.4974523,0.18668221,0.2995551,-2.4871194,-0.08980908,0.39253023,0.58091414,-1.1275649,-2.984225,0.36886168,0.49996093,0.7408228,0.78586036,-1.0502349,0.041558,-0.06829342,0.06702171
VAMP8,-0.7941622,0.61802053,0.7662345,-0.3036419,0.08593303,0.13375224,0.28421488,-0.33263227,0.0076049524,-0.013667897,0.3421955,0.77464944,-1.3697371,-0.39599285,0.10419428,0.463087,0.22935717,-1.3674409,0.1867019,0.91442376
VAMP5,-3.5406086,-0.19691049,1.0792726,-0.40925413,-2.0756457,-0.09960497,0.7556953,0.3547642,0.2383072,0.5191268,0.7965971,1.4542241,0.82536566,-2.2328184,0.68875784,0.5406611,-2.8721232,-2.5566,0.41194025,-2.669429
RNF181,-0.8339175,0.5422929,-0.65795964,0.032766346,0.2765077,0.38837802,-0.22671804,-1.5514555,-0.026351025,0.26582435,-0.7509306,0.59853536,0.42261258,-0.54200584,0.0067125196,0.40422186,0.18104528,-0.40386462,-0.03659353,0.7800146
CHMP3,-1.0516151,0.3727576,0.18475877,-0.795424,0.44971526,0.7451001,-0.1803461,-1.7112952,-0.0073671,0.4952434,0.092957646,0.16465718,-0.62814623,0.28901413,-1.0808845,0.61809635,1.1589897,-2.6041348,0.36655793,-0.14557195
CD8A,-3.4111571,-1.3394109,1.173089,-3.3325548,-3.2199285,-3.3480403,0.95929027,-3.0375426,1.4685675,1.8903117,1.5842003,-1.9451486,-1.9931024,-2.4633324,0.6672868,0.1650302,-2.518982,-2.684364,2.3165958,-1.7615883
CYTOR,-2.0024397,0.2985443,-0.0069966326,-0.80712205,-0.70530474,0.7225082,-0.6901246,0.627582,0.095153615,0.5845126,0.92911667,-2.87758,1.229437,-1.1691959,-1.478367,0.585464,0.40750912,-2.6887107,0.16193575,-0.78519815
SNRNP200,0.5458182,-3.1474736,-2.933003,0.22093369,0.72600305,0.45862135,-3.4808614,0.50146157,0.11513095,0.40659234,-1.9890425,-2.7718744,1.3366644,-0.48054594,-2.2070296,0.117139734,-0.102667354,0.9675096,0.5504031,-3.030582
COX5B,0.046100542,1.1504618,0.7395414,-0.5947301,0.114404045,-0.8970121,0.43567008,0.02642684,-0.9082353,-1.884104,-0.06711041,1.612921,-1.9757636,-0.61380726,0.16844675,-1.4342678,-0.263419,0.17945841,-1.1292355,1.0061462
RNF149,0.28747606,-0.3612841,-1.5039872,-0.046238456,0.34870434,0.51389354,-2.9019835,-0.38092896,0.23723844,0.7437931,-0.64331764,-0.85337794,0.6621395,0.38161173,-3.3702104,0.48772106,-0.13854034,-0.5435393,0.9474652,-0.8504391
PANTR1,-0.13664316,-0.84737426,-3.3978271,0.78728133,0.13912396,1.0175915,-0.87823784,-3.1806939,-0.17525055,0.76387775,-2.7956047,-2.507394,0.8048726,0.8165523,-2.769368,1.0126313,0.38029766,-0.50349754,0.4381668,-1.0185442
POU3F3,0.9088498,0.751128,-3.3962278,0.19642794,0.7093945,0.21902582,-3.8294418,-0.0007593407,-0.24668479,-0.10085859,-0.04630972,-3.159341,-0.46076506,0.48343304,-0.9958789,-0.9290334,0.5173021,0.9117426,0.24169251,1.0853301
MTLN,-0.8845557,-1.2650679,-0.3603334,-0.005375517,0.41545233,0.6433441,-1.8249696,-1.5577122,0.505825,0.78099644,0.49686548,-2.927509,0.7760637,-0.6145328,-0.016877564,1.0867109,0.1859531,-1.6956185,0.52251405,-1.2157615
PAX8,0.79239845,-2.334562,-2.8165143,0.41878897,1.1856791,0.24610326,-3.190929,-0.5059474,0.3646096,-0.17976537,-2.5414166,-2.2906208,0.40544716,0.68496245,-0.109882966,-0.31579196,-0.67185014,1.087862,0.6434882,0.04063455
SLC35F5,0.7851612,-0.2657498,-2.0225756,-0.2300573,0.6078592,0.39924425,-3.3458114,0.1832805,0.014918306,0.24284904,-2.381349,-2.8719742,0.70994484,0.94929886,-0.6345532,-0.88822556,0.8338219,0.29802784,0.367928,-0.51805604
ACTR3,-0.67483544,0.16097365,0.11256909,-0.014079559,-0.3393086,0.3022794,0.18498386,0.04655806,-0.06395661,0.4596881,0.20151047,-2.5517805,0.59938616,0.16875367,-2.3145816,0.7084887,0.71655,-1.872184,0.19478908,-0.6404932
INSIG2,-0.13206984,0.7854391,-2.940262,-0.6139909,0.15469642,0.7706247,-2.4234393,-0.97218096,0.3102072,0.763257,-0.7311204,-2.389253,-0.5239357,0.051883917,-1.3281618,0.6615988,0.4662455,0.050678384,1.0288161,-1.0912993
DBI,-1.0380925,0.75087374,0.07488026,-0.26202878,0.19111957,0.3509885,-0.92783153,0.08809046,-0.054700535,0.19373342,0.3018563,-2.3251948,0.06666654,-1.1054682,-0.25249425,0.22625214,0.5764938,-0.28898165,0.3598994,0.7764398
TMEM37,0.50464994,1.0748148,0.22954682,-0.08789921,0.41842613,-0.16918963,-0.5459601,0.2876003,-0.5669736,-1.122182,-0.3432387,-0.86486477,-0.43554777,0.11794498,0.2749305,-0.37161195,0.34823003,0.61412066,-0.4587936,0.9589077
INHBB,-0.02382503,-2.670608,0.9146873,0.10464352,-3.348862,0.49408075,-1.61498,2.1099513,-3.2288651,-0.35628387,1.7842444,-2.513507,2.5191658,-1.632358,-2.7811427,-2.147227,-2.5929463,-2.8839815,-3.0353968,-2.6062205
GYPC,0.30642122,-0.6092215,0.3596276,-0.03510829,0.32197013,0.089370824,0.37752154,0.04989553,-0.33714792,-0.34077424,0.30189395,0.792664,0.34756908,-0.6480678,-0.14959411,0.15337017,0.081045784,0.38655367,-0.9592627,0.30313498
MZT2B,-0.04278868,1.0307966,0.89377195,-0.47279993,-0.0800358,-0.77270687,0.5738784,-0.04933048,-0.873351,-1.8742398,-0.36553523,1.9890138,-1.9727507,-1.352424,0.31312814,-0.66599256,-0.56777555,0.10490274,-1.4688522,0.726062
CCDC115,-1.7628629,-0.31859726,-3.402669,-0.048151106,0.78342664,0.45499054,-0.3045092,-3.0598412,0.27060091,1.1350136,-3.00289,-2.7745135,-0.054417863,1.1264398,-2.80677,0.6956978,0.20861258,-1.185839,1.4318842,-0.8582777
MZT2A,-0.59593076,0.70268494,0.8489255,-0.05060129,0.22102545,-0.12332259,0.4205776,-0.13333113,-0.5277953,-0.7274333,-0.19210178,1.7754313,-0.5612925,-0.6065156,-0.08220081,-0.15964645,0.15570243,-0.2080823,-0.7295817,0.35850635
ACMSD,-0.600104,-0.10383834,-3.055605,-1.2798716,1.5650138,1.055208,-3.3019016,-3.510505,0.65329087,0.6107194,-1.9125987,-2.7268949,-2.4468746,0.97346467,-0.6538517,-0.82431924,0.48660538,0.5734055,2.008878,-2.455367
UBXN4,0.49928078,0.14533305,-0.7378674,-0.038576543,0.8355414,0.7182939,-1.8277185,-3.539447,-0.286433,0.36209872,-0.4909197,-3.0492823,-1.4337953,0.014038085,-0.50751597,0.3493228,1.2942578,0.6006811,0.45938373,0.08885093
DARS,0.47867522,1.2422366,-0.18874972,0.07117014,0.45710775,-0.15212204,-1.2802863,-0.68400437,-0.38672164,-0.3305363,0.08877775,-1.585536,0.174959,-0.6727043,-0.24172445,0.24106842,0.6678893,0.4776898,-1.094735,1.0496663
HNMT,0.00021856623,-1.1729546,-1.6607757,0.05907016,0.25812054,0.54767585,-2.3435338,-2.0236938,0.22986771,1.0434272,-1.0270934,-2.7899249,-0.7664505,0.37014917,-2.0805085,1.1305377,0.5840042,-0.5615382,0.8644076,-0.2998242
DPP4,0.41434488,0.54689336,-0.43159378,0.023318468,0.620576,0.16302963,-1.2644382,-0.5308431,-0.0435117,-0.25804353,-0.39960638,-0.1530714,-1.4847964,0.4336624,-0.24414827,0.25546014,0.60169727,0.38107368,0.2385206,-1.1976485
DYNC1I2,-1.7962337,0.37117553,-2.4586122,0.08807977,0.5975704,0.7446793,-2.070677,-1.268427,0.11261173,0.5398423,-0.059222315,-1.8105371,0.8916867,-1.8627226,-3.0176404,-0.062338844,0.9582264,-0.89459497,0.58823395,0.2652104
ITGA6,-1.7846282,-2.6990952,-1.9678324,-1.2724198,1.1637293,0.22631145,-1.2718126,0.7210654,-0.2027941,1.1739517,0.34978133,-2.3912096,1.7794771,0.6194945,-2.7228665,-1.5409143,-0.36095256,-1.3125855,0.7085327,-2.1570783
OLA1,-1.69578,0.11198763,-3.1684089,-1.0911077,0.76167,0.974033,-3.2410302,-3.4413593,0.4126155,0.9328613,-1.439035,-2.8172157,0.05671703,0.52595764,-1.0579501,0.75867254,0.80500215,-0.000719046,1.0038847,0.33261615
ATP5MC3,-0.7775179,1.2587323,-1.7818733,-0.187504,0.6072741,0.30205452,-0.3966445,-0.18912552,-0.08313154,0.007521595,0.28613904,-2.9819968,-1.4322219,-0.057874188,0.5982672,0.19767638,0.6070953,0.1028403,0.016896881,1.1237725
HNRNPA3,0.54270685,0.9030568,-1.4864523,0.08440554,0.4366993,0.09945781,-1.4668809,0.017393827,-0.23693751,-0.14770383,0.4275682,-3.256204,0.47502452,-0.20143768,-0.41848573,-0.32911402,0.5504631,0.6957774,-0.43900907,0.6369862
UBE2E3,-0.92127275,-2.6819346,-1.7172583,0.6106388,-0.5491374,1.0527698,-1.1896335,-1.2148049,0.07931723,0.9940413,-0.73786736,-2.1865609,1.4030117,-0.9115385,-2.2636607,0.029082319,-1.2209687,-2.3429933,1.08008,0.63770884
FRZB,0.049040228,-1.0278763,0.97635573,-0.67256767,-2.9585488,-1.1754562,0.31106377,2.0317092,-0.62160194,0.08166756,-0.0229023,-2.0811431,2.6454976,-2.141858,-2.5732894,-1.6527172,-2.5741684,-2.8478343,-1.9959096,-0.25991789
NCKAP1,0.03466468,-1.0704638,0.053315505,0.11368176,0.3361532,0.5387338,-3.000082,-0.10601911,-0.04931985,0.18807705,-0.27900502,-2.4786353,0.7739528,0.8027302,-3.3111196,0.23126693,-0.027713465,0.005727907,0.35565856,-1.9885869
ITGAV,-1.461677,-0.23606183,1.0270087,-1.6975188,-3.1617439,0.53815633,-0.18462914,0.34048682,0.2965705,0.5562094,1.2645618,-2.5029175,0.33051634,-2.4459622,0.030104706,0.50105685,-0.6016956,-0.939196,0.39210862,-0.03969662
TFPI,-0.055574857,0.6589387,-0.2776687,0.20634724,0.44448075,0.3737037,-3.6387954,0.22536807,-0.5847736,-0.10732434,0.25744337,-3.1540117,0.16345322,-0.41035673,-0.55647475,0.1392108,0.9321354,0.29650605,-0.43592447,0.423899
COL3A1,0.16692448,-0.19831806,1.3294194,-0.63248634,-1.0142422,-0.48811963,0.99377435,1.1873814,-1.9342201,-2.6219082,0.586894,1.0933052,1.7369046,-0.40279675,-1.3251163,-3.5152836,-0.048683632,-0.10018506,-3.150653,-2.3654716
COL5A2,-2.411059,-2.5402002,-0.18314663,0.1981718,-2.6796882,-0.2842855,1.8426179,0.8133185,-0.8197612,0.5194619,0.5018247,-0.50515944,2.3430548,0.3484977,-2.8174376,-2.4350903,-0.7181897,-2.8873105,-1.4832546,-2.393393
SLC40A1,-0.91331744,0.14031419,0.88420326,-0.37601247,-0.7845332,-0.34334168,0.89828706,-0.46975616,0.16939344,0.48535427,1.0860548,-0.6425755,0.6001815,-1.7242607,0.27210718,0.9485545,0.046819158,-0.6983401,-0.31601122,-2.2696695
GLS,0.6439231,0.48269174,-0.44481948,-0.06950522,1.0444479,-0.07635623,-1.5023395,-0.26001337,-0.046473674,-0.5260889,-0.031003118,-0.6774119,-1.3417805,0.78646976,0.4439869,-0.7864963,0.7380885,0.8434529,0.102918305,0.019209044
MYO1B,0.21646671,-1.2738037,-2.5837233,0.16196537,-3.1764212,0.82388896,-1.0824932,1.4797412,-1.1464194,0.3880585,-1.1530303,-2.5243154,2.3067307,-0.6965314,-0.8820435,-1.9576197,-0.713974,-0.24036258,-2.2872825,0.6149103
SF3B1,-0.49734166,0.65657914,-1.7197387,0.053408563,0.3190153,0.11728418,-1.9334624,0.04941279,-0.0688138,0.18675388,0.24493976,-1.6399326,0.68492734,0.64658785,-0.025996456,-0.10774172,0.25645664,-1.8381883,-0.14780982,-0.7185987
SPATS2L,-0.060653996,0.5509808,-1.5325305,0.00974821,0.44210863,0.71136713,-1.5986196,-3.11815,0.016625213,0.26930216,-0.7771928,-2.8069246,-0.96125776,0.1853081,-1.3037683,0.122687295,0.9937718,0.49176785,0.7776872,-0.6916039
BZW1,0.25892168,-0.39927858,-0.033831764,-0.058476165,0.87883276,0.33659002,-3.730105,-0.15802874,-0.0020225123,0.11231249,0.056765243,-3.0556576,0.59845847,0.47635633,-0.09033626,0.37495518,0.47971183,-0.72693753,0.26560512,-0.91568834
CLK1,0.52778697,-1.2455263,-0.3481156,0.15666512,0.52810764,0.41858572,-2.258354,0.12804678,-0.084457435,-0.14396112,-1.0530794,-1.2023416,1.0349203,0.3886881,-0.21709251,-0.7501593,0.40196115,0.64533657,0.07790205,-2.0987387
NDUFB3,-3.3529923,0.92860854,-2.897587,-0.6321858,-0.31586972,1.0781263,-1.2945677,-2.2426827,0.508121,1.0836877,-1.8009422,-2.9895792,0.54550654,-0.25858748,-0.74370426,1.123233,0.65818506,-1.9107273,1.2565166,-0.37234962
CFLAR,-0.079519734,0.5577951,-1.3582392,-0.90262717,0.14974262,-0.25630066,-0.034148987,0.33488742,0.1322489,0.38337097,0.45889106,-3.0394893,-0.34245566,-0.03614043,0.4077358,0.5531356,0.32807988,-0.62380844,0.15460697,-0.76879764
SUMO1,-0.95504135,-0.23618975,-0.6904012,0.101317465,0.6891908,0.27526385,-3.4532433,-0.5483239,0.107945524,0.3789594,0.05400157,-1.3331941,0.40221438,-0.14264126,-2.3963645,-0.21852693,-0.3453381,0.29298496,0.7879383,0.194929
EEF1B2,0.08076663,1.305892,0.7811049,-0.5038758,0.09180505,-0.7308739,0.15256122,-0.10655762,-0.74848485,-1.605599,-0.32662752,1.4745609,-1.8945643,-1.2634435,0.14548226,-0.3662447,-0.036818173,0.27315882,-1.1217993,1.196236
XRCC5,-0.5161051,0.4466598,-1.0937835,-0.055145465,0.08078799,0.51104426,-0.25923556,-0.090246886,-0.009005613,0.18461616,-0.43110272,0.09238481,0.51263523,0.21099731,-2.382313,-0.28864655,0.9397259,-1.9254051,0.29220548,-0.507171
IGFBP2,-0.22059816,-1.0017666,1.5778922,-0.8725554,-2.5268784,-1.8790321,1.563913,1.101668,-2.304676,-1.2387146,0.4997892,1.7732649,1.8182355,-1.4547553,-1.7980936,-3.0710359,-3.1666584,-2.4109993,-2.3655863,-3.149289
TNS1,0.54607683,0.25293073,0.65362656,0.049414374,0.19157173,0.06702578,-0.38317654,-0.35192922,-0.49448898,-0.7836717,0.05562486,0.7461426,0.74483037,0.3433177,-0.108048595,-2.378975,-0.17644459,0.40745133,-1.0134263,0.41578522
ARPC2,-2.895646,0.5409037,1.0832016,-0.2474962,-3.2497277,0.03942504,0.32560635,0.45214397,-0.054925703,0.5201579,1.0010791,0.8057457,0.92654216,-2.837311,-0.51528746,0.5649482,0.8605074,-2.3081212,-0.12018676,-1.4775295
PNKD,-0.32851344,-3.1282809,-0.63223445,-0.9641742,-1.8446611,0.03416624,0.58561057,0.9805836,0.27017426,1.1062614,1.2691878,0.5713617,0.8487783,-1.7517147,0.049519226,0.8070879,-2.6496267,-2.6603014,0.71954757,-0.82622993
TMBIM1,-0.83892953,-2.853982,0.41825023,-0.38799745,0.31851664,-0.4280421,-0.17423195,0.3780404,0.5521716,0.74352735,0.7644787,1.0813239,0.9490693,-0.45271698,-0.007760458,-0.069601305,-3.0606644,-2.8154688,0.61954665,0.3285052
CTDSP1,-0.19671069,-3.432745,0.019287122,-0.1059949,0.54642934,0.2809053,0.8541809,-0.15623638,-0.008311489,0.3144581,0.20185329,1.130149,1.1972626,0.83391666,-0.44328052,-1.4109186,-1.6211629,-0.18202128,-0.280814,-1.3242431
CNPPD1,0.17849833,-2.0798197,-3.0953968,0.66291505,0.26900962,0.54914194,-1.860784,-1.7458017,0.8835817,1.0633371,-0.7356273,-2.366243,0.9363754,1.4242659,-2.0802007,-0.34327322,-2.151923,-1.1770347,1.4603366,-2.7014344
RETREG2,-1.3590536,-0.26421726,-2.2054317,0.5349262,0.39360505,0.7433124,-3.3910604,0.11217548,0.11046265,0.50478375,-0.052313786,-2.4687045,1.6815392,0.946947,-2.9641893,-1.0869173,-2.5720134,-1.0481441,0.05129214,-0.7962137
MFF,-0.041996118,-3.0992863,-1.9473774,-0.39741522,0.53969973,0.78303796,-3.2780163,-1.867862,0.684611,1.3149254,-2.7662435,-2.3760667,0.27045122,-0.9984109,-2.6348941,1.2526493,-0.8856633,-0.8912141,1.6662103,-2.42982
NCL,-0.48703748,-0.9040314,0.43449733,-0.45988154,0.5981725,0.6205294,0.17093821,-1.1205685,0.009651773,0.0912554,0.5701523,-1.676955,0.8354382,0.066491336,-0.53866357,0.23232517,1.006043,0.30901474,-0.50795096,-2.324037
ACKR3,0.56771016,0.49454167,-0.6461669,0.18746069,-1.3839062,0.8668431,-0.9993585,0.9769944,-1.355561,-0.24838942,-0.112285405,-2.1007729,2.0965922,-0.18152125,-3.347767,-3.359588,0.46698377,-0.32367954,-2.6908195,-1.6981599
RAB17,-0.5306486,-3.1935935,-2.6232529,0.048983127,1.648445,0.6280751,-3.0535429,-2.8310552,0.4282896,0.7870659,-2.872735,-2.4761267,-1.5497862,1.5699196,-2.7036228,0.015806269,0.30103746,-1.1928346,1.6629084,-1.7404737
NDUFA10,-0.09388763,-1.845691,-0.47813353,-1.2569697,0.4447859,0.84411204,-1.7158037,-0.40068325,0.611516,0.6746513,-2.0479636,0.585246,0.7598972,-0.34409404,-1.5900607,-0.25872794,0.2092826,-0.8144615,1.2711781,-2.852266
COPS9,-3.1202688,-0.32420158,0.18880703,0.18674064,0.24660265,0.39953402,-0.86034155,-0.2542619,0.07300946,0.464952,-0.35104838,-3.1107106,1.1826475,0.30934444,0.12064936,0.6988961,-1.2217035,-2.4006324,0.10766268,-0.697822
HDLBP,-0.5218978,-0.53193307,0.24302873,-0.07871783,0.45556462,0.26005733,0.3494946,0.8731764,-0.14003912,-0.25272214,0.8932379,-2.292913,1.1893556,0.2576459,-0.24101259,-1.7685349,0.3843321,-1.9016026,-0.38303295,0.5832767
SEPTIN2,-0.42773882,0.82009274,0.14946882,-0.023059107,0.6539834,0.09984054,-0.8586284,-0.3897834,-0.080208704,-0.036018252,0.32249835,-2.5015783,0.96296066,0.5600634,-1.1140324,-0.634488,0.18758631,0.11738007,-0.32883823,1.0752846
BHLHE40,0.10609433,-0.81016976,-0.3805856,-0.01056489,0.509055,0.3290968,-3.3217285,0.28048536,-0.025713207,0.31159425,0.9081259,-2.75416,0.5522362,-0.289425,-0.15813127,0.4048379,0.07121019,0.32954955,-0.30759436,-2.1859083
ARPC4,-0.35978544,-2.5957952,1.2714794,-0.09770001,-0.86011684,-0.11513129,-0.4543484,0.66559124,0.0036680368,0.53493947,0.9275735,1.1589087,1.2883533,-0.7754788,-1.729038,-0.7040475,-0.85982,-1.3923535,0.519263,-2.735302
BRK1,-1.2149405,0.5114956,0.60004145,-0.6197285,-0.8098499,0.6524198,-0.17763259,-0.8732714,0.22688146,0.4918635,-0.45085904,0.43055722,0.8291533,-1.1959412,-0.69201607,0.8039734,0.27387515,-3.5456972,0.46333313,-0.521967
LSM3,-3.534517,-0.012844305,-0.6896936,-1.9821793,-0.8502927,1.0870985,-2.3774033,-1.3221993,0.8498052,1.2705902,-1.87051,-2.5317442,-0.72315484,-0.024783663,-0.45410827,1.4936415,0.4481593,-2.9765198,1.3110579,0.12052882
CRTAP,-0.09579391,-1.229103,0.58818775,-0.7803026,0.003849349,0.5651755,0.05629419,0.73631835,-0.21380776,0.30260164,0.3885165,1.0125554,1.2840651,-1.1684723,-2.9881327,-0.11839794,-0.47460118,-2.1962025,0.4057772,-0.2337654
ACAA1,0.79556286,-2.9153957,-3.1100948,0.03880566,1.5478451,0.38847366,-2.6199288,-1.736003,0.2075601,-0.33407608,-2.6153243,-2.8565886,-0.07949687,1.4602054,0.38436595,-1.712099,0.2599297,1.0485069,0.3474719,-0.7677523
CTNNB1,0.04032152,0.21106872,0.37614363,-0.32714725,-0.98595744,0.59773546,-1.690973,1.0407084,-0.24050725,0.105121344,1.0193728,-2.58283,1.5084517,0.12932968,-2.9791737,-1.5603323,0.56817406,-1.6147109,-0.20994523,-0.9734793
TMA7,0.15165114,0.84228414,0.3996664,-0.008437984,0.21771768,-0.16949633,-0.21027413,0.030034576,-0.2713618,-0.53757787,0.32153308,-0.2289237,0.3688797,-0.33726847,0.08253161,0.082637146,0.3005749,0.31350553,-0.97255963,0.49067423
SHISA5,-0.2583189,-2.6785343,-1.1146454,0.34359962,-0.29983914,0.03695923,-1.3082212,0.80535746,0.3616566,0.8939828,0.017502273,-2.599326,1.6178235,0.43937075,-2.3236575,0.67792076,-2.784022,-2.7548647,0.6810039,-2.924926
UQCRC1,0.644363,-1.9311073,-1.348504,0.22479245,0.77601564,0.29371142,-0.36699674,0.4484594,-0.19563802,-0.18520418,0.38642478,-1.1528305,1.09776,0.5741581,0.11435964,-1.3416039,-0.24312297,0.9103023,-0.4523768,-2.7861521
NDUFAF3,-0.5802494,-0.29411373,-0.2558912,0.06272657,0.06801385,-0.104629114,0.7801801,-0.2709638,-0.055426814,0.3776811,-0.22233051,-2.436876,0.85136014,-0.09911106,-0.47664177,0.7061069,-2.2274911,-0.5825555,0.26964748,0.19830197
RHOA,0.14844525,0.9487212,0.79683566,-0.39295867,-0.11036435,-0.54046476,0.088298425,0.760945,-0.7000072,-1.058589,0.5773757,0.52093303,0.33314463,-0.86739457,-0.12232763,-0.58334166,0.29045635,0.30080485,-1.4031492,0.90973425
SEMA3F,-0.47223708,-1.4513928,0.24793828,0.7466204,-3.3084464,-0.2441999,-0.41096628,1.5312754,-1.4302961,0.48485744,0.14563127,1.1947542,2.418207,-0.9466963,-2.7173824,-2.6370862,-2.9779587,-3.11074,-2.7814798,-2.6979365
GNAI2,-0.3813784,0.89810264,0.90591884,-0.27765316,-0.75296694,-0.41096956,0.4971747,0.75337267,-0.4890622,-0.3811661,1.0547763,0.54303575,1.1214432,-0.5710891,-0.5746709,-0.6018326,0.4406578,-1.3025575,-1.4030662,0.66258305
HYAL2,-0.7566835,-2.5925655,0.44166434,-1.1160202,-3.3729672,-0.68402284,1.5992299,1.6668707,-1.7812924,0.33805776,1.2287298,1.012292,2.383491,-2.6650746,-0.6358182,-1.9190425,-2.5378363,-3.0847194,-2.6708562,-3.0331833
STAB1,-3.0512233,-0.802757,1.6481296,-1.9755703,-3.5240734,-3.2516823,1.4430034,0.7456965,-0.17883314,0.48616433,1.6629245,1.3408778,1.0755203,-1.9082067,-0.7615964,0.18591008,-3.0659099,-3.0753655,-1.1976165,-3.1973634
SPCS1,-0.73195064,-0.05600498,-1.9834857,-1.1565783,-0.2669654,0.7166411,-2.7494748,0.24651396,0.6199599,0.9406703,0.34560376,-2.6068194,0.77921414,-0.23799436,-0.5681799,0.44160196,0.39734367,-1.3179084,1.177485,-3.0347235
SELENOK,-1.5248932,-1.5545077,-1.0530351,-0.3677322,0.19385436,0.9024517,-0.99633026,-0.3610856,0.5961,0.9060888,0.38949615,-2.777361,0.95211786,-1.818085,-2.2663736,1.0961579,0.3660686,-1.3954216,0.95590544,-2.7880216
ARF4,-0.6722638,-0.5563419,-1.0860877,-2.4469492,0.3328772,0.6232152,-0.22828726,0.27466646,0.3466791,0.74821687,0.8037089,-2.8242378,1.1522118,-0.6340864,-0.55677074,-0.29705113,-0.16139539,-0.81056416,0.831804,-2.8813367
ARL6IP5,-1.5101618,-0.2873487,0.31897393,-0.04668703,-0.10643621,-0.04666058,-0.6923466,0.030004663,0.059196796,0.818149,0.5402645,-2.2817497,0.3744501,0.43730423,-0.54609925,0.6371707,0.41711953,-2.2421372,0.52618915,0.03451547
MTRNR2L12,0.15571815,1.7234316,0.63250923,-0.99671555,-0.09715455,-1.9082335,0.64177954,0.036145024,-1.2642341,-3.9095335,-0.18847498,1.2836983,-3.0694082,-1.8555945,0.50881505,-2.7153633,0.33323202,0.39269635,-2.8744097,1.5683342
NIT2,0.24060982,-3.0165932,-3.1337304,-2.539624,1.1761973,1.369423,-3.4152215,-1.1427867,0.3619662,0.8661008,-3.0739915,-2.5141366,-1.464951,0.7888189,-1.3385355,-1.0075718,0.89758986,0.07776925,1.6532301,-2.7823546
PCNP,-0.053269893,-0.8516219,-1.7726725,0.11072854,-0.9814619,1.03563,-0.6408058,-0.46926773,0.03888193,0.8476482,-1.2555052,-2.6007845,1.1387091,-0.5414093,-2.3526254,1.0168971,0.61162347,-0.69554114,0.64962506,-1.9168969
COX17,-2.5469565,-2.684959,-2.805187,-0.1923795,-0.08917844,1.1411622,-1.3783565,-3.0495167,0.61813086,1.2949388,-1.3081357,-2.6637309,1.349254,-0.43203154,-1.8002449,1.2514948,0.43092278,-1.5513114,1.2721796,-2.501091
FSTL1,0.2838692,0.7932507,0.44763443,0.0042284736,-3.3540707,0.4409482,0.018330216,1.0104576,-1.407412,-0.5457216,0.679489,-1.2191699,1.6739151,0.37674248,-0.5832788,-3.104476,-0.14473677,-0.80859625,-2.7320237,-1.2145486
NDUFB4,-0.30742863,0.44638243,0.16062288,-0.1735186,0.38812214,0.5609351,-0.39773932,-0.22755116,-0.054164864,0.112013675,-0.34676105,0.111289024,0.4893213,-1.6636654,-0.99632585,0.5886949,0.70814556,0.16050859,0.10516005,0.62380654
FAM162A,-0.4567269,-0.4449419,-3.2451456,0.29360896,0.9443374,0.6580349,-3.783861,-0.2734858,0.10869779,0.42302096,-2.9767282,-3.1367443,0.13952468,-0.15367083,-0.8267589,0.64027363,0.7389029,0.48272544,0.7948062,-0.4125422
PARP14,0.01197313,-3.091832,-1.7318357,-3.186891,-0.5688114,-2.6295905,0.9312639,-0.54732186,1.1161951,1.6606346,-1.5690752,0.67743635,-0.69028187,-2.369229,0.8373515,0.7212782,-2.6605942,-2.166917,1.8960118,-2.5134413
SEMA5B,0.8866756,-0.8075695,-3.010483,0.675144,1.0010525,0.26488414,-3.5576913,0.35456058,-0.19578499,-0.595765,0.052146714,-2.9984417,1.0360936,0.9193283,-0.2556094,-1.8760322,-0.82774854,0.9062152,-1.3509059,0.6330804
PDIA5,0.5138262,-2.9294038,-3.2457123,0.013791264,1.0981349,1.0385677,-2.6758957,-0.36317426,0.7685818,0.44097686,-3.1341558,-2.541407,-1.7825196,1.2417679,-1.9975445,0.25692016,0.09243209,0.46979073,1.5578536,-2.5217977
MYLK,-1.3451111,-2.8783135,0.5085738,-1.4273415,-1.2997262,-2.5979965,0.74497205,1.1554152,0.7216634,1.0103422,1.5081216,-0.9240507,1.3325024,0.8974369,-2.467364,0.025329556,-2.7826474,-2.2961595,-0.5046362,0.13804777
ITGB5,-1.515632,-2.8332043,1.6312526,0.009993549,-2.306223,0.2865139,-0.8796439,0.29686406,-0.3494485,0.26605618,-0.14197719,1.1896963,1.9163446,-0.15101324,-3.0165656,-0.98383296,-2.5979006,-1.8515781,-0.98424894,-2.8553634
MGLL,-0.98440075,-0.5042345,-0.13843907,-0.27221334,0.30525005,0.507549,0.071033634,0.5109577,-0.13553107,0.3604053,0.4958223,0.2546972,1.0859154,0.15342985,-2.3271894,-0.3525513,0.31279325,-1.7705832,0.38042662,-0.94316775
SEC61A1,0.7125755,-0.63019407,-0.47541618,0.05141905,0.43060556,-0.30968,0.5058772,0.8157184,-0.41663787,-0.48706114,0.2591521,-1.6020275,1.4227971,0.78778756,-2.6335785,-1.902411,-0.681002,0.87708825,-0.69729805,-2.8156576
RAB7A,-0.5172132,-1.9454235,-0.55144346,0.11120962,0.554111,0.29967615,-1.8610495,-1.3881813,0.3286177,0.6443254,-0.08470801,0.3888255,0.7172909,0.40720078,-1.3726951,0.76429784,-0.36840734,-1.603554,0.38189283,-0.5397038
CNBP,-0.15191531,0.144564,-0.49674484,0.02029575,0.4318647,0.31895113,-2.688012,0.2179935,-0.079201914,0.30018905,-0.16813064,-3.1947432,0.16453344,-0.0014884169,-1.9710813,0.667073,0.67983145,-0.13228695,0.2931689,-0.9260829
H1FX,0.19115292,-1.9390169,0.8877906,-0.09257142,-1.382686,-0.13121517,1.0338116,0.79339135,-0.75475234,-0.5686846,0.5483785,1.3951739,1.0235622,-0.4146826,0.01552027,-0.1486692,-0.9906393,-0.09032688,-1.1990533,-3.1255844
PLXND1,0.27918714,-0.86781967,1.1618627,0.4722042,-3.6001406,0.010036409,0.9098078,0.89760363,-0.8764488,-0.9690381,0.20939876,1.2872603,2.1546226,-0.5317999,-3.1445901,-2.6387823,-2.3670776,-2.8380744,-2.7199028,-1.2775533
TMCC1,0.51447594,-2.8650298,-3.1485898,-0.02165636,0.57454604,0.89999026,-2.0943058,-2.3135493,0.5898199,0.75797695,-2.8111892,-2.7680335,-1.5874755,-0.037251357,0.10680137,0.9205287,0.78913385,0.20080572,1.3206513,-1.637639
ACAD11,0.5457858,0.22988036,-1.3089125,0.13096714,1.1685251,0.094031736,-2.6855836,-0.5707598,0.024787169,-0.64746606,-2.995151,-0.13448308,-1.9816036,0.35151702,-0.19575511,-0.60735625,0.7576933,0.804048,0.65252805,0.011710437
UBA5,-0.23660602,-3.237846,-3.0281215,0.99502957,0.98982036,0.79541725,-3.3509371,-2.635964,0.33037177,0.79940623,-2.6534295,-2.4262493,-1.4529288,1.1336727,-2.8425736,0.47044042,-1.3027494,0.17353126,1.549571,-2.0799232
RNF7,-0.28747272,0.45076573,-1.6507655,-0.12449702,0.290294,0.5705039,-1.4774635,-1.0206664,0.28288677,0.89879817,-0.31910887,-2.809346,0.9276734,-0.049486075,0.47121814,0.79958653,-2.7462146,-2.8990903,0.9656433,-1.1579078
TM4SF18,0.10007876,0.35318592,-2.284088,0.10167848,-1.3209851,0.77950007,-1.9894725,-1.5318797,0.46554312,0.81171715,-1.6052299,-1.896128,2.0104992,-1.1327015,-2.7698567,0.76223904,0.36476156,0.19144295,-1.9024398,-2.223212
TM4SF1,0.71580094,0.3027894,-0.49272454,0.09903917,-0.81827444,0.56597066,-1.0002588,0.8887183,-1.3457415,-0.16512913,0.68055415,-2.0722878,1.9030763,-0.5420198,-1.2656529,-2.7088263,0.064914875,0.17545184,-2.9069426,-2.766055
WWTR1,-1.1578255,-0.7371367,-1.4666501,0.3681722,0.015924579,0.9320559,-3.5891674,1.0649574,-0.96391296,0.46859008,-0.364023,-2.833972,1.8006573,0.522142,-1.7379601,-0.63323385,0.33500805,-2.0776951,-0.6069119,0.7006182
SERP1,-1.5188428,-0.30151486,0.18804741,-0.36497775,0.43157378,0.31734163,-0.30044731,-0.5872844,0.24825937,0.5765036,0.14841236,0.12329626,0.4146228,-1.7297593,-2.5919676,0.559646,0.39522085,-1.172886,0.7600721,0.51176965
EIF2A,-0.8238109,0.5848644,-3.3039136,-0.6393271,1.0249774,0.83669746,-3.1930277,-0.91915214,0.23019274,0.47585458,-2.6427243,-2.8583758,0.576515,0.05022507,-0.68744403,0.1432112,0.6683038,-0.6327435,0.80843645,0.92002803
SELENOT,-0.3169379,-1.8812654,-1.5583403,-0.88811404,-0.6692666,0.8182577,-2.074208,-1.1153,0.58430195,1.2171234,-0.83419734,-2.7025511,1.1353326,0.093592614,-1.0215375,-0.05594963,-2.5232842,-0.88055515,1.3155895,0.7907285
MBNL1,-0.67741174,0.7341136,-1.163802,-1.9273584,-0.9557463,-0.17750372,-0.23077795,0.5376542,0.26245227,1.0601637,1.1070553,-2.5589,0.85335827,-0.24171571,-2.0337727,1.0028726,-1.9688176,0.13080697,0.31309643,-2.1100993
SSR3,-1.4810658,-0.16291656,-0.5230881,-0.3349029,0.99033064,0.6524833,-1.6912632,-1.8790246,0.29304865,0.54140973,-0.9060284,-2.068995,0.3374629,0.8543557,-0.9664248,0.48850515,0.8238567,-0.91884184,0.5935577,-0.39891475
SEC62,-0.5284414,-0.54925835,0.22264548,-0.027628612,0.6650478,0.5777181,-2.3069267,0.4402785,-0.2583977,-0.08693187,0.56931674,0.38767847,0.07205397,-1.6533422,-2.069082,0.039053317,0.975502,-0.3150225,-0.1014069,0.6898375
TBL1XR1,-0.26727107,-0.033793554,-0.3447843,0.11836884,-0.15929924,0.32456633,-1.7257259,-2.6991117,0.39146492,0.5805704,0.48019767,-2.2468135,0.17833473,-0.015644448,0.08750903,-1.2231822,0.91968113,-1.0529732,0.59408265,-0.84155625
NDUFB5,-3.11839,0.50751495,-1.1764144,-1.0258346,0.4052383,0.8415217,-3.3261917,-2.8187473,0.34389478,1.3346025,-0.72197926,-2.5482063,-0.32239676,0.24860401,-1.7245653,1.3642402,0.68103874,-1.7345183,1.3526043,-0.87163204
AP2M1,-0.660421,-3.2669737,1.2245288,-0.076385625,-0.06249388,0.41704285,0.60646605,0.40331522,-0.057850365,-0.37489933,0.73235583,0.4253693,0.72567827,0.25114223,0.07019184,0.15491888,-0.31591365,-0.009039399,-0.15279686,-2.8588698
EHHADH,0.3951512,-3.0550041,-3.0453677,-2.8301303,2.4260948,-0.24303931,-2.8529177,-2.0966356,0.723163,-1.1819016,-3.1273673,-2.4861498,-2.5422938,1.8985332,-1.6911129,-2.468275,-0.80979526,1.0429715,1.8885571,-2.4981456
EIF4A2,0.43316337,1.0611628,-0.21272065,0.012543881,0.29458183,-0.08840995,-0.5412192,-0.19340302,-0.45824623,-0.10836813,0.22832908,-3.111988,0.049555324,-0.28643793,-0.6002505,0.47893804,0.6188762,0.4019769,-0.64448524,0.66329587
HES1,0.10152215,0.8934692,-0.36976725,0.28602505,-1.8724798,0.73256415,-0.80921704,0.74709755,-1.4500606,-0.60693276,0.8450947,-3.2144408,1.3449637,-1.9960212,-0.50430965,-0.34090924,0.75316685,0.01778997,-3.3045819,0.35248038
MUC20,1.0937412,-3.1970506,-2.9150605,0.7842258,1.4859471,0.9547969,-3.3268094,-2.3792586,0.093556955,0.07274892,-3.1001801,-2.1611614,-2.0617056,1.9831316,-2.6097305,-2.5333478,-0.8227726,0.41459525,1.4975011,-1.8791534
ATP5ME,0.055925645,1.2001123,0.6864729,-0.462557,0.23526095,-0.69720244,0.28924024,0.04451898,-0.7247919,-1.6048111,-0.061375476,1.2272313,-1.7242073,-0.6932256,0.32456106,-0.62959754,-0.19411945,0.28915608,-0.9160507,1.1399795
SPON2,-3.6938446,-1.9567443,1.2936989,-0.26955476,-3.491762,-0.11540718,0.5551909,0.9363503,-0.08703648,1.0598453,1.2957672,-0.20895013,2.1160336,-2.5622761,-0.8959612,-0.9524772,-2.4303873,-3.0735765,0.078867026,0.23693576
CTBP1,0.68360466,-1.1941417,-2.8567371,0.26271942,0.86702174,0.35134333,-3.1220217,0.13116102,-0.4113709,0.6518362,-1.9593284,-2.6438189,1.5898511,0.5756943,-1.1910548,0.41697347,-2.5949008,0.43465605,0.6471848,-1.1475186
MXD4,-1.0555568,-2.7247381,1.0776201,-0.20430526,-1.5190362,0.58420163,-0.02017262,1.0809045,-0.27220306,0.445247,0.74971056,-0.2116085,2.0264478,-0.8001565,-1.6566105,0.5585864,-2.0790303,-2.9055648,-1.3802239,-1.6602008
SH3BP2,0.8287504,-3.3181984,-0.9670517,0.5099823,0.56134284,0.020848973,-3.1627643,0.04475461,0.04615354,0.15917766,0.3111983,-2.9758422,0.8726155,0.0025017946,-0.11107121,-0.34798178,-0.37447396,0.53918695,-0.09485537,-0.9685338
ADD1,0.026033616,0.1634986,-0.50332886,0.03802193,0.44105032,0.16146204,-1.4632618,0.4845581,-0.43545294,0.065272,0.2873472,-0.63255423,0.8780649,0.6369892,-0.74245375,-0.3312788,-0.34663332,-0.1793709,-0.0808695,-2.520133
MFSD10,0.062136944,-3.470609,0.5568536,0.22598064,0.3640356,0.12288248,-0.12056571,-3.4152005,0.06963013,0.6891067,-0.49870026,0.4384679,1.2273033,0.19546597,-3.183973,0.6859982,-2.715813,0.6886612,-0.085538775,-2.2774804
LRPAP1,-0.57154346,-2.2553291,0.35317823,-0.105723575,0.2215045,0.40479276,0.50360143,-1.0465294,0.055770062,0.43704468,-0.46876448,0.10790301,0.9288804,0.055660117,0.11183429,0.29478917,-1.8638936,0.119851574,0.47596622,-2.9325097
MRFAP1,-0.06663789,0.6981786,-1.0457939,0.12640288,0.19279683,0.49977946,-0.5880538,0.092102304,-0.14284395,0.033192784,0.13486473,-2.701021,0.54939455,0.014485543,-2.0220945,0.6334323,0.57128596,0.4806346,-0.3193588,-0.00035174887
WDR1,-0.44947797,-0.86368847,0.13923444,-0.09414468,0.21210682,-0.10815106,0.40319973,0.4776539,-0.00229047,0.2118531,0.73302656,-0.91000473,0.961232,-0.3909315,-0.7678148,0.27664858,0.08241672,-0.6557059,0.23579077,-1.7160721
CPEB2,0.29622608,-3.3822405,-2.176153,0.20417003,0.73301953,0.82428426,-2.678116,-0.23287159,0.6193549,0.8320303,-2.801581,-2.2561784,-0.44058105,1.6972276,-2.3421218,-1.0353619,-2.1302066,-0.5500614,1.4921914,-2.598892
FBXL5,0.5227145,1.0259933,-1.4686264,-0.3511336,0.31585643,0.3811641,-3.087351,-0.14268272,-0.101986,0.12768558,-0.89787096,-2.631654,0.1140848,0.20254946,-0.2210915,0.028203413,0.5278385,-0.028446475,0.3508965,1.1333141
FAM200B,-0.33744794,0.04791858,-2.1877117,0.14627449,0.47028017,0.5437847,-2.741443,-1.1104664,0.18914914,0.5280368,-1.4621545,-3.1883337,0.63918465,-0.4806317,-0.75550896,0.9434297,0.6210942,-1.6889905,0.4809819,-0.29839233
LAP3,-2.6044612,-2.874548,-1.5524544,-3.0562253,-0.47664914,0.3816998,-0.5115033,-0.8106417,0.9832142,1.6057681,0.8231208,-2.7072878,-0.41165125,-0.37161803,-2.4691577,0.9847387,-1.3383834,-2.7107356,1.8680089,-2.3275313
RBM47,0.426962,0.86257434,-2.4843383,-0.025281604,1.2460644,0.24003075,-3.7030022,-2.1779826,-0.058969762,0.13222404,-0.32930365,-2.9650774,-1.2011747,0.62538576,-2.6897297,-0.7332347,0.733463,0.9639086,0.8150086,0.42684868
OCIAD1,0.4250891,0.57025987,-0.9546645,-0.04925763,0.6728543,0.16224074,-3.6510062,-0.016807036,-0.15205728,0.34010673,-0.40055236,-3.0321264,0.097593136,0.3351451,-1.4732673,0.59166557,0.6552661,0.2556553,0.14568403,0.4527095
OCIAD2,0.12730174,1.4475867,-1.1472732,-0.038462754,0.49716976,-0.04732394,-0.79158527,-0.91457736,-0.19569868,-0.19634801,-0.7631372,-0.6750441,-1.1685818,0.11741906,0.42039147,0.23353586,0.4859947,0.479143,-0.08697823,1.115214
SGCB,0.1084112,0.12715709,-2.3800855,0.06361989,0.9228769,0.79093546,-0.9904934,-3.4626725,0.3508719,-0.058917698,-2.266912,-2.645261,0.63342834,1.0069528,-2.2557862,-1.3812273,0.53974843,-0.3629095,0.774274,0.55394465
KDR,0.26329675,0.77161026,-0.14500366,-0.55147016,-0.6914803,0.20711963,-1.1708568,0.78678054,-0.513844,0.40898767,1.0095319,0.03902041,1.9634135,0.24851161,-1.536528,-2.7647755,-2.9109364,-0.3184166,-2.9987402,0.14998825
UGT2A3,-0.07585529,-2.0551167,-2.757395,0.50063306,1.7193435,1.2669953,-3.3620844,-1.7906829,-0.26729065,-1.6235092,-2.608417,-2.6052232,-2.4252121,2.064828,-2.2773502,-2.1579494,0.5340525,-1.1466459,0.78488016,0.8453094
UGT2B7,0.50432104,1.2428931,-0.9487863,-0.120396934,0.81722265,-0.014767666,-1.3389499,-0.38785687,-0.33196646,-0.6837435,0.035311688,-2.8017092,-1.8304269,0.20057046,0.27396706,-0.62727374,0.78333706,0.8785165,-0.22364135,1.0120113
JCHAIN,-3.0937066,-2.682429,2.5798018,-3.2795887,-2.9037547,-2.748389,1.7679217,-2.4366393,-0.8337002,-2.2028267,2.7192786,1.3796755,-1.804411,-2.5214884,-2.168399,0.47981727,-2.4410374,-2.6104558,-2.4927497,-2.2920299
SLC4A4,0.8921902,-0.37691933,-3.3283987,0.2275894,1.4562961,0.2576564,-3.576766,-1.3755338,0.4907663,-0.94876903,-2.910633,-2.9789438,-0.8277579,1.3121647,-1.1873953,-2.3922524,0.6319914,0.9329505,0.95123696,-0.15069775
CXCL10,-3.4375203,-3.2244105,-0.12388226,-3.9303286,-3.5949397,-3.4009213,-2.8186443,-3.390576,1.613016,2.1778326,0.6776658,-2.5543878,-2.3228045,-3.080233,0.047797237,1.5091771,-3.0757234,-3.2690225,2.5972147,-2.7629356
SCARB2,-0.09206445,1.0572561,-2.2641492,0.22489025,0.45934469,0.06942963,-0.4484023,-1.0937625,-0.33828628,-0.100771494,0.09336606,0.30937424,-0.2790786,0.23870623,-1.220457,-1.0101697,0.56087744,0.22842208,-0.07789539,0.34790808
CCNI,-0.58076817,1.2180326,0.77142,-0.48713607,-0.18616858,-0.2081046,0.3354881,-0.14063124,-0.4750355,-0.6680652,0.07861944,0.77122474,-1.8859302,-1.479336,0.42122668,-0.016953599,0.65350246,-0.48355463,-0.48530194,1.2217349
CCNG2,0.40081328,-3.14811,-3.0400047,0.5555084,0.9207686,0.5322302,-2.6034098,-3.5382466,0.23302859,0.7969176,-0.12766474,-2.8406744,0.23297562,0.9149233,-0.384308,-0.5752024,-0.22078961,0.73592824,0.9486826,-2.8448691
HNRNPD,0.30757868,0.8070164,-1.062757,0.033268593,0.32996255,0.1688813,-1.9197754,0.21311983,-0.15224636,0.0056804386,0.24650517,-3.043644,0.6026683,-0.47415036,0.22745328,0.38149413,0.657599,0.6855575,-0.74560094,-0.16331288
HNRNPDL,0.30382672,0.8591336,-0.8969536,-0.027682466,0.3063838,0.07232873,-0.4244589,0.19433013,-0.28183547,-0.10888695,0.23198883,-1.2218606,0.44758302,-0.64273477,0.4167718,0.27800837,0.58651686,0.40411747,-1.080678,-0.018168112
SEC31A,1.0073678,-0.48989892,-1.506347,-0.127539,0.9441678,0.21387291,-3.2616146,-0.037029024,-0.054864746,0.012766222,-1.1761951,-2.9964168,0.7964734,0.11545659,0.13249202,-2.2684214,0.83562195,1.0060481,0.44337124,-0.10695934
MRPS18C,-3.541966,-0.1584425,-1.6856474,-1.7513702,-0.26663345,1.1137962,-3.0263405,-1.9477152,0.785074,1.4917231,-1.2864914,-1.9901906,-0.06350395,-1.186194,-0.15223971,1.6053586,-0.102719605,-2.4633698,1.5491363,-2.9564815
AFF1,0.72020406,0.38285747,-0.80717254,0.38912252,0.8466744,0.41689047,-3.6841311,-0.50999594,-0.4505628,-0.51749015,-1.0543269,0.563787,0.3651869,0.6516507,-2.9355874,-1.7998977,0.84968346,0.82325697,-0.1744801,0.3438162
FAM13A,0.38634884,0.27816156,-3.1321962,0.18260597,0.91194594,0.27330896,-3.6947038,-1.2383791,-0.027428748,0.2862606,-2.5041623,-2.14324,0.37288362,-0.16476092,0.43992025,-0.27613938,0.61450344,0.61693364,0.5167163,0.4410013
PDLIM5,-0.59169817,-1.0688471,0.23194227,-0.20436276,0.5548762,0.102719836,0.40477645,-0.11588843,-0.08157737,0.3954608,0.579846,-0.16862032,0.28875896,0.8842417,-0.6313006,-1.1102129,0.33187196,-1.212145,0.41446054,-0.6870625
ADH5,0.05129085,0.651395,-2.8452227,0.005028873,0.68016744,0.43075192,-1.2540662,-2.4887261,0.09526202,0.21676381,-1.1217611,-3.1391208,0.011310665,0.36071593,-0.059887484,0.106591165,0.65098447,0.46704352,0.25531507,0.3149485
